34 256
24 -0.072868384 0.056160185 -0.020155134 0.19238046 0.119709864 0.16958657 -0.25410968 -0.08424604 -0.060165398 -0.009078903 0.16855143 -0.17838274 -0.03378899 -0.00089180045 0.04216635 -0.030453417 -0.12694868 -0.012423232 0.14114596 -0.012059532 -0.11584073 -0.0071854633 -0.08303142 0.20169407 -0.06922557 0.12371762 -0.022224462 0.3476708 0.00056838343 -0.07719124 0.19391093 0.157229 -0.075946234 0.02879938 0.04261401 0.055532604 -0.07479144 0.021453217 -0.117887676 -0.04624369 0.10103701 0.035325643 -0.07900047 -0.11198497 0.09865217 -0.09275995 0.032731056 -0.005551594 0.04626026 -0.0066194558 0.20002796 0.06845513 -0.017813012 -0.038173836 0.043782186 -0.017258324 -0.16683362 -0.15448405 0.054289896 -0.0049500302 0.06444112 -0.025835348 0.033031866 0.015893709 0.062555045 -0.0101585 0.08316052 0.10554266 -0.07703552 -0.04268845 0.043278378 0.21253301 -0.11844383 -0.2688362 0.0016443336 0.06966966 -0.08596546 0.10327526 -0.004252839 -0.099366166 0.07899388 -0.097653896 0.21631655 -0.07212511 0.12119485 0.1263706 0.055565346 -0.024926364 0.04080717 0.15399605 -0.0281227 0.0076745474 -0.014461485 -0.11789615 -0.021381551 -0.0419387 0.06738809 0.18942098 -0.017408594 0.08697321 -0.10785613 0.10082592 -0.15162285 0.16678245 -0.005799371 -0.2926852 0.0742628 0.05904833 -0.122602545 0.08031177 -0.003846465 0.019750828 -0.06420332 0.004001688 0.012826551 0.015019912 -0.11060398 0.081987835 -0.048997283 -0.13532214 0.030733438 -0.07609098 -0.056932267 0.035201732 -0.04409741 -0.17310685 0.08226213 0.055095766 -0.10186357 0.08099608 -0.12521355 0.1456406 -0.028312068 -0.13320473 -0.019525785 -0.069738105 0.016633196 -0.118511535 0.089307725 0.16995454 0.024043018 -0.047706727 -0.16295153 -0.15410158 -0.18088675 -0.11955711 -0.05068192 -0.064884685 0.0450251 -0.026744645 -0.16141492 0.20089029 0.0839601 0.075839296 -0.13315295 -0.022703672 -0.19147019 0.14547338 0.08780763 0.09434789 -0.005558304 0.006733593 0.03351966 0.12823932 -0.06327639 -0.079981536 -0.21101435 0.04682913 0.17712611 0.10697229 -0.040802736 0.1737115 -0.06858101 -0.018653 0.11124815 -0.017747372 -0.05170243 -0.06823942 -0.2309532 0.033535153 -0.07699712 -0.19425094 0.06786054 -0.1716712 -0.05796292 -0.064185396 -0.030076245 0.15553 -0.096354745 0.05480165 0.04239203 -0.19013482 0.050694868 0.04920408 0.13594922 0.0924791 -0.0012766361 -0.10473963 0.06449798 0.06005836 0.03272246 0.06665404 0.023596501 -0.06236152 0.006940451 0.07873155 0.12651557 -0.035928 0.22458957 0.16783738 -0.016522575 0.09012492 -0.15230204 0.02110965 -0.15996817 0.05667076 -0.17273511 0.169498 -0.014742692 -0.12620324 -0.0292831 -0.041105255 -0.0679737 0.07562225 0.13062905 0.18705127 -0.17778257 0.08755454 0.040459488 0.032997787 0.037891258 0.047758825 0.04889146 -0.080682665 -0.09540908 0.09250853 -0.06436381 0.19208078 -0.14316788 -0.02787681 -0.0013507515 0.06332937 -0.1115201 -0.019479778 0.09676445 0.18032697 -0.11426236 -0.18666162 -0.041181214 0.005289486 -0.29314232 -0.028228687 0.03623964 0.07319623 0.14854674 0.1808106
0 -0.08614382 0.060443543 -0.018872265 0.22721586 0.14484511 0.20537078 -0.29626906 -0.09404268 -0.066813074 -0.007677519 0.19471192 -0.21306762 -0.04073028 -0.005182715 0.05126237 -0.037594922 -0.14782527 -0.011601065 0.16823971 -0.012357576 -0.13832907 -0.010904181 -0.09734355 0.23514602 -0.08231003 0.14457439 -0.020339195 0.4100129 0.0026160842 -0.095899306 0.22804487 0.18891692 -0.0944781 0.036122914 0.051712327 0.06995198 -0.09188804 0.024933293 -0.13316694 -0.057905775 0.11235375 0.03602661 -0.090679064 -0.13690625 0.11652428 -0.10988819 0.035166837 -0.003964504 0.058312885 -0.006074461 0.2398066 0.07558261 -0.016833812 -0.040730573 0.05454259 -0.018537935 -0.1976789 -0.17895699 0.060020905 -0.011843726 0.07897921 -0.032506578 0.03577147 0.021405047 0.07489248 -0.014116414 0.096445404 0.12351518 -0.09313728 -0.05094666 0.047784828 0.25101855 -0.13616145 -0.31976086 0.005426663 0.08687059 -0.10189197 0.12064786 -0.004305744 -0.115480155 0.087419786 -0.11722917 0.25061175 -0.08468573 0.14367688 0.14135544 0.068168305 -0.034217816 0.048206154 0.17983577 -0.030059231 0.0076860464 -0.01871368 -0.13697305 -0.023014145 -0.04717049 0.071315706 0.22118339 -0.015640473 0.10294288 -0.1267203 0.118094146 -0.18316625 0.19677864 -0.008217694 -0.3458893 0.09380096 0.062369104 -0.1478769 0.08604626 0.0022259585 0.029661715 -0.08110409 0.005640752 0.021314772 0.013909491 -0.13182598 0.09333697 -0.06237823 -0.15854517 0.039602377 -0.08760291 -0.06126906 0.043390624 -0.05669822 -0.20155342 0.093789935 0.059369992 -0.10186357 0.08099608 -0.12521355 0.1456406 -0.028312068 -0.13320473 -0.019525785 -0.069738105 0.016633196 -0.118511535 0.089307725 0.16995454 0.024043018 -0.047706727 -0.16295153 -0.15410158 -0.18088675 -0.11955711 -0.05068192 -0.064884685 0.0450251 -0.026744645 -0.16141492 0.20089029 0.0839601 0.075839296 -0.13315295 -0.022703672 -0.19147019 0.14547338 0.08780763 0.09434789 -0.005558304 0.006733593 0.03351966 0.12823932 -0.06327639 -0.079981536 -0.21101435 0.04682913 0.17712611 0.10697229 -0.040802736 0.1737115 -0.06858101 -0.018653 0.11124815 -0.017747372 -0.05170243 -0.06823942 -0.2309532 0.033535153 -0.07699712 -0.19425094 0.06786054 -0.1716712 -0.05796292 -0.064185396 -0.030076245 0.15553 -0.096354745 0.05480165 0.04239203 -0.19013482 0.050694868 0.04920408 0.13594922 0.0924791 -0.0012766361 -0.10473963 0.06449798 0.06005836 0.03272246 0.06665404 0.023596501 -0.06236152 0.006940451 0.07873155 0.12651557 -0.035928 0.22458957 0.16783738 -0.016522575 0.09012492 -0.15230204 0.02110965 -0.15996817 0.05667076 -0.17273511 0.169498 -0.014742692 -0.12620324 -0.0292831 -0.041105255 -0.0679737 0.07562225 0.13062905 0.18705127 -0.17778257 0.08755454 0.040459488 0.032997787 0.037891258 0.047758825 0.04889146 -0.080682665 -0.09540908 0.09250853 -0.06436381 0.19208078 -0.14316788 -0.02787681 -0.0013507515 0.06332937 -0.1115201 -0.019479778 0.09676445 0.18032697 -0.11426236 -0.18666162 -0.041181214 0.005289486 -0.29314232 -0.028228687 0.03623964 0.07319623 0.14854674 0.1808106
25 -0.07999191 0.057352148 -0.016481282 0.21292022 0.13212301 0.18303771 -0.269103 -0.089972846 -0.063601114 -0.012785809 0.18447395 -0.1901575 -0.03213796 -0.007398617 0.04626117 -0.03662655 -0.13988088 -0.01657889 0.15267459 -0.009608517 -0.12678666 -0.013756064 -0.08988156 0.2180768 -0.078539714 0.12846419 -0.023112498 0.37969106 0.0005609573 -0.08468406 0.21529093 0.1717254 -0.08797197 0.030003691 0.045208007 0.06452561 -0.083846875 0.016405968 -0.12641272 -0.051441487 0.10503185 0.03667937 -0.084268056 -0.1187819 0.11066719 -0.10014412 0.032742452 -0.0027409557 0.051659223 -0.004729404 0.21605177 0.0723445 -0.016012384 -0.043067932 0.048426326 -0.016798666 -0.18153194 -0.16083184 0.055783965 -0.0058193905 0.072915286 -0.02292102 0.032979246 0.014373506 0.07355427 -0.008918929 0.090786174 0.11702357 -0.09023032 -0.04922705 0.044007115 0.23535645 -0.120765015 -0.29133284 0.0030372196 0.07902378 -0.098336555 0.114077374 -0.006089888 -0.108691365 0.085092 -0.10355537 0.22934176 -0.07300009 0.12994769 0.12897085 0.055941977 -0.031572588 0.037845254 0.16730396 -0.024881039 -0.000976822 -0.016632626 -0.12803547 -0.024664091 -0.040620368 0.0699945 0.20735744 -0.014949906 0.09524588 -0.11269636 0.11128163 -0.16729333 0.17955396 -0.008646907 -0.31752098 0.08358235 0.06019838 -0.13615976 0.08316892 -0.0018623325 0.025613409 -0.07519244 0.0041910233 0.017433133 0.011950634 -0.119069226 0.08492924 -0.05923314 -0.1434472 0.039011933 -0.07380449 -0.06324614 0.043105092 -0.05181025 -0.18421406 0.08946567 0.059379306 -0.10186357 0.08099608 -0.12521355 0.1456406 -0.028312068 -0.13320473 -0.019525785 -0.069738105 0.016633196 -0.118511535 0.089307725 0.16995454 0.024043018 -0.047706727 -0.16295153 -0.15410158 -0.18088675 -0.11955711 -0.05068192 -0.064884685 0.0450251 -0.026744645 -0.16141492 0.20089029 0.0839601 0.075839296 -0.13315295 -0.022703672 -0.19147019 0.14547338 0.08780763 0.09434789 -0.005558304 0.006733593 0.03351966 0.12823932 -0.06327639 -0.079981536 -0.21101435 0.04682913 0.17712611 0.10697229 -0.040802736 0.1737115 -0.06858101 -0.018653 0.11124815 -0.017747372 -0.05170243 -0.06823942 -0.2309532 0.033535153 -0.07699712 -0.19425094 0.06786054 -0.1716712 -0.05796292 -0.064185396 -0.030076245 0.15553 -0.096354745 0.05480165 0.04239203 -0.19013482 0.050694868 0.04920408 0.13594922 0.0924791 -0.0012766361 -0.10473963 0.06449798 0.06005836 0.03272246 0.06665404 0.023596501 -0.06236152 0.006940451 0.07873155 0.12651557 -0.035928 0.22458957 0.16783738 -0.016522575 0.09012492 -0.15230204 0.02110965 -0.15996817 0.05667076 -0.17273511 0.169498 -0.014742692 -0.12620324 -0.0292831 -0.041105255 -0.0679737 0.07562225 0.13062905 0.18705127 -0.17778257 0.08755454 0.040459488 0.032997787 0.037891258 0.047758825 0.04889146 -0.080682665 -0.09540908 0.09250853 -0.06436381 0.19208078 -0.14316788 -0.02787681 -0.0013507515 0.06332937 -0.1115201 -0.019479778 0.09676445 0.18032697 -0.11426236 -0.18666162 -0.041181214 0.005289486 -0.29314232 -0.028228687 0.03623964 0.07319623 0.14854674 0.1808106
6 -0.078735985 0.057891108 -0.020388741 0.20452622 0.12806597 0.184165 -0.26599047 -0.08393259 -0.06370572 -0.010990723 0.18009278 -0.18756199 -0.03402162 -0.0043405727 0.048088036 -0.033985462 -0.13641773 -0.0144552365 0.14919248 -0.010590764 -0.12728587 -0.010702928 -0.08627877 0.2103179 -0.07528135 0.12772413 -0.019494668 0.366979 0.0072083445 -0.08617451 0.20987256 0.16197799 -0.0829232 0.03218327 0.044570632 0.06101305 -0.07990843 0.020519624 -0.11671823 -0.05013026 0.1030847 0.032100376 -0.081651144 -0.120203085 0.10885001 -0.098847926 0.032840326 -0.00415148 0.05122337 -0.0064037982 0.21101454 0.07037828 -0.019598585 -0.036591012 0.047338385 -0.012862096 -0.17558232 -0.15711954 0.056444135 -0.007915185 0.0718498 -0.023839887 0.031448845 0.015849637 0.07137293 -0.0117451865 0.08259439 0.10821672 -0.08685611 -0.04508786 0.04250462 0.22908328 -0.117834486 -0.28567722 0.0031783858 0.07362559 -0.095550664 0.10871676 -0.007630867 -0.10882815 0.078749515 -0.10564274 0.22805625 -0.07407297 0.13253616 0.13174029 0.057516802 -0.028814364 0.041773748 0.15874891 -0.02600091 0.004623919 -0.015529836 -0.1277024 -0.022924457 -0.039620154 0.07156205 0.19926508 -0.016804554 0.09024169 -0.11196608 0.106528856 -0.1600507 0.18016241 -0.009836466 -0.3053513 0.08345306 0.060237367 -0.12616642 0.08525406 0.0016877244 0.022222932 -0.07470201 0.0039305463 0.016191274 0.014346327 -0.1171121 0.079336464 -0.049798448 -0.1416559 0.037362203 -0.07499376 -0.055054903 0.036609277 -0.050808568 -0.18430397 0.088447325 0.056192715 -0.10186357 0.08099608 -0.12521355 0.1456406 -0.028312068 -0.13320473 -0.019525785 -0.069738105 0.016633196 -0.118511535 0.089307725 0.16995454 0.024043018 -0.047706727 -0.16295153 -0.15410158 -0.18088675 -0.11955711 -0.05068192 -0.064884685 0.0450251 -0.026744645 -0.16141492 0.20089029 0.0839601 0.075839296 -0.13315295 -0.022703672 -0.19147019 0.14547338 0.08780763 0.09434789 -0.005558304 0.006733593 0.03351966 0.12823932 -0.06327639 -0.079981536 -0.21101435 0.04682913 0.17712611 0.10697229 -0.040802736 0.1737115 -0.06858101 -0.018653 0.11124815 -0.017747372 -0.05170243 -0.06823942 -0.2309532 0.033535153 -0.07699712 -0.19425094 0.06786054 -0.1716712 -0.05796292 -0.064185396 -0.030076245 0.15553 -0.096354745 0.05480165 0.04239203 -0.19013482 0.050694868 0.04920408 0.13594922 0.0924791 -0.0012766361 -0.10473963 0.06449798 0.06005836 0.03272246 0.06665404 0.023596501 -0.06236152 0.006940451 0.07873155 0.12651557 -0.035928 0.22458957 0.16783738 -0.016522575 0.09012492 -0.15230204 0.02110965 -0.15996817 0.05667076 -0.17273511 0.169498 -0.014742692 -0.12620324 -0.0292831 -0.041105255 -0.0679737 0.07562225 0.13062905 0.18705127 -0.17778257 0.08755454 0.040459488 0.032997787 0.037891258 0.047758825 0.04889146 -0.080682665 -0.09540908 0.09250853 -0.06436381 0.19208078 -0.14316788 -0.02787681 -0.0013507515 0.06332937 -0.1115201 -0.019479778 0.09676445 0.18032697 -0.11426236 -0.18666162 -0.041181214 0.005289486 -0.29314232 -0.028228687 0.03623964 0.07319623 0.14854674 0.1808106
22 -0.06361001 0.050607577 -0.013293365 0.17978743 0.11434949 0.15867932 -0.23091717 -0.07835274 -0.058073383 -0.012350968 0.15459372 -0.1669814 -0.029464787 0.0004891805 0.04184411 -0.025466738 -0.115673184 -0.013620066 0.13568436 -0.009295773 -0.110365205 -0.0071136453 -0.07489001 0.18195781 -0.06859522 0.1140506 -0.01985854 0.3246921 0.0015966499 -0.07391603 0.1811997 0.14657089 -0.07005093 0.024797082 0.03852525 0.05540069 -0.06990317 0.020171518 -0.10611503 -0.041278347 0.090922646 0.027919266 -0.07373805 -0.10540742 0.097230166 -0.08501163 0.029550811 -0.005696959 0.042171195 -0.0056543266 0.18827248 0.06399712 -0.013011259 -0.036162503 0.040697843 -0.012418302 -0.15397418 -0.14025466 0.049573857 -0.008773227 0.06237852 -0.0210878 0.031787854 0.015229122 0.058201037 -0.012319126 0.07589727 0.09878777 -0.07635158 -0.04041251 0.035604358 0.1979402 -0.10955965 -0.24962752 -0.0012076469 0.06861104 -0.08072805 0.09642612 -0.0052062706 -0.09590858 0.0705807 -0.09179716 0.19965473 -0.06317661 0.11518678 0.110648096 0.05025283 -0.023801472 0.039145034 0.14106925 -0.026847064 0.0039034437 -0.010724213 -0.109450005 -0.01917394 -0.035501387 0.06324474 0.17633705 -0.01172385 0.08137791 -0.101457745 0.09538329 -0.14537321 0.15228632 -0.010455827 -0.27208784 0.073298685 0.04733707 -0.115100734 0.06832398 0.00072729634 0.02112093 -0.06257675 -0.00024660202 0.016105277 0.011087384 -0.100998215 0.072234154 -0.04579321 -0.12569663 0.03315548 -0.066931576 -0.052230254 0.03189694 -0.044365507 -0.16193669 0.08005004 0.047283385 -0.09628693 0.08450285 -0.13371609 0.12383246 -0.044760555 -0.1589919 -0.0033427062 -0.06404631 0.019592857 -0.11929111 0.07157815 0.19149913 0.023636196 -0.038603544 -0.1792019 -0.15103324 -0.17050837 -0.118859604 -0.066950165 -0.071701474 0.059879895 -0.018230617 -0.158802 0.1872165 0.0997213 0.07257698 -0.13652837 -0.065820314 -0.20024204 0.1654292 0.06182125 0.08030756 0.009012032 0.0037916075 0.032189712 0.12337906 -0.052855354 -0.07466462 -0.20759887 0.053924415 0.17627157 0.11140075 -0.033097018 0.18754302 -0.084724344 -0.01144455 0.11766639 -0.02221686 -0.0635888 -0.07319836 -0.2613682 0.029245371 -0.08528174 -0.20173481 0.06233397 -0.17734733 -0.040651094 -0.06379556 -0.03473856 0.16366908 -0.11501177 0.053529732 0.04645884 -0.19475229 0.03920711 0.051512606 0.13207893 0.07979869 0.017250014 -0.101058684 0.067100324 0.035456978 0.03375345 0.09541393 0.019506216 -0.07537186 0.023723967 0.06844703 0.13359694 -0.023644587 0.22633709 0.18227483 -0.03503065 0.09120535 -0.16783234 0.020448823 -0.16629462 0.06805426 -0.1770779 0.15819941 -0.019969791 -0.11957522 -0.026826607 -0.027685113 -0.069334574 0.07664297 0.13453631 0.17216367 -0.1906721 0.08333755 0.04827328 0.02134986 0.06199836 0.03226802 0.056898884 -0.05276098 -0.110991865 0.092684425 -0.04978452 0.19658996 -0.15325782 -0.039965734 0.014452935 0.064604305 -0.123924695 -0.014641728 0.11493575 0.18297534 -0.10727936 -0.18382862 -0.053074844 0.0016313737 -0.29759958 -0.037929367 0.048280813 0.092137784 0.14757486 0.18211961
26 -0.08012458 0.06437339 -0.02026022 0.22096233 0.13991573 0.19856621 -0.2837907 -0.09226883 -0.065984815 -0.014226108 0.19290476 -0.20223762 -0.035741195 -0.005400784 0.0526878 -0.03778957 -0.14236282 -0.01553807 0.16654688 -0.010718823 -0.13622823 -0.011587485 -0.09315656 0.2287979 -0.0803989 0.14099118 -0.020926 0.39579502 0.001066843 -0.086803995 0.22336693 0.17944752 -0.08911222 0.033108085 0.045940988 0.06771081 -0.08521369 0.020533904 -0.13072498 -0.05715435 0.1098938 0.03521622 -0.08361084 -0.1315519 0.116796136 -0.101089224 0.035668913 -0.005046723 0.05136142 -0.0031791634 0.22820088 0.074962914 -0.017373074 -0.0436038 0.051212016 -0.012404251 -0.19165726 -0.17489879 0.05985281 -0.007434023 0.07853235 -0.030168856 0.035385266 0.020926863 0.075243786 -0.011124288 0.09040651 0.11630979 -0.090130836 -0.04964133 0.042441048 0.24542654 -0.12962185 -0.30599648 -0.002034675 0.082844004 -0.104005836 0.12003637 -0.0050795265 -0.1193622 0.08553107 -0.107864395 0.24493633 -0.08006894 0.14137833 0.1430417 0.06492574 -0.029863466 0.04046898 0.17385916 -0.026512135 0.0030785403 -0.012405971 -0.13671318 -0.021381536 -0.042813126 0.07308472 0.21288374 -0.0155682415 0.09443476 -0.11863543 0.112457015 -0.17377743 0.19397508 -0.013332386 -0.33505943 0.09103997 0.06298734 -0.13520597 0.08902041 0.001696717 0.025778914 -0.07763402 -0.0016465518 0.015489547 0.0115863895 -0.13079827 0.090540424 -0.06160233 -0.15126052 0.042104416 -0.08010258 -0.06034189 0.037872758 -0.054021243 -0.19750506 0.09696136 0.057998 -0.10186357 0.08099608 -0.12521355 0.1456406 -0.028312068 -0.13320473 -0.019525785 -0.069738105 0.016633196 -0.118511535 0.089307725 0.16995454 0.024043018 -0.047706727 -0.16295153 -0.15410158 -0.18088675 -0.11955711 -0.05068192 -0.064884685 0.0450251 -0.026744645 -0.16141492 0.20089029 0.0839601 0.075839296 -0.13315295 -0.022703672 -0.19147019 0.14547338 0.08780763 0.09434789 -0.005558304 0.006733593 0.03351966 0.12823932 -0.06327639 -0.079981536 -0.21101435 0.04682913 0.17712611 0.10697229 -0.040802736 0.1737115 -0.06858101 -0.018653 0.11124815 -0.017747372 -0.05170243 -0.06823942 -0.2309532 0.033535153 -0.07699712 -0.19425094 0.06786054 -0.1716712 -0.05796292 -0.064185396 -0.030076245 0.15553 -0.096354745 0.05480165 0.04239203 -0.19013482 0.050694868 0.04920408 0.13594922 0.0924791 -0.0012766361 -0.10473963 0.06449798 0.06005836 0.03272246 0.06665404 0.023596501 -0.06236152 0.006940451 0.07873155 0.12651557 -0.035928 0.22458957 0.16783738 -0.016522575 0.09012492 -0.15230204 0.02110965 -0.15996817 0.05667076 -0.17273511 0.169498 -0.014742692 -0.12620324 -0.0292831 -0.041105255 -0.0679737 0.07562225 0.13062905 0.18705127 -0.17778257 0.08755454 0.040459488 0.032997787 0.037891258 0.047758825 0.04889146 -0.080682665 -0.09540908 0.09250853 -0.06436381 0.19208078 -0.14316788 -0.02787681 -0.0013507515 0.06332937 -0.1115201 -0.019479778 0.09676445 0.18032697 -0.11426236 -0.18666162 -0.041181214 0.005289486 -0.29314232 -0.028228687 0.03623964 0.07319623 0.14854674 0.1808106
2 -0.07916683 0.06394674 -0.02029796 0.22694331 0.14125785 0.19979042 -0.29141074 -0.09307483 -0.07122751 -0.011061082 0.19522317 -0.20386437 -0.036442965 -0.002990639 0.056254566 -0.03567234 -0.14829446 -0.017618494 0.16248757 -0.0144388 -0.13771728 -0.008481668 -0.097002074 0.22796348 -0.080784045 0.14343154 -0.022259574 0.4064774 -0.00089191843 -0.088322975 0.22512367 0.18227968 -0.08876626 0.035082087 0.04677943 0.06893188 -0.088664055 0.02488737 -0.13153797 -0.049433693 0.108059354 0.039594658 -0.0886861 -0.13106751 0.11465649 -0.106758356 0.03187327 -0.0069851256 0.056920562 -0.0034927803 0.23000176 0.08011683 -0.016883858 -0.041302357 0.049187962 -0.015879976 -0.18828116 -0.17782943 0.06567111 -0.0044201952 0.07668993 -0.030822292 0.038696893 0.015836854 0.077505596 -0.013821126 0.09335628 0.12424639 -0.08829765 -0.04948233 0.048375618 0.24683718 -0.12920463 -0.31151125 -8.601346e-07 0.07928524 -0.09902584 0.120446146 -0.004695451 -0.11574196 0.08992402 -0.11606964 0.2500775 -0.077157624 0.14139265 0.14476548 0.06233949 -0.031629026 0.04343929 0.17637208 -0.03151698 0.0057846745 -0.017866617 -0.13876699 -0.026415244 -0.048485402 0.07446798 0.2203837 -0.018582564 0.0989496 -0.12215851 0.11404466 -0.18062305 0.18951105 -0.0146253165 -0.3350447 0.09024337 0.06362945 -0.14014369 0.085568525 0.0021653946 0.028474633 -0.076014124 0.0012653038 0.016894422 0.015412421 -0.1263458 0.093153305 -0.059187192 -0.1518789 0.043266576 -0.07843034 -0.06206242 0.043004666 -0.055405673 -0.19699083 0.096936375 0.06130924 -0.10186357 0.08099608 -0.12521355 0.1456406 -0.028312068 -0.13320473 -0.019525785 -0.069738105 0.016633196 -0.118511535 0.089307725 0.16995454 0.024043018 -0.047706727 -0.16295153 -0.15410158 -0.18088675 -0.11955711 -0.05068192 -0.064884685 0.0450251 -0.026744645 -0.16141492 0.20089029 0.0839601 0.075839296 -0.13315295 -0.022703672 -0.19147019 0.14547338 0.08780763 0.09434789 -0.005558304 0.006733593 0.03351966 0.12823932 -0.06327639 -0.079981536 -0.21101435 0.04682913 0.17712611 0.10697229 -0.040802736 0.1737115 -0.06858101 -0.018653 0.11124815 -0.017747372 -0.05170243 -0.06823942 -0.2309532 0.033535153 -0.07699712 -0.19425094 0.06786054 -0.1716712 -0.05796292 -0.064185396 -0.030076245 0.15553 -0.096354745 0.05480165 0.04239203 -0.19013482 0.050694868 0.04920408 0.13594922 0.0924791 -0.0012766361 -0.10473963 0.06449798 0.06005836 0.03272246 0.06665404 0.023596501 -0.06236152 0.006940451 0.07873155 0.12651557 -0.035928 0.22458957 0.16783738 -0.016522575 0.09012492 -0.15230204 0.02110965 -0.15996817 0.05667076 -0.17273511 0.169498 -0.014742692 -0.12620324 -0.0292831 -0.041105255 -0.0679737 0.07562225 0.13062905 0.18705127 -0.17778257 0.08755454 0.040459488 0.032997787 0.037891258 0.047758825 0.04889146 -0.080682665 -0.09540908 0.09250853 -0.06436381 0.19208078 -0.14316788 -0.02787681 -0.0013507515 0.06332937 -0.1115201 -0.019479778 0.09676445 0.18032697 -0.11426236 -0.18666162 -0.041181214 0.005289486 -0.29314232 -0.028228687 0.03623964 0.07319623 0.14854674 0.1808106
27 -0.073317885 0.053282388 -0.014590767 0.1917642 0.11765348 0.17100179 -0.2529552 -0.08047757 -0.061563756 -0.013778957 0.1683265 -0.1754541 -0.032212205 -0.001836851 0.04622603 -0.03096042 -0.122139476 -0.010316755 0.13915186 -0.009301607 -0.11675625 -0.006524182 -0.08342918 0.19716454 -0.07560724 0.12046846 -0.022049196 0.34949788 0.005064345 -0.07778369 0.19704735 0.15389118 -0.07577055 0.027702503 0.04279549 0.057264753 -0.07749162 0.015674464 -0.11735847 -0.049407527 0.09574112 0.03063024 -0.080249056 -0.11132711 0.09970507 -0.089609645 0.02970924 -0.00473327 0.047268875 -0.0035259258 0.20366067 0.06659684 -0.012781238 -0.040339623 0.044365253 -0.01632734 -0.16573903 -0.15463433 0.054172736 -0.010398575 0.07016936 -0.021906605 0.03478726 0.018503787 0.06301794 -0.012316985 0.07973534 0.10516536 -0.07588558 -0.039083518 0.04096932 0.21569121 -0.112237066 -0.27000508 -0.00079264044 0.069500126 -0.09100076 0.10591637 -0.008723246 -0.1018152 0.07846757 -0.098587096 0.21665722 -0.07214791 0.122888595 0.1211903 0.058799185 -0.02886102 0.03815856 0.1514652 -0.021862376 0.00016701715 -0.010977774 -0.1140567 -0.02381594 -0.039376013 0.06302173 0.19030333 -0.012983601 0.08613599 -0.10618255 0.09973971 -0.15504378 0.16242559 -0.008462651 -0.29249102 0.07737642 0.058158632 -0.12310539 0.07495514 -0.0023741494 0.025273701 -0.06326178 0.004850553 0.018146401 0.011718852 -0.11431559 0.076722234 -0.051174935 -0.13372205 0.034386978 -0.072282925 -0.051597547 0.03364926 -0.044915438 -0.17423248 0.0820903 0.051563755 -0.10186357 0.08099608 -0.12521355 0.1456406 -0.028312068 -0.13320473 -0.019525785 -0.069738105 0.016633196 -0.118511535 0.089307725 0.16995454 0.024043018 -0.047706727 -0.16295153 -0.15410158 -0.18088675 -0.11955711 -0.05068192 -0.064884685 0.0450251 -0.026744645 -0.16141492 0.20089029 0.0839601 0.075839296 -0.13315295 -0.022703672 -0.19147019 0.14547338 0.08780763 0.09434789 -0.005558304 0.006733593 0.03351966 0.12823932 -0.06327639 -0.079981536 -0.21101435 0.04682913 0.17712611 0.10697229 -0.040802736 0.1737115 -0.06858101 -0.018653 0.11124815 -0.017747372 -0.05170243 -0.06823942 -0.2309532 0.033535153 -0.07699712 -0.19425094 0.06786054 -0.1716712 -0.05796292 -0.064185396 -0.030076245 0.15553 -0.096354745 0.05480165 0.04239203 -0.19013482 0.050694868 0.04920408 0.13594922 0.0924791 -0.0012766361 -0.10473963 0.06449798 0.06005836 0.03272246 0.06665404 0.023596501 -0.06236152 0.006940451 0.07873155 0.12651557 -0.035928 0.22458957 0.16783738 -0.016522575 0.09012492 -0.15230204 0.02110965 -0.15996817 0.05667076 -0.17273511 0.169498 -0.014742692 -0.12620324 -0.0292831 -0.041105255 -0.0679737 0.07562225 0.13062905 0.18705127 -0.17778257 0.08755454 0.040459488 0.032997787 0.037891258 0.047758825 0.04889146 -0.080682665 -0.09540908 0.09250853 -0.06436381 0.19208078 -0.14316788 -0.02787681 -0.0013507515 0.06332937 -0.1115201 -0.019479778 0.09676445 0.18032697 -0.11426236 -0.18666162 -0.041181214 0.005289486 -0.29314232 -0.028228687 0.03623964 0.07319623 0.14854674 0.1808106
20 -0.085759535 0.0614378 -0.01762229 0.22463846 0.14108391 0.19727854 -0.2906462 -0.09115863 -0.06759307 -0.012193151 0.19905157 -0.20259358 -0.034575023 -0.007952816 0.050641846 -0.039867096 -0.1469733 -0.016623173 0.16960722 -0.014427518 -0.13275646 -0.009450568 -0.09076707 0.23146999 -0.083098084 0.14061 -0.026480671 0.4042858 0.0025074221 -0.09035626 0.22733541 0.18051705 -0.09436249 0.028366145 0.049902078 0.06484152 -0.083453946 0.019198775 -0.13350521 -0.05520604 0.115094155 0.03835779 -0.09222135 -0.13356955 0.117009416 -0.10456192 0.03664453 -0.007908327 0.050809845 -0.002948884 0.237182 0.074766435 -0.016673734 -0.041429985 0.049208876 -0.011652635 -0.19185951 -0.17868926 0.06354244 -0.004397777 0.08064103 -0.02710187 0.03913012 0.019490605 0.07488247 -0.012012953 0.09583443 0.12062433 -0.08976738 -0.052955616 0.04784732 0.24745019 -0.13060677 -0.31325445 0.002890846 0.08122821 -0.10632048 0.124121375 -0.008896325 -0.115502045 0.090199314 -0.115733504 0.2448831 -0.08421469 0.13924176 0.14142457 0.05918681 -0.036757912 0.04596778 0.17809618 -0.032470103 0.0010361993 -0.018204251 -0.13316508 -0.022660684 -0.04523169 0.07492495 0.22153065 -0.016973618 0.10151413 -0.12228742 0.11522 -0.18213397 0.19765586 -0.014745141 -0.34184426 0.08944721 0.06350001 -0.14456318 0.09112213 -0.0037407964 0.026684726 -0.07697991 -0.0010197457 0.018120246 0.016933773 -0.130069 0.090967506 -0.060874805 -0.15192159 0.044164054 -0.08373471 -0.060869657 0.038006846 -0.051315468 -0.20484164 0.09403263 0.060298026 -0.09628693 0.08450285 -0.13371609 0.12383246 -0.044760555 -0.1589919 -0.0033427062 -0.06404631 0.019592857 -0.11929111 0.07157815 0.19149913 0.023636196 -0.038603544 -0.1792019 -0.15103324 -0.17050837 -0.118859604 -0.066950165 -0.071701474 0.059879895 -0.018230617 -0.158802 0.1872165 0.0997213 0.07257698 -0.13652837 -0.065820314 -0.20024204 0.1654292 0.06182125 0.08030756 0.009012032 0.0037916075 0.032189712 0.12337906 -0.052855354 -0.07466462 -0.20759887 0.053924415 0.17627157 0.11140075 -0.033097018 0.18754302 -0.084724344 -0.01144455 0.11766639 -0.02221686 -0.0635888 -0.07319836 -0.2613682 0.029245371 -0.08528174 -0.20173481 0.06233397 -0.17734733 -0.040651094 -0.06379556 -0.03473856 0.16366908 -0.11501177 0.053529732 0.04645884 -0.19475229 0.03920711 0.051512606 0.13207893 0.07979869 0.017250014 -0.101058684 0.067100324 0.035456978 0.03375345 0.09541393 0.019506216 -0.07537186 0.023723967 0.06844703 0.13359694 -0.023644587 0.22633709 0.18227483 -0.03503065 0.09120535 -0.16783234 0.020448823 -0.16629462 0.06805426 -0.1770779 0.15819941 -0.019969791 -0.11957522 -0.026826607 -0.027685113 -0.069334574 0.07664297 0.13453631 0.17216367 -0.1906721 0.08333755 0.04827328 0.02134986 0.06199836 0.03226802 0.056898884 -0.05276098 -0.110991865 0.092684425 -0.04978452 0.19658996 -0.15325782 -0.039965734 0.014452935 0.064604305 -0.123924695 -0.014641728 0.11493575 0.18297534 -0.10727936 -0.18382862 -0.053074844 0.0016313737 -0.29759958 -0.037929367 0.048280813 0.092137784 0.14757486 0.18211961
21 -0.08766875 0.06720594 -0.019906916 0.22762737 0.14198011 0.20013303 -0.29673374 -0.10006166 -0.07027066 -0.01441121 0.19685696 -0.21208984 -0.03462843 -0.008613521 0.057746578 -0.040066425 -0.14800774 -0.019154621 0.17039238 -0.014617017 -0.13689543 -0.009522762 -0.0977761 0.23421872 -0.087071255 0.14462693 -0.022153085 0.4082756 0.005708149 -0.09771561 0.23371606 0.1838918 -0.09333448 0.03499504 0.04971143 0.07085536 -0.09088297 0.01766905 -0.13142969 -0.052036755 0.11623861 0.03870535 -0.089731574 -0.13057886 0.117502816 -0.10534067 0.03705933 -0.004120173 0.054793924 -0.0022441254 0.2336332 0.08153967 -0.014637479 -0.044893842 0.047831997 -0.017814027 -0.19722554 -0.17414343 0.063408986 -0.009236347 0.07692126 -0.030122686 0.038120594 0.017116586 0.07670003 -0.012888468 0.099021725 0.12305491 -0.09521349 -0.049690776 0.044572882 0.25144124 -0.13591479 -0.31512162 0.0046740207 0.08362111 -0.10309035 0.12264872 -0.0055328705 -0.12172385 0.088768095 -0.11195444 0.25203487 -0.0792768 0.1432988 0.14327908 0.06724504 -0.036554422 0.0466454 0.18267985 -0.03027292 0.001320572 -0.013107013 -0.14023344 -0.022051444 -0.046565 0.08040187 0.22227585 -0.013349182 0.09691305 -0.121579796 0.114267915 -0.18303695 0.1998439 -0.015646007 -0.34030202 0.09339883 0.065707825 -0.14646477 0.09273803 -0.0015761598 0.023761213 -0.076262176 0.0054849917 0.018316204 0.017865779 -0.13292222 0.09338286 -0.06101314 -0.15575823 0.037881523 -0.08005792 -0.06614152 0.03867584 -0.05755029 -0.20774852 0.0974548 0.06306457 -0.10186357 0.08099608 -0.12521355 0.1456406 -0.028312068 -0.13320473 -0.019525785 -0.069738105 0.016633196 -0.118511535 0.089307725 0.16995454 0.024043018 -0.047706727 -0.16295153 -0.15410158 -0.18088675 -0.11955711 -0.05068192 -0.064884685 0.0450251 -0.026744645 -0.16141492 0.20089029 0.0839601 0.075839296 -0.13315295 -0.022703672 -0.19147019 0.14547338 0.08780763 0.09434789 -0.005558304 0.006733593 0.03351966 0.12823932 -0.06327639 -0.079981536 -0.21101435 0.04682913 0.17712611 0.10697229 -0.040802736 0.1737115 -0.06858101 -0.018653 0.11124815 -0.017747372 -0.05170243 -0.06823942 -0.2309532 0.033535153 -0.07699712 -0.19425094 0.06786054 -0.1716712 -0.05796292 -0.064185396 -0.030076245 0.15553 -0.096354745 0.05480165 0.04239203 -0.19013482 0.050694868 0.04920408 0.13594922 0.0924791 -0.0012766361 -0.10473963 0.06449798 0.06005836 0.03272246 0.06665404 0.023596501 -0.06236152 0.006940451 0.07873155 0.12651557 -0.035928 0.22458957 0.16783738 -0.016522575 0.09012492 -0.15230204 0.02110965 -0.15996817 0.05667076 -0.17273511 0.169498 -0.014742692 -0.12620324 -0.0292831 -0.041105255 -0.0679737 0.07562225 0.13062905 0.18705127 -0.17778257 0.08755454 0.040459488 0.032997787 0.037891258 0.047758825 0.04889146 -0.080682665 -0.09540908 0.09250853 -0.06436381 0.19208078 -0.14316788 -0.02787681 -0.0013507515 0.06332937 -0.1115201 -0.019479778 0.09676445 0.18032697 -0.11426236 -0.18666162 -0.041181214 0.005289486 -0.29314232 -0.028228687 0.03623964 0.07319623 0.14854674 0.1808106
11 -0.07129453 0.05451121 -0.016774343 0.19862318 0.1286982 0.17507467 -0.26386586 -0.08646262 -0.063414715 -0.012807285 0.1719355 -0.18752925 -0.03374748 -0.0007706928 0.046010006 -0.03120726 -0.1326666 -0.017412433 0.14445598 -0.013427043 -0.122250184 -0.008617833 -0.082516655 0.20576596 -0.07528908 0.1285268 -0.017763523 0.36150685 -0.0008875437 -0.0853398 0.20518692 0.16024904 -0.08186079 0.026950572 0.044869043 0.059701238 -0.07805304 0.017298976 -0.1183452 -0.053201903 0.09932552 0.033536155 -0.08106104 -0.1209598 0.10440931 -0.09265704 0.03457582 -0.004594866 0.050093714 -0.0047101555 0.20665741 0.06734321 -0.014587509 -0.036539856 0.041663997 -0.01471503 -0.17230837 -0.1597479 0.058638617 -0.005656409 0.07081671 -0.023994736 0.037150603 0.017038045 0.071668886 -0.011405142 0.08585484 0.112003446 -0.081120886 -0.046417493 0.042399667 0.22184029 -0.119952954 -0.27914584 -0.0016849227 0.073705964 -0.089438796 0.1079866 -0.008707363 -0.10518326 0.08203919 -0.09856574 0.22413717 -0.07674463 0.1252669 0.13181081 0.054328766 -0.029562375 0.042052206 0.15497868 -0.024497231 0.0026502302 -0.016237447 -0.119314134 -0.024180647 -0.03982586 0.0694881 0.19639264 -0.013895589 0.08485682 -0.11153501 0.10386439 -0.1608308 0.17503789 -0.0075844945 -0.3058044 0.08354871 0.056831665 -0.123726875 0.08123356 0.00087584386 0.023288615 -0.07003752 0.00031823374 0.01255898 0.012709674 -0.119022295 0.07790445 -0.0546813 -0.13916875 0.038507197 -0.07753863 -0.058531746 0.038663737 -0.045453712 -0.1822893 0.08137234 0.058388017 -0.10186357 0.08099608 -0.12521355 0.1456406 -0.028312068 -0.13320473 -0.019525785 -0.069738105 0.016633196 -0.118511535 0.089307725 0.16995454 0.024043018 -0.047706727 -0.16295153 -0.15410158 -0.18088675 -0.11955711 -0.05068192 -0.064884685 0.0450251 -0.026744645 -0.16141492 0.20089029 0.0839601 0.075839296 -0.13315295 -0.022703672 -0.19147019 0.14547338 0.08780763 0.09434789 -0.005558304 0.006733593 0.03351966 0.12823932 -0.06327639 -0.079981536 -0.21101435 0.04682913 0.17712611 0.10697229 -0.040802736 0.1737115 -0.06858101 -0.018653 0.11124815 -0.017747372 -0.05170243 -0.06823942 -0.2309532 0.033535153 -0.07699712 -0.19425094 0.06786054 -0.1716712 -0.05796292 -0.064185396 -0.030076245 0.15553 -0.096354745 0.05480165 0.04239203 -0.19013482 0.050694868 0.04920408 0.13594922 0.0924791 -0.0012766361 -0.10473963 0.06449798 0.06005836 0.03272246 0.06665404 0.023596501 -0.06236152 0.006940451 0.07873155 0.12651557 -0.035928 0.22458957 0.16783738 -0.016522575 0.09012492 -0.15230204 0.02110965 -0.15996817 0.05667076 -0.17273511 0.169498 -0.014742692 -0.12620324 -0.0292831 -0.041105255 -0.0679737 0.07562225 0.13062905 0.18705127 -0.17778257 0.08755454 0.040459488 0.032997787 0.037891258 0.047758825 0.04889146 -0.080682665 -0.09540908 0.09250853 -0.06436381 0.19208078 -0.14316788 -0.02787681 -0.0013507515 0.06332937 -0.1115201 -0.019479778 0.09676445 0.18032697 -0.11426236 -0.18666162 -0.041181214 0.005289486 -0.29314232 -0.028228687 0.03623964 0.07319623 0.14854674 0.1808106
10 -0.07653788 0.05897091 -0.017954312 0.21233653 0.13160847 0.19062623 -0.2730791 -0.086243264 -0.06752909 -0.009018461 0.1844336 -0.19316487 -0.031423572 -0.002219601 0.050326176 -0.034989197 -0.13569334 -0.013332522 0.16027479 -0.008159146 -0.13119404 -0.012948856 -0.08655775 0.2192063 -0.07966205 0.1354035 -0.023635175 0.3809031 0.00307043 -0.088064514 0.21494928 0.17128709 -0.08851619 0.03038866 0.04860636 0.061416313 -0.0854056 0.022000987 -0.12411152 -0.054882176 0.10957399 0.035336588 -0.08053992 -0.12508824 0.10727068 -0.10147701 0.031745262 -0.002957979 0.049256485 -0.0036953525 0.22334754 0.07443148 -0.020060172 -0.04416455 0.047791794 -0.00996202 -0.17969161 -0.16277997 0.061157294 -0.0046230466 0.07060015 -0.02782815 0.03738814 0.020319095 0.073732555 -0.014039316 0.09222897 0.11727625 -0.09081977 -0.049969662 0.041447192 0.23692904 -0.12222119 -0.29463643 -0.001857277 0.07732343 -0.10105614 0.11818196 -0.0048622275 -0.11052085 0.083018415 -0.109873146 0.23143555 -0.07946939 0.13603513 0.13424116 0.057581928 -0.033940133 0.039869297 0.16451798 -0.02807762 0.0003725898 -0.013220328 -0.13187703 -0.024142317 -0.040375255 0.07539095 0.20907673 -0.017567482 0.09034779 -0.11842007 0.111211024 -0.17091407 0.18510757 -0.01355377 -0.32318553 0.087166004 0.061957534 -0.13696569 0.08360447 0.0021098144 0.02122789 -0.07759036 0.0014949709 0.019382041 0.011994324 -0.12302511 0.08625977 -0.05817082 -0.14779586 0.041276183 -0.08138482 -0.061303392 0.0395917 -0.052858885 -0.1949569 0.09046011 0.056317784 -0.10186357 0.08099608 -0.12521355 0.1456406 -0.028312068 -0.13320473 -0.019525785 -0.069738105 0.016633196 -0.118511535 0.089307725 0.16995454 0.024043018 -0.047706727 -0.16295153 -0.15410158 -0.18088675 -0.11955711 -0.05068192 -0.064884685 0.0450251 -0.026744645 -0.16141492 0.20089029 0.0839601 0.075839296 -0.13315295 -0.022703672 -0.19147019 0.14547338 0.08780763 0.09434789 -0.005558304 0.006733593 0.03351966 0.12823932 -0.06327639 -0.079981536 -0.21101435 0.04682913 0.17712611 0.10697229 -0.040802736 0.1737115 -0.06858101 -0.018653 0.11124815 -0.017747372 -0.05170243 -0.06823942 -0.2309532 0.033535153 -0.07699712 -0.19425094 0.06786054 -0.1716712 -0.05796292 -0.064185396 -0.030076245 0.15553 -0.096354745 0.05480165 0.04239203 -0.19013482 0.050694868 0.04920408 0.13594922 0.0924791 -0.0012766361 -0.10473963 0.06449798 0.06005836 0.03272246 0.06665404 0.023596501 -0.06236152 0.006940451 0.07873155 0.12651557 -0.035928 0.22458957 0.16783738 -0.016522575 0.09012492 -0.15230204 0.02110965 -0.15996817 0.05667076 -0.17273511 0.169498 -0.014742692 -0.12620324 -0.0292831 -0.041105255 -0.0679737 0.07562225 0.13062905 0.18705127 -0.17778257 0.08755454 0.040459488 0.032997787 0.037891258 0.047758825 0.04889146 -0.080682665 -0.09540908 0.09250853 -0.06436381 0.19208078 -0.14316788 -0.02787681 -0.0013507515 0.06332937 -0.1115201 -0.019479778 0.09676445 0.18032697 -0.11426236 -0.18666162 -0.041181214 0.005289486 -0.29314232 -0.028228687 0.03623964 0.07319623 0.14854674 0.1808106
13 -0.07916031 0.06278906 -0.02069405 0.20895888 0.13390252 0.18681479 -0.27230108 -0.0895991 -0.06840112 -0.00832134 0.18314475 -0.19094117 -0.03639948 -0.0062251147 0.050249923 -0.036312636 -0.13608128 -0.017033195 0.15170678 -0.011700951 -0.12633082 -0.010885897 -0.08308557 0.21082959 -0.07601492 0.13308305 -0.019635627 0.37426144 0.006452914 -0.082212985 0.20647918 0.17172596 -0.08884588 0.030757207 0.044877186 0.06444627 -0.0813912 0.016878894 -0.12083311 -0.05541449 0.10323658 0.039431628 -0.078540474 -0.12527603 0.11070981 -0.09542585 0.036188904 -0.006591622 0.049912725 -0.00052794133 0.21834107 0.07223282 -0.016022671 -0.042513072 0.04188313 -0.012023841 -0.18113442 -0.16396403 0.059519928 -0.0058085853 0.06878621 -0.024389718 0.034613714 0.018549554 0.074931726 -0.010860424 0.08688445 0.11248317 -0.08496083 -0.04775177 0.044594795 0.23354213 -0.12376343 -0.29331958 0.0014602698 0.07505729 -0.09962127 0.11529462 -0.0089359535 -0.10606502 0.08189005 -0.10600699 0.2271061 -0.08054933 0.13209419 0.13483535 0.056118082 -0.034873407 0.041014057 0.16387504 -0.025430745 0.0018058473 -0.016996479 -0.12613516 -0.024476584 -0.045547575 0.071156316 0.20627807 -0.016241757 0.089392714 -0.11328991 0.10924653 -0.16263892 0.1818823 -0.011695233 -0.31274822 0.08229893 0.056400083 -0.12988979 0.08621193 -0.0042066467 0.022016013 -0.076431975 0.0013678864 0.013587761 0.015275059 -0.11873524 0.0815995 -0.05790443 -0.13890426 0.03573089 -0.07763951 -0.054279882 0.039924923 -0.05172857 -0.19053338 0.0891768 0.054952662 -0.09628693 0.08450285 -0.13371609 0.12383246 -0.044760555 -0.1589919 -0.0033427062 -0.06404631 0.019592857 -0.11929111 0.07157815 0.19149913 0.023636196 -0.038603544 -0.1792019 -0.15103324 -0.17050837 -0.118859604 -0.066950165 -0.071701474 0.059879895 -0.018230617 -0.158802 0.1872165 0.0997213 0.07257698 -0.13652837 -0.065820314 -0.20024204 0.1654292 0.06182125 0.08030756 0.009012032 0.0037916075 0.032189712 0.12337906 -0.052855354 -0.07466462 -0.20759887 0.053924415 0.17627157 0.11140075 -0.033097018 0.18754302 -0.084724344 -0.01144455 0.11766639 -0.02221686 -0.0635888 -0.07319836 -0.2613682 0.029245371 -0.08528174 -0.20173481 0.06233397 -0.17734733 -0.040651094 -0.06379556 -0.03473856 0.16366908 -0.11501177 0.053529732 0.04645884 -0.19475229 0.03920711 0.051512606 0.13207893 0.07979869 0.017250014 -0.101058684 0.067100324 0.035456978 0.03375345 0.09541393 0.019506216 -0.07537186 0.023723967 0.06844703 0.13359694 -0.023644587 0.22633709 0.18227483 -0.03503065 0.09120535 -0.16783234 0.020448823 -0.16629462 0.06805426 -0.1770779 0.15819941 -0.019969791 -0.11957522 -0.026826607 -0.027685113 -0.069334574 0.07664297 0.13453631 0.17216367 -0.1906721 0.08333755 0.04827328 0.02134986 0.06199836 0.03226802 0.056898884 -0.05276098 -0.110991865 0.092684425 -0.04978452 0.19658996 -0.15325782 -0.039965734 0.014452935 0.064604305 -0.123924695 -0.014641728 0.11493575 0.18297534 -0.10727936 -0.18382862 -0.053074844 0.0016313737 -0.29759958 -0.037929367 0.048280813 0.092137784 0.14757486 0.18211961
12 -0.086687416 0.06565898 -0.020431617 0.22258441 0.14155784 0.20204447 -0.28939447 -0.096860655 -0.07194013 -0.014651958 0.19224256 -0.20563507 -0.035674065 -0.0065272907 0.050573938 -0.03807595 -0.14370887 -0.01248013 0.16545238 -0.013404976 -0.13441186 -0.013479366 -0.092800945 0.23222044 -0.08195361 0.14111765 -0.023274673 0.40551448 0.0077158953 -0.08958629 0.22645341 0.17750214 -0.092112415 0.031980667 0.04558594 0.06543708 -0.08701581 0.01957331 -0.1328738 -0.057683717 0.10958662 0.038383678 -0.08837989 -0.12789662 0.11980887 -0.1060425 0.038092267 -0.007125426 0.054910354 -0.0042334283 0.23660402 0.08031697 -0.019910447 -0.04286975 0.04655296 -0.015360786 -0.19090146 -0.17855872 0.059589274 -0.004695164 0.08054742 -0.029292084 0.038383946 0.017374652 0.07923086 -0.010739414 0.095754184 0.116677895 -0.088885985 -0.046919987 0.047162265 0.24944225 -0.13580684 -0.30984855 -0.0007514185 0.08480679 -0.1061314 0.12166495 -0.0068839043 -0.11917545 0.08901252 -0.11410955 0.24974477 -0.08406288 0.1453422 0.14602931 0.064053185 -0.029546637 0.047469623 0.17480522 -0.029876979 0.003142868 -0.010750464 -0.13691688 -0.019991659 -0.046702698 0.07753093 0.2188534 -0.018209392 0.09823871 -0.12124441 0.11407784 -0.18079475 0.19229187 -0.00823655 -0.33992264 0.08672541 0.06526385 -0.14130624 0.08889125 -0.0024516075 0.0263052 -0.07481938 0.0012763569 0.020189501 0.014501264 -0.12962121 0.092858166 -0.059758507 -0.14930998 0.04012116 -0.08268383 -0.063017294 0.042562842 -0.05592828 -0.1973211 0.090657085 0.058055725 -0.09628693 0.08450285 -0.13371609 0.12383246 -0.044760555 -0.1589919 -0.0033427062 -0.06404631 0.019592857 -0.11929111 0.07157815 0.19149913 0.023636196 -0.038603544 -0.1792019 -0.15103324 -0.17050837 -0.118859604 -0.066950165 -0.071701474 0.059879895 -0.018230617 -0.158802 0.1872165 0.0997213 0.07257698 -0.13652837 -0.065820314 -0.20024204 0.1654292 0.06182125 0.08030756 0.009012032 0.0037916075 0.032189712 0.12337906 -0.052855354 -0.07466462 -0.20759887 0.053924415 0.17627157 0.11140075 -0.033097018 0.18754302 -0.084724344 -0.01144455 0.11766639 -0.02221686 -0.0635888 -0.07319836 -0.2613682 0.029245371 -0.08528174 -0.20173481 0.06233397 -0.17734733 -0.040651094 -0.06379556 -0.03473856 0.16366908 -0.11501177 0.053529732 0.04645884 -0.19475229 0.03920711 0.051512606 0.13207893 0.07979869 0.017250014 -0.101058684 0.067100324 0.035456978 0.03375345 0.09541393 0.019506216 -0.07537186 0.023723967 0.06844703 0.13359694 -0.023644587 0.22633709 0.18227483 -0.03503065 0.09120535 -0.16783234 0.020448823 -0.16629462 0.06805426 -0.1770779 0.15819941 -0.019969791 -0.11957522 -0.026826607 -0.027685113 -0.069334574 0.07664297 0.13453631 0.17216367 -0.1906721 0.08333755 0.04827328 0.02134986 0.06199836 0.03226802 0.056898884 -0.05276098 -0.110991865 0.092684425 -0.04978452 0.19658996 -0.15325782 -0.039965734 0.014452935 0.064604305 -0.123924695 -0.014641728 0.11493575 0.18297534 -0.10727936 -0.18382862 -0.053074844 0.0016313737 -0.29759958 -0.037929367 0.048280813 0.092137784 0.14757486 0.18211961
15 -0.060722627 0.0487119 -0.014636766 0.16779056 0.107566655 0.14682865 -0.21308498 -0.070597485 -0.050404206 -0.011270536 0.14060494 -0.14897886 -0.024316814 -0.004504079 0.040624008 -0.028258411 -0.11012493 -0.011911318 0.12113416 -0.013003434 -0.10129004 -0.0054559615 -0.06689908 0.17085117 -0.06356269 0.102027625 -0.012782565 0.29913503 0.0004968417 -0.07006303 0.17126738 0.13133086 -0.070410565 0.021917341 0.03694915 0.050273433 -0.065002434 0.018055737 -0.096912816 -0.040802985 0.08005963 0.03141091 -0.06717818 -0.096458994 0.08989472 -0.08040439 0.029166497 -0.002461117 0.037566334 -0.00055860385 0.17649424 0.05809716 -0.011945615 -0.035220876 0.040212553 -0.012511217 -0.14642823 -0.12715855 0.050374284 -0.003592158 0.053138953 -0.02495391 0.029009704 0.012072571 0.059438404 -0.0060547 0.073861495 0.09087385 -0.06477083 -0.038303573 0.030756043 0.1861463 -0.10034965 -0.23134314 0.0022346757 0.061982047 -0.07675383 0.08865978 -0.008395818 -0.08628543 0.063406855 -0.081349365 0.18365003 -0.06395018 0.10874351 0.10752791 0.045190427 -0.028482137 0.032835092 0.12861551 -0.021332324 0.004011552 -0.008271236 -0.10385373 -0.015583961 -0.03510962 0.059236344 0.16381527 -0.01142944 0.07299772 -0.09328756 0.08250215 -0.13432702 0.14227667 -0.011574985 -0.2496895 0.06766657 0.043968305 -0.10625467 0.06297381 -0.0012842393 0.020003932 -0.0564925 0.0042707147 0.010922577 0.012413691 -0.09754926 0.06440669 -0.044026528 -0.1165178 0.032537587 -0.060179867 -0.049004126 0.032285936 -0.04095998 -0.14574288 0.07033041 0.04789728 -0.09628693 0.08450285 -0.13371609 0.12383246 -0.044760555 -0.1589919 -0.0033427062 -0.06404631 0.019592857 -0.11929111 0.07157815 0.19149913 0.023636196 -0.038603544 -0.1792019 -0.15103324 -0.17050837 -0.118859604 -0.066950165 -0.071701474 0.059879895 -0.018230617 -0.158802 0.1872165 0.0997213 0.07257698 -0.13652837 -0.065820314 -0.20024204 0.1654292 0.06182125 0.08030756 0.009012032 0.0037916075 0.032189712 0.12337906 -0.052855354 -0.07466462 -0.20759887 0.053924415 0.17627157 0.11140075 -0.033097018 0.18754302 -0.084724344 -0.01144455 0.11766639 -0.02221686 -0.0635888 -0.07319836 -0.2613682 0.029245371 -0.08528174 -0.20173481 0.06233397 -0.17734733 -0.040651094 -0.06379556 -0.03473856 0.16366908 -0.11501177 0.053529732 0.04645884 -0.19475229 0.03920711 0.051512606 0.13207893 0.07979869 0.017250014 -0.101058684 0.067100324 0.035456978 0.03375345 0.09541393 0.019506216 -0.07537186 0.023723967 0.06844703 0.13359694 -0.023644587 0.22633709 0.18227483 -0.03503065 0.09120535 -0.16783234 0.020448823 -0.16629462 0.06805426 -0.1770779 0.15819941 -0.019969791 -0.11957522 -0.026826607 -0.027685113 -0.069334574 0.07664297 0.13453631 0.17216367 -0.1906721 0.08333755 0.04827328 0.02134986 0.06199836 0.03226802 0.056898884 -0.05276098 -0.110991865 0.092684425 -0.04978452 0.19658996 -0.15325782 -0.039965734 0.014452935 0.064604305 -0.123924695 -0.014641728 0.11493575 0.18297534 -0.10727936 -0.18382862 -0.053074844 0.0016313737 -0.29759958 -0.037929367 0.048280813 0.092137784 0.14757486 0.18211961
14 -0.071343906 0.05252181 -0.016746813 0.18650042 0.1170897 0.16956313 -0.24583715 -0.07798036 -0.06070668 -0.011226844 0.16397208 -0.17357701 -0.032607 -0.0062883236 0.04964232 -0.031485207 -0.122912526 -0.016808547 0.13782197 -0.013039736 -0.112422764 -0.012936068 -0.07883227 0.19232072 -0.0728619 0.12177935 -0.01830944 0.34603083 0.002630696 -0.081826694 0.1912613 0.14901169 -0.07835011 0.027103808 0.040508162 0.053520564 -0.07305164 0.017454017 -0.11180731 -0.047991104 0.09318396 0.034848616 -0.07675562 -0.11052531 0.09869453 -0.08624821 0.031406894 -0.004887008 0.044182617 -0.0016526052 0.19888675 0.06780657 -0.011994179 -0.03354002 0.04266373 -0.011667195 -0.16500896 -0.14598331 0.056276787 -0.0028834522 0.0692737 -0.023717744 0.029816736 0.01449174 0.0680489 -0.010044139 0.082544714 0.1040731 -0.078119054 -0.04369826 0.038733225 0.20634401 -0.10900663 -0.26362306 -0.0029374303 0.072087444 -0.09032526 0.09900622 -0.006182973 -0.095359504 0.07140237 -0.09890611 0.21165802 -0.06591606 0.12212851 0.12002084 0.052950192 -0.028706351 0.038175598 0.15070209 -0.02283804 0.004081271 -0.013116425 -0.11624086 -0.021837406 -0.040257175 0.062208228 0.18569651 -0.011323658 0.08326285 -0.10639162 0.09512983 -0.14928457 0.16760573 -0.01394108 -0.28853598 0.07797234 0.0562015 -0.122054435 0.07621149 -0.00021323077 0.023376117 -0.06649005 0.00025176548 0.013112373 0.01104139 -0.11375815 0.07785335 -0.04811262 -0.12752281 0.030460062 -0.070367336 -0.055806875 0.035103064 -0.041768797 -0.17083709 0.07909533 0.05441329 -0.09628693 0.08450285 -0.13371609 0.12383246 -0.044760555 -0.1589919 -0.0033427062 -0.06404631 0.019592857 -0.11929111 0.07157815 0.19149913 0.023636196 -0.038603544 -0.1792019 -0.15103324 -0.17050837 -0.118859604 -0.066950165 -0.071701474 0.059879895 -0.018230617 -0.158802 0.1872165 0.0997213 0.07257698 -0.13652837 -0.065820314 -0.20024204 0.1654292 0.06182125 0.08030756 0.009012032 0.0037916075 0.032189712 0.12337906 -0.052855354 -0.07466462 -0.20759887 0.053924415 0.17627157 0.11140075 -0.033097018 0.18754302 -0.084724344 -0.01144455 0.11766639 -0.02221686 -0.0635888 -0.07319836 -0.2613682 0.029245371 -0.08528174 -0.20173481 0.06233397 -0.17734733 -0.040651094 -0.06379556 -0.03473856 0.16366908 -0.11501177 0.053529732 0.04645884 -0.19475229 0.03920711 0.051512606 0.13207893 0.07979869 0.017250014 -0.101058684 0.067100324 0.035456978 0.03375345 0.09541393 0.019506216 -0.07537186 0.023723967 0.06844703 0.13359694 -0.023644587 0.22633709 0.18227483 -0.03503065 0.09120535 -0.16783234 0.020448823 -0.16629462 0.06805426 -0.1770779 0.15819941 -0.019969791 -0.11957522 -0.026826607 -0.027685113 -0.069334574 0.07664297 0.13453631 0.17216367 -0.1906721 0.08333755 0.04827328 0.02134986 0.06199836 0.03226802 0.056898884 -0.05276098 -0.110991865 0.092684425 -0.04978452 0.19658996 -0.15325782 -0.039965734 0.014452935 0.064604305 -0.123924695 -0.014641728 0.11493575 0.18297534 -0.10727936 -0.18382862 -0.053074844 0.0016313737 -0.29759958 -0.037929367 0.048280813 0.092137784 0.14757486 0.18211961
17 -0.06636173 0.052020803 -0.013326837 0.19400537 0.11675079 0.16963324 -0.2449551 -0.08180108 -0.059903085 -0.008889141 0.16296886 -0.17642467 -0.030067055 -0.006225974 0.048334114 -0.028857457 -0.12029318 -0.012727738 0.13789688 -0.0069134417 -0.11267832 -0.009343064 -0.07660662 0.1983407 -0.06943496 0.11968686 -0.018642792 0.34674767 0.0036477644 -0.08039681 0.19460334 0.1541528 -0.07940441 0.02358679 0.0382575 0.05827282 -0.07152408 0.02012756 -0.11504492 -0.04987776 0.09750842 0.031106181 -0.07754145 -0.115581006 0.09624732 -0.09294768 0.026963506 -0.0045355028 0.048475005 -0.0005769864 0.20192914 0.06576291 -0.013723183 -0.036632407 0.03874531 -0.016196087 -0.16622329 -0.14491868 0.054535046 -0.008621674 0.06791202 -0.022702685 0.028279772 0.014801276 0.06710889 -0.013465123 0.08341621 0.10709243 -0.076276265 -0.04585887 0.03950121 0.21263647 -0.10979837 -0.26843765 0.0037928608 0.06898909 -0.08731711 0.10506033 -0.00434856 -0.10114345 0.07585283 -0.097553924 0.21326625 -0.066700734 0.119810075 0.12348278 0.05589194 -0.02551605 0.035549525 0.14806657 -0.027861686 0.00092908496 -0.014496402 -0.11440444 -0.020484118 -0.03700116 0.062109016 0.18320079 -0.01451109 0.08368012 -0.10550957 0.10133559 -0.1539816 0.16358584 -0.012324878 -0.28891543 0.07593508 0.054386303 -0.122877076 0.07341201 0.00027492203 0.024762975 -0.06940994 -0.000909053 0.012437348 0.01435064 -0.11263356 0.077703655 -0.0528466 -0.1277668 0.032521844 -0.06934536 -0.056054868 0.033745576 -0.047500048 -0.16991684 0.08226515 0.054817893 -0.10186357 0.08099608 -0.12521355 0.1456406 -0.028312068 -0.13320473 -0.019525785 -0.069738105 0.016633196 -0.118511535 0.089307725 0.16995454 0.024043018 -0.047706727 -0.16295153 -0.15410158 -0.18088675 -0.11955711 -0.05068192 -0.064884685 0.0450251 -0.026744645 -0.16141492 0.20089029 0.0839601 0.075839296 -0.13315295 -0.022703672 -0.19147019 0.14547338 0.08780763 0.09434789 -0.005558304 0.006733593 0.03351966 0.12823932 -0.06327639 -0.079981536 -0.21101435 0.04682913 0.17712611 0.10697229 -0.040802736 0.1737115 -0.06858101 -0.018653 0.11124815 -0.017747372 -0.05170243 -0.06823942 -0.2309532 0.033535153 -0.07699712 -0.19425094 0.06786054 -0.1716712 -0.05796292 -0.064185396 -0.030076245 0.15553 -0.096354745 0.05480165 0.04239203 -0.19013482 0.050694868 0.04920408 0.13594922 0.0924791 -0.0012766361 -0.10473963 0.06449798 0.06005836 0.03272246 0.06665404 0.023596501 -0.06236152 0.006940451 0.07873155 0.12651557 -0.035928 0.22458957 0.16783738 -0.016522575 0.09012492 -0.15230204 0.02110965 -0.15996817 0.05667076 -0.17273511 0.169498 -0.014742692 -0.12620324 -0.0292831 -0.041105255 -0.0679737 0.07562225 0.13062905 0.18705127 -0.17778257 0.08755454 0.040459488 0.032997787 0.037891258 0.047758825 0.04889146 -0.080682665 -0.09540908 0.09250853 -0.06436381 0.19208078 -0.14316788 -0.02787681 -0.0013507515 0.06332937 -0.1115201 -0.019479778 0.09676445 0.18032697 -0.11426236 -0.18666162 -0.041181214 0.005289486 -0.29314232 -0.028228687 0.03623964 0.07319623 0.14854674 0.1808106
23 -0.074456915 0.060025115 -0.01504548 0.20587331 0.12845427 0.18776818 -0.27351922 -0.08542037 -0.06447626 -0.012771205 0.184398 -0.1946166 -0.03305706 -0.0073684393 0.051182143 -0.036001917 -0.1341541 -0.01058463 0.1566896 -0.011943123 -0.1245961 -0.008456717 -0.08704449 0.21366806 -0.080699235 0.12933286 -0.023086663 0.37691113 0.0032397388 -0.085637175 0.21341537 0.16697304 -0.08460818 0.028420025 0.040251173 0.060730893 -0.08414176 0.018399026 -0.12160417 -0.046934586 0.101280004 0.03723155 -0.08259386 -0.12020682 0.10575008 -0.101260155 0.031408686 -0.0029468273 0.048483975 -0.0011773953 0.21527399 0.07081643 -0.020584583 -0.040005248 0.044621725 -0.012994797 -0.18204893 -0.1650386 0.054925874 -0.009927073 0.07335366 -0.027508158 0.033730954 0.017410511 0.07448928 -0.008834679 0.088762015 0.11515059 -0.088593505 -0.049036454 0.042066973 0.22911026 -0.12051953 -0.28983006 0.001443685 0.07958541 -0.095784955 0.11489377 -0.00862166 -0.11071445 0.08030885 -0.10444654 0.22725111 -0.07443939 0.1293444 0.12958486 0.06250608 -0.03236145 0.040997043 0.16337514 -0.026915617 0.0004968747 -0.011151775 -0.12279783 -0.019454923 -0.04387987 0.07030357 0.20064583 -0.014613457 0.09427167 -0.11555174 0.10719882 -0.16684034 0.18176201 -0.012352546 -0.31052035 0.08520726 0.061143994 -0.13143624 0.08090979 -0.0049532903 0.021985017 -0.07534893 0.0028611366 0.017375734 0.014389392 -0.118776545 0.08455712 -0.056814175 -0.14432672 0.034250967 -0.07826774 -0.060739655 0.038533755 -0.049866024 -0.18568537 0.08777921 0.059347052 -0.09628693 0.08450285 -0.13371609 0.12383246 -0.044760555 -0.1589919 -0.0033427062 -0.06404631 0.019592857 -0.11929111 0.07157815 0.19149913 0.023636196 -0.038603544 -0.1792019 -0.15103324 -0.17050837 -0.118859604 -0.066950165 -0.071701474 0.059879895 -0.018230617 -0.158802 0.1872165 0.0997213 0.07257698 -0.13652837 -0.065820314 -0.20024204 0.1654292 0.06182125 0.08030756 0.009012032 0.0037916075 0.032189712 0.12337906 -0.052855354 -0.07466462 -0.20759887 0.053924415 0.17627157 0.11140075 -0.033097018 0.18754302 -0.084724344 -0.01144455 0.11766639 -0.02221686 -0.0635888 -0.07319836 -0.2613682 0.029245371 -0.08528174 -0.20173481 0.06233397 -0.17734733 -0.040651094 -0.06379556 -0.03473856 0.16366908 -0.11501177 0.053529732 0.04645884 -0.19475229 0.03920711 0.051512606 0.13207893 0.07979869 0.017250014 -0.101058684 0.067100324 0.035456978 0.03375345 0.09541393 0.019506216 -0.07537186 0.023723967 0.06844703 0.13359694 -0.023644587 0.22633709 0.18227483 -0.03503065 0.09120535 -0.16783234 0.020448823 -0.16629462 0.06805426 -0.1770779 0.15819941 -0.019969791 -0.11957522 -0.026826607 -0.027685113 -0.069334574 0.07664297 0.13453631 0.17216367 -0.1906721 0.08333755 0.04827328 0.02134986 0.06199836 0.03226802 0.056898884 -0.05276098 -0.110991865 0.092684425 -0.04978452 0.19658996 -0.15325782 -0.039965734 0.014452935 0.064604305 -0.123924695 -0.014641728 0.11493575 0.18297534 -0.10727936 -0.18382862 -0.053074844 0.0016313737 -0.29759958 -0.037929367 0.048280813 0.092137784 0.14757486 0.18211961
19 -0.0626059 0.052465107 -0.015817659 0.17962743 0.10914441 0.15329753 -0.23274766 -0.0779472 -0.05496427 -0.012106211 0.15605092 -0.16665684 -0.02665939 0.00038419984 0.040834635 -0.027687492 -0.11333209 -0.013163909 0.12989137 -0.007720448 -0.109815195 -0.011692101 -0.075278215 0.17944594 -0.06791983 0.1084399 -0.020530157 0.32218868 0.001601123 -0.07199292 0.17903244 0.1419961 -0.06967814 0.024561822 0.040199712 0.04853178 -0.06814073 0.01542391 -0.105135925 -0.04423579 0.08872403 0.028374411 -0.07194118 -0.105434686 0.08856657 -0.08417333 0.023858838 -0.0013338109 0.045068137 -0.0019797382 0.18653503 0.064807765 -0.012546727 -0.033107385 0.035700206 -0.012913898 -0.1518592 -0.13745117 0.053032454 -0.008736513 0.06251632 -0.02443771 0.029348472 0.017921913 0.058910917 -0.010450127 0.0740719 0.09195845 -0.07312445 -0.038091034 0.036720112 0.19881119 -0.10432597 -0.24591929 0.0018558457 0.06214508 -0.07727286 0.09279396 -0.0065610292 -0.09390195 0.07035203 -0.08864631 0.19390468 -0.061032075 0.11408499 0.115172185 0.050169896 -0.02518349 0.034454245 0.1367584 -0.0227727 0.00071385613 -0.0136950705 -0.10670792 -0.022269694 -0.036611833 0.06289824 0.1742852 -0.015474958 0.078387454 -0.09891212 0.087754376 -0.14175868 0.15319294 -0.00826912 -0.2700607 0.07348674 0.049908087 -0.1087798 0.067940764 -0.0045423894 0.020397015 -0.061615564 -0.001909233 0.010484683 0.009078973 -0.10572386 0.06950259 -0.04517268 -0.12063352 0.03468022 -0.0687642 -0.04614159 0.03337534 -0.039689153 -0.16187574 0.071777664 0.05094477 -0.09628693 0.08450285 -0.13371609 0.12383246 -0.044760555 -0.1589919 -0.0033427062 -0.06404631 0.019592857 -0.11929111 0.07157815 0.19149913 0.023636196 -0.038603544 -0.1792019 -0.15103324 -0.17050837 -0.118859604 -0.066950165 -0.071701474 0.059879895 -0.018230617 -0.158802 0.1872165 0.0997213 0.07257698 -0.13652837 -0.065820314 -0.20024204 0.1654292 0.06182125 0.08030756 0.009012032 0.0037916075 0.032189712 0.12337906 -0.052855354 -0.07466462 -0.20759887 0.053924415 0.17627157 0.11140075 -0.033097018 0.18754302 -0.084724344 -0.01144455 0.11766639 -0.02221686 -0.0635888 -0.07319836 -0.2613682 0.029245371 -0.08528174 -0.20173481 0.06233397 -0.17734733 -0.040651094 -0.06379556 -0.03473856 0.16366908 -0.11501177 0.053529732 0.04645884 -0.19475229 0.03920711 0.051512606 0.13207893 0.07979869 0.017250014 -0.101058684 0.067100324 0.035456978 0.03375345 0.09541393 0.019506216 -0.07537186 0.023723967 0.06844703 0.13359694 -0.023644587 0.22633709 0.18227483 -0.03503065 0.09120535 -0.16783234 0.020448823 -0.16629462 0.06805426 -0.1770779 0.15819941 -0.019969791 -0.11957522 -0.026826607 -0.027685113 -0.069334574 0.07664297 0.13453631 0.17216367 -0.1906721 0.08333755 0.04827328 0.02134986 0.06199836 0.03226802 0.056898884 -0.05276098 -0.110991865 0.092684425 -0.04978452 0.19658996 -0.15325782 -0.039965734 0.014452935 0.064604305 -0.123924695 -0.014641728 0.11493575 0.18297534 -0.10727936 -0.18382862 -0.053074844 0.0016313737 -0.29759958 -0.037929367 0.048280813 0.092137784 0.14757486 0.18211961
32 -0.07355925 0.05522692 -0.016412001 0.19155686 0.120104335 0.16838796 -0.25142902 -0.084635116 -0.059025135 -0.007934407 0.16811995 -0.18197158 -0.02817385 -0.0015335331 0.045998514 -0.032390695 -0.12233102 -0.014051203 0.14478588 -0.0069418754 -0.12056269 -0.011012473 -0.08287544 0.20179985 -0.07210497 0.11823077 -0.017460717 0.3503066 0.0042817043 -0.07676697 0.19827986 0.15804867 -0.08003774 0.025626212 0.03896279 0.054416753 -0.07490636 0.019409021 -0.11353604 -0.04997962 0.09615085 0.036281817 -0.075878225 -0.114526264 0.10221676 -0.09249195 0.02672562 -0.0046244133 0.046034086 -0.0032834795 0.20527877 0.06868141 -0.013574263 -0.039001793 0.0422508 -0.013870655 -0.1653536 -0.15246852 0.05316119 -0.0037273641 0.06484023 -0.027423883 0.030388227 0.017861059 0.06677554 -0.008570114 0.080607094 0.10698314 -0.07819343 -0.041022375 0.041485805 0.21489815 -0.116170354 -0.27260575 0.002039593 0.07221889 -0.08788753 0.103132695 -0.0057804976 -0.10404694 0.076710515 -0.100555874 0.21636131 -0.07246656 0.12111745 0.1258903 0.058346577 -0.025790183 0.03806113 0.15474056 -0.023939172 0.0049447617 -0.01006826 -0.1157822 -0.020194443 -0.041007753 0.064312756 0.18463013 -0.014279477 0.08324212 -0.103271805 0.102009475 -0.15121607 0.16570368 -0.008431779 -0.29117653 0.07570755 0.057857826 -0.12411675 0.078612596 -0.0038481795 0.019204767 -0.06513214 0.0016682883 0.015364472 0.015362633 -0.11350181 0.08126151 -0.04676816 -0.12826964 0.032803316 -0.07237705 -0.051480044 0.03836322 -0.045127988 -0.17222564 0.08405727 0.05121102 -0.09628693 0.08450285 -0.13371609 0.12383246 -0.044760555 -0.1589919 -0.0033427062 -0.06404631 0.019592857 -0.11929111 0.07157815 0.19149913 0.023636196 -0.038603544 -0.1792019 -0.15103324 -0.17050837 -0.118859604 -0.066950165 -0.071701474 0.059879895 -0.018230617 -0.158802 0.1872165 0.0997213 0.07257698 -0.13652837 -0.065820314 -0.20024204 0.1654292 0.06182125 0.08030756 0.009012032 0.0037916075 0.032189712 0.12337906 -0.052855354 -0.07466462 -0.20759887 0.053924415 0.17627157 0.11140075 -0.033097018 0.18754302 -0.084724344 -0.01144455 0.11766639 -0.02221686 -0.0635888 -0.07319836 -0.2613682 0.029245371 -0.08528174 -0.20173481 0.06233397 -0.17734733 -0.040651094 -0.06379556 -0.03473856 0.16366908 -0.11501177 0.053529732 0.04645884 -0.19475229 0.03920711 0.051512606 0.13207893 0.07979869 0.017250014 -0.101058684 0.067100324 0.035456978 0.03375345 0.09541393 0.019506216 -0.07537186 0.023723967 0.06844703 0.13359694 -0.023644587 0.22633709 0.18227483 -0.03503065 0.09120535 -0.16783234 0.020448823 -0.16629462 0.06805426 -0.1770779 0.15819941 -0.019969791 -0.11957522 -0.026826607 -0.027685113 -0.069334574 0.07664297 0.13453631 0.17216367 -0.1906721 0.08333755 0.04827328 0.02134986 0.06199836 0.03226802 0.056898884 -0.05276098 -0.110991865 0.092684425 -0.04978452 0.19658996 -0.15325782 -0.039965734 0.014452935 0.064604305 -0.123924695 -0.014641728 0.11493575 0.18297534 -0.10727936 -0.18382862 -0.053074844 0.0016313737 -0.29759958 -0.037929367 0.048280813 0.092137784 0.14757486 0.18211961
31 -0.08244722 0.063891165 -0.017081376 0.22443263 0.13951084 0.20156898 -0.2869122 -0.095377095 -0.068652555 -0.009042426 0.19427961 -0.20309556 -0.033917494 -0.006741637 0.051095024 -0.03677952 -0.14700763 -0.012171694 0.16655144 -0.012547189 -0.13683952 -0.008256295 -0.090897545 0.23274057 -0.086961955 0.13726284 -0.026186282 0.4036882 0.0015115782 -0.08874772 0.2257815 0.1782367 -0.09435045 0.032118365 0.04499561 0.062955335 -0.08345075 0.024304586 -0.13464707 -0.0522534 0.11510752 0.038753007 -0.08753385 -0.12844475 0.11792637 -0.105819024 0.03553726 -0.0045204232 0.05610253 -0.005056601 0.23502801 0.080741204 -0.015997525 -0.040500887 0.050972763 -0.015078912 -0.19079621 -0.17129858 0.06413756 -0.0038236654 0.080842584 -0.027427826 0.036779985 0.021563571 0.073508576 -0.009706716 0.09229417 0.12100758 -0.091339745 -0.049970478 0.04829514 0.24760537 -0.13250673 -0.31098774 -0.0021037695 0.081772804 -0.1069203 0.121023364 -0.00614009 -0.11409405 0.0876541 -0.11530358 0.24773134 -0.081193455 0.13825805 0.13755728 0.06254227 -0.031411838 0.048363682 0.17796078 -0.027212575 0.0021585305 -0.013849478 -0.13696228 -0.021078732 -0.048347183 0.078164816 0.2186117 -0.01567329 0.09435332 -0.12299809 0.11713747 -0.17992383 0.18923442 -0.009933827 -0.33510652 0.085094646 0.068373606 -0.14099157 0.08976989 0.0006819102 0.027245047 -0.08099428 0.0006690775 0.015344386 0.015879259 -0.1331215 0.086064175 -0.060316537 -0.14836083 0.04263124 -0.08015191 -0.06671605 0.04275738 -0.057529893 -0.20280227 0.08963622 0.05841344 -0.10186357 0.08099608 -0.12521355 0.1456406 -0.028312068 -0.13320473 -0.019525785 -0.069738105 0.016633196 -0.118511535 0.089307725 0.16995454 0.024043018 -0.047706727 -0.16295153 -0.15410158 -0.18088675 -0.11955711 -0.05068192 -0.064884685 0.0450251 -0.026744645 -0.16141492 0.20089029 0.0839601 0.075839296 -0.13315295 -0.022703672 -0.19147019 0.14547338 0.08780763 0.09434789 -0.005558304 0.006733593 0.03351966 0.12823932 -0.06327639 -0.079981536 -0.21101435 0.04682913 0.17712611 0.10697229 -0.040802736 0.1737115 -0.06858101 -0.018653 0.11124815 -0.017747372 -0.05170243 -0.06823942 -0.2309532 0.033535153 -0.07699712 -0.19425094 0.06786054 -0.1716712 -0.05796292 -0.064185396 -0.030076245 0.15553 -0.096354745 0.05480165 0.04239203 -0.19013482 0.050694868 0.04920408 0.13594922 0.0924791 -0.0012766361 -0.10473963 0.06449798 0.06005836 0.03272246 0.06665404 0.023596501 -0.06236152 0.006940451 0.07873155 0.12651557 -0.035928 0.22458957 0.16783738 -0.016522575 0.09012492 -0.15230204 0.02110965 -0.15996817 0.05667076 -0.17273511 0.169498 -0.014742692 -0.12620324 -0.0292831 -0.041105255 -0.0679737 0.07562225 0.13062905 0.18705127 -0.17778257 0.08755454 0.040459488 0.032997787 0.037891258 0.047758825 0.04889146 -0.080682665 -0.09540908 0.09250853 -0.06436381 0.19208078 -0.14316788 -0.02787681 -0.0013507515 0.06332937 -0.1115201 -0.019479778 0.09676445 0.18032697 -0.11426236 -0.18666162 -0.041181214 0.005289486 -0.29314232 -0.028228687 0.03623964 0.07319623 0.14854674 0.1808106
30 -0.07990042 0.06353481 -0.019936917 0.22129191 0.14044502 0.19258012 -0.28751802 -0.09485126 -0.06844164 -0.012959638 0.1926556 -0.20415464 -0.03327441 -0.0016772805 0.052916672 -0.036937587 -0.14635308 -0.017082466 0.16609257 -0.013770547 -0.13198395 -0.011604957 -0.09528014 0.22908366 -0.08486448 0.13951622 -0.018379191 0.39777488 0.0016416605 -0.09392341 0.2231926 0.17965002 -0.09078798 0.03391915 0.04684692 0.061158683 -0.0827727 0.020225717 -0.1299695 -0.0496273 0.10988261 0.037094314 -0.08574358 -0.1310499 0.11470749 -0.10223115 0.03358691 -0.002919961 0.054617796 -0.0009408636 0.23201679 0.07344283 -0.018921046 -0.044771016 0.04640949 -0.012707494 -0.19228156 -0.17372173 0.06339688 -0.0074306433 0.07397195 -0.027682852 0.039634317 0.014078043 0.07582935 -0.010457538 0.09625445 0.11645743 -0.08890472 -0.052224766 0.04144161 0.24448444 -0.13446048 -0.30897102 -0.0012257289 0.081161164 -0.0990106 0.12228835 -0.008471228 -0.11243158 0.08863191 -0.1078583 0.24069734 -0.08180993 0.14106843 0.1396513 0.06202909 -0.03606224 0.040037468 0.1714758 -0.031336658 0.004102584 -0.011390437 -0.13432717 -0.023979718 -0.042486735 0.07190179 0.21643884 -0.012275472 0.09726541 -0.11816825 0.1104096 -0.17412318 0.18860498 -0.011665455 -0.33279952 0.09115638 0.062015355 -0.1398788 0.089175105 -0.0039358186 0.025347412 -0.073827565 0.0040981974 0.016253583 0.016576365 -0.12380901 0.09286788 -0.055546463 -0.15152323 0.038028695 -0.08019216 -0.062258057 0.040146876 -0.051339366 -0.20000921 0.09661664 0.06119918 -0.09628693 0.08450285 -0.13371609 0.12383246 -0.044760555 -0.1589919 -0.0033427062 -0.06404631 0.019592857 -0.11929111 0.07157815 0.19149913 0.023636196 -0.038603544 -0.1792019 -0.15103324 -0.17050837 -0.118859604 -0.066950165 -0.071701474 0.059879895 -0.018230617 -0.158802 0.1872165 0.0997213 0.07257698 -0.13652837 -0.065820314 -0.20024204 0.1654292 0.06182125 0.08030756 0.009012032 0.0037916075 0.032189712 0.12337906 -0.052855354 -0.07466462 -0.20759887 0.053924415 0.17627157 0.11140075 -0.033097018 0.18754302 -0.084724344 -0.01144455 0.11766639 -0.02221686 -0.0635888 -0.07319836 -0.2613682 0.029245371 -0.08528174 -0.20173481 0.06233397 -0.17734733 -0.040651094 -0.06379556 -0.03473856 0.16366908 -0.11501177 0.053529732 0.04645884 -0.19475229 0.03920711 0.051512606 0.13207893 0.07979869 0.017250014 -0.101058684 0.067100324 0.035456978 0.03375345 0.09541393 0.019506216 -0.07537186 0.023723967 0.06844703 0.13359694 -0.023644587 0.22633709 0.18227483 -0.03503065 0.09120535 -0.16783234 0.020448823 -0.16629462 0.06805426 -0.1770779 0.15819941 -0.019969791 -0.11957522 -0.026826607 -0.027685113 -0.069334574 0.07664297 0.13453631 0.17216367 -0.1906721 0.08333755 0.04827328 0.02134986 0.06199836 0.03226802 0.056898884 -0.05276098 -0.110991865 0.092684425 -0.04978452 0.19658996 -0.15325782 -0.039965734 0.014452935 0.064604305 -0.123924695 -0.014641728 0.11493575 0.18297534 -0.10727936 -0.18382862 -0.053074844 0.0016313737 -0.29759958 -0.037929367 0.048280813 0.092137784 0.14757486 0.18211961
28 -0.07688864 0.054226812 -0.014888266 0.20773697 0.13207771 0.18840656 -0.2716882 -0.08950756 -0.06790797 -0.011801 0.18326114 -0.1927951 -0.034067687 -0.007894076 0.052029334 -0.031386055 -0.13841617 -0.014100926 0.15052754 -0.007376556 -0.121734075 -0.010410678 -0.08244258 0.21145858 -0.07417707 0.12970318 -0.023190234 0.3769072 0.0041627274 -0.08777906 0.21197544 0.16859736 -0.083720066 0.03211524 0.041721005 0.0623525 -0.07863776 0.01552041 -0.124774314 -0.048173208 0.10460956 0.036135465 -0.083603084 -0.12274841 0.110386 -0.09803328 0.028543346 -0.001636976 0.048350498 -0.0007118215 0.21844682 0.07201507 -0.015838651 -0.03879199 0.046774775 -0.010885402 -0.17989627 -0.15797557 0.058083136 -0.009842162 0.07033624 -0.025338314 0.032083333 0.014416641 0.068221286 -0.007965958 0.08786485 0.11624869 -0.0868941 -0.045536183 0.04337607 0.23021002 -0.12500693 -0.28596514 0.004310886 0.07705498 -0.098960325 0.11412999 -0.010435508 -0.10915336 0.08457139 -0.10357509 0.23001266 -0.07427836 0.13307562 0.13377006 0.056800578 -0.033874966 0.042456213 0.16226931 -0.029136375 0.0033794306 -0.018393321 -0.12779254 -0.019740278 -0.04602693 0.06724762 0.19764832 -0.010862529 0.09105935 -0.11513183 0.110208906 -0.16471055 0.17883998 -0.009888655 -0.31448987 0.08104184 0.05819929 -0.13286793 0.083498776 0.00061544334 0.020635776 -0.0694343 0.0036990684 0.018791365 0.015349958 -0.12369363 0.08389799 -0.055338684 -0.13934565 0.03640388 -0.07474076 -0.05638541 0.040014714 -0.049278744 -0.18831521 0.088984534 0.05855272 -0.10186357 0.08099608 -0.12521355 0.1456406 -0.028312068 -0.13320473 -0.019525785 -0.069738105 0.016633196 -0.118511535 0.089307725 0.16995454 0.024043018 -0.047706727 -0.16295153 -0.15410158 -0.18088675 -0.11955711 -0.05068192 -0.064884685 0.0450251 -0.026744645 -0.16141492 0.20089029 0.0839601 0.075839296 -0.13315295 -0.022703672 -0.19147019 0.14547338 0.08780763 0.09434789 -0.005558304 0.006733593 0.03351966 0.12823932 -0.06327639 -0.079981536 -0.21101435 0.04682913 0.17712611 0.10697229 -0.040802736 0.1737115 -0.06858101 -0.018653 0.11124815 -0.017747372 -0.05170243 -0.06823942 -0.2309532 0.033535153 -0.07699712 -0.19425094 0.06786054 -0.1716712 -0.05796292 -0.064185396 -0.030076245 0.15553 -0.096354745 0.05480165 0.04239203 -0.19013482 0.050694868 0.04920408 0.13594922 0.0924791 -0.0012766361 -0.10473963 0.06449798 0.06005836 0.03272246 0.06665404 0.023596501 -0.06236152 0.006940451 0.07873155 0.12651557 -0.035928 0.22458957 0.16783738 -0.016522575 0.09012492 -0.15230204 0.02110965 -0.15996817 0.05667076 -0.17273511 0.169498 -0.014742692 -0.12620324 -0.0292831 -0.041105255 -0.0679737 0.07562225 0.13062905 0.18705127 -0.17778257 0.08755454 0.040459488 0.032997787 0.037891258 0.047758825 0.04889146 -0.080682665 -0.09540908 0.09250853 -0.06436381 0.19208078 -0.14316788 -0.02787681 -0.0013507515 0.06332937 -0.1115201 -0.019479778 0.09676445 0.18032697 -0.11426236 -0.18666162 -0.041181214 0.005289486 -0.29314232 -0.028228687 0.03623964 0.07319623 0.14854674 0.1808106
29 -0.07022785 0.05475986 -0.020139424 0.19865707 0.124244176 0.17975649 -0.2580202 -0.08260083 -0.06260087 -0.014092952 0.17097208 -0.18384096 -0.0343026 -0.0015728495 0.04916734 -0.03161484 -0.13012016 -0.01736013 0.14568156 -0.011016581 -0.1235669 -0.014365289 -0.08175135 0.20705107 -0.07613833 0.12847045 -0.02048149 0.36270267 0.003760439 -0.08044054 0.19909509 0.16185255 -0.07838623 0.02770601 0.04509769 0.062730074 -0.07880259 0.020042071 -0.114040025 -0.05247293 0.10400789 0.032454174 -0.07565357 -0.11597104 0.102203004 -0.09627615 0.032221045 -0.0021735567 0.051136505 -0.0019079354 0.21119487 0.07015207 -0.018461997 -0.03842524 0.042548493 -0.0099605005 -0.17308412 -0.15176864 0.056711186 -0.008889492 0.065804064 -0.026404705 0.030832428 0.017697306 0.06760009 -0.0072218915 0.087158725 0.105392076 -0.08294772 -0.045467623 0.041615736 0.22302508 -0.11782513 -0.2786759 -0.0010569536 0.0763785 -0.09607321 0.1111794 -0.008820119 -0.102558576 0.07781148 -0.096635915 0.21599714 -0.07550152 0.12857059 0.12712258 0.05453381 -0.034233246 0.03713342 0.15419844 -0.027660603 0.0055947066 -0.011259425 -0.11946775 -0.021816464 -0.03772423 0.066830054 0.19387424 -0.016358493 0.08975558 -0.109973885 0.10233823 -0.16080993 0.17613259 -0.0118404515 -0.30333892 0.08179472 0.054027174 -0.12915735 0.08269963 0.00044689473 0.023648879 -0.072354496 0.0022641402 0.016229553 0.01207949 -0.11929124 0.08428364 -0.052949224 -0.13392252 0.033430774 -0.07338063 -0.056127943 0.035588987 -0.051368553 -0.18209179 0.08155804 0.0527641 -0.09628693 0.08450285 -0.13371609 0.12383246 -0.044760555 -0.1589919 -0.0033427062 -0.06404631 0.019592857 -0.11929111 0.07157815 0.19149913 0.023636196 -0.038603544 -0.1792019 -0.15103324 -0.17050837 -0.118859604 -0.066950165 -0.071701474 0.059879895 -0.018230617 -0.158802 0.1872165 0.0997213 0.07257698 -0.13652837 -0.065820314 -0.20024204 0.1654292 0.06182125 0.08030756 0.009012032 0.0037916075 0.032189712 0.12337906 -0.052855354 -0.07466462 -0.20759887 0.053924415 0.17627157 0.11140075 -0.033097018 0.18754302 -0.084724344 -0.01144455 0.11766639 -0.02221686 -0.0635888 -0.07319836 -0.2613682 0.029245371 -0.08528174 -0.20173481 0.06233397 -0.17734733 -0.040651094 -0.06379556 -0.03473856 0.16366908 -0.11501177 0.053529732 0.04645884 -0.19475229 0.03920711 0.051512606 0.13207893 0.07979869 0.017250014 -0.101058684 0.067100324 0.035456978 0.03375345 0.09541393 0.019506216 -0.07537186 0.023723967 0.06844703 0.13359694 -0.023644587 0.22633709 0.18227483 -0.03503065 0.09120535 -0.16783234 0.020448823 -0.16629462 0.06805426 -0.1770779 0.15819941 -0.019969791 -0.11957522 -0.026826607 -0.027685113 -0.069334574 0.07664297 0.13453631 0.17216367 -0.1906721 0.08333755 0.04827328 0.02134986 0.06199836 0.03226802 0.056898884 -0.05276098 -0.110991865 0.092684425 -0.04978452 0.19658996 -0.15325782 -0.039965734 0.014452935 0.064604305 -0.123924695 -0.014641728 0.11493575 0.18297534 -0.10727936 -0.18382862 -0.053074844 0.0016313737 -0.29759958 -0.037929367 0.048280813 0.092137784 0.14757486 0.18211961
1 -0.08376833 0.06669316 -0.019338006 0.22557817 0.14535351 0.20256793 -0.30092946 -0.101210274 -0.0732509 -0.009211225 0.2033512 -0.20933968 -0.03863447 -0.0017931187 0.055165283 -0.035184268 -0.14954947 -0.014683128 0.17223093 -0.016302349 -0.1392075 -0.012680841 -0.09679849 0.24014837 -0.08733276 0.14345632 -0.020987453 0.41572598 0.0023467222 -0.092411056 0.23080659 0.18276514 -0.09350348 0.032848958 0.04703798 0.06977003 -0.08782977 0.023040874 -0.13356249 -0.054657817 0.1163213 0.042932265 -0.08880564 -0.1372185 0.11752764 -0.11134363 0.039217938 -0.0074859983 0.058233038 -0.0075103473 0.2376348 0.08050488 -0.020941548 -0.044182118 0.05066375 -0.01762079 -0.19760804 -0.17990829 0.063906685 -0.006343503 0.080965884 -0.02891978 0.03966941 0.018171592 0.07822591 -0.008821746 0.09787719 0.12701878 -0.09417102 -0.048771646 0.04414445 0.25644955 -0.13733798 -0.32444292 2.8972445e-05 0.085462965 -0.10238887 0.11973512 -0.0065558916 -0.116699964 0.091853015 -0.112787984 0.2503342 -0.085580215 0.1484716 0.14791438 0.06690211 -0.031020388 0.048872232 0.18425821 -0.026246874 0.0019356275 -0.018476378 -0.14212953 -0.027841428 -0.043748725 0.073604815 0.22678858 -0.015239548 0.100361764 -0.12663049 0.116072655 -0.18464355 0.20078969 -0.008999511 -0.35038197 0.09193365 0.0637115 -0.14900164 0.09452448 -0.00018674534 0.025258817 -0.07690357 0.001151533 0.016187238 0.019394845 -0.12910885 0.09429491 -0.055614572 -0.15331656 0.0405892 -0.08679663 -0.06180344 0.042371277 -0.054438625 -0.20245418 0.09851698 0.060856406 -0.09628693 0.08450285 -0.13371609 0.12383246 -0.044760555 -0.1589919 -0.0033427062 -0.06404631 0.019592857 -0.11929111 0.07157815 0.19149913 0.023636196 -0.038603544 -0.1792019 -0.15103324 -0.17050837 -0.118859604 -0.066950165 -0.071701474 0.059879895 -0.018230617 -0.158802 0.1872165 0.0997213 0.07257698 -0.13652837 -0.065820314 -0.20024204 0.1654292 0.06182125 0.08030756 0.009012032 0.0037916075 0.032189712 0.12337906 -0.052855354 -0.07466462 -0.20759887 0.053924415 0.17627157 0.11140075 -0.033097018 0.18754302 -0.084724344 -0.01144455 0.11766639 -0.02221686 -0.0635888 -0.07319836 -0.2613682 0.029245371 -0.08528174 -0.20173481 0.06233397 -0.17734733 -0.040651094 -0.06379556 -0.03473856 0.16366908 -0.11501177 0.053529732 0.04645884 -0.19475229 0.03920711 0.051512606 0.13207893 0.07979869 0.017250014 -0.101058684 0.067100324 0.035456978 0.03375345 0.09541393 0.019506216 -0.07537186 0.023723967 0.06844703 0.13359694 -0.023644587 0.22633709 0.18227483 -0.03503065 0.09120535 -0.16783234 0.020448823 -0.16629462 0.06805426 -0.1770779 0.15819941 -0.019969791 -0.11957522 -0.026826607 -0.027685113 -0.069334574 0.07664297 0.13453631 0.17216367 -0.1906721 0.08333755 0.04827328 0.02134986 0.06199836 0.03226802 0.056898884 -0.05276098 -0.110991865 0.092684425 -0.04978452 0.19658996 -0.15325782 -0.039965734 0.014452935 0.064604305 -0.123924695 -0.014641728 0.11493575 0.18297534 -0.10727936 -0.18382862 -0.053074844 0.0016313737 -0.29759958 -0.037929367 0.048280813 0.092137784 0.14757486 0.18211961
33 -0.076487534 0.061831176 -0.020684406 0.20923293 0.1332574 0.19076751 -0.26936668 -0.0907193 -0.06353282 -0.015029859 0.18392384 -0.18890221 -0.032595295 -0.0047967494 0.054520536 -0.037709203 -0.1390458 -0.015696216 0.1552583 -0.010836585 -0.12778848 -0.012490193 -0.0884384 0.2164097 -0.080415584 0.13114512 -0.01855782 0.37797382 0.0026119328 -0.08799437 0.21071967 0.16895197 -0.08218723 0.028862989 0.041572623 0.06036822 -0.08369948 0.016192658 -0.12316833 -0.05297503 0.10850106 0.038305 -0.084987 -0.11965792 0.10582379 -0.09675628 0.03277062 -0.007956187 0.053887 -2.0000882e-05 0.22078681 0.072494365 -0.018668361 -0.03556912 0.048041712 -0.017451175 -0.18100235 -0.159667 0.05898034 -0.008950875 0.07572689 -0.028166097 0.031192863 0.016176911 0.075134724 -0.010612748 0.085218914 0.11472416 -0.08555135 -0.046043426 0.03939847 0.22910586 -0.12041497 -0.2890015 -0.0017999426 0.075401336 -0.09712342 0.11652929 -0.009170964 -0.11278178 0.08052179 -0.102541104 0.22687128 -0.07870563 0.12866707 0.13063727 0.055309936 -0.031639677 0.04299138 0.1640861 -0.025025433 0.002099014 -0.013091927 -0.12897159 -0.020026179 -0.04243464 0.071900226 0.20361076 -0.014818845 0.087499335 -0.114960365 0.10490776 -0.1698773 0.18065268 -0.011575945 -0.31695113 0.081115216 0.061092317 -0.12838258 0.08459738 -0.0046335147 0.026676796 -0.077325925 0.00060133566 0.019525785 0.011853412 -0.12459832 0.086374916 -0.052160285 -0.1437569 0.035291027 -0.07930009 -0.0552418 0.03862821 -0.04876205 -0.19007252 0.084803194 0.056529447 -0.09628693 0.08450285 -0.13371609 0.12383246 -0.044760555 -0.1589919 -0.0033427062 -0.06404631 0.019592857 -0.11929111 0.07157815 0.19149913 0.023636196 -0.038603544 -0.1792019 -0.15103324 -0.17050837 -0.118859604 -0.066950165 -0.071701474 0.059879895 -0.018230617 -0.158802 0.1872165 0.0997213 0.07257698 -0.13652837 -0.065820314 -0.20024204 0.1654292 0.06182125 0.08030756 0.009012032 0.0037916075 0.032189712 0.12337906 -0.052855354 -0.07466462 -0.20759887 0.053924415 0.17627157 0.11140075 -0.033097018 0.18754302 -0.084724344 -0.01144455 0.11766639 -0.02221686 -0.0635888 -0.07319836 -0.2613682 0.029245371 -0.08528174 -0.20173481 0.06233397 -0.17734733 -0.040651094 -0.06379556 -0.03473856 0.16366908 -0.11501177 0.053529732 0.04645884 -0.19475229 0.03920711 0.051512606 0.13207893 0.07979869 0.017250014 -0.101058684 0.067100324 0.035456978 0.03375345 0.09541393 0.019506216 -0.07537186 0.023723967 0.06844703 0.13359694 -0.023644587 0.22633709 0.18227483 -0.03503065 0.09120535 -0.16783234 0.020448823 -0.16629462 0.06805426 -0.1770779 0.15819941 -0.019969791 -0.11957522 -0.026826607 -0.027685113 -0.069334574 0.07664297 0.13453631 0.17216367 -0.1906721 0.08333755 0.04827328 0.02134986 0.06199836 0.03226802 0.056898884 -0.05276098 -0.110991865 0.092684425 -0.04978452 0.19658996 -0.15325782 -0.039965734 0.014452935 0.064604305 -0.123924695 -0.014641728 0.11493575 0.18297534 -0.10727936 -0.18382862 -0.053074844 0.0016313737 -0.29759958 -0.037929367 0.048280813 0.092137784 0.14757486 0.18211961
3 -0.08408518 0.061906733 -0.022724176 0.22780487 0.13829616 0.20101878 -0.29487595 -0.099823885 -0.06977638 -0.008958361 0.19865175 -0.20871393 -0.04050691 -0.0025259424 0.057359233 -0.0338682 -0.14481367 -0.012967254 0.16934875 -0.012458738 -0.13617519 -0.011488242 -0.09234907 0.23250946 -0.08470349 0.14385594 -0.022998307 0.40836057 0.0019553262 -0.09397554 0.23009658 0.18411963 -0.09309274 0.033534933 0.050818507 0.06374153 -0.0906921 0.021970835 -0.13432816 -0.05279001 0.11388748 0.040187106 -0.09183483 -0.13523309 0.117982656 -0.1062566 0.031864636 -0.0064518396 0.05666789 -0.005712821 0.23750359 0.081514075 -0.0148292985 -0.04103511 0.04843827 -0.013588197 -0.19619767 -0.17676267 0.06431393 -0.007861392 0.08075528 -0.030556658 0.040010065 0.022454053 0.07290543 -0.01230749 0.09575486 0.12441675 -0.09514935 -0.04803803 0.045493737 0.25238258 -0.13697883 -0.31712422 0.0051255007 0.084277734 -0.10476159 0.12009688 -0.006635684 -0.12068072 0.087379865 -0.114263415 0.24807939 -0.081397034 0.14428192 0.14576367 0.06515723 -0.0335384 0.043366317 0.17982385 -0.031669226 0.006072109 -0.016862284 -0.13552846 -0.02233033 -0.04770661 0.07256892 0.21944928 -0.0142612755 0.099093884 -0.12592416 0.11892349 -0.1793362 0.19768058 -0.0112810265 -0.342891 0.088208966 0.065544836 -0.14067012 0.09278369 -0.0032400559 0.026104752 -0.078339525 0.0023866745 0.015361179 0.015002385 -0.13232659 0.093844086 -0.055596758 -0.15608296 0.04125748 -0.085165225 -0.061192762 0.03963165 -0.054000974 -0.20408598 0.093656726 0.06364278 -0.09628693 0.08450285 -0.13371609 0.12383246 -0.044760555 -0.1589919 -0.0033427062 -0.06404631 0.019592857 -0.11929111 0.07157815 0.19149913 0.023636196 -0.038603544 -0.1792019 -0.15103324 -0.17050837 -0.118859604 -0.066950165 -0.071701474 0.059879895 -0.018230617 -0.158802 0.1872165 0.0997213 0.07257698 -0.13652837 -0.065820314 -0.20024204 0.1654292 0.06182125 0.08030756 0.009012032 0.0037916075 0.032189712 0.12337906 -0.052855354 -0.07466462 -0.20759887 0.053924415 0.17627157 0.11140075 -0.033097018 0.18754302 -0.084724344 -0.01144455 0.11766639 -0.02221686 -0.0635888 -0.07319836 -0.2613682 0.029245371 -0.08528174 -0.20173481 0.06233397 -0.17734733 -0.040651094 -0.06379556 -0.03473856 0.16366908 -0.11501177 0.053529732 0.04645884 -0.19475229 0.03920711 0.051512606 0.13207893 0.07979869 0.017250014 -0.101058684 0.067100324 0.035456978 0.03375345 0.09541393 0.019506216 -0.07537186 0.023723967 0.06844703 0.13359694 -0.023644587 0.22633709 0.18227483 -0.03503065 0.09120535 -0.16783234 0.020448823 -0.16629462 0.06805426 -0.1770779 0.15819941 -0.019969791 -0.11957522 -0.026826607 -0.027685113 -0.069334574 0.07664297 0.13453631 0.17216367 -0.1906721 0.08333755 0.04827328 0.02134986 0.06199836 0.03226802 0.056898884 -0.05276098 -0.110991865 0.092684425 -0.04978452 0.19658996 -0.15325782 -0.039965734 0.014452935 0.064604305 -0.123924695 -0.014641728 0.11493575 0.18297534 -0.10727936 -0.18382862 -0.053074844 0.0016313737 -0.29759958 -0.037929367 0.048280813 0.092137784 0.14757486 0.18211961
16 -0.07153538 0.055222165 -0.014767463 0.18774548 0.119404666 0.16424932 -0.2466405 -0.08033085 -0.05692769 -0.012791685 0.16251333 -0.17297399 -0.027007515 -0.007477076 0.04778455 -0.026756566 -0.12406044 -0.00974347 0.13711292 -0.008073771 -0.11387811 -0.008605166 -0.07971334 0.19429292 -0.072768115 0.11845444 -0.018859388 0.34142324 0.0031439143 -0.07485571 0.18927586 0.15003994 -0.07433923 0.026687942 0.039681066 0.05630132 -0.070279196 0.018410848 -0.11075545 -0.048761398 0.09602212 0.035172325 -0.077363305 -0.11079012 0.101510346 -0.08821935 0.029891789 -0.007608212 0.045858182 -0.0016964981 0.19357234 0.06880921 -0.01761245 -0.0340621 0.03944011 -0.015461278 -0.16389865 -0.14791153 0.0524528 -0.008339567 0.06682353 -0.021437347 0.033584066 0.01728192 0.062243074 -0.012414618 0.07612592 0.100633904 -0.08044438 -0.041071724 0.04223789 0.20976105 -0.11474074 -0.2653208 0.0002922798 0.07308214 -0.08833361 0.10386545 -0.0048238584 -0.09743762 0.07282014 -0.09703907 0.21054329 -0.07221077 0.1169823 0.11830816 0.056538805 -0.026835129 0.036029603 0.1444992 -0.021927176 0.0055749216 -0.016707985 -0.11090791 -0.01871498 -0.038676523 0.06436113 0.17914452 -0.014860831 0.0793183 -0.1017651 0.095781825 -0.14972939 0.16110021 -0.007945032 -0.28667873 0.073720425 0.053951528 -0.116552524 0.07571453 0.0004510753 0.017452415 -0.06741804 -0.0019493587 0.014567437 0.01704138 -0.112752214 0.07560094 -0.053152133 -0.12711412 0.030525472 -0.068033814 -0.05487337 0.036796093 -0.047794074 -0.17009139 0.07748544 0.053658593 -0.10186357 0.08099608 -0.12521355 0.1456406 -0.028312068 -0.13320473 -0.019525785 -0.069738105 0.016633196 -0.118511535 0.089307725 0.16995454 0.024043018 -0.047706727 -0.16295153 -0.15410158 -0.18088675 -0.11955711 -0.05068192 -0.064884685 0.0450251 -0.026744645 -0.16141492 0.20089029 0.0839601 0.075839296 -0.13315295 -0.022703672 -0.19147019 0.14547338 0.08780763 0.09434789 -0.005558304 0.006733593 0.03351966 0.12823932 -0.06327639 -0.079981536 -0.21101435 0.04682913 0.17712611 0.10697229 -0.040802736 0.1737115 -0.06858101 -0.018653 0.11124815 -0.017747372 -0.05170243 -0.06823942 -0.2309532 0.033535153 -0.07699712 -0.19425094 0.06786054 -0.1716712 -0.05796292 -0.064185396 -0.030076245 0.15553 -0.096354745 0.05480165 0.04239203 -0.19013482 0.050694868 0.04920408 0.13594922 0.0924791 -0.0012766361 -0.10473963 0.06449798 0.06005836 0.03272246 0.06665404 0.023596501 -0.06236152 0.006940451 0.07873155 0.12651557 -0.035928 0.22458957 0.16783738 -0.016522575 0.09012492 -0.15230204 0.02110965 -0.15996817 0.05667076 -0.17273511 0.169498 -0.014742692 -0.12620324 -0.0292831 -0.041105255 -0.0679737 0.07562225 0.13062905 0.18705127 -0.17778257 0.08755454 0.040459488 0.032997787 0.037891258 0.047758825 0.04889146 -0.080682665 -0.09540908 0.09250853 -0.06436381 0.19208078 -0.14316788 -0.02787681 -0.0013507515 0.06332937 -0.1115201 -0.019479778 0.09676445 0.18032697 -0.11426236 -0.18666162 -0.041181214 0.005289486 -0.29314232 -0.028228687 0.03623964 0.07319623 0.14854674 0.1808106
5 -0.0712247 0.05966726 -0.014474683 0.19747928 0.12560783 0.18163377 -0.2580155 -0.0859871 -0.05861447 -0.013210749 0.17363693 -0.1808225 -0.029154865 -0.0014181875 0.044385403 -0.033991307 -0.13256799 -0.015503673 0.1502098 -0.0085276505 -0.12214265 -0.011626829 -0.08306139 0.20686771 -0.07482423 0.12621158 -0.020942196 0.36419785 0.0008212132 -0.08121703 0.20744695 0.15775312 -0.08013227 0.025493812 0.04250323 0.060181104 -0.08055342 0.021736512 -0.117139496 -0.051654756 0.102978855 0.031935874 -0.079160206 -0.12047665 0.10479502 -0.096924655 0.03192284 -0.0027496428 0.04896268 -0.0016345407 0.2116427 0.07255043 -0.015451985 -0.038801692 0.043459453 -0.010856899 -0.17092761 -0.15829805 0.056297164 -0.0033714946 0.06724491 -0.022851923 0.035101753 0.016817415 0.06557233 -0.013128069 0.087813355 0.10589966 -0.08408931 -0.043934595 0.038528092 0.22628343 -0.120671034 -0.2789299 0.001729149 0.07189916 -0.093165055 0.10865936 -0.004346427 -0.10457227 0.07832081 -0.09981131 0.22064091 -0.072593056 0.12778437 0.12505493 0.059123676 -0.02861165 0.043524865 0.15564892 -0.025947463 0.005590432 -0.013023557 -0.120440364 -0.022083892 -0.03948717 0.071712576 0.19257101 -0.012204613 0.09125878 -0.11377701 0.10128871 -0.16280816 0.17577077 -0.01359121 -0.29900214 0.07922097 0.061488554 -0.12918754 0.07982002 0.001154273 0.023122344 -0.07077928 0.00161742 0.016338274 0.013037713 -0.11942835 0.07807396 -0.05558213 -0.14026977 0.036176164 -0.07133797 -0.05751787 0.03416975 -0.048777368 -0.179269 0.083990656 0.05769399 -0.10186357 0.08099608 -0.12521355 0.1456406 -0.028312068 -0.13320473 -0.019525785 -0.069738105 0.016633196 -0.118511535 0.089307725 0.16995454 0.024043018 -0.047706727 -0.16295153 -0.15410158 -0.18088675 -0.11955711 -0.05068192 -0.064884685 0.0450251 -0.026744645 -0.16141492 0.20089029 0.0839601 0.075839296 -0.13315295 -0.022703672 -0.19147019 0.14547338 0.08780763 0.09434789 -0.005558304 0.006733593 0.03351966 0.12823932 -0.06327639 -0.079981536 -0.21101435 0.04682913 0.17712611 0.10697229 -0.040802736 0.1737115 -0.06858101 -0.018653 0.11124815 -0.017747372 -0.05170243 -0.06823942 -0.2309532 0.033535153 -0.07699712 -0.19425094 0.06786054 -0.1716712 -0.05796292 -0.064185396 -0.030076245 0.15553 -0.096354745 0.05480165 0.04239203 -0.19013482 0.050694868 0.04920408 0.13594922 0.0924791 -0.0012766361 -0.10473963 0.06449798 0.06005836 0.03272246 0.06665404 0.023596501 -0.06236152 0.006940451 0.07873155 0.12651557 -0.035928 0.22458957 0.16783738 -0.016522575 0.09012492 -0.15230204 0.02110965 -0.15996817 0.05667076 -0.17273511 0.169498 -0.014742692 -0.12620324 -0.0292831 -0.041105255 -0.0679737 0.07562225 0.13062905 0.18705127 -0.17778257 0.08755454 0.040459488 0.032997787 0.037891258 0.047758825 0.04889146 -0.080682665 -0.09540908 0.09250853 -0.06436381 0.19208078 -0.14316788 -0.02787681 -0.0013507515 0.06332937 -0.1115201 -0.019479778 0.09676445 0.18032697 -0.11426236 -0.18666162 -0.041181214 0.005289486 -0.29314232 -0.028228687 0.03623964 0.07319623 0.14854674 0.1808106
4 -0.06610689 0.05637651 -0.014721522 0.18829916 0.11962783 0.16358376 -0.24110569 -0.08264707 -0.055346016 -0.00790813 0.16716312 -0.17506811 -0.032299858 -0.00395296 0.04793015 -0.03159599 -0.119909294 -0.015091662 0.14073627 -0.0065364027 -0.11371028 -0.013830025 -0.07924096 0.19279175 -0.07075466 0.11642361 -0.02180234 0.34188136 0.0039650495 -0.075167745 0.1886845 0.15442435 -0.07450157 0.028500924 0.03822354 0.053755842 -0.07416948 0.018064795 -0.11076832 -0.046640094 0.09829478 0.035175834 -0.07233347 -0.10815415 0.09841445 -0.085378766 0.03006934 -0.0031308457 0.044758562 -0.0016781923 0.19342898 0.06266199 -0.018079951 -0.034663286 0.03933827 -0.013829017 -0.16592745 -0.1487356 0.057142958 -0.005830244 0.06274314 -0.023470365 0.034865938 0.01847251 0.06364303 -0.012070927 0.08178106 0.10013023 -0.0800388 -0.045918535 0.041153118 0.20899014 -0.11070011 -0.26131713 0.0034802575 0.068483785 -0.08958505 0.10459579 -0.009884689 -0.094829775 0.07482836 -0.09209875 0.20822397 -0.07039509 0.11783893 0.12004184 0.056703065 -0.031025523 0.037638526 0.14721453 -0.02227842 0.004926201 -0.014155717 -0.117422946 -0.024425054 -0.040076606 0.062099744 0.18527894 -0.010740371 0.079932004 -0.10017046 0.098191634 -0.14830537 0.16795139 -0.01092929 -0.2849066 0.07765814 0.05429815 -0.12144348 0.07280659 -0.003059057 0.023615608 -0.06508523 0.003998546 0.014548483 0.010685789 -0.10873884 0.074436985 -0.05262559 -0.12601559 0.0332486 -0.07069401 -0.050602876 0.037927337 -0.04836197 -0.17295364 0.07879051 0.04990084 -0.10186357 0.08099608 -0.12521355 0.1456406 -0.028312068 -0.13320473 -0.019525785 -0.069738105 0.016633196 -0.118511535 0.089307725 0.16995454 0.024043018 -0.047706727 -0.16295153 -0.15410158 -0.18088675 -0.11955711 -0.05068192 -0.064884685 0.0450251 -0.026744645 -0.16141492 0.20089029 0.0839601 0.075839296 -0.13315295 -0.022703672 -0.19147019 0.14547338 0.08780763 0.09434789 -0.005558304 0.006733593 0.03351966 0.12823932 -0.06327639 -0.079981536 -0.21101435 0.04682913 0.17712611 0.10697229 -0.040802736 0.1737115 -0.06858101 -0.018653 0.11124815 -0.017747372 -0.05170243 -0.06823942 -0.2309532 0.033535153 -0.07699712 -0.19425094 0.06786054 -0.1716712 -0.05796292 -0.064185396 -0.030076245 0.15553 -0.096354745 0.05480165 0.04239203 -0.19013482 0.050694868 0.04920408 0.13594922 0.0924791 -0.0012766361 -0.10473963 0.06449798 0.06005836 0.03272246 0.06665404 0.023596501 -0.06236152 0.006940451 0.07873155 0.12651557 -0.035928 0.22458957 0.16783738 -0.016522575 0.09012492 -0.15230204 0.02110965 -0.15996817 0.05667076 -0.17273511 0.169498 -0.014742692 -0.12620324 -0.0292831 -0.041105255 -0.0679737 0.07562225 0.13062905 0.18705127 -0.17778257 0.08755454 0.040459488 0.032997787 0.037891258 0.047758825 0.04889146 -0.080682665 -0.09540908 0.09250853 -0.06436381 0.19208078 -0.14316788 -0.02787681 -0.0013507515 0.06332937 -0.1115201 -0.019479778 0.09676445 0.18032697 -0.11426236 -0.18666162 -0.041181214 0.005289486 -0.29314232 -0.028228687 0.03623964 0.07319623 0.14854674 0.1808106
7 -0.07713286 0.062059145 -0.015093419 0.20777446 0.12816973 0.18193638 -0.26736927 -0.090266705 -0.06387039 -0.009710447 0.17862694 -0.19274002 -0.036480784 -0.0072383224 0.052124582 -0.037838314 -0.13791348 -0.018062811 0.15492862 -0.013553642 -0.12652205 -0.013537156 -0.08799232 0.21343124 -0.07826467 0.12934823 -0.024090268 0.37660277 0.00015188195 -0.08545296 0.20850402 0.16517946 -0.0832774 0.029983612 0.041178912 0.060745027 -0.081694454 0.0213275 -0.12428487 -0.048127793 0.10525074 0.036200043 -0.08438388 -0.123866454 0.107709624 -0.094166696 0.02988831 -0.006683115 0.053043395 -0.0018748953 0.2147147 0.0708674 -0.01784467 -0.038442366 0.04743082 -0.011785211 -0.17736638 -0.16409372 0.06184286 -0.0041435775 0.07056884 -0.027760793 0.03786567 0.014019282 0.07204935 -0.012793031 0.09008675 0.110826105 -0.08317985 -0.049004268 0.04273157 0.2324127 -0.123642564 -0.29184115 0.0020904194 0.07807508 -0.0977889 0.11218932 -0.0037185543 -0.10520927 0.08353402 -0.10394034 0.23111603 -0.07300889 0.12677667 0.13066691 0.059173062 -0.028922142 0.038672887 0.16228338 -0.028349334 0.0025223524 -0.014130042 -0.12470009 -0.022173865 -0.04134734 0.0713282 0.20182292 -0.019153794 0.08811188 -0.11516252 0.103535905 -0.16460977 0.18068603 -0.010541918 -0.31455004 0.08385791 0.05757089 -0.13529512 0.08542148 -0.0023339754 0.02531887 -0.075222276 -0.00149963 0.015021482 0.016029067 -0.12390093 0.081408136 -0.054593097 -0.14063646 0.038590014 -0.08009575 -0.05726816 0.037261378 -0.0487088 -0.18921678 0.08757851 0.054253608 -0.09628693 0.08450285 -0.13371609 0.12383246 -0.044760555 -0.1589919 -0.0033427062 -0.06404631 0.019592857 -0.11929111 0.07157815 0.19149913 0.023636196 -0.038603544 -0.1792019 -0.15103324 -0.17050837 -0.118859604 -0.066950165 -0.071701474 0.059879895 -0.018230617 -0.158802 0.1872165 0.0997213 0.07257698 -0.13652837 -0.065820314 -0.20024204 0.1654292 0.06182125 0.08030756 0.009012032 0.0037916075 0.032189712 0.12337906 -0.052855354 -0.07466462 -0.20759887 0.053924415 0.17627157 0.11140075 -0.033097018 0.18754302 -0.084724344 -0.01144455 0.11766639 -0.02221686 -0.0635888 -0.07319836 -0.2613682 0.029245371 -0.08528174 -0.20173481 0.06233397 -0.17734733 -0.040651094 -0.06379556 -0.03473856 0.16366908 -0.11501177 0.053529732 0.04645884 -0.19475229 0.03920711 0.051512606 0.13207893 0.07979869 0.017250014 -0.101058684 0.067100324 0.035456978 0.03375345 0.09541393 0.019506216 -0.07537186 0.023723967 0.06844703 0.13359694 -0.023644587 0.22633709 0.18227483 -0.03503065 0.09120535 -0.16783234 0.020448823 -0.16629462 0.06805426 -0.1770779 0.15819941 -0.019969791 -0.11957522 -0.026826607 -0.027685113 -0.069334574 0.07664297 0.13453631 0.17216367 -0.1906721 0.08333755 0.04827328 0.02134986 0.06199836 0.03226802 0.056898884 -0.05276098 -0.110991865 0.092684425 -0.04978452 0.19658996 -0.15325782 -0.039965734 0.014452935 0.064604305 -0.123924695 -0.014641728 0.11493575 0.18297534 -0.10727936 -0.18382862 -0.053074844 0.0016313737 -0.29759958 -0.037929367 0.048280813 0.092137784 0.14757486 0.18211961
18 -0.07463596 0.057998423 -0.021208037 0.2052361 0.13061441 0.18557777 -0.26457188 -0.087521575 -0.06452904 -0.013431181 0.1754223 -0.18774152 -0.031237636 -0.0034929283 0.05154786 -0.036215656 -0.13112114 -0.012716791 0.1517117 -0.011382118 -0.12642206 -0.0145079885 -0.08519662 0.2102325 -0.07877247 0.12765425 -0.020937558 0.37135684 0.0059484215 -0.08115779 0.21042462 0.16706572 -0.085931435 0.032742564 0.04097227 0.06408335 -0.08106071 0.017100168 -0.1186339 -0.0530978 0.106164575 0.03369178 -0.07800069 -0.117842324 0.10756385 -0.09529634 0.031293277 -0.0031821914 0.05100329 -0.0050266823 0.2143612 0.07441081 -0.013496723 -0.037047278 0.047502704 -0.016947191 -0.17785592 -0.15948899 0.05943709 -0.002704318 0.07258825 -0.025771152 0.03745936 0.015790304 0.07093062 -0.015479681 0.08376539 0.10890909 -0.085524626 -0.04675675 0.043950845 0.22402234 -0.12310569 -0.28340647 0.004832529 0.07412284 -0.09685771 0.11315337 -0.005470225 -0.11026433 0.083991006 -0.103054486 0.22244409 -0.07198963 0.12707786 0.1284095 0.058204982 -0.034437936 0.040057853 0.16233298 -0.023114724 -0.0016294522 -0.011677643 -0.12088065 -0.018167276 -0.037649877 0.06608113 0.2025094 -0.017360782 0.087984145 -0.11289301 0.1031389 -0.16388562 0.1775248 -0.015252161 -0.30887854 0.08317191 0.055011097 -0.13172977 0.079924874 -0.00425318 0.02591597 -0.07373884 0.00093517336 0.015389734 0.01181705 -0.1213966 0.085472584 -0.052747592 -0.14105621 0.033547614 -0.077965565 -0.05906375 0.033509187 -0.052495416 -0.1846212 0.09016049 0.054878794 -0.09628693 0.08450285 -0.13371609 0.12383246 -0.044760555 -0.1589919 -0.0033427062 -0.06404631 0.019592857 -0.11929111 0.07157815 0.19149913 0.023636196 -0.038603544 -0.1792019 -0.15103324 -0.17050837 -0.118859604 -0.066950165 -0.071701474 0.059879895 -0.018230617 -0.158802 0.1872165 0.0997213 0.07257698 -0.13652837 -0.065820314 -0.20024204 0.1654292 0.06182125 0.08030756 0.009012032 0.0037916075 0.032189712 0.12337906 -0.052855354 -0.07466462 -0.20759887 0.053924415 0.17627157 0.11140075 -0.033097018 0.18754302 -0.084724344 -0.01144455 0.11766639 -0.02221686 -0.0635888 -0.07319836 -0.2613682 0.029245371 -0.08528174 -0.20173481 0.06233397 -0.17734733 -0.040651094 -0.06379556 -0.03473856 0.16366908 -0.11501177 0.053529732 0.04645884 -0.19475229 0.03920711 0.051512606 0.13207893 0.07979869 0.017250014 -0.101058684 0.067100324 0.035456978 0.03375345 0.09541393 0.019506216 -0.07537186 0.023723967 0.06844703 0.13359694 -0.023644587 0.22633709 0.18227483 -0.03503065 0.09120535 -0.16783234 0.020448823 -0.16629462 0.06805426 -0.1770779 0.15819941 -0.019969791 -0.11957522 -0.026826607 -0.027685113 -0.069334574 0.07664297 0.13453631 0.17216367 -0.1906721 0.08333755 0.04827328 0.02134986 0.06199836 0.03226802 0.056898884 -0.05276098 -0.110991865 0.092684425 -0.04978452 0.19658996 -0.15325782 -0.039965734 0.014452935 0.064604305 -0.123924695 -0.014641728 0.11493575 0.18297534 -0.10727936 -0.18382862 -0.053074844 0.0016313737 -0.29759958 -0.037929367 0.048280813 0.092137784 0.14757486 0.18211961
