34 128
24 -0.0017620985 -0.013329129 0.07261085 0.07815804 -0.0118520195 -0.0128081525 -0.026732739 0.08987318 0.13269164 0.025919542 0.047869433 -0.038612083 -0.037949167 -0.0362083 -0.08125332 -0.043078475 -0.07109547 0.008316077 -0.010923027 0.19656146 -0.065668724 -0.10255374 -0.11141291 0.078384705 -0.0009735502 0.08586417 -0.14256978 0.059234068 -0.10539556 0.0283352 -0.0018691653 0.13744463 0.03184015 0.046228115 0.11746757 0.0629965 -0.14445177 0.0664743 -0.08491432 -0.12854016 0.18791354 0.0035665014 0.012069451 0.0013655066 -0.07819453 -0.018960774 -0.0037759223 0.09263335 -0.016049247 0.00292701 -0.1291113 -0.05556102 -0.1349427 -0.04221833 0.060011376 -0.05639394 -0.12613797 -0.015886737 0.021843199 -0.088103 -0.111388445 0.047473833 0.049833912 0.121412 -0.058268536 -0.10783306 0.07819774 0.03783036 -0.21215798 -0.151959 0.12944025 0.12718229 0.08802524 -0.049755294 0.016718995 0.04439412 -0.11575508 0.11939891 0.05298559 0.10696209 0.024189765 -0.0006236014 0.02607377 -0.06811555 -0.11603904 -0.15401657 0.043994833 -0.065947056 -0.08793673 -0.029204207 0.09595927 0.03244058 -0.13697112 0.009145709 -0.16798714 0.0026810037 0.08859264 0.031079516 -0.045145955 -0.0109516755 -0.050468817 0.13747267 0.01789717 0.16818196 0.07475364 -0.1526186 0.07259372 0.08605887 -0.10020702 0.00083187094 0.091475084 -0.004143002 -0.23835912 0.090831295 0.038059354 -0.12893978 -0.104443595 -0.055563275 -0.2873802 -0.19675696 -0.013131603 -0.0957695 -0.14182149 0.11311392 -0.108004294 -0.17543791 -0.053486463 0.08182803
25 -0.1254651 -0.013759195 0.038101166 0.059632804 0.029169312 0.03846723 0.02029219 0.030730534 0.103365615 0.10413767 0.031412076 -0.011453235 -0.070547074 -0.12111472 -0.00049586187 -0.027318455 -0.0738569 0.042596173 -0.012999801 0.19325683 -0.05239455 -0.12630084 -0.10257897 0.13462104 0.04640972 0.10894588 -0.053182106 0.048826758 -0.025811866 -0.003353791 -0.059270352 0.10820018 0.00013230478 0.06270365 0.059432503 0.0573495 -0.09770255 0.056359734 -0.081485 -0.16305521 0.151898 0.0524146 -0.011111503 -0.023212826 -0.010277441 0.011084872 0.018668815 -0.039684057 0.0388943 -0.025874328 -0.09328533 -0.0318063 -0.122938976 0.036030106 0.08038806 -0.083000734 -0.09994729 0.040049307 -0.0334314 -0.07292408 -0.015175409 0.036118634 -0.021180501 0.08238499 -0.0048017683 -0.09004759 0.013009238 0.075832844 -0.18054323 -0.06581597 0.10087285 0.122635424 0.08395797 -0.10132265 -0.00069486187 0.105988465 -0.14170372 0.06149435 0.10296192 0.082161844 -0.02183728 -0.07409897 0.10087997 -0.112618126 -0.082425915 -0.108550936 0.036139246 0.051996578 -0.054072864 0.0053756773 0.12423831 0.061108604 -0.15830128 -0.06618526 -0.089230135 -0.00068875804 0.015624083 -0.020509789 -0.025257938 -0.12752073 0.008615288 0.15335123 0.018080696 0.12790011 0.13464138 -0.20316193 -0.011767115 0.072139725 -0.07044021 0.06099711 0.16555826 -0.0012005237 -0.24299619 0.037020516 0.09309228 -0.06864167 -0.09744174 -0.0035168445 -0.20019323 -0.06409236 -0.031160885 -0.06895291 -0.051712275 0.14828445 -0.12838548 -0.10520737 -0.07120276 -0.018057767
26 -0.06321474 -0.013124929 -0.020953137 0.09770527 0.19088888 0.1097114 -0.03700434 0.12827086 0.10607401 0.039132446 -0.13402146 -0.12399935 0.12784947 0.006338731 -0.11682877 -0.04009113 -0.054499142 0.09412274 0.14661291 0.021805525 -0.16091801 -0.001459518 -0.021519866 0.14049688 0.081561044 0.073049754 0.12984025 -0.013956716 0.06885325 -0.110449135 0.113939956 0.04151741 -0.13395153 0.096134946 0.14921689 0.055901777 0.023021255 0.17961235 0.15110636 -0.11637057 0.03065446 -0.13402896 0.09822979 -0.13941127 0.0842337 -0.14357823 0.032346103 0.09850851 -0.013147642 -0.032324553 0.11832398 -0.034514844 -0.09586682 0.040498257 0.048123997 0.050865132 -0.020306222 -0.033063278 0.032068226 0.014674181 -0.11651896 -0.17876777 0.08209469 0.06193245 -0.007343108 -0.095127225 0.04605521 -0.19083898 0.0003815932 -0.047811855 0.010112064 0.11443047 -0.13857676 -0.06825143 0.09039821 0.023845106 0.0152737005 0.024314804 0.05257612 -0.045399904 -0.04358955 -0.110529184 0.10242063 -0.18960162 0.18783666 0.11797522 0.053800773 -0.08199791 0.09606088 -0.1093663 -0.07343753 0.13159272 0.031875737 -0.14274485 0.098792486 0.04732279 0.14221758 0.021955684 -0.06194724 -0.0495145 -0.004727347 -0.045868 -0.12891877 0.162392 -0.002133037 -0.13310593 0.16800639 -0.07917741 -0.05398279 -0.08125271 0.21819189 -0.031846292 -0.024780303 0.058614362 0.06849816 0.006174852 -0.07003275 -0.018582124 -0.090978965 -0.1382875 0.16685453 -0.03771511 -0.0021319455 0.01965314 -0.19836834 -0.08739669 -0.03035225 -0.0597794
27 -0.07318612 -0.05796903 -0.013634621 0.04518427 -0.002818131 0.123426355 -0.024752002 0.06980984 0.06896977 0.17023407 -0.015188592 -0.08138786 -0.1046921 -0.004012865 -0.040434595 -0.031435557 0.04365665 0.10022922 0.115286484 0.053768877 -0.06421492 -0.07598287 -0.011086275 0.09293841 0.06931844 0.13861084 -0.0012130936 0.03596891 0.0136638675 -0.075480044 0.029957391 0.07826662 -0.10496362 0.056216937 0.13774301 0.010424318 -0.15585008 0.11332745 0.014504112 -0.11135122 0.01314823 -0.06372002 0.030909855 -0.14106956 -0.027938435 -0.061794143 -0.013712583 0.008869458 0.041672926 -0.07607491 0.066983975 -0.0299301 -0.035359588 0.0368075 0.036527954 0.06731368 -0.026972933 -0.07940654 -0.026104834 0.0064284247 0.004203238 -0.07820258 0.06047288 0.12039481 -0.0065169614 -0.11127356 0.090488136 0.008119604 -0.09423207 -0.031889495 0.007736732 0.12762919 0.00047357392 -0.12668766 0.08039023 0.07538214 -0.062372837 -0.011140993 0.11542189 0.016332092 -0.056029722 -0.1265967 0.053104796 -0.08126193 0.07637122 0.01911233 0.078479186 0.0020620534 0.0039388696 0.008370261 -0.018870909 0.068470806 -0.04409993 -0.032801732 -0.0032831093 0.022187535 -0.024693683 0.040832154 -0.023318414 0.002122726 -0.074156664 0.08926171 -0.067396194 0.1816224 0.03279363 -0.15138939 0.08150523 0.022718579 -0.092430234 -0.017269986 0.14406453 0.037740044 -0.12842427 0.045442466 0.07492987 -0.07631536 -0.029614283 0.024247954 -0.09972304 -0.12808998 0.083806306 -0.11992594 0.02344752 0.015885979 -0.09862276 -0.051868558 -0.06643968 -0.05217157
20 0.010632149 -0.024046332 0.013447343 0.039578576 0.06321914 0.14586101 0.0077784923 0.09920334 0.09216977 0.1265906 -0.07506364 -0.060110785 -0.07276371 -0.009938997 0.014553036 -0.037244998 -0.0026812942 0.08162265 0.16405493 -0.031200448 -0.07952898 -0.072440244 0.0015039631 0.0773681 0.018003039 0.1278663 0.073275864 0.04857372 -0.047904402 -0.12779805 0.025710337 0.0064245113 -0.11404666 0.061851654 0.08679807 0.018128194 -0.07435987 0.18697172 0.06679598 -0.065446705 0.012800003 -0.06718741 0.044830002 -0.18520448 -0.016504005 -0.046966653 0.015752917 0.009674242 0.03775748 -0.046927128 0.053670727 -0.04704099 -0.04430557 0.10901643 0.08154297 0.06530344 -0.067216806 -0.049503718 0.062289 0.029734584 0.025830321 -0.12727335 0.097202644 0.07974491 0.019142065 -0.1254775 0.08159485 -0.053368654 -0.051610902 -0.08870019 -0.057339218 0.07441487 -0.021888746 -0.12389911 0.033137023 0.08020895 -0.029767165 -0.051316652 0.11200064 0.047155317 -0.09777233 -0.09209808 0.034767497 -0.060054798 0.0963984 -0.0062710205 0.06749725 -0.012259838 0.04274114 -0.02499988 -0.0045365277 0.078200676 -0.026440889 -0.0694201 0.02609841 0.057069197 -0.010478398 0.046986427 -0.008064616 -0.048775416 -0.124496445 -0.03317905 -0.095833726 0.22270274 -0.0411222 -0.17309101 0.14809124 -0.061608836 -0.08185593 -0.05692969 0.18553738 0.09062342 -0.15707529 -0.020718057 0.004446363 -0.06846697 -0.078299865 -0.029926704 -0.061100878 -0.15055119 0.113481775 -0.13055457 -0.009295315 -0.029339077 -0.09652275 -0.06239827 -0.054089136 -0.039046362
21 0.034389373 0.003511489 0.0347675 0.09275533 0.018511508 0.09241516 -0.12197126 0.024346218 -0.030587064 0.10421832 -0.00058934686 -0.069450416 -0.13894674 0.01091471 -0.023253536 0.02972119 -0.11643901 -0.017277652 0.026984563 -0.07611831 -0.03243738 -0.0026714876 -0.038795948 0.0048687756 0.08689519 0.14797942 0.044614386 0.029889822 -0.097042024 -0.15117496 -0.008492195 0.044779666 -0.022484556 0.11503206 0.10276391 0.11966259 -0.104099266 0.10748502 0.024571806 0.013760153 0.025958447 -0.07982191 0.0031400847 -0.19340868 -0.090172805 -0.03916253 -0.00045597283 -0.01208944 0.13552406 -0.048258997 -0.12129381 -0.05933458 -0.09974246 0.057961915 -0.01330969 0.013101345 0.039125692 -0.08980115 0.027014067 -0.032979425 0.017750118 0.0053627845 0.07577406 -0.01207788 0.020321317 -0.1544783 0.05391606 0.007936511 -0.044328984 -0.06857308 -0.029418819 0.118636556 -0.0034059344 -0.12787576 0.015011343 -0.040061973 0.06918647 -0.025635103 0.14201349 0.070514254 -0.0143453 -0.026497196 0.055499606 0.050144184 0.053420566 0.063745685 0.027742073 0.04677581 0.0325212 -0.013770392 -0.074738815 0.02595379 -0.2121785 -0.1213868 -0.14614251 0.04661958 0.05890337 0.103715695 -0.074661955 0.022351556 -0.120308734 -0.011073036 -0.061858565 0.16356829 0.053007048 -0.13684887 0.119439654 -0.006619754 -0.02063912 0.0181643 0.16394283 0.034781795 -0.09790296 -0.019376008 -0.039698493 -0.0070354817 0.02097638 -0.09824776 -0.10595195 -0.17158741 0.10586474 -0.073555075 -0.01877413 -0.023292558 -0.0359244 -0.070190944 -0.015361937 0.04142434
22 -0.04521047 0.011269845 -0.029473495 0.06620212 0.073975645 0.08144442 -0.031588096 0.059848085 0.09183771 0.142924 -0.0879819 -0.082175374 -0.064594105 -0.0062702107 -0.002686948 -0.037680477 -0.03954987 0.056596465 0.051396728 0.033935715 -0.096139565 -0.06364112 -0.086887285 0.10964857 0.06647294 0.14589937 0.07929513 0.038679082 -0.033361454 -0.06494192 -0.04290673 0.08546671 -0.06222044 0.09659144 0.09393422 0.03292609 -0.06584444 0.16928501 0.016998531 -0.12040504 0.036156315 -0.033917975 0.040269706 -0.16230646 -0.036413558 -0.027279066 -0.0011225756 -0.0117588295 0.08349576 -0.025672477 0.028774247 -0.038149618 -0.05856068 0.06507031 0.06288589 -0.025213737 -0.057561234 -0.064002424 0.0494138 0.0003414892 -0.049027927 -0.11139251 0.057488978 0.058523253 0.012899805 -0.13726921 0.044843696 -0.0432819 -0.006486129 -0.05892652 0.030277722 0.089184776 -0.035650495 -0.14990777 0.03237826 0.048057176 0.005674012 -0.0074592675 0.13908802 0.081529416 -0.038322315 -0.10635549 0.100049 -0.11236986 0.03263012 0.024018256 0.080284044 0.021123413 -0.011588101 -0.03839051 0.012667757 0.124899454 -0.06434868 -0.05750916 -0.019063337 0.019542217 -0.008975634 0.022046493 -0.06428905 -0.08758182 -0.047985416 -0.005330351 -0.03368817 0.116460875 0.044537656 -0.15699923 0.094269566 -0.02617528 -0.059250545 -0.023084247 0.16671483 0.054277524 -0.14693058 0.01229681 0.017860861 -0.028774198 -0.07212214 0.023636473 -0.09508583 -0.10858091 0.03279759 -0.117469676 0.014804584 0.041543577 -0.10258179 -0.06360346 -0.038388867 -0.046916287
23 -0.036803428 0.0126165375 -0.007548064 0.0892962 0.02338996 0.061682913 -0.07946183 -0.062187217 0.008614862 0.118781425 0.023365736 -0.07243426 -0.16247657 0.0048097554 -0.0006856436 -0.034632415 -0.08242122 -0.048077315 0.03422237 -0.00081903115 -0.07751715 -0.10007424 -0.06526044 0.14481243 0.02762138 0.14628178 0.0010167767 0.11335969 -0.08299247 -0.077583276 0.0052042785 0.095401205 -0.046557594 0.051715933 0.09281086 0.1011652 -0.13085487 0.06996987 -0.07082816 -0.10870282 0.1175991 0.0033917946 0.0025358177 -0.1435413 -0.059742447 -0.014905153 0.04498661 -0.020862013 0.12225206 -0.06118721 -0.01894149 -0.029661762 -0.04788411 -0.0032130782 0.052017108 -0.04002612 -0.078387745 -0.04122447 0.047115877 -0.006670409 -0.006693136 -0.015174617 0.042064376 0.03057787 0.03849563 -0.06612041 0.11265282 0.08841506 -0.06488642 -0.06160819 0.0016829126 0.184485 -0.0015236337 -0.18787748 0.011262053 0.04607207 -0.043200918 -0.0069896574 0.1102285 0.060823057 0.03823356 0.0119109135 0.08656903 -0.0510817 0.016891392 0.04535503 0.022560097 0.04450139 -0.020350903 0.074677795 0.041188013 0.0052477126 -0.122588225 -0.09164823 -0.13053931 0.052846048 0.0138976 0.12352552 -0.05235278 -0.045815367 -0.09440642 0.071372084 -0.052119743 0.19193232 0.0881047 -0.24477416 0.069727615 0.006638881 -0.12258356 0.10517032 0.114624485 0.06340386 -0.15680632 0.010681168 -0.027444446 -0.043790188 -0.08210718 -0.008672307 -0.09691737 -0.11181052 0.045748916 -0.13641508 -0.027617302 0.03232778 -0.049010735 -0.10670437 -0.021298664 -0.0028884117
28 -0.057882737 -0.0037167384 0.017396 0.06898528 0.007121093 0.109627225 -0.047811966 0.013106729 0.08898981 0.16048539 -0.004035358 -0.07702405 -0.11217978 -0.11866631 0.077585265 -0.009575219 -0.04279052 0.11372299 0.11133738 0.042273533 0.011386314 -0.09845533 -0.016791804 0.09661549 0.04526324 0.14049007 0.0012568982 0.06988773 -0.04139524 -0.09041804 -0.03918008 0.07079023 -0.066690624 0.0997533 0.0484901 0.0023929554 -0.08605778 0.096476614 -0.019458488 -0.04161564 0.08079192 0.01997796 0.006322612 -0.15580249 -0.03587726 0.011166351 -0.05141478 -0.039295442 0.085014515 0.003713167 -0.02933614 -0.023089241 -0.09927618 0.124783844 0.003444521 0.037497476 -0.089520976 -0.059540197 0.013883858 -0.021689039 0.032661468 -0.058011606 0.08609353 0.068685815 -0.02977644 -0.12643631 0.059107885 -0.02027723 -0.11677351 -0.071367845 0.017984414 0.103585124 -0.055778954 -0.15017636 0.0806752 0.10425457 -0.09004007 0.036649905 0.14374423 0.07859254 -0.06380972 -0.06809351 0.030477893 -0.056024704 -0.021239327 -0.02592928 0.09664813 -0.0033818625 -0.045596015 -0.013422377 -0.01044138 0.08549053 -0.13902262 -0.014763337 0.028404668 0.00059436314 -0.05922342 -0.032002885 -0.019847188 -0.08949287 -0.06130622 0.019043472 -0.03146513 0.19348352 0.051977787 -0.19105999 0.02945667 0.009279759 -0.05379492 0.039011266 0.116478086 0.015245277 -0.17532048 -0.024437027 0.018224858 -0.004087335 -0.09952943 0.017558886 -0.13707793 -0.08666961 0.004985589 -0.10388081 -0.008673851 0.01657436 -0.10258483 -0.106290676 -0.103931226 -0.0026935837
29 -0.07816139 -0.025976153 -0.032938965 0.09051726 0.096661136 0.08043895 -0.055860378 0.03865886 0.08262336 0.08389166 -0.071401805 -0.10692569 0.025053376 0.007288606 -0.06468997 -0.02799863 -0.07692087 0.054427996 0.09003317 0.026354507 -0.11562579 -0.06433363 -0.040356778 0.1597864 0.06561467 0.09663651 0.0537669 0.05104344 0.04160838 -0.12960513 0.10009403 0.03962516 -0.07974072 0.073650144 0.16084789 0.04100786 -0.08242489 0.11517995 0.07378727 -0.108764574 0.07425431 -0.10460302 0.021992007 -0.12613976 0.011883582 -0.118479304 -0.0021554471 0.05198317 0.085017756 -0.05691962 0.08890697 -0.0113555845 -0.0931648 0.048357446 0.028769556 0.038222015 0.0011622098 -0.028415237 0.02046556 0.014982607 -0.07616603 -0.099312164 0.08013117 0.029491728 -0.0030385354 -0.1045075 0.10308325 -0.07945052 -0.059570383 -0.025451284 0.009174421 0.16892178 -0.09438883 -0.11435255 0.12069688 0.035204556 -0.0048203534 0.031132538 0.08887307 -0.00763041 6.930499e-05 -0.07727669 0.08907403 -0.13651234 0.11742567 0.09578607 0.040644728 -0.047028203 0.03271085 -0.0735969 -0.06782385 0.098383576 -0.04100297 -0.09771795 0.034029577 0.076542936 0.08447399 0.042902175 -0.07281715 -0.021732781 -0.03198579 -0.0038598715 -0.13750325 0.15598303 0.04365487 -0.15981133 0.11537483 -0.017073207 -0.10432663 -0.004108031 0.17830513 -0.015815217 -0.059895914 0.062272042 0.092539914 0.011289134 -0.0634271 0.016772125 -0.08012724 -0.13056964 0.118752085 -0.06799194 0.0039604884 0.027016269 -0.14394422 -0.08381245 -0.07253587 -0.02859187
1 -0.02682693 -0.0054140026 0.026528958 0.08064119 0.06281245 0.12651536 -0.099611156 -0.10771165 -0.05798038 0.11258466 0.009384917 -0.103960745 -0.13780604 -0.040518343 0.02639608 0.06622656 -0.09194198 0.0047753407 0.10170114 -0.07293333 -0.028034097 -0.083263814 0.07624939 0.081769064 0.07980367 0.11894955 0.06734988 0.07718496 -0.0033615385 -0.19549789 0.059763696 -0.009668583 -0.076564945 0.07182166 0.08295579 0.121470705 -0.0806048 0.033793703 0.047360595 -0.05654306 0.05993831 -0.06826653 0.0025580863 -0.23148249 0.025088836 -0.04248259 0.028616676 -0.049490545 0.1578046 -0.077973045 -0.031495478 -0.008099839 -0.09335728 0.09600592 -0.051169205 0.07775063 0.026535941 -0.033973075 -0.0061780186 -0.0050992807 0.088911295 0.010499256 0.07855487 -0.0011022134 0.036419287 -0.0957458 0.07759811 0.0043465514 -0.10600176 -0.0019426732 -0.089763 0.21426968 -0.10945363 -0.16494802 0.07277128 0.050400987 -0.023200521 -0.038538974 0.1184082 -0.025977906 -0.022481723 0.018477565 0.06257698 -0.009797134 0.1442298 0.16715187 0.02231219 0.06595835 0.069121465 -0.0017851525 -0.067243025 -0.006244902 -0.20315333 -0.1596738 -0.038693182 0.099790245 0.043244887 0.06636614 -0.03493451 -0.04381248 -0.10491543 0.008883061 -0.12165155 0.24606296 0.08453296 -0.24770395 0.08071468 -0.050246116 -0.04334637 0.10341649 0.18496838 -0.01685313 -0.07017204 -0.083274126 -0.011204995 0.040705472 -0.050498214 -0.09485526 -0.060268935 -0.06935381 0.15187694 -0.07088959 0.034010526 -0.028259372 -0.07498807 -0.07752117 -0.071809664 -0.008674489
0 0.0577067 -0.025790399 0.05057262 0.073125675 0.00642848 0.044021122 -0.011242495 0.068135165 0.051592868 0.19852264 -0.073782414 -0.068032175 -0.06600467 0.020204633 -0.0035746829 0.112933874 -0.024092672 0.11396082 0.10022098 0.011042945 -0.03556896 0.023420181 0.011354907 -0.011113052 0.09451938 0.13516594 0.03239286 -0.06270929 -0.062463243 -0.14874625 -0.05239097 0.019306073 -0.022204915 0.11408735 0.14960484 0.014004577 -0.07872607 0.21738851 0.07512117 0.03427632 0.006335992 -0.12077339 0.016418636 -0.2158725 -0.05323718 -0.05559459 -0.06524308 -0.013557381 0.09390113 -0.066919394 -0.08375035 -0.038723852 -0.11925119 0.08266468 -0.021338694 0.09283895 0.080728866 -0.050163805 0.026670642 -0.036196362 -0.03032587 -0.03684097 0.14158894 0.07531789 -0.07860395 -0.22935405 0.04991894 -0.04093822 -0.106983975 -0.062210903 -0.045880683 0.100588106 -0.0525595 -0.10414324 0.06576779 0.01046005 0.07464896 -0.019706551 0.18909672 0.09475968 -0.096739784 -0.11819351 0.047064837 -0.006504616 0.076311454 0.017703304 0.08349528 0.041094758 0.0011930608 -0.13674483 -0.13047 0.1251644 -0.17669913 -0.097904414 -0.042042658 0.058460426 0.042194713 -0.0056368583 -0.049591586 -0.03872985 -0.09143102 0.0052228495 -0.069284245 0.08583248 0.023477258 -0.076809 0.12057945 -0.029452937 0.0014315863 -0.09038193 0.25490054 -0.027952418 -0.1016646 -0.031584814 0.030083805 0.02270488 0.06038773 -0.091775365 -0.11923771 -0.16370013 0.15263017 -0.055783503 9.497165e-05 -0.0045212097 -0.12061722 -0.058621027 -0.052007023 -0.015893187
3 0.021699615 -0.015225188 -0.015670162 0.087419905 -0.04697121 0.11813753 -0.13158625 0.026690416 -0.012962326 0.24428329 -0.0043395534 -0.08907871 -0.20322987 0.018267173 0.021905413 0.08509347 -0.045648914 0.08762463 0.051306978 -0.051747378 0.0075322716 0.02067324 -0.009125386 -0.014550998 0.1536928 0.21632235 0.03657418 -0.0070933695 -0.07166238 -0.13395925 -0.07928081 0.08641511 -0.022259759 0.14391662 0.14254689 0.05274681 -0.16104504 0.15367436 0.02765567 0.032551173 -0.030365666 -0.0892413 0.00040660313 -0.27184585 -0.119858205 -0.036923602 -0.08533458 -0.06802279 0.17867488 -0.060379192 -0.08667485 -0.038824745 -0.0969868 0.09068608 -0.07021176 0.09088532 0.09008128 -0.16555467 -0.01465654 -0.028609794 0.01992065 -0.020156918 0.11001379 0.044504356 -0.039133653 -0.22363324 0.048442557 0.011300831 -0.055151273 -0.02550159 -0.022774925 0.12505755 -0.046237 -0.18105504 0.08705016 -0.021620682 0.084754325 -0.013284392 0.2261661 0.09332653 -0.05940454 -0.116461255 0.045115232 0.03327894 0.050076414 0.0968715 0.095978886 0.06973452 -0.029433507 -0.053339884 -0.16048642 0.115339674 -0.2429421 -0.05222277 -0.082989566 0.018629251 -0.042927105 0.030204006 -0.09025746 0.034844574 -0.11488133 0.019112712 -0.043445244 0.114775434 0.056197647 -0.08535573 0.073410526 0.017659111 0.02160556 0.0009093898 0.17447703 0.00082952157 -0.09688289 -0.033292506 -0.0031401748 0.03425837 0.08320162 -0.021694679 -0.10836086 -0.16186401 0.08665297 -0.0870192 0.06316361 -0.04398954 -0.050280306 -0.032853015 -0.046083875 0.0063022138
2 -0.01370698 0.023434315 -0.0052080126 0.08751923 0.06521564 0.12753691 -0.05017295 0.013712444 0.04972972 0.14662158 0.0031989499 -0.024263306 -0.1205179 -0.0710003 0.0892208 0.000953289 -0.10861741 0.047299583 0.12429075 -0.059686273 -0.04347025 -0.056631215 -0.016606482 0.10946648 0.028645676 0.15060727 0.045042027 0.09652242 -0.09222854 -0.07398535 -0.05587215 0.054070294 -0.059825666 0.08697682 0.040231746 0.06846709 -0.04047605 0.16038278 0.009432393 0.002669799 0.087785296 0.033809464 0.008597945 -0.18196058 -0.018388052 -0.020958217 0.009609792 -0.07960914 0.1015502 -0.025630742 -0.018903637 -0.00929106 -0.09046462 0.12446572 0.059576742 0.028577363 -0.07263759 -0.04381108 0.06535237 0.017068142 0.03239991 -0.077774145 0.076157294 0.023408053 -0.0066193524 -0.0904749 0.044990227 0.0049179425 -0.056962244 -0.073983535 -0.018121012 0.100343205 -0.052026134 -0.1919847 0.02615355 0.081653655 -0.04578007 -0.009017627 0.1399191 0.096225 -0.05709459 -0.05706598 0.031756915 -0.047842443 0.023372477 0.001984548 0.032812465 0.015876023 0.0014736074 0.030885367 -0.0219422 0.08882404 -0.1479382 -0.0875533 0.0013977811 0.02603935 -0.03584223 0.049625173 -0.04768113 -0.06916004 -0.100168735 -0.022470651 -0.07798667 0.19231962 0.0068952544 -0.21079266 0.050533336 -0.06145495 -0.06984186 0.058134597 0.15352595 0.051217176 -0.16775927 -0.06831164 -0.030445151 0.029359212 -0.067633644 0.008929044 -0.06218341 -0.08048402 0.05506001 -0.09094922 -0.0026572892 -0.011811931 -0.09436768 -0.08239518 -0.040159963 -0.028094433
5 -0.013549579 -0.040734302 0.09189489 0.034746785 -0.0020505681 0.13548107 -0.09439968 0.08305916 -0.04207737 0.23659682 -0.10396177 -0.11905134 -0.1270305 -0.05778679 0.009308863 0.16955519 -0.024125163 0.16407977 0.03051413 -0.012476639 0.028059 0.01310547 0.0605858 -0.16760314 0.21493146 0.14190046 0.14058346 -0.10684614 0.016844949 -0.24444371 -0.079830945 -0.039239287 -0.054121442 0.19321415 0.098566644 0.037188742 -0.0673392 0.16015875 0.14913268 -0.011299208 -0.14253813 -0.15939161 -0.0041117286 -0.34851125 -0.018630328 -0.0037756497 -0.12517752 -0.096084975 0.16545562 -0.060635656 -0.1748856 -0.054372378 -0.13896959 0.21769883 -0.11967311 0.11741324 0.20617385 -0.1404713 -0.068066806 -0.04977243 0.12551005 0.03489904 0.11767422 0.044058446 -0.0077169137 -0.3535988 -0.10085938 -0.10539699 -0.09683228 0.007241786 -0.039365873 0.07293319 -0.0658699 -0.11982652 0.07706801 -0.02659488 0.1112956 -0.09303681 0.26358 0.057126984 -0.17109072 -0.23322698 0.09539439 0.07799604 0.10416659 0.109077945 0.13140415 0.16060993 0.0700142 -0.19271332 -0.14646205 0.12159132 -0.3579728 -0.09613432 -0.06331751 0.028383924 0.012272771 -0.09575891 -0.085419364 -0.055640496 -0.10594216 -0.033193003 0.008443684 0.0969322 0.10273554 -0.060193114 0.098742686 -0.0095793335 0.15451099 -0.092922896 0.29477954 -0.06705047 -0.097744234 -0.14123286 0.02358557 0.056665212 0.07581831 -0.21132989 -0.11241728 -0.12852657 0.15173995 -0.050968964 0.10925751 -0.015582175 -0.059391953 0.0044105602 -0.09022612 -0.0015850231
4 -0.0077546444 -0.09093299 0.12440575 -0.013197743 -0.071378686 0.12494173 -0.059553597 0.095247805 -0.03809682 0.16424103 -0.039240535 -0.090464845 -0.15150416 -0.03539592 -0.052329533 0.14047664 0.031534396 0.11878482 -0.026246127 0.071925856 0.039284445 -0.046403047 0.05243522 -0.17349365 0.1868671 0.11435593 0.03682043 -0.078498095 0.041135147 -0.21244632 -0.011049518 -0.04281216 -0.010133999 0.12527013 0.12518834 0.06666599 -0.18069667 0.05885036 0.10565618 -0.08782458 -0.11952326 -0.18626434 -0.017182933 -0.235644 -0.051045638 -0.020993017 -0.09149023 -0.030515755 0.12438693 -0.0835802 -0.1915945 -0.07018554 -0.12533522 0.1372263 -0.10928117 0.102165475 0.1879857 -0.11276774 -0.13376728 -0.08771533 0.13289128 0.12520553 0.064477175 0.07641341 0.0076719928 -0.31019098 -0.041428857 -0.027127886 -0.18976872 0.009085017 -0.026172478 0.10448548 0.057953835 -0.047042347 0.071571454 -0.015690042 0.041170925 -0.068162285 0.19573127 0.022211231 -0.13817298 -0.16941397 0.07092101 0.107682966 0.08993341 0.047872305 0.12450106 0.14022823 0.055985518 -0.16144878 -0.072693534 0.040805113 -0.32384458 -0.06252445 -0.14827737 0.05549838 0.01842478 -0.068123676 -0.039799523 0.037862174 -0.10833739 0.064368315 0.0007079418 0.13519348 0.10781213 -0.045766104 0.10804135 0.06945314 0.09030787 -0.09961622 0.2639698 -0.043840405 -0.109625675 -0.058391616 0.09173864 -0.054479193 0.076941185 -0.21881118 -0.17688878 -0.1563741 0.12676488 -0.041531768 0.06609633 0.010150971 -0.040343694 0.024251213 -0.10239328 0.03298668
7 -0.0020711564 0.008987366 0.124407314 0.09976642 0.07645657 0.04035056 -0.16518195 -0.045020383 -0.09864221 0.10379263 -0.037378922 -0.15107799 -0.08249249 -0.034256756 -0.063052006 0.104317375 -0.13088831 -0.0027085615 0.016280916 -0.041398454 -0.034442358 -0.02967931 0.039649863 -0.05465832 0.113185644 0.06674843 0.07921725 0.023274252 -0.060624335 -0.16725165 0.020034336 0.010065672 -0.088864066 0.14166267 0.057655502 0.12807418 0.008248993 0.073904015 0.047499757 -0.038064703 0.0037175321 -0.07023086 0.02558986 -0.2779103 0.044820372 0.00011031398 -0.024989601 -0.008753745 0.12213993 -0.04905173 -0.17415793 -0.03662335 -0.11179001 0.07766949 -0.09015275 0.037449185 0.08509712 -0.10559904 0.026582705 -0.004110138 0.049092025 0.07204898 0.1288418 -0.003146768 0.024435703 -0.18902703 -0.027875625 -0.054372866 -0.0802446 -0.056676794 0.014742669 0.16900864 -0.12833694 -0.1482007 0.01786164 -0.030564006 0.043289125 -0.052382626 0.14654577 0.04685048 0.001515354 -0.05673018 0.11059695 0.050867703 0.07552745 0.13898735 0.039623592 0.09441771 0.07763538 -0.059118643 -0.046286505 -0.011324931 -0.32136542 -0.13298066 -0.16294608 0.03380394 0.12133204 0.048203 -0.09041405 -0.06471375 -0.10571698 0.0031753136 0.009694125 0.16634376 0.14814897 -0.19839987 0.1034051 -0.041307602 0.03607715 0.042169992 0.18780641 -0.06917958 -0.073154755 -0.1209544 -0.10419963 0.05319406 -0.036782052 -0.25065088 -0.13800065 -0.0977148 0.16339712 -0.06482703 -0.021583121 0.03372447 -0.042820152 -0.11122363 -0.023869557 0.05408605
6 0.035852853 -0.071272634 0.12096174 0.03681723 0.022998996 0.15184374 -0.042438373 0.13996276 -0.04206122 0.20749368 -0.045599367 -0.05418107 -0.08437094 -0.017431159 -0.044829458 0.192172 -0.014425324 0.15724106 0.08927681 0.008254527 -0.018458722 0.064554624 0.094589755 -0.14206883 0.19441062 0.121329874 0.10149283 -0.13643432 -0.00097526785 -0.19907124 -0.041859817 -0.0294173 -0.050976917 0.15449634 0.12829836 0.08898045 -0.06431664 0.19851425 0.17089859 0.016858125 -0.101445004 -0.16560781 0.039679695 -0.28669187 0.012267394 -0.07657353 -0.0616658 -0.052572355 0.069973126 -0.10105195 -0.17632098 -0.0649381 -0.16661376 0.13608426 -0.05952355 0.15070367 0.2012063 -0.07907218 -0.08493522 -0.0622434 0.08245379 0.039156277 0.0921667 0.09157665 -0.039943498 -0.27791488 -0.08460062 -0.050184067 -0.1501313 -0.011621677 -0.06907663 0.08615458 -0.008421079 -0.07452863 0.028866457 -0.022299226 0.07641762 -0.0799931 0.20172074 0.029241838 -0.18369599 -0.2038805 0.064707294 0.05071793 0.16675471 0.078546405 0.08637786 0.1263462 0.11122717 -0.15496968 -0.14076358 0.10186634 -0.3169062 -0.18569049 -0.08848737 0.04178482 0.072319426 -0.046632204 -0.043599084 -0.007620467 -0.11138057 0.044097625 -0.037244733 0.12812556 0.059087582 -0.05583727 0.12168667 -0.015221497 0.11670435 -0.11353194 0.3551954 -0.08687247 -0.082940295 -0.09563514 0.052827418 0.022500781 0.12922114 -0.23172666 -0.12938721 -0.1570286 0.22882558 0.00022886999 0.06320646 -0.0047243834 -0.11260599 0.005665647 -0.035688497 -0.024842612
9 -0.06318486 -0.027768236 0.0028939894 0.07466091 0.072818674 0.07897068 -0.08224915 -0.016461818 0.0053588124 0.1510475 -0.07030453 -0.15966538 -0.033682078 -0.006224858 -0.047616757 0.053126976 -0.035411056 0.079786986 0.078201525 0.015089592 -0.07272186 -0.050687697 0.022623911 0.05520427 0.121940315 0.09320585 0.10196753 -0.006780032 0.038049236 -0.16799065 0.053487785 0.029081337 -0.10471731 0.11042461 0.11785091 0.01724641 -0.059620783 0.083158895 0.078552134 -0.10057697 -0.022625685 -0.10777569 0.034091465 -0.2176765 0.038297184 -0.046979886 -0.04434634 -0.0014244262 0.11669515 -0.07184509 0.0017809728 -0.019073877 -0.08005195 0.09310353 -0.056027077 0.074692465 0.07800469 -0.07789297 -0.024075387 0.017003007 0.024650887 -0.047458064 0.086642124 0.05023421 0.024709815 -0.15747824 0.016039215 -0.06839098 -0.073253185 0.002721906 -0.013914901 0.14899302 -0.122458905 -0.11824874 0.086476594 0.024481617 0.033171363 -0.026462376 0.14108886 -0.029696181 -0.042394575 -0.1086166 0.11044707 -0.063087374 0.11903151 0.16554853 0.06715074 0.059972193 0.043195076 -0.08719374 -0.0760818 0.07341767 -0.1427223 -0.109916314 0.00651162 0.051187236 0.057135705 -0.008004266 -0.06422165 -0.0757747 -0.03321735 0.017195666 -0.05419017 0.12999067 0.10778787 -0.15117565 0.09496865 -0.00528674 0.026192918 -0.0004963465 0.1921383 -0.05922615 -0.05043968 -0.04142958 0.032297455 0.024364632 -0.026801635 -0.071917295 -0.07798953 -0.08327195 0.14947706 -0.070360556 0.048483275 0.038929224 -0.09258592 -0.05569 -0.0823001 -0.027405955
8 -0.0609925 0.002467194 0.035860896 0.04528669 0.078498766 0.17787349 -0.058861732 -0.02137096 -0.014627483 0.18849611 -0.005915686 -0.073643506 -0.1423989 -0.09435805 0.05362313 0.06925168 -0.037256062 0.10402976 0.13773742 -0.02325726 -0.024523087 -0.072835185 0.09301002 0.025500298 0.11014754 0.12913871 0.09591045 0.03881783 0.0113883745 -0.109413736 -0.03765157 0.009814958 -0.11366036 0.09294076 0.027236879 0.08147025 -0.027262412 0.11287388 0.07285731 -0.07749424 -0.0018841552 -0.015563617 0.03271996 -0.28279907 0.07617818 -0.0067038154 0.0040061395 -0.11587232 0.10015998 -0.059720583 -0.027308896 -0.0062403395 -0.08536076 0.16330896 -0.027903548 0.100047655 0.008644249 -0.08095052 -0.026866676 0.009359454 0.1222581 -0.01940648 0.07316527 0.07248058 0.012449674 -0.1398242 -0.035811037 -0.038027488 -0.10040068 -0.0016082404 -0.041259397 0.14250697 -0.10132252 -0.1926142 0.05386235 0.09012866 -0.06401278 -0.06437574 0.15597418 0.0134468945 -0.11108483 -0.11483513 0.057612736 -0.045184683 0.10909428 0.097188435 0.06976736 0.10148745 0.07705803 -0.009812331 -0.023432389 0.06684274 -0.22289391 -0.10201752 0.017085886 0.02656 -0.03177977 -0.020477368 -0.028530955 -0.09462192 -0.097230695 0.023534823 -0.042609304 0.22605388 0.06766416 -0.21315458 0.032172836 -0.070218384 0.022815786 0.058116898 0.20465133 -0.014939202 -0.1460767 -0.14423232 -0.016577445 0.038739547 -0.048610035 -0.0995436 -0.06595921 -0.025804358 0.115659274 -0.08304729 0.091729805 -0.012320316 -0.09837515 -0.047370926 -0.064641796 -0.06474136
11 -0.03332405 -0.018152678 0.056113616 0.03830119 0.056635384 0.11311786 -0.037806075 0.09219369 0.029405136 0.097092345 -0.06758521 -0.05262497 -0.04821758 -0.05617755 -0.009409365 0.06095604 -0.04894627 0.085305974 0.025110679 0.04448479 -0.039677355 -0.03302654 0.002055034 -0.029928016 0.11538132 0.10174647 0.081387304 -0.027751546 0.021282488 -0.13083349 -0.023894172 -0.0023094334 -0.026660303 0.11130703 0.08868489 0.08730882 -0.05171709 0.12373017 0.099952765 -0.08988719 -0.0035490452 -0.0909556 0.014424147 -0.18396284 0.007286273 -0.039350826 -0.019499449 -0.027674573 0.06840171 -0.028582335 -0.08292993 -0.04170951 -0.123769976 0.11350503 -0.0029886977 0.03112325 0.04601981 -0.038948916 -0.024960408 -0.060612705 0.023111623 -0.0023044767 0.049604286 0.04852753 -0.005789913 -0.20018175 -0.03723605 -0.078826845 -0.09284107 -0.024307154 -0.0022190874 0.08906741 -0.015463984 -0.084988266 0.048099883 0.01495471 0.0040985146 -0.022900568 0.13212277 0.036723424 -0.103896186 -0.12312984 0.07584167 -0.03191202 0.084417485 0.032785915 0.07690828 0.050992418 0.054128658 -0.11587262 -0.03035512 0.09401277 -0.20206578 -0.09957414 -0.04975681 0.036789853 0.049781043 -0.038895786 -0.055307128 -0.047075476 -0.06685131 -0.00675545 -0.030722376 0.13828075 0.051285483 -0.110113725 0.092341445 -0.02447118 0.026906077 -0.051070023 0.23017874 -0.024842089 -0.11819615 -0.040422443 0.0516304 -0.0006336836 -0.023334041 -0.12124306 -0.12349493 -0.116526015 0.085551165 -0.041558754 0.0398935 0.015363203 -0.10365273 -0.041312452 -0.051158227 -0.009472068
10 0.035187114 -0.013071502 0.051479563 0.07234047 0.020656774 0.122745685 -0.086665995 0.12565276 -0.011448501 0.17851144 0.0062807202 -0.026101934 -0.12298441 0.0015639788 -0.026652092 0.0966688 -0.055630993 0.087458186 0.040181838 0.020600656 -0.047783338 0.05698477 -0.012016882 -0.05290258 0.1466166 0.15516202 0.048395935 -0.06460913 -0.08355564 -0.055711124 -0.112060644 0.10102258 -0.011034721 0.14623696 0.10181133 0.120899536 -0.07009602 0.19920975 0.05812772 0.00077875867 0.0071283164 -0.039849665 0.057721563 -0.21000944 -0.062051807 -0.05383866 -0.028019216 -0.040860698 0.046703655 -0.04730843 -0.15456219 -0.063432716 -0.14778072 0.045706816 0.01618772 0.036315177 0.056807432 -0.08890411 -0.01654728 -0.07332124 -0.02568796 -0.014312114 0.04768495 0.0923301 -0.051781315 -0.18201794 -0.057732616 0.01009193 -0.07540342 -0.05750864 0.016312424 0.06903091 0.020467717 -0.11909518 -0.014021314 -0.03110328 0.042578634 -0.016155595 0.16095556 0.09709796 -0.097478196 -0.13086115 0.042756565 -0.009256516 0.052732237 0.02264756 0.06512819 0.064241625 0.03153247 -0.041068975 -0.06403008 0.110502064 -0.2603123 -0.13330744 -0.14100093 -0.024924787 0.037787497 0.017247612 -0.07847059 -0.0067062923 -0.10198057 0.06331895 0.017298985 0.1189048 0.05851616 -0.09319612 0.07326843 -0.007384558 0.04570839 -0.03588701 0.2255136 -0.035494488 -0.13135502 -0.028259935 -0.011560812 -0.0020718018 0.06720628 -0.10994156 -0.14340128 -0.16051959 0.09380676 -0.05817957 0.025470693 0.018020535 -0.088949114 -0.052783083 0.021925675 -0.011493572
13 0.03650257 0.01661432 0.019473013 0.029039357 -0.0057972074 0.12849376 -0.0505976 -0.054834828 -0.05069978 0.192357 0.007529085 -0.035810757 -0.24941675 -0.020030158 0.08905766 0.09573372 -0.057335306 -0.0043264385 -0.0014741992 -0.029250246 -0.022640677 -0.09039289 0.021609154 -0.016424194 0.11307088 0.16959342 0.074322894 0.05064059 -0.09297436 -0.09613824 -0.1194598 0.03900441 0.007082045 0.08294838 0.030433854 0.1203169 -0.12970464 0.099760205 0.0031876096 -0.09260773 -0.0025992147 -0.0046315943 0.004625008 -0.25540438 -0.05137707 0.03509131 -0.0054883095 -0.1391068 0.1851909 -0.0639789 -0.13371967 -0.025743727 -0.08877681 0.11318228 -0.009034569 0.031102125 0.04526426 -0.076621994 -0.019673845 -0.014469224 0.11207662 0.050570365 0.017952954 0.03247783 0.05913716 -0.16380017 -0.017882962 0.08986656 -0.09754647 -0.018348977 -0.05634436 0.12689944 0.016007526 -0.19212165 -0.028259048 0.048792966 -0.00019737871 -0.070071496 0.2013919 0.08227689 -0.08442554 -0.043439806 0.059886638 0.044560228 0.024850423 0.079869375 0.05443994 0.1723743 -0.01598276 -0.0019365354 0.008564698 0.053235557 -0.2849163 -0.101166725 -0.1423764 0.056980737 -0.06487349 0.011079231 -0.067697525 -0.05896543 -0.12899318 0.03899229 0.008237252 0.15024361 0.0882615 -0.18170789 0.03792368 -0.015847001 0.032467246 0.067785025 0.19456013 0.030124502 -0.19060902 -0.14812163 -0.045301154 -0.007946955 -0.008648155 -0.08806778 -0.08433202 -0.05805923 0.04884031 -0.10080325 0.0655257 0.011627378 -0.010802317 0.004023279 -0.032981563 -0.019274093
12 0.038172495 0.025902623 0.049868785 0.09096667 0.030734064 0.00787927 -0.072335504 -0.06695672 -0.046740606 0.20288776 -0.09154376 -0.114002645 -0.13722754 -0.000459391 0.045679815 0.16613841 -0.10389819 0.015962664 -0.03476637 -0.0153966155 -0.034341834 -0.014786918 -0.0071089044 -0.054460663 0.14994074 0.13883123 0.11818831 -0.04187244 -0.075342715 -0.19529685 -0.112247646 0.014690305 0.019630648 0.14895044 0.093382314 0.07746328 -0.050373126 0.14705738 0.047516413 -0.032359038 -0.020176193 -0.0959807 -0.02116106 -0.29909652 -0.038645014 0.026342586 -0.07104339 -0.10421333 0.22494802 -0.05985414 -0.18303259 -0.031951196 -0.12187587 0.12329583 -0.075480685 0.016089147 0.1391413 -0.05507613 0.021223215 -0.04903868 0.039506517 0.04704303 0.09194576 -0.008039001 0.0115769645 -0.27321568 -0.035833884 -0.005798633 -0.07235588 -0.02050118 -0.04398253 0.13678159 -0.07660153 -0.1660667 0.021345243 -0.02104998 0.13322176 -0.064860106 0.24669866 0.09402895 -0.06672326 -0.08824663 0.13264567 0.048831053 0.04359004 0.13053301 0.06620541 0.1803524 -0.012734812 -0.14638889 -0.093963824 0.098318934 -0.3348739 -0.14474581 -0.13855904 0.07447165 0.045086198 -0.023049887 -0.11100268 -0.122596905 -0.07904924 -0.018208003 0.0049357023 0.036282234 0.13571179 -0.13246983 0.08870551 -0.03970836 0.09530286 -0.0043329676 0.2661971 -0.04829082 -0.11841715 -0.14574136 -0.040997013 0.077710055 0.032783534 -0.16440341 -0.10035468 -0.088295944 0.12345722 -0.06021092 0.05416329 0.0385593 -0.04831679 -0.03936482 -0.042290956 0.0037189433
15 -0.09337173 -0.010917233 0.033946387 0.035211764 0.09729297 0.11078296 0.011454018 0.1442346 0.16885093 0.023666581 -0.09869439 -0.059407033 0.033515047 -0.11142136 -0.022853117 -0.08528065 -0.054412223 0.10001603 0.05628879 0.10545988 -0.05793098 -0.10374957 -0.09094773 0.09883112 0.035974983 0.09604899 0.053692985 0.031700112 0.04130334 -0.11537555 0.039498203 0.0037142115 -0.055017505 0.08750667 0.07840906 0.026662601 -0.0514824 0.11055871 0.06238871 -0.15068132 0.06451131 -0.07630791 0.013878568 -0.07542011 -0.0016231005 -0.03827064 0.01681445 0.04417366 0.019823203 0.018073298 0.002361964 -0.061722513 -0.11034933 0.12694705 0.06640817 -0.038004678 -0.10549754 -0.007666255 0.011571801 -0.05591028 -0.0173805 -0.07565532 0.048653524 0.050218757 0.0115768295 -0.15752862 0.038553722 -0.13697638 -0.08757682 -0.08239723 0.04464562 0.06443795 0.011415236 -0.049500324 0.070206426 0.07363215 -0.067173995 0.035661876 0.07786838 0.042792052 -0.075540975 -0.1008124 0.087461114 -0.12241109 0.027176546 -0.076406606 0.095794134 -0.04349536 0.03301871 -0.111336485 0.05824163 0.1040141 -0.042101417 -0.03913467 0.036576297 0.036200542 0.044943497 -0.04139443 -0.012363831 -0.08903936 -0.01941693 -0.037664276 -0.068334855 0.18785001 0.018940242 -0.1395223 0.11986397 0.0015375772 -0.061546363 -0.07275251 0.18846552 0.05226429 -0.17511769 0.058673695 0.103000894 -0.07134036 -0.13499823 -0.028099753 -0.16655098 -0.14227472 0.013880682 -0.07037425 -0.03361901 0.04285098 -0.15364157 -0.09061731 -0.10463071 -0.0013549452
14 -0.054088663 -0.0063716196 0.00056770415 0.037593942 0.07861939 0.09878519 0.037324894 0.10204488 0.15308036 0.094920516 -0.04018931 -0.027380504 -0.03560653 -0.0546766 0.004004553 -0.081120126 -0.035027914 0.06367735 0.09086719 0.10115384 -0.10836241 -0.124365605 -0.080674365 0.14761962 -0.00033625666 0.113125145 0.018083896 0.07613818 -0.05009564 -0.010527461 -0.015679032 0.07504094 -0.06721942 0.046449315 0.058059298 0.017347364 -0.070620924 0.15240833 -0.007767235 -0.15806946 0.09871686 0.020378286 0.042948354 -0.07960488 -0.0012752365 -0.01973109 0.03246273 0.0053496147 0.0049868403 -0.019412985 0.028672988 -0.036547326 -0.07280967 0.07255421 0.13059017 -0.025123842 -0.14087583 -0.009296339 0.04351329 0.008493356 -0.027239164 -0.09359303 0.033071615 0.102974735 0.015632473 -0.08096544 0.044614207 -0.010840421 -0.098134264 -0.1014875 0.049486764 0.07353542 0.032628927 -0.115487315 -0.0028434494 0.118132286 -0.112799816 0.01983297 0.08609777 0.07669436 -0.059201915 -0.08882074 0.062484533 -0.14061767 -0.01668788 -0.09128751 0.056116495 -0.01447433 -0.019613985 -0.0031059065 0.11157558 0.09920659 -0.023729812 -0.034328952 -0.0004896032 0.019360539 -0.011096074 0.006026818 -0.018211769 -0.10514916 -0.05015459 0.044597257 -0.030018937 0.18223444 0.018543938 -0.19366376 0.07603713 -0.0026000575 -0.09636468 -0.010058483 0.15626869 0.06967014 -0.23514062 0.019137472 0.043467686 -0.0960223 -0.13736856 0.025216708 -0.12951224 -0.10817082 0.010401712 -0.122115 -0.046187207 0.0759187 -0.12455322 -0.0897178 -0.05877476 -0.039575886
17 0.018187031 0.018221106 0.029290915 0.07898834 0.06927389 0.18298273 -0.1336539 0.046552926 -0.10652918 0.17098105 -0.042570744 -0.023478664 -0.17280766 -0.019041413 0.025545279 0.13598865 -0.120638326 0.047609936 0.030284476 -0.13437276 -0.024482908 0.056611896 0.05214042 -0.06873836 0.18478402 0.18129052 0.13804051 -0.023980573 -0.039740644 -0.14433803 -0.10432646 0.0088738315 -0.026925744 0.16051498 0.08517214 0.20596343 -0.030517355 0.19158977 0.12467736 0.019413171 -0.028279433 -0.07576663 0.025351064 -0.31350097 -0.018887794 -0.06536158 0.012429055 -0.12414555 0.15389554 -0.06653802 -0.13233848 -0.02821441 -0.14353622 0.12108824 -0.03052638 0.06063258 0.12717369 -0.10480428 -0.0032670884 -0.03389629 0.049416434 -0.001112383 0.070590906 -0.016931001 -0.0034197685 -0.20889913 -0.055232007 -0.040571176 0.0006414457 0.0020437317 -0.05338845 0.11565321 -0.07290051 -0.18593471 0.02063538 -0.046076898 0.086920306 -0.07889651 0.20255376 0.07927237 -0.09581662 -0.11773897 0.06741995 0.029502971 0.15467295 0.1534494 0.040304005 0.11565697 0.10696991 -0.052294865 -0.14074661 0.09987169 -0.3310555 -0.189151 -0.109022565 0.03555037 0.03850458 0.054038245 -0.12353971 0.006486223 -0.14658383 -0.047526117 -0.060974628 0.15026075 0.048816327 -0.13723917 0.07797322 -0.09994557 0.0444468 0.01667988 0.26812208 -0.020650472 -0.06890236 -0.12065626 -0.0442589 0.10028065 0.07518383 -0.14271751 -0.058399927 -0.110402524 0.13681492 -0.039394453 0.090050876 -0.06712001 -0.076438546 -0.0052712746 0.019860309 -0.032144096
16 0.025001813 -0.069922596 0.08197325 0.06510087 -0.041275777 0.12374895 -0.11463462 0.09747231 -0.07503923 0.30486783 -0.081437215 -0.12519899 -0.14369671 -0.0058735795 -0.01612999 0.28311026 -0.010681371 0.19869855 0.0034940417 0.022500806 0.026133837 0.09245178 0.082289696 -0.21436998 0.3059103 0.18045111 0.1265323 -0.19189031 0.02695236 -0.25643045 -0.112046994 0.005471661 0.0040586432 0.23199275 0.1886247 0.06774239 -0.12471824 0.19432189 0.1827849 0.024945702 -0.16514765 -0.22234875 0.0033359537 -0.3800303 -0.048133813 -0.057048786 -0.17317167 -0.10041485 0.1924828 -0.100412615 -0.23704422 -0.054286588 -0.1982866 0.17400122 -0.17240334 0.17046304 0.3224276 -0.15266648 -0.1303379 -0.10239151 0.077912204 0.06902978 0.11424555 0.07798019 -0.0686705 -0.41312656 -0.11722948 -0.07068626 -0.14914753 0.04332276 -0.04939729 0.111958295 -0.062149845 -0.11081561 0.10912302 -0.073669694 0.17730142 -0.06659081 0.31497172 0.047035486 -0.19478314 -0.26477927 0.10486746 0.09452876 0.1528076 0.1800646 0.14879765 0.18817581 0.042260833 -0.25515768 -0.2577851 0.17557743 -0.45130202 -0.15708967 -0.108413935 0.03525489 0.04004105 -0.118603386 -0.119611084 0.000733082 -0.090165675 0.032223992 0.0037714827 0.03704242 0.12702772 0.0019905446 0.1031796 0.022928262 0.21289006 -0.1260578 0.37739128 -0.15686107 -0.048302576 -0.12171244 0.07507597 0.09426052 0.19842553 -0.21962611 -0.15792091 -0.16772388 0.20802732 0.0060975524 0.14451611 -0.005917582 -0.09536524 0.033847198 -0.0697635 -0.0047193784
33 -0.034762714 0.038219623 -0.006461049 0.11713224 0.13491422 0.013162508 -0.045110997 -0.024243658 0.08159135 0.09514194 -0.09128253 -0.12412857 0.0049329572 -0.003919055 -0.022545716 -0.023680458 -0.11611225 -0.004546849 0.06647608 0.03319688 -0.13855366 -0.086723186 -0.06932076 0.1554167 0.034162853 0.091741405 0.07859355 0.07335361 -0.055812337 -0.08287171 0.015336829 0.0799734 -0.074427 0.08356212 0.091920234 0.04654606 -0.0069580683 0.14704226 0.011983638 -0.12335113 0.10426712 -0.026826004 0.039638184 -0.16899352 0.029524239 -0.029358009 0.0060399636 0.020064883 0.09498149 -0.020162506 0.025601959 -0.016781945 -0.07735021 0.044165462 0.046619132 -0.022319632 -0.06360567 -0.021817116 0.09733969 0.024479846 -0.0878044 -0.09403167 0.08984077 0.027920134 0.01586638 -0.10626252 0.062393796 -0.062026907 -0.03403609 -0.0825283 0.03133855 0.15762374 -0.1195524 -0.1630654 0.03908678 0.05107741 -0.0016421885 0.017756686 0.1127531 0.05827903 0.016502697 -0.0403337 0.117516175 -0.13026607 0.03470772 0.06843092 0.03357738 0.0014768429 -0.012832587 -0.05412573 0.009698613 0.09526785 -0.08227639 -0.09804198 -0.022745874 0.05297287 0.08088827 0.039671008 -0.083452344 -0.13309652 -0.03368451 -0.014504535 -0.05160472 0.12898807 0.075325124 -0.21730816 0.10590865 -0.060016304 -0.0731276 0.026885433 0.16346616 0.0024207504 -0.13590395 -0.021924905 -0.02317783 0.014345602 -0.12664609 -0.029271817 -0.10339702 -0.09125038 0.08876368 -0.10214113 -0.02993258 0.0745477 -0.12096271 -0.13088435 -0.037669457 -0.021909988
32 -0.07783334 0.021851309 -0.00957835 0.09092615 0.13245809 0.06685379 -0.030083753 0.06762047 0.09494649 0.15103947 -0.09512046 -0.09865586 0.019887138 -0.050448645 -0.024313722 0.017996624 -0.057946164 0.11312761 0.070160605 0.09513846 -0.11252008 -0.028909182 -0.04568647 0.09347429 0.11153986 0.10634018 0.09661637 -0.019472811 0.00799317 -0.028768543 -0.0652146 0.10495858 -0.07356603 0.12471215 0.08263946 0.032714505 0.02135818 0.18790935 0.05906655 -0.123671666 0.04636994 -0.017265853 0.0682861 -0.17664807 0.053615 -0.03859013 -0.024309773 -0.02225689 0.0398676 -0.011797531 0.005707773 -0.019694805 -0.11458059 0.07742904 0.032163855 0.0011412991 -0.025828365 -0.046319317 0.021118585 -0.014792283 -0.08227821 -0.111177914 0.05800408 0.090167224 -0.03085099 -0.1454232 -0.043868408 -0.10262697 -0.038742427 -0.043909416 0.07285253 0.09381659 -0.107487015 -0.13571443 0.04791734 0.053207815 -0.01047218 0.025208315 0.13705006 0.055629466 -0.063929364 -0.15336572 0.11269821 -0.16767585 0.04240803 0.052430775 0.07853059 0.024330497 0.00608753 -0.09307432 -0.012409562 0.16894369 -0.11719196 -0.0887745 0.032371514 -0.016440025 0.046551302 -0.055096082 -0.0866855 -0.14419523 0.006892463 0.019424874 0.0007393097 0.083077654 0.08356292 -0.14764813 0.05344789 -0.04829302 0.013651923 -0.026428334 0.20164506 -0.05292801 -0.1349034 -0.026297016 0.030062115 0.033210345 -0.06794112 -0.017684883 -0.12670231 -0.06347386 0.06241866 -0.06910776 0.035179462 0.08814196 -0.16475284 -0.08723525 -0.03835769 -0.069877535
31 0.01857883 -0.011571983 0.06227698 0.077792175 0.025964169 0.06740968 -0.061740335 0.0001352826 0.039318077 0.106636114 -0.00838412 -0.089996114 -0.11582695 -0.026390757 0.008911501 -0.025021898 -0.09289503 -0.0012857853 0.09705027 -0.030734936 -0.045820303 -0.1022046 -0.03985469 0.078188285 -0.0069088587 0.11419629 0.015964663 0.09157068 -0.12992808 -0.16182616 0.03451337 0.025683934 -0.08143842 0.080889136 0.066602595 0.031065194 -0.09448246 0.099965364 -0.026472325 -0.0263582 0.0754661 -0.026778711 0.0025832644 -0.16325249 -0.060510397 0.0070750583 -0.0010714399 0.016711192 0.100975044 -0.044654947 -0.077901684 -0.055013448 -0.06969016 0.090684876 0.039591663 0.008973661 -0.063978516 -0.044038594 0.07895152 0.013828897 0.050656296 -0.02575712 0.110928066 0.027109878 0.03909121 -0.1190159 0.100202374 0.027046189 -0.10507831 -0.12158001 -0.029231172 0.11717782 -0.0060575483 -0.13186501 -0.002472967 0.052072782 -0.023048883 -0.031072836 0.11998391 0.08007089 -0.015514823 -0.008728023 0.0498982 0.017101703 0.0022640373 -0.019252481 0.02923628 0.020000793 0.0056446884 0.01577221 0.028006265 -0.005044434 -0.1386454 -0.08285492 -0.0994538 0.05754968 0.030613877 0.092891864 -0.017003138 -0.072527096 -0.12895916 0.0026644256 -0.056657266 0.225918 0.055061925 -0.22948472 0.12660137 0.0012668814 -0.07927607 0.030625371 0.14216769 0.072801135 -0.17816089 -0.029477857 -0.053039815 -0.06720216 -0.096431084 -0.08936785 -0.108455285 -0.15969343 0.099720836 -0.1386365 -0.08510276 0.021261435 -0.03957592 -0.1270304 -0.07170346 0.045123257
30 0.004514593 0.033221666 -0.02313597 0.09599072 0.13634798 0.13371809 -0.053589173 0.1452558 0.10096559 0.101905786 -0.10812581 -0.033265226 0.008025437 -0.0069420603 -0.0020234575 -0.00921174 -0.11380152 0.087597445 0.107591376 -0.04862354 -0.0969042 0.042294744 -0.064988986 0.087597676 0.08373828 0.15366289 0.12367535 -0.003933453 -0.03118872 -0.09617282 -0.034881715 0.04389083 -0.045094274 0.1348414 0.11377643 0.09067901 0.007490359 0.26224977 0.12253887 0.0008700948 0.050435644 -0.08077132 0.05640132 -0.19142337 -0.027350172 -0.10774563 0.014035577 0.002982177 0.060421035 -0.0010913991 0.022393601 -0.044379275 -0.12703957 0.09454486 0.068629555 0.015536584 -0.030917471 -0.055033978 0.08289669 -0.023628572 -0.106801815 -0.15735735 0.095596656 0.013168915 -0.04894853 -0.15653332 0.031219395 -0.14650351 0.039482728 -0.07122508 -0.009303599 0.06882801 -0.08643116 -0.1344909 0.06385083 -0.008582066 0.064775966 0.01096205 0.12713782 0.09313277 -0.07276649 -0.109579325 0.061634704 -0.120409496 0.11246542 0.03307829 0.07017673 -0.049442288 0.057445616 -0.09805631 -0.09863124 0.18405779 -0.07788807 -0.12330888 0.03176837 0.029507285 0.055849772 0.029526336 -0.079561196 -0.03502293 -0.06908317 -0.10631741 -0.11072949 0.13382554 -0.041842107 -0.09773564 0.13509732 -0.0980389 -0.049414773 -0.06796294 0.22887574 0.031414196 -0.08706546 0.02494274 0.019512895 0.053069524 -0.017668443 -0.00272108 -0.07540781 -0.16385488 0.08682561 -0.046853922 0.019676197 -0.040627398 -0.16468078 -0.07102602 0.0010375832 -0.041184638
19 -0.01136151 0.020173134 -0.020152546 0.09511416 0.003414428 0.06480297 -0.10276864 -0.087321416 -0.028198367 0.24539651 -0.046079542 -0.12005724 -0.1939342 -0.016747613 0.07620981 0.08845353 -0.0653716 0.048473246 0.042957105 -0.06212082 -0.016637297 -0.04926886 0.006455409 0.035753254 0.11856961 0.1748957 0.07174477 0.045179415 -0.06818437 -0.13598177 -0.09390352 0.061966162 -0.045987036 0.1203179 0.08509698 0.040770166 -0.09071306 0.13210043 -0.0010179675 -0.023401834 -0.0014077409 -0.03158946 -0.016571814 -0.28943998 -0.050836712 0.013915042 -0.067481495 -0.116337046 0.21626596 -0.061266683 -0.056178037 -0.0012583059 -0.06836036 0.12021364 -0.05815749 0.04962201 0.058519028 -0.11256534 0.030034296 0.0143270325 0.05062372 -0.028768664 0.10691227 0.014005483 0.007175835 -0.19392908 0.03702621 0.019052379 -0.039015524 -0.015626075 -0.02428522 0.14919996 -0.11321721 -0.22872867 0.0733522 0.035943907 0.0591899 -0.046627246 0.23344532 0.08971496 -0.036335774 -0.09115613 0.08793441 0.007892104 0.0320405 0.13469929 0.07237129 0.12019097 -0.03885927 -0.038760807 -0.10187855 0.09403588 -0.24320874 -0.06339412 -0.04864718 0.041917894 -0.050419897 0.018852748 -0.10670923 -0.07843913 -0.097367875 -0.0053918124 -0.030383984 0.09875302 0.099912785 -0.17853443 0.044472154 -0.040947612 0.0072892816 0.05543871 0.16190301 -0.0011832236 -0.11965322 -0.1188482 -0.04794349 0.074202545 -0.0018931335 -0.027855743 -0.059823565 -0.06270009 0.07847152 -0.11890813 0.06763172 -0.002128461 -0.041974626 -0.04374919 -0.06211805 -0.024506992
18 -0.060084157 0.012124933 -0.004744081 0.084756486 0.1796682 0.10104477 -0.0025703441 0.12501702 0.14313743 0.0952907 -0.12676725 -0.09598061 0.08875555 -0.045243498 -0.03835285 -0.04788209 -0.03717588 0.1316849 0.17743917 0.04237083 -0.13956301 -0.034455255 -0.020769218 0.13771497 0.03778061 0.07884736 0.106727146 0.015349816 0.012156793 -0.043655507 0.024467593 0.061033346 -0.1476867 0.09596224 0.08219093 0.010382233 0.06106387 0.22602685 0.10035897 -0.103786886 0.055994175 -0.03367432 0.09895599 -0.1575398 0.09147539 -0.07531684 0.016104233 0.045525692 -0.03679925 -0.0048557306 0.10407357 -0.021408873 -0.08050768 0.08262415 0.08521676 0.036201324 -0.10080682 -0.03564461 0.08064303 0.035115346 -0.094326556 -0.19553538 0.10664838 0.10145092 -0.031603783 -0.098349504 0.015383231 -0.16991754 -0.011928065 -0.0863767 0.04055573 0.072938144 -0.14062744 -0.115779385 0.06043165 0.083328985 -0.046009246 0.015243418 0.077339955 0.032197993 -0.07296416 -0.13892679 0.07900184 -0.19958094 0.10083095 0.022599606 0.074741304 -0.07233419 0.05395155 -0.07433282 -0.003608401 0.15324834 0.01617974 -0.080977164 0.11757036 0.0018200865 0.063311584 -0.012492656 -0.04511723 -0.12727538 -0.024021175 -0.042245157 -0.0667496 0.16513969 -0.011645669 -0.17024711 0.11875284 -0.10159517 -0.059733722 -0.06805982 0.1874433 -0.0037724043 -0.116474845 0.0012976192 0.014908275 0.0040923543 -0.123768 -0.006546212 -0.09417166 -0.09852473 0.10579006 -0.08686358 -0.012552741 0.03687444 -0.19363949 -0.11350958 -0.035659466 -0.074924015
