3312 128
390-0 0.578549 0.034559 -0.116312 0.222266 -0.093147 -0.115408 0.440761 -0.651391 0.090131 0.268589 -0.114128 0.225533 0.149275 0.394709 0.123141 0.252895 -0.414431 0.001357 0.017296 0.201183 0.355097 -0.083008 -0.416451 0.023474 0.019673 -0.012417 -0.042639 0.157307 -0.106866 0.234295 -0.222299 -0.138681 -0.117502 -0.096712 0.091077 0.204723 0.198368 -0.017192 -0.214725 0.136398 0.036572 0.577449 -0.425004 0.378335 0.306931 -0.076753 -0.458140 -0.305417 -0.217967 0.159219 0.427993 -0.137959 -0.281235 0.081877 -0.079341 -0.326067 -0.054120 0.065083 -0.103401 0.086438 0.016307 0.105229 0.332930 -0.265277 -0.000203 0.269597 -0.189839 0.352752 0.112945 0.328549 0.171509 -0.082064 -0.492227 -0.423365 -0.255960 0.069186 0.240501 -0.035000 -0.199315 0.129298 -0.230599 0.192949 0.291741 0.258227 -0.107480 -0.186545 -0.163370 0.312901 -0.303034 -0.031018 -0.150870 0.314573 -0.113155 0.181508 -0.052429 0.227633 -0.055832 -0.018205 -0.009379 0.218882 -0.338645 0.098425 -0.440833 0.363153 0.031079 -0.004242 -0.090127 0.152148 0.087298 -0.209448 -0.089474 0.096672 0.386719 0.313350 0.427978 -0.385189 0.393955 0.181573 0.063556 0.334855 -0.055081 -0.085685 -0.485348 0.793157 -0.009505 -0.427297 -0.019092 -0.169477
847-0 0.172815 0.218500 -0.501069 0.132558 0.349530 -0.114722 0.097394 0.059829 0.369406 -0.369524 -0.006899 -0.436959 -0.022838 0.078482 -0.220537 -0.257392 0.112213 -0.071015 -0.034531 -0.149406 0.189348 -0.161278 -0.074656 -0.632526 -0.297425 -0.013652 0.222605 0.226029 -0.094373 -0.095328 -0.041268 -0.115692 0.288718 -0.109295 0.113238 -0.092680 0.025517 0.100976 0.220036 -0.602238 0.128668 0.109128 0.305033 0.297974 -0.115384 -0.193139 -0.185067 0.083994 0.077515 -0.037461 0.106453 -0.066931 0.008817 0.113929 0.400038 0.312344 -0.004545 -0.214707 -0.161037 -0.545785 0.619266 -0.258368 0.308964 0.114200 -0.375433 0.191314 0.161336 0.024230 0.152651 0.448713 0.550918 -0.185405 -0.154831 0.102152 0.402655 -0.376573 -0.084307 -0.493824 -0.140425 -0.189112 -0.116330 0.466813 0.074563 -0.271858 -0.431837 -0.266253 -0.554483 0.322700 -0.073024 0.603784 0.183753 0.386148 0.457435 -0.070827 0.754548 -0.189145 -0.533122 -0.104720 -0.672023 -0.100207 -0.035262 -0.243479 0.597263 0.020403 0.004538 0.253052 -0.327700 -0.354433 -0.052334 0.014489 0.087759 -0.333533 0.577978 0.018857 0.847571 0.391671 0.263376 -0.374351 -0.074890 -0.149158 0.166886 -0.334602 -0.187007 0.490862 -0.103466 -0.269927 -0.242798 0.069558
661-0 -0.124928 -0.101526 -0.190125 -0.120294 0.178423 0.407934 -0.535267 -0.163359 0.426167 0.087784 -1.026837 -0.289127 0.354787 -0.133497 0.223114 0.122057 0.209126 0.419158 -0.261068 -0.173892 0.476099 0.310427 -0.321651 -0.308737 -0.261569 -0.133130 -0.280759 -0.610878 0.368438 -0.757080 0.097605 -0.023836 0.295149 0.260513 0.134629 0.302959 0.369723 0.277058 -0.156526 0.092536 0.408407 0.197456 -0.400661 -0.588239 -0.066411 -0.301840 -0.553482 -0.256228 -0.022612 0.058009 -0.580753 -0.173202 0.579543 -0.001342 -0.253910 0.227056 0.232930 -0.302992 -0.638573 -0.442515 0.373149 0.288621 0.176595 -0.499224 -1.089609 0.138520 -0.102308 0.509747 0.421820 0.488542 0.012139 0.101345 0.071222 0.013667 -0.161711 -0.478655 0.100410 -0.135337 0.291014 -0.185995 0.215241 0.662623 -0.218966 -0.374487 0.012602 -0.246427 -0.305691 -0.270422 -0.003406 0.148726 0.413968 0.321839 0.147860 0.095209 0.298470 -0.338462 -0.327050 0.310008 -0.465685 -0.084945 -0.052086 0.140575 0.101559 0.108795 -0.168341 0.133759 0.124070 -0.501860 0.245446 0.362984 -0.289132 -0.585757 0.205810 -0.239810 0.033116 0.424517 -0.049403 -0.469354 0.416771 -0.369637 -0.045022 -0.496877 -0.066057 0.728422 0.745943 -0.577835 0.285246 -0.331344
643-0 -0.036208 -0.091243 -0.018536 0.535366 0.900637 0.457864 -0.562196 -0.107118 0.229387 0.193270 -0.519157 -0.385353 -0.352283 0.215972 -0.316153 0.070682 -0.200152 0.102706 -0.184543 -0.105478 0.913421 -0.059920 0.064665 -0.625871 -0.230994 0.106208 -0.270091 -0.039478 0.348354 -0.543606 -0.116421 -0.323450 0.463189 0.278512 -0.255456 0.361442 0.474984 -0.036866 -0.315189 -0.568260 0.431672 0.161191 -0.400549 -0.145869 -0.134450 -0.343922 -0.411378 -0.090258 0.564858 0.122107 -0.398221 -0.198075 0.145655 -0.215485 0.017215 0.090258 0.471506 -0.231533 0.005458 -0.251467 0.349392 -0.020628 0.080126 -0.031148 -0.431865 0.065105 0.083879 0.008993 0.043785 -0.120943 0.424030 -0.250455 0.409913 0.094805 -0.098925 -0.121322 0.299700 -0.325612 -0.048310 -0.204930 -0.290972 0.442613 0.083453 -0.276711 0.098178 -0.240210 -0.085901 -0.072674 -0.203927 -0.202989 0.215087 0.325909 0.547189 -0.241144 0.481024 -0.499122 -0.790658 0.124448 -0.152697 -0.043196 0.096090 0.151966 -0.144235 0.348589 0.092512 -0.537389 0.439165 0.127802 0.368003 0.496820 -0.394582 -0.564970 0.620952 0.267120 0.364464 0.458566 0.017309 -0.190276 0.391993 0.048995 0.138496 -0.130246 0.270991 0.423799 0.466939 -0.174663 -0.004343 -0.433004
439-0 0.457504 0.191728 -0.129112 0.182069 -0.186153 -0.315259 0.413775 -0.590969 -0.249926 0.306425 -0.049976 0.185405 0.404983 0.421860 0.048262 0.341907 0.059427 0.262768 -0.113543 0.070707 0.197051 -0.037166 -0.023866 0.088477 0.180105 0.013472 -0.109290 0.218639 -0.029781 -0.041057 -0.406472 -0.208019 0.118184 0.250229 0.028967 0.257879 0.091977 -0.147434 -0.398310 0.186410 -0.150648 0.534549 -0.210612 0.208588 0.211034 0.051087 -0.749624 -0.260046 -0.306634 0.074616 -0.002370 -0.492296 -0.110462 0.147370 -0.013475 -0.382746 -0.151742 -0.090413 -0.181750 -0.288152 0.080944 0.372528 0.491610 0.002304 -0.034920 0.351745 -0.067271 0.434751 0.127567 -0.102517 0.317419 -0.273144 -0.454482 -0.456153 -0.193257 -0.100598 0.159958 -0.430589 -0.207990 0.225170 -0.164067 0.423353 0.150931 0.198422 -0.473317 0.188772 0.223700 0.113276 -0.397322 -0.158914 -0.120883 0.304420 0.160053 -0.101669 0.067917 0.169655 -0.080401 0.068906 0.299811 0.282896 -0.347448 0.334011 -0.001265 0.205425 0.025831 -0.308822 0.067199 0.595549 0.186109 0.142767 0.372927 0.158939 0.159853 -0.122986 0.155766 -0.490516 0.388528 0.338569 0.299469 0.253412 -0.126549 -0.164634 -0.405258 0.782023 -0.203194 -0.266429 -0.141287 -0.213245
471-0 0.164497 -0.096237 -0.145127 0.674779 0.024040 -0.128153 -0.406041 -0.484617 -0.006841 0.253766 0.449836 0.088136 0.356474 0.039913 0.011300 0.603145 0.179033 0.246510 0.196402 0.258144 -0.055818 -0.074484 -0.314362 -0.491558 -0.075441 0.028954 -0.129374 0.227792 0.219462 -0.016668 -0.183773 -0.152433 0.645147 0.208245 0.163684 -0.105711 0.142145 -0.240513 0.052383 -0.087326 0.151117 0.569861 -0.169736 -0.025133 0.021684 -0.036448 -0.053927 0.023721 -0.458697 0.245157 0.011349 0.183586 -0.291878 -0.006416 -0.373087 0.267701 -0.031888 -0.297871 -0.068977 -0.376557 -0.147046 0.188782 0.225148 0.230408 -0.235327 0.162161 -0.313742 0.010717 0.207196 0.473950 -0.104883 -0.015095 -0.187903 -0.096080 0.200247 0.301460 0.020642 0.189455 -0.233294 -0.189418 0.254853 0.484985 -0.153663 0.251705 0.189039 0.058357 -0.098504 0.711545 -0.121344 -0.449923 -0.352611 -0.057791 0.088516 0.021374 -0.056959 0.096957 -0.554546 -0.308977 0.046360 0.136825 0.033922 -0.171380 0.072211 0.141815 -0.175099 -0.701683 -0.121651 0.299508 0.057502 -0.324370 0.408351 0.411367 0.215551 0.383447 -0.463350 0.113620 0.627947 -0.060715 0.459778 0.250847 0.236614 -0.024601 0.101810 0.791340 0.233541 -0.322561 -0.054076 0.208080
364-0 0.478642 0.095872 -0.099514 0.504564 0.082751 -0.362652 0.397631 -0.551036 -0.075865 0.021691 -0.280254 0.152925 0.509881 0.217767 0.145633 0.315956 -0.182481 0.179521 0.145196 0.018142 0.323569 -0.316724 -0.174550 -0.115294 0.046231 -0.203595 0.019301 0.183559 -0.094801 0.167279 -0.175677 -0.315498 -0.041302 0.167992 -0.022355 0.083155 0.088566 0.120686 -0.198869 0.353002 -0.199666 0.550765 -0.354358 0.309325 0.422847 -0.032968 -0.513064 -0.145959 -0.408441 0.206391 -0.034527 -0.639537 0.062374 0.212818 -0.073039 -0.208284 0.063895 -0.184982 -0.180813 -0.211667 0.072126 0.075970 0.439191 0.123502 0.030451 0.545806 -0.196547 0.463149 0.216433 -0.121906 0.491986 -0.232929 -0.082656 -0.350641 -0.208119 -0.093547 -0.063318 -0.162963 -0.241508 0.376250 -0.224265 0.282977 0.293713 0.143983 -0.061301 0.086639 0.136082 0.273670 -0.375236 0.007104 -0.263434 0.257587 -0.141674 0.005235 -0.095700 -0.002994 -0.213823 -0.189956 0.178752 0.294987 -0.413142 0.176449 -0.283203 0.315414 -0.049795 -0.145662 -0.035972 0.378646 -0.144094 -0.126608 0.146522 0.257077 0.275608 0.102138 0.455907 -0.364844 0.364909 0.219654 0.326670 0.241491 -0.266079 0.020415 -0.411680 0.722754 -0.428604 -0.560043 0.242717 -0.358804
1918-0 -0.650261 -0.615722 -0.071084 0.350729 -0.275977 1.089101 0.103543 -0.348918 0.603180 -0.301119 -0.367189 -0.192902 -0.078621 -0.079062 0.328482 0.161035 -0.162868 -0.186876 -0.157887 -0.138865 0.975374 0.589000 -0.418180 0.314449 -0.166875 -0.165800 -0.299610 0.091834 0.139569 0.033848 0.016841 0.439017 0.517846 0.080387 0.418908 -0.284530 -0.143811 -0.122309 -0.485283 0.190963 -0.338692 1.367452 0.037844 0.111865 0.018116 -0.132967 -0.253628 -0.170278 0.329246 0.053153 -0.470262 0.041024 0.035052 -0.433468 0.105350 0.529571 0.464489 0.060817 0.579556 0.017212 0.466999 -0.546116 -0.245206 -0.277253 -0.039347 0.135931 -0.251225 0.070262 -0.460825 0.009492 -0.409578 -0.343036 -0.246979 -0.385579 0.576572 -0.101703 -0.759226 -0.107998 -0.396638 -0.210455 -0.586444 0.379124 0.179578 -0.301353 -0.467285 -0.062858 -0.231887 0.180659 -0.086558 0.270394 -0.003110 -0.061124 0.412380 0.104480 0.264399 0.749209 -0.800500 -0.949951 -0.245738 0.520656 -0.610315 0.203326 -0.244252 -0.648419 -0.213071 -0.619723 -0.149581 -0.477414 0.348959 -0.355585 0.474455 0.282587 -0.311609 -0.251636 0.126273 0.170262 0.155159 -0.210436 -0.384028 0.198803 -0.294392 0.768902 -0.996195 0.459958 0.532765 -0.316308 0.293263 0.130820
291-0 0.741714 -0.269628 -0.096576 0.222663 -0.130438 -0.178391 -0.216207 -0.473555 0.245284 0.676454 -0.067736 0.341865 0.209822 0.278402 0.288771 0.271077 -0.304855 -0.000300 0.409426 0.156046 -0.058441 -0.144270 -0.239591 -0.261247 0.095502 -0.058382 0.064195 0.545740 -0.094841 0.197227 0.002613 0.116482 -0.256387 0.172115 0.416204 0.234282 0.488249 0.022981 0.095870 0.093849 0.013692 0.585988 -0.411350 0.178907 0.402180 -0.396696 -0.435118 -0.210473 -0.486573 0.052724 0.054634 -0.255609 0.041530 0.173990 -0.411861 -0.254482 -0.154616 0.098629 -0.341810 0.066036 0.152379 0.187986 0.012441 -0.188108 0.101513 0.436702 0.139733 0.413058 -0.071563 0.362044 0.580067 -0.207135 -0.330808 -0.315135 -0.381660 0.020968 0.022143 -0.383940 0.251774 0.041691 0.159060 0.333670 0.084354 -0.163815 -0.069134 0.364385 0.037567 0.519901 -0.195203 0.085294 0.002463 0.107609 0.185794 0.333874 0.111416 0.072204 -0.070658 -0.120431 -0.078423 0.392312 -0.558635 -0.204899 -0.382628 0.275710 0.079187 -0.674323 0.145034 0.483808 0.260114 -0.226857 0.157313 0.044726 0.238022 -0.009892 0.487330 -0.111947 0.405530 -0.046947 0.442049 0.179183 0.340581 -0.145136 -0.477042 0.502798 0.024501 -0.214674 0.311489 -0.350522
699-0 0.333035 -0.269979 -0.124633 0.199445 0.020067 0.014928 0.237709 -0.756092 0.242410 0.436336 0.089713 0.366268 0.056598 0.186175 -0.129360 0.188419 0.247045 0.301358 -0.050226 0.127130 0.392017 0.184832 0.100455 -0.045754 0.205508 0.088449 0.249240 0.326424 0.244272 0.389441 -0.383595 -0.262171 0.106582 -0.121441 0.070413 -0.159947 0.060008 -0.205329 0.010185 0.077276 -0.092215 0.063718 -0.125253 0.220852 0.213248 -0.243413 -0.494493 -0.192086 -0.177829 0.105497 0.340666 -0.086922 0.131216 -0.164873 0.078898 -0.335686 -0.180232 0.087519 0.012584 0.101574 0.341866 0.403243 0.155984 -0.386945 0.230381 0.033385 -0.090621 0.387645 -0.068042 0.177206 0.599982 0.111039 -0.476759 -0.139543 0.068496 -0.220908 0.039527 -0.055436 0.120876 0.091105 -0.187370 0.198112 -0.012886 0.280950 -0.202501 -0.590218 -0.352098 0.305961 -0.617892 0.127975 -0.103602 0.660532 -0.042634 0.216117 -0.098395 0.269217 -0.153473 0.133013 0.177876 0.298629 -0.355475 0.367982 -0.488431 0.298404 0.441550 -0.369159 0.239337 0.012219 0.236415 -0.138894 -0.001098 0.143649 0.286267 0.061930 -0.117101 -0.242490 0.333536 0.325428 0.208700 0.391183 -0.027370 -0.483811 -0.215569 0.769771 -0.182043 -0.606672 -0.073695 -0.154121
697-0 0.190938 -0.229580 0.107704 0.442647 0.142347 -0.202832 -0.035271 -0.630600 0.200973 0.260596 0.305338 0.336525 0.312373 0.137543 -0.023673 0.401910 0.034505 -0.005817 -0.070463 -0.054377 0.115110 0.108818 0.037729 0.057503 -0.081774 0.248822 0.057889 0.244144 0.055069 -0.090892 0.015595 -0.261760 0.057753 0.020833 -0.139187 -0.188755 0.158481 -0.445663 0.070998 0.315125 0.072434 0.388878 -0.028222 0.343043 -0.128661 0.161154 -0.233066 -0.694091 -0.709656 -0.069868 0.161700 0.027109 -0.062618 -0.208055 -0.022452 0.115208 -0.183772 -0.117426 0.059191 -0.046533 0.034927 0.430105 0.044157 -0.310894 0.085256 0.455718 -0.440593 0.172732 0.259776 0.190782 0.492662 0.083082 -0.398940 -0.268476 -0.208463 -0.064026 -0.120178 -0.002772 -0.080560 0.163339 -0.222406 0.286440 0.144990 0.047278 -0.097930 -0.264052 -0.107664 0.546531 -0.149825 -0.001454 -0.186456 0.287050 -0.014263 0.204286 -0.128491 0.202618 -0.246865 -0.309897 0.290177 0.489344 -0.185085 0.245114 -0.105607 0.575092 0.080771 -0.198990 -0.161295 0.390609 0.251499 -0.170183 0.449667 0.506543 0.334089 0.191543 -0.163934 -0.010810 0.156492 0.170316 0.363753 0.361239 0.141620 -0.390208 -0.370403 0.979533 -0.038176 -0.466300 -0.115022 -0.003352
905-0 0.001016 -0.191081 0.269111 0.590487 0.060999 0.129350 -0.036072 0.055636 0.130376 -0.067531 0.508316 0.237050 0.601664 -0.127529 0.150594 0.230014 0.092679 -0.247440 0.453258 -0.076839 0.299635 0.178135 -0.160972 -0.191425 0.517945 -0.040077 -0.152916 -0.074067 0.481598 -0.338435 0.210213 -0.207935 0.036504 0.403503 -0.125092 -0.085590 0.388189 0.139995 -0.187664 0.024662 0.421134 -0.101877 -0.123480 0.194991 -0.266613 0.003488 0.148792 0.065528 -0.159661 0.141832 0.205276 0.082128 -0.281030 -0.005967 0.183597 -0.329995 0.416941 0.220061 0.420471 -0.370035 -0.033433 0.243610 0.170897 -0.089129 -0.367934 0.842408 -0.877253 -0.007000 0.201381 0.236832 0.354281 -0.043604 -0.117955 -0.364891 0.091578 0.317961 -0.073885 0.200432 -0.282736 0.217552 -0.058381 -0.081534 0.095115 -0.024240 -0.033955 -0.268053 -0.689168 0.531205 0.096468 -0.275560 -0.551618 -0.009311 0.348035 -0.020320 -0.060410 0.116941 -0.305880 -0.112755 -0.008193 0.285029 0.051830 -0.476811 -0.062029 0.689050 0.551481 -0.439728 -0.249070 -0.216623 0.562659 -0.079137 0.538425 0.204582 0.431628 -0.242886 -0.150899 0.388691 0.150153 -0.057479 0.604241 -0.045581 0.232646 0.212171 -0.661445 0.950347 -0.281938 -0.610030 0.027339 0.155872
732-0 -0.030609 0.202140 0.175043 0.322421 -0.416765 0.565410 -0.190818 -0.016160 -0.132355 0.265464 0.603561 0.452940 0.363590 -0.235877 -0.232178 -0.040167 -0.140227 0.010627 -0.019789 0.020910 0.216813 -0.148232 -0.204717 -0.363062 0.037313 0.206056 0.174865 -0.427402 0.083147 -0.321431 0.452250 0.116953 0.286534 -0.073929 0.665188 -0.056168 0.348023 0.190479 -0.246562 -0.061149 0.583614 0.141578 -0.128883 0.294450 -0.426327 -0.007485 0.207471 -0.025889 -0.426991 -0.119725 -0.074593 -0.103560 -0.267916 -0.106136 0.252356 0.362104 0.152972 0.189342 -0.137021 -0.469003 0.262459 0.328686 0.466626 0.145171 0.122877 0.250214 0.037326 0.060326 -0.111488 -0.067905 -0.019111 -0.026446 -0.131236 -0.221967 0.497028 0.121778 0.105438 0.249704 -0.355525 0.264205 -0.068701 0.251436 -0.071113 -0.157900 -0.061330 -0.072994 0.393424 0.291234 0.123637 -0.396667 -0.346196 -0.137207 0.274296 -0.156580 -0.001725 0.425521 -0.681598 -0.403453 0.192693 0.056206 -0.412355 -0.025220 -0.190416 0.233612 0.581622 -0.850656 -0.247817 0.091471 0.644252 -0.143984 0.576792 -0.181439 0.243846 0.241319 0.175036 0.222586 0.438792 -0.092435 0.321106 0.050602 -0.429176 0.003315 -0.478692 0.743091 0.246310 -0.334058 -0.046259 0.204156
2049-0 -0.490838 -0.425643 -0.003714 0.450976 -0.002990 0.637063 -0.377396 0.346091 0.009835 0.040960 -0.245489 -0.331997 0.269159 0.257538 0.150956 0.007242 -0.463378 0.206792 0.390720 -0.354766 0.486767 -0.091352 -0.215476 0.348909 0.057382 -0.342670 -0.046030 0.317938 0.397758 0.153844 -0.086488 0.480135 0.294148 -0.191667 0.757639 -0.116347 -0.026390 -0.089699 -0.389283 0.336293 0.534684 0.101076 -0.399381 0.488734 0.592249 0.066159 -0.034111 -0.841299 -0.180809 -0.034271 -0.438480 0.934202 0.564654 0.200487 0.256117 -0.070448 -0.159283 -0.179986 0.142952 0.210246 0.619353 -0.305433 -0.298496 0.295001 0.055182 -0.105278 -0.083744 0.576741 -0.279413 -0.103515 0.054503 -1.200308 -0.110659 0.066842 0.267894 0.424064 -0.207008 -0.280084 0.195732 -0.290774 -0.602446 0.368130 -0.168879 -0.149788 0.066376 -0.015729 -0.343640 -0.372015 -0.023867 0.223863 -0.605930 0.300614 0.039295 0.031791 0.111931 0.362653 0.014388 -0.516521 -0.129426 0.762598 -0.409915 0.179572 0.253791 -0.707963 -0.094930 -0.290935 0.085762 0.136930 0.140328 0.320959 -0.277720 0.750957 -0.194505 0.326630 0.081141 -0.372153 0.349802 -0.840816 -0.462891 -0.148671 0.280651 0.690590 -0.865948 0.735290 -0.122778 -0.691006 0.275306 -0.454192
986-0 0.671210 -0.257840 0.025971 -0.077306 0.351855 -0.298366 0.419126 -0.329212 0.572620 -0.283423 0.270290 0.540969 -0.187920 -0.333183 0.487981 -0.069687 -0.269269 0.431898 -0.169417 -0.754539 0.334596 -0.280640 0.189788 -0.354617 -0.380547 -0.344313 -0.018384 -0.361164 0.580894 -0.484123 -0.212643 -0.105844 0.353551 -0.185942 0.116514 0.113014 0.190950 0.024788 -0.393351 -0.786113 -0.264387 0.059933 0.400792 -0.044092 0.400288 0.107246 0.200433 0.073848 0.117482 0.295230 0.086390 0.398587 -0.288233 -0.099229 0.061011 -0.400028 0.221692 -0.000408 -0.198031 -0.262076 0.109064 0.044797 0.039900 -0.261075 -0.103103 0.097945 0.365946 0.115759 -0.311923 0.229066 -0.050138 -0.326288 -0.295896 -0.453638 0.757270 -0.135479 -0.345453 -0.161420 -0.007090 -0.350219 -0.151899 0.215361 -0.223040 -0.510142 -0.553762 0.409856 0.208232 -0.087547 -0.026083 0.212431 0.448545 -0.473362 0.662109 0.056790 0.822517 -0.335817 -0.205820 -0.326978 0.046450 -0.253939 -0.200935 -0.136116 0.147902 0.127506 -0.432159 -0.232627 0.434927 -0.022444 0.303700 0.689283 -0.644970 0.210500 0.559280 0.138380 0.796161 0.435033 0.766270 -0.477713 0.109110 -0.463340 0.138910 -0.244478 -0.444078 0.449195 0.061397 -0.134826 -0.056821 0.061462
488-0 -0.028357 -0.245804 -0.305850 0.985238 0.488356 0.120849 -0.331889 0.366081 1.157687 0.404242 0.331746 -0.370209 0.044353 -0.538641 0.465848 0.724471 0.170874 -0.132925 0.033864 -0.391511 0.835243 -0.167380 -0.418834 -1.002563 -0.464086 0.179532 -0.791245 -0.245644 0.273972 0.037188 0.333222 0.301760 0.613046 -0.725623 0.208456 -0.858204 0.191350 -0.129595 -0.362447 -0.269670 0.954759 -0.019293 0.136703 0.147391 0.040967 0.395609 -0.402165 0.255290 -0.511441 -0.007839 -0.085252 -0.142800 0.366988 0.035006 0.221043 -0.695939 0.575881 0.314244 0.018686 -0.296006 0.844858 -0.039208 -0.384138 0.023040 -0.245391 0.259712 -0.134696 -0.145017 -0.291849 -0.998281 0.613658 0.206985 0.138763 0.015498 0.128267 -0.244729 0.591170 -0.064242 -0.024982 0.081981 -0.138134 0.373393 0.328339 0.035550 -0.520435 0.014985 0.006739 -0.211640 -0.555852 -0.435085 -0.002561 0.122106 0.270925 -0.240357 0.379169 -0.463946 -0.314182 0.101279 -0.712665 -0.136650 -0.475669 0.749678 0.206448 0.264042 0.022735 -0.432057 0.544636 0.341062 0.133372 -0.265765 -0.308032 -0.495187 -0.072832 0.156583 0.353887 0.642762 0.229703 0.313333 0.085730 -0.260610 0.031594 -0.226301 0.203910 0.140718 -0.012655 -0.080239 0.066225 -0.421826
1406-0 0.122819 0.104731 0.762397 -0.051561 -0.180738 -0.056903 -0.015309 0.139230 0.638663 -0.238856 0.288881 -0.212052 0.119608 -0.052607 0.225321 -0.398209 -0.115301 0.460399 -0.697884 -0.808866 0.926541 -0.347148 0.484552 -0.444347 -0.400048 -0.210442 -0.313858 0.193241 0.349327 0.339946 1.107814 0.057388 0.292734 -0.188803 -0.558642 -0.012874 0.224486 -0.435895 0.149508 -0.244636 0.566666 0.188488 0.049477 0.667003 0.602629 -0.476019 -0.370294 -0.032470 -0.351296 0.825471 0.193855 -0.157356 0.456495 -0.209214 0.361100 -0.182614 -0.367587 -0.328320 -0.152363 -0.093703 -0.169110 0.158457 -0.015290 -0.612224 -0.235032 0.357285 -0.460807 0.384909 -0.347681 0.589327 0.337562 -0.401585 -0.519351 -1.025412 0.257533 0.020651 0.171089 0.610795 0.051145 0.181409 0.687189 0.694955 -0.303622 0.190771 -0.116667 -0.313519 0.404898 0.347157 0.109107 0.117259 -0.078116 0.524290 0.627109 0.497449 0.572073 -0.513941 -0.805295 -0.409619 -0.152898 -0.242023 0.016785 -0.157290 -0.155543 -0.216208 -0.267654 -0.488814 -0.356377 -0.034429 0.149719 -0.029299 -0.117870 0.267601 -0.320633 -0.063873 0.188679 -0.273155 0.133447 0.248793 -0.297280 0.203674 -0.085583 0.609718 -0.203528 -0.030221 0.235337 -0.354368 0.309781 0.034147
1236-0 -0.125078 -0.017807 0.355422 0.060693 0.631085 0.091969 -0.175257 -0.099428 -0.313755 0.537629 0.082451 -0.371012 -0.009621 -0.125032 -0.360350 0.629584 -0.079241 0.421234 -0.131586 0.067150 0.102246 0.386930 -0.701627 -0.640778 0.393655 -0.514288 -0.315288 -0.070586 0.060454 -0.156365 0.042724 0.249387 -0.019550 -0.621064 0.157863 0.017335 0.286006 -0.224100 -0.878953 0.040701 -0.065418 -0.759367 0.619662 0.045834 0.757225 0.008578 0.032027 -0.040416 -0.448219 0.135887 0.338642 -0.046136 0.034346 -0.893075 0.383062 0.412860 -0.197565 -0.163202 0.030533 -0.532795 -0.211583 -0.306880 -0.285060 -0.440115 -0.537756 0.345828 -0.248684 -0.040445 -0.111501 0.104023 -0.591721 0.287832 0.105151 -0.160902 0.263109 0.630488 0.060058 -0.143191 0.339680 0.298000 -0.339557 0.256124 -0.225406 -0.284244 0.048782 -0.382196 0.132014 -0.234018 -0.015795 0.563602 0.329792 0.362368 -0.082408 0.131091 0.413364 -0.308341 0.423208 -0.440481 -0.278832 -0.295938 -0.125662 0.394705 -0.539567 0.357639 0.025039 0.055803 0.116841 0.434639 0.086372 0.372857 0.509525 0.363793 0.143373 -0.126177 0.161953 -0.055084 0.471052 0.156180 0.166907 0.031350 0.257287 0.397982 -0.217753 0.933530 0.623249 -0.718863 -0.219002 -0.370104
631-0 0.201960 -0.190306 0.126594 -0.005198 0.367083 -0.197514 0.430250 0.351347 0.161878 -0.540791 -0.177948 0.557122 -0.095236 -0.183747 0.416120 -0.232817 -0.093461 0.651767 0.339407 -0.465801 0.218081 -0.098891 -0.165651 -0.287454 -0.335724 -0.149637 0.170769 -0.161643 0.113242 -0.637448 -0.249833 0.038583 0.261439 -0.124038 0.424128 -0.041178 0.042465 0.431820 -0.611251 -0.479067 0.206767 0.256591 0.135936 0.078694 0.189101 -0.069666 0.167357 -0.201130 -0.083125 0.173953 0.316755 0.763695 -0.120755 -0.214785 0.242710 -0.177054 0.072206 -0.264131 0.086053 -0.243833 0.187662 -0.069423 0.582821 -0.159495 0.156512 0.234370 0.085138 0.347560 -0.087114 0.607980 0.146543 0.166702 -0.065937 -0.290530 0.745470 -0.360406 -0.419874 -0.189606 0.248327 -0.146704 -0.460981 0.144932 0.051118 -0.420371 -0.147679 -0.346873 0.081518 0.029680 -0.157010 0.156861 0.283875 -0.115305 0.401871 -0.027173 0.732016 0.054838 -0.634010 0.218108 0.466132 0.133480 0.572217 -0.113391 0.564720 0.039835 -0.502443 0.035905 -0.064241 0.082893 -0.084525 0.207306 -0.424127 0.090834 0.174616 0.476507 0.827285 0.840616 0.885751 -0.359332 0.393864 -0.319985 0.156923 -0.139664 -0.393718 0.630554 -0.015572 -0.369353 -0.475005 -0.184852
1731-0 0.015168 0.011207 0.691638 -0.084768 -0.283995 -0.063683 -0.318243 0.508083 0.617277 -0.259578 0.255704 -0.136454 0.562965 0.281100 -0.043707 -0.291267 -0.011240 0.624441 -0.532636 -0.581628 1.315776 0.008533 0.571144 -0.426765 -0.449433 -0.346836 0.037157 0.258288 0.281440 0.134334 0.783443 0.136665 0.301283 0.029260 -0.683195 0.118460 0.115437 -0.351521 -0.068392 -0.186333 0.449365 0.057592 0.091584 0.746511 0.741642 -0.513650 -0.161356 -0.067740 -0.306047 0.670658 -0.164224 0.222967 0.470535 -0.129151 0.127707 -0.608339 -0.159347 -0.261840 -0.133820 0.032459 -0.138917 -0.060288 -0.020012 -0.606436 0.017087 0.389038 -0.493777 0.509491 -0.356014 0.352556 0.304084 -0.356614 -0.576644 -1.150407 0.260450 0.093251 0.395583 0.652951 0.040228 0.559905 0.813694 0.788511 -0.203129 0.081894 -0.031303 -0.278862 0.176347 0.215148 -0.141679 -0.286732 0.227269 0.927853 0.600076 0.391739 0.471940 -0.432059 -0.689230 -0.671523 -0.412042 -0.200781 0.081590 -0.625289 -0.238142 -0.173342 -0.147559 -0.394609 -0.384362 -0.075978 -0.025390 0.014382 -0.189004 0.428560 -0.380597 -0.281652 -0.267180 -0.121743 0.077058 0.423254 -0.309032 0.176072 -0.248823 0.367518 -0.177597 0.385797 0.392641 -0.317994 0.476604 0.219622
753-0 -0.352008 -0.693196 0.162888 0.620180 0.117299 -0.395393 0.350417 0.729249 -0.170873 -0.045788 -0.136161 0.611055 0.010480 0.426104 0.198509 -0.330324 -0.670798 0.614386 0.650559 -0.844584 0.185287 0.153040 -0.017877 -0.146867 0.419459 -0.346266 0.012413 -0.014613 -0.064919 0.010435 0.175598 0.100409 -0.361823 -0.095954 -0.046607 -0.268662 -0.397361 -0.283975 0.021348 -0.114989 -0.066076 -0.206533 0.155301 0.030876 0.381732 -0.022764 -0.001544 0.243363 -0.991485 -0.544602 -0.298897 0.736357 -0.287833 0.088922 0.092179 0.181383 0.247127 0.209457 -0.792139 -0.402838 0.770738 0.177062 -0.057493 0.088087 0.077469 -0.054051 0.071195 0.271002 -0.493341 -0.241317 0.030808 -0.893333 -0.538668 0.700903 0.543733 -0.024665 -0.808872 -0.506019 0.115803 -0.237642 0.164661 0.508419 0.079157 -0.088610 -0.340759 0.137054 0.237447 0.313715 -0.127263 -0.065212 -0.022466 0.205174 0.131806 0.393296 0.719309 -0.045785 -0.363503 -0.245837 0.196306 -0.001119 -0.716980 -0.063955 0.458441 -0.258160 -0.095014 -0.045297 -0.011812 -0.546922 0.171611 0.182147 -0.242342 0.362150 0.428735 -0.083169 -0.346538 0.853034 0.646086 0.155971 -0.417567 0.190252 0.185678 -0.128605 -0.590766 0.558782 0.675046 -0.300392 0.474272 -0.657690
2955-0 -0.227678 0.531626 -0.185903 0.998310 0.402103 0.403511 0.051763 0.256460 0.383912 0.682476 -0.461426 -0.295398 -0.089970 0.172874 -0.046840 -0.047106 0.403436 -0.120135 -1.063650 -0.145160 0.354204 -0.399269 -0.120697 -0.105350 -0.468954 0.225581 0.518577 0.325647 0.449679 -0.097163 -0.098387 -0.509725 0.200415 -0.196786 -0.006065 0.507531 -0.021538 0.554905 -0.269944 0.754666 0.110426 -0.432824 0.816685 0.319739 0.693709 -0.383824 -0.661546 -0.410549 -0.781645 -0.557703 -0.325656 0.877658 -0.251889 0.591168 0.089221 -0.384800 0.296047 -0.343084 -0.127639 -0.458106 -0.424115 0.150843 0.661557 -0.258990 -0.048037 0.730530 0.046968 0.766127 -0.485198 0.557136 -0.371204 -0.088734 -0.361311 0.047608 0.596977 0.749991 -0.607339 -0.648162 0.384694 -0.826419 0.910590 0.096031 -0.394069 -0.722221 -0.237270 -0.410646 -1.006537 -0.300854 0.044978 0.500370 0.485034 0.245745 0.770249 -0.656190 -1.100266 -0.009900 -0.546948 -0.578653 -0.712419 -0.012180 -0.660582 0.280000 0.320907 0.353743 0.787307 -0.144985 0.939864 -0.357402 0.333978 0.077739 -0.367486 0.073948 -0.303252 -0.465443 -0.089110 0.234001 0.496958 0.415642 0.384094 1.137453 0.390293 0.061106 -0.346787 0.046959 0.605103 -0.366639 0.139103 -0.801884
822-0 0.031957 -0.254373 0.130677 -0.122398 0.193987 -0.120667 0.330456 0.363112 0.448193 -0.112670 0.118689 -0.200731 0.080758 0.334472 0.139162 0.270838 0.325419 0.062011 -0.191707 -0.383080 0.493628 0.606555 -0.140062 -0.023498 0.064397 0.150501 0.373110 -0.127096 -0.107327 -0.213713 -0.241077 0.089783 0.425592 -0.350870 0.393593 -0.149903 0.116108 -0.145769 -0.254912 -0.385342 -0.439691 0.377457 0.416965 0.851671 -0.140401 -0.682058 -0.009912 0.218249 -0.362193 -0.021742 -0.186177 0.757047 0.083048 -0.387160 0.368784 -0.925969 0.083749 -0.958084 -0.034513 -0.401014 0.358765 -0.227423 0.924272 -0.232059 -0.642045 -0.147930 0.081543 0.073693 -0.091236 0.560381 0.526355 -0.013454 -0.300724 -0.279284 0.380484 -0.019930 -0.477685 -0.541929 -0.513709 -0.052790 -0.273358 0.684567 0.068511 -0.395759 -0.320452 0.185577 -0.097009 0.562900 0.087180 0.258693 0.493786 0.161937 0.245620 0.183475 0.133303 -0.036421 -0.249334 -0.095758 -0.207453 0.740232 0.156325 -0.264543 0.082105 0.009851 0.009366 -0.038320 -0.176702 -0.473768 -0.219823 -0.105869 -0.301592 -0.069514 0.219223 -0.040461 0.440954 0.677410 -0.076390 -0.356652 -0.330491 0.080604 0.200264 0.168743 0.400395 0.228967 -0.107138 -0.540672 -0.020667 0.016249
659-0 0.470922 -0.171197 0.227812 -0.003358 0.173316 0.155477 -0.024417 -0.075407 0.731383 -0.305981 0.010458 0.610507 0.051327 -0.005219 0.292247 -0.377082 -0.131110 0.285730 0.472616 -0.324129 0.097191 -0.013461 -0.018687 -0.360763 -0.267619 -0.093525 0.019597 -0.370634 0.398690 -0.687330 0.033720 -0.263388 0.262608 -0.096827 0.270583 0.068314 0.198842 0.258613 -0.488113 -0.346096 -0.400806 0.059966 0.031140 0.303580 -0.014304 -0.107009 -0.091107 0.109339 -0.011971 0.183871 0.262576 0.625982 0.294052 -0.094764 0.314877 -0.293888 0.349554 -0.229941 -0.022054 -0.025317 0.225021 0.197398 0.431469 -0.476274 -0.627792 0.683048 0.417893 0.210152 -0.129112 0.629715 -0.024468 0.148054 -0.008786 -0.200035 0.629497 -0.500511 -0.170923 -0.474590 -0.084930 -0.138445 -0.246409 0.262335 0.042524 -0.500191 -0.043864 -0.098553 0.163094 -0.001876 -0.028107 0.488537 0.808376 -0.195275 0.357662 0.329808 0.732218 -0.264052 -0.530337 0.248306 0.333013 -0.190698 0.190535 -0.165308 0.394027 0.145685 -0.456214 0.125333 0.101852 0.044249 0.045713 0.257917 -0.363262 0.290685 0.208158 0.484393 0.708806 0.551575 1.052285 -0.325349 -0.039334 -0.832138 0.152870 -0.365161 -0.087461 0.820406 0.255765 0.009128 -0.193833 -0.174282
0-0 0.129473 -0.492626 -0.212134 0.085253 -0.074002 0.448825 -0.185430 0.176874 0.281683 0.002501 0.127149 -0.065271 -0.040949 0.028877 0.662703 -0.167651 -0.263738 0.313606 -0.165089 0.091791 0.326921 -0.662921 0.202495 -0.379827 -0.048871 0.346676 0.277615 -0.646087 -0.369361 0.028881 0.016510 0.284430 0.647456 0.171059 -0.481228 -0.267788 0.002087 -0.048235 0.290475 -0.092065 0.814359 0.563524 0.353666 -0.218168 0.597480 -0.260513 -0.352370 0.681827 -0.175353 -0.975735 0.332972 0.432964 0.252518 -0.071305 0.271565 -0.382868 -0.346313 -0.502493 0.404646 -0.080730 0.158940 -0.155043 0.474170 0.171805 -0.239101 0.488227 0.218805 -0.024418 0.431907 -0.884222 0.114147 0.125859 0.043748 0.163932 0.147909 -0.456715 -0.357275 -0.488311 -0.109019 -0.191527 -0.241215 -0.049584 0.203293 -0.047770 -0.301195 -0.304225 0.084725 0.207781 -0.142155 0.254281 0.124223 -0.085343 0.892733 0.467708 0.705721 -0.098389 -0.155599 -0.514661 -0.338506 0.349644 0.470148 -0.032419 -0.043682 0.544288 -0.445418 -0.399726 0.705670 1.093356 -0.096477 0.326373 -0.098575 -0.246534 0.178288 0.393865 0.121885 0.312302 0.215034 -0.103252 0.050132 -0.538948 0.528696 -0.136569 0.017312 0.356285 0.028854 0.091108 -0.223225 -0.333426
868-0 0.155293 -0.292169 0.101437 0.176540 0.153266 0.674430 0.080054 0.616543 0.455403 0.826926 0.208924 -0.047261 -0.090453 -0.437677 -0.248050 0.694969 0.145232 0.769987 0.448592 0.257375 0.740053 -1.218123 -0.508940 -0.284779 -0.056458 -0.249739 0.389694 0.028994 -0.755505 -0.510148 0.167594 0.425997 0.476137 -0.114197 -0.408227 -0.408989 -0.190670 0.713446 0.060849 -0.007257 0.633719 0.196906 -0.014727 0.646124 0.294125 -0.267405 -0.701907 -0.161445 -0.192278 -0.071318 0.666801 0.050978 -0.307922 -0.101800 -0.281349 0.173343 0.389639 -0.607298 -0.091485 -0.854684 -0.264426 -0.016526 0.485163 -0.335434 -0.185015 0.000593 -0.779791 0.005568 0.402164 -0.608933 -0.219445 0.321060 -0.985108 0.008808 -0.040631 -0.473099 -0.496339 -0.854812 -0.439373 -0.465138 -0.240825 0.257645 -0.440315 -0.221955 -0.526023 -0.080557 0.292514 0.608933 -0.634130 -0.260472 0.242530 -0.249360 0.661720 0.036091 0.252035 -0.216428 -0.286902 -0.918026 -0.608197 0.098422 -0.033768 0.351393 -0.270636 -0.437630 -0.332547 0.393353 0.025579 0.524738 0.010263 0.256259 0.187397 0.273575 0.130316 -0.175215 -0.082233 -0.094067 -0.475858 0.231085 -0.022259 0.100828 -0.163687 -0.099657 -0.395886 -0.091914 0.120107 0.432298 0.333019 -0.383245
1101-0 -0.462566 -0.720385 -0.826524 -0.942507 0.355796 0.867841 -0.139925 -0.379797 1.165655 0.129402 0.060103 0.064182 0.162725 -0.282005 0.986771 -0.239822 0.702544 0.337122 0.109057 -0.628270 0.760070 0.293021 0.012621 -0.528494 0.441534 0.248516 0.315751 -0.411790 -0.214879 0.159242 0.778739 0.297189 0.583777 0.573642 -0.409629 0.393211 0.237348 -0.245314 0.210974 -0.606180 0.625619 0.724888 -0.671807 0.770128 0.028538 0.173944 -0.310542 -0.266608 -0.057704 0.233798 0.129611 0.500791 -0.135690 0.195907 -0.275289 -0.136868 -0.010323 -0.118019 0.345466 -0.193303 -0.211320 -0.033437 0.932672 0.051996 0.949728 -0.203229 -0.583924 -0.001440 0.140119 0.116234 -0.457220 -0.353585 -1.409603 0.170636 0.925997 0.676127 0.652876 -0.222018 -0.412256 -0.276428 -0.071289 0.877290 -0.115233 0.541016 0.063766 0.000469 0.240932 -0.273284 0.237439 0.341852 0.011587 0.159112 -0.206187 -0.020094 0.355114 -0.571064 -0.033507 -0.285869 -0.170123 -0.767701 -0.695485 0.917369 -0.137089 -0.595475 0.448361 -0.191413 0.146969 -0.124985 -0.333497 -0.575886 0.314958 0.422598 0.275892 0.069512 -0.069912 -0.380748 0.189040 0.259187 -0.151328 0.133726 0.806713 0.542525 -0.510924 0.490211 0.314872 -0.154506 -0.728649 0.547348
616-0 0.165036 -0.338953 0.187465 0.279904 0.266919 -0.102534 0.126718 -0.593816 0.052088 0.579531 -0.113639 0.384522 0.337777 -0.256968 0.005636 0.309396 -0.217630 0.319803 -0.242080 -0.173322 0.208804 0.321146 0.295156 0.031218 0.134576 -0.014118 0.530069 0.387807 0.297469 -0.115406 -0.309920 0.068413 0.091723 0.087713 -0.211794 -0.194552 -0.030932 -0.378706 -0.232967 0.554597 -0.161685 -0.001351 -0.167063 0.531291 -0.239277 -0.729760 -0.467625 -0.324989 -0.379178 -0.147953 -0.238579 -0.275465 -0.055150 -0.400995 -0.263704 -0.725324 -0.176228 0.156190 -0.151978 0.056516 0.240965 -0.084862 0.329445 -0.252581 0.125709 0.013373 -0.154978 0.219086 0.386229 0.179433 -0.187206 -0.113847 -0.234600 0.017442 0.058308 -0.181899 0.274574 -0.260097 0.042223 -0.257730 -0.051558 -0.095967 -0.014158 -0.025061 -0.510391 -0.194010 -0.288654 0.065642 -0.139022 0.236064 -0.264159 0.472474 -0.048379 0.432065 -0.040360 0.054759 -0.186539 -0.184894 0.151406 0.600032 -0.100807 0.061634 -0.456846 0.553550 0.438861 -0.209708 -0.094650 0.234329 0.471864 -0.143587 0.346485 0.428420 0.333670 0.192177 0.124732 0.223719 0.303155 0.389096 0.170969 -0.052341 0.125976 -0.245865 -0.265770 0.446378 -0.093743 -0.370208 -0.235951 -0.146755
814-0 0.185070 0.013557 -0.383093 0.735188 0.812235 0.392916 -0.280167 0.514785 0.117058 -0.135141 -0.192341 -0.490444 -0.525833 0.270184 -0.331750 -0.251708 -0.152688 -0.012322 -0.024982 -0.202819 0.666918 -0.088724 0.128407 -0.421751 -0.489624 0.236314 0.336420 -0.252377 0.087299 -0.157839 -0.393014 -0.439684 0.216301 0.331960 0.053875 0.065220 -0.058275 0.065084 -0.174573 -0.377556 0.504893 0.270448 0.230912 -0.013683 -0.004617 -0.499001 -0.269712 0.229073 0.521114 0.107794 -0.211856 0.039634 -0.343086 -0.118986 0.418352 0.165460 -0.037351 0.014868 0.213926 -0.066422 0.226457 -0.312270 0.296622 -0.118040 -0.251121 0.081060 -0.051776 0.068868 0.133756 0.214696 0.484045 -0.327403 -0.041620 -0.272540 -0.230375 -0.075554 0.490973 -0.728015 -0.366875 -0.269243 -0.448923 0.890398 -0.153023 0.014697 -0.354742 -0.048171 -0.147295 -0.105007 -0.377999 -0.064020 0.292771 0.399431 0.499288 -0.436637 0.846443 -0.619807 -0.644265 -0.345464 -0.524961 0.099968 -0.114956 -0.001329 0.036231 0.521369 0.271445 -0.115078 0.050089 0.174913 0.036536 0.135636 0.168451 -0.524389 0.694725 0.185733 0.585421 0.566894 -0.059676 -0.746444 0.495174 -0.064208 0.180040 -0.167572 0.238252 0.252942 0.384669 -0.658419 -0.500611 -0.267055
354-0 0.164220 0.257143 1.110427 0.348433 0.602797 -0.435894 0.300740 0.066660 0.679628 0.061904 -0.557815 -0.343637 -0.255447 0.586726 0.475233 -0.442925 0.047965 0.591715 -0.311133 0.067351 0.515640 0.644978 0.452271 -0.549564 -0.351342 0.304454 -0.314258 -0.039218 0.253470 0.136352 0.787726 0.072437 -0.149194 -0.695562 0.807876 -0.430963 0.044438 -0.450572 -0.784169 -0.188865 0.016022 0.448098 0.291426 0.145857 -0.430050 -0.186081 0.144755 0.000079 -0.233891 -0.373273 0.514008 0.454647 0.305260 -0.200595 -0.374647 -0.455746 0.113520 -0.322968 0.107935 -0.209207 0.146670 0.499153 0.929268 -0.110363 -0.351196 -0.298249 0.040009 0.105424 -0.351520 -0.819966 0.418486 -0.259217 -0.090970 -0.413767 0.543678 0.165796 -0.183104 -0.578228 -0.082602 -0.108287 0.088978 1.158988 -0.061669 -0.201736 -0.048845 0.069454 0.202875 0.089797 0.483492 0.430717 -0.065221 -0.386139 0.636168 0.572432 0.151946 0.223444 0.190377 -0.051701 -0.871968 -0.605880 -0.129207 0.728225 -0.200401 0.634275 0.485897 -0.363899 -0.435285 0.493090 -0.316808 0.311770 0.107926 0.318110 0.432436 0.547345 -0.066889 -0.129505 0.209648 0.466196 0.378950 0.194194 0.285047 1.081985 -0.180127 -0.127157 0.401989 -0.402271 0.495156 -0.529444
263-0 -0.215594 -0.621330 0.147543 0.889840 0.086269 0.076759 -0.013053 -0.201607 -0.367630 0.154086 0.291237 -0.101208 -0.151954 -0.113737 0.100892 0.114725 0.023760 -0.074945 0.172528 0.057884 0.082462 -0.157001 -0.245939 0.426181 0.195797 0.115988 -0.475362 -0.167322 0.702908 -0.360971 -0.391297 -0.381142 0.248257 0.480442 -0.504831 0.101294 0.490952 -0.329049 -0.410439 -0.582298 -0.216766 0.707648 -0.302975 0.148198 -0.400250 0.353054 0.029324 0.099102 -0.058501 -0.194442 0.288062 0.235952 0.284453 -0.358113 0.081824 -0.654550 0.404114 -0.561160 -0.305195 0.073952 -0.400023 0.470651 0.089828 0.054436 -0.889853 0.308593 -1.006363 0.068428 0.158910 0.024757 -0.109328 0.051252 -0.368075 0.214043 0.010618 0.156854 0.049383 0.186470 -0.012272 -0.098229 0.428388 0.179594 -0.067354 -0.393764 -0.006938 -0.254722 0.019303 0.539945 -0.003402 -0.439721 -0.376845 0.519438 0.152612 -0.184414 0.067150 -0.652253 -0.592802 -0.694591 -0.188417 -0.132449 0.141122 -0.097086 -0.192850 0.615647 0.264464 -0.230497 -0.081610 0.137226 0.250791 -0.240338 0.447361 0.035860 0.430524 0.496042 0.484717 0.222107 0.318310 -0.137720 0.537250 -0.341103 0.033759 0.151579 -0.606011 0.878825 -0.257422 -0.155565 0.298325 -0.098812
483-0 0.563042 0.020130 -0.202090 0.365283 -0.254434 -0.411596 0.219451 -0.815858 -0.109961 0.384331 -0.113801 0.254730 0.270266 0.314677 0.193676 0.249402 -0.240846 0.220446 -0.138524 -0.023413 0.359539 -0.115815 -0.291110 0.175235 0.322020 -0.028761 -0.046210 0.128343 0.133738 0.003575 -0.352664 -0.296509 0.050831 0.284444 -0.023163 -0.010895 0.245053 0.022229 -0.486821 0.242501 -0.009090 0.712943 -0.106453 0.327983 0.489169 -0.030523 -0.352044 0.024641 -0.322542 0.228338 0.046269 -0.269970 0.169398 0.186214 0.018283 -0.311019 -0.074160 -0.073619 -0.384362 -0.409404 0.157926 0.035148 0.677371 -0.013284 0.239180 0.368272 -0.238184 0.297151 0.224644 0.200802 0.269550 -0.323432 -0.430882 -0.396338 -0.320943 -0.048391 0.192129 -0.457230 0.024466 0.125535 -0.276569 -0.009155 0.317192 0.064842 -0.282032 0.196720 0.209593 0.086942 -0.189215 -0.056692 -0.155773 0.159060 -0.235685 0.378887 -0.086779 -0.277106 -0.194972 -0.165487 -0.001494 0.212540 -0.445018 0.335403 -0.325427 0.299204 -0.172804 -0.454151 -0.010523 0.398491 -0.106376 -0.042976 0.010624 -0.071169 0.094806 0.270708 0.472685 -0.431715 0.284927 0.329730 0.145291 0.050669 -0.156419 -0.247089 -0.602984 0.664161 -0.212916 -0.370403 0.147384 -0.610518
31-0 -0.128732 0.227825 0.177886 0.440817 0.109488 0.282472 -0.495848 -0.381820 0.022885 -0.068218 0.489085 0.372275 -0.174906 -0.511904 -0.012510 0.249002 0.354778 0.268420 0.122200 0.098027 -0.054922 -0.295958 -0.320699 -0.420306 0.015409 0.131384 -0.007947 -0.227878 -0.124419 0.022424 -0.098675 -0.172584 0.261863 -0.147500 0.249603 -0.086797 -0.027519 -0.260858 -0.051359 -0.278592 0.131941 0.426162 -0.050221 -0.048384 -0.262278 0.277326 -0.207255 0.318881 -0.593336 -0.027707 0.106096 0.001019 0.036024 -0.018926 -0.377881 0.417001 -0.353014 -0.345196 -0.197953 -0.434000 -0.219620 0.182797 0.309033 0.206342 -0.081527 -0.104572 -0.010343 -0.017946 -0.095286 0.657232 -0.172340 -0.182859 -0.423560 -0.103718 0.595597 -0.063868 -0.156139 0.279998 -0.209300 0.080445 0.160446 0.205719 0.184389 0.416661 0.082706 -0.114501 -0.140064 0.179881 0.125529 -0.669859 -0.536929 0.066739 -0.027607 -0.428140 0.170393 0.484650 -0.860200 -0.403822 -0.007290 -0.091547 -0.360733 0.072556 -0.417412 0.036836 0.237614 -0.848002 -0.118087 0.460805 0.218815 -0.332828 0.319047 -0.197909 0.323059 0.452691 -0.257635 -0.011161 0.405852 -0.122311 0.439171 0.054848 0.259762 0.266171 0.063171 0.836904 0.308903 -0.520255 -0.005399 0.004962
698-0 0.286314 0.000382 0.051229 0.383152 0.253620 -0.293778 -0.086110 -0.699670 0.359750 0.197881 0.011971 0.221326 -0.039955 0.112558 0.051526 0.294260 0.181818 0.000153 -0.237280 -0.086439 0.462826 0.325804 0.055120 0.350787 -0.033807 -0.047813 0.425434 0.127985 0.089235 0.050769 -0.005679 -0.262852 0.048897 0.126503 -0.213433 -0.307423 0.184517 -0.352015 0.160263 0.408229 -0.160160 0.383945 -0.092036 0.492048 0.227513 -0.163108 -0.484086 -0.507674 -0.465926 -0.062960 0.085376 -0.312041 -0.451965 -0.196301 -0.076225 -0.358821 -0.207163 0.042105 0.003265 0.229975 0.156757 0.092838 0.306222 -0.257581 0.302148 0.132838 -0.263304 0.392199 0.518706 0.054886 0.384576 0.040439 -0.474753 -0.048067 -0.084054 -0.148813 0.124747 -0.287237 -0.061554 -0.375830 -0.192635 0.180749 -0.179988 0.388475 -0.180987 -0.045154 -0.087338 0.111874 -0.180529 0.226151 -0.306650 0.283502 -0.218337 0.325733 -0.117990 0.114143 -0.274962 -0.280379 0.181685 0.442003 -0.110895 0.164890 -0.511301 0.497016 0.198589 -0.106327 -0.030474 0.317644 0.374163 0.184197 0.221755 0.116807 0.499044 0.017525 0.149422 -0.130096 0.308365 0.193414 0.231459 0.518498 -0.070704 -0.285490 -0.176459 0.848026 -0.166875 -0.448585 -0.041584 -0.271002
691-0 -0.003205 -0.061082 -0.128294 0.082483 0.096165 0.158392 -0.021278 0.344428 0.508669 -0.388958 0.244001 0.132248 -0.436117 -0.031463 0.470143 -0.065400 -0.007690 -0.314580 -0.054766 -0.405527 0.672735 -0.949932 0.124066 -0.056859 -0.406722 0.186800 -0.253496 -0.270034 0.173607 -0.426891 -0.502400 -0.432974 0.540088 0.182829 -0.017444 -0.595568 -0.382943 -0.037680 -0.000325 -0.474796 0.263829 0.510015 0.583438 0.133874 0.757834 -0.624976 0.073657 0.715998 0.026186 -0.313098 0.327377 0.343618 -0.136349 -0.114474 0.297842 -0.947999 -0.391248 -0.397253 -0.129703 -0.340136 0.444728 0.142570 0.616067 -0.282094 -0.044587 0.302000 0.388262 -0.014471 0.135199 -0.164625 0.445165 -0.230519 0.061777 -0.071957 0.353295 -0.009185 0.046551 -0.122332 0.120490 -0.339296 -0.259121 0.161395 -0.110831 -0.214121 -0.684641 -0.119467 0.053107 -0.065131 -0.232908 0.141814 0.127996 -0.231477 0.785862 -0.090653 0.645889 -0.330522 -0.138334 -0.493601 0.155407 0.265290 0.484161 -0.224503 0.075072 0.080390 -0.180136 -0.306978 0.760841 0.188557 -0.303221 0.080236 0.011572 0.209169 0.310020 0.440202 0.520232 0.065947 0.600265 -0.512653 0.045764 -0.872577 0.876560 -0.157881 -0.025962 0.440255 0.156851 -0.008124 -0.087599 -0.587915
522-0 0.265756 -0.414422 0.276864 0.149115 0.070947 0.097778 0.080944 -0.606617 0.442195 0.292387 0.235736 0.515912 0.226551 -0.070001 0.048272 0.252448 0.129457 -0.018895 -0.058022 0.389838 0.354701 0.060315 0.415750 -0.415232 0.086388 0.456209 0.336697 0.428698 0.161865 0.012366 -0.286830 -0.120074 -0.011249 0.015980 -0.058746 -0.300107 0.317210 -0.398345 0.160340 0.460447 0.127514 0.019696 0.059739 0.287252 -0.331699 -0.552071 -0.372828 -0.136669 -0.427732 0.042140 0.327392 -0.156474 0.224040 -0.468738 0.303623 -0.576449 -0.185145 0.218120 -0.130045 -0.043568 0.281026 0.174229 -0.241904 -0.460978 -0.084285 0.214631 0.036273 0.132582 0.049502 0.240276 0.357414 -0.067047 -0.748903 -0.158884 0.118453 -0.292880 -0.381134 -0.041719 0.135768 -0.090522 -0.107259 0.164251 0.011500 -0.099857 -0.154898 -0.435023 -0.174523 0.272718 -0.094965 0.038627 0.110539 0.442680 -0.104673 0.179750 -0.106749 -0.224189 -0.059530 -0.293799 0.062279 0.823536 -0.330656 0.317221 -0.030025 0.165058 0.433293 -0.499450 0.403548 -0.104020 0.437413 -0.359554 0.235249 0.655092 0.183178 0.318802 -0.034697 -0.177727 0.664469 0.449857 0.151778 0.117513 0.254582 -0.395585 -0.367483 0.582152 -0.040237 -0.370955 -0.067256 0.147064
876-0 0.062045 -0.202878 -0.075044 0.349065 -0.012485 0.146982 0.359390 0.686821 -0.037943 0.117398 0.339745 0.301029 0.268752 -0.042126 -0.588961 0.443494 -0.573229 0.456905 -0.207734 -0.388974 0.319019 -0.240384 -0.081686 -0.543547 0.335761 0.061944 0.124075 -0.250125 0.051517 0.214085 0.002347 -0.076115 0.287006 0.445118 0.800666 0.152845 -0.369179 0.536742 -0.070051 -0.126773 0.713012 0.205997 -0.333424 0.284393 -0.689794 0.779665 0.157132 0.386103 -0.162051 -0.000997 0.116688 -0.004322 -0.150518 0.171762 -0.209903 0.684601 -0.058823 0.151065 -0.652618 0.159356 0.225419 -0.054066 0.409043 0.086275 -0.198871 0.574340 -0.210483 0.272707 0.689354 -0.011512 -0.148150 0.036377 -0.401709 0.054434 0.621896 0.220355 0.002364 0.224628 -0.499247 -0.310865 -0.012309 0.303890 -0.023362 0.021937 -0.225028 -0.544720 0.516504 0.267528 -0.032141 0.036208 -0.274316 -0.190053 0.330158 0.451599 0.019620 0.576160 -0.388638 -0.202209 0.228702 -0.142804 -0.598260 -0.064871 -0.362687 0.386080 0.746351 -0.786002 0.258708 0.086151 0.911512 0.052523 0.165502 -0.345290 0.127767 0.034887 0.055614 -0.038852 0.218446 -0.179588 0.573499 0.255098 0.255589 0.286664 -0.183544 1.092460 0.132341 -0.722443 -0.146909 -0.075414
1083-0 0.011869 0.194822 0.185737 0.172163 0.035592 -0.370519 0.196395 -0.330262 0.268820 0.085121 -0.156866 -0.751873 -0.017302 0.372114 0.190499 0.045632 0.219762 0.223351 0.199578 0.180171 0.236058 0.100840 -0.868850 -0.564607 -0.087876 -0.581126 -0.375211 0.592270 -0.056744 -0.878325 0.113317 0.473134 0.740500 -0.890213 0.083417 0.368017 0.356074 -0.038062 -0.504424 0.094974 0.089871 -0.712198 0.337190 -0.384368 0.826098 -0.555116 0.217722 0.063717 -0.148116 -0.111260 -0.454557 0.165057 0.437305 -0.352340 0.080061 -0.494149 -0.181149 0.078752 -0.631314 -0.141320 -0.226738 -0.756612 -0.408795 0.057120 -0.703723 0.662924 0.306404 -0.422941 0.172499 -0.320009 -0.501427 0.533084 -0.771203 -0.256412 0.892836 -0.121802 -0.183266 0.163447 -0.189825 0.224526 -0.285276 0.317485 0.027775 -0.653864 -0.203464 0.156887 0.094544 -0.239660 0.322406 1.025432 -0.134190 0.186706 -0.276329 0.043147 0.209299 -0.860765 -0.283407 -0.423041 -0.780817 -0.278426 -0.079318 0.115735 -0.422406 0.368089 0.793795 0.209249 -0.806559 0.525851 0.542409 0.253915 0.169063 0.342598 0.546200 -0.202684 -0.174540 0.126397 0.510312 -0.272129 0.133834 0.712475 0.412977 -0.244687 -0.091699 0.986871 0.468968 -0.244884 -0.267234 -0.283749
389-0 -0.283858 -0.082965 0.346611 0.018714 0.438213 -0.111731 0.381780 0.509931 -0.113706 -0.149368 -0.223618 -0.002186 -0.278867 0.036477 -0.028703 0.148696 0.092678 -0.081968 -0.242380 0.096623 0.788777 0.494987 -0.201445 -0.655063 0.666120 -0.121147 -0.107798 0.146003 0.197849 -0.296646 -0.500833 0.358217 0.027108 -1.119927 -0.031915 -0.404005 -0.155934 -0.018177 0.068627 0.087287 0.389639 0.154223 0.533437 0.512565 0.041510 -0.139032 0.730476 -0.055696 -0.042190 -0.470262 0.098958 0.836243 0.224533 -0.537199 0.272074 -0.293438 -0.095466 -0.721676 -0.277249 0.231659 0.607532 0.359122 0.654671 -0.605021 -0.263509 0.656531 0.322405 0.495324 0.474375 0.299714 -0.361857 -1.015016 -0.169562 0.391912 0.546314 0.226775 -0.428646 -0.506053 -0.182719 -0.469705 0.352270 -0.059394 -0.353623 -0.329998 -0.012513 -0.111456 0.509968 0.368277 -0.194406 0.721199 0.309799 0.508521 -0.151976 0.580876 0.391381 -0.302384 -1.142397 -0.182450 -0.157715 0.415368 -0.693424 -0.763397 0.074471 -0.519008 -0.095405 0.108712 0.120039 -0.213864 -0.132039 -0.181640 -0.605177 -0.153104 0.823818 -0.243931 0.175541 0.013131 0.062324 0.183803 -0.406030 -0.341084 -0.165635 -0.039261 0.470448 0.593732 0.929930 -0.480265 0.420036 -0.014643
1150-0 0.094761 0.454095 0.575216 0.335621 0.177974 -0.239672 0.035868 -0.359420 0.038073 0.364507 -0.156430 -0.708966 0.219092 0.257477 -0.060813 -0.071720 -0.025093 0.751085 -0.557377 -1.086169 0.062680 0.522355 -0.676188 -0.905310 0.219064 -0.612813 -0.193150 -0.167017 0.270012 -0.106530 0.210468 0.552134 0.298220 -0.477380 0.199408 0.074624 0.172982 0.103319 -0.487633 0.192854 -0.289621 -0.886082 0.345733 -0.457480 0.817865 0.014220 -0.255722 0.698039 -0.441701 0.300904 0.346596 0.370544 -0.179916 -0.396412 0.204415 -0.306968 0.003834 -0.674578 0.056635 -0.180657 -0.324896 -0.120623 -0.479702 -0.531848 -0.410985 0.342113 0.481312 0.101695 -0.370224 -0.308595 -0.546178 0.261882 -0.139232 -0.654798 0.513257 0.245955 -0.141291 -0.344654 0.699465 0.155945 -0.705230 0.287878 -0.740576 -0.132658 -0.202089 -0.141124 0.359294 0.184408 0.128020 0.573672 0.319719 0.652585 -0.242821 0.496185 0.092432 -0.574708 0.695595 -0.302957 -0.845485 -0.331613 0.016915 0.556127 -0.240905 0.150702 0.136667 -0.183321 -0.327704 0.447802 0.208497 0.351799 0.662495 -0.148223 0.780048 0.145514 0.272084 -0.116428 0.458797 0.115902 0.385268 -0.207148 -0.054110 0.485841 -0.342943 0.527363 0.580341 -0.577011 -0.108026 0.152600
780-0 -0.182911 0.277864 0.143656 0.403602 -0.283485 0.578263 0.054640 -0.093587 -0.076363 -0.043758 0.399916 0.468552 0.365859 0.018049 0.008108 0.243999 0.708529 0.433094 0.233413 0.159561 0.103861 0.134527 -0.440138 -0.163769 -0.123660 0.110004 0.433535 -0.008172 0.243307 -0.246552 0.021064 0.363093 0.610523 0.297852 0.567451 -0.265148 0.347619 -0.148100 0.006037 0.255728 0.316252 0.780756 0.127330 -0.109672 0.132648 -0.059456 -0.013247 0.194123 -0.063586 0.078131 -0.038880 0.062054 -0.330612 0.079868 -0.364504 -0.165652 -0.016457 0.186594 0.077229 -0.104546 0.182483 0.088121 0.337784 0.350485 -0.198304 0.283671 -0.114356 0.087363 -0.034969 -0.023663 -0.150324 -0.297348 -0.746125 -0.325921 0.302035 0.123514 0.089694 0.050621 -0.135489 0.102630 -0.060273 0.282209 -0.524417 -0.247482 -0.384834 -0.030755 0.054428 0.233004 0.081348 -0.016137 -0.701772 -0.070083 -0.185038 -0.144358 0.039034 0.224762 -0.184291 -0.209108 0.243409 0.105921 0.001453 -0.214685 -0.312870 0.059161 0.115949 -0.906552 -0.309173 0.438089 0.277809 -0.320100 0.389253 0.147735 0.071129 0.431338 -0.217416 0.053386 0.568109 -0.218188 0.114689 -0.211704 -0.243026 -0.024249 0.288791 0.802032 0.469111 -0.502456 -0.365167 0.106933
685-0 -0.310764 -0.690950 0.022417 0.428587 0.249901 0.265209 -0.052166 -0.187148 -0.236742 0.126838 0.559018 0.194597 0.094813 0.054533 0.078916 0.185991 0.158727 -0.230449 0.235703 -0.407539 0.169819 0.030867 0.060004 0.123485 0.151310 -0.301277 -0.041149 -0.191050 0.406667 -0.319297 0.109748 -0.822993 -0.027214 0.447309 -0.325519 -0.098180 0.629228 -0.234567 -0.150735 -0.208059 0.405734 0.394705 0.035678 0.045179 -0.093835 0.173423 -0.034666 0.086907 -0.018406 0.161726 0.226306 0.434143 0.214555 -0.123314 0.060799 -0.204056 0.124912 -0.200228 0.385111 -0.330975 -0.296218 0.188098 -0.026858 -0.202401 -0.625529 0.484096 -0.894795 0.183147 0.279938 0.184918 0.275677 0.078280 -0.196841 -0.283314 -0.033447 -0.069664 -0.244745 0.197633 -0.358033 0.348532 0.062452 -0.039473 -0.139300 -0.263071 -0.104206 -0.162954 -0.221469 0.711892 0.009222 0.184573 -0.790136 0.190449 -0.006351 -0.010197 0.006407 0.079493 -0.042802 -0.290073 -0.080062 0.069990 -0.252172 -0.204729 0.189385 0.712018 0.403137 -0.300872 -0.359838 0.078120 0.322473 -0.233705 0.499568 -0.147139 0.864966 -0.049454 -0.278559 0.189893 0.363405 0.385961 0.577051 -0.129195 0.109543 0.119714 -0.624514 0.708914 -0.108788 -0.293832 0.235772 -0.191348
916-0 -0.341286 -0.441011 -0.202153 -0.338630 0.382137 0.256791 -0.211932 0.078778 0.152436 -0.025008 -0.775763 -0.501338 0.664683 -0.067603 0.285942 -0.081276 0.360959 0.424111 -0.326371 -0.168472 0.697954 -0.145483 0.328344 -0.483226 0.034666 -0.087298 -0.160625 -0.187022 -0.062039 -0.916346 0.074230 -0.017294 0.216367 -0.214512 0.671592 0.442772 0.220826 0.330853 -0.118709 -0.136034 0.379312 0.352704 -0.098774 -0.203627 -0.176681 -0.631854 -0.594702 -0.189404 0.006154 -0.219604 -0.341648 -0.209504 0.570878 -0.096681 -0.297889 0.086890 0.164372 0.026142 -0.500951 -0.439457 0.337904 0.063439 0.158308 -0.038742 -1.050604 0.441729 -0.232602 0.595090 0.340308 0.774314 0.237360 0.463238 -0.089205 -0.111304 -0.220157 -0.559193 0.065726 -0.111373 0.180234 -0.083028 0.053294 0.531231 0.100810 0.020739 -0.277234 -0.280108 -0.349910 -0.386484 0.005214 0.258576 0.257036 0.189975 0.295978 -0.182505 0.277669 -0.070767 -0.176950 0.300698 -0.912636 -0.241959 0.143742 0.257917 -0.043180 -0.391271 0.016002 0.560467 0.070425 -0.431534 0.014079 -0.006448 -0.591136 -0.490374 0.637839 -0.346674 0.252066 0.367300 0.157018 -0.330035 0.226973 -0.421961 0.013202 -0.523321 -0.265542 0.449854 0.480901 -0.608072 0.177942 -0.255013
855-0 -0.673904 -0.122145 -0.303962 -0.421134 0.670715 0.051968 -0.226651 0.433665 0.252624 0.396950 -0.101520 0.124824 0.103526 -0.281512 -0.345773 -0.528554 0.420528 0.643028 -0.124835 0.500215 0.844257 -0.703202 -0.187446 -0.853403 0.414660 0.130018 -0.176481 0.116314 0.221862 -0.320563 0.334944 -0.301352 0.642253 -0.282249 0.084330 0.009830 0.445327 0.426179 0.101690 -0.003554 -1.066548 0.500649 0.207664 0.265846 -0.369445 0.568969 -0.894562 0.142571 0.522485 -0.237375 -0.040224 -0.162721 0.196433 0.669956 -0.542744 -0.088568 0.236425 -0.083632 -0.468814 -0.369161 0.367195 -0.047420 -0.653588 -0.273288 -0.135393 -0.103781 -0.078250 -0.122077 -0.675993 -0.052297 -0.064754 -0.580612 -0.135176 -0.325482 -0.239705 0.091602 0.013114 0.130788 -0.863397 0.232436 -0.558238 0.079627 0.641668 -0.271852 0.035113 -0.127953 -0.067616 -0.388362 0.199243 0.885703 0.480032 0.371943 0.876219 -0.071055 -0.189798 -0.049786 -0.585317 -0.893377 0.219703 0.244022 -0.052181 0.147462 -0.073202 0.327291 -0.236919 0.089530 -0.247317 0.246793 0.630661 0.085360 0.094366 0.182532 0.114084 0.052048 -0.207420 0.280530 0.177477 -0.041892 0.140449 -0.305390 0.025664 -0.041161 -0.099052 0.644112 0.265114 -0.931589 0.487148 -0.573719
848-0 0.543839 0.049160 -0.279430 0.441515 0.404106 -0.203532 0.048291 0.175493 0.282747 -0.235533 -0.465246 -0.133408 -0.348196 -0.294632 -0.272886 -0.130450 -0.029264 -0.054394 0.200158 -0.264408 0.490139 0.319599 0.189495 -0.740182 -0.229133 -0.046770 0.130302 -0.213116 0.117064 0.465057 -0.141225 -0.555565 0.390146 0.601674 0.138781 0.456639 0.131139 0.103996 0.052039 -0.534158 0.221745 -0.354946 0.321497 -0.094410 0.056039 -0.230124 -0.383033 0.363456 0.140506 0.203499 0.057380 -0.330919 -0.003324 0.036424 0.387564 0.269798 -0.252606 -0.623926 0.482108 0.088635 0.405091 0.192602 0.076391 0.102141 -0.526701 0.233089 0.072834 -0.083160 0.020516 0.084003 0.417775 -0.401065 -0.160949 0.104306 0.029660 -0.198285 -0.072865 -0.704592 -0.276927 -0.386283 -0.546507 0.352466 -0.600256 -0.538796 -0.428732 0.069854 -0.316816 -0.021345 -0.349267 0.054167 0.465881 0.286374 0.271595 -0.288134 0.482479 -0.595797 -0.629406 -0.181886 -0.198814 -0.111677 -0.038113 -0.254481 0.087665 0.147461 -0.360645 0.204173 -0.291862 0.160350 0.206111 0.122948 -0.098165 0.082106 0.910932 -0.027211 0.244940 0.266949 0.019778 -0.186969 0.280569 -0.282816 -0.113200 -0.242162 -0.211214 0.454185 0.593664 -0.585944 -0.343949 -0.513305
516-0 0.288602 -0.120005 -0.353440 0.302686 -0.003418 -0.167268 0.148027 -0.550054 -0.184172 0.373595 -0.272884 0.004059 0.591416 0.202505 0.347837 0.395995 -0.000113 0.352967 0.384549 0.212389 0.294252 -0.148625 -0.250419 -0.237843 -0.065560 0.078663 -0.337216 0.472582 0.073706 0.091383 -0.432965 -0.306126 0.438972 0.149767 -0.148881 0.137944 -0.080281 -0.058276 -0.096750 0.457819 -0.098369 0.331724 -0.332083 0.297319 0.311682 -0.035324 -0.476532 -0.004550 -0.267850 0.048546 -0.141779 -0.111031 -0.388764 -0.091561 -0.044118 -0.074710 -0.358910 -0.298423 0.199855 -0.365959 -0.039080 0.234796 0.333509 0.020873 -0.010338 0.141227 -0.159027 0.505853 0.205008 0.154087 0.309620 -0.273918 -0.303264 -0.231083 -0.021761 0.155615 0.140085 -0.412790 -0.036313 0.256355 -0.147667 0.161492 0.115597 0.156511 -0.266435 0.333158 -0.025688 0.192078 -0.404800 -0.074872 -0.022223 0.006547 0.008379 0.173830 0.301672 0.380557 -0.063631 -0.026272 0.041173 0.640492 -0.638360 0.056403 -0.371817 0.438499 0.080676 -0.480517 -0.041421 0.124053 -0.325011 0.028880 0.169649 0.169109 0.168870 0.236351 0.201394 -0.213323 0.490908 0.200054 0.048845 0.292162 -0.361994 -0.314662 -0.370895 0.841921 -0.160393 -0.345602 0.319421 -0.120080
2050-0 -0.690918 0.090326 -0.017880 0.729819 -0.011533 -0.045862 -0.139846 0.315065 -0.027868 -0.066210 0.336994 -0.431448 -0.121558 0.121215 0.569593 -0.154889 -0.632959 0.288186 0.697014 -0.159146 0.518489 -0.167559 0.276950 0.031269 -0.151787 -0.399636 -0.262569 0.181216 0.381008 0.387273 0.293938 0.341706 0.095247 0.193759 0.644752 0.006194 -0.207983 0.179620 -0.507038 -0.019729 0.346675 -0.087005 -0.241884 0.045945 0.135037 -0.019149 -0.063335 -0.465628 -0.744395 -0.023772 -0.544835 0.900923 0.182774 0.012549 0.231797 -0.096574 0.083637 -0.069984 -0.232270 -0.072266 0.421272 -0.018623 -0.157559 0.149708 0.005465 0.114517 -0.051895 0.443187 0.018582 -0.014456 0.257587 -1.023126 -0.210393 0.349041 0.253624 0.366028 -0.336932 -0.251097 -0.132236 0.153588 -0.102740 0.188525 -0.546027 0.547458 0.021494 0.126353 0.241378 -0.971598 0.046544 0.391922 -0.384473 0.461656 -0.162642 0.024000 0.195736 -0.033017 0.145795 -0.598237 -0.244278 0.650669 -0.286315 0.170196 0.607686 -0.379450 0.103760 -0.066247 -0.200850 0.128612 0.143454 0.316829 -0.087662 0.601212 0.064064 -0.037525 -0.155351 0.005247 0.839584 -0.679731 -0.295172 -0.490331 -0.033712 0.214942 -0.736642 0.966331 0.221002 -0.433578 0.041156 -0.258880
495-0 0.633652 -0.061264 0.410816 -0.078986 0.079596 0.005897 0.180178 -0.218624 0.682657 -0.205630 0.046206 0.434215 0.099284 -0.300852 0.419836 0.042309 -0.306935 0.329170 0.073684 -0.214562 0.516550 -0.075386 0.059124 -0.011594 0.156417 -0.244055 0.049045 -0.481135 0.512389 -0.662591 -0.236135 -0.135944 0.120144 0.109864 0.370227 0.081605 -0.231411 0.116780 -0.448219 -0.385745 -0.113665 0.029742 0.224831 0.338785 0.501683 0.268330 0.019484 0.104468 -0.410585 0.442706 -0.050072 0.796590 0.092144 0.171520 0.188886 -0.215592 0.048717 -0.370563 -0.249510 -0.108819 0.054234 0.026835 0.457974 -0.973624 -0.633841 0.487777 0.402425 0.118285 0.081050 0.398231 0.045479 0.115812 0.051908 -0.310569 0.937741 -0.346701 -0.342641 -0.405899 0.382110 -0.071321 -0.378124 0.200746 0.049596 -0.637058 -0.389126 -0.134097 0.104271 -0.324351 -0.128489 0.086197 0.628015 -0.303911 0.355018 0.009509 0.833170 -0.591063 -0.390774 -0.170985 0.414818 -0.148112 0.076639 -0.067422 0.447890 0.197741 -0.328526 -0.104525 0.310536 0.026907 0.243941 0.557159 -0.234974 0.199338 0.525708 0.466599 0.792400 0.432247 0.655434 -0.377789 0.553272 -0.782878 0.481778 -0.094932 -0.302221 0.347585 0.079295 0.112773 -0.427717 0.038497
769-0 -0.377722 -0.759843 0.210608 0.668296 0.126234 0.210483 -0.144520 0.086459 -0.142117 0.111326 0.313560 0.292757 0.021932 -0.140513 0.270496 0.376419 0.019752 0.032432 0.275651 -0.120450 -0.191130 0.035769 -0.142604 -0.103989 0.178349 -0.242723 -0.325390 0.050935 0.306417 -0.452360 0.056748 -0.314510 -0.173354 0.807877 -0.441002 0.314751 0.696454 0.110331 -0.518083 0.375277 0.120022 -0.173914 -0.229308 0.100256 -0.112790 -0.027345 -0.002175 -0.162818 -0.019675 -0.098447 0.488692 0.423652 -0.097196 -0.047324 0.331093 -0.623799 0.066534 -0.092277 0.265209 -0.183517 -0.408792 0.342521 0.048224 -0.212146 -0.519057 0.230001 -0.896610 0.321562 0.074326 0.004190 0.186607 -0.098483 -0.300296 0.155917 -0.118297 -0.028410 -0.177464 -0.149672 0.048180 0.289975 0.239526 -0.269657 0.098828 -0.434831 -0.250609 -0.013379 -0.397077 0.479221 0.213056 0.065105 -0.182695 0.355325 0.010743 -0.135340 0.525345 0.048735 -0.201748 -0.334884 -0.260112 0.163668 0.035435 -0.399328 0.012953 0.621264 0.629954 -0.701229 -0.067383 0.150058 0.474595 -0.201408 0.818424 0.083721 0.472202 -0.061297 0.252127 0.183024 0.421383 -0.044946 0.444593 -0.177047 0.248682 0.209806 -0.419663 0.943433 -0.274698 -0.431411 0.489205 0.075908
441-0 0.177136 0.191483 0.085544 -0.087378 0.304287 -0.130163 0.202607 -0.240096 -0.230919 0.345335 -0.113189 -0.104143 -0.289045 -0.024513 -0.474062 0.574881 -0.169371 -0.035804 0.287379 0.573435 -0.542049 -0.103435 -0.511300 -0.189330 0.166068 -0.609455 -0.058889 -0.027067 -0.244782 -0.296842 0.240525 0.100365 0.146363 -0.555862 0.126147 0.228468 0.084240 0.032866 -0.192519 -0.106586 -0.065222 -0.097164 0.111589 0.472676 -0.127987 0.035520 -0.079167 0.101486 -0.032810 0.048603 0.596476 0.043466 0.389077 -0.311168 0.611427 0.233475 -0.339933 0.179953 -0.304916 -0.438168 -0.200610 -0.783064 0.114134 -0.691708 -0.896300 0.332120 -0.743764 -0.144927 -0.366903 0.314056 -0.008935 0.269254 0.256334 -0.289895 0.541849 0.055800 0.297857 0.028535 -0.000733 0.100181 -0.335128 0.458824 -0.609733 0.054429 0.845442 0.106036 0.095682 -0.112357 0.126003 0.143277 -0.074975 0.496073 -0.168151 -0.233268 0.034430 -0.131556 -0.264840 -0.662766 -0.289368 0.016776 -0.141654 0.179147 -0.450820 0.077346 0.265442 -0.136060 0.329274 0.073638 -0.005553 0.092886 0.113895 0.269316 0.140241 0.084529 -0.082894 0.175402 0.383322 0.860225 0.197248 -0.210467 0.805201 0.259091 -0.245611 1.273891 0.686087 -0.503373 -0.055584 -0.691964
979-0 0.448020 -0.183800 0.173270 -0.052652 0.136963 -0.121935 0.299648 -0.002854 0.480888 -0.260058 0.184769 0.429091 0.000859 -0.228871 0.361201 -0.460436 -0.498373 0.341640 -0.000478 -0.097755 0.555094 -0.208646 -0.134201 0.026198 -0.086417 -0.314792 -0.146269 -0.494024 0.158578 -0.548277 -0.432819 -0.095476 0.264487 0.280754 0.285299 -0.051431 -0.371259 0.073430 -0.236593 -0.406447 -0.138640 0.113994 0.583956 0.480712 0.353197 0.063456 -0.009430 0.052251 -0.513435 0.293155 -0.240357 0.579196 -0.360309 0.212522 0.273107 -0.292607 -0.018951 -0.284521 -0.326781 0.014285 0.591326 -0.065370 0.670682 -0.356865 -0.315660 0.268209 0.190438 0.434486 0.185874 0.747314 0.228172 0.491070 -0.107159 -0.534153 0.811642 -0.201325 -0.412815 -0.301285 0.152644 -0.000335 -0.453122 0.285173 0.206357 -0.419895 -0.329188 -0.050977 -0.184998 0.085593 0.120367 0.337128 0.509531 -0.075181 0.273583 -0.050861 0.937329 -0.457513 -0.649562 -0.025839 0.302178 -0.226530 0.151651 -0.491114 0.597433 0.077198 -0.225526 -0.042834 -0.000481 -0.287085 0.014820 0.222807 -0.257575 -0.028079 0.217428 0.557350 0.602945 0.673445 0.524947 -0.313442 0.565105 -0.353961 0.015023 -0.187770 -0.195300 0.348698 0.172406 -0.133826 -0.316939 -0.075456
673-0 0.254319 0.171698 -0.245505 0.563825 -0.487382 0.118862 0.224062 -0.508671 0.098537 0.318996 -0.011652 0.236931 0.349890 0.221622 0.281839 0.350572 -0.233095 0.089600 0.496348 0.202528 0.646554 0.120800 -0.372737 -0.122904 0.348060 -0.236591 0.033364 0.341421 0.125772 -0.012651 -0.076529 -0.139405 -0.147173 0.270520 -0.102407 -0.021160 -0.070630 -0.086968 -0.207081 0.543807 0.166701 -0.194849 0.066205 0.286133 0.400821 -0.158936 -0.242898 0.055130 -0.093574 0.084265 0.072755 -0.162999 -0.202361 0.561568 -0.562227 -0.199033 0.593294 -0.190708 0.069464 -0.139662 0.138307 0.299560 0.345680 0.144547 -0.231815 0.624929 -0.797944 -0.193384 -0.032309 0.281792 0.389307 0.239264 0.012249 -0.398641 -0.409338 0.518651 0.043234 0.046825 -0.210685 -0.162959 0.236570 0.216958 0.073469 -0.045918 -0.303162 -0.136077 -0.015408 0.310388 -0.139554 0.019033 0.007248 0.323839 0.297995 0.184154 0.463755 0.353129 -0.037018 -0.418308 0.059384 0.066599 0.144459 -0.394440 -0.397617 0.358240 0.192300 -0.401103 -0.182004 0.243393 0.201594 -0.487214 0.535530 0.182868 0.510008 0.227107 0.390194 0.283599 0.368702 -0.038663 0.396709 0.061777 0.284809 -0.208943 -0.331323 0.629176 -0.277244 -0.604993 -0.138823 0.089627
51-0 0.320738 -0.189517 -0.006344 0.176529 0.017614 -0.314520 0.443920 -0.564798 -0.447439 0.325527 -0.374118 0.070364 0.268610 0.237603 0.237001 0.496786 -0.161515 0.398164 0.041040 0.255757 0.222499 -0.273322 -0.144403 -0.094289 0.196464 -0.064709 -0.253319 0.361998 -0.069361 0.087132 -0.202028 -0.280656 0.281345 0.007630 -0.145834 0.248693 -0.119951 0.034482 -0.188171 0.309074 -0.018388 0.338808 -0.251277 0.281000 0.051259 -0.137989 -0.651307 -0.130706 -0.677117 -0.048774 -0.073078 -0.391498 -0.231333 -0.142913 -0.228782 -0.188819 -0.246409 -0.281084 -0.042479 -0.318643 0.085667 0.116096 0.415443 -0.023326 0.055486 0.135054 -0.196763 0.471881 0.125727 0.275335 0.301899 -0.279425 -0.476582 -0.357427 -0.234951 0.009908 0.492403 -0.350834 -0.133096 -0.126359 -0.263382 0.218639 0.365289 0.005626 -0.480172 0.351043 0.185678 -0.181685 -0.338947 -0.026308 -0.109568 0.109823 0.077649 0.211360 -0.033575 0.262483 -0.065929 -0.127521 0.019425 0.357487 -0.320491 -0.013856 -0.220501 0.358242 0.084736 -0.338710 -0.300797 0.369945 -0.064049 0.021117 0.029685 0.105352 0.177239 0.179608 0.284231 -0.437641 0.262824 0.315137 0.280557 0.054920 -0.298479 -0.126506 -0.490286 0.874853 -0.051513 -0.246178 -0.134217 -0.095106
416-0 0.066540 -0.024854 0.656127 -0.139409 0.019027 -0.062605 0.293042 0.427783 0.852455 -0.255275 -0.175314 0.007062 -0.172670 0.251623 0.437495 0.115537 0.065940 0.152849 -0.076585 -0.312679 0.604767 0.241093 0.088386 -0.262243 -0.155639 0.302634 -0.277792 -0.202128 -0.084214 -0.146337 -0.239772 0.036562 0.465641 -0.274082 0.513486 -0.523977 -0.224265 -0.258035 -0.585629 -0.284447 -0.921729 0.069894 0.325029 0.354628 0.078308 -0.462658 -0.460121 0.284850 -0.341130 -0.200466 0.128726 0.639848 0.025335 -0.543172 -0.078970 -0.957785 -0.144048 -0.866784 0.176364 -0.227318 0.457291 0.430661 1.076115 -0.281005 -0.460795 -0.399994 0.297791 0.053526 -0.648414 0.383635 0.351737 0.387007 0.011048 0.023598 0.817240 0.037096 -0.485550 -0.714491 -0.278782 -0.090235 -0.374836 0.288445 0.034000 0.029087 -0.407529 0.115974 0.183146 0.518225 0.204082 -0.062402 0.381498 -0.129543 0.565762 0.161153 0.465337 -0.229834 -0.186968 0.253067 0.033399 0.513939 0.330382 -0.047814 -0.089233 0.378437 0.252804 -0.110037 -0.241588 0.152399 -0.322041 0.199984 0.270966 0.335851 0.234433 0.396334 0.045142 0.529675 0.164740 -0.205142 -0.154794 -0.401786 0.496957 0.188093 -0.020649 0.273247 0.116141 -0.347554 0.314982 -0.494221
295-0 0.395199 0.248556 0.857254 -0.047261 -0.098009 0.876767 0.013482 0.021751 -0.166736 -0.106531 0.492034 0.306646 -0.119486 -0.159934 -0.178151 -0.451349 -0.194892 0.065284 -0.024929 -0.139553 0.042631 -0.488640 -0.627382 0.028437 -0.183184 0.003160 -0.285983 -0.667771 0.128287 0.182871 0.337033 -0.089529 0.348337 -0.114022 0.774610 0.084037 -0.088224 0.105906 0.398135 -0.335975 0.463947 0.154968 -0.306165 0.216710 -0.684042 0.063523 -0.435926 0.335815 -0.859713 0.368611 -0.153068 -0.212814 -0.016910 -0.065008 0.369801 -0.199219 0.254930 -0.230784 -0.484722 -0.550223 -0.543463 0.128292 0.530377 -0.086151 0.244569 -0.065934 0.048321 0.064919 -0.210719 -0.143352 -0.003668 -0.007997 -0.178576 0.170226 0.431944 0.013833 0.422237 0.519870 -0.147216 0.217016 0.175502 0.552529 -0.382970 0.029893 0.228036 -0.129600 -0.268256 -0.306669 0.615106 -0.594667 0.066683 -0.344943 0.409220 0.257128 0.159138 0.371803 -0.705801 -0.518340 0.097147 -0.059236 -0.141201 -0.150657 -0.199994 -0.253062 0.285644 -0.797250 -0.119905 0.485411 0.469859 -0.146034 0.623633 -0.691711 0.565542 -0.155247 0.375910 -0.100658 0.768591 -0.375044 0.116739 -0.137553 -0.352492 0.159573 -0.728661 1.238720 0.016358 -0.628439 0.506097 0.004325
748-0 0.478407 -0.685125 0.304028 -0.009047 -0.033660 -0.076717 0.133669 -0.680894 0.129396 0.398759 0.093142 0.352588 0.150807 0.045938 -0.012291 0.199784 0.026510 0.173369 -0.365657 0.057636 0.287478 0.075499 0.155706 -0.302210 0.086518 0.320700 0.328231 0.452674 0.095587 -0.122035 -0.359437 0.044584 0.218296 0.210848 -0.110518 -0.349965 0.310672 -0.230120 0.109211 0.183307 0.029222 0.275351 -0.093191 0.100632 -0.249047 -0.592515 -0.646456 -0.159891 -0.432338 -0.202773 0.187273 -0.220904 0.206846 -0.429528 -0.002298 -0.412649 -0.397300 0.299975 -0.250111 0.184007 0.411176 0.188895 -0.166128 -0.290315 0.007964 0.155773 0.130171 0.160219 0.165363 0.376907 0.474786 -0.103190 -0.753630 0.118317 0.105303 -0.304937 -0.093682 -0.060048 0.383609 -0.098114 -0.118001 0.186162 -0.268788 -0.008797 -0.307720 -0.677247 -0.545471 0.162744 -0.124678 0.119631 0.152153 0.611497 0.048774 0.159069 -0.063861 -0.218503 -0.192148 -0.212005 0.154990 0.699941 -0.411094 0.178586 -0.418390 0.246066 0.391221 -0.360551 0.220895 -0.016768 0.320262 -0.108864 0.221989 0.429839 0.268538 0.178380 0.074112 -0.093018 0.277005 0.589383 0.356983 0.068802 0.141506 -0.377982 -0.418095 0.600306 -0.341073 -0.503743 -0.046646 0.029750
686-0 -0.086542 -0.403401 -0.082078 0.547810 0.001487 0.333686 0.141734 -0.157487 -0.303285 0.171528 0.641405 0.599839 0.183992 -0.035647 0.156451 0.401592 0.320291 -0.390919 0.394886 -0.417470 0.020219 0.230421 -0.227147 -0.275867 0.459123 -0.377073 -0.401696 0.104470 0.399554 -0.436657 0.305503 -0.400149 0.243258 0.584444 -0.357932 -0.136809 0.434105 -0.039756 -0.394331 0.060341 0.529804 0.071086 -0.191113 -0.108793 0.176695 -0.016764 -0.097805 -0.091463 -0.128043 -0.063485 0.443218 0.427387 -0.035539 -0.120565 -0.126587 -0.451178 0.196984 0.220732 0.414570 -0.164700 -0.129955 0.340400 0.098858 -0.021469 -0.648810 0.443616 -0.484678 -0.106334 0.019723 0.262884 0.352061 -0.088320 -0.084870 -0.340094 0.334153 0.210089 -0.223284 0.094803 -0.101498 0.301179 0.132319 -0.023910 0.299887 -0.102997 0.094966 -0.336324 -0.471532 0.441961 0.180495 0.055009 -0.482987 0.031916 0.229511 -0.197478 -0.038440 -0.013308 -0.184214 0.090102 -0.408814 0.242747 -0.003170 -0.359843 0.105238 0.590356 0.700369 -0.246215 -0.223970 -0.024229 0.363416 -0.277979 0.637924 0.061655 0.374879 -0.055013 -0.465680 0.171823 0.151108 0.130731 0.671994 0.036281 0.180590 -0.025039 -0.704949 1.023763 -0.252248 -0.598941 0.111587 -0.097829
1004-0 0.608199 0.287193 -0.086888 0.762717 0.549325 0.153900 0.132157 -0.446459 0.099037 0.544550 -0.157977 -0.318442 0.375370 0.363639 0.497189 0.221684 0.291555 0.446255 -0.037492 0.393672 0.210988 -0.097200 -0.142880 -0.006514 0.122335 0.077974 -0.147396 0.410002 0.056809 0.299078 0.142644 -0.477914 0.261191 0.072017 -0.413752 0.237429 0.044784 -0.108810 -0.203030 0.009147 -0.136083 0.002452 -0.220739 0.454376 0.077045 0.415983 -0.538103 0.315712 -0.475746 0.370327 -0.363627 0.033517 0.017882 -0.070315 -0.015478 -0.253016 -0.031502 -0.064111 -0.292337 -0.340291 -0.182773 0.292493 0.435278 -0.188694 -0.136379 0.038213 -0.254433 0.179587 0.727488 0.663844 0.093526 -0.563717 0.263409 0.004766 -0.036775 -0.194173 -0.106030 -0.399652 -0.293549 -0.057701 -0.207763 0.233858 0.358923 -0.013565 -0.367018 0.915791 0.124673 0.313321 -0.178145 -0.192655 -0.126765 0.290770 0.458715 0.357753 0.003344 0.002156 -0.431001 -0.232913 0.403845 0.484099 -0.000180 -0.003305 -0.597111 0.305008 0.249715 -0.520823 0.257785 -0.037801 0.157513 -0.306834 0.249014 0.284971 0.274754 -0.220069 -0.050700 -0.016351 0.538167 -0.077866 0.387156 -0.222975 -0.257415 0.066850 -0.538035 0.377494 -0.342909 -0.160808 0.184782 0.049100
1599-0 -0.557409 -0.156287 0.415166 1.051727 -0.744607 0.485304 -0.410338 -0.190173 0.333556 0.546939 0.216019 -0.238706 0.121628 -0.740622 0.655964 0.084207 -0.090102 0.454547 0.524396 -0.050059 0.554808 0.446213 0.399472 -0.247917 0.030549 0.270963 0.332542 -0.102413 -0.460292 0.127223 0.160733 -0.280897 0.891711 -0.553890 0.697152 0.106485 0.007809 -0.277238 -0.779273 0.351362 -0.034213 0.032033 0.411992 -0.232595 -0.108401 0.324569 0.190730 0.263556 -0.545337 -0.359099 0.788570 0.353182 -0.314102 -0.144535 -0.400293 -1.155742 0.634867 0.122910 -0.560904 0.056512 -0.025379 0.169369 -0.107008 -0.307578 0.403466 0.666811 0.428583 1.010683 1.175496 0.119951 -0.045932 -0.342268 0.047870 0.656504 -0.535036 0.253905 0.204848 -0.214955 0.041925 0.019136 -0.328323 0.548204 0.056122 -0.136336 0.434509 -0.526904 -0.602939 -0.889224 -0.876865 -0.360960 0.268455 0.375111 0.778473 1.020187 0.736580 -0.392215 -0.261250 -0.749834 0.365547 -0.458841 -0.397645 0.142639 0.138949 -0.228969 0.330683 -0.433913 -0.129748 -0.152896 -0.139562 0.195774 0.385436 -0.295874 0.762778 -0.228562 -0.006501 -0.664101 0.247375 0.557463 0.189623 -0.667610 -0.174072 -0.044110 0.035021 0.748416 0.610499 0.070624 0.643955 0.266228
57-0 -0.826819 -0.205227 0.623690 0.103397 -0.215448 0.630298 -0.118427 -0.154122 0.497393 0.491483 -0.228271 0.037852 0.251790 0.065546 0.178477 0.029914 -0.174057 0.008945 0.390104 -0.228026 0.332487 0.031674 -0.574525 -0.364339 0.274306 -0.230171 0.506027 0.252976 -0.422232 -0.549775 0.754024 -0.145981 0.761918 -0.456916 0.611989 0.806034 -0.128332 -0.057424 0.102662 0.173283 -0.120130 0.062249 0.099879 -0.072854 0.385726 0.612593 -0.388569 -0.038222 0.564583 0.159552 0.068751 -0.037494 -0.097181 -0.129942 -0.436805 -0.917157 -0.212742 0.028004 -0.275394 -0.148564 0.173495 -0.473296 0.199453 0.199616 0.863149 0.827161 0.066522 0.408514 0.214845 -0.261945 -0.086865 -0.405720 -0.219108 0.395762 0.362246 -0.079357 -0.697516 0.194659 -0.354016 -0.179549 -0.742805 0.671925 0.294800 0.624738 0.657459 -0.319375 -0.057691 -0.177404 -0.339095 -0.110453 0.646519 1.380604 0.777761 0.594239 0.336024 0.551211 -0.399948 0.292505 -0.689806 -0.054050 -0.012229 -0.048870 0.333878 0.388058 0.478930 -0.071244 -0.121947 0.541391 0.049856 0.537565 0.173423 -0.313039 0.175041 0.817820 0.623421 0.242002 0.464718 0.237653 0.423644 -0.383770 0.108902 -0.868251 -0.024390 0.204469 0.301725 0.062891 -0.059173 -0.198439
2996-0 0.602017 -0.388461 -0.040526 0.072645 0.409976 0.183261 0.077769 0.188020 0.818783 0.329203 0.036408 1.039602 0.331405 -0.595320 -0.211211 1.056656 0.466502 0.469844 -0.900758 0.222482 -0.130111 -0.245287 0.176068 -0.924055 -0.056021 -0.486991 -0.336513 -0.231564 -1.065642 -0.188215 0.329351 0.009176 -0.932726 0.402850 -0.104470 0.307102 -0.152027 -1.179924 -0.901392 -0.453384 0.049908 -0.275879 -0.175878 0.536973 0.306417 0.542663 -0.127620 0.296839 -0.610751 -0.457865 -0.000469 0.501749 -0.077075 -0.035349 0.537617 -1.040203 0.517414 0.473220 -1.114807 -0.167125 -0.401393 -0.318016 0.128851 0.184169 0.021900 -0.452074 -0.430797 0.348620 0.395329 -0.451078 0.382794 0.123182 -0.895502 0.541424 1.256863 1.325268 -0.518758 0.639240 0.118730 -0.086608 -0.345963 0.548600 -0.018181 0.558098 -0.029255 0.165802 0.248977 0.994635 -0.116116 0.984012 0.509317 1.155568 1.267682 -0.237407 -0.224464 0.540345 -0.084741 -0.030412 -1.105341 -0.142733 -0.115063 -0.912446 -0.127401 0.085147 0.281738 -0.399091 0.279666 -0.121251 0.609412 -0.782188 -0.763088 -0.088959 0.149983 0.268079 -0.665070 -0.165706 -0.293192 -0.746228 0.135846 0.166486 0.332421 -0.183336 -1.339179 -0.177718 -0.455042 -0.843573 -0.310340 0.387988
40-0 0.070860 -0.260596 0.043556 0.193297 0.467400 -0.024649 0.329490 -0.226924 0.342544 -0.106235 0.056617 0.528848 -0.368734 -0.111163 0.069155 0.492091 0.160618 -0.080556 -0.173535 -0.325916 0.176071 0.028530 -0.735105 -1.097159 0.153336 -0.167620 0.063159 0.186223 0.039069 0.081880 -0.140862 -0.487146 0.458527 0.052399 -0.071482 0.173462 -0.094799 -0.031653 -0.066674 -0.654019 -0.463892 0.084091 -0.242690 0.091436 -0.260107 0.083537 -0.058019 0.157116 0.525699 0.313650 0.332946 0.572443 -0.050085 -0.290128 0.196309 -0.474238 0.415115 -0.891978 -0.219801 -0.357428 0.579404 0.435067 0.301574 0.215268 -0.390126 0.404788 0.167868 0.077012 0.077250 0.748257 0.644175 0.312138 -0.088907 -0.607791 0.433526 -0.076553 -0.114165 -0.646517 0.554348 -0.107745 -0.251874 0.512862 -0.217841 -0.602998 -0.558972 -0.407876 0.218689 0.114971 0.332940 0.811063 -0.248656 0.279914 0.622518 0.188261 1.057389 -0.056303 -0.328203 -0.217035 0.047349 0.610021 0.594551 0.259162 0.774886 0.208079 -0.030398 0.664708 -0.028099 0.137051 -0.162972 -0.012736 -1.051975 -0.184877 -0.075034 -0.354972 0.071664 0.718844 0.326446 -0.388969 -0.150129 -0.025748 0.249743 -0.086538 -0.410322 0.541054 0.096858 -0.109009 -0.085693 -0.325988
1707-0 0.052458 -0.356892 -0.090942 -0.039201 -0.124287 0.450327 -0.042568 0.433026 -0.795765 -0.204775 0.356528 0.203662 -0.856160 -0.510960 1.290987 0.133453 -0.324907 -0.167188 -0.494986 0.536878 0.575407 -0.318693 0.404042 -0.918023 -0.017992 -0.241986 -0.164632 0.305996 -0.263260 -0.223022 1.197556 0.240530 0.153609 -0.585963 -0.325235 0.313732 0.156734 0.321830 -0.020311 -0.003019 -0.341233 0.125853 -0.006917 1.105245 -0.055780 -0.222439 -0.644610 -0.252848 -0.993917 0.072116 0.299109 0.285175 0.138668 -0.175161 0.161134 -0.425594 0.397651 0.001476 -0.430764 -0.333462 0.406275 -0.105226 0.454421 0.113504 0.588105 0.086250 -0.217907 0.401447 -0.103133 -0.560511 -0.738267 -0.063966 -0.218929 -0.447388 -0.604034 -0.761977 -0.642780 0.035523 -0.063499 0.498085 -0.142403 -0.376685 -0.093439 -0.565158 -0.340232 0.083765 -0.442829 1.016324 -0.357771 0.131839 0.060325 0.234422 0.489776 -0.472162 -0.057472 -0.076404 -0.329709 -0.102531 -0.630228 0.558654 0.476425 -0.070243 -0.321706 0.305807 -0.358099 0.030698 0.488492 -0.132173 -0.025054 -0.074481 -0.183352 0.153828 0.048520 0.262758 0.220295 -0.121579 0.282731 -0.159064 0.656879 -0.270286 -0.080567 0.463962 -0.179792 1.212484 0.538559 -0.370343 -0.326202 -0.269552
1747-0 0.410002 -0.195017 0.619142 0.098981 -0.398147 0.806433 -0.502003 0.884847 0.508552 0.521379 -0.088752 -0.073652 -0.111279 -0.480914 -0.170323 0.813740 0.198961 0.901519 0.482364 -0.049673 0.749252 -0.510848 -0.354093 -0.400149 -0.010494 0.187098 0.391754 0.323476 -0.367188 -0.289540 0.210697 0.474302 0.394833 0.532699 -0.231431 -0.593903 -0.259657 0.601835 -0.313081 -0.756166 0.310963 -0.123719 -0.003550 0.564929 0.334939 -0.183087 -1.408742 -0.098842 -0.021369 -0.141709 0.855042 -0.040837 -0.447437 -0.062331 -0.238963 0.114137 0.455301 -0.429449 -0.388898 -0.719102 0.436716 -0.257088 0.413589 -0.863518 0.025477 -0.023593 -0.595066 0.052542 0.195038 -0.064863 -0.315893 0.275701 -1.138160 -0.190090 0.330799 -0.192736 -0.258570 -0.861272 -0.279426 -0.326884 0.109833 0.034956 -0.381904 0.380941 -0.354319 -0.401261 0.072121 1.076709 -0.120758 0.257782 0.106800 -0.119890 0.382482 0.463435 0.201607 -0.060715 -0.878863 -0.803997 -0.785465 0.137191 -0.004731 -0.228031 -0.179106 -0.283726 -0.361292 -0.048326 0.055755 0.063103 -0.169379 -0.001738 0.282989 0.776043 -0.028340 -0.415358 -0.193527 -0.666459 -0.796457 0.115533 0.220468 0.513386 -0.111548 0.201138 -0.651357 -0.421059 0.225940 -0.014833 0.307484 -0.653692
2832-0 -0.434796 -1.417230 0.659613 0.601903 -0.317576 -0.130072 -0.110816 0.765413 -0.251167 0.516102 -0.387209 -0.265946 -0.257486 0.382587 -0.675906 0.618450 -0.391106 0.130731 0.215836 0.536353 0.805099 -1.172913 -0.270808 -1.321443 -0.077283 0.203637 -0.060708 -0.122081 0.441209 0.459952 0.556492 0.469294 0.520718 0.011423 -0.514231 0.683725 0.068414 0.196859 -0.676414 -0.040002 -0.159815 0.596549 0.517921 -0.041767 -0.086255 0.505230 -0.006942 0.387078 0.245203 -0.526261 -0.563999 -0.070855 -0.154266 0.100586 -0.137109 0.723179 0.111627 0.112311 -0.781668 -0.273184 -0.342545 -0.599065 0.905165 -0.924549 0.428889 0.616342 0.128121 0.281600 0.284501 -0.458669 0.293760 0.126971 -0.453037 0.648713 -0.130959 -0.146377 -0.679947 -0.855085 -0.773237 0.137769 0.498979 0.425256 -0.249064 -0.864840 -0.209869 -0.074831 -1.324865 0.009484 0.395822 0.502593 -0.541420 0.307400 0.195765 -0.551289 -0.436315 -0.047651 0.323357 0.942071 0.319173 -0.417244 0.489651 0.703045 -0.005051 0.011228 0.379656 0.037170 -0.102444 0.233035 0.801003 -1.107313 -0.393132 0.380073 0.324468 0.575195 0.887706 0.008715 0.675569 -0.503721 -0.076269 -0.060936 0.479679 -0.108022 -0.439594 1.098649 0.693698 -0.992057 0.569459 0.623940
338-0 -0.060281 0.194658 -0.564062 0.529108 0.058020 -0.081360 -0.328367 -0.376617 0.188247 0.256826 -0.265908 -0.102135 0.462608 0.252412 -0.143208 0.453667 0.049002 0.300767 0.484671 0.532375 0.180918 -0.255791 -0.313392 -0.549194 0.244893 -0.136477 0.160488 0.171458 0.391024 0.119615 -0.197281 -0.252157 0.734137 0.408484 0.228906 0.446003 0.093840 -0.470120 0.148835 -0.303720 -0.205912 0.201188 0.248892 -0.053283 0.215660 0.225267 -1.047605 -0.195175 -0.660094 -0.348984 -0.007029 0.657228 -0.566777 -0.114643 -0.501136 0.132257 -0.195188 0.031179 -0.073522 -0.322214 -0.340680 0.210084 0.257749 0.338719 -0.111280 -0.143288 -0.045141 0.645597 0.409764 0.560421 -0.328174 -0.305571 0.023547 -0.301186 -0.130095 0.074295 -0.049742 0.434115 -0.227985 0.169900 -0.239392 0.120933 -0.361737 -0.158626 0.038971 0.650538 0.280109 0.494086 0.072974 0.132866 -0.250422 0.082365 0.615286 0.511498 0.074639 -0.236855 0.016347 -0.465853 -0.331167 0.476537 -0.162569 -0.363278 -0.504577 0.215827 -0.184406 -0.715785 0.651034 0.017836 0.011973 -0.672722 0.374170 0.221104 0.181717 0.253644 0.133527 0.076583 0.655078 0.137490 -0.215776 0.250450 -0.295494 0.206291 0.085645 0.682606 -0.322536 -0.362036 -0.199654 -0.501183
1000-0 0.225086 -0.427427 0.391608 -0.029432 -0.039270 -0.119619 0.384421 -0.756815 0.098737 0.331061 0.059046 0.453571 0.127663 0.020358 0.089698 0.239967 0.035552 0.144877 -0.282348 0.139020 0.386631 0.180272 0.192370 -0.350252 0.119010 0.092983 0.218079 0.626941 0.202634 -0.006554 -0.400428 0.153147 0.231605 -0.184213 -0.092630 0.059217 0.025290 -0.280766 -0.022579 0.339871 -0.040228 0.071939 -0.201149 0.104894 -0.233175 -0.667132 -0.527961 -0.244269 -0.343154 -0.105022 0.069632 -0.224618 -0.018481 -0.525487 0.096930 -0.535987 -0.467157 0.302310 -0.145220 0.047379 0.134600 0.053465 -0.078612 -0.375329 0.237753 -0.038649 -0.096454 0.289059 0.144303 0.255789 0.270882 -0.146109 -0.592929 -0.007572 0.085191 -0.385324 -0.017353 -0.213199 0.180839 0.006013 -0.162094 0.081304 -0.294482 -0.142234 -0.190661 -0.532053 -0.787948 0.267463 -0.105778 0.242228 0.037408 0.638619 -0.093701 0.211249 -0.154973 0.081135 -0.283404 -0.091801 0.120501 0.722197 -0.285065 0.355404 -0.410786 0.266266 0.574524 -0.380388 0.151298 -0.078277 0.389351 -0.389202 0.195588 0.494365 0.268067 0.244531 0.029219 -0.143308 0.373866 0.512102 0.232582 -0.207221 0.395466 -0.327643 -0.433551 0.570302 -0.163100 -0.497464 -0.078734 -0.057327
2137-0 -0.323337 -0.158732 0.124406 -0.066176 0.109052 -0.480411 0.275077 -0.142458 -0.298322 0.292946 0.377921 0.430635 -0.167385 0.443826 -0.019941 0.092265 -0.723999 -0.128409 -0.093888 -0.063218 0.381216 -0.371750 0.245100 -0.654482 0.592965 0.250553 -0.107522 -0.166356 0.098043 -0.633198 0.837533 0.314830 0.226826 -0.504638 -1.107964 -0.607334 0.044052 0.463082 -0.334966 0.803038 0.609487 -0.342894 0.418512 -0.236228 0.324647 0.000397 -1.068602 0.356031 -0.320937 -0.575653 -0.106334 -0.210351 0.026761 -0.291150 -0.153503 -1.140020 0.227560 0.438466 -0.788710 0.307281 0.252363 -0.246409 0.449740 -0.445642 0.456113 -0.113889 0.411096 0.803101 0.689479 -0.789224 1.620317 0.007974 -0.132647 -0.408952 1.388490 0.913330 -0.772751 0.467422 0.045726 -0.307775 0.256153 -0.304672 -0.432577 -0.982886 -0.520801 0.659972 -0.531611 0.344372 -0.141368 0.754898 1.034240 1.078483 1.147249 0.252019 0.394816 -0.000160 -0.033312 0.182933 -0.375204 -0.354785 -0.960821 -0.234616 0.551596 -0.816706 -0.490728 -0.365570 0.003129 -0.163326 0.002722 -1.333077 -0.359607 0.388737 0.040015 0.237297 -0.676795 -0.265125 -0.272052 0.384949 -0.050747 0.191352 0.064810 -0.146428 0.434066 0.554032 1.689303 -0.737904 -0.220664 -0.497266
999-0 0.345544 -0.637359 0.184385 -0.103477 -0.048078 0.070857 0.368714 -0.801627 0.154001 0.587317 0.193294 0.379593 0.203701 -0.062186 0.106997 0.130829 0.067900 0.228498 -0.178925 0.242089 0.537751 0.154918 0.114444 -0.406540 0.282085 0.263106 0.343927 0.692119 0.074144 -0.068844 -0.361032 -0.129597 0.137619 -0.007297 -0.190615 -0.123668 0.006019 -0.148746 0.113026 0.254820 0.011847 0.247564 0.005583 0.017996 -0.142784 -0.659022 -0.292197 -0.156465 -0.286486 0.160707 0.160052 -0.044032 0.326294 -0.367986 -0.173839 -0.483443 -0.477036 0.303315 -0.059934 0.198948 0.166409 0.017438 -0.185243 -0.198389 -0.030686 0.080280 0.046060 0.099661 0.180090 0.323215 0.127511 0.079473 -0.641265 0.030749 0.156789 -0.233043 -0.088101 -0.029247 0.343037 0.104550 -0.277450 -0.035564 -0.263261 -0.206476 -0.272681 -0.677715 -0.693781 -0.017346 -0.116209 0.204779 0.086600 0.483648 0.052317 0.309867 -0.100617 -0.085628 -0.083461 -0.200301 0.189107 0.852518 -0.390647 0.236241 -0.251092 0.360245 0.390747 -0.233958 0.225682 -0.038898 0.343711 -0.302768 0.123998 0.257328 0.178910 0.213938 0.116865 0.033925 0.326191 0.574014 0.281091 0.126295 0.205022 -0.201945 -0.578549 0.467413 0.031379 -0.433455 0.024805 -0.129625
2024-0 -0.315371 -0.044165 -0.061619 -0.145982 0.344015 0.126307 0.065253 -0.010371 -0.403845 0.590175 0.512668 -0.078251 -0.383025 -0.041714 -0.371422 0.401853 0.164665 0.339313 0.045017 0.260728 -0.112973 0.176788 -0.639286 -0.724402 0.700256 -0.497914 0.022422 0.432724 -0.235869 0.181155 0.101970 0.147703 0.062104 -0.176220 0.230029 0.289446 0.679515 -0.285133 -0.540904 -0.019032 0.002001 -0.531050 0.694233 0.052444 0.892476 0.048542 0.032375 0.171426 -0.345052 -0.078278 0.125571 0.053029 0.221750 -1.097294 -0.011419 0.478280 -0.429558 0.025405 -0.087553 -0.486268 -0.328011 -0.391772 -0.094180 -0.577726 -1.002842 0.206416 -0.201616 0.053410 -0.341390 0.133303 -0.160949 0.102608 -0.348871 -0.354689 0.225890 0.465178 0.226275 0.066945 0.058237 0.146432 -0.310708 0.606238 -0.125456 -0.140943 0.339176 -0.365914 0.348369 -0.095641 -0.234566 0.349123 0.509251 0.503329 0.265341 -0.172991 0.299581 0.003774 0.113708 -0.470804 -0.166812 -0.462195 -0.090280 0.796620 -0.770610 0.261411 0.107124 -0.101534 0.314102 0.080017 -0.001099 0.870482 0.196846 0.326012 0.156343 -0.294060 0.233152 0.024201 0.758845 0.057665 -0.201016 -0.222831 0.541424 0.160333 0.127825 0.707640 0.588317 -0.545175 -0.162405 -0.697598
422-0 0.284134 -0.362506 0.376095 -0.090676 -0.131682 -0.180996 0.021721 -0.577081 -0.059026 0.435362 0.042447 0.232354 0.207662 -0.063117 0.088283 0.049014 -0.052742 0.221735 -0.288589 0.064784 0.397390 0.245229 -0.086615 -0.636626 -0.210923 0.115224 0.118990 0.363999 0.221714 -0.036462 -0.460690 0.172265 0.141190 0.122277 0.194010 -0.249097 0.292520 -0.116154 -0.054726 0.065878 -0.249148 -0.022175 0.031043 0.009866 -0.300108 -0.577022 -0.646380 -0.185666 -0.628441 -0.478056 0.296586 -0.111673 -0.021001 -0.256970 0.062160 -0.607772 -0.818505 0.192360 -0.169761 0.180641 0.072819 0.505150 -0.258316 -0.310038 0.122532 0.059679 0.105493 0.445875 0.064486 0.235030 0.617102 -0.240739 -0.612852 0.090146 -0.081725 -0.207314 -0.150574 -0.089466 0.377300 0.021835 -0.284683 0.203354 -0.172254 -0.008607 -0.031769 -0.307600 -0.550825 0.664107 -0.222433 0.153010 0.170406 1.070267 0.162409 0.172469 -0.076767 0.011077 -0.224998 -0.145084 0.062626 0.503029 -0.307058 0.166737 -0.300193 0.405440 0.241470 -0.586253 0.405938 -0.420597 0.483143 -0.300412 0.233568 0.526020 0.380899 0.203241 0.144832 -0.240252 0.561709 0.454713 0.190364 -0.012174 0.168954 -0.182992 -0.509886 0.561028 -0.359730 -0.275239 0.158581 0.193560
1980-0 -0.669356 0.124217 -0.558489 0.488712 0.033458 0.015246 -0.349187 0.225407 0.092590 -0.089947 0.355426 -0.684571 -0.328465 0.094944 0.998519 -0.174372 -0.458115 0.492412 0.511775 -0.086299 0.740685 0.148388 0.498947 0.015971 -0.018624 -0.788778 -0.181807 -0.043305 0.256471 0.366807 0.322914 0.406214 0.337522 0.089421 0.463484 0.130359 -0.013996 0.124427 -0.341698 -0.299466 0.426208 -0.025585 -0.645866 -0.134971 0.082883 0.151108 -0.125711 -0.177886 -0.669105 -0.053570 -0.494049 0.919014 0.094431 0.088584 0.141749 -0.150812 0.304240 -0.405682 -0.290015 -0.204847 0.438263 0.004792 -0.051634 -0.169733 -0.112493 0.138462 0.286916 0.441208 -0.090615 -0.013875 0.412504 -0.885377 0.015027 0.241356 0.109721 0.258579 -0.290770 -0.206913 0.032490 0.159160 -0.124759 0.169476 -0.559424 0.579919 -0.245372 0.351077 -0.020676 -0.858384 -0.063640 0.174755 -0.448163 0.373537 0.074720 -0.026469 0.228683 -0.113428 -0.050267 -0.355523 -0.261483 0.683020 -0.258557 0.117130 0.270751 -0.302074 0.541200 -0.060648 -0.092546 0.370533 0.044337 0.181319 -0.207156 0.378613 0.085400 -0.061125 -0.102512 0.063482 0.863779 -0.991446 -0.382147 -0.422036 -0.060896 0.496872 -0.862124 0.912391 -0.151511 -0.487868 -0.039208 -0.053107
862-0 0.433720 0.327887 0.703965 -0.154836 -0.582214 0.531525 -0.234285 -0.249316 0.360790 0.363736 0.234846 0.906350 0.409472 -0.365483 0.126941 0.143527 0.254455 -0.129985 0.057409 -0.022978 0.223960 -0.404017 -0.299570 -0.267240 0.514396 0.382720 0.336155 -0.307081 0.423381 -0.914234 0.732232 -0.196557 0.616780 0.068887 -0.050716 -0.121202 0.187797 0.386772 -0.333357 -0.208260 0.880676 -0.490991 -0.140873 0.231213 -0.159103 -0.215095 -0.042235 -0.182322 -0.460558 -0.220314 0.347878 0.278302 0.159769 -0.220315 0.055598 0.230932 0.032378 -0.046672 0.228677 -0.346498 0.323767 0.711864 0.578641 0.585166 0.648768 0.381462 -0.557833 0.360974 -0.024426 0.110242 0.397340 0.037990 -0.304854 -0.407852 0.790345 0.480526 0.200075 0.084622 -0.036193 0.308482 -0.141176 0.472704 -0.618357 -0.036342 0.125298 -0.105580 -0.460229 0.159990 0.225314 0.331089 -0.754700 -0.099811 0.256120 0.370516 -0.161442 0.351660 -0.927841 -0.079194 -0.445069 0.287231 -0.910454 -0.063927 -0.314548 -0.088885 0.520840 -0.466594 -0.161499 0.076435 0.373619 0.096692 0.792337 0.031291 0.062621 0.138924 0.559906 0.052182 0.281202 -0.206508 -0.098185 -0.226358 -0.550646 0.413773 -0.410982 0.505109 -0.121274 -0.427280 -0.182677 -0.055628
1500-0 -0.244450 0.217402 0.049028 0.050218 0.240696 -0.135062 -0.113696 -0.009525 -0.223722 0.810829 0.626065 -0.080763 -0.039764 -0.088786 -0.225805 0.700898 0.345135 0.233467 -0.171447 0.284088 0.178492 0.194035 -0.469852 -0.873269 0.412777 -0.385950 -0.465092 0.165591 -0.290467 0.362698 0.114981 -0.000626 0.286718 0.368736 0.107811 0.290189 0.596608 -0.054116 -0.562997 0.032653 -0.013445 -0.763575 0.525249 0.025329 1.354816 0.202569 -0.010857 -0.206081 -0.846191 -0.003028 0.090693 0.195385 0.135180 -1.270671 -0.048568 0.329500 0.195855 -0.003809 -0.338189 -0.628281 -0.136693 -0.124365 -0.354275 -0.348912 -0.932152 0.107202 0.124398 -0.021590 -0.399483 0.100671 -0.147549 0.580208 -0.089012 -0.412617 0.283728 0.753700 0.268441 0.183751 -0.094514 0.302873 -0.012967 0.398077 0.007458 -0.076163 -0.016862 -0.601613 0.077802 -0.224206 -0.307072 0.334755 0.694656 0.553559 0.352644 0.388546 0.361091 -0.255697 0.450756 -0.185202 -0.443460 -0.259942 0.339021 0.557542 -0.431822 -0.001529 -0.338978 0.470935 0.557395 0.474229 0.166414 0.909063 0.142346 0.268035 0.006337 -0.184544 0.548399 0.126852 0.695096 0.026227 -0.246046 -0.163278 0.225784 0.172119 -0.049703 0.699663 0.581965 -0.730000 -0.238625 -0.791201
1661-0 0.738966 0.356997 0.110714 -0.152214 0.234177 -0.035712 -0.783282 -0.238899 0.384011 0.275476 -0.053752 -0.322592 -0.343888 -0.380443 -0.374945 0.475770 0.266561 0.785266 -0.391949 0.054553 0.609564 0.226852 -0.059645 -0.728743 0.716748 0.044183 0.151165 -0.513811 0.497880 0.441089 0.034028 -0.777133 0.535658 0.155807 0.225435 0.506663 0.282173 0.067088 0.102914 -0.262760 0.265114 -0.118717 0.489937 0.253933 -0.137878 -0.418360 -0.440839 0.352765 -0.735403 -0.574075 -0.280268 -0.528053 0.374179 0.049285 -0.135837 0.694125 -0.251722 -0.370840 -0.201217 0.204184 0.385744 0.280500 -0.369893 0.023246 -0.720197 0.606891 0.044158 0.370459 0.067136 0.094664 -0.581238 0.582815 -1.362214 -0.444001 1.410011 0.709003 -0.963571 -1.050725 -0.198402 0.551011 -0.282273 0.173519 -0.743020 -0.424747 0.948987 0.582704 0.849365 0.420395 -0.499603 0.236052 -0.174280 0.412936 1.327076 -0.042687 0.336465 0.243932 -0.709433 -0.340935 0.160837 -0.193624 -0.772739 0.583548 -0.035435 0.349577 -0.478526 0.631468 -0.064699 -0.129889 -0.181478 -0.186567 -0.033572 0.094159 0.586296 0.246877 0.180734 -0.017434 0.044293 -0.195532 -0.638077 -0.461260 -0.234519 0.252735 0.223057 0.485936 -0.517046 -0.198406 -0.895498 -0.193684
69-0 -0.277143 0.445615 -0.371774 0.354606 -0.212604 0.115111 -0.097852 -0.323095 0.080213 0.288289 -0.276280 0.179794 0.354024 0.002208 -0.102323 0.256226 -0.005478 0.210464 0.263587 0.440693 0.495150 -0.267167 -0.327917 -0.572341 0.123891 -0.238268 0.018957 0.267701 0.265656 -0.147305 -0.149163 -0.348359 0.583030 0.533513 0.098463 0.351227 0.339532 -0.224341 0.237316 0.145076 0.041011 0.133606 -0.075153 0.010023 -0.065123 0.171377 -0.809836 -0.300077 -0.648667 -0.214633 -0.020680 0.354700 -0.542769 -0.218242 -0.329170 0.256132 -0.242413 0.387949 -0.099515 -0.492725 -0.174745 0.247787 0.759771 0.077183 0.120315 -0.029430 -0.001031 0.595161 0.204565 0.211625 0.255167 -0.378642 0.081390 -0.268774 -0.045422 0.216915 0.214026 0.145907 -0.388553 0.260889 -0.011110 0.028747 -0.226649 -0.302984 -0.169512 0.659562 0.395983 0.558612 0.240599 -0.175340 -0.076887 0.012597 0.356708 0.399354 0.226002 -0.021241 -0.009253 -0.154684 0.056671 0.710166 -0.244028 -0.286352 -0.503860 0.179772 -0.104192 -0.918014 0.191043 0.060777 -0.131898 -0.364293 0.245014 -0.246665 -0.051639 -0.145232 0.461253 -0.088587 0.695315 0.089938 -0.192369 0.039345 -0.398522 0.146936 -0.230306 0.749000 -0.303209 0.084992 0.112407 -0.464907
935-0 0.325878 -0.008924 0.118989 0.053069 0.221423 0.056096 0.136351 -0.161585 0.646732 -0.360315 0.154411 0.318198 -0.127789 -0.299266 0.458687 -0.068522 -0.267076 0.410588 0.025265 -0.233989 0.611181 -0.290483 0.047882 -0.190736 -0.100628 -0.185290 -0.122875 -0.342226 0.498482 -0.738470 -0.352697 -0.353789 -0.081911 -0.081218 0.212699 -0.305428 -0.010698 0.350150 -0.309691 -0.828188 -0.082417 0.120119 0.524723 -0.022762 0.528076 0.021370 0.220667 0.265483 0.092403 0.151180 0.056662 0.383511 -0.020723 -0.007949 0.250488 -0.377058 -0.061532 -0.325725 -0.264314 -0.350957 0.418297 -0.110343 0.315580 -0.518985 -0.237436 0.258469 0.454375 0.369861 0.004218 0.219275 0.368174 0.092268 -0.200438 -0.128077 0.572512 -0.121603 -0.393550 -0.029642 0.196721 -0.446520 -0.215616 0.111446 0.001619 -0.401203 -0.544382 0.059853 0.029420 -0.073188 -0.160298 0.515555 0.224994 -0.316436 0.393899 -0.320092 0.833841 -0.419543 -0.615126 -0.353174 -0.063629 -0.217434 -0.288009 -0.216610 0.498311 0.022920 -0.603337 -0.221790 0.681154 -0.247999 -0.010281 0.445197 -0.416779 -0.019094 0.375765 0.748545 0.722420 0.192348 0.337682 -0.337899 0.320682 -0.496689 0.407072 -0.143534 -0.250535 0.196140 0.257386 -0.157184 0.024064 -0.105662
2006-0 -0.685984 -0.066814 -0.053818 0.923911 -0.387222 0.045421 0.293295 -0.044646 0.157052 0.005762 0.045286 -0.030362 -0.253646 -0.227511 0.700048 0.132230 -0.694228 0.396769 0.822298 -0.057317 0.700442 -0.151099 0.245664 0.251188 -0.026153 -0.564784 -0.722805 0.211981 0.238974 0.633580 0.308418 0.285798 0.086587 -0.069675 0.643204 -0.307269 -0.114467 0.103051 -0.187874 -0.049722 0.275507 0.019147 0.185695 -0.240989 -0.078269 -0.076237 -0.314106 -0.232383 -0.858759 0.047064 -0.627690 0.580681 0.238915 0.198544 0.254539 -0.017692 0.283680 -0.200792 -0.330172 -0.352927 0.410098 -0.299998 -0.266113 -0.412196 0.317749 -0.035963 -0.126768 0.053309 -0.071444 -0.198844 0.141942 -0.467235 -0.695279 0.092486 0.442356 0.346306 -0.566147 0.129987 -0.613186 0.359559 0.355261 -0.178992 -0.801425 0.489870 0.171203 0.030311 0.273483 -1.011519 0.020469 0.669818 -0.396951 0.856741 -0.196853 -0.043349 0.450421 0.029355 0.250933 0.046813 -0.693856 0.419041 0.024439 -0.302269 0.773242 -0.153543 -0.098633 -0.041664 -0.088070 0.022072 -0.144617 0.066487 -0.098210 0.566234 0.194254 0.085830 -0.037027 0.184389 0.428601 -0.557061 -0.296267 -0.394037 -0.048418 0.055903 -0.598459 0.732675 0.482160 -0.379008 -0.304281 -0.403635
1634-0 0.230082 -0.334091 0.166978 -0.164659 -0.068825 -0.069122 0.466472 -0.454314 -0.344839 -0.090953 0.078050 -0.098080 -0.326181 -0.245050 -0.670831 0.411341 -0.063498 0.020331 -0.010077 0.668009 -0.313775 0.035597 -0.656628 0.014613 0.001153 -0.271793 0.138920 -0.131617 -0.329439 -0.349239 -0.387772 0.461668 0.283528 0.010042 -0.021378 0.162471 0.018735 -0.275000 -0.768808 -0.366205 0.056221 0.772490 0.347538 -0.003900 0.034695 -0.040555 0.650480 -0.118815 -0.156747 -0.549005 0.217040 0.008788 0.234448 0.268906 0.812228 -0.337255 0.146602 0.587477 0.115320 -0.645004 -1.026168 0.288189 0.436761 0.083080 -0.719035 -0.170259 -0.313227 0.426678 0.385744 0.019514 0.024372 0.295480 -1.122017 0.094588 -0.052726 -0.063492 -0.643592 -0.012294 0.634183 0.162015 -0.215574 -0.061039 -0.470068 -0.905295 0.086413 -0.043895 0.190098 0.076400 0.097875 -0.256815 0.250662 0.560147 0.941029 -0.278111 -0.220223 -0.567035 -0.539960 -0.416280 -0.416065 0.475643 0.132697 -0.236132 0.029244 -0.287741 0.868498 0.153036 0.963908 0.396244 -0.423969 0.383807 0.202720 0.316028 0.031118 0.288873 0.063180 0.536053 0.357722 0.048798 -0.048265 -0.224314 0.765689 0.165932 -0.580106 1.034007 0.393890 -0.340516 0.613090 -0.247900
218-0 -0.103665 -0.196007 -0.046796 0.497993 -0.011372 0.159631 0.353567 0.755902 0.103175 0.167596 0.323548 0.393444 0.244032 -0.055636 -0.491731 0.306765 -0.694279 0.355117 -0.356200 -0.150943 0.201244 -0.283583 -0.098982 -0.396794 0.233505 0.151928 0.105635 -0.215905 -0.126275 0.314771 0.209815 -0.151971 0.291904 0.314214 0.725112 0.090905 -0.157658 0.522375 -0.091856 -0.074308 0.504496 0.210218 -0.228730 0.173150 -0.626035 0.628098 0.103367 0.288731 -0.329066 0.209673 0.207383 0.035220 -0.198545 0.016068 -0.201856 0.643615 -0.094643 0.290549 -0.566237 0.034899 0.121745 0.157888 0.416812 -0.070828 -0.413433 0.613340 -0.264370 -0.049870 0.783976 0.136517 -0.083232 0.014785 -0.557625 0.026128 0.310555 0.007002 -0.021419 0.449544 -0.512445 -0.187646 -0.157526 0.129244 0.048057 0.077883 -0.111578 -0.554538 0.622929 0.132801 -0.137286 0.032616 -0.221613 -0.013245 0.444034 0.353257 0.150927 0.553776 -0.383577 -0.122162 0.282821 -0.154699 -0.813920 -0.103398 -0.333772 0.516244 0.615348 -0.761818 0.248411 -0.071324 0.841027 0.221960 0.340213 -0.277468 0.189090 0.188003 0.147119 0.160913 0.319922 -0.057216 0.547157 0.211183 0.212804 0.227759 -0.142575 1.036868 0.186334 -0.707413 -0.060440 0.028204
326-0 0.089923 0.103099 0.467438 0.269109 -0.289988 0.150547 0.105993 0.434547 0.973463 -0.354657 -0.393770 -0.155786 -0.765894 -0.240324 -0.117924 -0.344277 0.853803 0.676823 -0.040039 -0.481820 -0.217345 0.565641 0.259299 -0.347959 -0.615580 -0.230271 -0.111208 -0.093709 -0.300196 0.268377 0.048962 0.086670 0.193982 0.195965 -0.301770 0.448598 0.587327 0.385819 -0.511152 -0.125749 0.456412 0.017799 -0.236143 0.215044 0.287859 0.076591 -0.075070 0.223721 -0.563600 -0.102606 -0.499580 0.192775 -0.203994 -0.131711 0.119862 -0.972837 -0.266068 -0.158857 0.578167 0.215534 0.126111 -0.008773 0.120655 0.185472 -0.466864 -0.011316 0.028889 -0.583281 0.211540 -0.152407 0.373515 0.095344 -0.521877 0.038330 0.120475 0.390546 0.016729 -0.114832 -0.532342 0.620234 -0.182228 0.033157 -0.557151 -1.063207 -0.002237 -0.086733 0.006479 0.159937 -0.395860 0.360336 0.536052 0.485896 -0.136004 -0.071451 0.028256 0.000890 -0.369814 -0.686592 -0.281818 -0.122198 -0.316709 0.800823 -0.338278 -0.124208 -0.394507 -0.093679 -0.082393 0.071215 0.061898 0.330639 -0.211659 0.154260 0.765367 -0.135392 -0.059264 0.030094 0.668814 0.306512 0.835951 -0.624166 -0.303559 0.288313 -1.013974 0.445944 0.863150 0.148713 -0.576780 0.028276
