3313 128
390 0.000352 0.004340 -0.151550 0.021146 0.220942 -0.067704 -0.382946 -0.065799 -0.431884 -0.049256 -0.082056 -0.495873 0.177947 0.081097 0.028418 0.345496 -0.165460 -0.006873 -0.012179 -0.041942 0.116762 -0.075413 -0.266184 -0.048206 -0.176380 0.042434 -0.033107 -0.114325 -0.417343 0.223624 -0.124023 0.335834 -0.223257 0.325339 0.126962 -0.278243 0.073465 0.158164 0.045508 0.122255 0.011267 -0.022159 -0.059472 -0.038844 -0.118579 -0.083244 -0.233863 0.035881 -0.092923 0.038320 -0.097908 -0.058442 -0.225987 0.021363 -0.040081 0.043502 0.326731 -0.011037 -0.257973 -0.090175 -0.006802 0.016832 -0.193953 -0.099196 -0.016951 -0.133293 0.131139 0.256381 -0.134601 -0.086385 0.201808 0.124444 -0.182288 0.060919 -0.139500 -0.083847 0.259017 0.119202 -0.030252 -0.022617 0.095535 0.101200 0.068721 0.086026 -0.314791 -0.374456 -0.268178 -0.106530 0.271189 0.026728 -0.027347 0.123427 0.097859 -0.115527 -0.026989 0.245489 0.158982 -0.214070 0.382732 -0.203161 0.115054 0.024722 -0.247918 0.271867 -0.053357 0.035567 -0.055530 -0.117660 -0.024331 -0.173182 0.137767 -0.210597 -0.178561 -0.194400 -0.058107 -0.180959 -0.180931 0.072705 -0.179935 0.029884 0.206681 0.145702 -0.161619 -0.148809 -0.029823 0.020357 -0.027605 -0.020288
847 0.348506 -0.315223 -0.015184 0.113124 -0.009412 -0.045344 -0.083896 0.125145 0.103425 -0.211340 -0.012721 -0.388942 -0.133021 0.709737 -0.356192 0.471794 -0.071396 0.023660 -0.438083 -0.070213 0.039515 0.220703 0.264181 0.149543 0.183007 -0.099105 0.112628 0.149463 -0.156416 -0.138795 0.295386 -0.107685 -0.250555 0.063937 0.289106 -0.207712 -0.146201 0.368386 0.018403 -0.251647 -0.063592 -0.311122 0.308840 -0.173467 0.108395 0.047789 -0.201214 -0.153970 0.073798 0.186021 -0.126935 -0.285617 0.406221 0.106964 0.113682 0.002310 0.383555 -0.050942 0.187550 0.272441 -0.208555 -0.108753 -0.441114 0.158360 0.067289 0.121555 0.189211 -0.233471 -0.151222 -0.073413 -0.142211 -0.305747 0.205797 0.012557 0.074097 -0.081002 0.120232 -0.270459 -0.321104 -0.101149 0.176761 -0.152426 0.048773 0.335994 -0.214078 -0.013867 0.014673 -0.041410 0.029431 0.180204 -0.135067 -0.193060 -0.118455 0.156452 -0.315102 0.118740 0.149306 0.266071 0.044714 0.512182 0.074146 -0.088888 0.180668 0.004305 0.086574 -0.390558 0.037030 -0.334638 0.014314 -0.130445 -0.043062 0.022554 -0.055087 0.508950 0.128932 -0.263480 -0.032724 -0.001276 0.190954 -0.066914 -0.157727 -0.254458 -0.025878 0.218450 0.035412 -0.229104 0.346156 -0.025212
439 -0.249786 -0.049650 -0.238580 -0.221145 0.102653 0.116127 -0.311131 0.074276 -0.386202 0.149853 -0.141511 -0.399455 0.128564 -0.227237 -0.113158 0.406523 -0.017749 -0.085203 -0.318372 -0.118252 0.069939 -0.296277 -0.401654 -0.234204 0.291098 -0.022243 -0.095532 0.049479 -0.178036 0.230201 -0.127273 0.286204 -0.230219 0.501777 0.407259 -0.436834 0.139993 0.144871 -0.185324 0.143518 0.002748 -0.313861 -0.129351 0.111971 -0.044658 -0.034445 -0.219762 0.076480 -0.145343 -0.033386 -0.232567 -0.096377 -0.215955 -0.020910 0.165528 0.004501 0.105627 -0.072622 -0.316750 -0.065743 -0.060289 0.099719 -0.276409 0.117515 -0.159729 0.029050 0.030706 0.261755 -0.068682 -0.214688 0.204744 0.003882 -0.183279 -0.162236 -0.024622 0.081400 0.333586 -0.170832 0.248453 0.092472 0.105287 0.180504 0.269936 0.183659 -0.222970 -0.351394 -0.310384 0.039739 0.380723 0.054188 -0.215319 -0.038070 0.315477 0.051013 -0.068371 0.308321 0.129878 -0.089252 0.223099 -0.255601 -0.231633 -0.110206 -0.334674 0.141033 -0.107279 0.322153 -0.075461 -0.193223 0.136759 -0.086073 0.070649 -0.154948 0.039406 0.138739 -0.187240 -0.028460 -0.065747 0.174098 0.084792 -0.129059 0.092282 0.191437 -0.109102 -0.128339 -0.003044 0.043911 -0.055380 -0.183288
364 -0.144675 -0.032715 -0.108717 -0.086299 0.150136 0.144505 -0.283249 0.106706 -0.398305 0.125377 -0.093292 -0.384821 0.290611 -0.030408 -0.226072 0.314442 -0.102859 0.072585 -0.292040 -0.113280 0.079818 -0.302238 -0.415403 -0.130053 0.164691 -0.252527 -0.017314 -0.181990 -0.320578 0.105176 -0.106632 0.166771 -0.299662 0.462590 0.270825 -0.193990 0.177104 0.316984 -0.031094 0.034126 0.069278 -0.141291 -0.054195 0.039077 0.025973 -0.089401 -0.317890 0.030531 -0.133553 -0.240339 -0.163968 -0.124308 0.001549 0.079082 0.084362 -0.046237 -0.009316 0.123775 -0.439992 0.025483 -0.004523 -0.138802 -0.234291 0.035490 -0.124764 -0.080376 -0.068326 0.222417 -0.100509 -0.323043 0.141220 -0.015577 -0.101872 -0.140631 -0.188462 -0.015723 0.126917 0.099818 0.146790 0.233229 0.230776 0.189832 0.098000 0.249084 -0.190698 -0.323402 -0.300261 0.116111 0.343357 0.042953 -0.123073 0.060958 0.094826 -0.042358 0.080772 0.250373 -0.010775 -0.248397 0.433024 -0.324230 -0.093068 -0.118927 -0.213606 0.316889 -0.108377 0.159808 -0.175136 -0.095722 0.142216 0.008738 0.002398 -0.129948 -0.030537 0.045554 -0.080230 0.127333 -0.085635 0.249320 -0.122621 -0.150742 0.187649 0.223231 -0.076620 -0.154388 -0.171562 0.101909 0.096217 -0.144942
471 -0.417214 0.026621 0.220036 -0.334884 -0.052761 -0.137515 -0.268537 -0.054684 -0.081138 -0.101494 0.150508 -0.270575 0.032079 0.072504 0.280933 0.251948 0.181078 0.134766 -0.163538 -0.070213 0.209585 -0.396351 -0.133892 0.312404 -0.062205 0.255000 0.207762 0.193757 -0.240448 -0.165116 -0.119569 -0.302507 -0.112249 0.001101 0.074625 -0.106789 0.284091 0.474554 0.168755 0.279815 0.160335 0.249983 -0.152158 -0.100005 0.038796 0.065325 -0.105572 0.253930 -0.045461 -0.043630 -0.046078 0.193789 -0.099595 0.239407 0.198784 -0.087895 -0.078564 0.186358 -0.139954 0.307609 0.480809 0.058162 -0.138418 0.010684 0.104889 0.035498 0.012849 -0.215294 0.116247 -0.070155 0.412121 0.131642 0.115464 0.138291 -0.041611 -0.050825 0.153600 0.155312 0.103535 0.423801 0.362082 0.101789 0.051542 0.086107 -0.359020 0.153082 -0.301693 0.210371 -0.348494 0.122466 -0.030494 0.315222 0.208349 -0.329910 -0.066288 0.100536 -0.092715 0.079493 0.058728 0.094776 -0.069718 0.108463 0.024724 0.147622 0.171362 0.273351 -0.128801 -0.284787 -0.499100 -0.312018 -0.024539 0.377090 0.042843 -0.192461 -0.304762 -0.074402 -0.002258 0.232086 0.127893 0.017274 0.079089 0.096948 -0.180620 0.065218 0.078551 0.000617 0.039691 0.088063
643 0.123417 0.088134 0.000217 0.267446 -0.235621 0.096989 -0.129760 -0.041037 -0.358293 0.079114 -0.191983 -0.069210 -0.370813 0.527656 -0.058660 0.088449 0.007473 -0.285499 0.109481 -0.325277 0.407079 -0.108982 -0.290252 0.081928 -0.001775 0.399097 0.260706 0.247871 0.194772 -0.125930 0.243239 0.151040 -0.387869 0.010385 0.264786 -0.281216 -0.260134 -0.259880 0.380708 0.188698 -0.267342 -0.103668 0.234284 -0.121661 0.165220 0.402422 -0.319121 0.356373 -0.041498 0.254474 -0.045047 -0.230206 0.275294 -0.236431 0.177115 -0.296894 0.171419 0.000669 0.382028 0.384962 -0.321133 -0.023207 -0.123397 -0.154990 -0.639983 -0.118488 0.091008 -0.235594 -0.137126 -0.100398 -0.450768 0.100293 0.408584 -0.034468 0.215484 -0.178757 0.359742 -0.165095 -0.185820 0.001403 0.459957 -0.107018 -0.086107 0.380708 -0.414863 -0.143766 -0.121481 -0.086431 -0.178881 -0.021555 0.145419 -0.305410 -0.106398 0.108758 -0.257531 0.219501 0.092752 -0.035931 0.080926 0.441117 -0.214346 -0.177418 0.144106 -0.081386 0.286471 0.320996 -0.283989 0.280822 -0.072384 -0.065708 0.318924 0.327880 0.014468 0.073389 -0.241669 0.413547 0.147826 0.345414 -0.397813 -0.101763 -0.004209 0.015994 -0.093427 0.364220 0.022562 -0.173099 0.012939 0.045515
661 0.190291 -0.305652 -0.077178 0.042307 0.134002 0.195991 0.010930 0.123902 -0.195954 -0.227860 -0.389728 0.069926 -0.469693 0.798049 -0.534602 -0.045850 -0.267631 -0.059197 -0.028262 -0.038102 0.737747 0.064382 0.105973 -0.199912 -0.069422 -0.100425 0.119263 0.374334 -0.091089 -0.339827 0.051246 0.215841 -0.671336 -0.183636 0.021865 -0.385785 0.009351 -0.093915 0.240297 0.195027 -0.287520 -0.045236 0.188889 -0.224220 0.606753 0.398987 -0.419202 -0.047099 0.026052 -0.114332 0.095964 0.254783 0.087790 -0.000253 0.573785 -0.054079 -0.334887 0.296394 -0.104159 0.369973 -0.049601 -0.211710 -0.279068 -0.343763 -0.221970 -0.183570 0.100724 0.324319 0.173401 0.090357 -0.524904 0.031614 0.060271 -0.304345 -0.307867 -0.378275 0.667374 -0.377732 0.169656 0.030978 0.271579 -0.016349 0.037149 0.103519 -0.199612 -0.212525 -0.190011 -0.168875 0.097100 0.097045 -0.028981 -0.076686 -0.034191 -0.018049 -0.054686 0.222138 0.410542 -0.453892 -0.268753 0.207176 0.128917 -0.102398 0.288108 0.045463 0.107619 0.308796 -0.089938 0.341536 -0.122324 -0.052592 0.345913 0.548899 -0.260884 0.609395 -0.237951 0.274161 -0.058662 -0.012360 0.038033 0.082395 0.016532 -0.538087 -0.150483 -0.135225 0.082051 -0.279747 -0.023326 -0.060633
1918 0.212041 0.063764 -0.306217 -0.301585 0.134331 -0.243410 0.230988 0.021386 -0.023895 -0.430559 -0.011712 -0.141624 0.040402 0.022338 -0.339348 -0.123481 0.186535 0.145000 -0.358147 -0.207982 0.163965 -0.074626 -0.177802 -0.076667 -0.278636 0.441488 0.007790 0.620660 -0.495198 -0.066580 -0.095445 0.758125 0.321672 -0.419641 -0.023134 -0.085305 -0.305993 0.306876 -0.132750 -0.373657 -0.160247 -0.290551 -0.442656 -0.335089 0.331180 0.127004 0.225912 0.402489 0.098287 -0.521956 -0.268653 -0.309725 -0.626034 0.123619 0.147239 -0.387300 -0.653076 -0.148610 -0.170554 0.204834 -0.527162 0.057146 0.366772 0.447651 0.000583 -0.048659 -0.128965 0.105347 -0.189380 -0.078764 0.225427 0.092150 0.320584 0.021707 0.077919 -0.009658 -0.064963 -0.059965 -0.180438 0.227970 0.324210 0.238600 -0.357112 -0.211132 0.177998 -0.024226 -0.360659 -0.081653 0.408645 0.607687 0.295645 0.405209 0.113886 -0.621924 -0.508015 0.274126 -0.258410 0.626829 0.017980 -0.066058 -0.152789 0.618715 0.476841 -0.035485 0.347916 -0.041774 0.072647 -0.044724 0.267759 -0.344314 -0.464564 0.183573 -0.227089 0.078703 -0.301712 0.486582 0.140274 -0.376953 -0.219505 -0.091837 0.586916 -0.112202 0.151047 -0.028848 0.039447 -0.069707 0.348926 0.487557
699 -0.238420 -0.039355 -0.150659 0.018070 0.214764 -0.113615 -0.430583 0.138727 -0.224882 0.183336 -0.281241 -0.302303 0.105986 0.088491 -0.089771 0.362760 -0.202939 -0.118160 -0.122665 -0.058118 0.271969 -0.080121 -0.156579 -0.148530 -0.037631 0.114102 -0.104598 0.088212 -0.497982 0.211181 -0.191924 0.174290 -0.229269 0.299075 0.180324 -0.325808 -0.250393 0.099444 -0.056222 0.188939 0.062386 -0.119958 0.171275 0.117210 0.031291 -0.016344 -0.222658 0.482944 -0.122976 0.075298 -0.106386 -0.088319 -0.199996 0.175477 0.170831 -0.014826 -0.157301 -0.117304 -0.312376 -0.100301 0.151550 0.103597 -0.210440 0.019701 -0.146763 0.216140 0.261848 0.086733 -0.295359 0.408321 0.380100 0.070314 -0.115544 0.020112 -0.046160 -0.034057 0.112663 0.225726 0.050673 -0.003450 -0.014302 0.287665 -0.092881 0.069424 -0.289279 -0.284220 -0.003722 0.330715 0.201330 0.110407 -0.147101 0.180671 0.186989 0.016804 0.268470 0.217974 -0.102929 -0.182753 0.160863 -0.237660 0.169038 -0.052533 -0.266998 0.253883 -0.120419 0.044822 -0.011748 -0.133688 -0.139387 -0.038251 0.093663 -0.183455 -0.409887 -0.088640 -0.400034 -0.087038 -0.071087 0.015995 -0.297904 0.074755 0.281105 0.223725 -0.045120 0.120074 -0.008949 -0.357686 -0.026540 -0.360894
291 0.139563 0.230681 -0.206703 -0.049402 0.082412 0.332916 -0.492849 0.073869 -0.232635 0.045435 -0.305778 -0.144165 0.196214 -0.060299 0.236844 0.232664 -0.254816 0.114243 -0.482605 -0.283268 0.081921 -0.045661 -0.525052 -0.084919 0.184787 -0.098270 -0.072669 -0.202948 -0.231087 0.173598 -0.211046 0.145363 -0.292139 0.153492 -0.050432 -0.147175 0.195564 0.415980 0.105983 0.182336 0.112945 -0.120943 -0.134840 0.057315 -0.145929 0.091884 -0.362914 -0.021398 -0.188279 -0.341504 -0.020429 -0.093487 -0.019646 0.280866 0.114731 0.224798 0.247962 0.058418 -0.164675 -0.013245 0.103976 0.419494 -0.053795 -0.090948 -0.015611 0.113662 -0.078305 0.097225 -0.024541 0.116706 0.150223 -0.008170 0.058068 0.086238 -0.083204 -0.060125 0.149304 0.062234 0.150535 -0.144797 0.075524 -0.224713 0.096617 0.338528 -0.098137 -0.238692 -0.185371 -0.115629 0.228388 0.148193 0.400137 0.339753 0.191277 0.041938 0.028705 0.312183 0.119672 -0.031848 0.314249 -0.392407 0.111582 -0.317370 -0.062051 0.166831 -0.009022 0.280619 -0.293080 -0.028317 -0.099950 -0.086524 -0.216566 0.011138 -0.265267 -0.163758 -0.010444 0.048332 -0.160749 0.015396 -0.249885 -0.205016 0.126246 -0.100148 -0.211268 0.024109 0.074238 0.097703 0.007266 0.013360
697 -0.150044 -0.080847 -0.013890 -0.006045 -0.004129 -0.149064 -0.198167 0.088980 -0.086864 0.057915 -0.147950 -0.306628 0.130658 -0.061054 0.118309 0.176616 -0.282688 0.078898 -0.193174 0.092243 -0.095009 -0.264749 -0.266368 0.107816 0.156793 0.205656 0.043690 -0.152352 -0.373185 0.249555 -0.160041 -0.138949 -0.210841 0.334804 0.056155 -0.157394 -0.064905 0.247445 -0.095535 0.122359 -0.043433 0.107803 0.008008 -0.053689 -0.296276 -0.059950 -0.194838 0.397680 0.025444 -0.199495 -0.091851 0.005584 -0.108485 -0.013836 0.262539 0.005015 -0.051429 0.033285 -0.401612 0.089509 0.177364 0.173949 -0.110891 0.167762 -0.000130 0.274924 0.081895 -0.120198 -0.128717 -0.122857 0.178391 0.193079 0.043850 -0.137119 -0.158597 0.022442 0.320167 0.096189 0.164415 0.053361 0.332139 0.128894 -0.085313 0.032944 -0.193309 -0.469646 -0.177279 0.235945 0.297333 0.145622 -0.027721 0.246348 0.213445 0.100534 0.062241 0.301546 -0.096091 -0.116571 0.068280 -0.033749 0.225129 0.053437 -0.050618 0.043548 -0.156470 0.085011 -0.157933 0.035562 -0.340778 0.073358 0.235484 0.014588 -0.296191 0.011810 -0.383459 -0.225446 -0.251779 0.237917 -0.201190 0.140682 0.206566 0.307296 -0.028308 0.104109 0.058850 -0.268370 -0.203407 -0.283781
488 0.247876 -0.366970 0.016434 0.099704 -0.047028 -0.351459 0.109531 0.016856 -0.432894 0.108472 -0.194491 0.093880 -0.104118 0.442212 0.060441 -0.010859 -0.325513 -0.369979 -0.208548 -0.706931 0.266551 -0.476424 -0.243891 0.299072 -0.353490 -0.169046 0.019893 0.280610 0.033563 -0.029102 -0.280712 -0.044720 0.624808 -0.228557 0.385616 -0.566361 -0.449734 0.031141 -0.258076 0.135758 -0.456833 0.189691 0.407069 -0.580294 0.019523 0.000340 -0.333678 0.386907 -0.089163 0.664177 -0.178614 -0.248982 0.301496 -0.000779 -0.150748 -0.387387 -0.135969 0.042358 0.437230 -0.049639 -0.088643 0.093357 -0.092842 0.230120 0.294417 -0.145180 0.264362 0.088209 0.002241 -0.547640 -0.252182 -0.410024 0.224382 -0.160777 0.117431 -0.126660 0.391751 -0.298535 -0.115960 0.186006 0.082808 -0.100278 -0.143070 0.442518 -0.590668 -0.175143 -0.216150 0.244996 -0.377151 -0.086736 0.799125 -0.278152 -0.105574 0.737105 0.263717 0.493011 0.258127 0.204590 0.196143 -0.316631 -0.076640 0.173683 0.087835 -0.021509 0.598412 0.100401 -0.734612 -0.139444 -0.267976 -0.200116 0.200040 -0.069937 0.361532 -0.054213 -0.030988 0.148559 -0.039748 0.165304 -0.048409 -0.133210 -0.196833 0.182180 0.073758 0.420797 -0.523230 -0.302814 0.352313 -0.084204
2049 0.538611 0.132501 -0.522333 -0.378725 0.216221 -0.524775 0.326703 0.044334 -0.347773 -0.215701 0.083223 0.147977 -0.406424 -0.031730 -0.636459 0.082045 -0.029309 0.036933 -0.365344 0.167769 -0.061868 0.194419 0.072930 0.328466 -0.019922 0.231357 0.013550 0.211231 -0.240488 0.112492 -0.322904 0.238663 0.273116 -0.249556 -0.170075 -0.472293 -0.202912 0.393651 0.309790 -0.350765 -0.094384 0.023890 -0.119052 -0.373804 0.129684 -0.269616 0.072658 0.395028 -0.056797 -0.589772 0.157636 -0.128614 0.023330 0.363120 -0.531772 -0.254095 -0.110656 -0.261929 -0.127277 -0.199289 -0.339197 -0.039301 0.198843 0.042879 -0.164653 0.265882 -0.177353 -0.141653 0.163248 -0.329968 0.289278 0.061751 0.208042 -0.280728 -0.036217 -0.609501 -0.153103 0.068201 0.107106 0.191472 0.518534 -0.281203 -0.346349 0.512457 -0.086997 0.337717 -0.054800 -0.018420 0.185665 0.309176 -0.062637 0.424483 -0.003399 -0.203696 0.122902 0.484045 -0.333436 0.212097 -0.433185 -0.110489 -0.329320 0.041663 -0.156178 0.109857 0.909583 -0.518414 -0.066600 -0.245951 0.330378 0.654490 0.049461 -0.102691 -0.119401 -0.393717 -0.667518 0.051118 0.281980 0.137266 -0.033736 -0.238628 -0.061669 -0.296831 0.092107 -0.083367 0.091624 0.226680 0.367708 0.053707
905 0.133483 -0.105377 -0.099759 -0.162811 -0.361234 -0.141787 -0.023713 -0.021130 0.257248 0.218811 -0.127453 -0.297882 0.181385 -0.201076 0.321919 0.132894 -0.322443 0.096570 0.045688 0.109481 -0.153644 -0.280729 -0.108563 0.420742 0.007092 0.036572 -0.015445 -0.016833 -0.541722 -0.204977 -0.077988 -0.440374 -0.155213 -0.239208 0.017024 0.154663 0.255095 0.270147 0.117140 0.059922 0.003543 0.125312 -0.048244 0.046899 -0.051807 0.028916 -0.084209 0.090087 -0.019169 0.012058 0.042447 -0.028976 -0.194713 0.214519 0.376728 0.137958 -0.000235 0.297356 -0.000402 0.137421 0.327993 0.364032 0.142653 -0.108221 -0.235609 0.087240 -0.124541 -0.029040 0.139675 -0.221711 0.116865 0.294806 -0.074526 0.074006 -0.176626 -0.011942 0.359690 0.061515 0.347484 -0.016986 0.323263 -0.227418 0.139591 -0.007676 -0.209200 -0.287421 -0.591747 0.230194 0.250482 -0.070363 -0.000875 0.264456 0.014416 0.302118 -0.200194 0.174545 0.009133 0.224662 -0.079701 -0.109120 0.078043 -0.244734 0.360794 0.034273 0.555719 -0.008086 0.055835 -0.096920 -0.012852 -0.199213 0.112455 0.144430 -0.452677 0.116702 -0.126373 0.017320 -0.008004 0.248413 -0.230438 0.517015 -0.050006 0.366747 -0.033924 -0.127955 -0.298825 -0.180917 0.075396 -0.074329
1406 0.124167 -0.348268 -0.428336 -0.050900 0.347144 0.550892 -0.297751 -0.103225 -0.032905 0.067963 -0.303578 -1.032597 -0.085873 0.415397 -0.454866 -0.247570 -0.296802 -0.250434 -0.035355 0.365305 0.023363 0.112639 -0.199674 -0.070249 0.164388 -0.171766 0.140431 0.289124 -0.430089 -0.206475 0.166543 0.058063 -0.441043 -0.166609 0.394339 0.102650 0.594108 0.125703 -0.044979 0.165649 -0.505895 0.089382 -0.377022 -0.855304 0.009747 -0.361177 0.363406 -0.049002 -0.125635 -0.060315 -0.347498 0.247630 0.186190 -0.241787 -0.057377 -0.440610 0.089975 -0.094502 0.683145 -0.723509 0.132603 -0.109531 -0.270405 0.204129 -0.241147 0.138900 -0.255238 -0.248283 -0.252464 -0.348831 0.297382 -0.332263 -0.542738 -0.013224 0.234114 -0.294196 -0.016897 0.332982 -0.103005 -0.370798 -0.125467 -0.117428 0.223376 -0.067699 0.287356 0.055596 -0.452504 -0.013362 -0.111599 0.079989 0.105723 -0.113167 0.396379 0.159274 0.334964 0.296241 -0.433425 0.047307 -0.182112 0.384754 0.013314 -0.170458 0.640890 0.271757 0.247523 0.390756 -0.618566 0.026106 -0.060359 0.276116 -0.440326 0.316846 -0.236502 -0.008089 0.237528 -0.223826 -0.082484 0.121462 -0.038163 -0.222410 -0.212175 0.742955 0.057442 0.111832 0.095311 0.049785 0.350156 0.021321
986 0.394282 -0.319095 -0.201259 -0.393564 -0.217990 -0.379484 0.092992 -0.193372 0.080038 -0.045730 -0.182953 -0.284574 -0.334758 0.328980 -0.321838 0.137039 -0.422385 -0.131321 -0.082253 0.225309 0.039702 0.138528 -0.427850 0.381187 -0.296244 -0.348831 0.023721 -0.667390 -0.091697 -0.071892 0.362134 -0.009891 0.064858 0.290820 0.918235 0.096531 -0.145327 0.226570 -0.175394 -0.012071 0.031843 0.005671 -0.239708 -0.125716 0.106023 -0.091198 0.316239 -0.073068 -0.215656 0.177767 -0.047624 -0.224868 -0.168155 -0.281402 0.303363 -0.238573 0.017519 0.018254 -0.056867 0.095067 0.078577 0.078506 -0.678303 0.360146 -0.069493 -0.075251 -0.111840 -0.045474 -0.210363 0.190385 -0.307850 -0.079676 -0.003026 0.029365 -0.032435 -0.478024 -0.053438 -0.686025 -0.183108 -0.126274 0.125665 -0.164178 -0.151583 0.057441 -0.573000 -0.132374 0.011728 -0.632081 -0.285210 -0.012239 0.143014 0.272757 0.123457 0.114742 0.359348 0.009242 0.069907 -0.067643 0.082364 0.276943 -0.144669 -0.115926 0.280770 0.039029 -0.094165 0.047134 0.293069 0.167915 -0.020406 -0.488464 -0.120157 0.293503 0.319712 0.068271 -0.345626 -0.024498 0.005509 0.264995 0.101796 -0.194570 -0.144521 -0.419771 0.469255 0.019777 -0.020516 -0.425901 0.534769 -0.093118
631 0.047156 -0.298885 -0.374347 0.015821 -0.002298 -0.101183 0.117706 -0.241318 0.046708 -0.120107 -0.258255 -0.184183 -0.398285 0.304214 -0.383945 0.242190 -0.261729 0.006228 -0.528017 0.007523 -0.066653 0.410112 -0.315415 0.423067 -0.058230 0.032285 0.034062 -0.330594 -0.080248 0.314359 0.054097 -0.275645 0.100236 0.133683 0.804813 -0.087837 0.014518 -0.084140 0.047732 -0.094280 -0.103580 0.010566 -0.191029 -0.126596 0.472054 -0.263444 0.246272 -0.259494 -0.300917 0.152940 0.181939 -0.419099 0.192031 -0.225084 0.511250 -0.204866 -0.000587 -0.139598 -0.050713 0.094143 0.246057 0.117825 -0.350022 0.325392 -0.045298 0.268583 -0.008602 0.182397 -0.209481 0.025481 -0.283056 0.129414 -0.005886 -0.216774 -0.296967 -0.466547 0.223181 -0.417241 -0.170218 -0.181150 0.488584 -0.194199 -0.001162 0.303588 -0.343545 -0.316807 0.150480 -0.202239 -0.071951 -0.122330 -0.229543 -0.088872 -0.085426 -0.123102 0.394607 -0.005759 0.140906 0.228128 0.230579 0.154173 -0.233809 0.238764 0.312696 -0.147432 0.026972 -0.180981 0.331262 0.134789 -0.249711 -0.240908 -0.243502 0.271862 0.066848 -0.034747 -0.045211 0.069136 -0.161876 0.118768 0.252520 -0.221414 0.332198 -0.329667 0.197976 0.127154 -0.062154 -0.331764 0.612333 -0.008126
822 0.252942 -0.348592 -0.398087 -0.102972 0.007548 -0.238154 -0.109895 -0.471921 -0.187444 0.030118 -0.180413 0.271657 -0.401727 0.296769 -0.966230 0.685451 -0.119571 -0.028283 -0.330623 -0.493891 -0.058535 -0.179647 -0.180561 0.102591 0.242380 -0.178474 -0.007600 0.452892 -0.264414 0.104797 0.124738 -0.227047 -0.268429 0.527543 0.336342 0.355435 -0.081611 -0.083815 -0.259429 0.265554 0.177921 0.066459 -0.476660 0.183412 -0.099384 0.203635 0.042061 -0.233659 0.385667 0.257330 -0.120872 0.113596 0.515755 0.085504 0.138655 -0.157165 0.224773 -0.168647 -0.338410 -0.014949 0.269724 -0.404840 0.262849 0.125865 0.033716 0.048624 0.065942 -0.347617 -0.260938 0.167021 -0.087217 -0.119611 0.457263 -0.354646 -0.156011 -0.048030 0.523267 0.169616 -0.265706 -0.054505 0.021906 -0.459218 0.332235 0.255037 -0.113199 0.217952 -0.345909 -0.159634 -0.381801 -0.297985 0.194780 0.102878 0.026202 0.318454 -0.209383 0.070094 0.013963 0.649950 0.040835 0.071426 0.247062 0.338663 0.249196 -0.319459 -0.325612 -0.459388 0.114821 -0.215806 -0.139975 -0.357998 -0.120730 0.182775 -0.288628 -0.202766 -0.385520 -0.007126 -0.327550 -0.096935 -0.093223 -0.014846 -0.317272 -0.094661 0.048856 -0.054648 0.035277 -0.046890 0.348912 -0.143245
659 0.045782 -0.421933 -0.419718 -0.272522 0.148995 -0.011327 0.197438 -0.307089 0.044718 -0.020639 -0.376246 -0.051604 -0.499087 0.469308 -0.456678 0.095493 -0.328985 -0.031586 -0.289000 0.187090 -0.062447 0.239205 -0.174867 0.174474 -0.048156 -0.068957 0.165802 -0.211159 -0.058326 0.327075 0.111327 -0.102903 -0.086849 0.196470 0.784539 0.109733 0.027369 0.326319 0.207646 0.281403 -0.115490 0.017329 -0.178981 0.018913 0.338345 -0.248054 0.210140 -0.228187 -0.048928 0.029639 0.319490 -0.494431 -0.035468 -0.056732 0.472400 -0.081354 -0.134223 -0.004996 -0.288008 0.077814 0.011667 0.056106 -0.440637 0.414868 -0.124847 0.333948 0.127053 0.001544 -0.041253 0.050494 -0.438285 -0.045844 0.190931 0.037318 0.087973 -0.489097 0.238522 -0.720530 -0.195636 -0.155654 0.227339 -0.144496 0.214606 0.178348 -0.394746 -0.295898 -0.036270 -0.398153 -0.189088 -0.112200 -0.054725 -0.076210 0.012831 0.208796 0.423117 0.211101 -0.144616 -0.018059 0.131046 0.357810 -0.100234 0.104780 0.233827 -0.124569 0.041824 -0.283395 0.178179 0.004213 -0.080383 -0.154631 0.059696 0.333285 -0.035002 0.105408 -0.013791 0.138545 -0.005952 -0.006776 0.137151 -0.215362 0.154771 -0.298122 0.335791 0.054556 0.056889 -0.405718 0.539294 -0.110785
732 -0.389158 0.111005 0.096161 -0.023124 0.113718 -0.018269 -0.350030 0.212922 -0.004598 0.244755 0.115682 -0.674424 -0.179060 0.127851 -0.033035 -0.243594 -0.060421 0.078205 0.064452 -0.104168 0.261902 -0.103388 -0.043830 0.272279 -0.058431 -0.005938 0.086641 0.192366 -0.349518 -0.323972 -0.143583 -0.265407 -0.005732 0.167464 0.071057 0.404081 0.033494 0.110805 0.095982 0.298049 0.304404 0.129457 -0.070117 -0.172713 -0.112821 0.183643 0.145169 0.081662 -0.447877 -0.062556 0.070432 0.005127 -0.101483 0.378474 0.356996 0.032050 0.006814 0.090691 0.057853 0.110732 0.014244 0.135115 0.034122 0.193346 -0.129906 -0.174822 -0.177547 -0.009492 0.112157 -0.316011 0.194400 0.327663 0.026163 0.137207 -0.179243 0.138192 0.169308 -0.010112 0.322361 -0.025342 0.120192 -0.102116 -0.012307 0.224195 0.163339 0.016410 -0.162256 0.255382 -0.155560 0.037498 -0.020125 0.270975 0.095781 0.332578 -0.190679 0.247233 -0.236545 0.475553 0.008069 -0.231239 0.321790 0.060742 0.341334 0.000423 0.721888 0.311776 0.274544 -0.060091 -0.585322 -0.302210 -0.009406 0.538088 0.098511 -0.103116 -0.106615 -0.231745 -0.115110 0.149635 -0.018640 0.262399 -0.031320 0.073542 -0.261384 -0.038258 -0.498222 -0.231978 0.099034 0.114073
2955 0.002174 -0.169585 0.514336 0.851461 0.608952 -0.184372 0.136216 0.043691 -0.100362 0.502064 -0.411633 -0.350236 0.361746 0.364327 -0.935124 0.490252 -0.030817 0.500098 0.209392 0.060993 0.558006 -0.195502 -0.161641 1.020212 -0.275900 0.359496 0.037893 0.247329 0.156992 0.206857 -0.112091 0.133640 0.370792 0.205541 0.488831 -0.093134 0.766587 0.935513 -0.968853 0.170451 -0.319338 -0.306449 0.235643 -0.020763 0.128456 -0.032055 0.186869 0.319259 -0.187324 0.289949 0.004989 -0.771095 -0.101793 -0.255067 -0.190012 0.424778 0.094427 -0.131468 0.726538 -0.630317 0.347688 0.063322 0.054336 -0.019183 -0.248000 -0.106310 0.120707 0.594785 -0.379248 -0.064609 0.601331 0.581961 0.172389 -0.595422 0.164989 0.023398 0.250936 -0.434302 0.330506 -0.097254 0.053976 -0.043033 0.083890 0.236294 -0.120215 -0.197184 -0.120361 -0.004002 0.254669 0.612864 0.127750 0.090945 0.511772 -0.118114 -0.996672 -0.351071 -0.045303 -0.755317 -0.362662 -0.101195 0.146745 0.266574 0.651353 -0.465158 -0.033515 0.202724 -0.055334 0.551837 -0.247127 0.194791 0.442668 -0.021741 -0.468016 -0.195910 -0.116717 0.502205 0.045327 -0.256915 0.111094 0.037313 -0.063033 -0.826807 -0.237826 0.141274 -0.001227 0.326402 -0.057407 -0.001405
1236 0.173460 -0.003428 0.131057 -0.101844 0.064324 0.153541 -0.126877 -0.123804 -0.333391 -0.107868 -0.405899 0.182146 0.310835 0.618555 0.007962 0.278892 0.070354 0.174702 -0.165351 -0.267027 -0.250057 -0.250476 -0.448528 0.100857 -0.717722 0.105233 0.026675 -0.105850 0.175147 -0.157024 -0.339595 -0.220507 0.075769 0.044352 -0.314226 -0.206570 -0.159931 0.311805 0.139110 0.122726 -0.353706 0.391633 -0.087164 -0.354057 0.071693 -0.274516 0.115774 0.027208 0.095784 0.584751 -0.082493 0.223446 0.086628 -0.331472 0.198664 0.157335 0.221215 0.269637 0.137322 -0.222665 -0.085224 -0.532659 -0.176415 0.136442 -0.198936 0.239436 -0.080982 0.049344 0.316409 0.052590 0.021084 0.839633 -0.065642 -0.193994 0.010773 0.168051 -0.088941 -0.026313 -0.167117 -0.660649 0.175835 -0.129408 -0.065877 0.279147 0.080365 0.281663 -0.046629 -0.009483 0.550913 -0.183590 0.267727 0.006264 0.626316 0.095752 -0.631055 -0.166978 -0.136384 0.171530 0.260652 0.045755 0.024658 0.207212 0.406771 0.630091 0.320979 -0.018272 0.109449 0.052479 -0.128428 0.041249 0.270965 -0.013546 -0.145141 0.044609 -0.031656 0.106692 0.427139 -0.563513 -0.046516 -0.218545 0.361416 0.209300 -0.269875 -0.094805 0.572709 -0.341368 0.336676 0.020616
814 0.558762 0.133801 -0.264224 0.109378 -0.320939 0.234763 -0.255349 0.085933 -0.200489 0.011322 -0.017642 -0.429082 -0.279507 0.538514 -0.070610 0.443154 -0.244212 -0.266245 0.034199 -0.207094 0.306321 0.052787 -0.067838 0.240051 0.225744 0.365573 0.180540 0.330510 0.271636 -0.186660 0.388173 -0.295961 -0.091630 0.038302 0.443073 -0.135336 -0.574202 -0.134646 0.312246 0.058131 -0.048213 -0.158910 0.335720 0.096261 -0.059217 0.243152 -0.178399 -0.050067 -0.095311 0.118781 -0.019489 -0.239339 0.412959 -0.438550 0.099936 -0.143002 0.217772 0.007769 0.149121 0.211101 -0.343160 0.086593 -0.275267 -0.158057 -0.694914 0.296264 0.213416 -0.285199 -0.368074 0.104366 -0.188304 -0.083431 0.356219 -0.086279 0.185161 0.093366 0.243154 0.037848 -0.154044 0.297033 0.374304 -0.009866 -0.051559 0.635338 -0.327246 0.008756 -0.169899 -0.014553 -0.179585 0.292646 0.081700 -0.254460 0.326117 0.140006 -0.331430 0.187722 0.013504 0.271382 0.125945 0.648431 0.183118 -0.075021 0.223421 0.039691 0.185299 0.124191 0.056558 -0.235817 -0.036184 -0.124583 0.299589 0.026649 -0.078752 0.396079 -0.027268 0.193593 0.120474 0.294985 -0.192880 -0.333997 -0.286566 -0.144111 -0.066512 0.344135 0.053863 0.014893 0.147625 0.157745
1731 0.284739 -0.475965 -0.600833 0.003068 0.321097 0.552518 -0.249488 0.028053 0.008450 0.342526 -0.222499 -1.066271 -0.124662 0.332711 -0.497518 -0.164954 -0.116114 -0.205601 -0.004274 0.309302 0.005298 0.085597 -0.199256 -0.008176 0.164212 -0.310319 0.197890 0.590368 -0.538172 -0.109353 0.030491 -0.047542 -0.573273 -0.241543 0.325333 -0.218980 0.733416 0.158874 -0.071833 0.112213 -0.333830 0.163879 -0.294286 -0.664278 -0.017156 -0.469797 0.247622 -0.067686 -0.487325 0.074443 -0.353246 0.149361 0.241769 -0.356753 -0.275009 -0.260192 0.009035 0.004111 0.427777 -0.817282 0.190094 -0.275457 -0.195062 0.014431 -0.356379 0.378957 -0.208231 -0.299119 -0.187260 -0.390252 0.288591 -0.291350 -0.591504 0.049326 0.526518 -0.273974 0.064452 0.167308 -0.065981 -0.355558 -0.112845 0.011205 0.129128 -0.003862 0.293695 0.164104 -0.413295 0.050057 -0.239164 -0.021754 0.190964 -0.180368 0.431418 -0.017354 0.366939 0.375060 -0.098465 0.010151 0.005271 0.530164 0.218163 -0.101544 0.658637 0.271393 0.270422 0.214949 -0.537927 0.289979 0.124936 0.241025 -0.686448 0.360170 -0.201263 0.408994 0.233220 -0.153753 -0.129858 0.132042 -0.154857 -0.349873 -0.229204 0.653274 0.309824 0.367758 0.033923 -0.048667 0.149193 0.014295
616 -0.007646 0.154996 -0.192955 0.105615 0.333686 -0.070081 -0.108518 0.245405 -0.193656 0.113175 -0.461548 -0.301730 0.345514 -0.088154 -0.134700 0.355531 -0.379102 -0.162661 -0.202889 -0.024858 -0.229727 0.370190 -0.453200 0.032621 -0.152103 0.041603 0.156231 -0.119490 -0.242576 0.050999 -0.285923 0.094342 -0.163380 0.095391 0.316221 -0.092276 -0.068880 0.316483 0.097469 0.292087 0.003280 -0.323435 0.221258 -0.159936 -0.080018 0.077512 -0.257983 0.414926 0.073775 0.026281 -0.130332 0.011485 0.083027 0.223248 0.018633 -0.170746 0.056693 0.034141 -0.406476 0.051939 0.225406 0.109745 -0.185250 0.121831 -0.038887 0.116521 0.297417 -0.089792 -0.052613 0.277936 0.340438 0.109339 -0.266592 -0.006608 0.019287 0.076279 -0.002751 0.195880 0.161434 0.051587 0.141570 0.106394 -0.128046 -0.108723 0.000692 -0.446469 0.355504 0.094803 0.261030 0.196679 0.099767 0.319902 0.231295 0.172268 0.034452 0.163385 0.105159 0.018675 -0.014285 -0.382086 0.011219 0.121498 0.130754 0.083789 -0.049500 0.327789 0.151456 0.155876 -0.183819 -0.017093 0.282068 0.093820 -0.384201 0.038960 -0.148875 -0.061277 -0.444723 0.271965 -0.527525 -0.112139 0.216874 0.303407 -0.113702 0.184021 0.028544 -0.048785 -0.092743 -0.530498
780 -0.113825 -0.193065 0.169794 -0.386639 0.019697 -0.149136 -0.080538 0.080505 0.244833 0.011364 -0.168804 -0.094690 0.062486 0.012623 -0.151060 0.001920 0.373992 0.011340 -0.038401 -0.417040 0.089396 -0.283428 -0.289532 0.190026 -0.226101 0.272704 0.293623 0.114174 -0.398725 -0.040056 0.039105 -0.232967 -0.172736 -0.221765 0.063275 -0.012347 0.077414 0.381170 0.153904 0.422878 0.322959 0.059613 0.053236 0.013649 0.188402 0.054915 0.048443 -0.024365 -0.263240 -0.164497 -0.112134 0.011968 -0.097666 0.417638 0.381723 -0.166590 -0.146983 0.259113 -0.076501 -0.030818 0.073798 0.045797 -0.107126 -0.017531 -0.103139 0.195964 0.008846 0.236460 0.016505 -0.459143 0.229225 0.222889 -0.071281 0.041541 -0.137664 0.105976 0.031586 0.001101 0.120189 0.126154 0.063119 -0.057144 -0.005396 0.134775 -0.271815 -0.164285 -0.247798 0.247479 -0.272215 0.411192 -0.373272 0.645816 0.211203 -0.173548 -0.135495 0.460259 -0.258508 0.342176 -0.126154 0.074700 0.162673 0.398891 0.048503 -0.128804 0.481096 0.205822 -0.130071 -0.179487 -0.118026 -0.116399 -0.086058 0.527791 0.353405 -0.385819 0.102630 -0.044376 -0.411682 0.262699 -0.062424 0.239856 0.135908 0.154299 0.133700 0.251971 0.220110 -0.071345 -0.080500 0.095735
1101 0.428803 -0.643978 -0.022387 -0.068685 -0.573031 -0.209617 -0.538138 0.232282 -0.635763 -0.549322 0.151221 -0.082567 -0.366152 0.301472 0.228055 -0.109336 -0.065582 -0.108101 0.146584 -0.830002 0.266322 0.173362 0.711064 -0.437751 0.298017 -0.477092 0.381829 0.070311 -0.031377 -0.161061 0.054163 -0.220492 0.030673 0.394027 0.650576 0.078824 0.482606 -0.336356 0.203852 0.035025 0.024871 -0.514293 -0.152484 -0.249961 0.046027 -0.587794 -0.271844 0.493607 -0.380284 -0.077246 -0.073844 -0.289541 0.248083 -0.142403 0.289995 -0.166350 0.202771 -0.087365 0.392921 -0.014237 0.804564 -0.317384 0.298820 -0.305374 0.079319 0.486738 0.409546 -0.321879 -0.285710 0.071367 0.458074 0.060844 0.042842 -0.602141 0.654279 0.100361 0.079772 0.241311 0.240090 -0.388058 0.440158 0.064208 0.238997 -0.246941 -0.092751 -0.281996 -0.223628 -0.370980 0.271098 -0.323187 -0.403766 0.783029 0.763789 0.347200 -0.251585 0.190147 -0.318009 -0.090513 -0.297177 -0.833025 0.095151 0.274475 0.187525 0.011225 0.689780 -0.194211 0.055265 -0.141649 0.312266 0.302728 0.152297 -0.095564 -0.025400 -0.598145 -0.647465 0.355511 0.111625 -0.646070 0.060514 0.129887 -0.115634 -0.094782 -0.145178 -0.157567 -0.417091 -0.412614 0.276776 0.124326
868 -0.568870 0.453273 -0.061764 -0.493447 0.277594 0.865935 -0.198479 -0.251647 0.133599 -0.468691 -0.082193 -0.132431 -0.640539 -0.200832 -0.287329 -0.043868 0.053021 -0.104566 0.185941 0.101095 -0.418475 -0.015215 0.399055 -0.071338 -0.389656 0.269577 0.305271 -0.021400 -0.292205 -0.257297 -0.174954 -0.062865 0.027318 0.242274 -0.159403 -0.447302 -0.292204 0.537753 -0.130027 -0.404151 -0.155760 -0.372219 0.024876 -0.247029 -0.042424 0.138923 -0.261035 0.136350 -0.113050 0.408075 -0.422564 0.021107 0.186158 -0.198971 0.458409 0.265064 0.209825 -0.241485 0.182516 -0.089746 0.049343 -0.368586 0.427846 -0.352576 -0.228879 0.103450 0.201775 -0.334751 0.191506 0.125290 0.213251 -0.367089 0.264704 -0.417385 -0.339897 -0.107307 -0.302989 -0.336776 0.229586 -0.348643 -0.418810 0.145014 0.102251 0.449446 -0.467641 -0.556848 -0.486853 -0.324519 0.259455 0.155645 -0.302303 0.501711 0.497985 0.439382 0.210654 0.241900 -0.499063 0.161821 0.042767 0.040509 -0.121617 0.243253 0.569909 0.251076 -0.045789 0.137380 0.077477 -0.238310 0.153057 -0.138042 -0.006727 0.309796 -0.035648 -0.284377 -0.015079 0.117116 0.117173 0.220650 -0.501256 0.054700 -0.393393 -0.101326 -0.081950 -0.280281 -0.433257 0.258047 1.085566 0.103795
698 -0.096292 -0.081362 -0.191413 0.054441 0.271197 -0.239630 -0.155200 0.046458 -0.145004 0.377170 -0.335362 -0.576494 0.212424 -0.042773 -0.093446 0.272984 -0.417895 0.140155 -0.166165 -0.039475 -0.011649 -0.236808 -0.400802 0.065240 -0.145847 0.068701 0.091858 -0.071742 -0.145789 0.130851 -0.262602 0.130619 -0.221559 0.376446 0.008605 -0.244805 -0.167152 0.088862 0.218053 0.102435 -0.102742 -0.039874 -0.023460 -0.097812 -0.180083 -0.022304 -0.329135 0.315254 0.001614 -0.144557 -0.169143 -0.262327 -0.044520 -0.124956 0.020972 -0.001747 0.173601 -0.023838 -0.405419 0.086508 0.136617 -0.062771 -0.231380 -0.036459 0.068747 -0.062911 0.132903 -0.072049 -0.150149 0.029005 0.240561 -0.037346 -0.143448 -0.288971 -0.068470 -0.041811 -0.135543 0.200951 -0.036528 0.158228 0.142832 -0.022687 -0.019215 0.232552 -0.188930 -0.702823 0.137559 0.231179 0.230746 0.054819 -0.109134 0.377774 0.273906 0.021063 0.053261 0.281981 0.051277 -0.021309 0.012623 -0.215424 0.156816 0.206597 -0.207158 0.209027 -0.174015 0.223284 0.166257 -0.044999 -0.179941 -0.082238 0.230007 0.087810 -0.477005 0.119260 -0.330479 -0.221191 -0.437313 0.051016 -0.180955 0.201355 0.498340 0.317266 -0.086526 0.307541 0.102487 -0.068937 -0.135446 -0.513446
0 0.433013 0.239252 -0.076988 0.054786 -0.009180 0.136078 -0.108494 -0.005388 -0.182623 -0.350167 -0.188089 0.119534 -0.194697 0.051943 0.122826 0.223838 -0.033799 -0.333639 -0.109404 -0.243455 0.257070 0.159432 0.129547 0.042939 0.129379 0.261412 -0.193313 -0.203130 -0.020434 -0.201051 -0.228160 -0.518005 -0.391286 0.494998 0.035428 -0.041285 -0.283581 0.558823 -0.055099 -0.101731 -0.491099 0.090279 -0.396690 -0.325051 0.279034 -0.052356 -0.261995 0.005523 0.050992 0.275728 -0.799460 0.165028 0.662499 -0.086035 -0.140977 0.036260 -0.322646 -0.271761 -0.024379 0.060205 -0.039971 0.295348 -0.106869 -0.191661 0.020473 -0.080756 0.382848 -0.204169 -0.362333 -0.374906 0.167920 -0.137723 0.138268 -0.062911 -0.220592 0.069202 0.027338 -0.521157 0.152173 0.115479 0.143383 -0.389987 0.092328 0.083721 -0.333163 -0.470510 -0.556550 0.164088 0.095903 0.137297 0.393992 0.421951 -0.207802 0.391413 0.069370 0.442970 -0.341917 0.195991 0.432318 0.235765 -0.330359 0.143463 0.572171 -0.044818 -0.120686 -0.046729 0.514925 0.105232 0.429143 -0.138580 -0.155358 0.087804 0.309940 -0.219630 -0.069562 -0.268905 -0.193838 -0.181299 -0.116934 -0.158275 -0.042688 -0.785021 -0.484096 0.640912 -0.081526 -0.009639 0.133969 -0.062866
483 -0.118355 0.006100 -0.155004 -0.179746 0.062567 0.162275 -0.191045 0.131592 -0.339920 0.123663 -0.133124 -0.453281 0.134887 -0.079228 0.050457 0.406619 -0.094633 0.059172 -0.376642 -0.044545 0.192672 -0.140509 -0.488228 -0.032609 0.113232 -0.130205 -0.152095 -0.097921 -0.269094 0.240100 0.003263 0.303452 -0.308060 0.393698 0.286218 -0.258662 0.182660 0.082923 -0.024426 0.136615 0.070226 -0.160656 -0.290160 -0.007622 -0.099734 -0.033939 -0.370945 -0.046205 -0.192344 -0.148502 -0.164146 -0.150669 -0.175548 0.194592 -0.089844 0.064396 0.231542 0.057680 -0.479304 -0.021136 -0.298646 -0.044266 -0.374061 -0.011682 -0.074053 -0.042024 -0.072912 0.262987 -0.154721 -0.329839 0.092947 -0.066536 -0.014918 -0.270369 -0.023124 0.155132 0.208704 -0.259296 0.112654 -0.163222 0.035672 0.096155 0.122534 0.025868 -0.035315 -0.560199 -0.416997 -0.046765 0.316055 0.074968 -0.177522 0.158533 0.239085 -0.096619 -0.072949 0.314304 0.112527 -0.229225 0.478105 -0.279844 -0.164938 -0.179880 -0.282706 0.199984 -0.117269 0.165208 -0.335940 -0.064410 -0.073338 -0.103138 -0.055322 -0.029393 0.018381 0.140095 -0.104653 0.100461 -0.016770 0.090277 -0.161770 -0.230983 0.110054 0.149783 -0.125504 -0.205786 -0.123823 0.195741 0.012336 -0.248467
31 -0.125435 -0.021971 -0.010620 -0.482352 -0.139531 0.135537 -0.248845 -0.113161 0.091865 0.116347 0.331505 -0.412983 0.024460 0.262818 0.045108 0.354259 0.278821 0.050126 -0.090446 -0.241926 -0.016454 -0.364024 -0.309386 0.335625 -0.220173 0.124643 0.392747 0.326761 -0.469057 -0.373592 -0.106528 -0.206436 -0.232005 0.195289 -0.026095 0.274411 0.188336 0.240956 0.065802 0.129770 0.435938 0.169144 -0.086168 -0.210296 0.193855 0.236120 -0.013034 0.237021 -0.351758 0.191404 0.026856 0.211960 0.053287 0.475264 0.335068 -0.146233 -0.229143 0.207514 0.201041 0.317808 0.085522 0.017184 -0.010819 0.203479 0.135088 -0.087356 -0.324652 0.171284 0.280705 -0.205735 0.260717 0.030469 0.071715 -0.214075 -0.069971 0.014112 -0.115727 -0.099682 0.093526 0.216000 0.100467 -0.164786 0.041347 -0.026777 -0.108259 0.114707 -0.147633 0.223354 -0.136776 -0.349349 -0.032760 0.383978 0.209738 -0.128174 -0.059927 0.148442 -0.264935 -0.292290 -0.153517 -0.219501 0.276057 -0.060996 0.401237 0.270789 0.286047 0.455574 0.011413 -0.284840 -0.503901 -0.209428 -0.147174 0.107077 0.330364 -0.262424 -0.271236 -0.056981 -0.185498 0.062424 -0.078080 -0.205257 0.022036 0.233248 0.236278 0.304712 -0.036023 0.170904 -0.088154 -0.073683
753 0.283959 0.633960 -0.075894 -0.367137 0.105293 -0.286237 0.626702 -0.059219 0.211916 -0.313277 -0.314303 0.271475 -0.028328 -0.131844 -0.411272 0.359475 -0.299153 -0.667895 -0.403519 -0.125587 -0.197014 0.004226 0.165419 0.293779 0.013402 0.386141 -0.251903 0.003711 -0.487467 -0.059949 0.334650 0.250009 0.309482 0.186558 0.160872 -0.019201 -0.027072 0.076358 0.060663 0.162425 0.363491 -0.152614 -0.077478 -0.394120 -0.036436 -0.104421 0.016402 0.502404 -0.272908 0.053304 -0.167845 0.328720 0.313636 -0.083680 -0.244944 0.108516 0.223977 -0.004332 -0.049854 0.440198 0.168975 -0.332853 -0.036335 0.144139 -0.096840 -0.195890 0.260951 0.077048 0.041764 -0.732337 0.207068 0.220851 0.007802 -0.051389 0.205680 -0.468349 -0.054431 0.164949 0.007462 -0.047672 0.421885 -0.277076 -0.321160 0.637260 -0.054855 -0.489220 0.140453 -0.183031 -0.063052 -0.286910 -0.260394 0.541624 0.055044 0.399993 0.250104 0.642631 0.113933 -0.164667 -0.078709 0.193290 -0.343515 -0.368872 0.219357 -0.332617 0.189328 -0.265998 -0.176195 0.022730 0.240667 -0.244736 -0.145067 -0.107336 -0.351975 0.139147 -0.421731 -0.242656 0.524017 0.139823 0.525052 -0.771714 0.283791 -0.176072 0.215166 -0.434777 -0.021888 -0.235876 0.017358 0.251728
2050 0.254154 -0.055934 -0.625902 -0.344586 0.067899 -0.137429 0.253176 0.179125 -0.054700 -0.209080 0.143687 0.031632 -0.204675 0.036254 -0.368932 0.314440 -0.224354 -0.149054 -0.284253 0.005113 -0.207614 0.016295 -0.056322 0.477226 -0.056009 -0.182530 -0.150171 0.145428 -0.314889 0.110056 0.016264 0.158588 -0.013858 -0.237820 -0.009323 -0.626722 -0.224843 0.088799 0.172194 -0.216096 -0.035026 0.230780 -0.342074 -0.436027 0.121534 -0.133857 0.138146 0.419971 -0.036461 -0.331867 -0.278149 0.219925 0.042458 0.225155 -0.501286 0.286661 0.066925 -0.037389 -0.368898 -0.054703 -0.367491 0.234619 0.352691 -0.280680 -0.337675 -0.273794 -0.050380 -0.152533 0.208195 -0.280719 0.294944 -0.088754 -0.001860 -0.201902 0.166602 -0.532483 0.289220 -0.010951 -0.301350 -0.078037 0.258159 -0.444760 -0.166647 0.651645 0.226807 0.286646 0.027127 0.131945 -0.017823 0.378458 -0.284025 0.307730 0.010054 0.313017 -0.222125 0.322293 -0.442007 -0.365499 -0.490691 -0.259149 -0.537140 0.200174 -0.245368 -0.079027 0.441582 -0.272392 -0.142438 -0.146861 0.069814 0.351629 -0.105108 -0.178297 -0.279548 -0.152211 -0.151136 0.169474 0.127039 0.412342 0.154808 -0.457034 -0.246626 -0.318243 0.292445 -0.325061 0.166030 -0.333718 0.434984 0.065547
263 -0.104392 0.012552 0.273627 -0.542488 -0.043739 -0.150169 0.270287 0.155033 -0.408521 0.263281 -0.154038 -0.156299 -0.234741 0.302997 0.469844 0.081895 0.225501 -0.184895 0.056715 0.359689 0.151733 -0.088228 -0.470677 0.396556 0.217505 0.245484 -0.070192 -0.101980 -0.365163 -0.245005 -0.386549 -0.232922 -0.274653 -0.427956 0.492129 0.216304 0.369441 0.310542 0.154827 0.348902 0.004345 0.046968 0.137780 -0.008137 -0.198487 0.325891 0.129434 0.317708 -0.002892 0.429271 0.033995 -0.006027 0.019349 0.298961 -0.083974 0.399175 0.277171 0.286264 0.154248 0.406954 0.185261 0.074827 0.210446 -0.115027 -0.580489 0.059155 -0.017400 -0.338422 0.124647 -0.152406 -0.227398 0.074576 0.074006 -0.354922 -0.091248 -0.024989 0.123213 -0.150988 0.014883 -0.108060 0.260503 -0.001751 0.304490 -0.371781 -0.106074 -0.298602 -0.412923 0.159001 -0.133065 -0.382909 -0.024849 0.336982 0.313202 -0.055809 -0.241933 0.155708 0.156406 0.038097 0.227122 0.138705 -0.158008 -0.095340 -0.158899 -0.182881 0.118045 -0.012243 -0.329620 -0.023473 0.129525 -0.003229 -0.121061 0.379241 -0.687661 -0.244559 -0.087593 0.163824 0.112149 0.285033 -0.321918 0.360601 0.209298 0.027525 -0.379377 -0.032325 -0.111140 -0.236742 -0.002674 -0.152394
516 -0.116489 -0.065810 -0.250239 -0.451879 0.022302 0.203599 -0.274816 0.170668 -0.271832 0.316377 -0.388082 -0.221788 0.253327 0.010634 -0.321839 0.301450 -0.013929 0.087247 -0.300842 -0.115616 0.108712 -0.283459 -0.310262 -0.061243 0.234974 -0.103306 -0.249602 0.033018 -0.257172 0.155448 -0.289132 0.056366 -0.110046 0.540542 0.248216 -0.181329 0.156762 0.307035 -0.010624 0.160362 0.011701 0.118440 0.021824 0.156016 -0.007099 0.042443 -0.555139 0.385212 -0.145795 -0.144767 -0.090800 -0.175035 -0.031774 0.170180 0.085105 -0.003304 0.158277 0.101193 -0.437261 0.011758 -0.041896 0.024956 -0.244190 -0.290226 -0.079503 0.019503 0.051332 0.127215 -0.313093 -0.181241 0.169794 -0.048887 0.051494 0.058304 -0.141130 0.103611 0.087048 -0.023480 0.094105 0.165674 -0.198599 0.142890 -0.015068 0.092294 0.028691 -0.361520 -0.236573 -0.182893 0.337878 0.151550 -0.092968 0.093468 0.093769 -0.110574 0.194493 0.154931 0.033138 -0.081224 0.359711 -0.066757 -0.246397 -0.136929 -0.077594 0.170552 0.161794 0.200732 -0.125744 -0.142186 -0.042357 -0.168427 0.007914 0.032762 0.106100 0.039032 -0.182205 0.059748 0.062302 0.278845 0.013188 -0.124401 0.156390 0.260764 -0.535598 -0.131337 -0.064893 -0.078672 0.034330 -0.105752
354 0.365406 -0.236554 0.289669 0.363371 -0.382485 -0.790110 0.491916 0.228879 -0.039436 -0.311257 -0.732705 -0.519123 -0.260367 0.520577 -0.523328 -0.235897 -0.154703 0.019657 -0.094589 -0.273945 -0.255809 -0.057387 -0.318586 -0.065298 -0.346547 0.263721 -0.716617 0.277309 0.076766 0.494447 -0.145882 0.136228 -0.313598 0.176973 0.533957 -0.198596 0.276544 0.189204 0.345632 -0.023323 0.315936 -0.448261 0.093380 0.453392 0.253078 -0.510867 -0.213408 0.002762 0.168776 0.286631 -0.614036 0.124825 0.204832 0.006398 -0.412324 0.406138 -0.138537 -0.277731 0.430322 -0.027404 0.165291 -0.050653 0.066687 0.081704 0.436188 -0.029498 0.130858 0.084529 0.739924 -0.193992 -0.087253 -0.214040 0.204645 -0.080794 -0.783184 0.357422 0.662234 0.075939 0.189204 -0.149700 -0.414453 -0.212045 0.230200 0.264435 -0.243014 -0.073893 -0.561121 0.019058 -0.449089 -0.305432 0.329029 0.426910 0.169345 -0.341413 0.459170 -0.332186 -0.501488 -0.034054 -0.067785 -0.017447 0.117935 0.444864 -0.095840 0.492271 0.176800 -0.300615 0.124350 -0.144446 -0.341832 -0.153986 -0.598240 -0.338000 0.197396 0.234911 -0.608009 0.327902 0.348054 0.011212 -0.508308 -0.093273 -0.272937 0.030091 -0.257696 0.154731 0.644160 -0.225907 0.734906 -0.042216
979 0.024832 -0.390126 -0.359944 -0.224864 -0.121596 -0.199872 0.077090 -0.272855 -0.014727 -0.212168 -0.353733 -0.160795 -0.434907 0.241962 -0.614959 0.179060 -0.365932 -0.023355 -0.532422 0.133637 0.065133 -0.007032 -0.202703 0.440723 0.120708 -0.159326 -0.026500 -0.264031 -0.049535 0.278186 0.347969 -0.089175 0.251293 0.205152 0.801125 -0.063040 -0.183080 -0.028685 -0.117327 -0.081456 -0.068335 0.190005 -0.124839 -0.162403 0.114441 -0.238721 0.350340 -0.155046 -0.048059 0.239914 0.149646 -0.477132 0.506223 -0.147561 0.518310 -0.134531 -0.130612 0.113333 -0.125455 0.142950 0.136606 0.100942 -0.447060 0.471006 -0.280631 0.092069 0.229505 0.004493 -0.189240 0.291335 -0.225347 -0.021670 0.156669 -0.204584 -0.176919 -0.231332 0.244218 -0.435161 0.004610 -0.077436 0.174726 -0.092449 0.121241 0.278262 -0.206825 -0.178357 -0.054447 -0.531029 -0.165766 -0.102584 -0.079585 -0.029916 0.029158 0.095570 0.183205 0.100960 -0.030082 0.176712 0.262661 0.091561 -0.322381 -0.022206 0.215624 -0.093861 -0.183115 -0.183454 0.204622 -0.028736 0.021731 -0.449000 -0.000711 0.171232 0.150075 0.175224 -0.076574 0.141615 -0.192624 0.346903 0.235660 -0.007788 0.028257 -0.271903 0.258717 0.265532 0.087688 -0.388950 0.872744 -0.175449
522 -0.251310 -0.056452 -0.114347 0.035661 -0.162184 -0.204717 -0.241293 0.222559 0.055578 0.179120 -0.425687 -0.261538 0.113545 -0.123190 0.039274 0.379850 -0.332733 -0.006327 -0.070916 0.023087 0.165450 0.356638 -0.331137 0.295455 -0.007152 0.050359 0.005196 -0.057958 -0.401255 0.142475 0.107550 0.158372 -0.057558 0.078151 -0.021247 -0.183059 -0.270659 0.356194 -0.040030 0.132456 0.258720 -0.220948 0.058123 -0.022486 0.146620 0.243365 -0.120073 0.740167 -0.225459 -0.174579 0.042245 0.001815 0.104022 0.173927 0.227926 -0.041223 -0.096031 -0.212199 -0.084447 -0.166671 0.187065 0.401298 0.060518 0.086749 0.123087 0.459211 0.414026 0.123881 -0.158857 0.135732 0.099308 0.281085 -0.206086 -0.028573 -0.148392 -0.118785 0.059574 0.150090 -0.277519 -0.350038 -0.036127 0.471682 -0.046673 -0.052463 0.048091 -0.324318 0.053820 0.250210 0.227040 0.094669 0.016595 0.271359 0.417535 0.157998 0.215023 0.340229 -0.055373 0.061629 -0.046387 0.108744 0.333069 -0.157838 0.318587 0.262799 -0.154415 0.018565 0.010057 -0.056961 -0.197427 0.050816 0.368506 -0.112361 -0.142147 -0.070545 -0.297076 -0.126366 -0.256394 0.167615 -0.705238 -0.134314 0.166209 0.345060 -0.024565 -0.051023 0.184678 -0.208350 -0.093046 -0.103404
691 0.750176 -0.109930 -0.161464 0.048982 -0.418733 -0.012001 0.007981 -0.136402 0.116904 -0.422305 -0.250347 0.164127 -0.522408 -0.146571 -0.089643 0.156777 -0.222186 0.018795 -0.344458 -0.190250 0.319330 0.235798 -0.111357 0.212291 0.059803 0.247981 -0.061952 -0.128232 0.037863 -0.259559 0.076379 0.000116 -0.369282 0.257267 0.740633 0.255950 0.017558 0.281672 0.198260 0.204526 -0.397614 0.161354 -0.012574 -0.404496 0.245405 0.098234 0.064691 -0.468345 -0.245724 0.288161 -0.443950 0.173957 0.264612 -0.096193 0.092479 0.062598 -0.087710 -0.247789 -0.117927 0.148049 -0.176811 0.274116 0.112355 0.020574 -0.195486 -0.143820 0.029996 -0.252045 -0.512129 -0.197638 0.236011 0.115948 0.375614 0.221857 0.071029 -0.368737 -0.385478 -0.536760 -0.363186 0.019224 0.439705 -0.376858 -0.028156 0.090484 -0.349797 -0.434459 -0.078252 0.115757 -0.233976 0.082370 0.235591 0.235064 0.252754 0.274090 0.316258 0.177908 -0.018955 0.313730 0.369294 0.173495 0.032052 -0.076281 0.339070 -0.157352 -0.242666 -0.129876 0.275537 -0.071641 0.283629 -0.440210 -0.047870 -0.131107 0.452266 0.338369 -0.105819 -0.295185 0.259149 0.125620 -0.115018 -0.315136 0.030177 -0.750397 -0.332321 0.449809 0.177297 -0.400255 0.431374 -0.390960
673 0.365235 0.067979 -0.278879 -0.031971 -0.319087 -0.041551 -0.259820 -0.286172 -0.224565 -0.101891 0.000043 -0.043771 0.378726 -0.309704 -0.260766 0.118930 -0.273468 -0.162809 -0.164986 -0.039859 -0.165947 -0.292733 -0.490340 0.376015 0.113900 -0.356769 0.017344 -0.221205 -0.295508 0.074316 -0.247746 -0.020114 -0.160412 -0.087983 0.024306 -0.029840 0.249684 0.368585 0.228926 0.299698 0.073693 0.027317 -0.022216 0.168792 0.062803 -0.156050 -0.351281 0.096463 0.139397 -0.240932 -0.201951 -0.080052 -0.100669 0.293182 0.196089 0.310695 0.179006 0.320695 0.002440 0.003835 0.303089 0.046641 -0.096143 -0.094743 -0.180700 -0.148527 0.095013 -0.106861 -0.010632 -0.096664 0.098833 0.047682 -0.386998 0.007247 -0.462829 0.085852 0.405610 0.257510 0.262988 0.376612 0.171712 0.161084 0.224143 -0.060353 -0.318644 -0.347536 -0.413288 0.149797 0.483241 0.291510 0.060180 0.021469 0.043931 0.116705 -0.135187 0.268446 0.112923 0.036771 0.430407 -0.092630 -0.059806 -0.388775 -0.067673 -0.062625 0.271709 0.134913 0.093691 -0.157063 0.090317 -0.193280 0.042555 0.180115 0.125763 -0.297975 0.087312 -0.068318 -0.087611 0.450075 0.073136 0.392147 0.155752 0.228103 0.062633 -0.007293 -0.034285 -0.001880 0.175569 0.139946
685 0.114245 -0.148365 -0.052215 -0.087636 -0.124095 -0.011698 0.327917 0.129702 0.106503 0.104637 -0.089475 -0.200807 0.101563 0.193989 0.362660 0.097091 -0.024821 0.113514 0.039389 0.040299 -0.029383 -0.421604 -0.239875 0.211974 0.081712 0.507559 -0.131692 -0.263286 -0.531821 -0.314900 -0.021469 -0.424717 -0.322822 -0.196553 0.278792 0.086353 0.148292 0.241411 -0.138660 -0.065996 -0.080967 0.076870 0.124807 0.059195 -0.235007 0.014365 0.111630 0.120313 0.014663 0.086345 0.141425 0.174677 -0.028577 0.160030 0.033637 0.221453 0.135307 0.307706 -0.104086 0.225559 0.115257 0.369597 0.038929 0.011758 -0.374462 0.219356 -0.107545 -0.404156 0.239338 -0.055203 -0.046520 0.440884 -0.099958 -0.119475 -0.164835 0.273291 0.258726 -0.091866 0.182613 -0.073763 0.210189 -0.207963 0.119461 -0.065749 0.037706 -0.612589 -0.684286 0.204508 0.211384 -0.186863 0.186896 0.392039 0.079138 -0.034246 0.065177 0.157740 -0.086710 -0.062525 -0.184102 -0.173641 -0.087308 0.126860 0.073553 -0.003350 0.233643 -0.047494 -0.074190 0.034956 -0.324729 -0.048344 0.040938 0.197090 -0.697482 0.016431 -0.145975 -0.018115 -0.004784 0.252619 -0.361665 0.315151 0.118656 0.224598 -0.233146 -0.118165 -0.417744 -0.262340 -0.217167 0.027982
416 0.204050 -0.366214 -0.131792 -0.085887 0.202662 -0.275344 -0.006109 -0.521541 0.213067 -0.052386 -0.359567 0.073484 -0.607833 0.140915 -0.652366 0.189431 -0.225076 -0.025991 -0.318239 -0.482532 -0.068864 0.122818 -0.480443 0.046557 0.063515 -0.190420 -0.155272 0.342146 -0.282519 0.335652 0.184651 -0.244732 -0.451425 0.379785 0.735413 0.217204 0.274583 -0.068749 0.206373 0.302505 0.207868 -0.030611 -0.088987 0.242316 0.206802 -0.137390 0.242621 -0.336194 0.367898 0.193686 -0.067785 -0.300532 0.347375 0.063667 -0.382929 0.009370 -0.112827 -0.224706 -0.104983 0.228894 0.433432 -0.101578 0.399703 -0.237653 -0.079634 -0.061394 -0.098587 -0.373783 0.166068 0.027355 -0.050211 -0.034908 0.300132 -0.149753 -0.363898 -0.031740 0.219963 0.006698 -0.533187 -0.012838 0.198187 -0.386632 0.367137 0.264774 -0.286509 0.099710 -0.188094 -0.189047 -0.172809 -0.396671 0.537181 0.180848 0.252840 0.364800 0.308676 0.008712 -0.059923 0.611917 -0.010095 0.248422 0.378518 0.334325 0.104778 0.069766 -0.232836 -0.491576 0.281308 -0.240476 -0.196136 -0.222596 -0.119094 0.148788 0.337059 -0.096039 -0.570100 -0.136360 -0.003511 -0.052359 -0.121076 -0.313674 0.018471 -0.243765 -0.047951 -0.317263 0.300823 -0.285041 0.358107 -0.435047
495 0.141028 -0.340934 -0.432321 -0.082706 -0.213191 -0.363553 0.274037 -0.277509 0.103293 -0.197509 -0.195327 -0.202487 -0.635262 0.515090 -0.504583 0.046581 -0.411521 0.051966 -0.303108 0.253901 0.110571 -0.107258 -0.292365 0.164418 0.129287 -0.079019 0.010867 -0.623563 -0.228173 0.367845 0.385900 -0.092162 0.435816 0.095103 0.909638 -0.066678 -0.167969 0.124281 -0.107785 0.004652 -0.202545 0.070475 -0.340618 -0.186907 0.205203 -0.308613 0.388020 -0.097872 -0.204191 0.134083 0.320666 -0.196937 0.171244 -0.080789 0.410047 -0.103912 -0.117067 -0.045459 -0.287375 0.033224 0.256301 0.224265 -0.430247 0.634872 -0.091119 0.133572 0.121781 0.123219 -0.183562 0.343305 -0.101033 -0.177126 0.104221 0.042262 -0.197080 -0.333891 0.103965 -0.722661 -0.123074 -0.101292 0.292818 -0.061135 0.032979 0.403183 -0.275464 -0.153879 -0.063604 -0.590160 -0.161635 -0.056615 0.074204 0.167253 0.247493 0.037476 0.390893 -0.049103 -0.070396 0.012228 0.227208 0.138323 -0.302801 0.055278 0.126755 0.072726 -0.116609 -0.089379 0.104840 0.113808 -0.066718 -0.116137 0.227998 0.275975 0.189035 0.244635 -0.084720 0.233204 -0.262776 0.178898 0.058894 0.099280 0.167075 -0.487101 0.227310 0.053463 0.242586 -0.379970 0.666650 -0.120698
1004 -0.061623 0.059648 -0.431570 -0.247352 0.321218 0.013988 -0.053761 0.157410 -0.079703 0.341907 -0.420864 -0.571552 0.060919 -0.095589 -0.142004 0.392726 0.161018 0.124401 -0.326246 0.100506 -0.341772 -0.232745 -0.319859 0.403359 -0.059331 -0.118565 -0.118137 0.323709 -0.108341 -0.439080 -0.267971 0.023070 -0.119015 0.208368 0.335489 -0.043238 0.341541 0.086626 0.081432 0.456733 -0.005518 -0.127467 -0.118401 -0.040959 0.131428 -0.011302 -0.288544 0.315371 0.085175 0.280150 -0.107525 -0.088776 0.035631 0.346238 0.176311 -0.220733 0.088295 0.196255 -0.353713 -0.011271 0.352756 -0.006732 0.019251 -0.222697 -0.059214 0.148158 0.177702 0.086353 -0.044517 0.366191 0.103027 -0.297212 0.218556 -0.105784 -0.165786 -0.089246 -0.010461 0.171262 0.259036 -0.183030 0.087857 0.258146 -0.174583 0.123200 0.090374 -0.237085 -0.220788 0.039671 0.311000 0.029161 -0.065560 -0.156208 0.242140 -0.161686 0.084635 0.046497 -0.009798 -0.202083 0.368853 -0.210572 -0.321683 -0.369295 -0.303381 0.168879 0.183860 0.153616 -0.353825 -0.290658 -0.131963 -0.376063 -0.003441 0.104511 0.436186 -0.096720 -0.202910 -0.323772 0.147679 0.210676 -0.254963 0.070822 0.174819 0.012283 -0.425745 0.112537 0.118463 -0.094658 -0.265144 -0.163586
748 -0.158736 0.195558 -0.145364 0.110966 0.082244 0.009338 -0.393229 0.210748 -0.086407 0.044933 -0.323377 -0.214696 0.249236 0.096046 -0.017574 0.300672 -0.377329 -0.184902 -0.083912 -0.050761 0.185449 0.342592 -0.144368 0.025310 -0.002290 -0.011634 -0.056153 -0.040950 -0.439023 0.162341 -0.079221 0.297446 -0.000461 0.135523 0.136494 -0.154196 -0.175948 0.377960 0.022771 0.047414 0.236975 -0.246881 0.228744 0.089102 0.073798 0.083758 -0.016296 0.627946 -0.066350 -0.045623 -0.024186 0.146198 -0.045422 0.285359 0.226525 -0.114391 -0.117836 -0.274819 -0.221621 -0.113685 0.274050 0.369271 -0.003924 0.148320 0.027375 0.402453 0.304019 0.162652 -0.232461 0.195924 0.305658 0.288348 -0.207159 0.069525 -0.172922 -0.141945 0.111581 0.122455 -0.143385 -0.224753 -0.044414 0.306403 -0.217360 0.113463 -0.099044 -0.104313 0.107020 0.191237 0.267819 0.289037 0.053523 0.367712 0.281545 0.184389 0.202028 0.193867 -0.068790 -0.049238 0.160760 -0.011770 0.344911 -0.002560 0.251142 0.152915 -0.186110 0.092051 -0.054679 0.060932 -0.274101 -0.008200 0.257426 -0.090871 -0.437631 -0.168551 -0.300023 -0.134482 -0.129385 0.262542 -0.713851 -0.059373 0.172881 0.379188 -0.027226 0.091953 0.053138 -0.207591 -0.081828 -0.251964
916 0.035218 -0.653477 0.073097 0.122634 0.306298 0.181357 -0.307110 -0.087348 -0.043911 -0.371872 -0.317236 -0.196978 -0.213605 0.685960 -0.282817 0.108989 -0.244287 0.103081 -0.338099 -0.191316 0.619753 0.303996 0.196831 -0.034872 -0.171789 -0.143522 0.000004 0.337584 -0.080722 -0.512267 0.095913 0.195954 -0.431942 -0.210056 0.132077 -0.433555 0.052960 -0.153192 0.291351 0.079256 0.044605 -0.174632 0.220411 -0.437569 0.422691 0.311108 -0.556275 -0.334438 0.026725 -0.032821 -0.075016 0.401115 0.100734 0.004555 0.620225 0.006901 -0.260635 0.027227 -0.064558 0.419491 -0.158197 -0.102327 -0.207012 -0.093985 -0.273092 -0.190475 -0.299365 0.155177 0.008127 0.122705 -0.577904 0.059284 -0.385904 -0.418654 -0.601371 -0.251338 0.476780 -0.348552 -0.004383 0.142215 0.086594 0.026651 -0.041518 0.168397 0.015475 -0.225308 -0.094181 0.027433 0.099163 0.097753 -0.206199 -0.036551 -0.099837 -0.224415 -0.088469 0.034644 0.506247 -0.345117 -0.362512 0.154380 0.182919 -0.096205 0.384744 -0.110193 0.460556 0.354024 -0.286672 0.083066 0.069322 0.192070 0.329978 0.448041 0.001676 0.121410 -0.103489 0.084038 0.216872 -0.026506 -0.025451 0.070811 -0.023096 -0.738498 0.050116 -0.331641 0.311701 -0.552206 -0.005052 -0.064487
51 -0.004804 -0.053904 -0.378804 -0.164647 0.250912 0.119039 -0.135879 0.062857 -0.323465 0.294300 -0.326487 -0.375593 0.237380 -0.069078 -0.187053 0.442182 -0.113100 0.055795 -0.220402 -0.041631 -0.078386 -0.062326 -0.389376 -0.131022 0.069383 -0.052981 -0.087152 -0.024153 -0.131242 0.147396 -0.102392 0.065633 -0.114446 0.494053 0.383414 -0.253695 0.204038 0.179901 -0.150849 0.260260 -0.058510 -0.066376 -0.178400 -0.063432 -0.089084 0.030876 -0.357936 0.160000 -0.211679 -0.106695 -0.251215 -0.103636 -0.152234 0.294783 0.235412 -0.115970 0.006579 -0.040540 -0.461514 -0.022329 -0.053192 0.078814 -0.292711 -0.095510 -0.088344 -0.194328 0.123523 0.111932 0.060868 -0.230010 0.252692 -0.139897 -0.028246 0.003837 -0.072900 0.170317 0.214173 0.050785 0.218517 0.047752 0.063997 0.252275 0.158630 -0.045708 -0.144154 -0.425773 -0.133355 -0.203207 0.344255 0.026343 -0.106559 0.083262 0.086882 -0.111785 -0.038689 0.191973 0.283020 -0.110610 0.323603 -0.271172 -0.110355 -0.056469 -0.091383 0.202137 0.089370 0.390149 -0.049400 -0.178842 -0.113061 -0.171905 0.135653 -0.112655 -0.045488 0.273923 -0.144242 0.051909 -0.149905 0.146081 -0.161807 -0.404202 0.191522 0.285353 -0.515521 -0.165670 -0.036744 0.119598 -0.011112 -0.127596
876 -0.200503 -0.193101 -0.012086 0.508309 0.438955 0.239309 -0.191100 0.027425 -0.145923 0.211124 -0.064436 -0.759319 -0.123480 0.231483 0.077309 -0.250975 -0.042431 0.245010 -0.234127 0.413695 0.318500 -0.127459 -0.178109 0.119621 0.316970 0.422423 0.352483 0.407538 -0.669132 -0.371199 -0.039477 -0.108195 -0.265366 0.360893 0.044397 0.230693 -0.293841 0.079607 -0.089912 0.329140 0.706573 0.295046 -0.338456 0.122251 0.037518 -0.088286 0.088501 0.099205 -0.132541 0.233520 0.117306 -0.458541 0.082663 0.494025 0.444602 0.278676 0.218210 -0.251065 0.177610 0.096353 -0.500497 0.009890 0.025639 0.368076 -0.195288 -0.284776 -0.506474 0.016155 0.428873 -0.288898 0.286308 0.477119 0.106163 -0.080742 0.015533 -0.173334 0.038226 -0.173955 0.802434 0.112197 -0.308071 -0.031772 0.076752 0.533598 -0.084950 0.226711 0.238278 0.193178 -0.004772 -0.084031 0.284333 0.116089 0.267963 -0.037620 0.057186 0.012377 -0.287404 0.175520 0.271040 -0.289903 -0.212703 0.005877 0.400189 0.054379 0.912245 -0.016330 0.454098 0.113715 0.041549 -0.206407 0.544326 0.107278 0.207699 -0.033991 0.196189 -0.152429 0.048553 0.003642 -0.347562 0.003214 -0.009521 -0.143522 -0.052109 0.072743 -0.131015 -0.200460 0.364259 0.171836
848 0.286507 0.042137 -0.193045 0.069659 0.076443 0.236310 -0.127304 -0.092608 0.037652 -0.039600 -0.117881 -0.381618 0.163685 0.863108 -0.354876 0.318365 -0.010333 0.026198 -0.313688 0.005678 -0.087005 0.002377 0.321757 0.493387 -0.062593 -0.133494 0.084681 0.165315 0.062865 -0.052337 0.526968 -0.160866 -0.261492 0.092643 0.759786 -0.360973 -0.663990 0.050871 0.133503 -0.243923 -0.112650 -0.013515 0.309516 -0.073071 0.119656 0.062339 -0.080361 0.090836 0.248014 0.020204 0.074095 -0.362261 0.046110 -0.244911 0.477683 0.099587 0.096999 -0.019462 0.330529 0.248851 -0.233521 -0.061177 -0.168857 -0.144984 -0.119503 0.422889 0.183588 0.036005 -0.200549 0.025533 -0.137284 -0.030845 0.104125 -0.125752 0.314771 0.228722 0.195323 0.066772 0.012880 -0.005390 0.534758 -0.140964 0.240566 0.462961 -0.381101 -0.057504 -0.172553 -0.037798 -0.071450 -0.240349 0.050900 0.050326 0.232812 -0.204924 -0.374174 0.282002 -0.179497 0.118786 0.140552 0.738242 -0.004846 -0.411471 0.311484 0.012422 0.155527 -0.141075 -0.097541 0.106395 0.018706 -0.303649 -0.040189 -0.072816 0.001058 0.255277 0.299358 0.427962 -0.094465 0.362506 -0.003370 -0.130795 -0.090382 -0.491378 0.170937 0.156123 -0.064426 0.367796 0.061642 0.031814
441 0.281438 -0.010503 0.046144 -0.217783 0.230272 -0.002616 -0.175831 -0.079140 -0.422709 -0.488669 0.270333 -0.232920 -0.104280 0.511671 -0.087930 0.476264 0.003573 0.056854 -0.080423 -0.391139 -0.193568 -0.158750 -0.849922 -0.073910 -0.341601 0.118834 0.000850 0.039080 -0.283330 -0.306202 -0.127199 -0.293866 0.010685 0.189109 -0.183581 0.118338 0.149223 0.555560 -0.189756 -0.017579 -0.239337 0.294697 0.372321 -0.293808 -0.208280 -0.326533 0.454919 0.207382 -0.195601 0.391205 0.284778 0.323835 0.205032 -0.200989 0.207364 0.170860 0.134539 0.403991 0.236294 0.012144 0.102462 -0.468092 0.209261 -0.024093 0.254057 -0.131453 -0.080471 -0.058726 0.020876 -0.302122 -0.110404 0.395823 -0.282799 -0.109064 -0.141442 0.197570 -0.160969 -0.275109 -0.418141 -0.413676 0.097914 0.195126 -0.032134 -0.136495 -0.026521 0.357306 -0.077468 0.222572 0.400785 -0.489593 0.108323 -0.004175 0.549090 -0.389397 -0.394137 0.116146 -0.065133 -0.171439 0.236809 -0.136766 -0.120700 0.093466 0.257677 0.705516 0.159546 0.114382 0.011090 0.071307 0.144645 0.097968 0.380662 -0.389902 0.125400 -0.221758 -0.291228 0.076200 0.101120 -0.113382 0.107057 0.109366 0.096344 0.041971 -0.462410 -0.196201 0.245200 -0.334234 0.186687 -0.245666
202 0.301410 -0.093113 -0.064144 -0.396297 0.146096 0.236357 0.019011 0.097548 0.078472 -0.499261 0.020727 0.143190 -0.044608 0.226287 -0.620074 0.134743 -0.137587 -0.031698 -0.370784 0.031295 -0.012301 0.165608 -0.465492 0.098394 0.089963 -0.116590 0.240598 0.224264 -0.720824 0.216507 0.302195 0.017389 -0.083357 -0.098275 -0.047102 -0.344311 -0.020292 0.433764 0.089051 0.211041 0.375543 -0.148011 0.059077 0.171213 -0.086957 0.014347 -0.103225 -0.118612 0.160434 0.274796 -0.461272 -0.602644 0.117759 0.479860 -0.035859 0.534109 0.189102 -0.084733 0.559107 0.653531 -0.030581 -0.569461 -0.163711 0.376124 0.569066 0.075051 0.406227 -0.203097 -0.480626 0.086647 -0.239388 -0.126525 -0.090371 0.147679 0.241973 -0.173281 0.340163 -0.184711 -0.055752 0.082341 0.211242 -0.111973 0.382431 0.469623 0.028292 -0.226945 -0.401860 -0.049069 0.129892 0.415117 -0.285407 -0.289432 -0.141083 0.125188 -0.568165 -0.165896 -0.045852 0.300259 -0.262934 0.457338 0.009415 -0.275109 0.465557 -0.379777 -0.042512 -0.315605 0.181900 -0.060382 -0.414087 0.087636 0.210899 -0.449416 0.003415 0.281756 -0.268631 -0.009060 0.435260 -0.316666 0.029042 -0.474172 -0.380837 -0.291741 -0.420120 -0.007386 -0.441346 -0.360100 -0.041650 0.007793
1980 0.416378 -0.025896 -0.702795 -0.345614 0.167199 -0.179270 0.033336 0.232100 -0.328947 -0.261113 -0.105120 -0.163725 -0.275465 -0.100849 -0.346414 0.327449 -0.197102 -0.216901 -0.216299 0.150775 0.076109 0.241277 -0.236709 0.364400 -0.040871 -0.243551 -0.041215 0.031572 -0.192772 0.224019 -0.007296 0.106966 -0.029762 -0.302630 -0.072352 -0.656828 -0.217179 0.144851 0.157455 -0.405685 -0.092191 0.077720 -0.216411 -0.258404 0.090871 -0.178591 0.336397 0.307062 -0.029566 -0.066580 -0.374891 0.317202 0.229806 0.240729 -0.446252 0.258279 -0.003477 0.268178 -0.278629 -0.226047 -0.626680 0.287994 0.451165 -0.448219 -0.149911 -0.627280 -0.279001 -0.152289 0.285483 -0.198232 0.272930 -0.118596 -0.022369 -0.275867 0.151936 -0.408665 0.451221 -0.104510 -0.141789 -0.122242 0.165432 -0.406413 -0.221176 0.478346 0.270626 0.357711 -0.121250 -0.049922 -0.236763 0.335382 -0.293212 0.605138 -0.016691 0.293758 -0.200404 0.005125 -0.297078 -0.134927 -0.657430 -0.312054 -0.581117 0.110692 -0.222152 -0.064679 0.425616 -0.169463 -0.083747 -0.106005 -0.150585 0.265654 0.091430 -0.205657 -0.152624 -0.163161 -0.183450 0.030826 0.263458 0.626182 0.080021 -0.284839 -0.159202 -0.270216 0.509441 -0.177832 0.156455 -0.452640 0.366200 0.036053
1747 -0.428655 0.333317 -0.033014 -0.435288 -0.013551 0.787557 -0.117455 -0.236340 0.327615 -0.594072 0.146052 0.149703 -0.833485 -0.474859 -0.384329 0.144450 -0.098518 -0.007942 0.281773 -0.429077 -0.233239 -0.122687 0.649371 0.084361 -0.321820 0.063664 -0.058267 0.505728 -0.235016 -0.565848 0.026836 -0.010831 -0.234204 0.380110 -0.149515 -0.553675 0.030458 0.496423 -0.308122 -0.244237 -0.208623 -0.798037 0.339337 -0.028044 -0.021597 0.023522 -0.141742 0.184714 -0.292634 0.347842 -0.560585 -0.086307 0.228832 0.080592 0.109615 0.330005 0.701817 -0.403818 0.177350 -0.206938 0.023507 -0.380309 0.154126 -0.359611 0.201877 -0.039656 0.270686 -0.125651 0.599459 -0.135754 0.419366 -0.396411 0.184211 -0.479316 -0.326240 -0.292095 -0.273954 -0.254883 -0.124041 -0.394478 -0.290365 0.291743 -0.202244 0.288357 -0.466539 -0.389301 -0.469253 0.040926 0.079968 0.452626 -0.073596 0.836820 0.159881 0.282033 0.563052 0.047814 -0.077698 0.362938 -0.118082 0.049758 0.003304 0.266862 0.734998 0.290263 -0.178022 0.230835 0.396831 -0.249369 0.052272 0.000332 0.235735 0.388010 -0.210356 -0.149558 0.395329 -0.096464 0.042912 0.221379 -0.075420 0.303011 -0.099451 -0.043954 -0.175634 -0.531000 -0.484114 -0.101821 0.864305 0.137020
2832 0.294231 -0.470029 0.350994 -0.410380 0.364869 0.523223 -0.480779 0.208600 -0.117511 -0.342471 0.203046 -0.170862 -0.184525 -0.124490 -0.497688 0.020319 0.739431 -0.252058 -0.186379 -0.361951 -0.005820 0.387017 0.208516 -0.447446 -0.314514 -0.255606 0.069359 0.266777 0.000492 -0.768128 -0.229578 0.275835 -0.313118 0.730618 0.305231 -0.573840 -0.147787 -0.247724 -0.306755 -0.283078 -0.727320 0.146389 -0.658443 0.436941 0.023982 -0.040860 -0.019300 -0.585300 -0.217910 -0.157048 0.192415 0.198788 -0.248450 0.166599 -0.263976 0.529305 0.416804 -0.445055 0.505532 0.168247 0.507657 -0.261340 0.256850 0.401221 -0.190388 -0.110596 0.174594 -0.462027 -0.101226 -0.237557 0.343584 0.148809 -0.164783 0.381411 -0.839585 0.393117 0.809156 0.441501 -0.160120 -0.884099 -0.346788 0.210393 -0.782506 0.019548 0.013900 -0.351063 0.027532 0.331413 -0.560432 -0.335013 -0.409842 0.734144 0.530162 -0.054210 0.527778 -0.276610 0.017660 0.176562 -0.484460 0.269575 0.009272 -0.024081 -0.226294 -0.100472 0.455784 0.297888 0.265155 -0.271354 -0.112058 0.310341 0.430303 -0.163498 -0.130010 0.067341 -0.535584 -0.177340 -0.133082 -0.044070 -0.271742 0.110802 0.791168 -0.716000 0.365592 0.178112 -0.879140 -0.292981 0.643464 0.350094
389 0.576119 0.257928 -0.227468 -0.688216 0.042714 -0.095305 0.283294 -0.237367 0.268187 -0.034487 0.085258 0.014293 0.140592 0.513614 -0.565003 0.619545 0.120897 0.293024 -0.138008 -0.072604 -0.275709 -0.068174 0.162851 -0.195332 0.300024 0.193276 -0.512370 0.185479 -0.470004 0.341954 0.522476 0.367633 -0.000450 0.371546 -0.141584 -0.292036 -0.144718 0.334585 -0.186062 0.203887 -0.145540 -0.295013 -0.423606 -0.308094 -0.125507 0.513222 0.414360 0.238140 0.460241 0.215625 0.005769 0.538442 -0.097978 0.375272 0.011668 -0.126493 0.160394 0.031313 0.425381 0.544865 0.314436 -0.906033 -0.123911 -0.107253 0.461536 0.336240 -0.024158 -0.465849 -0.265260 -0.341246 -0.119622 0.100066 0.297835 0.101130 -0.076687 -0.730107 0.189127 -0.063675 0.232074 0.097688 0.495325 0.297453 0.240788 0.342734 0.120552 -0.415772 -0.134614 -0.530875 -0.492957 0.058410 0.445176 0.066148 0.340550 -0.117398 0.222946 -0.065608 -0.170430 0.084750 -0.079235 0.002725 0.490436 -0.145348 0.391170 -0.513503 0.325831 -0.104532 0.369940 0.113775 0.004062 -0.384841 -0.064451 -0.100325 -0.444303 0.344495 -0.137280 -0.433068 0.162952 -0.229224 -0.203263 -0.250184 -0.401434 -0.261357 0.009299 -0.101132 -0.388695 -0.216943 -0.124763 0.040428
1083 -0.200849 0.007175 0.270648 0.089500 0.530144 -0.169250 0.372428 -0.152052 0.100421 -0.294954 -0.032619 0.406112 0.097790 0.084670 -0.572873 0.848646 -0.190585 0.310860 -0.097533 0.187531 0.006209 0.175860 -0.024336 0.393564 -0.811998 0.147420 -0.305088 -0.331871 -0.161406 -0.106210 -0.232148 -0.178158 -0.134970 -0.378631 -0.061567 -0.335364 -0.428527 0.095686 0.044277 0.542540 -0.217481 0.033384 -0.139503 -0.252878 -0.461603 -0.573534 -0.188933 0.206211 -0.101754 0.297886 0.178044 0.374230 -0.578734 -0.355943 0.737641 -0.556762 0.196223 0.286056 0.492422 -0.492607 -0.117777 -1.045149 -0.134344 -0.197711 -0.153379 -0.108301 -0.023329 -0.164070 0.310383 0.254924 -0.111546 0.003873 0.015622 0.134783 -0.672137 0.164728 0.132939 -0.140043 0.156949 -0.393674 0.231126 -0.247569 -0.098664 0.375006 -0.067263 0.326416 -0.831518 -0.569758 -0.034820 0.253178 0.271381 0.054658 0.687527 -0.017185 -0.502909 0.460744 -0.202103 0.369244 0.606964 -0.330765 -0.215668 -0.440314 0.317233 0.435358 0.229005 0.295337 0.425899 0.170506 -0.189827 0.386478 -0.402692 -0.606924 0.051955 0.459526 0.056858 0.125279 -0.065880 -0.300675 0.004729 -0.775043 0.452687 0.268336 0.284591 -0.091568 0.505356 -0.469325 -0.131891 0.138181
40 -0.164239 -0.068623 -0.248803 -0.156138 -0.111920 -0.196566 -0.428778 -0.069018 -0.151824 0.047287 -0.191659 -0.055453 0.080859 0.235902 -0.377285 0.388589 -0.306892 0.174445 -0.287954 -0.092798 0.145564 0.824269 -0.120039 0.004785 -0.044206 0.223910 0.110180 -0.118770 -0.082905 -0.339447 0.225495 -0.301791 0.118001 0.099389 0.464048 0.071679 0.096299 -0.362870 -0.267054 -0.090134 0.072596 -0.382971 0.145738 0.211058 0.755853 0.295382 0.349378 -0.146182 -0.039273 -0.090179 -0.220491 -0.099891 0.015485 -0.203277 0.068107 0.048275 0.179400 0.002927 0.008690 0.127843 -0.055783 -0.181751 -0.894836 0.051576 -0.015671 0.190237 -0.395794 -0.320347 -0.020043 -0.055986 -0.320096 -0.384859 0.152338 -0.179411 -0.291388 -0.423060 0.431413 -0.334082 -0.553065 -0.518059 0.610493 -0.236150 0.159875 0.172965 -0.338493 0.209757 -0.392628 -0.312499 0.014592 -0.054214 -0.141368 0.047822 0.017214 -0.108588 -0.120879 -0.058866 0.069626 0.496698 0.182729 -0.052897 0.082327 0.614141 0.045328 0.306607 0.041087 -0.812995 0.605849 0.129790 -0.192344 -0.420722 -0.107935 0.545460 0.033363 0.018676 -0.463415 -0.296334 -0.375971 0.106558 0.299325 -0.213436 0.019930 0.044606 0.297571 0.207359 -0.336050 -0.214311 0.280662 -0.282386
862 -0.258114 0.264884 0.190173 -0.215238 -0.489718 -0.550473 -0.170057 0.052107 -0.236474 0.067130 0.204683 -0.550963 0.113244 -0.087337 -0.550600 -0.247916 -0.393073 0.152721 0.172236 -0.296930 -0.074328 0.120884 0.281646 0.156747 0.054313 -0.417794 -0.075249 0.015577 -0.317777 -0.348548 -0.191968 0.105438 0.206073 0.298470 0.221893 0.186182 0.086592 0.165357 -0.024427 0.163851 -0.104436 0.273821 0.208445 -0.016348 0.354152 0.056101 0.093352 -0.121708 -0.519064 -0.243951 -0.198645 0.098876 -0.251872 0.422576 0.131406 0.178073 0.104589 -0.026649 -0.031880 0.214542 0.431099 -0.109491 -0.046673 0.182918 -0.392163 -0.048000 -0.118121 -0.071935 -0.187363 -0.214746 -0.126663 0.713757 0.566081 0.090357 -0.036254 0.314446 0.173902 -0.231381 0.632506 -0.230714 0.382516 -0.296956 0.262233 0.113034 0.239123 0.043230 -0.382133 0.252310 0.152855 0.273959 -0.046938 0.656265 -0.246151 0.081291 -0.145079 0.006836 -0.459584 0.639533 -0.175346 0.015867 0.519161 -0.378757 0.491876 0.147041 0.892311 0.149503 0.173338 -0.003877 -0.356330 -0.287276 0.146978 0.500133 0.158886 0.073316 -0.459832 -0.483858 0.086345 -0.202086 -0.047837 0.252308 -0.370490 0.088403 -0.173805 0.007537 -0.458523 -0.429714 0.020947 -0.191886
855 0.122624 0.000602 -0.329165 -0.318411 0.015792 -0.154988 -0.033253 0.383187 0.251719 0.130397 0.403256 0.228942 0.078120 0.632685 -0.291487 -0.375043 0.063916 -0.077098 -0.347866 -0.112115 -0.043843 0.569328 -0.504278 -0.099065 -0.269857 0.213991 0.037690 0.147536 -0.716865 0.091065 0.200240 -0.082446 -0.396114 0.281698 -0.252878 0.215924 0.082851 0.206641 0.383974 -0.089039 -0.651144 -0.553041 0.082800 0.275034 -0.159584 -0.271441 -0.605594 0.656334 -0.018126 0.473740 0.052671 0.079860 0.047767 0.159488 -0.106552 -0.180136 0.090886 -0.098809 0.498917 -0.084057 0.133294 0.286373 -0.152429 0.086958 -0.518023 -0.518802 0.244745 -0.222798 0.287499 0.018022 0.763321 0.282166 0.836690 -0.520174 0.156643 -0.049972 0.061131 -0.422882 -0.114614 -0.261332 -0.168434 0.444515 -0.231414 0.722541 0.166881 0.118113 -0.440755 0.249178 -0.400171 0.180379 0.167635 -0.033021 0.230379 0.035274 -0.828816 0.091181 0.319656 0.183666 0.108693 -0.043469 0.011701 0.077019 0.468948 0.074296 -0.097220 0.298267 -0.259192 0.383728 0.408163 -0.449072 -0.261700 0.102971 -0.324819 0.421117 0.087084 -0.500541 -0.073237 -0.021348 -0.009379 0.447032 0.310603 -0.006391 0.361894 -0.387800 -0.426296 -0.246015 -0.088257 -0.047191
1150 0.131522 -0.334747 0.115774 -0.251425 0.206150 0.192902 0.010209 -0.082443 -0.099793 -0.212016 -0.175522 0.177200 0.382363 0.444558 0.309852 0.394477 0.344002 0.313258 0.170066 -0.230587 -0.187671 0.145931 -0.486886 0.054154 -0.390427 -0.050569 -0.087922 -0.225752 0.345032 0.149339 -0.295313 -0.267196 -0.187025 -0.352261 0.104727 0.007787 -0.442349 -0.098019 0.508202 -0.172903 0.220718 0.344286 -0.030903 -0.222276 0.040570 -0.327006 -0.151018 0.484967 -0.068377 0.570953 -0.412931 -0.005265 -0.031983 -0.459994 0.148599 0.152941 0.175071 0.276187 0.180245 -0.722969 -0.135318 -0.561671 -0.103264 -0.425357 -0.162315 -0.152471 -0.053741 0.064195 0.505857 -0.059128 -0.066295 1.053891 -0.161479 -0.315610 0.033004 -0.083763 0.276337 0.050684 0.046664 -0.538155 0.129702 -0.200444 0.090269 0.449222 -0.083749 0.475729 -0.217959 -0.146457 0.290924 -0.092853 0.459671 0.246212 0.735222 0.109756 -0.356940 -0.030732 -0.185760 0.145982 0.307670 0.155093 0.027384 0.315356 0.222463 0.436049 0.438630 0.063781 -0.108211 0.256876 -0.141086 0.139298 -0.085895 -0.268733 0.055039 0.264913 -0.299926 -0.142884 0.289399 -0.653703 -0.047785 -0.358907 0.631819 -0.010377 -0.077550 0.005865 0.463428 -0.312843 0.484476 -0.113318
2996 -0.106733 0.730562 -1.187489 0.269449 -0.026803 0.363834 0.167841 0.302500 -0.196379 0.117562 -0.813923 0.085423 0.057083 0.372810 -0.164829 0.148339 0.966726 0.209576 -0.004558 -0.331450 0.551527 -0.233434 -0.719026 0.598017 0.877948 -0.231829 0.731853 0.221852 -0.037623 0.371436 -1.004664 -0.040240 -0.202191 0.306067 -0.010048 0.306157 -0.437985 -1.072285 -0.438025 -0.179162 0.119163 -0.177424 0.256485 -0.245956 0.682971 -0.335898 0.580507 -0.038189 -0.558856 0.445800 -0.002716 -0.395619 -0.103730 -0.116150 -0.216605 0.095561 -0.401036 0.501345 -0.843689 0.293578 0.286072 -0.092027 -0.312580 0.078751 -0.394322 0.238008 0.156837 -0.296536 0.026462 0.306478 -0.410987 0.480459 0.487296 -0.224777 -0.352827 0.260536 -0.116164 0.455274 -0.502940 -0.396548 0.077836 -0.213618 0.081418 0.588477 -0.633426 -0.054901 -0.078979 0.078480 0.229703 0.541311 0.276641 -0.113108 0.129405 0.145152 0.358136 0.305482 -0.633536 -0.207989 0.107970 1.197169 0.345762 -0.166635 0.338368 0.268670 1.184806 0.263562 0.147581 -0.377908 -0.062107 -0.209043 -0.106442 -0.038553 -0.241627 0.623568 0.203133 0.052257 0.393121 -0.817874 -0.213113 -0.261338 0.575790 0.222305 0.348391 -0.120122 -0.187735 -0.247569 0.292056 0.089410
422 0.031712 0.123141 0.072776 -0.062437 0.042442 0.286186 -0.434699 0.242989 -0.092306 -0.158618 -0.152632 -0.234782 0.129415 0.150524 -0.019772 0.203446 -0.326218 -0.030469 0.106494 0.080199 0.207153 0.331448 -0.128568 -0.124675 0.226402 0.004765 -0.324894 -0.029597 -0.459347 0.148160 0.111036 0.251226 0.159165 0.012934 0.137579 -0.190247 -0.261361 0.355851 0.130192 0.251120 0.282704 -0.135824 -0.025151 0.108624 0.174013 -0.047711 0.148753 0.721179 -0.067208 -0.041823 0.036910 0.243615 -0.129955 0.327227 0.325870 0.261053 -0.061773 -0.356252 0.047571 -0.218221 0.249216 0.313750 0.101324 0.039496 0.014914 0.462608 0.363048 0.439419 -0.261101 0.324024 0.049803 0.366899 -0.016183 -0.007115 -0.046838 -0.228356 0.109436 -0.158761 -0.217118 -0.441757 0.029004 0.479710 -0.104604 0.251307 -0.124810 -0.081177 -0.012032 0.292403 0.317956 0.311052 0.126280 0.276808 0.223416 0.059881 0.111464 0.389886 -0.085779 0.078913 0.083431 -0.035988 0.192539 0.075650 0.206231 0.102014 -0.262600 -0.056633 -0.025340 -0.085968 -0.314738 -0.221357 -0.118374 -0.069224 -0.541656 -0.173890 -0.327704 -0.232607 -0.312521 0.330053 -0.637758 0.064371 0.054988 0.362417 -0.123005 0.050203 0.021812 -0.213703 -0.294493 -0.074130
1634 0.092870 0.490203 0.355757 -0.453780 0.145603 0.207427 -0.219822 0.187895 -0.462207 -0.262307 -0.150295 0.177794 0.017656 0.273541 0.306239 0.028122 0.346839 -0.049472 0.037571 0.387887 0.350128 0.258847 -0.683274 0.279687 0.315469 0.234291 0.122958 0.031725 -0.313616 0.136749 -0.680430 -0.164402 -0.081233 0.198699 0.061489 -0.142873 -0.026637 0.472225 -0.202048 0.530430 -0.260150 0.048066 0.206223 -0.021891 -0.454711 -0.154278 0.402413 0.070143 -0.239027 0.266062 -0.481018 0.375763 0.412734 0.282710 0.531419 -0.234259 0.173683 -0.261501 0.507614 0.019937 0.436614 -0.167304 0.343494 -0.027765 -0.208760 0.049895 0.214882 -0.628910 0.088145 -0.271445 -0.534619 0.519014 -0.224135 -0.426206 -0.277002 -0.005550 0.098895 -0.494283 -0.416899 0.130736 -0.325784 -0.192750 0.280755 -0.321592 -0.127547 -0.120557 0.342540 0.122004 -0.017855 0.503513 0.078434 -0.085031 0.339042 -0.149163 -0.201919 0.175350 0.222176 -0.088870 0.482982 -0.148805 -0.022850 0.272065 -0.005986 0.218522 0.541133 -0.396282 -0.449269 0.234810 0.163689 0.026631 -0.365394 -0.339578 -0.538913 -0.165180 -0.614046 0.390362 -0.400524 0.407346 -0.444532 0.048578 0.109759 -0.042791 0.203761 -0.106988 0.002247 0.036975 0.434425 -0.206469
1759 -0.003234 -0.236141 -0.001737 0.198827 0.094139 0.507653 -0.308174 -0.324171 -0.311517 0.977064 -0.322434 0.221791 -0.234630 -0.324136 0.462972 0.352320 0.254704 -1.003668 0.318738 -0.371993 -0.167396 0.067881 -0.086862 0.510848 -0.162109 0.258294 0.139834 -0.061035 -0.948375 -0.421258 0.286438 1.361679 -0.044606 -0.340139 -0.272216 -0.309804 -0.657139 -0.112312 -0.085977 0.111279 0.381008 0.205884 0.241264 0.841618 -0.079629 -0.148340 0.663987 0.543463 -0.589809 -0.441089 0.138521 0.066855 0.404685 0.373029 0.333760 -0.382759 -0.078574 -0.348464 -0.094192 0.105787 -0.077546 -0.461619 -0.868673 0.470778 0.102317 -0.526059 0.183270 -0.383898 -0.128664 0.587376 0.560745 -0.303019 -0.987113 -0.469435 -0.077449 0.147843 0.700184 -0.267070 -0.192697 0.403941 0.389457 -0.021327 -0.089708 0.321650 0.133150 -0.300679 -0.337909 0.442227 0.675261 0.461113 0.447795 0.530318 -0.088890 -0.006245 -0.517139 -0.166730 -0.085712 0.481466 0.153627 0.034755 0.054846 -0.131377 0.304340 -0.689572 0.125801 -0.047900 -0.135395 0.145797 -0.372635 -0.204078 -0.452757 0.190552 -0.003989 0.463041 -0.146769 0.256395 0.165284 0.060295 0.385917 -0.348488 -0.319314 -0.190731 -0.728932 -0.447020 0.634150 -0.611130 0.431113 -0.815709
106 -0.061162 0.169124 -0.236363 0.053005 0.152049 0.122276 -0.435862 0.161602 -0.015005 0.067708 -0.235814 -0.182861 0.230817 0.070276 -0.048322 0.347784 -0.321684 -0.043690 -0.054420 -0.052082 0.259494 0.233940 -0.240685 -0.010895 0.070744 -0.006899 -0.162542 -0.187245 -0.448256 0.147159 -0.110629 0.280264 0.002601 0.094004 0.112384 -0.226254 -0.240636 0.346703 -0.009361 0.132015 0.301922 -0.166912 0.026047 0.147673 0.067912 0.186076 -0.009711 0.493450 -0.047576 -0.127563 -0.021056 0.163528 -0.130055 0.254486 0.141849 0.024035 -0.110023 -0.296438 -0.188106 -0.232919 0.137112 0.431542 0.018088 0.089944 0.033281 0.383957 0.346721 0.313938 -0.157332 0.275100 0.193095 0.279907 -0.119006 0.020208 -0.176148 -0.229615 0.134024 -0.014606 -0.185533 -0.350470 0.124379 0.362006 -0.193873 0.201897 -0.196689 -0.275219 -0.062618 0.128632 0.160596 0.297044 0.179451 0.442458 0.188729 0.114002 0.129279 0.246403 0.063508 -0.067399 0.196870 -0.050165 0.344648 -0.088893 0.202665 0.141711 -0.281401 -0.101933 -0.049130 -0.017590 -0.138348 0.003392 0.009199 -0.155175 -0.314973 -0.089973 -0.229925 -0.154766 -0.208416 0.195282 -0.599532 -0.034076 0.141355 0.283467 -0.073817 0.002312 0.027323 -0.042137 -0.166303 -0.155605
295 -0.431707 0.318471 0.229262 -0.048081 0.147526 -0.371084 -0.405987 0.040021 -0.047601 0.359016 -0.070982 -0.321953 -0.363057 -0.063052 -0.253884 0.172268 0.146334 -0.582275 -0.097176 -0.025584 0.158822 -0.535662 -0.196997 0.097253 0.177422 -0.158085 0.011888 0.045657 -0.448340 0.368002 -0.009469 -0.116746 -0.292656 -0.198411 -0.194801 0.572835 0.437842 0.111382 0.539111 0.151570 -0.006886 0.434370 0.020539 -0.403099 -0.116441 0.008637 0.316408 0.466739 -0.153016 0.509296 -0.073221 0.178625 -0.185113 0.178078 0.212930 0.098714 0.002371 -0.235586 0.369900 0.104109 0.119613 0.250053 -0.639775 0.232815 -0.547553 -0.371253 -0.320574 0.109472 0.176973 0.090153 0.174618 -0.147769 -0.242328 0.187313 -0.203531 -0.081122 -0.113184 0.182017 -0.358933 -0.139949 0.094387 -0.459610 -0.197556 -0.002525 0.248723 -0.038045 -0.401526 0.321917 0.240775 0.297696 -0.173217 -0.057527 0.371126 0.229255 0.063744 0.385080 -0.316767 0.213517 -0.219524 -0.234511 0.186662 0.027939 0.508319 -0.152367 0.519750 0.208883 0.307447 -0.233469 -0.641270 -0.107669 -0.084536 0.332482 0.523158 0.231822 -0.029961 0.596135 -0.012003 0.013354 -0.167463 0.378831 0.437504 -0.285734 -0.355290 -0.021323 -0.660044 0.024647 0.387286 -0.245122
429 -0.276077 0.375873 -0.267798 0.346990 0.241190 0.048274 -0.248580 -0.075797 0.083454 0.583057 -0.008184 -0.296415 0.201909 0.025959 -0.030056 -0.620027 0.025463 -0.096539 0.173386 -0.299931 0.483553 -0.027587 -0.259132 0.282200 0.123063 -0.050538 -0.178160 0.783237 -0.487816 -0.052058 -0.146162 -0.114591 -0.061754 -0.318888 0.419877 0.279075 -0.290336 0.215755 0.271568 0.188198 -0.005242 0.233333 -0.164916 -0.414624 -0.140955 0.139422 0.269566 0.100040 -0.257368 0.071502 -0.576141 0.062302 -0.134827 0.010376 0.424557 -0.301666 -0.295245 -0.261387 0.096193 -0.342918 -0.101882 -0.248676 -0.373937 0.576033 -0.193925 -0.562784 0.059118 -0.370860 0.148800 -0.353530 -0.105576 0.013930 -0.203836 0.143504 -0.534744 0.118403 0.352818 0.050013 -0.324500 0.059871 -0.022610 -0.326789 -0.221491 0.164749 -0.005592 0.402722 0.069562 -0.042281 0.033037 -0.047229 0.254215 0.073183 0.276549 0.679240 -0.295531 0.435854 -0.208977 0.211412 -0.199200 -0.527812 0.366978 0.169259 0.066213 0.035247 0.530221 0.149418 0.131903 -0.295860 -0.402196 0.143342 0.063418 0.494479 0.015903 -0.124260 -0.141455 -0.355375 0.256947 0.084157 -0.132065 0.190780 -0.094354 0.039521 -0.757566 0.256193 -0.430972 -0.139966 0.139840 -0.024917
1000 -0.075785 0.262525 -0.177427 0.101379 0.121891 0.112429 -0.378931 0.251919 -0.081521 0.058401 -0.420696 -0.270916 0.174954 -0.040450 0.017742 0.329719 -0.275707 -0.178975 -0.112657 -0.014707 0.123722 0.317520 -0.370926 0.008064 -0.092917 0.092871 -0.025944 -0.133681 -0.434344 0.208968 -0.040448 0.317509 0.028142 0.085964 0.200847 -0.144652 -0.406824 0.301360 -0.041537 0.180260 0.242352 -0.188299 0.148165 0.012727 -0.051403 0.108928 0.002230 0.519498 -0.020997 -0.138280 -0.053148 0.170110 -0.106726 0.306796 0.213705 -0.177435 -0.075829 -0.175001 -0.321700 -0.185710 0.121118 0.299199 0.121299 0.159354 -0.027131 0.350938 0.350145 0.153732 -0.166972 0.293155 0.246999 0.219090 -0.150644 -0.056137 -0.284130 -0.110279 0.129520 0.139958 -0.140347 -0.320292 0.048926 0.393181 -0.177770 0.134756 -0.186522 -0.228815 0.093092 0.094614 0.325251 0.275785 0.061672 0.351892 0.283343 0.112711 0.044332 0.247448 -0.017522 -0.051495 0.047828 -0.041893 0.322740 -0.072032 0.272830 0.180117 -0.180709 -0.000373 0.013826 -0.082856 -0.074059 -0.070278 0.172484 -0.180087 -0.364648 -0.204828 -0.208907 0.000326 -0.323321 0.265253 -0.668354 -0.079719 0.099582 0.337339 -0.081589 0.153185 -0.092537 -0.037598 -0.055737 -0.313720
714 -0.147944 0.215067 -0.117184 0.102610 0.205652 0.164133 -0.370921 0.127989 -0.069288 0.018710 -0.351083 -0.248032 0.209337 0.184962 0.009159 0.256930 -0.366900 -0.230141 -0.055531 -0.059503 0.157441 0.334433 -0.185565 -0.008824 0.067532 0.034849 -0.087385 -0.055597 -0.477833 0.180831 -0.095137 0.309531 0.021733 0.045550 0.138133 -0.149469 -0.347114 0.391238 0.070229 0.133650 0.201135 -0.182935 0.151197 -0.010882 0.084402 0.111781 0.016769 0.605102 -0.116981 -0.089234 -0.078852 0.092128 0.005539 0.370266 0.244726 -0.088651 -0.078491 -0.253706 -0.203362 -0.192301 0.290017 0.329514 0.064460 0.125558 -0.046851 0.313193 0.308038 0.230979 -0.168787 0.389737 0.226330 0.245504 -0.060770 -0.064924 -0.221936 -0.174135 0.033850 0.049453 -0.132653 -0.179037 -0.104167 0.400420 -0.153949 0.191213 -0.103336 -0.167065 0.121120 0.184036 0.271698 0.288551 0.138919 0.381627 0.176708 0.083343 0.215224 0.234269 -0.050299 -0.039376 0.100962 -0.061153 0.327448 -0.030533 0.223636 0.188045 -0.216108 0.058844 0.014987 0.027731 -0.235461 0.019260 0.130066 -0.135759 -0.492501 -0.144341 -0.270360 -0.070283 -0.242971 0.187712 -0.717393 -0.088094 0.128964 0.396330 -0.039108 0.089980 -0.009403 -0.110990 -0.045180 -0.242823
999 -0.171424 0.192559 -0.125027 0.090794 0.142347 0.144365 -0.298601 0.158486 -0.071073 0.045834 -0.431367 -0.204174 0.254349 0.011621 0.023874 0.282386 -0.427542 -0.178135 -0.064950 -0.023238 0.256312 0.328589 -0.220443 0.006305 -0.000568 0.016603 -0.075107 -0.116014 -0.438848 0.117249 -0.052639 0.385324 -0.013314 0.076841 0.179154 -0.117104 -0.301313 0.366474 0.064718 0.126824 0.215269 -0.264194 0.149796 0.023122 -0.007187 0.076021 0.011649 0.676047 -0.028581 -0.088815 -0.065318 0.141763 -0.043125 0.302528 0.232285 -0.170228 -0.178321 -0.206664 -0.233758 -0.205256 0.285891 0.342335 0.002902 0.181226 -0.064256 0.271677 0.479985 0.191545 -0.212410 0.292884 0.291550 0.285811 -0.135905 -0.022732 -0.239967 -0.147379 0.074510 0.074457 -0.172412 -0.289692 -0.008512 0.406570 -0.243095 0.160089 -0.123455 -0.172315 0.142626 0.208842 0.282542 0.329486 0.138988 0.362855 0.288097 0.107057 0.214572 0.224136 -0.041569 -0.098177 0.050175 -0.030575 0.296319 0.054767 0.306685 0.170647 -0.168215 -0.000889 -0.038819 0.052218 -0.168210 0.056989 0.227499 -0.124350 -0.473540 -0.162939 -0.298796 -0.023415 -0.272717 0.252538 -0.696557 -0.091887 0.132107 0.409433 -0.060529 0.116794 0.025786 -0.102336 0.018249 -0.292018
769 0.033554 -0.183441 -0.329054 -0.302241 -0.072604 -0.014439 0.095620 0.073031 0.097956 0.118139 -0.488824 0.090915 0.108815 0.127220 0.301963 -0.040726 0.047265 -0.135984 0.014301 0.298822 0.043891 -0.155080 -0.307028 0.217207 0.023477 0.306075 0.054973 -0.144551 -0.406104 -0.316978 -0.282213 -0.468498 -0.179732 -0.362474 0.262702 -0.150264 0.488782 0.527088 -0.007081 0.100166 -0.100285 0.266255 -0.114406 0.116951 0.018243 0.182524 -0.017910 -0.139387 0.073061 -0.112091 -0.258821 -0.051613 -0.064993 0.314571 -0.119761 0.317109 0.186741 0.567548 0.135316 0.147608 0.218256 0.305209 0.315746 -0.130123 -0.320717 0.276080 0.028082 -0.279874 0.237959 -0.028306 0.128730 0.435180 -0.022491 0.060242 -0.227013 0.171043 0.338207 -0.131604 0.128645 -0.080793 0.222298 -0.092711 0.220883 -0.378976 -0.280383 -0.299742 -0.416638 -0.001753 0.228759 -0.052811 0.116630 0.030549 0.269894 0.109327 -0.356053 0.397414 -0.049512 -0.060150 0.072385 -0.080946 -0.068339 -0.209976 0.267638 -0.234520 0.206953 -0.043693 0.156923 0.075009 0.092346 -0.222677 0.078859 0.183113 -0.735500 0.002676 -0.134306 0.431076 -0.078892 0.383810 -0.546917 0.396110 0.075178 0.231171 -0.284917 -0.035065 -0.327762 -0.447065 0.070829 -0.137797
418 -0.000877 -0.497881 -0.376458 -0.198040 0.097350 -0.071530 -0.183760 -0.413752 0.009629 0.064806 -0.409211 0.203957 -0.356465 0.041285 -0.639696 0.509319 -0.277604 0.018798 -0.547574 -0.437987 -0.002408 -0.141846 -0.201936 -0.013618 0.122135 -0.349201 -0.149069 0.374899 -0.563928 -0.083574 0.003373 0.032922 -0.280909 0.315061 0.466087 0.206838 0.157044 -0.430490 -0.186474 0.430331 0.302122 -0.157764 -0.189804 0.366034 -0.003840 0.108511 0.300561 -0.215256 0.397433 0.218439 0.018134 -0.024502 0.193498 0.088527 -0.330537 -0.125027 0.047813 -0.013428 -0.030603 -0.071487 0.453920 -0.469969 0.311530 0.196661 -0.078727 -0.151438 -0.018715 -0.500001 0.052135 0.013841 -0.144517 -0.414639 0.127466 -0.131136 -0.244998 -0.045435 0.303451 0.123402 -0.274926 -0.064372 0.158361 -0.343219 0.334388 0.380108 -0.012004 0.166113 -0.501939 -0.234360 -0.161353 -0.417831 0.515556 0.172700 0.151314 0.357031 -0.141689 -0.086057 0.058341 0.882875 -0.273815 0.203938 0.407573 0.247193 0.364058 -0.028596 -0.493016 -0.467259 0.332986 -0.298962 -0.211782 -0.260507 0.182612 0.134859 0.005740 -0.260475 -0.697154 -0.039208 -0.095805 -0.080245 0.033190 -0.116546 -0.018211 -0.039970 0.001841 -0.063285 0.206905 -0.169497 0.358378 -0.600128
2006 -0.025827 -0.293866 -0.476508 -0.099608 -0.532189 0.075508 0.144907 0.274052 0.334612 -0.044545 0.341783 -0.331979 -0.390798 0.367998 -0.282966 0.255986 -0.298040 0.000262 -0.123306 -0.258838 -0.226122 0.070179 -0.004815 0.378536 0.038397 -0.273002 -0.181547 0.529868 -0.408393 0.038262 0.394331 0.102209 0.101402 -0.106694 0.256074 -0.811281 -0.257314 0.060679 -0.138515 0.205853 -0.063041 0.156573 -0.647218 -0.470352 0.351428 -0.333866 0.137328 0.222146 -0.199875 -0.081528 -0.127627 0.336089 0.134177 0.141501 -0.444874 0.205716 0.287739 0.034485 -0.448719 0.269442 -0.118986 0.268093 0.032583 -0.191306 -0.341335 -0.481164 0.156828 -0.254670 0.225689 -0.387167 0.234459 -0.341611 0.098082 0.043859 0.090986 -0.259102 0.439882 0.000511 -0.157105 -0.049030 -0.134825 -0.489944 0.104676 0.554612 0.253048 0.206543 0.209433 0.147035 0.275682 0.411527 -0.161661 0.474581 0.044218 0.393520 -0.327426 0.252619 -0.495322 -0.357833 -0.061997 -0.368680 -0.528131 0.356972 -0.273207 -0.186462 0.205019 -0.137656 -0.396282 -0.129749 0.018383 0.246292 -0.116266 -0.235237 -0.507982 -0.192006 0.150166 0.414051 0.101707 0.297817 0.025189 -0.600868 -0.291081 -0.450518 0.339694 -0.601938 0.482704 -0.272004 0.056239 -0.419472
1168 0.075907 0.638728 -0.556197 0.187557 0.056853 0.042786 0.182834 0.408783 -0.382552 0.210170 0.149694 -0.022148 -0.055402 0.223716 0.371892 0.035284 0.194662 0.751757 -0.382340 -0.424141 0.496253 0.071517 0.037146 0.328616 -0.384713 0.124931 -0.370994 0.544850 -0.695942 0.222034 -0.232012 0.079965 0.180967 0.361813 0.362984 -0.134171 -0.203267 -0.008986 0.308865 0.191774 0.259319 -0.218633 0.124410 0.338575 0.508601 0.155556 -0.097440 -0.292230 -0.194174 0.131500 -0.046850 0.557821 -0.131586 -0.376039 0.213739 -0.586428 0.261941 0.519513 0.077040 -0.776318 0.364369 -0.267777 -0.147784 0.362924 -0.037272 -0.489852 0.407371 0.034467 -0.134988 -0.549401 0.102259 -0.139916 -0.282235 0.269245 0.084043 -0.020312 -0.451395 0.012127 -0.000474 0.089784 0.112616 -0.365689 0.226778 0.285247 0.021553 -0.387715 -0.424173 -0.059661 0.397929 -0.426945 0.164222 -0.252751 0.363951 0.242652 -0.391930 -0.003570 -0.043156 0.480450 -0.461331 0.422461 0.237837 -0.141115 0.440012 -0.192126 0.607551 -0.302939 -0.044669 -0.351276 -0.550469 0.152679 -0.007545 0.280786 -0.442329 -0.030436 -0.153168 0.266280 0.021445 -0.279200 -0.507365 0.387838 0.232225 0.180334 0.377222 -0.489953 0.129482 -0.120920 -0.059249 0.250444
57 -0.052078 -0.661035 -0.233920 -0.155281 -0.513452 0.005946 0.387497 0.281994 0.285480 -0.790026 -0.390060 -0.086181 -0.153716 0.048395 0.358272 0.651851 0.259144 0.188775 -0.374856 0.172271 0.145504 0.069007 0.137530 -0.522305 -0.216986 0.085971 -0.277112 -0.293456 -0.627297 0.024758 -0.075187 0.080811 -0.326844 0.340429 0.201020 -0.590640 0.093851 -0.243765 -0.110599 0.367500 -0.390438 0.126762 -0.279508 0.062670 0.491667 0.290450 0.059581 0.239429 -0.568178 0.040406 -0.207859 -0.440675 1.003194 0.097828 0.160366 -0.387954 -0.096661 -0.246786 0.225163 -0.327062 0.251809 -0.491611 -0.133181 -0.120228 -0.838571 -0.594679 0.326574 -0.100046 0.205148 -0.064482 -0.417279 -0.310126 -0.464340 -0.006135 0.217707 -0.182110 -0.180131 0.074807 -0.010700 -0.020288 -0.069467 -0.094204 -0.216873 -0.063463 -0.830815 0.426521 -0.196379 0.003972 -0.156376 0.284236 0.131848 0.422738 -0.104785 0.484741 -0.471661 0.014759 -0.192864 0.148227 -0.126036 0.257783 -0.019727 -0.218328 0.006276 0.021082 0.380166 0.395161 -0.017078 0.159961 -0.033473 0.225598 -0.271192 0.173386 -0.084643 -0.372902 -0.428101 -0.305543 0.652663 0.072840 -0.297416 -0.027722 -0.090589 -0.095555 -0.264731 0.350794 -0.560027 0.047641 -0.137350 -0.301796
828 -0.207199 -0.167958 -0.257651 -0.044874 -0.062488 0.024121 -0.530525 0.215661 -0.475596 0.307760 0.357441 -0.401088 0.185086 0.286156 -0.086992 0.158590 0.392408 -0.124738 -0.297558 -0.033711 -0.404426 -0.320445 -0.326748 -0.195410 0.226940 0.124998 0.691376 0.008860 -0.682471 -0.267923 0.399090 0.268429 -0.262739 0.472535 -0.063766 -0.173051 0.102131 0.402782 0.171579 0.221988 0.261689 0.432618 0.166446 0.040428 0.256134 -0.103929 -0.080924 0.059859 -0.300950 0.133127 -0.259391 0.034752 -0.068095 0.420551 0.271744 -0.086364 -0.380607 -0.006128 0.242495 0.066525 0.095922 -0.108425 -0.145836 0.142116 -0.124578 -0.118461 -0.249135 0.400757 0.197577 0.430725 -0.236101 -0.069267 0.241943 -0.143569 -0.179920 0.028465 -0.281756 0.244884 0.066078 0.144438 0.268546 -0.387191 0.018263 -0.211802 -0.449130 -0.259223 -0.165254 0.116434 0.182070 -0.237487 0.318956 -0.038739 0.191295 0.334187 0.341015 0.292667 -0.107608 -0.091159 -0.222839 -0.200024 0.264564 -0.072603 0.069689 0.110525 -0.006737 0.349797 0.048813 -0.002440 -0.075760 0.136755 0.065993 -0.018009 -0.365883 -0.411353 0.008257 -0.145716 -0.203519 0.027401 0.208322 -0.505608 0.380841 -0.013707 0.149315 0.151703 0.141659 -0.145160 0.130288 -0.021836
686 0.062817 -0.016672 -0.012071 -0.281912 -0.575144 0.020266 0.076688 0.108296 0.365883 0.194648 -0.245987 -0.194617 0.155804 -0.064602 0.361821 0.124313 -0.192876 -0.107253 0.050500 -0.051350 -0.189700 -0.388898 -0.194957 0.251350 -0.076313 0.183928 -0.009632 -0.115176 -0.809668 -0.275442 -0.083671 -0.296650 -0.297368 -0.563472 0.327060 -0.075640 0.346075 0.352268 -0.089919 -0.111707 -0.166071 0.221132 -0.127909 0.121933 -0.124672 0.225404 0.051242 0.077729 0.122008 -0.006755 -0.121685 -0.067147 -0.181020 0.048990 0.112154 -0.131265 -0.102469 0.357463 -0.073045 -0.026679 0.269152 0.407621 0.152320 -0.107220 -0.350209 0.195075 -0.282023 -0.139574 0.351175 -0.300882 0.025824 0.525800 -0.039405 0.032370 -0.340720 0.026755 0.389049 0.121080 0.353094 -0.062146 0.068475 -0.182748 -0.104536 0.098048 -0.293670 -0.404404 -0.643173 0.264614 0.216682 -0.183660 -0.063599 0.299364 -0.101957 0.143712 -0.237317 0.273173 0.135519 0.004487 -0.274063 -0.082574 0.080061 -0.088223 0.334879 0.031586 0.478958 -0.052444 0.040966 0.103056 -0.169361 -0.126336 0.339337 0.002811 -0.744231 0.204552 -0.133305 0.170228 0.052333 0.184612 -0.288630 0.361544 -0.283665 0.206716 -0.173096 -0.179795 -0.188321 -0.248789 0.000606 -0.223524
179 -0.435802 -0.198703 0.134432 -0.335095 -0.078039 0.169404 -0.101417 0.169789 0.106883 0.118328 -0.047171 -0.034059 0.097075 -0.108398 -0.143576 0.289730 0.103633 -0.216343 -0.279659 -0.263845 -0.032977 -0.392139 -0.440230 0.068453 -0.185936 0.151221 0.355888 0.235973 -0.171817 -0.101404 -0.053758 -0.347469 -0.155102 -0.000720 0.224793 0.033202 0.318530 0.438680 0.044672 0.360829 0.330084 0.064208 -0.090094 0.001826 0.090488 -0.051291 -0.080267 0.075079 -0.364914 0.012257 -0.082447 0.220503 0.045078 0.491253 0.304642 -0.074562 -0.156610 0.206021 -0.049391 0.235820 -0.179951 -0.020390 -0.161382 0.212763 0.092147 0.071856 0.148201 0.273966 0.126515 -0.298044 0.303394 0.081199 -0.081599 0.091483 0.070756 -0.034714 0.137674 0.013641 -0.072628 0.283103 0.304323 -0.030122 0.097586 0.015013 -0.568068 -0.060203 -0.070225 0.339305 -0.112855 0.369352 -0.000854 0.550050 0.092484 -0.525343 -0.031735 0.125036 -0.079681 0.147387 -0.003096 0.088016 0.162441 0.400652 -0.007768 0.111868 0.325294 0.377601 -0.054571 -0.426063 -0.163510 -0.248565 -0.104710 0.496219 0.145621 -0.228760 -0.002823 -0.202737 -0.095451 0.230216 0.009151 0.216893 0.373085 0.404210 0.226771 0.045738 0.190313 0.040151 -0.053528 -0.016432
28 -0.109730 0.105939 -0.098116 0.032680 0.041084 0.092014 -0.444647 0.104781 -0.127680 0.025066 -0.309389 -0.319633 0.291437 0.127640 -0.002736 0.355788 -0.390741 -0.099755 0.066141 -0.010227 0.205580 0.355857 -0.222624 0.089894 0.062237 -0.065699 -0.102835 0.005948 -0.404360 0.179846 0.032833 0.309346 -0.009038 0.096608 0.041408 -0.196500 -0.304394 0.304779 -0.007133 0.101768 0.277693 -0.197405 0.074141 0.064644 0.086624 0.100985 0.008165 0.540629 -0.135730 -0.054112 -0.041414 0.141039 -0.116542 0.247725 0.279422 0.033862 -0.154765 -0.330074 -0.124735 -0.090560 0.203844 0.407363 -0.061272 -0.032798 -0.007382 0.343333 0.368191 0.381574 -0.213136 0.257021 0.233301 0.312182 -0.115587 -0.008807 -0.159599 -0.197676 0.070138 -0.030793 -0.267922 -0.322163 -0.075819 0.466184 -0.144488 0.216831 -0.142033 -0.152655 0.075661 0.203605 0.284928 0.313265 0.192153 0.505581 0.110057 0.004959 0.229966 0.193543 0.016579 0.033313 0.199822 -0.005012 0.357194 0.004106 0.296064 0.175324 -0.215600 -0.042609 -0.067760 -0.048025 -0.246306 0.022850 0.128756 -0.140143 -0.444098 -0.157751 -0.217408 -0.140993 -0.243747 0.296646 -0.618858 0.010354 0.077636 0.372011 -0.028786 0.004533 0.058002 -0.213464 -0.132057 -0.279767
1374 -0.359407 -0.450779 -0.099612 -0.024469 -0.640882 -0.421451 -0.045705 0.016452 0.186129 0.141038 -0.484470 -0.223010 -0.158125 -0.186163 -0.112780 0.328252 -0.213241 -0.009777 0.119884 -0.120460 0.276079 0.227660 -0.302217 0.713600 -0.128327 0.142526 -0.011116 0.056919 -0.385984 0.034098 0.158435 -0.107589 -0.268790 0.075976 -0.293151 -0.204383 -0.002566 0.433019 -0.035393 0.083110 0.407450 -0.286189 0.413984 -0.348019 0.715225 0.135274 -0.207798 0.526193 -0.372294 -0.211191 0.153077 -0.125632 0.224187 0.263005 0.396665 -0.011155 0.081205 0.095724 -0.064688 -0.276068 -0.355411 0.283135 -0.094127 0.560197 0.067280 0.122278 0.189361 -0.007760 -0.103026 -0.389645 0.090422 0.318482 -0.468647 -0.346297 0.011336 -0.067576 -0.115394 0.449512 -0.449232 -0.362865 -0.190296 0.580169 0.022530 -0.430066 0.314086 -0.383568 -0.164656 0.225074 -0.177236 -0.195553 0.127173 0.294131 0.786258 -0.017551 0.059784 0.596510 0.009934 0.641544 -0.343407 0.187621 0.224822 0.152434 0.103970 0.336295 0.028813 0.068977 0.208192 -0.343188 0.035204 0.232719 0.724314 -0.218409 0.326729 -0.092337 0.103152 -0.277674 -0.222691 0.004534 -0.639718 -0.289629 0.168375 -0.186774 -0.038762 -0.348680 0.545072 -0.125232 -0.027923 0.150985
