3312 128
390 0.269762 -0.555253 0.659773 0.262046 0.312721 0.024242 0.041914 -0.220079 0.294973 -0.101996 0.388508 -0.007873 0.774617 0.142914 -0.182637 -0.617195 0.022435 0.008779 -0.065193 -0.049169 -0.005042 0.489192 -0.083698 0.335226 -0.171679 0.318403 0.105257 0.687359 -0.108415 -0.181513 0.088715 -0.200276 -0.408787 0.330387 -0.139274 -0.080064 0.178684 -0.005705 -0.012257 0.441311 -0.104782 0.494616 0.130245 0.198011 -0.491787 -0.090953 0.017903 -0.021502 -0.473983 -0.209365 0.226717 -0.049118 0.391814 0.041952 0.082295 0.238292 -0.229393 -0.162210 0.035128 -0.006127 -0.289571 -0.064354 -0.261858 0.044380 0.130685 0.598416 -0.097156 -0.239804 -0.232695 -0.192532 -0.176664 0.468141 0.404960 0.602070 -0.042495 -0.007084 -0.523211 -0.003236 0.040713 -0.441585 -0.124719 0.014015 -0.142929 0.361337 0.061603 0.272324 0.736262 0.169740 -0.318934 0.097347 0.220040 0.070720 0.054451 0.111580 -0.436019 -0.314531 0.341709 0.023677 -0.009437 0.589500 0.032742 0.021415 0.252716 -0.493064 0.071602 0.376182 -0.023043 -0.035250 -0.135723 -0.153108 -0.125401 -0.157467 -0.204552 0.250678 0.346109 0.324005 -0.265170 0.035686 0.090159 -0.045664 -0.189604 0.008974 0.165661 0.066288 0.005972 -0.112880 -0.000737 -0.158717
847 0.147531 -0.224623 0.501789 0.211929 0.104290 -0.554034 -0.086000 0.421564 0.203836 -0.089762 0.632577 -0.309957 0.120149 -0.097563 0.227571 -0.219723 -0.123137 -0.505375 -0.209935 -1.119772 0.184727 -0.366820 -0.302981 -0.030991 0.155253 -0.135903 -0.329177 0.534056 0.223132 -0.024641 0.089118 -0.140383 0.189318 -0.445960 0.608371 0.063108 -0.121336 -0.004239 -0.631507 -0.255242 0.238301 -0.533154 0.022366 0.041398 0.056435 0.504379 0.237821 -0.152851 -0.132140 -0.199822 -0.139410 -0.537877 -0.169156 0.251988 0.175435 0.129981 -0.092659 -0.057246 -0.376857 -0.454407 0.335868 0.187018 0.423398 0.290338 0.061538 -0.218802 0.357614 0.072734 -0.247983 0.018417 -0.299385 0.226396 -0.070458 -0.103395 0.417487 0.094488 -0.316872 -0.076671 -0.146963 0.173514 0.402714 -0.019110 0.079969 0.176783 0.144006 0.281278 0.087664 -0.037890 -0.442724 0.208251 0.289726 0.013556 -0.123998 -0.329611 -0.272145 -0.266750 -0.457548 0.577505 -0.411529 0.052687 0.669201 -0.116087 0.007591 -0.347600 -0.143356 -0.345280 0.305155 -0.255673 -0.246131 0.005597 -0.566288 -0.266577 0.123755 0.506736 -0.074941 0.168452 -0.014002 0.171945 -0.145359 -0.092919 0.268196 0.667915 0.273751 0.016462 -0.193649 0.228338 -0.359872 0.831361
1918 0.678690 0.049645 0.560610 -0.180275 0.405568 0.354137 0.284157 0.064383 -0.220623 -0.389984 0.448852 -0.353570 0.832633 -0.316316 0.373596 0.187070 -0.463659 -0.008270 0.026964 -0.113472 -0.232482 0.072280 -0.283969 0.611719 0.244725 0.684663 -0.269838 -0.122862 0.247640 0.800540 0.060508 0.050024 0.008074 0.041929 0.356333 0.325885 0.137584 -0.453097 0.363543 -0.326728 -0.077535 -0.509663 0.451798 -0.178639 -0.562001 0.053126 -0.300255 0.108829 -0.351827 -0.230734 -0.505897 -0.025850 0.379905 -0.122034 0.531894 -0.071247 0.151084 -0.338070 -0.636238 -0.574888 -0.143121 0.321988 -0.601197 0.460255 -0.005042 0.266172 -0.117373 -0.140343 0.406979 0.738137 -0.052630 0.404750 0.047315 -0.039486 0.690163 0.419999 -0.542423 -0.347142 0.268054 -0.145148 -0.026209 0.247471 -0.022653 -0.616378 -0.038354 0.124324 -0.273107 -0.122078 -0.303574 0.563170 0.603843 -0.561445 0.202244 0.157721 0.181785 0.022825 -0.611400 0.201549 -0.523923 0.725869 0.174582 0.103711 -0.753892 0.226439 0.216264 -0.336382 0.012701 0.225227 -0.614590 0.357242 0.273174 -0.080920 -0.639415 -0.879113 -0.263158 0.315228 -1.061106 -0.367763 0.220005 -0.307110 0.330463 -0.510145 1.089399 0.299518 0.002052 0.395844 0.011320 -0.133995
439 0.153778 -0.449876 0.577326 0.540312 0.561209 0.052610 0.295568 -0.153654 0.548903 -0.082311 0.334806 -0.348906 0.733317 0.546886 0.102773 -0.426890 -0.117898 -0.163047 -0.370368 0.290575 0.334728 0.181638 0.287230 0.630263 -0.096778 0.024412 0.036263 0.529730 -0.262342 -0.088659 0.225783 -0.139047 -0.215581 -0.006115 -0.257493 -0.029898 0.331120 -0.093898 -0.041008 0.282995 -0.498354 0.441669 -0.159295 -0.030567 -0.510921 0.032592 0.038964 0.030822 -0.387044 -0.052425 -0.037135 -0.032343 0.276418 -0.259275 0.533014 -0.122707 -0.087669 -0.381477 -0.141622 0.267151 -0.142646 -0.148678 -0.285847 -0.192971 0.453609 0.431251 -0.204373 -0.111416 -0.193627 -0.422152 -0.369163 -0.099893 0.531443 0.611503 -0.234471 -0.031647 -0.015373 -0.255446 -0.013306 -0.446623 0.144174 -0.288516 -0.022298 0.578826 0.068197 0.151634 0.755000 0.039602 -0.508295 0.029774 0.135838 0.082169 0.283319 0.114993 -0.268520 -0.245622 0.407155 0.044648 -0.076314 0.285795 -0.122011 0.209623 0.186782 -0.292972 0.430279 0.310903 0.154182 0.149965 -0.311583 -0.425152 0.034046 -0.103738 -0.369136 0.219712 0.150693 -0.063595 -0.372878 -0.150429 0.157295 -0.346543 0.077074 0.132409 0.174330 0.053621 -0.188082 -0.147673 -0.161128 0.041975
364 0.051275 -0.242175 0.475171 0.557619 0.530176 -0.178423 0.412912 0.054925 0.516870 -0.068843 0.176901 -0.142745 0.456693 0.437825 -0.312719 -0.392284 -0.072644 -0.276974 -0.071858 0.139992 0.367437 0.069754 0.194522 0.303424 -0.036460 -0.209987 0.015357 0.651323 -0.283450 -0.082324 0.435649 -0.426888 -0.025719 0.181476 -0.524019 0.315806 0.496383 0.034723 0.049795 -0.102536 -0.154222 0.295519 0.240914 -0.172080 -0.259635 -0.060936 0.103894 -0.225881 -0.214922 -0.033869 0.175357 -0.161978 0.241670 -0.286322 0.462585 0.091618 0.140811 -0.449305 -0.073507 0.275748 -0.311406 -0.245723 -0.126200 -0.031625 0.128437 0.317413 -0.473713 -0.489309 -0.224801 -0.290108 -0.461004 0.263814 0.481705 0.469585 -0.032290 -0.156566 -0.175941 -0.175232 0.016931 -0.435010 0.236193 0.099238 -0.094117 0.360982 0.152842 0.212703 0.569623 0.161030 -0.434761 -0.291153 -0.090441 -0.193647 0.445281 0.441522 -0.232200 -0.095448 -0.015425 -0.032206 -0.155613 0.387949 0.228181 0.222072 -0.203222 -0.531217 0.490145 0.338027 0.338571 -0.047061 -0.296211 -0.036333 0.170479 -0.107637 -0.096494 0.285499 0.226283 0.076560 -0.616122 0.209678 0.019398 -0.245094 -0.082829 -0.142382 0.078123 0.203543 -0.300686 0.017868 0.156290 0.131742
291 0.635094 -0.232653 1.063413 0.458241 0.125521 -0.211487 0.121209 -0.042655 -0.128414 0.076268 0.226040 -0.297642 0.409518 0.173494 0.064295 -0.489642 0.131240 -0.188354 -0.290020 0.147561 0.193823 0.155439 0.164562 0.333930 0.237473 -0.081692 -0.123734 0.607930 0.266662 -0.128367 0.081502 -0.819012 -0.642904 0.072082 -0.361662 0.020128 0.627135 -0.014775 0.254793 0.004347 -0.517336 0.526632 0.448088 0.002275 -0.390606 -0.297576 0.415226 -0.163994 -0.439269 0.185958 0.452682 -0.426509 0.445995 0.444847 0.069030 -0.025859 -0.256353 0.010731 -0.221514 -0.020433 -0.515834 -0.385155 -0.567073 -0.155736 -0.322002 -0.351594 -0.025749 -0.028554 -0.521274 -0.106225 -0.422318 0.130716 0.103125 0.569467 0.193810 -0.061431 0.032594 -0.087346 0.225557 -0.089646 0.287790 0.008298 -0.075352 -0.138426 -0.128407 0.376704 0.602770 0.338718 -0.725314 -0.178003 0.393206 0.107321 0.339013 0.294053 -0.117787 -0.476496 0.362556 -0.330099 -0.038909 -0.186334 0.159086 0.035639 0.217136 -0.268204 0.202313 0.357119 -0.140291 -0.482691 -0.188693 -0.193536 0.215510 -0.013205 -0.030764 0.011658 0.216864 -0.083127 -0.344249 0.038248 -0.260259 0.130509 0.053647 -0.182380 0.240882 0.147863 -0.206030 0.089425 -0.152824 0.261385
699 0.418819 -0.229420 0.878009 0.486715 0.266040 -0.273808 0.118886 -0.000405 -0.053130 0.110595 0.409844 -0.333200 0.372555 0.188187 -0.100102 -0.395340 -0.057784 -0.090822 0.001125 -0.159772 0.325763 0.418345 0.340751 0.221662 0.090493 0.110616 -0.081650 0.662480 -0.109693 -0.090049 0.051173 -0.254164 -0.436357 0.201835 -0.219421 0.159954 -0.122086 0.005378 0.058553 0.195937 -0.049483 0.432958 0.656391 -0.001742 -0.399404 -0.053617 0.064894 0.039091 -0.334598 -0.129317 -0.472859 -0.244928 0.345412 0.025173 0.258219 -0.168986 -0.581435 -0.134256 -0.021431 0.432098 0.027248 -0.286543 -0.322841 -0.282865 -0.019903 0.347058 0.121570 -0.077364 -0.053633 -0.066101 0.209973 0.465416 0.366967 0.456687 0.073530 0.016644 -0.257414 -0.083414 -0.312482 0.171021 -0.371496 0.133609 -0.075789 0.508516 -0.160563 -0.012118 0.579256 0.096224 -0.447465 -0.181256 0.297543 -0.230988 0.503657 -0.008677 0.081151 -0.098427 0.173220 -0.230813 -0.108961 0.052980 -0.157587 0.059850 -0.018440 -0.633541 0.483723 0.370382 -0.148233 0.034149 0.022457 -0.447431 -0.004576 0.017404 -0.407817 -0.169716 0.084700 0.107964 -0.350086 -0.426600 -0.335366 -0.060076 0.072711 -0.251527 0.011838 0.081275 -0.464377 -0.159335 -0.052205 0.002093
471 0.154463 0.237396 0.394092 0.449597 0.238121 -0.220290 0.325201 0.504871 -0.156395 -0.127731 0.550754 0.133940 0.439136 0.361007 0.075322 -0.229333 -0.259438 0.084849 -0.340330 -0.147256 0.369869 -0.075957 0.038186 0.035992 -0.213399 0.453676 -0.140644 0.450444 0.495124 0.426658 -0.311851 -0.435139 -0.282559 0.251653 0.579610 -0.349511 0.253435 -0.182389 0.142383 -0.207038 -0.025817 0.452542 0.498933 0.294468 -0.558416 -0.316631 -0.397274 0.202432 -0.258910 -0.030341 -0.129735 0.076742 0.191128 0.012874 0.104928 0.197395 -0.328892 -0.453522 -0.402908 0.146692 -0.306168 -0.241343 0.039316 -0.074794 0.504664 -0.055793 -0.165797 0.172284 -0.121573 0.192343 -0.147909 0.000794 0.904810 -0.170732 0.392626 -0.162549 0.000719 0.160141 0.709724 -0.049667 0.396636 -0.031013 -0.039809 0.116885 -0.050228 0.311511 -0.043795 -0.454105 -0.022589 0.141371 0.345085 -0.041959 -0.125936 0.723724 0.331580 0.154885 0.109829 -0.087248 -0.464200 0.040469 -0.135325 -0.052848 0.083051 -0.057694 0.644888 0.205874 0.390271 -0.379921 -0.608684 -0.261368 -0.020113 -0.043293 0.003435 0.118134 -0.079733 0.380338 -0.380652 0.119917 -0.088850 0.099064 -0.142418 -0.106801 0.431328 0.538125 0.234098 -0.117218 -0.004458 0.213581
643 0.187014 -0.302387 0.735347 -0.068206 0.082415 0.336399 0.100459 0.027300 0.391425 -0.142243 0.641429 -0.190286 -0.048905 0.045784 0.144564 -0.428851 -0.287856 -0.751117 -0.147553 -0.968315 -0.032348 0.359676 -0.237530 -0.080486 0.345307 -0.427854 0.342456 -0.127055 0.339583 0.168549 0.286885 -0.164852 -0.035615 -0.434497 0.624274 0.504344 0.112802 0.304463 -0.945802 -0.148393 -0.535106 0.139475 -0.206257 -0.457383 -0.386057 0.122020 -0.192144 0.156524 0.137618 -0.196312 -0.296422 -0.444029 -0.036057 0.504997 0.042351 0.519589 0.023564 -0.330241 0.198064 0.232101 -0.132539 0.308850 0.049831 -0.168988 0.115522 0.693154 -0.327408 0.498566 -0.209226 0.031481 -0.638519 -0.036122 0.298891 -0.457485 0.447088 -0.274169 -0.278175 -0.278543 0.085719 0.456861 0.037212 -0.201638 -0.419636 -0.001447 -0.355302 -0.314966 -0.305220 -0.230982 0.339656 0.655792 0.452153 -0.062869 -0.475783 -0.475053 -0.359880 0.449447 0.589606 0.350676 0.471748 0.481504 0.018953 0.063218 -0.030966 -0.332692 0.126276 -0.158037 0.208186 0.061936 -0.239592 0.766265 0.117961 -0.092382 0.080813 0.234851 -0.595284 0.167423 -0.302169 0.122904 -0.308724 0.141185 0.000848 0.297675 -0.076395 0.118371 0.167814 0.188796 -0.186923 -0.366535
488 -0.087318 -0.669455 0.834533 0.028665 0.135947 0.473071 0.048647 -0.378903 -0.433094 -0.177415 0.391881 -0.631906 0.118917 0.815212 0.378495 -0.038247 0.372014 -0.779993 0.153866 -0.578784 0.086627 0.208875 -0.355439 0.589733 -0.187081 -0.067975 0.358183 -0.172225 0.066875 -0.269184 0.021028 0.001616 -0.009374 0.088896 0.436108 1.133919 -0.091316 0.251341 -0.876690 0.099372 -0.419914 -0.405085 0.270714 -0.108968 -0.293921 -0.102901 -0.298109 -0.634734 -0.440749 0.238590 0.171312 -0.518195 0.418765 0.778435 0.097077 -0.280247 0.254028 -0.322460 0.557491 0.248178 0.464614 0.276021 0.162165 0.109937 0.181838 0.504989 -0.036882 0.351672 0.654960 0.303403 -0.440812 0.498489 -0.816272 -0.470516 0.037785 -0.328074 -0.059963 -0.284702 0.266007 0.023762 0.072735 0.210158 0.131956 -0.266307 0.482251 -0.415381 0.055638 -0.391646 -0.023578 0.255565 -0.469954 -0.469604 -0.170251 -0.475454 0.022720 -0.310259 0.350927 -0.069047 0.293378 -0.259206 0.153699 -0.136396 -0.200675 -0.703653 0.307737 -0.118737 0.304671 -0.160917 -0.728491 -0.419740 -0.436629 -0.564811 0.057333 0.609626 0.042535 0.207952 -0.857770 0.132006 -0.458048 -0.209874 0.256526 0.127033 0.417711 0.688871 -0.293571 -0.318637 -0.001555 -0.063932
986 -0.026742 -0.593202 0.322754 0.651765 -0.270304 -0.280091 -0.408500 0.481072 0.514705 -0.620672 0.617476 0.084391 0.365312 -0.061197 -0.260377 0.050892 -0.091523 -0.488628 -0.100794 -0.669577 -0.183222 -0.180342 0.268311 0.114209 -0.012400 0.050811 -0.494656 -0.225237 0.066621 0.065824 0.293537 0.612014 -0.695547 -0.204783 0.119661 0.166883 0.309020 -0.541070 -0.691881 -0.573312 -0.406501 -0.652690 -0.523233 0.345109 0.214185 -0.481386 0.932391 -0.335629 -0.001069 0.028939 -0.400593 0.213783 0.281020 0.264505 0.045619 0.014295 0.004742 -0.423986 -0.228204 -0.319892 -0.261901 -0.074064 0.166763 0.192836 0.068847 0.472623 0.278452 0.001223 -0.695210 0.031923 -0.094272 0.434508 -0.172083 -0.104325 0.381558 -0.303112 0.069417 0.287475 0.489339 0.737342 -0.155836 0.258786 0.047701 0.046374 -0.581460 0.040453 0.292483 -0.727232 0.012908 0.011782 0.431839 -0.020629 -0.089459 -0.060374 0.063037 0.173116 0.256462 0.399848 -0.396728 -0.140763 0.350292 -0.412415 0.011225 0.364036 -0.334533 0.364476 0.167616 -0.325904 0.183191 0.419395 -0.412261 0.426793 0.152448 -0.102331 -0.084640 0.533484 -0.735669 0.419555 0.180820 -0.637119 -0.046304 0.414222 -0.092287 0.238898 -0.199970 -0.065854 0.365532 0.939139
661 0.111665 -0.201644 0.275419 0.134733 0.429908 0.094625 -0.442765 0.530249 -0.414177 -0.046957 0.964673 0.396248 0.191600 0.145855 0.461677 -0.144857 0.096112 -0.404297 -0.358050 -1.304168 0.122748 -0.023770 -0.676598 -0.151965 -0.199366 -0.405307 -0.040690 0.446684 -0.296844 0.436558 0.453195 -0.252185 -0.406725 -0.584028 0.731916 0.221210 0.090702 -0.148573 -0.528291 0.052615 -0.038318 -0.195608 -0.185481 -0.256535 -0.009848 0.099847 -0.097979 0.537574 0.016468 -0.431274 -0.274039 -0.231264 -0.457823 0.324846 0.128993 -0.100966 -0.469803 -0.084310 0.388044 -0.246532 -0.115333 -0.381734 0.300371 -0.023647 0.100893 0.511137 -0.248293 -0.007907 -0.240989 0.075556 -0.545570 0.337286 -0.007249 0.067362 0.137172 -0.183644 -0.452398 -0.209560 0.279788 0.131214 0.464013 -0.101471 -0.744832 0.094263 -0.236414 -0.291749 0.398962 -0.383605 0.187661 0.122477 0.372562 -0.325126 -0.248020 -0.794295 -0.435362 0.235376 -0.024874 0.057864 0.474852 0.983506 0.196911 -0.515617 -0.021630 -0.482276 0.482893 -0.065320 0.137670 -0.212526 -0.476481 0.565512 -0.503515 0.299471 -0.108013 0.080642 -0.344012 -0.207893 -0.217208 0.238067 -0.076929 0.144997 0.553494 0.286387 -0.217854 0.035842 0.179141 0.637951 0.086109 0.234943
697 0.234862 -0.235873 0.857087 0.350631 0.732180 -0.192809 0.149387 -0.003084 -0.061859 0.083609 0.251838 -0.066737 0.063642 0.135666 -0.154134 -0.399647 -0.290228 -0.037081 0.138292 0.218012 0.230528 0.380172 0.070197 0.303238 0.023489 0.183083 -0.082720 0.581404 -0.146473 0.000084 0.163217 -0.107593 -0.714167 0.257963 0.057512 -0.187012 -0.106137 0.126866 -0.343325 0.102561 -0.141414 0.388865 0.635298 0.193062 -0.658703 0.028127 0.051848 0.013901 -0.475520 0.231471 -0.091201 0.317578 -0.185754 0.110522 -0.018954 0.518489 -0.107522 -0.109938 0.277397 0.224019 -0.259651 -0.329449 -0.054567 -0.024157 -0.086337 0.320049 -0.340833 -0.084891 -0.441706 0.128063 -0.256490 0.132451 0.300655 0.398984 -0.158196 0.200177 -0.367059 -0.114424 -0.282270 0.067624 0.189579 0.313379 -0.232347 0.297603 0.056628 0.290043 0.191876 -0.177644 -0.242990 0.145329 0.336484 -0.306939 0.533836 0.253363 0.462479 -0.148394 0.126632 -0.007663 -0.376307 0.348776 -0.268701 0.059740 0.109668 -0.554724 0.215531 0.158814 0.118799 -0.254534 -0.271925 -0.224446 0.140686 -0.033420 -0.322197 0.180997 -0.173350 -0.028795 -0.407138 -0.081559 -0.048047 -0.251456 -0.172858 0.188670 0.195436 -0.034307 -0.433471 -0.049527 0.061289 0.090342
659 0.009812 -0.197081 0.400796 0.460857 0.092019 -0.255910 -0.609177 0.103833 0.683522 -0.548114 0.996724 0.461317 0.339963 -0.143349 -0.126029 0.074329 0.138364 -0.635890 -0.090271 -0.674576 0.220434 -0.033584 0.314392 0.252469 -0.307421 0.055120 -0.211959 0.450660 0.030823 0.112752 0.060426 0.415710 -0.421882 -0.862999 0.180416 0.468828 0.302414 -0.547312 -0.299401 -0.593209 -0.219632 -0.445624 -0.506479 0.073453 0.175182 -0.067483 0.594953 -0.104674 0.024280 -0.268615 -0.382895 -0.041929 0.010159 0.214466 0.138883 0.093304 -0.193172 -0.454263 -0.044101 0.153445 -0.313949 0.113658 -0.042406 -0.064210 -0.170565 0.340242 0.091134 0.022473 -0.196543 -0.275921 -0.111901 0.140611 -0.564550 0.111608 -0.126567 0.115810 0.058689 0.202292 0.203212 0.808589 0.011989 0.260049 -0.234552 0.050557 -0.534376 0.445228 0.487410 -0.947847 -0.154281 -0.138962 -0.217919 -0.282368 -0.013262 -0.301719 -0.157039 0.104588 0.227697 0.708384 -0.316583 0.085416 0.527100 -0.241946 0.440208 0.405136 -0.078657 0.405692 0.019585 -0.279467 0.114884 0.342104 -0.234972 -0.093205 0.188272 0.136795 -0.347645 0.311637 -0.387898 0.187625 0.107095 -0.831715 -0.041128 0.190642 0.013649 0.036434 -0.276298 0.033360 0.151971 1.134220
2049 0.841654 -0.009986 0.599261 -0.050345 0.253322 0.255442 0.750225 -0.411415 -0.503235 -0.173897 0.670806 -0.238362 0.826085 -0.348388 -0.157477 -0.219151 -0.678054 -0.067913 -0.122170 0.053376 -0.515608 -0.188219 -0.214738 0.205443 -0.180464 0.866438 0.114522 -0.376157 0.547882 0.146518 -0.055142 -0.516425 -0.802463 -0.113494 0.344806 0.968979 0.112448 0.182660 0.528103 -0.378281 0.116988 -0.790858 -0.230688 -0.182145 -0.276085 0.240148 -0.460575 0.364568 -0.439336 0.044826 -0.241231 -0.010426 0.029561 -0.097775 0.108367 0.192792 -0.333471 0.096693 -0.370754 -0.207223 0.135260 0.119032 -0.598867 -0.206146 -0.151107 0.408960 0.049317 0.151485 0.595025 0.165915 0.049612 0.209293 0.000148 0.426434 0.253607 0.907531 -0.348984 -0.248494 0.395718 0.305783 -0.184483 0.141182 0.013851 -0.248730 -0.724532 0.236818 0.077222 -0.555116 0.056778 0.488074 -0.086010 -0.814270 -0.036553 -0.029015 0.520583 0.236988 -0.047323 -0.068077 -0.583105 0.405210 0.276444 -0.374646 -0.847990 0.382041 0.017181 0.513303 0.162896 0.711658 -0.182360 -0.270459 -0.158709 -0.746243 0.120720 0.133119 0.063256 -0.440217 0.146694 -0.066765 0.188386 -0.595316 0.099638 0.574807 1.134049 0.107371 0.298595 0.701148 0.255549 0.255540
905 0.274098 0.217861 0.506731 0.325373 0.598963 -0.218420 -0.280139 0.022684 -0.585668 0.019938 0.267991 -0.175529 -0.102296 0.043966 0.092714 -0.459193 -0.191939 0.006543 -0.082409 0.220109 -0.274041 -0.243169 0.489642 0.256571 0.377432 0.608456 -0.176604 0.626794 0.001797 0.414147 -0.039274 -0.082864 -0.578771 0.364569 0.126501 -0.291906 0.231201 0.393885 0.388339 0.019267 -0.562863 -0.065650 0.591927 0.417375 -0.439819 0.213279 0.535173 0.184574 -0.312624 0.574880 0.202826 0.112815 -0.023205 0.215440 -0.129580 0.417498 0.109638 -0.270237 0.325971 0.239706 -0.007683 0.175753 -0.083348 0.463753 -0.198376 0.231093 -0.047893 0.025146 -0.520255 0.040194 0.018830 -0.060369 0.171371 0.160010 -0.128745 0.058459 -0.099328 -0.112572 0.352513 0.386785 0.417595 0.173211 -0.346714 0.802371 -0.024554 0.063917 0.261571 -0.453335 0.220673 0.484620 0.252838 -0.300722 0.320176 0.263374 0.113667 -0.118125 -0.079342 -0.054773 -0.087916 0.225452 -0.529928 -0.018069 0.209007 -0.491813 0.077220 0.378505 0.129915 -0.321820 -0.697129 0.267340 0.353590 -0.040187 -0.495902 0.374207 -0.010578 0.314028 -0.313106 0.557908 -0.391553 -0.077471 -0.331515 -0.489388 0.091934 -0.105175 -0.144308 0.193006 0.038668 0.095284
0 0.068710 -0.152691 0.631740 0.044466 1.075951 -0.195046 0.244022 -0.236417 0.544408 -0.081626 0.635505 -0.379741 0.393184 0.525505 1.142592 -0.194558 -0.214693 -0.264996 -0.269221 -0.242204 -0.508138 -0.630436 -0.066871 0.840679 0.048266 -0.090340 0.137570 -0.277488 0.262781 -0.173857 -0.456622 -0.243585 0.338592 -0.099485 -0.085079 0.277312 0.451658 0.138136 -0.512284 -0.506040 -0.034053 -0.249362 0.621882 -0.279926 -0.375860 0.514805 -0.096254 -0.204084 -0.175635 0.170290 0.052624 -0.594852 -0.449044 0.550347 0.261155 0.337328 -0.424660 0.225697 -0.096172 -0.263080 -0.285421 -0.006932 0.385303 0.554009 0.042059 0.238998 0.490033 0.411555 -0.925561 -0.007269 -0.341673 0.102184 -0.493638 -0.589089 0.163222 -0.081884 -0.196921 0.016967 -0.052999 0.348087 0.276510 -0.417996 0.508053 0.182722 -0.585396 -0.202946 0.340088 -0.717757 -0.204701 0.233451 -0.371337 -0.306175 0.682704 -0.453225 0.234180 -0.395936 0.127278 -0.128828 0.201150 0.029468 0.203651 0.199133 0.730526 0.312367 -0.036049 0.203809 0.533104 -0.084109 0.442644 -0.454289 -0.257665 0.125059 0.098036 0.005660 0.240333 0.296490 -0.399487 0.154630 -0.114780 0.274018 0.442300 -0.364628 0.282792 0.390516 -0.536177 -0.155467 0.239142 -0.074980
1236 0.240373 0.102630 0.191347 -0.346251 0.146026 -0.263429 -0.641478 0.302683 0.024873 0.405951 0.385566 0.538395 0.285093 0.926196 0.008883 -0.406551 -0.379346 -0.037972 -0.385104 -0.413013 0.309941 0.308398 -0.083144 -0.124122 -0.379384 0.440023 0.212765 0.605681 0.001174 -0.379332 -0.370729 -0.465450 0.128789 0.105529 -0.127312 0.313481 0.835101 -0.427515 0.194416 -0.048838 -0.196664 0.083850 0.523941 0.216877 -0.055748 -0.599312 -0.249800 0.016647 0.145086 0.471383 -0.126705 -0.177123 -0.586394 0.436682 0.148898 -0.031892 -0.292924 -0.131749 0.101447 0.028493 0.508156 -0.061908 -0.862116 0.319207 -0.116864 0.570421 0.424865 -0.063657 0.191864 -0.055231 -0.703042 0.011112 0.162823 0.087274 0.589645 -0.528845 -0.036074 -0.691148 -0.044716 0.440895 -0.321763 0.467306 -0.423578 -0.268395 0.072493 0.243819 0.620589 0.612777 0.045823 0.642364 -0.676097 -0.443563 0.357150 -0.131795 0.076786 -0.371143 0.479111 0.121245 -0.234183 0.520330 0.113434 -0.483627 -0.347996 0.552458 0.123167 0.102102 0.461824 0.245369 0.378653 0.134025 -0.057287 -0.039072 -0.055547 -0.044019 0.106056 0.369816 -0.015179 0.140171 0.210108 0.031844 -0.156917 -0.384557 0.712580 -0.413131 -0.186272 0.473875 0.116050 0.647046
1406 -0.674630 -0.204029 0.272266 0.201883 0.310950 -0.735359 -0.062189 -0.146348 -0.188541 0.511280 1.109418 -0.540082 0.443958 0.533967 -0.060018 -0.223841 -0.187981 -0.731878 -0.058759 -0.296838 0.399109 -0.324654 -0.298429 -0.329980 -0.538085 0.263033 0.808775 0.764497 0.133039 0.271082 -0.324634 -0.090795 -1.192786 0.279690 -0.093256 0.788980 0.140604 0.093838 0.414833 -0.247604 0.122542 -0.212797 0.748194 -0.010849 0.393336 -0.007960 -0.256787 -0.268572 -0.499165 -0.047506 -0.897182 -0.083170 -0.050391 -0.425083 0.278373 0.209440 0.112032 -0.433266 0.074958 -0.114039 0.670943 0.558378 -0.000397 -0.073067 0.516869 0.575970 0.256645 0.251829 -0.053730 0.419006 -0.283908 -0.124109 -0.458116 -0.145652 -0.357264 -0.027140 0.097097 0.385193 0.800158 -0.411898 0.687828 -0.148566 0.190226 0.034977 0.031914 -0.156788 0.063611 0.454718 -0.340047 0.685688 0.199115 0.590317 0.058041 -0.219307 -0.070781 -0.303665 0.397241 0.033777 -0.101702 -0.098264 -0.278470 0.278872 0.267657 0.274011 -0.161206 -0.232989 -0.123429 -0.473074 0.711948 0.039007 0.235062 0.238967 0.379681 0.215303 0.038625 0.022434 -0.496574 0.083119 0.115113 -0.247660 0.007793 -0.141723 0.715423 -0.339954 0.200432 0.642125 0.358969 0.046840
822 0.405301 0.035125 -0.242565 0.009517 0.210402 -0.240408 -0.118359 0.389693 -0.089058 0.322610 0.201366 -0.109303 0.614035 0.540633 -0.262489 -0.343898 -0.348932 -0.812970 -0.098674 -0.747215 0.028794 0.344895 0.396211 0.761728 0.031805 0.043767 -0.186914 0.406088 0.039582 0.430660 0.031619 0.676785 0.077059 -0.550339 0.191624 0.336398 -0.256395 -0.749881 -0.006496 -0.386308 -0.150406 -0.176961 0.352159 0.435695 0.075832 0.202621 0.161248 -0.227681 -0.664484 0.221660 -0.430557 -0.540067 0.277607 0.759118 0.022042 0.386043 -0.276994 -1.087198 -0.225671 -0.012609 -0.231397 0.398379 0.167745 0.086193 0.138819 0.555513 -0.175089 0.756629 -0.075922 -0.444510 -0.073218 -0.359414 -0.419574 0.503523 0.220501 0.250627 -0.307469 -0.112426 0.517430 0.230082 -0.142392 0.120604 -0.010300 -0.049299 -0.266984 -0.028239 -0.304233 0.016121 -0.090810 -0.295048 0.678948 0.233869 0.657878 -0.503309 0.052910 0.301416 0.281922 0.530436 -0.106809 0.191348 0.153243 0.437239 -0.745378 0.414929 -0.325494 0.250126 0.119498 -0.020791 0.209106 -0.413247 -0.410304 -0.350426 0.074670 -0.107904 -0.112956 -0.228547 0.175423 -0.035706 -0.081288 -0.160890 -0.304340 -0.131602 -0.011974 0.261897 -0.637028 -0.366737 0.257604 0.912178
416 0.132390 -0.184144 0.092096 0.018294 0.115304 0.267243 0.285667 0.208160 0.073482 0.205255 0.330183 0.167555 0.482650 0.438206 -0.055021 -0.441588 0.042668 -0.540860 0.057051 -0.516916 0.758484 -0.033757 0.386785 0.599424 0.411526 -0.074836 0.092590 0.727071 0.031564 0.146704 -0.387642 0.571801 -0.006658 -0.575663 -0.475494 0.276161 0.267353 -0.545903 -0.354124 -0.454929 -0.408365 -0.261416 0.159015 0.131353 0.262668 0.545254 -0.040706 -0.142876 -0.408515 0.118691 -0.074431 -0.789696 0.315802 0.784069 0.166743 0.844179 -0.094145 -0.757996 -0.485946 0.060824 -0.107851 0.403624 -0.099988 -0.027456 -0.492990 0.533655 0.077361 0.373857 -0.075598 -0.727829 -0.064961 0.225996 -0.920149 0.535113 0.218687 -0.078045 -0.483002 -0.046898 0.687365 0.538978 -0.071643 -0.272718 0.059403 0.038018 -0.117610 -0.188739 -0.409589 -0.462723 -0.216708 -0.258097 0.600473 -0.104280 1.163435 -0.182067 -0.009279 0.292444 0.283815 0.306753 -0.163075 0.012753 0.241549 0.041721 -0.382338 0.517042 -0.523079 0.232807 0.052809 -0.206317 0.360286 -0.030729 -0.548367 -0.372379 0.228298 -0.233057 0.043325 0.251222 0.143669 0.073624 0.300563 -0.499742 -0.261407 -0.054480 0.090427 0.348862 -0.434077 -0.219238 0.307391 0.841883
263 0.211824 -0.107415 0.419797 0.255424 0.237435 -0.406209 0.314869 0.115213 -0.344456 -0.056113 0.530898 -0.143904 -0.043180 0.337865 -0.021733 -0.259891 -0.505200 -0.462876 -0.219544 -0.116075 -0.131803 0.025830 0.446312 -0.094844 0.066980 0.064081 0.013194 0.247133 -0.054954 0.054645 0.522765 -0.639489 -0.091347 0.348248 0.018284 -0.042964 -0.002414 -0.110508 0.087908 0.495542 -0.555746 0.232213 0.715172 -0.042059 -0.793682 0.416760 0.207908 0.522812 -0.544146 0.044975 0.072092 -0.552929 -0.304631 0.454749 -0.179086 0.456849 0.194941 -0.529237 -0.067412 0.085528 -0.262642 -0.181574 -0.073178 0.092994 0.105601 0.407837 -0.674143 -0.312204 -0.543527 0.228850 -0.111616 -0.145957 0.251167 0.248062 0.185954 -0.491494 0.206214 -0.081118 0.917557 0.245768 0.286788 -0.274192 -0.019375 0.091320 0.101639 -0.255989 -0.266350 -0.711405 0.219960 0.330641 0.389126 -0.120177 -0.094622 0.644148 0.340151 -0.101195 0.586221 0.328465 -0.189451 0.216913 -0.071679 -0.206830 -0.112779 0.152713 0.075251 0.412792 -0.019186 -0.440459 0.023921 0.439515 0.058929 0.285630 0.035430 -0.011028 -0.384362 0.166994 -0.455366 0.264930 -0.841521 0.209124 0.267952 0.248202 0.120765 0.236352 -0.232437 0.723729 0.423890 -0.261735
780 -0.145252 0.256366 0.494677 0.123816 0.373169 0.277854 0.370900 0.597276 0.021581 -0.062226 0.875581 0.118296 0.094429 0.280764 0.368007 -0.019153 -0.421678 -0.121263 -0.319070 -0.247899 0.196442 -0.044912 0.289584 0.142838 0.146784 0.906900 -0.153128 -0.002894 0.123677 0.590383 -0.018928 -0.442970 -0.149314 -0.115238 0.576135 0.225108 0.254286 -0.248195 -0.040058 -0.715585 -0.259268 -0.000127 0.231687 0.031253 -0.330299 0.174915 -0.346809 -0.006515 -0.593249 0.215450 -0.280073 0.102761 0.300962 -0.328433 -0.213537 -0.472957 -0.342564 -0.012855 -0.016092 0.080966 -0.572389 -0.128054 -0.061666 0.151780 0.374656 0.440212 0.109853 -0.375712 -0.356432 0.122399 -0.237618 0.051020 0.165895 0.078148 0.097240 0.057467 -0.374197 0.009944 0.214925 -0.166372 0.483946 0.086987 -0.014067 0.423909 0.062991 0.217347 0.050508 -0.468426 -0.499193 -0.209847 0.012661 -0.207335 -0.011151 0.408296 0.577603 0.073104 0.052450 -0.156236 -0.350436 -0.008721 -0.145112 0.022400 0.170831 -0.223516 0.302343 0.406671 0.250180 -0.339818 -0.431721 -0.123812 0.463655 0.028794 -0.492503 -0.118894 -0.257726 0.435719 -0.021946 0.344658 -0.296595 -0.035218 -0.520355 -0.559499 0.878164 0.326444 0.027670 -0.030606 -0.409153 -0.016043
31 -0.190141 0.442562 0.601133 0.093960 0.094112 0.117129 0.131465 0.780177 -0.004298 -0.153366 0.453730 -0.512845 0.671895 0.647037 0.283634 -0.496146 -0.613261 -0.028837 -0.147563 -0.112998 0.520056 -0.025829 0.325969 0.100606 -0.131172 0.519694 -0.328401 0.696667 0.296469 0.139119 -0.193102 -0.196322 0.079995 0.326637 0.481238 0.221507 0.166847 0.465786 -0.056962 -0.474079 0.155024 0.283681 0.443467 0.299346 -0.342474 -0.380165 -0.375850 0.411865 0.106804 -0.121785 0.005823 0.129216 0.285407 -0.020216 -0.167899 0.114326 0.072712 -0.415683 -0.302031 -0.242121 -0.466298 0.087140 0.388470 -0.139007 0.553760 -0.176911 0.108533 -0.065738 -0.112650 0.317387 -0.092208 0.070747 0.464325 -0.077674 0.442160 -0.275880 -0.002763 -0.218517 0.245993 -0.134465 0.773294 -0.197165 0.135048 0.211172 0.072543 0.053448 -0.138546 -0.634036 -0.263088 -0.139651 0.153728 -0.014501 0.385950 0.434140 0.149489 0.477044 0.021953 -0.336152 -0.432730 -0.086148 -0.432263 -0.037000 0.022409 -0.022469 0.584563 0.188305 -0.177060 -0.289697 -0.421444 -0.455805 0.216456 -0.237499 0.097428 -0.019758 -0.267800 0.522012 -0.471060 0.370258 -0.397451 0.020604 -0.313397 -0.517618 0.453817 0.156107 0.004879 0.427743 -0.038920 0.282260
732 0.021335 0.172349 0.364662 0.406276 0.080855 0.250720 -0.258348 0.481505 -0.383166 -0.176598 0.666593 -0.461756 0.213059 -0.020444 0.272610 -0.306297 -0.560672 -0.070966 -0.066591 0.238612 0.419807 -0.294374 0.347118 0.216817 -0.047635 0.274259 0.168599 0.417441 0.180452 0.174575 -0.245257 -0.227199 -0.268438 0.461196 0.388707 0.419343 0.106878 0.139291 -0.155080 -0.288093 -0.328512 -0.060728 0.306126 0.455825 -0.366730 -0.256360 -0.037477 0.455048 0.078649 0.219468 -0.030009 0.003574 0.395064 -0.081622 -0.253885 0.575522 -0.425707 -0.447189 0.107966 0.511444 0.077279 0.162994 0.262234 0.307387 0.520391 0.204241 0.021835 0.078100 -0.192139 0.118470 -0.263717 -0.085508 -0.094242 -0.316621 0.014859 0.577578 0.178664 0.149878 0.218162 0.036857 1.097078 0.139954 -0.004120 0.268128 0.175022 -0.093605 -0.111226 -1.017980 -0.007739 -0.143655 0.089554 -0.086891 0.237338 0.003897 0.126530 -0.003147 -0.279837 -0.248148 -0.225516 0.187416 -0.826048 -0.255992 0.010074 -0.347167 0.538068 0.394401 -0.110856 -0.019878 -0.690383 -0.110374 0.471810 -0.208903 -0.145941 0.035528 -0.619845 0.278919 -0.166356 0.498813 0.176445 -0.211114 -0.559356 -0.363471 0.481675 0.195230 -0.162910 0.247593 -0.282478 0.069915
1731 -0.531407 -0.262365 0.561908 0.174118 0.160270 -0.670463 -0.077415 0.016894 0.132235 0.731243 0.863235 -0.305125 0.487856 0.722934 -0.135835 0.033653 -0.239922 -0.873503 -0.331950 -0.239631 0.234532 -0.391911 -0.459840 -0.397902 -0.505851 0.355027 0.944393 0.761617 0.026031 0.272691 -0.069428 -0.091040 -1.460528 0.038377 -0.215852 0.835683 -0.004244 0.174597 0.627701 -0.164501 0.161153 -0.395528 0.389650 -0.026433 0.405038 0.139086 -0.142737 -0.017107 -0.480793 -0.126269 -0.851550 -0.111425 -0.057268 -0.159684 0.257291 0.175505 -0.215391 -0.528190 0.204363 -0.330161 0.553756 0.186173 0.130375 -0.067459 0.271268 0.676529 0.300673 0.024894 -0.026199 0.362928 0.121849 -0.140884 -0.363906 0.192879 -0.356208 0.098208 -0.041015 0.398339 0.995015 -0.298499 0.944291 -0.021448 0.209341 0.078789 0.582259 -0.049280 -0.106416 0.551451 -0.313626 0.842368 0.291557 0.241859 0.071348 -0.217000 -0.245542 -0.200141 0.220787 0.072378 -0.166953 -0.272120 -0.169281 0.176290 0.165746 0.126819 0.121944 -0.371614 0.134204 0.037999 0.579220 0.226259 0.440212 0.025598 0.408359 -0.156626 -0.069854 -0.209265 -0.508137 0.411292 -0.112502 -0.349772 0.288368 0.027664 0.765566 -0.547294 0.050765 0.620269 0.473749 0.053457
631 0.221903 -0.346987 0.382349 0.194572 -0.023069 -0.336052 -0.148686 0.225632 0.302895 -0.418454 0.580926 -0.024289 0.151100 0.042117 -0.042496 -0.070232 -0.070908 -0.657951 -0.115189 -0.683416 0.237139 -0.072749 0.176011 0.318899 -0.208493 -0.509442 -0.313868 0.261104 0.173502 0.201458 0.393459 0.528153 -0.425756 -0.599119 0.153541 0.386120 0.479344 -0.447806 -0.387520 -0.512753 -0.066952 -0.423240 -0.816100 0.270830 0.324931 -0.123666 0.655381 -0.393238 0.022734 -0.228508 -0.585988 0.223225 0.240361 0.209575 -0.030613 0.166271 -0.086179 -0.522434 -0.073361 -0.334574 0.261998 -0.303560 -0.309359 -0.060265 -0.243390 0.453021 0.097279 -0.020106 -0.417239 -0.130698 0.172455 0.120366 -0.230908 0.177669 0.234309 0.079127 0.013132 0.151770 0.362700 0.498529 0.114694 0.543354 0.069039 -0.372367 -0.107513 0.200233 0.180930 -0.866122 -0.208443 0.001605 0.043923 -0.449790 0.058561 -0.216986 0.124528 0.340732 0.176225 0.878746 -0.310955 0.367591 0.329523 -0.306035 0.182014 0.476072 -0.015704 0.373376 -0.028292 -0.141025 -0.078774 0.182951 0.024507 0.062736 0.303721 0.110191 -0.167704 0.617774 -0.406934 0.467459 0.107850 -0.591536 -0.009581 0.127586 -0.235660 0.247281 -0.426901 0.082269 -0.082081 0.806803
483 0.327666 -0.357387 0.591007 0.524156 0.325218 -0.034820 0.191145 -0.234561 0.505228 -0.322035 0.220915 -0.300454 0.584752 0.180563 0.079928 -0.400542 0.169751 -0.375051 -0.239514 -0.048476 0.468789 0.287416 0.199132 0.443447 -0.241223 -0.227657 -0.078019 0.360764 -0.204180 -0.114690 0.359465 -0.372379 -0.116461 0.208949 -0.516427 -0.071370 0.430237 0.039380 0.214560 0.112150 -0.640824 0.559482 0.194845 -0.148480 -0.577301 -0.087491 0.182491 0.189953 -0.449994 -0.129566 0.345275 -0.074260 0.249490 0.140494 0.516650 0.186779 -0.041126 -0.546343 -0.106392 0.055334 -0.173179 -0.141469 -0.409517 -0.002248 0.318190 0.355589 -0.434571 -0.177864 -0.489163 -0.348814 -0.369683 0.062465 0.482021 0.495581 -0.276713 -0.112982 -0.180254 -0.389244 0.042210 -0.335041 0.482830 0.227852 0.025637 0.536747 -0.096335 0.323622 0.631235 0.002534 -0.519321 -0.273701 0.135415 -0.040054 0.294010 0.101851 -0.289529 -0.251414 0.312852 -0.213102 -0.168759 0.255164 0.045904 0.263920 0.252317 -0.031932 0.394095 0.277913 0.080679 0.143085 -0.367237 -0.039723 0.099474 -0.322161 -0.049938 0.249599 0.076498 0.010039 -0.524369 0.293913 -0.134881 -0.195869 0.007810 0.106817 0.106761 0.195495 -0.113513 0.115778 -0.136678 0.116950
698 0.173057 -0.333168 1.114756 0.325588 0.658670 -0.059150 0.397949 -0.035974 0.205085 0.318910 0.199077 -0.538973 0.506723 0.042820 -0.124604 -0.402774 -0.102957 -0.106952 -0.165575 -0.047084 0.266741 0.655833 -0.202091 0.344954 0.342655 0.447807 0.356393 0.339016 0.006291 0.070723 0.339921 -0.246034 -0.565889 0.206971 -0.412084 0.176909 -0.172780 -0.002015 -0.249753 0.135775 0.022123 0.231664 0.256113 0.317669 -0.416751 0.197117 0.240215 -0.137933 -0.377403 0.113819 -0.184552 0.173276 -0.008723 0.104160 -0.096603 0.570686 -0.233190 -0.333843 0.102540 0.369709 -0.097260 -0.222519 -0.100250 -0.234456 0.150834 0.349604 -0.246213 -0.265512 -0.265530 -0.073467 -0.194279 0.261627 0.437227 0.278848 -0.098612 0.059896 -0.797222 -0.208278 -0.180032 -0.426614 -0.182065 -0.040310 -0.167675 0.378812 -0.044010 0.227666 0.511628 0.091920 -0.469613 -0.149123 0.369103 -0.270779 0.693981 0.292631 -0.417046 0.001975 0.210446 -0.140471 -0.211221 0.140615 0.013979 -0.071756 -0.118022 -0.610304 0.163808 0.270583 0.197996 0.060398 0.024378 -0.370730 0.186466 -0.093082 -0.374204 -0.155082 -0.044921 -0.169881 -0.228553 -0.293336 -0.259069 -0.379401 -0.066612 -0.002987 0.029133 -0.280634 -0.553344 -0.220484 0.301177 -0.122202
2050 0.551057 -0.161398 0.291802 -0.203925 -0.116907 -0.070801 0.856754 -0.271621 -0.297910 -0.085390 0.033162 -0.269331 0.805087 -0.141507 0.230801 -0.442832 -0.443077 0.050913 -0.349819 -0.201120 -0.279580 -0.039416 0.011804 0.584230 -0.091392 0.456230 0.444374 -0.669142 -0.250123 0.164429 0.345162 -0.631515 -0.983116 -0.157369 -0.342292 0.382875 -0.074587 -0.213690 0.536427 -0.225208 -0.409258 -0.417989 -0.327096 0.063576 0.364509 0.143051 -0.315504 0.129336 -0.415592 0.273104 0.419133 -0.382820 -0.110050 -0.103733 0.459563 -0.069534 0.005752 -0.154423 -0.240362 -0.100059 0.699753 -0.177952 -0.591856 -0.307338 0.221684 0.174435 0.195986 -0.166948 -0.040294 0.008648 0.248481 0.129602 -0.246364 0.274174 0.651399 0.319529 -0.165596 0.050965 0.240776 0.420646 -0.146273 -0.135606 -0.222440 -0.609397 -0.238043 0.596956 -0.137322 -0.198689 -0.117436 0.404006 0.144811 -1.271103 -0.336624 -0.239485 0.124165 0.029595 0.372867 -0.472985 -0.559121 0.013629 0.003110 -0.213663 -0.305775 -0.254777 -0.105870 0.646950 0.454112 0.756212 0.191225 0.081911 -0.178913 -0.126399 0.278600 0.325553 0.295486 0.161266 0.020005 0.184996 -0.284473 -0.139021 0.203116 0.438767 0.549333 -0.200384 0.041937 0.344074 -0.235662 0.542019
673 0.336767 -0.043569 0.687695 0.334378 0.702871 -0.292461 0.104751 0.162611 -0.032330 0.264137 0.204935 0.282175 0.284129 0.050510 0.239946 -0.486241 -0.158087 0.004094 -0.143846 0.038183 0.006041 -0.179372 0.514589 0.614146 0.176542 0.379031 -0.353013 0.745171 -0.316466 0.374692 0.113719 -0.363247 -0.112265 0.321641 -0.552659 0.302036 0.767347 0.172304 0.234418 0.211447 -0.478705 0.505018 0.287460 0.281453 -0.099825 0.428913 0.472537 -0.409072 -0.042403 0.284401 0.354116 -0.109305 0.324838 -0.114919 0.502034 -0.085113 0.153148 -0.313728 0.554479 -0.091829 0.180014 0.061174 -0.105129 0.058575 0.104312 0.396817 -0.699714 -0.339384 -0.324343 -0.046160 -0.185856 -0.078961 0.464626 0.429869 -0.100218 -0.104053 -0.161141 0.017743 0.305985 -0.001291 0.282104 0.139815 -0.212074 0.495101 -0.023067 0.073630 0.431623 -0.046709 -0.278834 0.037648 0.211548 -0.033165 -0.040353 0.258318 -0.024641 -0.181758 0.095599 0.089543 -0.439274 0.195410 -0.213494 0.167671 -0.187167 -0.742872 0.345251 0.285671 0.398401 -0.484628 -0.308688 0.304074 -0.058096 -0.036289 -0.608064 0.404374 0.509787 -0.139422 -0.329161 0.122108 -0.110418 0.211468 -0.206770 -0.530907 0.232169 -0.271872 0.041665 0.263505 0.181023 0.098840
1599 0.287679 0.446026 0.242711 0.068089 0.292283 1.007693 -0.347303 -0.239265 0.152129 0.030604 0.232990 -0.474269 -0.007336 0.699166 0.553869 -0.970414 -0.121851 -0.414661 -0.489224 -0.372508 0.594967 -0.810410 -0.303627 -0.587179 0.125073 -0.834525 0.376847 0.699178 0.056537 0.173780 0.384549 -0.038917 -0.493077 -0.186974 0.064403 -0.138525 -0.429792 0.232957 0.138077 -0.573386 -0.030193 -0.485504 0.340937 -0.036769 0.314333 -0.113265 0.013475 0.554878 -0.697846 0.279356 0.329103 -0.858460 0.165742 -0.317084 0.450146 -1.100093 0.597868 -0.832314 0.111291 -0.039277 -0.171068 0.031374 -0.549925 0.884542 0.448588 0.400036 0.396135 0.471657 -0.253104 0.319281 -0.573960 -0.325079 0.499661 0.640978 -0.128428 0.037591 -0.426343 0.199664 -0.201805 0.828322 0.241344 0.436256 -0.759661 0.201205 -0.196168 0.215685 0.380159 0.422133 -0.040439 0.258609 0.106749 -0.126292 0.582947 0.131877 0.408430 0.422121 -0.793978 0.243271 -0.575098 0.334053 1.167801 -0.120696 0.284306 -0.368850 0.071396 0.842641 0.039576 0.603048 0.211903 -0.321485 0.366289 -0.079293 -0.306335 -0.355649 0.738680 0.061174 -0.462429 -0.262184 -0.214710 -0.068604 -0.716944 0.974988 0.511491 -0.249238 0.813913 0.595624 0.304797 0.162849
2955 0.525875 0.778520 0.788089 -0.764922 0.642235 0.711562 -0.418324 0.314723 0.104816 -0.113586 0.144753 0.003650 0.926061 0.945572 0.534258 -0.889188 -0.282405 -0.206529 -0.547781 -0.816113 -0.203787 -1.071779 -0.328521 0.734859 0.801239 0.082281 -0.404710 0.616387 0.201424 0.806485 0.051127 0.041673 -0.280706 0.892737 -0.096726 -0.205749 -0.365342 0.798393 -0.167377 -0.358592 -0.337364 -0.931259 -0.073434 -0.131494 0.333605 -0.062348 0.103458 0.290501 0.234772 0.235757 0.412500 0.054438 -0.383444 0.334307 -0.159727 -0.278130 -0.826887 -0.171700 0.535169 -0.336878 0.475206 -0.589286 -0.669609 0.643788 0.226514 0.553011 0.009996 0.231568 0.053354 -0.138094 -0.628706 0.436710 0.516034 0.646803 0.208618 -0.280934 0.284104 -0.141747 -0.083307 0.210984 0.326169 -0.095545 0.382354 0.442056 -0.228874 0.051210 -0.595322 -0.278562 -0.283521 0.440375 -0.400497 -0.307144 0.158132 0.161054 0.323173 -0.343738 0.431316 0.573368 0.020259 0.102905 0.051190 0.172623 -0.654389 -0.796423 0.090952 0.512629 0.723856 -0.234210 -0.233942 -0.206830 0.484079 0.481752 0.629515 -0.747521 0.676155 -0.015025 -0.719865 -0.306963 -0.812056 -1.026316 -0.042448 0.865603 -0.170681 0.525662 0.801332 0.656684 -0.994345 0.593740
685 0.230300 0.249018 0.611461 0.383796 0.402428 -0.284923 -0.215588 -0.341737 -0.413167 -0.178359 0.247418 -0.227506 -0.081642 0.186242 0.151226 -0.279130 -0.247301 0.021172 -0.193037 0.251904 -0.287260 0.035185 0.481812 0.301206 0.191490 0.697323 0.043165 0.307888 -0.017558 0.043738 0.003428 -0.316894 -0.354127 0.427455 -0.320907 -0.693833 -0.082155 0.043498 -0.103957 -0.033348 -0.328363 0.138349 0.618939 0.007389 -0.565509 0.078544 0.373230 0.226083 -0.377706 0.188686 -0.347296 -0.262131 -0.360147 0.496818 -0.040461 0.554220 0.059313 -0.372346 0.352168 0.040952 0.192134 0.045551 0.118283 0.710486 -0.465424 0.231349 -0.469029 -0.136378 -0.670028 0.546853 -0.135053 0.229479 0.022726 0.315155 0.025573 -0.177332 -0.224282 -0.093875 0.464105 0.378911 0.355453 0.269697 -0.354148 0.754773 -0.022486 -0.349348 0.246205 -0.558429 0.004556 0.427400 0.072074 -0.290072 0.290410 0.278853 0.421138 0.199324 -0.086027 -0.040917 -0.048631 0.202335 -0.321669 -0.033100 0.087044 -0.116058 0.107179 0.148710 0.109774 -0.359335 -0.129201 0.019808 0.235556 -0.122574 -0.221534 0.274200 -0.065307 0.176216 -0.545819 0.692010 -0.731327 -0.011282 -0.298649 0.341523 0.391147 0.227878 0.212402 0.529018 0.349841 0.167679
1101 0.118365 -0.663769 0.031555 0.224092 0.076721 0.330277 0.396387 -0.363161 -0.527583 0.164257 0.060421 0.106756 0.378232 0.590021 0.004006 -0.715479 -0.381187 -0.790314 -0.422617 -0.396610 0.461770 -0.533432 0.586164 -0.667511 0.538963 0.327385 0.152291 0.534267 0.674946 0.841499 -0.275936 -1.082754 -0.789658 0.066657 -0.194229 0.792250 -0.090098 -0.028154 -0.298102 -0.329450 0.642833 -0.413603 -0.363134 -0.551095 -0.505118 -0.450522 0.477616 -0.198172 0.015232 -0.597185 -0.661836 -0.296213 0.003390 0.645796 0.155169 0.184879 -0.033742 -0.140348 0.094920 -0.371721 -0.362779 0.534735 -0.440415 0.453185 -0.226120 0.536511 -0.179567 0.220739 0.109988 0.374441 -0.623434 0.051253 -0.640111 0.095680 0.151269 -0.401696 0.137520 0.589927 0.293368 -0.323417 0.268226 0.835253 0.960694 0.290043 -0.084400 -0.712598 0.717888 -0.167115 -0.581916 0.773008 0.146440 0.057836 0.331675 -0.377705 -0.007439 0.465417 -0.566133 -0.100277 -0.041638 0.048126 -0.296546 0.199476 -0.618378 0.089269 -0.047383 0.238741 0.330398 -0.345482 0.001247 -0.393836 0.029867 0.115732 -0.399093 -0.676419 0.130643 0.058993 0.502870 0.954398 -0.783404 -0.436500 0.194651 0.694220 0.158198 -0.919867 0.210660 0.143319 -0.095364 1.003874
979 0.261962 -0.334818 0.526107 0.486014 -0.043812 -0.436823 -0.050723 0.358318 0.337719 -0.195665 0.780269 -0.001821 0.334505 0.029298 -0.222974 0.037495 0.099587 -0.985333 0.163138 -0.846891 0.144489 0.173838 0.037936 0.263644 0.049288 -0.026320 -0.412038 0.128312 -0.163178 0.131739 0.376844 0.414513 -0.214789 -0.691301 0.177099 0.105508 0.039374 -0.314760 -0.482470 -0.461547 -0.198545 -0.562089 -0.670073 0.190929 0.262189 -0.223706 0.948990 -0.345322 0.029616 0.201067 -0.542829 0.002951 -0.167993 0.696655 0.359064 0.040901 0.037647 -0.334445 -0.248510 -0.012011 -0.143500 -0.074837 -0.441381 -0.170845 -0.072952 0.598458 0.048154 0.366126 -0.254638 -0.387040 0.073810 0.059541 -0.384555 0.001523 0.037697 -0.194170 -0.050683 0.173040 0.271480 0.562617 -0.225697 0.514735 -0.190006 0.013441 0.013010 0.219057 0.184324 -0.420120 -0.103165 0.203082 0.236095 -0.367247 0.233188 -0.315588 0.024322 0.233168 0.318006 0.693159 -0.117195 -0.082120 0.407684 -0.102714 0.135874 0.351508 0.008123 0.437556 0.197780 -0.254107 0.257961 -0.110960 -0.199940 -0.122221 0.255095 -0.249978 -0.026255 0.424249 -0.527537 0.547297 0.059796 -0.741915 -0.081824 -0.146897 0.130438 0.011391 -0.407862 -0.056686 -0.008908 0.865889
868 0.178271 -0.341082 0.342826 -0.251255 -0.017397 -0.056263 -0.307870 0.505587 0.116324 0.042054 0.451793 -0.208132 0.744847 1.106612 0.059460 -0.233258 0.088827 -0.298333 -0.023341 -0.819869 -0.883431 -0.095475 0.464591 1.126493 0.511741 0.210462 0.376450 0.120905 0.251680 -0.109826 -0.376500 -0.920482 -0.485706 0.222170 -0.499024 1.138876 0.437210 0.442364 -0.246358 -0.365322 0.053256 -0.240520 0.627245 -0.041417 -0.219270 -0.155140 -0.459707 -0.733905 0.137180 0.065794 -0.199401 0.021658 -0.654030 -0.092646 0.443170 0.388155 -0.699648 -0.113104 0.618148 -0.738045 -0.316590 0.438177 0.431271 0.254476 0.524168 -0.228124 -0.009005 0.421595 -0.991692 -0.057681 0.417975 -0.543248 -0.358205 -0.576299 0.457864 -0.463281 -0.059304 0.058343 0.426829 -0.152414 0.601406 0.012729 0.783827 -0.016020 -0.127120 -0.573304 0.313499 -0.161876 0.268142 0.006561 0.309633 -0.933684 0.320273 0.160844 0.041270 -0.130810 0.053127 -0.140690 0.147690 0.258198 0.176268 -0.573733 0.516090 -0.028249 -0.201519 0.255333 0.594770 -0.093026 -0.074025 0.002822 -0.745770 -0.649756 -0.029614 -0.298898 -0.165067 0.491063 0.156337 -0.497414 -0.103082 0.060380 0.336045 0.098922 0.067064 0.113605 -0.277946 0.179074 -0.038965 -0.106794
769 0.622759 0.384258 0.425223 0.104911 0.587359 -0.445700 -0.170422 -0.187439 -0.526173 0.208125 0.291751 -0.079333 -0.008849 0.442759 0.629250 -0.187762 -0.168262 -0.170565 -0.471718 -0.150596 -0.545393 0.041967 0.571106 0.263939 0.312535 0.717795 -0.077426 -0.007777 -0.334548 0.088005 0.144107 -0.132819 -0.054146 0.141315 0.077503 -0.271112 0.251064 0.024692 0.201041 -0.051909 -0.602951 0.055795 0.441326 0.007540 -0.805886 0.514064 0.353690 0.068494 -0.823340 0.285116 0.035626 -0.248349 -0.234177 0.805991 -0.122658 0.230153 -0.049383 -0.196029 0.537970 0.281168 0.246737 -0.068426 -0.335633 0.456040 -0.536293 0.575720 -0.266207 -0.316750 -0.581809 0.050802 -0.111523 -0.105705 -0.026183 0.093139 0.246217 -0.392492 0.050945 -0.170297 0.414898 0.268427 0.298602 0.192279 0.099985 0.542098 0.096736 -0.362477 0.326809 -0.222492 -0.169252 0.214662 0.021948 0.061545 0.358502 0.804664 0.332352 -0.226495 0.031534 -0.307055 -0.397329 0.254269 0.007991 -0.143258 0.012384 -0.140080 -0.129628 0.366807 0.466086 -0.217529 0.043700 0.312659 0.161719 0.203887 -0.108588 0.191457 0.065075 0.293373 -0.205543 0.623476 -1.050122 -0.014752 0.125106 -0.224084 0.058704 0.006975 0.163971 0.740035 0.447532 -0.175505
616 0.548619 -0.216015 1.039124 -0.099863 0.535878 -0.245348 0.048046 0.100849 -0.172152 0.236751 0.231225 -0.593635 0.095802 0.143212 0.117349 -0.596938 -0.246370 -0.061823 0.024198 0.044888 0.030225 0.844826 0.036672 0.534752 0.449927 0.262618 -0.009623 0.425042 -0.186657 -0.214828 0.048439 -0.023833 -0.937104 0.187916 -0.233423 0.429674 -0.201111 0.126855 -0.003524 0.185896 0.359525 0.349352 0.210265 0.292255 -0.630774 -0.275463 0.551956 -0.137034 -0.284790 0.376702 0.035398 -0.021309 0.283679 0.181101 -0.223491 0.517008 -0.532265 -0.505015 0.546463 0.368254 -0.070074 -0.254937 -0.230071 -0.359243 0.098290 0.160939 -0.020999 -0.373352 -0.424020 -0.131337 -0.277581 0.206666 0.220354 0.267068 0.131140 -0.009807 -0.125429 -0.324236 0.136049 0.005465 0.181232 0.183738 -0.430800 0.208891 -0.470646 0.380861 0.388456 0.208452 -0.612330 -0.268657 0.343087 -0.092667 0.659506 0.432863 0.278376 0.194031 0.041434 -0.233161 -0.253240 -0.143716 -0.195725 -0.190946 0.095890 -0.336314 0.247799 0.141809 0.141451 -0.076552 0.096639 -0.280538 0.112822 -0.031609 -0.263602 -0.104232 0.187211 0.046335 -0.599849 -0.203214 -0.111022 -0.139766 -0.137822 -0.110359 -0.091428 -0.049003 -0.227750 -0.125868 -0.284397 0.174994
460 -0.159874 0.416780 0.268927 0.356717 0.299578 -0.115560 0.189150 -0.311588 -0.085635 -0.227673 0.592692 -0.160181 0.368463 0.354697 0.350536 -0.345693 -0.572453 -0.284125 -0.013874 0.053716 0.153631 -0.199625 0.497395 0.019889 0.356086 0.591555 -0.062170 0.013849 0.369617 -0.267195 0.257516 -0.436744 0.021402 0.416746 -0.216424 -0.163170 0.003608 -0.085947 -0.122679 -0.002377 -0.416465 0.517462 0.767579 -0.162994 -0.722427 0.456359 0.016884 0.423535 -0.107938 -0.047538 -0.351248 -0.363387 -0.169519 0.216616 0.106515 0.230146 0.230974 -0.680784 0.241600 0.122177 -0.212593 -0.650292 -0.215681 0.378558 0.166743 0.372494 -0.445396 -0.522876 -0.623767 0.608806 -0.396482 0.182308 -0.114631 0.349606 -0.222819 -0.429395 0.048072 -0.337450 0.269674 0.100849 0.305679 0.252476 -0.307403 0.471050 0.135690 -0.299728 0.296782 -0.813103 -0.335784 0.200661 0.259120 -0.134703 0.182566 0.285966 0.443457 0.001052 0.130235 0.209424 -0.206267 -0.112721 -0.393369 0.157456 0.132393 0.114281 0.488569 0.088083 -0.143305 -0.365594 0.306457 -0.227364 0.063815 -0.074932 0.268631 0.054269 -0.037101 0.298639 -0.396015 0.722942 -0.653864 0.393478 0.079171 0.408604 0.353011 0.500404 0.264023 0.400054 0.247710 -0.086586
410 0.231820 -0.299469 0.449260 0.296994 -0.080876 0.051601 -0.190082 0.465440 0.597409 -0.211593 0.395362 -0.480415 0.092143 -0.044853 -0.032350 -0.376008 -0.114312 -1.002533 -0.318511 -0.356648 0.152532 0.150738 0.200777 0.258633 -0.112434 -0.463564 -0.367450 0.627353 0.161119 0.320151 -0.401597 0.369349 -0.731579 -0.770262 0.546415 0.795583 0.602460 -0.160231 -0.181296 -0.990748 0.126902 -0.085256 -0.725091 -0.307289 -0.071827 -0.070681 0.688777 -0.940675 0.224949 -0.210990 -0.173650 0.156524 0.002588 0.497455 -0.049011 -0.444163 0.179486 -0.436916 -0.260849 -0.106896 0.136134 -0.094730 0.078976 -0.251176 -0.664192 0.220573 0.566238 -0.166936 -0.560924 0.176159 -0.398780 -0.225221 -0.510441 0.056744 0.162224 0.497650 0.128374 0.296945 -0.087371 0.687156 0.267655 0.260987 0.024059 -0.181827 -0.526455 0.573041 0.018729 -0.735688 -0.757602 0.135218 -0.194086 0.098455 0.356674 0.089891 -0.408049 0.152847 -0.253142 0.396239 -0.002325 -0.086356 0.556822 0.083090 0.264930 0.554824 -0.500693 0.630895 0.454325 0.201448 -0.515648 0.269646 -0.428323 -0.752299 0.368152 0.354051 -0.423257 0.202077 -0.158459 0.368108 0.161942 -0.575598 0.084305 0.110140 -0.041592 -0.037646 -0.098996 0.315623 0.041226 0.590832
516 0.554199 0.047996 0.499720 0.481421 0.463894 -0.032318 0.401227 0.227755 0.295180 -0.245997 0.554914 0.041440 0.471458 0.430642 0.183431 -0.321433 0.040708 -0.163727 -0.191688 0.120934 0.279584 0.198384 0.250491 0.157102 0.231677 0.127688 0.164983 0.649882 -0.183118 0.155354 0.314444 -0.591474 -0.329243 0.346517 -0.088961 -0.063660 0.588220 0.226895 0.189227 0.137989 -0.215753 0.402642 0.081934 -0.176019 -0.442512 -0.217147 0.064985 -0.145153 -0.444677 -0.152517 0.333743 -0.321024 0.176671 -0.178959 0.308118 -0.033536 -0.232973 -0.672348 -0.306668 0.232048 -0.097388 -0.259244 -0.441086 -0.032271 0.240688 0.469698 -0.201697 -0.183958 -0.329310 -0.368457 -0.315136 0.055663 0.547184 0.017744 -0.096940 -0.297725 -0.147941 -0.105641 0.103191 -0.409258 0.222561 0.281890 -0.094650 0.106330 -0.080884 0.197411 0.516050 0.029450 -0.218058 -0.179736 -0.060765 0.052709 0.116662 0.573987 -0.267404 -0.128099 0.546828 0.005378 -0.302266 0.122291 0.057968 0.072864 0.000000 -0.252067 0.358502 0.225887 0.248567 0.104864 -0.238710 -0.420935 -0.044038 -0.278292 -0.007072 0.148603 0.036051 -0.344346 -0.318306 -0.017065 -0.243439 -0.224172 -0.182042 -0.064072 0.094356 0.031379 -0.268504 -0.161358 0.020142 0.138744
495 0.009537 -0.532284 0.431361 0.357135 -0.133527 -0.481821 0.069279 0.288853 0.574513 -0.241655 0.679157 -0.030729 0.421644 -0.036077 -0.478230 -0.117503 0.168694 -0.803014 0.023727 -0.941456 0.145561 0.075656 0.010958 -0.063347 -0.127037 -0.102935 -0.237693 0.122525 -0.286739 -0.046497 0.060661 0.061126 -0.739101 -0.609388 -0.005251 0.325184 0.357814 -0.545813 -0.561514 -0.649625 -0.216277 -0.427552 -0.744413 0.347088 0.409818 -0.387786 0.874084 -0.160145 0.008407 -0.014046 -0.430751 0.207162 0.056635 0.557514 -0.063582 -0.181217 0.153091 -0.237842 -0.202067 0.046441 -0.562145 -0.103939 -0.398095 -0.034486 0.031941 0.494857 0.023859 0.282830 -0.258685 -0.464241 -0.078408 0.352582 -0.354397 -0.115903 -0.137490 -0.287983 0.112228 0.091993 0.470146 0.469441 0.020784 0.449307 -0.028264 0.171907 -0.269834 0.062319 0.574162 -0.760128 -0.001855 -0.099879 0.129659 -0.332691 0.209272 -0.077093 0.186611 0.036823 0.088206 0.645221 -0.155190 0.077144 0.325459 -0.297797 -0.093657 0.555782 -0.386992 0.413583 0.389401 -0.386763 0.338462 0.051951 -0.128611 0.219181 0.252956 -0.121517 -0.334816 0.758369 -0.657079 0.098224 -0.044445 -0.957463 -0.058468 -0.092410 0.055631 0.171188 -0.560347 -0.032351 0.109356 0.895698
917 0.135392 0.350849 0.281091 0.192894 0.498862 -0.318333 -0.033114 -0.391305 -0.175646 -0.072770 0.637114 -0.636080 0.078121 -0.131981 0.224759 -0.286827 -0.090640 -0.747118 0.032154 -0.281719 0.080242 0.054952 0.099667 0.310706 -0.424360 0.148930 0.491519 0.255228 -0.067701 -0.057466 -0.739340 0.524334 -0.259390 0.017626 -0.792972 -0.249625 0.084168 -0.199501 -0.130969 0.113496 -0.919919 -0.705965 -0.037808 0.361441 0.029433 0.257416 -0.373839 -0.288673 0.523561 0.330661 -0.367617 0.093805 -0.031954 0.265140 -0.731874 0.250477 -0.755351 -0.699951 -0.900670 -0.157590 -0.371675 -0.069755 0.368303 -0.420465 -0.338952 0.435278 -0.484005 0.316980 -0.141932 0.254763 -0.885406 -0.341675 -0.406672 0.380307 0.406474 0.577751 -0.037114 -0.136675 -0.124490 0.123973 0.191892 0.089980 -0.328878 0.190907 -0.152998 0.141603 0.602578 -0.345627 0.071801 0.965264 -0.475792 0.101449 0.295131 -0.299035 -0.640755 -0.016727 0.140548 0.028859 -0.430303 0.015070 0.149563 -0.073112 -0.479023 0.345442 -0.102054 0.692927 0.442923 0.415478 -0.104010 0.161592 -0.689537 -0.259200 0.493303 -0.559179 0.247314 -0.276516 -0.943529 -0.021411 -0.707841 -0.288425 -0.235450 0.053898 -0.097247 0.541859 0.181962 0.158847 -0.120415 -0.013072
862 -0.085775 0.224841 0.071588 0.247283 0.283742 -0.253481 -0.307042 0.022067 -0.599224 0.058450 0.836788 -0.537408 -0.021655 0.110873 -0.050295 -0.260263 -0.362460 0.098741 -0.011162 0.342791 0.742315 -0.577552 0.440741 0.122878 -0.162211 0.764554 0.509848 0.532992 0.526642 -0.192638 0.530376 -0.483613 -0.100734 0.922917 0.411901 0.770915 0.378559 0.403748 -0.339913 -0.413295 -0.407044 -0.241982 -0.160510 0.247694 -0.232852 -0.019153 -0.052988 0.097724 -0.006481 -0.151190 -0.256369 0.303136 0.578120 0.057140 0.135831 0.422074 -0.630232 -0.071466 0.113503 0.327248 0.221494 0.453538 -0.380341 0.430031 0.486450 0.169446 0.101602 -0.188325 0.270935 -0.123693 -0.325760 -0.474881 0.029545 0.018748 -0.133276 0.648047 0.162620 0.471916 0.025371 -0.149625 0.902874 0.160263 0.139706 0.152457 -0.594801 0.053525 0.505297 -0.966205 -0.067331 0.562823 0.397581 -0.423468 0.154128 0.047147 0.355740 0.264506 -0.407065 -0.667420 0.183563 -0.170972 -0.506128 -0.586201 -0.131766 -0.697321 0.046545 0.752558 0.119443 -0.228283 -0.985114 0.149239 0.214733 -0.033282 -0.225249 -0.150690 -0.546826 0.372681 -0.015695 0.777525 -0.530016 -0.660691 0.129184 0.000336 0.469470 0.080004 0.222427 0.234592 -0.477457 0.248362
2006 0.423445 0.042313 0.196525 0.172034 -0.106804 -0.093876 1.017004 0.043678 -0.257269 0.037470 0.279234 -0.608039 0.815931 -0.081997 0.111723 -0.291535 0.049130 -0.255066 -0.278671 -0.008337 -0.300342 0.058574 -0.152192 0.690267 0.065945 0.238482 0.575955 -0.859328 -0.265946 -0.075836 0.410840 -0.523565 -0.687038 -0.006650 -0.379605 0.396267 -0.067964 -0.281176 0.539846 -0.336143 -0.653823 -0.584897 0.095874 0.138552 0.270192 -0.097712 -0.223781 0.207059 -0.232438 0.326096 0.135471 -0.149410 -0.179541 0.146144 0.267853 -0.059868 -0.092366 -0.681726 -0.162493 -0.117328 0.635859 -0.125727 -0.598698 -0.037835 0.038297 0.507457 0.394249 -0.366923 -0.316723 0.043878 0.303792 0.053325 -0.038682 0.201834 0.719966 0.574032 -0.356090 0.226678 0.172591 0.431481 0.029291 -0.280858 -0.493254 -0.672781 -0.315888 0.452083 -0.091863 -0.392697 0.065778 0.289308 0.225577 -1.290640 -0.300038 -0.274006 0.043082 -0.146948 0.517736 0.076997 -0.529921 0.005640 -0.166566 0.275392 -0.001616 -0.205560 -0.046861 0.519417 0.499105 0.819842 -0.005944 -0.227222 -0.323658 0.076947 0.279108 0.185896 0.307935 0.454099 -0.218706 0.621358 -0.320230 -0.129879 0.504614 0.321520 0.533887 -0.089794 0.150078 0.428155 -0.190337 0.492272
522 0.450847 -0.261406 1.013938 0.339405 0.323034 -0.131667 0.076371 -0.191833 -0.188111 0.391504 0.327402 -0.507430 -0.265083 0.257124 0.029890 -0.616875 -0.408411 -0.015699 0.028378 -0.424170 -0.007146 0.561306 0.262304 0.229971 -0.032555 0.002024 0.009212 0.927862 -0.043766 -0.239243 0.044739 -0.401296 -0.565410 0.017334 -0.221346 0.166406 0.035165 -0.086722 0.034822 0.316606 0.109135 0.042615 0.671211 0.231646 -0.705151 -0.143396 0.368879 -0.003056 -0.592389 0.056067 -0.050172 0.093454 0.473626 0.137252 -0.119061 -0.132477 -0.638085 -0.228834 0.065937 0.412006 -0.222861 -0.459699 -0.147649 -0.484671 0.247151 0.387036 0.269265 -0.515070 -0.223522 0.261207 0.144045 0.239065 -0.048435 0.405619 0.129626 -0.057412 -0.268632 -0.007688 -0.245889 0.213901 0.112324 0.168340 -0.326726 0.054077 -0.183707 0.465396 0.284407 0.055649 -0.176487 -0.284945 0.554691 -0.340462 0.388272 -0.027279 0.400701 0.104803 0.202323 -0.299333 -0.209285 0.140469 -0.389203 -0.029639 0.108551 -0.583893 0.046837 0.466552 -0.031198 0.015285 0.088606 -0.631651 0.279908 0.420098 -0.114283 0.122716 0.100508 -0.083113 -0.572371 -0.222332 -0.083170 -0.233092 -0.217286 -0.150024 -0.030923 -0.140437 -0.145728 0.219352 -0.035560 0.110668
202 -0.230017 0.215704 0.501519 -0.019693 -0.240671 -0.043999 -0.317001 0.470030 0.049865 -0.352418 0.180673 -0.073944 0.740352 -0.221879 0.338657 -0.628149 -0.236572 -0.013503 0.055360 -0.766387 -0.375753 0.186925 0.045315 0.037134 0.051230 -0.008222 0.182772 0.625712 0.137336 0.133772 -0.090431 -0.130423 -0.345574 -0.274506 0.257062 -0.139324 0.106683 -0.473588 -0.271124 0.197828 -0.328776 -0.636046 0.209837 0.338992 0.130808 0.792175 0.107715 -0.607390 -0.419426 -0.189689 0.255164 -0.577313 -0.694869 0.443232 0.611177 -0.116082 -0.511802 -0.323585 -0.054908 -0.543672 -0.013360 0.309577 0.001689 0.136641 0.320317 0.103125 0.336080 0.081393 -0.198664 -0.429270 0.234013 0.059396 -0.208334 0.376952 0.109382 -0.069376 -0.244090 0.437511 -0.114973 0.760344 0.009244 -0.202106 0.204030 -0.206820 -0.032378 0.325117 0.292084 -0.326583 -0.052329 0.466830 -0.068691 -0.178170 0.096076 -0.070279 -0.202025 0.089077 0.361940 0.438731 -0.157636 -0.135080 0.224164 0.035354 -0.255166 0.068422 -0.412884 -0.293097 0.814563 -0.241286 0.018278 -0.262459 -0.210177 0.163512 -0.325205 0.617858 -0.628477 -0.305401 -0.671485 0.123336 -0.400976 0.381551 0.214712 0.899711 0.200122 -0.037904 -1.052900 0.416498 -0.400372 0.987518
1083 -0.244322 0.457071 -0.521510 -0.818816 -0.233321 -0.090601 -0.477409 0.355329 0.305655 0.107498 0.960485 -0.300370 0.664213 0.372524 0.315131 -1.085515 -0.586997 -0.463847 -0.507211 -0.025850 1.051654 0.499182 -0.011290 -0.124907 0.192913 0.083227 0.087857 0.807378 -0.081878 -0.226841 -1.187364 0.364735 0.140545 -0.331481 -0.057825 0.558123 0.632446 -0.348052 0.191889 -0.208071 0.093521 0.226594 0.427736 0.455831 -0.672373 -0.278342 0.606140 -0.050287 -0.257681 -0.108257 0.133109 0.219635 -0.773762 0.672719 0.655282 -0.325068 0.007850 0.586098 -0.257989 -0.396263 0.481149 0.160247 -0.347455 0.688679 0.316525 0.396425 0.347938 0.143473 0.227483 -0.020476 -0.172730 0.259690 -0.380977 -0.431215 0.295982 -0.715434 -0.122380 0.190443 0.328853 0.752958 -0.221455 0.814683 -0.737157 -0.465907 0.296825 0.420058 1.173855 0.500450 0.059658 0.178916 0.083545 -0.667344 0.048846 -0.008133 -0.090807 -0.383845 0.285605 0.540321 -0.252482 0.930375 -0.060792 -0.469659 -0.501605 0.178823 1.021253 0.330297 0.116432 -0.104665 -0.016773 0.396530 -0.133625 -0.400170 -0.052161 -0.349108 -0.036412 -0.199702 -0.517100 -0.105314 0.342411 -0.700255 -0.236398 -0.335262 0.629099 -0.939239 0.247187 -0.083173 0.349316 0.690942
608 -0.077349 0.196139 0.211097 0.170343 0.159716 -0.438026 -0.146654 -0.153752 0.144324 0.072303 0.140689 -0.428013 0.746906 -0.040870 -0.287430 -0.628494 0.533108 -0.401666 -0.223957 -0.363849 0.450328 0.792406 0.170309 0.806134 -0.194754 -0.261455 0.566207 0.749764 -0.121615 -0.128616 -0.308709 -0.191247 -0.085419 -0.035377 -0.370145 0.088251 0.563222 0.132763 0.032978 -0.184179 0.104191 0.543308 0.225497 -0.178220 -0.973026 -0.090776 0.042184 -0.161692 -0.624848 -0.510611 0.240995 -0.337926 0.209702 0.141956 -0.004482 -0.335997 -0.343875 -0.303824 0.067074 -0.452577 0.096594 -0.043130 -0.527336 -0.157449 0.145774 0.376051 -0.338147 0.032529 -0.095451 -0.204228 -0.344028 -0.053993 0.500324 0.587462 -0.284627 -0.113322 -0.326067 -0.215299 -0.005586 -0.088607 0.262152 0.449935 0.162391 0.521262 -0.092526 0.507207 0.767553 0.028617 -0.794774 -0.318517 0.212285 0.459511 0.026518 -0.178485 -0.573007 -0.154465 0.476563 -0.352556 0.090762 0.683069 -0.157160 0.226460 -0.003068 -0.519554 0.124920 0.502684 0.041096 -0.068544 -0.121092 -0.320446 -0.401180 -0.429219 0.112346 0.359448 0.299023 0.428205 -0.578798 0.267799 0.469131 0.145710 -0.101946 0.262729 0.395724 0.063368 0.216276 0.149988 0.375846 -0.015412
429 -0.018011 -0.078378 0.127408 0.037704 0.145805 0.175462 -0.483818 -0.182828 -0.504787 -0.391809 1.124618 -0.828476 0.595859 0.099721 0.510074 -0.456639 -0.334964 -0.401772 0.025474 0.309390 0.245853 0.171130 0.077071 0.490060 -0.562467 0.521372 0.331351 0.321984 0.098857 -0.188037 -0.326723 -0.260519 -0.209205 0.057718 -0.137998 1.204852 0.200215 0.004593 -0.117330 -0.439679 -0.542980 -0.305414 0.289447 0.318534 -0.003489 -0.001494 0.028194 0.337572 -0.126953 0.370035 0.011216 0.099400 0.437944 0.126838 0.174242 0.122413 0.183431 -0.728749 -0.141298 0.369560 0.379112 0.713200 0.095565 0.521691 0.793812 0.321175 0.136354 0.279668 -0.280772 0.255009 -0.780807 0.066298 -0.449535 -0.624299 0.119122 0.143856 0.128476 -0.138234 0.339611 0.148666 0.948161 0.362490 0.044869 -0.592090 0.128974 -0.107806 0.086728 -0.283545 0.058595 0.063689 -0.079407 0.219411 -0.184645 0.121341 0.091234 -0.512669 -0.089102 -0.580442 0.371357 -0.294552 -0.197973 -0.113856 0.401292 -0.229332 0.177182 -0.094404 -0.153646 -0.254299 -0.494133 -0.322848 0.101368 0.131671 -0.256216 0.418210 -0.527218 0.288585 -0.168270 -0.110091 -0.238113 -0.186275 -0.430785 -0.519753 0.508261 -0.167842 -0.205067 -0.036550 0.071432 -0.225468
441 0.262620 0.215670 0.364828 -0.445539 0.255202 -0.447221 -0.261924 0.397763 -0.194186 0.304051 0.181097 -0.163644 0.444779 1.162771 0.364867 -0.092366 -0.423346 -0.265083 0.103248 -0.065202 0.431404 0.297857 -0.222909 -0.102726 -0.436298 0.445758 0.370575 0.849307 0.146614 -0.015613 -0.315037 -0.572097 -0.270201 0.055042 0.144890 -0.043598 0.742316 -0.185966 0.369587 0.058584 -0.124002 0.283620 0.007462 0.354533 -0.411102 -0.330000 -0.863925 0.118017 -0.169631 0.499488 -0.394591 -0.298292 -0.300965 0.112984 0.217144 0.168949 -0.324899 0.148404 -0.198303 -0.209230 0.035922 -0.089240 -0.366484 0.204230 0.065417 0.493527 0.481718 -0.038594 0.057443 0.028387 -0.202515 0.334128 0.144654 -0.222400 0.225642 -0.472684 -0.035530 -0.598511 0.441058 0.825459 -0.030018 0.214557 -0.598684 -0.137244 0.176496 0.016954 -0.068977 0.354570 0.436397 0.293568 -0.663670 -0.117390 -0.028964 -0.038718 0.313559 -0.064686 0.365580 -0.011368 0.086080 0.880090 -0.271580 -0.299363 -0.722954 0.056665 -0.346068 0.162077 0.564167 0.125877 0.561802 0.170491 -0.290206 -0.145671 -0.040656 -0.453602 0.386126 0.334670 0.221382 0.225162 0.043761 -0.027474 -0.187144 -0.153764 0.816370 -0.692000 0.140670 0.645652 0.475634 0.521630
916 0.208404 0.105427 0.299831 -0.235745 0.311303 0.355025 -0.211052 0.609342 -0.457538 0.142953 0.565321 -0.213252 -0.039389 0.396252 0.772449 0.167313 0.231979 -0.328605 -0.166743 -1.016963 -0.028263 -0.120422 -0.306756 0.342255 -0.317794 -0.634548 -0.128530 0.591322 -0.513995 0.413600 0.178770 -0.082193 0.022681 -0.497727 0.446747 0.003608 0.354282 0.003026 -0.598379 0.126293 -0.042327 -0.721335 0.124530 0.119671 0.362727 -0.157599 -0.267431 0.141294 -0.235561 -0.496935 0.099519 -0.128026 -0.289535 0.273981 0.135435 0.012262 -0.455636 -0.018456 0.094797 -0.213556 -0.079968 -0.778418 0.163828 0.137274 -0.153844 0.478238 -0.199408 -0.303742 -0.290926 0.236183 -0.481034 0.265723 -0.061054 0.023856 0.389917 0.020295 -0.547049 -0.193872 0.362416 0.092904 0.347455 -0.244343 0.010792 -0.119968 -0.094901 -0.590062 0.332130 -0.223883 0.022926 -0.021205 0.093990 -0.142355 -0.098025 -0.952689 -0.283629 -0.008661 0.018263 0.115566 0.252063 0.911836 0.258840 -0.793666 -0.501780 -0.372656 0.220929 0.258658 -0.043848 -0.125575 -0.670652 0.642568 -0.229665 0.284203 -0.000742 0.166791 -0.319265 -0.137173 -0.568393 0.254205 -0.176071 0.041876 0.343926 0.106703 -0.405302 -0.249313 0.045178 0.918362 -0.041984 0.666040
51 0.280354 -0.199092 0.702071 0.322878 0.496644 0.018047 0.305361 0.123512 0.401295 -0.520109 0.588708 -0.072453 0.440143 0.411992 0.015050 -0.412694 -0.039999 -0.076606 -0.134870 0.122634 0.515172 0.356316 0.248141 0.449631 -0.018642 0.032030 0.051886 0.349863 -0.123942 -0.106316 0.196379 -0.292521 -0.286455 0.345267 -0.238775 -0.002278 0.564689 -0.059710 0.132946 0.211889 -0.143867 0.437066 -0.168875 -0.036908 -0.483800 -0.156903 0.269923 -0.402474 -0.710093 -0.199517 0.372438 -0.134919 0.266266 -0.281135 0.222907 0.180966 -0.277783 -0.511489 -0.201305 0.044103 0.145081 -0.196520 -0.533512 -0.004624 0.448197 0.592843 -0.294896 -0.203472 -0.263812 -0.475652 -0.342375 0.031122 0.508994 0.410067 -0.028186 -0.144027 -0.141008 -0.188665 0.223181 -0.286357 0.297604 0.006888 0.034161 0.260085 -0.165254 0.485022 0.700532 0.106199 -0.566972 -0.183968 0.010702 0.213723 0.193735 0.387398 -0.174755 -0.047203 0.239369 -0.077979 -0.349353 0.323433 -0.090413 -0.070352 0.156404 -0.223819 0.292745 0.286996 0.032475 -0.078602 -0.394487 -0.398612 0.158255 -0.222432 0.027254 0.226620 0.189106 -0.178687 -0.312009 0.087921 -0.025771 -0.348897 -0.196539 0.139345 0.188526 0.091397 -0.187867 -0.013952 0.130305 -0.051997
1038 -0.695142 0.656845 0.670214 0.104834 0.885845 1.063473 0.216886 -0.123569 0.403524 0.205619 0.474657 -0.887069 -0.507893 0.645244 0.056392 0.158992 -0.327284 -0.337645 0.447540 -0.748155 -0.180493 -0.989979 0.171771 0.144915 0.379327 0.089468 0.347064 0.254470 -0.302444 0.737046 0.162880 0.231047 -0.815938 0.142229 0.420189 0.269605 0.238171 -0.636680 0.430811 -0.130743 -0.760919 -0.266267 -0.210529 -0.422887 -0.071332 0.394909 -0.025125 0.316465 -0.119328 0.309380 0.226778 -0.820664 0.127081 0.332190 0.447299 -0.268298 0.318269 -0.120265 0.484165 -0.083328 -0.037121 -0.080884 -0.091308 0.147906 0.234659 0.642774 0.739945 -0.005738 -0.714181 -0.244509 -0.269455 0.421786 0.127622 0.219703 0.661042 0.153534 -0.432059 -0.443449 0.155164 -0.082776 -0.040165 0.697607 0.114913 -0.142621 -0.553466 -0.094197 0.503848 -0.033797 -0.513715 0.700598 -0.063622 -0.005535 0.079778 0.057922 0.217836 -0.637536 0.174593 -0.262136 -0.493856 0.837029 0.994203 0.188894 -0.140895 -0.421547 0.468086 0.483605 0.059318 0.243981 -0.326762 0.487208 0.458361 -0.119490 0.306542 -0.114735 -0.083258 0.263644 -0.105400 0.165189 0.046229 0.456311 -0.655690 0.649629 -0.338590 0.337950 0.489521 -0.103423 0.368416 0.405073
748 0.570423 -0.090913 0.900863 0.063028 0.316068 0.034451 -0.052958 -0.011516 -0.101032 0.255864 0.205480 -0.640273 -0.189376 0.223876 0.011246 -0.561591 -0.400302 -0.064338 0.209599 -0.245445 -0.264177 0.520360 0.435281 0.385260 0.170617 0.161684 -0.049831 0.884367 0.030962 -0.294286 0.113957 -0.222851 -0.727339 0.214305 -0.205235 0.368013 -0.143982 -0.002479 -0.157664 0.029877 0.145194 0.094850 0.832147 0.103870 -0.830940 -0.283981 0.151084 -0.139072 -0.342041 0.017020 -0.244344 0.004216 0.493227 0.041504 -0.063891 0.128841 -0.615770 -0.147088 0.067712 0.408024 -0.018476 -0.288516 -0.040214 -0.301823 0.113313 0.267258 0.012650 -0.565756 0.021144 0.354767 0.143119 0.130510 0.070899 0.573575 0.097480 -0.025955 -0.031520 -0.058206 -0.181594 0.135071 0.015709 0.245254 -0.392750 0.267645 -0.208165 0.293245 0.386533 0.138446 -0.260917 -0.217140 0.647961 -0.279543 0.452540 0.094829 0.258744 0.162847 0.145968 -0.504892 -0.353859 0.091761 -0.464565 -0.131808 -0.067750 -0.434412 0.278356 0.417760 0.047735 -0.057297 0.171403 -0.522730 -0.019919 0.077162 -0.267258 -0.023638 0.167358 0.017521 -0.525121 -0.163884 0.067740 -0.344467 -0.254459 -0.107482 -0.029945 -0.008111 -0.143991 0.138098 -0.135175 0.019447
354 0.077155 0.489071 -0.126806 0.399106 -0.065532 0.448605 0.583860 -0.246217 0.237561 0.594151 0.452980 0.006509 -0.393561 0.228524 0.028899 -0.552995 -0.220765 -0.181587 -0.444223 -0.154393 0.275218 -0.339852 -0.119009 -0.312686 0.635809 -0.283285 0.373163 0.593573 -0.592892 0.965942 -0.400705 -0.063210 -0.118790 -0.018317 -0.616111 -0.570303 0.459850 -0.073377 0.219834 -0.563040 -0.062872 -0.318798 0.109379 -0.146866 -0.320247 -0.500224 -0.173510 0.018930 -0.756368 0.194664 -0.354917 -1.142244 0.145827 0.450579 0.292448 0.486614 -0.087885 -0.580904 0.216862 0.217588 0.576832 0.223335 -0.213155 -0.039196 -0.199446 1.186866 0.126247 -0.002104 0.440316 -0.355133 -0.615058 -0.413373 -0.874332 0.386781 0.604019 -0.393957 -0.295128 -0.339095 0.235799 0.332908 -0.087115 -0.083681 -0.031784 0.420316 -0.290160 -0.045170 0.318054 -0.483618 -0.542888 -0.191817 0.503414 -0.099444 0.562240 -0.002802 0.008713 0.216833 0.143248 -0.028878 0.302853 0.193135 0.304580 0.024366 -0.600260 -0.010514 0.131846 -0.042392 -0.158467 -0.973347 -0.234203 0.144656 -0.630908 -0.594188 -0.402711 0.118968 -0.388765 0.255423 -0.611248 -0.442886 0.234940 -1.167317 -0.317157 -0.052146 0.320544 0.066325 -0.050984 -0.470828 0.268885 0.633208
814 0.359657 -0.507862 0.541738 0.002376 0.121534 0.193111 -0.135908 0.263951 0.537913 0.029830 0.519923 -0.456462 0.028508 -0.303618 -0.116755 -0.197259 -0.731539 -0.684554 -0.071765 -1.050508 0.236372 -0.144553 -0.371400 0.116901 0.362159 -0.230631 -0.214149 0.175423 0.653852 -0.149892 -0.297112 0.146278 -0.074732 -0.224078 0.578751 -0.000722 -0.194152 0.228083 -0.965461 -0.004504 -0.393653 -0.292700 0.208493 -0.298559 -0.348180 0.306636 -0.218400 0.192959 0.462510 -0.212212 -0.184693 -0.657634 0.037824 0.276061 0.203776 0.653858 0.080684 -0.024887 0.069569 -0.254686 0.048410 0.566624 0.570652 -0.111788 -0.074412 0.467433 -0.140429 0.575488 -0.464480 -0.137346 -0.545847 0.288359 -0.179328 -0.254253 0.558547 0.113204 -0.403416 -0.324938 0.176712 0.048975 -0.365902 -0.375781 -0.164945 -0.052179 0.117916 0.099357 -0.100862 -0.152735 -0.030204 0.587057 0.095484 -0.101531 -0.286818 -0.232868 -0.190409 0.261741 -0.072054 0.566599 0.116773 0.088990 0.243821 0.114199 -0.195713 -0.252149 0.041482 -0.071322 0.077987 -0.220427 -0.085667 0.522493 -0.251755 0.005994 -0.139705 0.391912 -0.210621 0.160307 -0.471703 0.029690 -0.500634 0.016615 -0.192059 0.295482 0.461905 0.453337 0.170228 0.043030 -0.112588 -0.007556
106 0.631117 -0.279609 0.743615 0.146383 0.380068 -0.173832 0.122282 -0.136187 -0.021064 0.125678 0.113276 -0.361115 -0.178401 0.345911 0.168185 -0.433975 -0.141617 -0.221746 -0.102686 -0.144370 -0.168557 0.533768 0.296689 0.430663 -0.137126 -0.111972 0.007188 0.951195 -0.044971 -0.625346 -0.038532 -0.223493 -0.758670 -0.141487 -0.412137 -0.028402 -0.140391 0.044915 0.142308 0.075221 -0.188366 0.108663 0.469244 0.138556 -0.679364 -0.346782 0.443904 0.056294 -0.584253 -0.210173 0.054708 0.063387 0.515006 -0.205579 -0.120706 -0.016984 -0.822895 -0.137824 0.027963 0.382357 0.105282 -0.401004 -0.321684 -0.220820 0.335063 0.351309 0.318587 -0.191022 -0.237790 0.182001 0.172884 0.005492 0.195131 0.493828 0.217454 0.118630 -0.109981 -0.209966 -0.111280 0.051513 -0.244486 0.314782 -0.396676 0.188118 -0.389745 0.029032 0.315699 0.118966 -0.134790 -0.093410 0.244011 -0.237195 0.290676 -0.243326 0.354074 -0.316103 0.169413 -0.322122 -0.049112 -0.041811 -0.404336 -0.196270 -0.018740 -0.483360 0.183333 0.287626 -0.262908 -0.175832 0.046553 -0.665087 -0.041356 0.081928 0.068147 0.022435 0.147495 -0.112806 -0.536928 -0.332774 0.028355 -0.320728 -0.140297 -0.107032 0.147354 0.063660 -0.077494 -0.020933 -0.126385 0.078017
828 -0.009063 -0.060763 0.573277 -0.015997 0.248539 -0.013115 0.438229 0.551313 0.334412 0.313544 0.017309 0.185694 0.884587 -0.108430 -0.179158 -0.759925 -0.243065 -0.494857 -0.064738 0.227188 0.081424 0.009649 0.380778 -0.101739 0.019351 0.643448 -0.042540 0.294705 0.242785 -0.296939 -0.089689 -0.103835 0.130678 0.270262 -0.039642 0.423413 0.185168 0.197517 -0.235135 -0.244592 0.152426 0.514186 0.595392 0.198120 -0.592004 0.044805 -0.443407 0.227530 -0.060732 -0.104550 -0.265941 0.092393 0.048119 -0.026722 -0.173939 0.326868 0.175017 -0.631241 0.280054 -0.404859 -0.471865 -0.865452 0.201816 0.281521 -0.172931 0.104788 0.079767 -0.381757 -0.313897 -0.149173 -0.302384 0.545817 -0.056454 0.703767 0.294885 -0.062440 -0.197761 0.006323 0.100854 -0.296064 0.120792 0.024857 -0.130456 0.039738 0.198966 -0.044652 0.428443 -0.365537 -0.332384 0.072225 0.272885 0.228190 0.545823 -0.243658 -0.128204 0.194744 0.076056 0.136989 -0.730004 0.105602 -0.460326 -0.068425 -0.240476 -0.387662 0.415986 0.362143 -0.090340 -0.609344 0.281245 -0.692775 0.540542 -0.387392 -0.094547 -0.227866 -0.168611 0.231014 -0.593107 0.293012 -0.303047 0.408158 -0.245544 0.130260 0.038531 0.050989 -0.160893 0.371427 0.092212 0.279863
2024 0.275624 0.141113 0.262651 -0.519505 0.027036 0.006746 -0.627907 0.031780 -0.186914 0.625450 0.276344 0.388553 0.575560 1.145053 0.158033 -0.152167 -0.413045 -0.229600 -0.022358 -0.725680 0.214327 -0.006183 -0.054994 0.374651 -0.384589 0.437825 0.542754 0.320395 -0.023891 -0.370580 -0.093426 -0.253129 -0.175787 0.408827 -0.010135 0.122674 0.687168 -0.726156 0.078557 0.077071 -0.311832 0.304045 0.215466 0.234441 0.180502 -0.511569 -0.589529 -0.243008 0.355336 0.246542 -0.203792 -0.056111 -1.095386 0.286499 0.366721 -0.115139 -0.261470 -0.309096 -0.068951 -0.280840 0.557606 -0.093051 -0.619695 0.203545 -0.181950 0.691799 0.191108 -0.254280 0.050719 0.070105 -0.989214 0.190578 0.114439 -0.027541 0.418388 -0.427447 0.154337 -0.444069 -0.114825 0.288254 -0.537213 0.313531 -0.316154 -0.170507 0.363448 0.189483 0.761047 0.704391 0.121126 0.488072 -0.775688 -0.232160 0.649434 -0.060002 -0.151346 -0.581384 0.308697 0.365390 -0.377215 0.384264 -0.130255 -0.352327 -0.642650 0.113971 0.112684 0.348563 0.521633 0.136234 0.003586 -0.030597 -0.076600 -0.196977 0.233135 0.059335 0.135429 0.149235 0.016580 0.139260 0.354774 0.028253 -0.013453 0.048577 0.790222 -0.031303 0.199945 0.649849 0.315929 0.487176
714 0.687568 -0.203513 0.926913 0.134336 0.477208 -0.143116 0.201610 -0.016984 0.002745 0.174071 0.423571 -0.467948 0.027687 0.281218 -0.076040 -0.408553 -0.536526 -0.027560 0.202697 -0.062021 0.000285 0.609722 0.400741 0.288532 -0.004517 -0.074075 -0.138279 0.922989 0.132597 -0.266677 0.144513 -0.166088 -0.595723 0.171213 -0.085556 0.199828 -0.213546 0.071339 -0.070011 0.059484 0.205223 0.293804 0.809981 0.135715 -0.677023 -0.343000 0.143793 0.065066 -0.337441 -0.198526 -0.345676 0.029774 0.534255 -0.143551 -0.021571 0.191295 -0.757855 -0.085032 0.037200 0.420917 0.064383 -0.300407 -0.168581 -0.224564 0.286167 0.470432 0.245188 -0.506106 -0.066158 0.351444 0.243905 0.226640 0.021234 0.518647 0.069612 0.040772 0.086663 -0.146519 -0.061027 0.207820 -0.034640 0.337538 -0.352137 0.273711 -0.270299 0.260296 0.395346 0.060454 -0.244316 -0.105272 0.588935 -0.204163 0.514748 -0.098031 0.295982 0.141919 0.094246 -0.304508 -0.276779 -0.056697 -0.574550 -0.213630 0.021577 -0.516123 0.363233 0.405975 -0.400900 -0.183732 0.239260 -0.559622 -0.225635 0.081381 -0.185672 -0.030957 0.146614 -0.095328 -0.518832 -0.222436 -0.052902 -0.316276 -0.142884 0.073495 0.059148 0.026509 -0.156374 0.083713 -0.138271 0.196039
1460 0.173744 -0.213701 0.364054 -0.034656 0.560024 0.417425 -0.033180 -0.039928 -0.294623 0.886578 0.641061 -0.481327 -0.768311 0.277761 0.136250 -0.882724 -0.718469 -0.266178 0.048367 -0.963426 0.043364 0.714292 0.378730 0.186501 -0.094956 -0.163249 0.545020 0.655457 0.190152 0.024993 -0.008402 -0.469327 -0.446668 -0.143772 -0.284377 0.259398 0.349814 -0.148821 -0.203378 0.143480 0.092591 -0.439287 0.959605 0.348542 -0.623873 0.041641 0.201528 0.118101 -0.687712 0.071733 0.022149 -0.211067 0.256734 0.255829 -0.339452 -0.378027 -0.534193 -0.156312 -0.308224 0.341383 -0.288314 -0.908770 -0.088898 -0.394234 0.108765 0.091432 0.508738 -0.785764 -0.113057 0.252817 0.345228 0.341635 -0.318713 0.456041 0.314995 -0.113523 -0.371971 -0.112365 -0.492597 -0.070224 0.171661 0.672939 0.337421 -0.005178 0.064786 0.531897 0.148310 -0.135066 -0.211321 -0.180334 0.671830 -0.564333 0.091785 -0.222790 0.451514 -0.093339 -0.509787 -0.255279 0.086430 0.187780 -0.181297 -0.152552 0.003054 -0.469047 0.211529 0.748062 0.552750 0.207208 0.015705 -0.641082 0.313494 0.320834 -0.533938 -0.296322 0.077813 0.443092 0.000275 0.251535 0.117615 -0.408876 -0.533876 -0.872221 -0.050483 -0.154253 -0.012274 0.669258 0.347284 -0.184595
2832 -0.108264 -0.658431 0.332123 -0.232223 0.259719 -0.467834 0.187609 -0.513704 -0.654898 1.360589 0.019004 -0.293021 0.485537 0.637579 -0.067375 -0.252429 -0.860966 0.430977 0.659318 -1.075085 0.013948 0.783750 -0.517669 0.142513 -0.859554 0.516523 0.204060 1.162001 0.392369 0.300979 -0.024795 -0.867809 -0.165642 0.151497 -0.409407 0.452161 -0.575307 -0.713623 0.852183 0.044314 -1.017743 0.064979 0.411692 0.284006 -0.518359 -0.080910 -0.638659 0.619887 -0.942321 -0.075450 0.157877 -1.164942 0.425424 0.237169 0.868645 -0.079552 -0.055903 -1.237692 0.135521 0.380422 0.290843 -0.088961 0.159049 -0.495667 0.372134 -0.588868 1.230981 0.838524 0.601361 -0.319883 -1.043896 0.677023 -0.840506 -0.394161 0.666633 0.341438 0.601289 -0.096013 0.614426 -0.543383 -0.039804 -0.028364 -0.903658 0.312915 -0.074257 -0.907793 0.190211 -0.834987 -0.944908 0.152168 0.050764 -0.747963 0.136214 0.092443 -0.747289 0.120711 0.595925 -0.590931 -0.091427 0.433850 0.455400 -0.378009 -0.340761 -0.091722 0.325919 -0.603661 0.148714 0.234459 0.318951 0.007335 0.037190 -0.747020 -0.252455 -0.120974 -0.113228 -0.373476 -0.340649 1.122374 -0.658161 -0.063861 0.920071 -0.296237 -0.151481 0.088440 0.016938 0.133986 0.112190 -0.003086
1004 0.719617 -0.481891 0.601253 0.268777 0.191624 0.061706 0.449440 0.242746 0.205978 -0.380584 0.271267 -0.285065 0.159935 0.716397 -0.285503 -0.589917 -0.477250 -0.193477 0.045383 -0.158855 0.551367 0.047826 0.399424 0.287492 0.185751 -0.209730 -0.031396 0.004854 -0.278984 0.289190 0.009504 -0.577948 -0.277906 0.258139 -0.235658 -0.365307 0.783410 0.086493 -0.180112 0.345964 -0.191562 0.435366 0.020074 0.091667 -0.209769 -0.619259 0.295233 0.215612 -0.392041 -0.066766 0.388977 0.166076 0.284438 -0.298649 0.541067 0.339327 -0.319008 -0.844791 -0.018299 0.170558 -0.119636 0.014263 -0.458072 -0.155832 0.581804 0.185613 -0.039602 -0.017169 -0.274774 -0.272922 0.296521 0.184546 0.342980 0.264659 0.139273 -0.069238 -0.040713 -0.532320 0.217018 0.097669 0.096848 0.195064 0.073364 0.059825 -0.233820 0.494897 0.436237 0.013575 0.271588 0.201906 0.104943 0.027962 0.401060 0.540989 -0.087275 -0.034248 0.443076 0.056668 -0.655192 0.160956 -0.218365 -0.021989 -0.216994 -0.288255 0.504542 0.232245 0.134721 -0.184448 -0.472551 -0.647924 0.331337 -0.317498 -0.243281 0.009654 -0.076051 -0.315158 -0.476369 0.130110 0.045994 -0.165315 -0.075002 0.283031 -0.173185 0.004924 0.102751 0.146054 -0.068768 -0.129913
1500 0.002938 -0.075482 0.275600 -0.729553 0.233639 -0.038567 -0.421153 0.295337 -0.190513 0.574448 0.269046 0.884255 0.420015 0.983769 -0.190015 -0.452632 -0.310818 -0.028259 -0.234789 -0.721778 0.173576 0.131301 0.139227 0.238672 -0.115874 0.530632 0.359095 0.567561 -0.186404 -0.297078 -0.020002 -0.287877 -0.219049 0.273217 -0.130041 0.572152 0.596747 -0.776055 0.167228 0.080539 -0.496428 0.058055 0.340527 0.046800 0.116002 -0.600383 -0.502345 -0.127435 0.254688 0.317425 -0.418167 0.002765 -0.949409 0.098450 0.361253 -0.309653 -0.430938 -0.372391 0.169910 -0.461097 0.519365 0.063062 -0.889219 0.406560 0.230303 0.747767 0.131183 -0.121299 -0.032385 -0.038596 -0.882502 0.186387 -0.272114 -0.160407 0.307227 -0.312557 0.053239 -0.636760 -0.163764 0.089100 -0.354584 0.253067 -0.035158 -0.011112 0.206457 0.338903 0.597797 0.888855 0.224251 0.714459 -0.642454 -0.522421 0.692802 -0.318608 -0.171885 -0.776407 0.384392 0.260757 -0.369319 0.168386 -0.280995 -0.433986 -0.228559 0.476498 0.121133 0.273586 0.489448 0.193895 0.202373 -0.225122 -0.053122 -0.197772 0.233472 -0.211367 0.094408 0.280622 -0.526993 0.263606 0.397522 0.068054 -0.058087 -0.343852 0.767564 -0.384280 0.004197 0.915109 0.053186 0.516366
326 0.172232 0.384426 0.511518 0.271364 0.682782 -0.355151 0.391961 -0.179144 -0.357552 -0.051002 0.425777 -0.163133 0.050603 -0.202236 0.230234 -0.284685 -0.268280 -0.524684 -0.316947 -0.372002 0.434035 0.031301 0.049948 0.240429 -0.412531 0.045893 0.427646 0.364410 -0.381464 0.151709 -0.544039 0.298444 -0.246046 0.095413 -0.647956 -0.299964 -0.042408 -0.215679 -0.191067 0.159017 -1.000591 -0.720795 0.116422 0.416228 -0.081409 0.213447 -0.464395 -0.180406 0.550891 0.448130 -0.427310 0.054745 -0.220575 0.391209 -0.540964 0.207851 -0.708974 -0.695803 -0.690073 -0.147316 -0.100979 0.120827 0.288967 -0.340711 -0.458731 0.529355 -0.272489 0.398329 -0.050993 0.157045 -0.957600 -0.254096 -0.084210 0.385166 0.567646 0.448085 0.069526 -0.292258 0.074453 -0.098624 0.246500 0.156942 -0.652059 0.331014 -0.556076 0.164889 0.395053 -0.330423 -0.252340 0.787713 -0.566854 -0.097201 0.134371 -0.387890 -0.607557 -0.164493 -0.007804 -0.098494 -0.528913 0.250935 0.097291 0.095496 -0.391508 0.686661 -0.206669 0.995095 0.474295 0.293861 -0.211852 0.101477 -0.693182 -0.536751 0.409091 -0.644230 0.503908 -0.201200 -0.771096 -0.056109 -0.561437 -0.395480 -0.417067 -0.060362 -0.080422 0.409644 0.211993 0.330428 -0.218983 0.090399
79 -0.077183 -0.164854 0.121138 0.271361 0.048932 -0.106367 0.660504 0.412698 0.386799 0.174474 0.312920 0.317201 0.615375 -0.103730 0.118230 -0.690249 -0.620252 -0.443573 -0.095987 0.438572 0.035778 -0.245953 0.383442 -0.196287 0.162159 0.793421 0.069041 0.410677 0.520675 -0.002041 0.015950 -0.500291 0.137712 0.344423 -0.282642 0.391525 0.209660 -0.032484 -0.300969 -0.285920 0.196045 0.547431 0.536805 0.129720 -0.742731 0.141275 -0.523365 0.189560 -0.211728 -0.238882 -0.252521 -0.064657 0.033351 -0.120345 -0.178174 0.163989 0.177330 -0.546612 0.108411 -0.092580 -0.446167 -0.804769 0.216255 0.295738 0.181546 0.216926 0.054497 -0.605185 -0.197572 -0.023703 -0.406953 0.425101 -0.305838 0.457107 0.212352 -0.183943 -0.276992 0.060822 0.087593 -0.308236 0.172164 0.235951 -0.301770 0.220803 0.202717 -0.407136 0.402718 -0.455126 -0.332934 0.323761 0.126502 -0.154159 0.474272 -0.325397 -0.058913 0.214269 -0.073521 0.301600 -0.326720 0.164688 -0.302591 -0.073701 -0.067171 -0.318579 0.275800 0.435490 -0.182566 -0.582141 0.289873 -0.367098 0.496266 -0.505088 0.211223 -0.426037 -0.139534 -0.070392 -0.440687 0.497180 -0.339862 0.596695 -0.278542 0.164054 0.098454 0.381874 -0.121494 0.642979 0.203421 0.188423
3274 0.093541 0.172120 -0.120375 -0.511080 0.322193 -0.217674 -0.398326 -0.042891 -0.456166 -0.547213 0.623734 -0.897549 -0.034920 0.412140 -0.077186 0.883751 0.527581 -0.470071 -0.302846 -0.005787 0.423200 0.427564 0.495058 0.349851 0.646984 -0.052751 -0.098224 0.658138 -0.880805 -0.155916 -0.313328 -0.370726 -0.129655 -0.164533 -0.291957 0.105008 0.572239 -0.058695 -0.281191 0.164487 -0.447957 -1.174137 0.346251 0.627848 0.311867 -0.975556 -0.841169 -0.181155 -0.858161 -0.754420 0.335641 -0.009262 0.085684 0.157380 -0.156659 -0.296729 -0.858941 -0.000445 0.453428 -0.012324 -0.133940 -0.429906 -0.379319 -0.268269 0.231994 0.738169 0.014702 -0.306692 -0.579011 0.524478 -0.367348 0.057986 0.215255 0.232956 0.713444 -0.289250 -0.916549 -0.119060 0.688944 0.586698 -0.233304 0.090005 -0.182278 -0.126674 -0.298215 -0.047799 0.434793 -0.171073 -0.245216 -0.003189 -0.400994 -0.392370 -0.297804 -0.903328 -0.467756 0.294280 0.513743 0.006840 -0.640347 0.016619 0.275878 -0.290784 -1.038920 -0.511057 0.183382 0.306121 0.393295 0.266688 -0.491865 -0.221744 0.205852 0.372247 0.306693 0.303115 -0.123592 0.299136 -0.475512 0.495412 0.107416 -0.365618 0.649289 0.366833 0.038012 -0.407198 -0.365054 0.505361 -0.254933 0.624239
28 0.414996 -0.234058 0.831613 0.278840 0.531016 -0.027708 -0.038297 -0.076839 -0.096906 0.262875 0.236003 -0.307196 0.067658 0.295749 -0.084878 -0.450664 -0.332696 0.051127 0.189548 -0.119214 -0.202091 0.411980 0.190646 0.080093 -0.056866 -0.044012 0.042207 0.999557 0.088497 -0.298396 0.163494 0.047186 -0.526582 -0.003141 -0.234831 0.184530 -0.313486 0.031506 0.072671 -0.122144 0.134993 0.166522 0.572704 0.319044 -0.554275 -0.146001 0.190590 0.160034 -0.256946 -0.114324 -0.312802 0.104817 0.436114 -0.009482 0.026877 -0.036763 -0.655837 -0.145272 0.124061 0.504561 -0.004062 -0.045080 -0.114180 -0.378817 0.270220 0.437167 0.237378 -0.441180 -0.168225 0.205204 0.078983 0.127542 -0.075605 0.472347 0.026851 0.147090 0.031745 0.164783 -0.081465 0.154683 -0.064901 0.307903 -0.469351 0.125936 -0.312522 0.301180 0.581731 -0.015922 -0.236231 0.049176 0.469176 -0.323470 0.387555 -0.160648 0.329903 0.029645 0.103416 -0.370470 -0.275028 -0.131207 -0.493036 -0.268106 0.112242 -0.685129 0.274598 0.282126 -0.416813 -0.309935 0.083132 -0.638420 -0.102352 0.190610 -0.172664 0.144007 0.096980 -0.074581 -0.468044 -0.172220 0.073317 -0.337500 -0.116595 0.083480 0.097074 -0.127159 -0.127937 -0.062114 -0.051546 0.072851
3043 -0.483983 0.203523 -0.032627 -0.837896 0.236406 -0.024409 0.832000 0.595877 -0.382728 -0.045919 0.235854 -0.319596 0.734049 0.189373 0.289769 0.221422 -0.522353 -0.846268 -0.126592 -0.807278 -0.161058 0.123782 0.480900 -0.279270 -0.594054 -0.910655 0.227028 0.090155 -0.638097 0.041366 -0.099846 0.524807 -0.686303 0.789142 0.020874 -0.357045 0.283469 -0.534731 -0.030854 -0.463606 -0.363070 -0.516931 0.093125 0.404105 -1.081393 -0.052446 -0.135641 0.499177 -0.753510 0.194138 0.520530 0.181825 -0.390275 -0.386655 0.610667 -0.300559 -0.914104 -0.790994 -0.067951 -0.857266 -0.067288 -0.242002 0.022937 0.066418 0.471472 0.403356 -0.065143 1.048273 -1.252634 0.477216 -1.335767 0.497434 -0.071732 0.480831 0.067737 -0.247213 -0.424565 0.004045 -0.260570 -0.270692 0.395704 -0.269471 0.074318 0.191033 -0.320816 0.060350 0.167208 0.035814 0.678994 0.371219 -0.343117 0.080473 -0.251552 -0.417044 -0.146161 -0.187063 -0.010627 -0.038802 0.294944 -0.411973 -0.567448 -0.078142 -0.083405 0.098998 -0.268343 0.098730 0.286318 -0.484407 -0.273808 -0.291488 0.418735 -0.597073 -0.106997 -0.225287 0.509748 0.439575 -0.289795 0.257727 -0.975897 -0.528298 0.266434 0.002690 -0.424701 0.119018 -0.555081 0.233942 -0.645501 -0.208014
338 0.607218 -0.197462 0.286751 0.284404 0.764275 0.297168 0.142934 0.421244 0.434663 -0.079383 0.849267 -0.374832 0.376409 0.269643 0.189930 -0.234395 -0.060725 -0.024460 -0.540366 0.178531 0.234572 -0.293683 -0.014054 -0.302377 0.209412 -0.024684 -0.104717 0.204122 0.114250 0.423262 -0.224607 -0.755607 -0.537848 -0.274414 0.294167 -0.539469 0.170262 -0.429020 -0.149461 -0.181724 -0.202334 0.415269 0.575477 -0.177246 -0.518510 -0.494854 -0.174937 0.036873 -0.579952 -0.072640 0.026166 0.171089 0.565803 -0.319130 0.311221 -0.287036 -0.383367 -0.490926 -0.567526 0.553657 -0.393344 -0.127475 -0.430671 0.309999 0.411131 0.362900 0.320538 0.248004 -0.388237 0.288529 -0.172620 0.551730 0.667067 -0.024393 0.452702 -0.722886 -0.009132 0.463162 0.563815 -0.061599 0.965388 -0.011641 0.048457 -0.109305 -0.080569 0.290514 0.324983 -0.468329 0.298083 -0.248234 -0.058127 -0.322864 0.127662 0.693271 -0.387165 0.144741 0.475148 0.031141 -0.460017 0.093006 0.114412 -0.191411 -0.272128 0.182652 0.694562 0.365916 0.758205 -0.627811 -0.366484 -0.703565 0.235334 -0.073189 -0.256523 0.259406 -0.246479 -0.098338 -0.709756 -0.232708 -0.086148 0.095471 0.141190 0.077998 -0.072098 0.244475 0.145426 -0.455256 -0.323856 0.242770
2996 -0.950286 -0.521697 -0.397374 -0.833222 0.690472 0.313311 -0.136416 -0.040735 -0.364401 -0.110987 -0.096252 -0.132901 0.615894 0.260007 0.133184 -0.234420 -0.203613 -0.330386 -0.478839 -0.077020 -0.235623 0.722110 -0.972562 -0.023927 -0.199869 -0.544109 -0.332795 -0.134541 -0.016690 0.393787 -0.084140 0.174109 -0.435506 0.254085 0.529086 -0.470560 1.191501 -0.002372 0.330583 0.032093 -0.887000 -0.420010 0.609759 0.980608 -0.285892 -0.040602 0.532211 -0.378235 -0.475032 0.284305 -0.075848 -0.282093 0.083593 0.491793 0.295068 -0.940949 -0.304412 -1.607891 0.244906 0.498176 0.592970 0.681263 -0.176500 0.424999 1.068269 -0.328515 0.292841 0.004655 -1.192233 -0.477152 -0.688383 0.669506 -1.182542 -0.337481 0.465807 -0.877130 -0.416294 0.232547 0.035884 0.705750 1.143937 0.226857 -0.400357 -0.962321 -0.417420 0.444082 0.081283 -0.066908 -0.154213 0.100158 0.370713 0.811931 0.071272 -0.461593 0.529960 0.592619 0.523920 0.357087 0.520294 -0.063619 0.011920 0.292906 -1.203764 -0.272797 -0.409434 0.576051 0.122490 0.169935 0.314784 -0.373445 -0.064079 -0.016432 -0.316956 0.828680 0.233598 0.827976 -1.243596 0.208679 -0.863574 0.084339 -0.213545 1.062832 0.289355 0.137239 0.113590 0.665713 0.697974 0.571158
1637 -0.330022 0.002692 0.294224 0.716544 0.344031 0.304139 0.563865 -0.903417 -0.541150 -0.459173 -0.174607 0.670722 0.802215 0.603123 -0.508384 -0.519223 -0.274906 -0.291637 0.554788 -0.573483 -0.343620 -0.158336 0.139678 -0.180555 -0.552727 0.364138 0.355995 -0.134469 0.135550 -0.402086 -0.295991 -0.111494 -0.810597 0.215668 0.276944 0.148154 0.247696 0.361756 0.364211 0.015128 -0.518461 -0.964899 -0.177999 0.643946 -0.104272 -0.608349 -1.038192 0.003475 0.460911 -0.618325 0.330284 -0.203507 -0.603887 -0.336436 0.349160 0.044955 -0.855343 -0.253730 -0.375871 0.450902 0.404424 -0.239925 0.190956 -0.666056 0.079454 0.257708 0.819046 0.774691 -0.737738 0.694848 -1.252856 0.297232 -0.443636 0.775074 0.559939 -0.486715 -1.032947 -0.637651 -0.446432 -0.466737 0.683430 0.250993 0.147130 0.418937 -0.826377 -0.382412 0.787244 -0.779921 -0.903208 0.124635 0.323390 0.041036 0.080276 -0.770479 -0.835860 -0.018288 -0.242783 0.174400 0.326031 -0.609546 -0.581959 0.476049 -0.077131 0.191894 -0.007214 0.284614 -0.158437 -0.215952 -0.022888 -0.324554 0.298972 -0.317666 0.111361 -0.061143 -0.743810 -0.053863 -0.353146 0.456564 -0.771692 -0.386905 -0.679674 0.392495 -0.156982 -0.648927 0.314294 0.900574 -0.113552 -0.121174
691 0.158233 -0.446902 0.323926 0.036252 1.009007 0.032730 0.316173 -0.148857 0.589888 -0.255321 0.056247 0.260519 0.345903 0.415425 -0.014250 -0.497203 -0.547359 -0.506201 -0.109571 -0.861323 -0.177555 -0.204740 -0.405668 0.892640 0.334600 -0.062998 -0.563352 0.134219 0.217399 -0.619496 0.020060 0.482945 0.316791 0.054093 -0.016868 -0.363423 0.232401 -0.025134 -0.618873 -0.350296 -0.285143 -0.451945 0.065746 0.009286 -0.175669 0.015237 0.429072 -0.184353 -0.076994 -0.095294 -0.140251 -0.660029 -0.135519 0.610414 -0.065456 0.215776 -0.156053 -0.044745 -0.374429 -0.536597 -0.155465 0.180262 0.450827 0.452407 0.027387 0.778002 0.133553 0.735538 -0.621225 -0.121839 -0.164859 -0.048381 -0.455678 -0.589675 -0.225644 -0.111461 -0.058023 0.118484 0.096233 0.496515 -0.166185 -0.139252 0.580178 -0.048973 -0.364301 0.075439 -0.128196 -0.546487 -0.082868 0.438906 0.211044 -0.427369 0.796558 -0.686573 -0.095277 -0.044343 0.142781 0.309377 -0.223730 0.302294 -0.063434 -0.133244 0.001021 0.371240 -0.076505 0.482172 0.071224 -0.182166 0.726173 -0.347659 -0.608100 0.277543 0.023914 0.196327 0.137334 0.603731 -0.251017 0.382247 0.175965 0.031005 0.297298 -0.045591 0.141742 0.028396 0.123798 0.089766 0.097411 0.290640
422 0.655151 -0.252198 0.838564 0.387840 0.611576 0.007214 -0.062801 -0.050560 -0.060944 0.215684 0.396606 -0.401407 -0.278964 0.428266 -0.150935 -0.484681 -0.278633 -0.193055 0.058264 -0.236522 -0.343635 0.496204 0.085248 0.146883 -0.057936 0.024319 0.017620 1.046526 0.240459 -0.427392 0.035869 -0.031160 -0.966973 -0.220797 -0.336669 -0.000939 -0.197921 -0.040856 -0.137071 -0.292022 0.121891 0.077611 0.692697 0.096881 -0.753769 -0.555663 0.108177 0.055434 -0.468802 -0.167047 -0.285030 0.059886 0.558659 -0.246754 -0.306516 0.008061 -0.890187 -0.275320 0.136164 0.621053 -0.006079 -0.104622 -0.127534 -0.309768 0.123568 0.465113 0.093052 -0.289758 0.067946 0.764454 0.202652 0.082398 0.225539 0.807709 0.067744 0.373752 0.070778 -0.073045 -0.091937 0.114659 -0.343093 0.186718 -0.426471 0.020482 -0.541615 0.188636 0.445670 0.019927 -0.073466 0.235560 0.375809 -0.035779 0.292263 -0.004232 0.432887 -0.250052 0.134384 -0.499276 -0.122731 0.121886 -0.210283 -0.513213 -0.135215 -0.674474 0.165391 -0.014183 -0.365227 -0.442413 -0.041900 -0.574892 -0.240280 -0.127635 -0.253835 0.213683 0.101065 0.200441 -0.303263 -0.079620 0.198349 -0.574302 -0.001487 0.143540 0.404357 0.119138 0.293450 -0.126913 -0.107946 0.120555
1078 0.418990 0.397750 0.460002 -0.133411 0.245752 0.729234 -0.374719 -0.341664 0.580723 0.124235 0.344254 -0.444717 0.148701 0.826794 0.735685 -0.591013 -0.365509 -0.313362 -0.550653 -0.359466 0.557919 -0.704143 -0.054942 -0.860003 0.099161 -0.595185 0.377413 0.717870 0.378038 0.064265 0.409774 -0.124403 -0.732264 0.019792 0.360673 0.225391 -0.291945 0.050631 -0.048976 -0.611353 0.147795 -0.363232 0.351950 0.020442 0.080760 0.042391 0.344452 0.455649 -0.844273 0.191551 0.153325 -0.720875 0.161871 -0.187137 0.142485 -1.175359 0.737902 -0.562242 0.208093 -0.276045 -0.071370 -0.117493 -0.259350 0.814366 0.549257 0.660507 0.629866 0.589055 -0.248303 0.448783 -0.692640 -0.096292 0.512405 0.480363 -0.176100 -0.270993 -0.276649 -0.160117 -0.528642 0.773052 0.188078 0.648482 -0.433620 0.169990 -0.068479 -0.008454 0.495640 0.327804 0.054992 0.293992 0.021620 -0.005422 0.568929 0.401959 0.255816 0.212101 -0.751567 0.267805 -0.514404 0.542101 0.716617 -0.045356 0.216595 -0.122013 0.025222 0.957368 -0.034485 0.229743 0.209138 -0.209644 0.423561 0.288471 -0.357392 -0.321573 0.743370 0.105471 -0.389475 0.033570 -0.186084 -0.004232 -0.738280 0.677942 0.622580 -0.233759 0.996421 0.541683 -0.051550 -0.308279
2072 -0.359179 -0.048736 -0.319175 -0.386896 0.006123 -0.052015 -0.300800 -0.099774 -0.538066 -0.347208 0.416180 -0.674719 0.798699 0.384394 0.393952 -0.208041 -0.080534 -0.224909 0.097080 -0.367088 0.726760 0.505913 0.027664 -0.074625 -0.345710 0.475473 0.489191 0.590065 -0.139730 -0.194950 -0.409188 0.108826 -0.353809 0.198303 0.248213 0.330915 0.330576 0.256346 -0.167855 -0.533312 -0.985898 -0.489186 0.431190 0.108066 -0.009298 0.466092 0.251817 -0.154329 -0.450171 -0.142513 -0.713825 0.525052 -0.212284 -0.481477 0.112792 0.524722 0.459251 -0.424594 -0.741060 -0.829588 0.502549 -0.044809 0.530404 -0.039374 0.220311 0.287494 -0.301914 -0.263475 -0.510289 -0.010598 -0.779610 0.189284 -0.065112 -0.598240 0.941744 -0.930360 0.186511 -0.536864 0.778815 0.360587 -0.219884 0.676452 0.053248 0.360892 -0.777514 0.770966 0.173927 -0.321814 0.311699 -0.011823 0.633935 -0.234317 0.465140 0.530902 0.294959 0.130278 -0.480142 0.464691 -0.683504 0.286874 1.051886 0.461592 -0.547023 0.139057 0.035197 0.516844 -0.416669 0.640305 0.423846 0.389885 0.520766 0.173155 -0.273706 -1.062303 0.831155 0.135809 -0.060675 -0.370362 -0.009618 0.352806 -0.183308 -0.467936 0.252129 -0.681290 0.235163 0.166403 -0.549962 0.439193
418 0.442939 -0.093957 0.157085 -0.157232 -0.047221 -0.147385 0.251252 0.301835 -0.156752 0.139875 0.329794 -0.032370 0.745222 0.673849 0.005165 -0.422648 -0.076552 -0.665247 -0.293458 -0.919250 0.468995 -0.015508 0.290946 0.685638 0.378581 -0.099174 0.090624 0.525545 0.299398 0.201236 0.112221 0.584249 0.196013 -0.652748 -0.073952 0.252300 0.120852 -0.754998 -0.126455 -0.254517 -0.253976 -0.478520 0.236675 0.061060 -0.028736 0.578507 0.285008 -0.101917 -0.486987 0.216291 -0.124249 -0.533685 0.207820 0.717787 0.257506 0.737282 -0.134516 -1.043520 -0.395740 0.017636 -0.123066 0.548546 0.248124 0.027867 -0.350197 0.517162 -0.090597 0.246857 -0.165045 -0.476505 0.092914 0.082307 -0.741089 0.440135 0.378244 -0.061314 -0.444662 0.179322 0.399198 0.277227 -0.345809 -0.062197 0.109891 -0.103109 0.288579 -0.058949 -0.723137 -0.394901 -0.413441 -0.041012 0.562300 0.021681 0.804453 0.094656 -0.047529 0.404665 0.366393 0.212256 -0.228463 -0.104234 0.079628 0.365306 -0.552480 0.310824 -0.760880 0.279337 -0.202178 -0.095214 0.263620 -0.173263 -0.503566 -0.525731 0.191912 -0.408483 -0.005761 0.133789 0.187002 0.095712 0.102538 -0.302722 0.043870 0.347791 -0.054290 0.407915 -0.619759 -0.050143 0.284557 0.491593
57 -0.666858 0.789719 0.482090 -0.015424 1.114707 0.715472 0.025101 -0.209075 0.649321 0.093511 0.628769 -0.775680 -0.354533 0.729806 0.280285 0.142312 -0.559336 -0.432950 0.319842 -0.424868 -0.275666 -0.929348 0.085919 0.273803 0.566242 0.162853 0.586486 0.031310 0.021887 0.659070 0.376531 0.247811 -0.738559 -0.049901 0.550163 0.120384 0.134224 -0.341128 0.203799 0.022730 -0.665610 -0.197287 -0.101361 -0.509271 -0.350908 0.543893 -0.197347 0.566981 -0.307358 0.278665 0.019969 -0.643520 0.168517 0.262592 0.454357 -0.276525 0.236561 -0.127190 0.304884 -0.166733 -0.024355 0.095237 -0.242996 0.359963 0.225187 0.602131 0.702321 0.257417 -0.477177 -0.330669 -0.177735 0.185632 -0.102550 0.430492 0.859320 0.554878 -0.542512 -0.619898 -0.045888 0.110820 -0.207625 0.608498 0.122492 -0.244157 -0.530493 -0.006436 0.289928 -0.133376 -0.271150 0.587323 -0.075594 0.290659 -0.010052 -0.047310 0.135623 -0.513579 0.214652 -0.209347 -0.672629 0.705911 0.858196 -0.010926 -0.313458 -0.314011 0.136011 0.430432 0.041312 0.296318 -0.052828 0.471406 0.347757 -0.095162 0.558183 -0.389116 -0.138377 0.322705 -0.058859 0.372188 0.053308 0.523757 -0.398025 0.649068 -0.243553 0.043455 0.589898 -0.242110 0.565471 0.209028
30 -0.044451 0.153403 0.581080 -0.030559 0.153421 0.385427 0.103409 0.634016 -0.305972 -0.156518 0.700944 -0.093093 -0.012746 0.051601 0.202980 -0.149482 -0.414041 0.011375 -0.202204 -0.154388 0.340791 -0.347695 0.069721 -0.060593 0.052429 0.407382 -0.285728 0.112877 0.299743 0.627234 -0.173924 -0.586741 -0.369020 -0.101018 0.627552 0.027040 0.449865 -0.408938 -0.131118 -0.707048 -0.230203 0.030197 0.366819 0.128410 -0.196308 0.121699 -0.469394 0.063041 -0.638523 0.017863 -0.180009 0.360367 0.359059 -0.068172 -0.481390 -0.227900 -0.540080 -0.287177 -0.279861 -0.031077 -0.395019 -0.220949 -0.030237 -0.085652 0.589869 0.302438 0.096724 -0.158576 -0.296889 0.420690 -0.060774 0.333045 -0.035624 0.105701 -0.052254 -0.007211 -0.590110 0.212283 0.217153 -0.157217 0.360910 0.019773 0.130044 -0.024095 0.102156 0.456916 -0.094916 -0.120541 -0.460985 -0.110048 0.055706 -0.163008 -0.041729 0.500139 0.425455 0.077255 -0.147930 0.051976 -0.630732 0.147456 -0.074366 -0.074481 0.034413 -0.438584 -0.065026 0.271116 0.511774 -0.298778 -0.394270 -0.051518 0.445757 0.003632 -0.312864 -0.222558 -0.231549 0.452418 -0.273595 0.182675 -0.069839 -0.010725 -0.546893 -0.433714 1.121669 0.764487 0.143507 0.058129 -0.147753 -0.334762
1759 -0.082570 -0.410037 0.698932 0.431449 -0.425829 0.455789 -0.497620 0.562192 0.937595 -0.786346 0.376881 -0.611780 0.941315 0.531541 0.042765 -0.142911 0.373829 0.196789 1.016584 0.074360 -0.426709 0.137380 0.426242 0.474368 -0.254642 -0.182306 0.764357 -0.489536 0.141868 0.857081 0.238811 0.758659 -0.857615 -0.286184 -0.340610 0.462800 -0.426148 -0.106354 -0.143942 -0.459296 -0.516463 -0.255418 -0.326217 -0.682660 -0.742972 0.287214 -0.233531 0.272827 -0.015126 0.276457 0.411292 -0.447546 0.449134 0.381769 0.487580 -0.062621 0.365078 -0.726369 0.714916 0.603222 0.109070 1.360525 -0.287216 -0.343284 0.087381 0.397551 0.048648 0.480360 -0.696059 -0.200668 -0.810138 0.358143 0.008515 -0.098694 0.379176 -0.140495 -0.560613 0.201838 0.285003 -0.212054 -0.062279 -0.007938 0.002637 -0.442841 -0.461128 0.339646 0.007821 0.244339 0.296451 0.718496 0.000557 0.183787 0.276084 0.172627 -0.479652 0.020957 0.302571 -0.627108 -0.061304 -0.827457 0.023768 -0.067782 -0.580597 -0.763850 -0.219792 1.093813 0.270687 -0.189329 0.756967 -0.014956 -0.218275 -0.984975 -0.080613 -0.218823 -0.316799 0.548856 0.201750 0.275180 -0.380668 -0.377863 0.353527 0.993532 0.869706 0.002812 -1.269974 -0.039506 -0.042554 1.267448
