3313 128
390 -0.069936 -0.362194 -0.070122 -0.147378 0.351686 -0.333471 -0.245609 -0.335215 -0.314904 -0.271907 -0.114822 -0.159493 -0.100392 -0.340486 -0.127160 0.156297 -0.235801 -0.132408 -0.053284 -0.110193 -0.131404 0.022486 0.013965 -0.096671 -0.002448 0.098815 0.171514 0.060114 -0.285566 0.063992 -0.021412 -0.015005 -0.320789 -0.061643 0.232542 0.086568 -0.057385 0.216290 -0.042719 0.041429 0.106722 0.009884 0.322917 -0.032460 0.120450 -0.146930 -0.300221 -0.216323 -0.187363 0.106227 -0.072015 -0.024737 0.296332 0.117132 0.191435 0.196390 0.083593 0.016282 0.116916 -0.120813 -0.246696 -0.156796 0.231270 -0.040111 -0.123477 0.068385 0.054878 0.085556 0.292109 -0.085556 0.094856 -0.033882 -0.029239 0.069244 -0.089513 -0.057035 0.309194 0.139991 -0.106140 -0.017827 0.202831 -0.040843 -0.142754 0.032759 -0.345358 -0.196720 -0.230362 -0.145010 0.072736 0.089611 0.292766 0.085016 0.071766 -0.132515 -0.234646 0.075801 -0.179210 0.023048 0.102138 -0.008824 0.046792 0.007561 0.233196 -0.129466 0.258090 0.234632 -0.081467 0.037778 -0.171584 -0.285856 -0.029555 0.205905 0.068916 -0.152988 0.146935 0.081120 0.208864 0.066960 -0.121812 -0.129971 -0.017024 -0.109430 -0.269482 -0.097883 0.134227 -0.106779 0.248799 0.192177
847 0.098152 -0.182713 -0.152800 0.018794 0.100912 -0.116878 -0.268589 -0.038224 0.078851 -0.208545 -0.089930 0.164349 0.089370 0.472588 -0.084745 -0.236504 0.179238 0.118191 0.064046 -0.300979 -0.109905 -0.102171 0.247756 0.268898 0.261100 -0.142071 -0.017344 0.367564 -0.000332 -0.010679 -0.031112 -0.136619 -0.246314 -0.060191 0.184799 -0.155045 -0.195506 -0.385836 0.253260 -0.324636 0.002085 -0.243657 -0.262220 -0.566484 0.068109 0.320935 0.256767 -0.029818 0.098496 0.183873 -0.139010 0.085185 0.171468 0.332525 0.046888 0.216138 0.231549 -0.236816 -0.460500 0.081476 -0.167091 -0.120259 -0.374444 0.158291 0.183656 -0.036333 -0.007471 -0.123453 0.317423 -0.141245 -0.280602 -0.251113 -0.005821 -0.106855 -0.169117 -0.261066 0.251599 -0.202265 0.033888 -0.225830 -0.021785 0.134296 0.132669 0.296029 -0.247960 -0.343119 -0.323371 -0.126960 -0.400932 0.022888 -0.225482 0.208539 0.006139 -0.048771 0.290013 0.045728 0.086972 0.225604 0.128679 -0.272600 0.087364 0.057154 0.309554 -0.003567 0.139412 -0.460285 0.052531 -0.086224 0.003984 -0.147289 0.162360 0.320522 -0.003386 -0.267659 -0.061585 -0.101989 -0.491619 0.240234 0.186194 0.262022 0.161341 -0.172399 -0.028784 0.042149 0.200965 -0.253356 -0.233476 -0.350455
439 -0.129000 -0.411905 -0.219042 0.029306 0.259237 -0.126400 -0.355532 -0.241039 -0.269648 0.202597 -0.263152 -0.181996 -0.004073 -0.227808 0.040480 0.152504 -0.152779 -0.246405 -0.063224 -0.494078 -0.299555 -0.197175 0.104454 -0.023410 0.026711 -0.177283 0.063706 -0.111892 -0.526931 0.148103 0.039597 -0.001286 -0.291935 0.048769 0.204474 -0.034730 -0.253007 0.404663 -0.108001 0.083087 0.173064 -0.070487 -0.068849 -0.003192 0.075103 -0.245669 -0.211395 -0.052172 -0.133543 -0.310282 0.030853 -0.086995 0.123858 0.037752 0.159875 0.094541 0.068723 0.291358 0.161972 0.057316 -0.255335 0.068796 0.071266 -0.124209 -0.122093 -0.110038 0.047138 0.149984 0.192906 -0.103164 0.195074 0.073044 0.098830 -0.040966 -0.041973 -0.154021 0.338666 -0.024472 -0.091342 0.125640 0.004994 0.067710 -0.210289 0.197273 -0.402844 -0.143823 -0.416331 0.067911 0.166899 -0.142942 0.071871 0.056537 0.344137 -0.035875 -0.148409 0.185258 -0.409609 0.197998 0.069967 -0.126340 -0.063154 -0.023609 0.488389 -0.202170 0.285996 0.187524 -0.178470 -0.135024 -0.290949 -0.296695 -0.269646 0.200115 0.014951 0.020875 0.083077 -0.093713 0.252341 0.118902 -0.054583 -0.257761 -0.101757 0.045808 -0.287801 -0.253665 0.069414 0.051179 0.312257 -0.030973
364 -0.221869 -0.284690 -0.092089 -0.069479 0.197729 -0.281568 -0.286492 -0.208067 -0.409647 -0.007997 -0.181251 -0.039416 -0.098274 -0.222240 0.035531 0.187073 -0.142983 -0.080416 -0.182652 -0.377965 -0.192154 -0.195562 -0.115302 -0.050680 0.163273 -0.218908 0.060011 -0.021202 -0.453681 -0.096134 -0.116559 -0.178485 -0.165410 0.052031 0.175585 0.095531 -0.180737 0.284815 -0.177353 0.072855 0.213787 0.157523 0.032334 0.173974 0.220439 -0.246496 -0.494084 -0.219167 -0.012148 -0.123358 -0.050452 0.112806 0.288644 0.210767 0.053933 0.150584 0.058592 0.268197 0.069702 0.071444 -0.196335 -0.065609 0.134902 -0.013631 -0.183575 -0.085259 -0.218617 0.107523 0.097385 -0.076017 -0.033580 0.026046 0.010364 -0.095579 0.099553 -0.085053 0.340348 -0.088177 -0.067148 0.096496 -0.021040 0.040147 -0.257340 0.107225 -0.472425 -0.056937 -0.228886 0.163788 0.079785 -0.072681 0.167637 0.091785 0.294702 -0.160120 -0.064611 0.035168 -0.308661 0.085574 0.060990 0.050133 0.013574 0.001886 0.316509 -0.381755 0.317832 0.055114 -0.141359 -0.069804 -0.320813 -0.251574 -0.128611 0.221937 -0.083483 -0.201032 0.057108 -0.060862 0.112817 0.119265 -0.104774 -0.327763 0.015822 0.090490 -0.405022 -0.272841 0.139755 0.080618 0.272643 0.056843
471 -0.046432 0.123840 -0.313174 0.066963 0.349670 -0.073866 -0.161933 0.015408 -0.323114 -0.013541 0.045294 -0.035357 0.129496 0.103900 -0.018983 -0.116754 -0.220200 -0.195760 -0.288614 0.412351 0.187988 -0.173377 -0.381428 0.098187 -0.305952 -0.109496 0.058930 0.006094 -0.303983 -0.139246 -0.147164 -0.168551 0.028697 -0.259878 0.224724 -0.026412 0.133581 0.123885 0.346319 0.252982 0.241298 0.008340 -0.062230 -0.124289 0.179593 -0.298763 -0.036183 -0.291559 -0.049370 0.034446 -0.116951 0.079256 0.229547 0.024152 0.136455 0.190686 0.059112 0.045403 0.299745 -0.154873 0.167069 -0.071895 -0.438459 0.265338 0.030104 0.152146 -0.133411 -0.183653 -0.195581 -0.228143 0.300310 0.265630 -0.117972 0.338599 0.012657 -0.211375 0.320592 0.127941 0.063248 0.085799 -0.014579 0.247640 -0.069811 -0.121561 -0.178651 0.231466 -0.448008 0.441825 0.159979 0.479594 0.214820 0.245602 -0.054604 -0.009196 0.024115 0.231127 -0.066944 0.421784 -0.039046 0.349131 0.159178 -0.077288 0.287264 0.097032 -0.072523 0.122493 -0.177690 0.199707 -0.255747 -0.091658 0.059351 -0.136641 -0.220746 0.310331 0.006405 -0.303784 -0.143048 0.142272 0.027817 0.097519 -0.122453 0.029314 -0.117323 0.057419 0.054626 -0.189450 0.147770 0.109497
643 0.062889 -0.124315 -0.263209 0.488023 0.171706 -0.387609 -0.302748 0.218800 -0.121753 -0.028995 0.199940 -0.239067 0.033709 0.015334 -0.286079 -0.283425 0.017273 0.017987 -0.047400 0.341320 0.118183 -0.303617 -0.057317 0.556035 0.106390 -0.043717 -0.281994 -0.112444 0.031935 0.453791 0.190354 0.088386 -0.070587 0.465490 0.298525 -0.023888 0.033545 -0.016988 0.207165 0.029444 0.222105 -0.106310 0.257702 -0.069684 0.053466 0.128605 -0.067349 0.198279 -0.107951 -0.386768 0.130012 0.363693 0.171835 0.315005 -0.125723 -0.014675 0.315677 -0.381734 -0.426156 0.152678 -0.439355 0.163803 -0.463142 0.104709 0.024611 -0.023719 -0.129761 -0.171639 -0.300815 -0.006333 -0.060574 0.399547 0.156004 0.171159 -0.305460 -0.079552 -0.148711 -0.060129 0.039517 -0.245755 -0.075172 -0.025439 0.071139 0.360494 -0.149784 -0.672764 -0.265912 0.086531 -0.094373 -0.007847 -0.143570 0.116659 -0.059995 -0.293503 -0.201595 0.107002 0.226308 0.116693 0.199879 -0.138900 -0.079442 -0.413413 0.311099 -0.237329 -0.177296 -0.155731 -0.281270 -0.297048 0.070142 0.035195 0.278433 -0.063436 0.123783 -0.508668 0.158091 0.090037 -0.047339 0.535678 -0.353471 -0.042490 -0.346120 0.089924 0.141974 0.346476 0.173639 -0.300540 -0.119691 -0.578320
661 0.014485 -0.186087 -0.018074 -0.021129 -0.171825 0.281143 -0.136375 -0.243692 0.083520 -0.184780 0.271222 0.077080 0.140181 -0.057231 -0.144162 -0.164956 -0.103462 -0.319949 0.009990 0.235872 0.296899 -0.264449 0.242559 0.499306 0.503610 0.101975 0.572843 -0.104646 -0.074868 0.534316 0.022529 -0.101161 -0.289165 0.326315 0.263560 -0.032254 -0.038276 -0.058321 0.099786 0.376908 -0.027158 -0.140331 0.224116 -0.158501 0.492856 0.002741 -0.107292 -0.011075 0.100235 -0.169930 -0.514565 0.146156 0.221148 0.649626 0.166880 0.009355 0.493179 -0.287605 -0.159157 0.311215 -0.198126 0.078663 -0.368717 0.445620 0.039399 -0.345560 -0.232343 0.043796 -0.013294 0.295026 0.188476 0.240083 -0.334936 -0.173216 -0.354487 0.082229 0.224299 -0.379125 -0.209247 -0.231288 -0.034939 0.453028 -0.082546 0.215319 -0.046568 -0.576684 -0.055768 0.014570 -0.293743 -0.346070 -0.249113 -0.135326 -0.282923 -0.062853 -0.347192 0.243324 0.210071 -0.413939 0.360581 0.279134 0.284228 -0.421342 0.410227 -0.202058 -0.055669 -0.243985 -0.638943 -0.191321 0.216977 0.262453 0.099359 0.251858 -0.472623 -0.181658 -0.207977 -0.181409 -0.168343 0.338109 -0.358104 -0.058760 -0.246280 0.299913 -0.029400 -0.086800 0.358358 -0.301221 -0.070875 -0.655413
1918 -0.297031 0.392253 -0.399455 -0.173016 -0.059497 0.124533 -0.127540 0.684637 -0.500764 -0.135402 -0.342282 -0.180416 -0.172618 0.229961 -0.091133 0.294261 0.006342 0.023814 -0.236476 0.000781 0.140444 -0.425675 -0.377481 -0.057411 -0.113377 0.474662 -0.585124 -0.079260 0.150797 -0.127152 0.374470 0.378543 0.014731 -0.076418 0.096295 0.034825 -0.184713 -0.069825 -0.168249 0.093340 -0.592904 -0.310654 0.286957 -0.171779 0.212616 0.595825 0.103166 0.119577 0.361107 -0.475492 -0.679473 -0.017754 0.480245 -0.048122 0.003253 -0.409878 0.525252 0.141220 0.449001 -0.271966 -0.303372 0.163463 -0.456325 0.271417 0.020637 0.092116 -0.259950 0.349070 0.685128 -0.156210 0.312308 -0.223231 -0.423187 -0.117330 0.361477 0.085020 0.238191 -0.132414 0.298864 0.087221 0.306232 -0.170127 -0.155708 -0.079166 -0.416779 -0.421735 -0.493485 -0.244036 0.104033 0.495952 0.098529 -0.408208 0.278682 0.105830 -0.456586 -0.147072 -0.145750 0.205880 -0.704636 0.362033 -0.220454 -0.198039 -0.198120 0.213983 0.100791 0.037056 -0.193420 -0.025961 0.277826 0.141302 0.136094 -0.180319 -0.155979 -0.042540 -0.243452 -0.512763 -0.443498 -0.058348 -0.271157 -0.029898 0.062032 0.273708 0.234333 -0.312418 0.617404 0.379193 -0.232643 0.221143
699 -0.199620 -0.284172 -0.058041 0.075320 0.230437 -0.002267 -0.299121 -0.155065 -0.266454 -0.149796 -0.276672 -0.133199 -0.135691 -0.068743 -0.299124 0.336679 -0.243807 -0.205721 -0.223121 -0.166941 -0.150535 -0.182680 0.106673 -0.176025 -0.276675 0.153970 0.184135 0.072718 -0.219888 -0.017697 -0.101941 -0.092994 -0.194851 -0.063384 -0.011542 -0.120515 -0.234291 0.178749 0.013164 -0.048665 0.026408 0.066027 0.317223 -0.118992 0.124922 -0.382048 -0.433279 -0.121064 -0.244296 -0.058731 -0.040955 0.188019 0.296064 0.180520 0.579215 0.054972 -0.169069 -0.106995 -0.020562 -0.044914 0.080607 0.116629 -0.012688 0.151996 -0.281258 0.157298 -0.077713 -0.160406 0.020222 0.273736 0.298174 -0.008156 0.132992 -0.147113 -0.026427 -0.003231 0.400725 0.157843 -0.074001 -0.245882 0.180616 -0.046941 -0.272567 0.124392 -0.327573 0.075606 -0.234992 -0.191745 0.127842 0.447551 0.125544 -0.050060 0.222177 0.256500 -0.192338 0.071486 -0.233223 -0.014805 0.076030 -0.055427 0.105602 0.170029 0.466294 -0.242067 0.263897 0.067688 -0.226184 -0.183841 -0.049269 -0.268914 0.088794 0.121783 0.101728 0.092273 0.304515 -0.071847 0.418895 -0.123668 -0.162281 -0.052303 -0.085197 0.123072 -0.057835 0.021572 0.226045 0.009090 0.280295 -0.158554
291 -0.163165 -0.198323 -0.241191 -0.181396 0.136408 -0.255252 -0.266127 -0.036195 -0.225401 -0.465271 -0.026094 0.045413 -0.085585 -0.399415 0.140220 0.049293 -0.388431 0.104256 0.061911 -0.195500 -0.153873 0.169413 0.043815 -0.069750 -0.094358 0.054131 -0.043532 -0.242190 -0.210310 0.108849 -0.200722 -0.118669 -0.198348 0.111702 0.101278 0.293995 -0.143218 0.328680 -0.129929 0.037043 0.262206 0.172313 -0.154690 -0.185684 0.059379 -0.111872 -0.388390 -0.211729 -0.162220 -0.008289 0.315215 0.133196 0.374503 0.053746 -0.069370 0.152191 0.014387 0.353101 0.327881 0.131708 0.173153 0.237135 0.233041 0.345842 -0.146860 -0.099285 -0.145630 0.004862 0.129142 0.136536 0.012833 0.070056 -0.203636 0.224477 -0.045401 -0.104848 0.235149 -0.113153 -0.057696 0.112863 0.277396 -0.146569 -0.428693 0.392799 -0.264007 -0.244627 -0.180912 0.095166 0.164927 0.345395 0.189369 -0.084708 0.232620 -0.089465 0.056776 0.124349 -0.194791 0.148574 0.168730 -0.119150 0.035945 -0.068610 0.099625 -0.141378 0.335519 0.000450 -0.177747 -0.112550 -0.178720 -0.203259 -0.280653 0.085345 -0.289936 0.014335 0.173951 0.082184 0.036434 -0.058109 -0.342521 -0.025278 -0.046954 -0.114975 -0.387351 0.139166 0.060552 -0.328308 -0.037604 0.054944
697 -0.110080 -0.115408 -0.100216 -0.381765 0.244468 -0.151496 -0.242970 -0.093462 -0.231890 -0.016569 -0.266416 -0.376882 -0.048023 -0.093491 0.093725 0.191583 -0.123171 -0.239406 -0.236932 0.006237 0.022308 -0.132137 0.053374 -0.141562 -0.291273 0.119313 0.056884 -0.006964 -0.453871 -0.022331 -0.000863 -0.074620 -0.006206 -0.072528 0.227638 0.076045 -0.337852 0.311339 0.025568 -0.140296 0.037181 -0.016900 0.175668 -0.211713 -0.003946 -0.256980 -0.251406 -0.149264 -0.061144 -0.214933 -0.098064 0.231494 0.000313 0.022838 0.407317 0.230769 -0.341492 0.038358 0.069785 0.062395 -0.046326 -0.037883 0.093212 0.246968 -0.072683 0.136283 -0.220360 -0.312528 -0.225851 -0.026324 0.074403 0.224636 0.242871 -0.053012 -0.055417 -0.205692 0.331946 0.031748 -0.086807 -0.156922 0.108746 0.075322 -0.254618 -0.112414 -0.234653 -0.193546 -0.068640 0.019207 0.376568 0.294195 0.092230 -0.111915 0.353602 0.037705 -0.128041 0.064816 -0.074160 0.220821 0.168928 0.214985 0.049327 0.297992 0.307587 -0.137992 0.239947 0.007603 -0.276755 -0.055183 -0.218796 -0.222991 0.264505 0.177200 -0.140030 0.083097 0.030416 -0.053707 0.194268 0.055849 -0.207627 -0.072236 -0.034637 -0.111321 -0.113083 0.033811 0.098086 -0.184745 0.192414 -0.032077
488 0.201741 -0.128093 -0.199573 0.393799 0.450371 -0.772678 0.086875 0.336519 -0.201280 -0.094264 0.094061 -0.084595 -0.104605 0.508442 -0.445707 -0.122957 -0.267799 -0.118218 -0.146824 -0.479461 -0.367875 -0.481841 -0.188577 0.277456 0.019030 -0.223193 0.029456 -0.004065 0.311213 0.065992 -0.066098 -0.101535 0.307011 0.152034 0.726631 -0.517359 0.389203 -0.091464 -0.198769 0.133481 -0.324966 0.064327 0.115341 -0.330629 0.230517 -0.412599 -0.316994 -0.012484 -0.247778 0.325518 0.221577 0.204927 -0.056175 -0.005299 -0.005875 -0.410047 -0.397697 0.287373 0.071672 -0.264881 -0.458874 0.072585 -0.406352 0.150187 0.241954 -0.250712 0.105277 -0.018007 0.004612 -0.483943 0.085661 0.166891 0.037485 -0.084468 -0.399845 0.150082 0.056383 -0.007998 0.398674 0.038234 0.355767 -0.087343 0.396012 0.530006 -0.479748 -0.598189 -0.122257 0.471065 -0.313744 0.152500 -0.393272 -0.067476 -0.160031 -0.304604 -0.686667 -0.187718 0.684888 0.578676 0.185155 -0.184962 0.013951 -0.016767 0.229154 -0.230642 0.064179 -0.118327 -0.305058 -0.371995 -0.202603 -0.091578 0.318959 -0.017597 -0.106876 -0.269628 -0.339913 0.210386 0.218103 -0.020094 0.160261 -0.101466 0.145711 -0.055411 0.395664 0.572303 -0.155398 -0.218990 -0.287224 -0.765292
2049 0.211332 -0.001423 -0.307107 -0.456288 -0.152136 0.114480 0.099950 -0.004906 -0.062337 -0.204006 -0.800154 0.118306 0.264208 0.414866 0.125206 -0.287260 -0.311254 0.212945 -0.197258 0.058715 0.167585 0.023632 -0.806022 -0.130964 0.020608 0.150847 -0.583785 0.445510 0.074747 -0.053497 -0.148429 0.039429 0.119866 0.039386 0.387421 -0.143876 0.069819 -0.384195 0.002651 0.334087 -0.754163 0.233726 0.464519 -0.138152 0.365426 0.134552 -0.086969 0.498972 0.280122 -0.413052 -0.201359 0.115126 0.017332 -0.546794 -0.573828 0.208773 0.247115 0.153665 0.374133 -0.013773 -0.109730 0.501448 -0.389841 -0.098814 -0.200802 0.256904 -0.548455 0.067321 0.340548 -0.262363 -0.042213 0.059583 0.289669 0.069454 0.248842 -0.088561 0.329555 -0.026630 0.276020 -0.213313 0.462819 -0.003138 -0.231708 0.351530 -0.486375 -0.103318 -0.148352 -0.295704 -0.048686 0.078149 -0.352323 -0.126026 0.120349 -0.066418 -0.209922 -0.150363 -0.141831 -0.056569 -0.853903 0.171405 0.331400 -0.278958 0.007269 -0.304339 0.243132 -0.135405 -0.049810 -0.497902 0.498208 -0.051837 0.196642 -0.099578 -0.384053 -0.210140 0.138704 0.066661 -0.205265 -0.330562 0.216788 0.154392 0.163892 -0.144870 -0.075269 -0.095527 -0.098215 -0.222830 0.314216 -0.009723
905 0.098389 -0.371142 -0.036575 -0.577377 0.010150 -0.254274 -0.113022 0.083914 -0.266963 0.222144 -0.106270 -0.417394 -0.157710 -0.052714 0.352771 0.062386 -0.172010 0.143448 -0.152868 0.258535 0.254644 -0.118048 0.097113 0.104386 -0.095318 0.063681 0.127082 -0.072173 -0.213918 -0.128210 -0.163198 -0.236977 -0.042832 -0.369492 0.230324 -0.048608 -0.193597 -0.030456 -0.242842 -0.112238 -0.125704 -0.126952 -0.064774 -0.090493 0.453236 -0.162217 -0.043298 -0.017072 -0.217440 0.080946 -0.074219 -0.011959 -0.020506 0.207355 0.286728 0.436373 -0.200427 0.226532 -0.021789 -0.134489 -0.087990 0.159803 0.017327 0.381358 -0.162457 0.083180 -0.131463 -0.317929 -0.287469 0.191517 -0.083109 0.336371 -0.125910 0.245536 -0.096880 -0.183567 0.212363 0.129045 -0.316352 -0.275785 0.137758 0.120119 -0.077617 0.055956 -0.171810 -0.124701 -0.050847 0.204836 0.471804 0.293622 0.181497 0.274461 0.124656 -0.254443 -0.132265 0.484766 0.196160 0.313241 0.151067 0.332811 -0.199453 -0.415414 -0.347570 0.094860 0.087932 -0.210938 -0.094451 -0.192389 -0.090093 -0.013439 -0.193266 -0.244922 -0.129806 0.297370 -0.233902 -0.265878 -0.039546 0.112582 0.156128 -0.005808 0.209297 0.020565 0.207022 0.026753 -0.096228 -0.228096 -0.183391 0.206269
1406 0.304484 -0.524583 0.117712 0.072844 0.296872 -0.286649 -0.103722 -0.203546 -0.021584 -0.114305 0.011238 -0.254108 -0.284739 0.115082 0.017187 0.202251 -0.007287 0.444575 -0.057528 0.038205 -0.371663 -0.052336 -0.189375 -0.185964 -0.123275 0.405755 0.002606 0.384526 -0.100835 -0.317071 0.377671 -0.336363 -0.007815 0.163791 -0.532687 -0.155674 0.114518 0.174496 -0.653379 0.177829 -0.159634 0.214215 -0.245306 -0.493833 0.012518 0.315271 0.270269 -0.510303 -0.780378 -0.241845 -0.164634 0.009283 0.332096 -0.351185 -0.406393 0.188434 0.501783 -0.245929 0.051115 -0.076160 0.391012 0.188054 -0.371759 -0.355630 -0.141412 -0.347523 0.071514 -0.392291 -0.403622 -0.095236 -0.063240 0.471222 -0.110141 0.288503 -0.082000 -0.247554 0.046547 -0.040249 -0.517441 -0.682181 0.065149 0.110721 0.390267 -0.005005 -0.170025 -0.023935 -0.507336 0.071757 -0.465934 -0.182940 0.012741 0.675156 0.274542 0.077906 -0.325210 -0.339298 -0.319554 0.128361 0.359944 0.128244 0.242620 0.147605 0.299359 -0.154188 0.479766 -0.032675 -0.473664 -0.215923 0.034618 -0.045920 -0.030964 0.004210 -0.442424 -0.526178 -0.667513 -0.133722 -0.374914 -0.190022 -0.237312 -0.328469 0.407386 -0.317297 0.058799 -0.475922 -0.178237 0.481829 -0.560705 -0.051149
986 0.550321 -0.194710 -0.215311 0.159143 -0.084090 0.438617 0.648478 0.172125 0.128042 -0.382009 0.005118 0.021183 0.004784 -0.119466 0.088750 0.432236 0.135732 -0.257127 0.080570 0.079778 -0.677907 -0.160727 -0.038293 0.088933 0.117074 -0.176965 -0.257131 0.625489 -0.061353 0.100500 -0.068410 -0.061151 -0.147754 0.295901 0.178577 -0.235661 0.126208 -0.356293 0.077797 -0.360495 -0.052239 -0.283847 0.193238 0.176355 0.215181 0.214698 0.028941 0.270352 -0.051836 0.167123 -0.263283 -0.030177 -0.004340 0.212526 0.201982 0.186417 0.214708 -0.100841 -0.276734 0.312279 -0.268039 0.541782 -0.241410 0.084193 0.211188 -0.092463 0.196815 -0.005283 -0.181871 -0.218298 0.236563 -0.258935 -0.252437 0.102288 -0.024372 -0.790615 0.187943 -0.483067 0.094473 0.064938 0.030686 0.105333 0.531671 0.415027 -0.546084 -0.154982 -0.161221 0.309712 -0.291095 0.174542 0.385138 0.359813 0.490925 -0.346117 0.111197 0.222103 0.287325 0.016598 0.285716 0.249829 0.135020 0.447299 -0.016634 0.070139 -0.047258 0.104374 -0.074551 -0.264619 -0.163834 -0.104197 0.207200 0.582015 -0.266677 -0.174716 -0.317847 0.150377 0.068438 0.159826 -0.011848 -0.305933 -0.103415 -0.223184 0.088041 0.154213 0.292343 -0.282918 -0.186593 -0.065211
631 0.262122 -0.244214 0.009661 0.207580 0.128237 0.394627 0.258628 0.158942 0.139224 -0.368001 -0.027408 0.023706 -0.046119 0.137351 -0.113068 0.675280 0.058248 -0.044376 -0.059935 0.043800 -0.615574 0.102166 -0.214660 -0.065640 -0.159523 -0.027908 -0.407721 0.254757 -0.123687 0.258369 -0.061600 0.101211 -0.117141 0.173922 0.266326 0.052476 -0.018771 -0.392960 0.220687 0.055051 -0.140646 -0.100187 0.118628 -0.042858 0.088915 0.348869 0.040472 0.474339 0.019380 0.043192 0.173006 -0.004349 0.100411 0.345914 0.498794 0.226979 0.058206 -0.295135 -0.095098 0.127459 -0.326313 0.328409 -0.165522 0.188948 0.249380 -0.184420 -0.155207 0.345410 -0.068450 -0.223950 0.048850 -0.116579 -0.094109 -0.077325 -0.229181 -0.547457 0.409183 -0.537528 -0.070615 0.142576 -0.140973 0.249860 0.409387 0.257876 -0.259373 -0.473652 -0.082010 -0.015203 -0.335147 -0.092486 0.146575 0.348270 0.241299 -0.204916 0.336378 0.278955 0.041390 0.255798 0.228553 0.349903 0.101445 0.256876 -0.037673 -0.455355 0.240590 -0.246868 -0.116273 -0.239743 -0.280743 0.047798 0.319464 0.319651 -0.352806 -0.036625 -0.322643 0.068210 -0.295688 0.077898 0.482906 -0.141035 0.241341 0.030448 0.010465 0.151227 0.413734 0.005868 0.121235 -0.261506
822 -0.385455 -0.329233 -0.083680 -0.049256 0.091780 -0.025234 0.100214 -0.127994 0.080703 0.023921 0.122382 -0.167813 0.106869 0.120692 -0.090020 -0.207555 -0.005932 0.197245 0.380897 -0.382933 -0.111954 -0.347633 -0.374715 0.324598 -0.250771 -0.408164 -0.351951 0.132418 -0.239120 0.071235 0.475331 0.668193 0.236613 0.111586 0.150993 0.064878 -0.070323 0.012399 -0.054716 0.176861 -0.330387 0.360590 -0.298502 -0.423955 0.218445 0.171842 -0.211568 0.351370 -0.212003 0.529068 -0.366993 0.075804 0.286378 0.222074 0.361227 -0.040143 -0.240591 0.030777 -0.013935 -0.046783 0.281402 0.091550 -0.056414 0.556731 0.656602 0.169402 -0.239146 -0.085820 0.038835 0.045180 0.284761 -0.248962 -0.017095 0.213567 0.284131 -0.568080 -0.076961 -0.044578 -0.465532 -0.288642 0.172409 0.246488 0.359024 0.088464 -0.363393 0.114591 -0.337455 -0.491159 -0.504323 -0.160583 0.277644 0.225572 0.087283 0.006504 0.498154 0.191989 0.404654 0.538890 -0.061962 -0.075035 0.192555 0.004110 -0.079130 0.065155 0.315012 -0.389684 -0.045523 0.108482 0.059644 0.124029 -0.057986 0.607695 -0.028895 -0.018568 0.142839 0.298407 -0.302427 0.437691 0.206210 -0.109161 -0.204551 0.021448 0.162019 -0.131564 -0.091005 -0.350002 0.222883 -0.681132
659 0.386236 -0.329884 -0.011465 0.174535 0.141440 0.368403 0.440808 0.019690 0.270698 -0.578458 -0.131979 0.019125 0.068645 0.063531 -0.022702 0.523206 0.092689 0.090302 0.227150 0.185494 -0.349741 -0.167755 -0.242351 0.233175 0.155011 0.136802 -0.336237 0.085636 0.027473 0.292313 -0.122716 0.089694 -0.163883 0.375046 0.156222 -0.074225 -0.156150 -0.266522 0.189051 -0.025100 -0.167568 -0.344377 -0.073614 -0.072689 0.192236 0.114357 0.108447 0.430827 -0.148384 -0.028865 -0.093991 -0.118876 0.284425 0.100663 0.541498 0.053525 0.065389 0.004416 -0.318356 0.263248 -0.150256 0.356033 -0.219544 0.206003 0.113901 -0.293262 0.031629 -0.026546 -0.000615 -0.280698 0.075606 -0.173539 -0.096293 -0.186829 -0.053426 -0.417472 0.196252 -0.530167 -0.100376 0.039646 -0.004185 0.328192 0.479174 0.402327 -0.330307 -0.332762 -0.129411 0.071950 -0.104752 -0.024408 0.220183 0.434988 0.439526 -0.006938 0.367992 0.380363 -0.124701 0.114263 0.251045 0.359524 0.317263 0.198230 0.068165 -0.234728 -0.044281 -0.330150 -0.187056 -0.086669 0.114994 -0.070225 0.265790 0.420434 -0.373590 -0.225274 -0.275469 0.117871 -0.126817 -0.031086 0.375810 -0.339754 0.072643 -0.061584 -0.096546 0.172109 0.444516 -0.186056 0.124552 -0.549465
732 0.263487 -0.261358 -0.361357 -0.186766 0.319986 -0.289772 -0.174201 0.460896 -0.067588 -0.007060 -0.275646 -0.229744 0.013393 0.075492 -0.060200 0.008564 -0.349744 0.342767 -0.084134 0.105300 0.233336 -0.110014 -0.117514 -0.114025 -0.131935 -0.238338 0.294793 -0.228796 -0.223377 -0.030438 -0.095301 -0.006564 -0.280711 -0.246425 -0.188535 0.161327 0.270905 -0.042744 -0.037344 0.096897 0.119869 0.237801 -0.231149 0.040166 0.413703 -0.097192 0.053561 -0.045740 -0.370002 -0.285974 -0.174660 -0.004724 -0.027097 0.167692 0.428715 0.469232 -0.246514 -0.002147 0.159363 -0.301063 0.073376 -0.199215 -0.598797 0.216045 0.061799 0.123073 -0.049996 -0.042778 -0.309805 -0.031993 0.343582 0.143449 -0.306012 0.132292 0.139173 -0.159397 -0.021799 0.116327 -0.006462 -0.197839 0.144940 -0.224894 0.263797 0.005181 0.154242 -0.183145 -0.055059 0.341570 0.291287 0.391725 0.108463 0.414677 0.173866 -0.090587 -0.071863 -0.140574 0.141921 -0.058314 -0.123343 0.411900 -0.005498 -0.142756 -0.013510 0.051515 0.071254 -0.160000 -0.277919 0.096407 -0.569809 0.186966 -0.192516 -0.075299 -0.324098 0.116209 -0.317979 -0.216019 -0.093331 0.232475 -0.044895 0.316148 0.231741 0.223124 0.155944 -0.021286 -0.129249 -0.414246 -0.104953 0.080817
2955 -0.321877 0.524211 -0.255343 0.005974 0.154601 0.254652 0.233913 0.294299 -0.214334 -0.556916 -0.467409 -0.282331 0.222205 0.457836 -0.245969 -0.237226 0.196341 -0.183893 -0.054477 0.552613 -0.050000 -0.596894 -0.088455 0.293244 -0.361928 0.058870 -0.029434 -0.469626 -0.352737 -0.371664 -0.252258 0.609177 -0.413658 0.577352 0.169076 0.437422 0.029456 0.958907 -0.155130 -0.576800 0.211007 0.726815 0.399087 -0.204493 0.000093 0.263101 0.362564 0.211878 -0.363268 0.165200 -0.075815 0.030140 0.292654 0.361981 -0.020924 0.241845 0.365926 0.356002 -0.144640 -0.803181 0.001268 -0.029485 -0.109737 0.196037 -0.115225 0.438950 0.550429 -0.315957 0.567390 -0.121075 0.202146 0.274676 -0.199965 -0.913179 -0.378843 -0.701522 0.684460 -0.210041 -0.411202 0.127411 0.375700 0.080883 0.199461 0.180693 0.179784 0.109636 -0.104427 0.395053 0.035911 -0.267635 -0.623542 -0.298689 -0.134180 -0.045835 -1.097219 0.370686 -0.179192 -0.439225 0.536747 -0.440244 0.255633 -0.055006 -0.283512 -1.073660 0.307745 0.130227 0.077514 -0.568490 -0.147347 0.676304 -0.224248 0.348759 0.195858 -0.041627 -0.271543 -0.377967 -0.058591 0.658088 0.105679 -0.039952 0.744003 -0.638456 -0.017064 0.056096 0.001908 0.025433 0.103943 0.031568
1236 0.043281 -0.091057 0.008864 0.256600 0.017735 -0.425674 0.493302 0.093005 0.135950 -0.679917 0.157448 0.001299 -0.010082 -0.140241 0.139448 0.150819 0.010275 -0.155068 0.116096 0.409668 0.095914 -0.189118 -0.212220 0.183592 -0.102147 0.327346 -0.349004 0.038031 -0.287985 -0.359179 -0.021170 -0.116337 -0.079756 0.091196 -0.064150 -0.296080 -0.397543 -0.061784 0.256399 0.181641 0.120637 0.506978 -0.266477 -0.015534 0.139376 0.721132 -0.175118 -0.013033 -0.051846 0.410606 0.298180 0.105580 -0.042855 -0.298983 0.172455 0.168636 0.271321 -0.150537 0.375833 -0.348900 -0.453066 -0.276670 -0.050717 0.269380 0.121989 0.294644 -0.277170 0.419423 -0.136533 -0.116945 -0.316561 0.536317 -0.626336 -0.207947 -0.355409 0.093910 0.013394 -0.054773 -0.177926 -0.575952 0.293101 0.238284 0.266943 0.223294 -0.203342 -0.358915 -0.143143 0.233875 0.438143 -0.158638 -0.161240 -0.213477 0.119668 0.400378 -0.401136 -0.161423 0.265256 -0.072339 0.088173 -0.065154 -0.083789 -0.285675 0.116802 0.253706 0.592072 0.183269 0.259534 0.151402 0.095118 -0.038776 -0.062293 0.021951 0.382411 0.301165 0.069998 -0.201381 0.168364 0.182726 -0.194981 0.368380 0.052498 -0.648711 -0.075548 -0.348238 0.377694 0.067933 0.094422 -0.485647
814 0.390036 -0.193156 -0.308679 0.367382 -0.010489 -0.258294 -0.370886 0.365591 0.031509 0.167402 0.048227 0.151875 0.147134 0.274608 -0.184509 -0.150099 0.019029 0.191203 0.010470 0.247741 0.173386 -0.205651 0.154756 0.327225 0.345579 -0.249277 -0.084076 0.155214 -0.148581 0.212831 0.178882 0.287527 0.158937 0.340884 0.285714 0.104352 -0.308315 0.065252 0.192371 -0.203093 0.311189 -0.211322 -0.012279 -0.186725 0.007220 0.192223 -0.018944 0.222439 -0.405065 0.029931 0.176823 0.275125 0.416620 0.271116 -0.012035 0.264973 0.249688 -0.368098 -0.294070 0.170104 -0.597797 0.153938 -0.491160 0.154145 -0.075293 0.316402 -0.148518 -0.267835 -0.071900 -0.120770 -0.379721 0.167390 0.423555 0.377138 -0.250743 -0.356094 -0.090210 0.200372 0.095087 -0.225180 0.112636 0.066638 0.245746 0.391463 -0.296613 -0.495084 -0.229216 -0.190357 -0.417796 0.113364 -0.196171 0.110882 0.164619 -0.132668 0.145169 0.146396 0.148765 0.260476 0.045541 -0.661062 0.052334 -0.145928 0.285166 -0.269507 -0.198144 -0.528456 -0.308333 -0.015720 -0.004485 -0.227336 0.305825 -0.022845 0.065300 -0.277867 -0.082758 -0.124248 -0.185736 0.437538 -0.280379 0.205627 -0.292694 -0.098586 0.129787 -0.078419 0.228175 -0.143111 -0.186287 -0.372720
1731 0.423407 -0.476292 0.117158 0.116472 0.161269 -0.137853 -0.192629 -0.113838 -0.158321 -0.175694 0.084452 -0.250620 -0.268928 0.253029 -0.076966 0.293375 0.093431 0.738178 0.086617 -0.203872 -0.335412 0.001315 -0.242155 -0.171168 -0.051741 0.438754 0.119840 0.406061 -0.209502 -0.343609 0.394722 -0.273843 -0.077381 0.154246 -0.401513 -0.181785 0.176259 0.136039 -0.838013 0.308448 -0.071889 0.147219 -0.230388 -0.379036 -0.306536 0.228905 0.151523 -0.359476 -0.543381 -0.231980 -0.176981 -0.160978 0.565487 -0.271817 -0.383514 0.362109 0.436230 -0.320199 -0.147847 -0.067459 0.348529 0.152706 -0.241480 -0.371569 -0.268949 -0.092771 -0.156136 -0.495032 -0.350572 -0.073101 0.001428 0.640299 -0.038101 0.137010 0.017138 -0.179338 -0.077133 -0.274301 -0.443315 -0.555166 0.020867 0.135475 0.385007 0.015782 -0.445094 0.122986 -0.408593 0.134730 -0.509628 -0.436521 -0.389330 0.644030 0.299570 0.162997 -0.425319 -0.298117 -0.303263 0.394363 0.656095 -0.113746 0.244474 0.148101 0.226138 0.048687 0.654411 -0.043978 -0.649541 -0.130559 0.157279 -0.129870 0.005472 -0.282277 -0.519838 -0.327754 -0.695551 -0.207689 -0.392877 -0.038072 -0.206855 -0.412624 0.296410 -0.349143 -0.174328 -0.351722 -0.142224 0.280870 -0.665901 -0.159186
616 0.064411 -0.003661 0.132088 -0.258073 0.205798 -0.001753 0.110166 0.065393 -0.336509 -0.234373 -0.262941 -0.012862 0.035126 -0.093722 0.220124 0.152727 -0.185019 -0.175294 -0.197177 -0.059906 -0.144462 -0.271878 -0.114059 -0.225502 -0.550806 -0.085856 -0.000605 -0.077191 0.054358 0.181109 -0.224921 -0.078583 -0.216912 -0.272209 -0.010295 0.036411 -0.433101 0.247950 -0.105988 -0.200000 0.178297 -0.110612 0.445313 -0.239616 0.139242 -0.312883 -0.325171 0.063978 -0.222432 -0.146260 0.168955 0.258441 0.241692 0.017422 0.616208 0.182073 -0.144560 -0.199308 -0.055647 -0.121810 0.045224 -0.083255 0.244669 0.209908 -0.193411 -0.001035 -0.162442 -0.202999 -0.009472 0.188434 -0.194105 0.046583 -0.074411 0.040952 -0.158582 -0.068870 0.550037 -0.016777 -0.003309 -0.202173 0.344344 -0.120144 -0.286671 0.073276 -0.281676 -0.070008 -0.251603 -0.026480 0.040691 -0.034789 0.232590 -0.051368 0.470180 0.246497 -0.236516 -0.309118 -0.201012 0.022791 0.284723 -0.028013 0.123902 0.142925 0.261411 -0.283939 0.487012 0.044315 -0.142194 -0.226072 -0.357356 0.025586 0.059667 0.155276 0.073851 0.066773 0.235290 0.105870 0.129170 -0.038480 -0.571836 -0.060862 -0.265081 0.218378 0.008576 0.028789 -0.132367 -0.003704 -0.218965 -0.173063
780 0.377888 -0.185935 -0.116259 -0.178888 0.120414 -0.119844 0.052456 0.255173 -0.263797 0.368174 -0.049911 -0.329610 -0.024953 0.059311 -0.242984 -0.531282 -0.015304 -0.109655 -0.196343 0.077958 0.228601 -0.200084 -0.499419 0.090281 -0.525988 0.309506 -0.032559 0.019073 -0.394184 0.222735 -0.285980 0.013939 -0.140923 -0.007150 0.124380 0.091422 0.342656 -0.090004 0.290895 0.105156 0.150722 0.022010 -0.017378 -0.208879 0.166685 0.033858 -0.134396 -0.167850 0.007218 0.024540 -0.195006 -0.142640 0.265653 0.098405 0.240307 0.082383 -0.023553 0.243168 0.247296 -0.496982 -0.084140 -0.040147 -0.527422 0.321009 -0.259980 0.222903 0.049235 -0.137109 -0.183942 0.106779 0.054686 0.049789 -0.196147 0.048683 0.157909 0.275963 0.114964 0.180012 0.054976 0.149410 -0.098528 0.101936 0.026134 0.195165 -0.224701 0.039223 -0.336955 0.311800 0.416621 0.338953 0.031416 0.328455 0.393951 0.141317 0.076782 0.119647 -0.217347 0.336749 -0.135087 0.460546 0.208619 0.203003 -0.073584 -0.037840 0.108994 -0.029491 -0.200661 0.015040 -0.313215 0.171759 -0.029340 -0.157174 -0.302944 0.213357 -0.507859 -0.089119 -0.364532 -0.042609 -0.197643 -0.033569 0.030310 0.365141 -0.231305 -0.052396 0.112202 -0.226232 0.011607 0.006215
1101 0.500969 -1.172801 -0.235527 0.481010 -0.132339 -0.049052 -0.403944 0.107907 -0.637099 0.090532 -0.024552 0.139482 -0.070093 0.113386 0.060734 -0.367906 0.360078 -0.499691 -0.321685 0.194571 -0.165775 -0.094492 0.549867 -0.157791 -0.637621 -0.368915 -0.294936 0.343105 0.205872 -0.091671 -0.336464 0.106093 -0.209311 0.169850 0.359595 -0.440181 -0.343706 -0.269452 0.272153 0.334250 0.093145 0.627594 -0.293815 -0.168813 0.457720 0.448053 -0.330561 0.121625 0.127526 0.041152 -0.384528 -0.065701 0.620716 -0.379049 -0.107807 -0.412643 -0.062570 -0.026039 0.503315 -0.388523 0.148560 0.005727 0.311009 0.253825 -0.278232 -0.299466 0.010821 -0.257103 0.165144 -0.237767 0.489840 0.141423 0.239900 0.139426 0.128449 -0.919616 -0.539916 -0.217559 0.030660 -0.209817 0.200691 -0.248466 0.224427 -0.450506 0.112424 0.104083 -0.113377 -0.784371 0.415279 -0.317788 0.215281 0.214024 0.424030 -0.150924 -0.573254 0.112291 0.410860 -0.105739 0.269112 -0.047321 0.623151 -0.457034 0.304531 -0.100841 0.353586 -0.629201 -0.275740 -0.265448 -0.151415 0.462850 -0.220353 -0.306539 -0.317257 -0.127983 0.360373 -0.229372 0.524860 -0.223402 0.128220 0.382269 0.891423 0.072962 0.486502 -0.481072 -0.051870 -0.511238 0.382410 -0.200929
868 -0.208160 -0.144966 -0.353079 0.240892 -0.243876 -0.494112 0.182027 0.386405 -0.470697 0.070259 0.087721 -0.029846 -0.330748 -0.533735 -0.061983 -0.027093 -0.083101 0.162905 -0.058553 0.229116 -0.334259 -0.633949 -0.213679 -0.056660 0.135102 -0.455341 0.005137 0.380351 -0.054637 0.220162 -0.581808 -0.232384 -0.079140 0.685954 -0.128566 -0.052944 0.204126 -0.287684 0.023805 0.501816 -0.307847 -0.290024 -0.357656 0.133994 0.410857 0.125275 -0.019388 0.008314 -0.307060 -0.131062 -0.178074 -0.043217 0.155048 -0.584299 -0.257132 0.306106 -0.321889 -0.346751 -0.054094 -0.137872 -0.181293 0.152344 -0.115166 -0.032694 -0.182843 -0.147731 -0.120917 -0.076570 0.022313 0.026746 0.102657 -0.410854 -0.666225 0.182985 -0.566310 -0.389281 0.098475 0.376605 -0.712606 -0.394625 0.530638 0.211730 0.078208 -0.108814 -0.127664 -0.381800 -0.138322 -0.275009 0.264369 0.401656 -0.151374 -0.616116 0.578519 0.243595 -0.081818 0.499634 -0.126683 -0.291030 -0.074993 -0.151386 0.604688 0.322389 0.782962 0.028402 0.167048 -0.405539 0.293568 0.137358 -0.166014 0.216277 -0.359836 -0.014610 0.228916 -0.286079 -0.059046 -0.198524 -0.957857 -0.231007 0.381809 -0.099058 -0.113071 -0.046616 0.275788 -0.144844 -0.379448 -0.031656 0.165621 0.316510
698 -0.074586 -0.030333 0.003972 -0.334977 0.327152 0.075298 -0.137538 -0.135956 -0.407635 0.005366 -0.280855 -0.167301 0.040710 -0.080016 -0.048935 0.091232 -0.038630 0.042068 -0.288354 -0.111866 0.000178 -0.285155 0.049536 -0.298190 -0.466376 -0.015170 0.274466 -0.152675 -0.266512 0.065312 -0.203424 -0.087907 -0.077900 -0.179397 0.242738 0.105073 -0.422295 0.327641 0.068562 -0.175035 0.010835 -0.035504 0.438594 -0.077444 -0.120409 -0.071477 -0.581133 -0.188127 -0.088429 0.044875 -0.052582 0.120411 0.184818 -0.151984 0.549854 0.386898 -0.159669 -0.091709 0.083219 -0.193384 -0.200383 -0.178474 -0.036747 -0.030009 -0.230362 0.061414 -0.328264 0.021102 -0.234833 -0.146607 0.068421 -0.005736 0.127774 -0.063522 -0.037211 -0.138750 0.532741 0.058427 -0.077568 -0.155194 0.167482 -0.002115 -0.254570 0.086717 -0.251905 -0.362391 -0.148999 -0.135402 0.005048 0.192314 0.248494 0.012555 0.376308 0.162256 -0.147608 -0.024629 0.042393 0.075757 0.362443 0.140884 0.136438 0.181541 0.266804 -0.175006 0.530621 0.048282 -0.185060 -0.224883 -0.038068 -0.352287 -0.058859 0.423404 0.195546 -0.188871 0.208309 0.066093 0.308799 0.130753 -0.361295 -0.118677 -0.089617 0.175112 -0.157510 0.107650 0.035031 -0.027405 0.102062 -0.117653
0 -0.122379 0.181449 0.259232 -0.066323 -0.049770 -0.323712 -0.184278 0.197908 -0.031144 -0.195502 0.152596 0.154212 -0.412370 -0.037712 -0.116560 -0.334665 -0.213290 -0.078126 0.566757 -0.339724 -0.135245 -0.282697 0.087309 -0.128544 -0.044498 -0.456655 -0.364485 0.266652 -0.375772 0.173082 0.036449 0.020587 -0.147848 0.057048 0.298228 0.243364 0.161730 -0.228688 0.333112 -0.131482 -0.259484 -0.076349 -0.006975 -0.418051 0.473241 0.211712 0.247768 0.440949 -0.128584 0.537907 -0.327815 0.251550 0.734012 0.007848 0.012465 0.417921 -0.176981 -0.031728 0.002049 -0.445363 -0.230107 0.440742 -0.181899 0.434054 0.246384 -0.337069 -0.196151 -0.049958 -0.570860 -0.331848 -0.159529 -0.257831 0.226935 0.156575 -0.376699 -0.333740 -0.181269 -0.331409 -0.172344 0.279046 -0.277015 -0.008132 0.094920 -0.070711 -0.001880 -0.495649 -0.784359 0.124420 0.164111 0.303799 -0.357419 -0.668507 0.364386 -0.245268 -0.139981 0.113241 0.401460 -0.167085 -0.076280 -0.282589 0.278296 -0.152661 0.537273 -0.133397 0.297495 -0.079832 -0.026433 0.129430 -0.133591 -0.143298 -0.075497 0.098316 -0.425203 -0.291008 0.032587 0.086732 0.002676 -0.433751 0.191629 0.030045 -0.358559 -0.146765 -0.255975 0.131516 -0.101383 0.001358 -0.449977 0.243286
483 -0.330157 -0.459790 -0.013540 -0.144163 0.353369 -0.278180 -0.223668 -0.218679 -0.358137 -0.000215 -0.121110 -0.223692 -0.130991 -0.233585 0.076737 0.145096 -0.056706 -0.086684 0.036035 -0.348141 -0.213826 -0.054025 0.099272 0.063581 0.118303 -0.040980 0.033874 -0.016250 -0.208633 0.164505 -0.307411 -0.078446 -0.243459 0.120281 0.029750 0.166015 -0.099954 0.360174 -0.005434 -0.025306 0.089283 0.023680 -0.121313 0.148956 0.054631 -0.208130 -0.430818 -0.288648 -0.025005 -0.286907 -0.043668 -0.032570 0.221615 0.093538 0.013156 0.174354 0.160310 0.271325 -0.020275 0.077671 -0.317991 -0.007251 0.191761 0.182651 -0.230063 -0.178634 0.052669 0.054073 0.375855 -0.239716 0.202130 -0.038434 0.111084 0.062109 0.039167 -0.160563 0.252909 -0.177566 0.087325 0.082625 0.067186 0.011567 -0.311895 0.155270 -0.418951 -0.329119 -0.370655 0.222284 0.123333 -0.028799 0.190880 0.143783 0.392688 -0.204460 -0.061473 0.086575 -0.293778 0.042859 0.062134 -0.110390 -0.058402 -0.070693 0.259060 -0.148134 0.424328 0.208148 -0.331464 0.088883 -0.232275 -0.290700 -0.231449 0.293604 -0.017398 -0.037780 0.051401 -0.078735 0.258838 0.140443 -0.146053 -0.354856 -0.014436 0.004507 -0.509692 -0.375666 0.023110 0.122434 0.206547 -0.002181
31 0.142674 -0.116694 -0.310152 0.076256 0.074785 -0.224325 0.004921 0.072142 -0.312984 0.441312 0.192460 -0.058357 0.249823 0.006905 0.221875 -0.159558 0.070806 0.009602 -0.228755 0.228208 -0.097258 -0.349454 -0.679104 -0.085598 -0.184273 -0.214272 0.364522 0.115872 -0.162889 0.010692 -0.015044 -0.253770 0.090335 -0.083955 -0.059616 0.263052 0.101911 -0.049290 0.145915 0.134381 0.384712 0.186917 -0.191252 0.076052 0.271594 0.056631 -0.214837 -0.285965 -0.099786 0.010410 0.009986 0.288379 0.071272 0.245207 0.190926 0.223991 -0.271241 -0.082150 0.257772 -0.418880 0.163948 -0.103801 -0.357271 0.290163 0.126946 0.450280 0.051220 0.112537 0.003070 -0.055939 0.343371 0.261633 -0.127408 0.120500 0.279595 -0.113970 0.045737 -0.215627 0.032668 -0.259450 0.131885 -0.172135 0.000374 0.076116 -0.138536 0.154631 -0.544544 0.506794 0.043111 0.458583 0.014086 0.457625 0.018756 0.103488 -0.133322 0.324071 -0.015774 -0.104876 -0.210377 0.546187 0.067185 -0.093168 0.129707 0.465597 0.050543 0.276465 -0.387216 -0.049023 -0.411469 0.039447 -0.176724 -0.149445 -0.192629 0.027941 -0.049007 -0.229341 -0.262627 -0.099527 -0.065807 -0.048160 0.181342 -0.108854 -0.231142 -0.035710 -0.013712 -0.168039 -0.249237 -0.153640
753 0.249388 -0.369567 -0.090682 0.252517 0.326664 -0.562540 0.361733 -0.424400 -0.279338 -0.123553 -0.460150 -0.043443 0.238791 -0.166907 0.015206 -0.074616 0.250588 -0.094777 -0.336127 0.247999 -0.513867 0.106477 -0.165267 -0.258221 -0.053142 -0.212292 -0.454236 -0.062711 0.331433 0.346802 0.045886 0.186799 -0.217792 -0.110448 0.507006 0.178571 0.236566 -0.377511 -0.315517 -0.080623 -0.430343 0.359195 -0.053737 -0.071684 0.472501 0.265258 -0.238427 0.127475 0.125462 -0.280818 -0.078513 -0.338219 0.055057 -0.228012 -0.101630 0.283691 0.145690 -0.014134 -0.293664 0.229458 -0.169498 0.232702 -0.623439 0.109303 0.094430 0.429673 -0.091488 -0.181482 0.008454 -0.120366 -0.155769 -0.122056 0.414523 0.029015 0.101933 -0.458881 0.475943 -0.419337 0.204764 0.312979 0.094007 0.364750 -0.267822 0.500882 -0.270211 -0.083648 -0.310136 -0.256976 -0.273592 0.031471 -0.410723 -0.429821 0.109818 -0.390174 -0.149257 0.121853 0.238521 -0.343326 -0.242662 0.573365 -0.002965 -0.107906 0.506373 0.025209 0.197540 -0.269637 0.448580 0.118765 0.397510 -0.445395 0.334610 0.103636 -0.078747 0.969999 0.203947 0.241648 -0.110180 -0.129449 0.008461 -0.488471 -0.018076 0.124579 0.253653 -0.347751 -0.442259 -0.277573 -0.398114 0.049279
2050 0.077980 0.104160 -0.024300 -0.316803 0.100913 -0.222397 0.144553 0.041571 0.347115 0.220173 -0.263663 -0.204948 0.257500 0.294591 0.116469 0.234941 0.159367 0.100422 -0.026824 -0.083685 -0.467032 0.207111 -0.581732 -0.182583 0.117984 -0.230735 -0.618953 0.457386 -0.143576 0.131221 -0.292707 0.083604 -0.094086 0.049475 0.654109 0.000927 0.091138 0.061580 -0.218237 0.142037 -0.492567 0.298546 0.249095 -0.119494 0.237331 0.015469 -0.243155 0.076184 0.095881 -0.320203 -0.396978 -0.172317 -0.076894 -0.381390 -0.491031 0.228916 0.289302 0.334774 0.199820 0.182971 -0.159174 0.591454 -0.563331 0.198462 -0.511733 -0.136413 -0.347198 -0.143385 0.503959 0.027929 -0.041771 0.011270 0.143858 0.287417 0.125691 0.073348 0.634788 -0.015999 -0.137862 -0.412750 -0.001759 -0.032281 -0.236426 0.305528 -0.601579 -0.115150 -0.165637 -0.230078 -0.236365 0.125568 -0.541910 0.001893 -0.059382 0.037537 -0.150557 -0.288587 -0.002102 -0.390057 -0.282304 0.141890 0.184706 -0.374540 -0.045977 0.126116 0.075516 -0.226123 0.194124 -0.180600 0.417783 -0.014118 0.052109 -0.159288 -0.340088 0.000454 0.133328 0.410592 -0.126928 -0.019913 0.118339 0.335724 -0.003726 -0.285785 -0.007694 -0.302133 -0.307059 -0.287940 0.267167 -0.233276
263 -0.103459 -0.201656 -0.239846 -0.098002 0.313099 -0.194643 -0.104870 0.058524 -0.622849 -0.110856 -0.043407 -0.431122 -0.202254 -0.349738 0.068529 0.048778 0.195387 -0.089538 -0.015764 0.715492 0.076206 -0.431871 -0.160662 0.446097 -0.034423 0.296624 0.058467 -0.331646 -0.061787 0.232597 -0.495988 -0.203344 0.126487 -0.497800 0.027985 0.170756 -0.110486 0.036649 0.342499 -0.030149 -0.205537 -0.137327 0.169535 -0.012163 0.533953 -0.058459 0.007139 -0.062484 -0.017134 0.003230 0.017357 -0.012278 0.013218 0.071383 0.080583 0.226090 0.057098 -0.121853 -0.125203 0.398268 -0.062004 0.199438 0.115574 0.061330 -0.062116 0.236837 -0.212269 -0.703565 -0.317443 -0.237928 0.208772 0.057799 -0.063135 0.050449 -0.179857 -0.132394 -0.243745 -0.022498 -0.474768 -0.211071 -0.095823 0.266163 -0.161697 0.049445 -0.121972 -0.112557 -0.583707 0.355276 0.307243 0.167424 -0.198302 0.618609 0.074919 -0.073797 -0.102199 -0.037668 0.056060 0.451419 0.186674 -0.193789 -0.362741 -0.347411 -0.225352 -0.309367 -0.027538 0.166180 0.041540 0.133613 0.051331 0.282398 -0.375976 -0.191848 -0.385144 0.341154 0.433162 0.195653 0.029771 0.197872 0.019739 -0.186479 0.169591 0.046284 0.014681 0.149731 -0.317513 -0.288234 -0.124652 -0.247731
516 -0.153731 -0.355012 -0.052387 -0.149059 0.041696 -0.268620 -0.365288 -0.129610 -0.247170 -0.010803 -0.509827 -0.245962 -0.066838 -0.226441 -0.075305 0.230407 -0.219416 0.059322 -0.050940 -0.123530 -0.302020 -0.231093 -0.200331 0.207605 -0.073435 -0.350893 0.153423 -0.059772 -0.376937 -0.075910 -0.193185 -0.161313 -0.174159 0.039067 0.202778 -0.107397 -0.060547 0.244489 -0.124337 -0.086796 0.106122 0.134541 -0.214653 -0.005179 0.214840 -0.289634 -0.340596 -0.171840 0.056437 -0.165608 0.062635 0.044827 0.385728 0.142166 0.099930 0.054496 0.210844 0.249757 0.008871 -0.170517 0.011345 0.254837 0.197133 0.094869 -0.275504 -0.127973 -0.092376 -0.132383 -0.023972 -0.188311 0.065348 -0.132258 -0.180933 0.044525 -0.164747 -0.090874 0.239013 -0.145120 0.185717 -0.078164 0.093250 0.003262 -0.173472 0.131263 -0.070881 -0.104915 -0.127290 0.169344 0.078356 0.092996 0.186073 0.007669 0.233053 -0.022736 0.066076 0.076607 -0.154903 0.267617 -0.080584 0.076536 0.038186 -0.156934 0.579953 -0.365703 0.274406 0.158412 -0.177696 0.056065 -0.110679 -0.316840 -0.148979 0.263739 0.143093 0.146733 0.040842 -0.216513 0.232277 0.190580 -0.173682 -0.196722 -0.224903 0.371641 -0.593220 -0.202293 0.122534 0.109384 0.235522 -0.094509
354 -0.509938 -0.442531 -0.057722 0.153610 -0.839549 -0.116970 -0.094151 0.292573 0.121842 -0.524657 -0.335308 -0.069010 -0.180218 0.058636 -0.628312 -0.218069 -0.084686 0.003200 -0.049598 -0.231180 -0.317516 -0.981445 0.035885 -0.118633 0.055832 0.430881 -0.242864 0.389139 0.461399 0.425808 0.747111 -0.226097 0.156937 -0.023763 0.587317 -0.484164 -0.049092 -0.036142 0.807443 -0.146912 -0.432991 0.545905 -0.095830 0.491144 -0.396546 -0.317723 -0.036942 0.456566 -0.092729 0.639775 -0.295667 -0.281086 0.084770 0.082901 -0.168804 0.320337 0.088281 -0.577991 0.665763 0.136097 0.115746 0.220370 -0.168749 0.552977 0.280853 -0.099449 -0.105757 0.009626 0.235728 -0.035855 -0.186398 -0.439594 -0.016499 0.135161 -0.017847 0.345939 0.565012 0.317351 -0.399337 -0.002290 0.605931 -0.209033 0.193477 -0.163570 0.184077 0.224630 -0.297195 0.762106 0.006910 -0.060456 -0.246871 0.215254 0.205391 -0.717747 -0.128186 0.515769 -0.209945 0.322593 0.443783 0.372229 0.188307 0.148327 -0.070325 0.046241 0.633874 -0.130990 -0.065978 0.131507 -0.024526 -0.285497 -0.098518 0.133839 -0.148864 -0.019936 0.056792 0.388900 0.035079 0.281275 0.060475 0.097764 0.288100 -0.251108 -0.199444 -0.399114 -0.366658 0.019682 0.106819 -0.532516
979 0.280678 -0.176853 -0.112370 0.096456 0.221394 0.228051 0.391685 0.123320 0.098687 -0.321118 -0.060754 -0.054922 -0.053659 0.097848 0.091078 0.511967 0.145562 0.045681 -0.016134 -0.021414 -0.562120 -0.192120 -0.107613 0.029206 0.011475 -0.406304 -0.205256 0.326229 -0.179624 0.376213 0.018237 0.170113 -0.149702 0.228039 0.198762 -0.129235 -0.234695 -0.440507 0.117917 -0.284528 -0.167579 -0.153168 -0.139271 -0.066047 0.016623 0.133689 -0.139140 0.304125 -0.037098 0.068512 -0.173149 0.037815 0.174950 0.431260 0.435835 -0.018165 0.045692 0.105140 -0.136802 0.345997 -0.409704 0.697903 -0.229628 0.105519 0.394471 -0.295507 -0.062396 0.136371 -0.003375 -0.193405 0.091221 -0.291891 0.026071 -0.125260 -0.171525 -0.630974 0.241983 -0.229904 0.005813 -0.051761 0.048831 0.238672 0.590101 0.327845 -0.109235 -0.181254 -0.112225 0.192371 -0.254429 -0.129098 0.190795 0.317586 0.361140 -0.104321 0.333647 0.325036 0.260586 0.355611 0.166618 0.187827 0.156814 0.247312 0.186927 -0.354763 0.149250 -0.263493 -0.030198 -0.237628 -0.070279 -0.009649 0.192835 0.515779 -0.449188 -0.040747 -0.312501 0.233915 -0.386710 0.265242 0.338006 -0.132297 -0.086660 -0.312678 0.434389 0.062099 0.408051 0.162257 0.310986 -0.391432
522 -0.101843 -0.253047 -0.285619 -0.039838 -0.130238 -0.158541 -0.011141 -0.003115 -0.311333 0.027402 -0.288319 -0.300052 -0.050968 0.167301 0.056499 0.358629 0.189386 -0.058374 0.024944 0.038013 -0.095206 -0.006041 0.074163 -0.266849 -0.418899 0.124523 0.178859 -0.064739 0.122918 0.104858 -0.204515 -0.072392 -0.304900 0.158716 -0.239921 -0.063663 -0.165376 -0.045366 0.061164 -0.118614 -0.018297 0.234135 0.251711 -0.324863 -0.075421 -0.301033 -0.409674 0.243033 -0.370036 -0.099308 0.014451 0.385594 0.074430 0.312081 0.460817 0.202525 0.045848 -0.199869 -0.156653 -0.130266 0.171143 0.307990 0.186214 0.317118 -0.158555 0.332926 -0.136012 -0.382026 0.093044 0.274015 -0.105021 0.149932 -0.028545 -0.154540 -0.184208 -0.126481 0.385962 0.228778 -0.021807 -0.230111 0.466815 0.050652 -0.343118 0.036644 -0.385276 -0.036817 -0.348745 -0.289006 0.329227 0.294231 0.098561 -0.246668 0.488107 0.158647 -0.071972 -0.147610 -0.240863 0.152397 0.252452 0.382523 -0.199094 0.242521 0.345759 -0.082291 0.051491 0.050881 -0.424707 0.046447 -0.190908 -0.119490 0.259820 0.101384 0.158825 0.082876 -0.145654 0.086406 0.239986 -0.341489 -0.445485 0.215551 0.049837 -0.056458 -0.033220 0.192555 0.036913 -0.024514 -0.002316 0.076171
691 0.252618 -0.066616 -0.145396 0.436090 -0.238586 -0.126619 0.130677 0.210461 0.024275 -0.710283 0.443745 0.052271 0.044692 0.256207 0.132682 -0.142277 0.128320 0.032492 0.474949 -0.147585 -0.508938 -0.394906 -0.015288 0.158183 -0.047321 -0.171246 -0.116054 0.341960 0.042506 0.242616 0.116855 0.586989 -0.009336 -0.096351 0.388574 0.059086 0.062088 -0.088302 0.047979 -0.453071 -0.073925 -0.234683 0.165950 -0.165779 -0.035571 0.469212 0.094301 0.246847 -0.463588 0.365200 -0.244987 -0.021779 0.079654 0.178434 -0.001970 0.548750 0.258794 -0.132722 -0.092363 -0.150829 -0.493595 0.526017 -0.346764 0.215390 0.144972 -0.519816 -0.104921 -0.163180 -0.631363 -0.146067 -0.295979 -0.367501 0.065177 -0.086638 0.051858 -0.441164 -0.081543 -0.464963 0.165385 0.104639 -0.331891 0.158514 0.020437 0.081132 -0.364031 -0.533524 -0.479961 0.030658 0.049395 0.287317 0.075353 -0.121638 0.382833 -0.377590 0.460494 0.319016 0.518701 -0.023649 -0.231668 -0.186509 -0.061425 -0.153966 0.326973 -0.093545 0.249579 0.016493 -0.255447 -0.038065 -0.106179 -0.126165 0.432999 0.286360 -0.654516 -0.002157 0.302140 -0.004592 -0.170554 -0.452554 0.183874 0.082315 -0.137173 0.049887 -0.156265 -0.016509 -0.047142 -0.049922 -0.328699 0.126998
673 0.126164 -0.076429 -0.073845 -0.549940 -0.321939 -0.334055 -0.331203 -0.251446 -0.305787 -0.194825 0.006051 -0.048763 -0.285834 -0.421386 0.152603 -0.094692 -0.173920 -0.143503 -0.252608 -0.197352 0.070730 -0.062396 -0.367709 0.042886 -0.157732 -0.217820 0.031118 -0.113512 -0.473119 0.027232 -0.107445 -0.128280 0.086782 -0.144525 0.573145 0.026087 -0.182306 -0.057757 -0.013488 0.064050 0.099483 0.021856 -0.023253 -0.250865 0.483534 -0.134970 -0.288976 0.018993 -0.361954 0.244656 0.052420 -0.259805 0.283116 0.128776 0.129489 0.297294 -0.149194 0.462159 -0.008536 0.077326 -0.245073 0.179367 0.179601 0.003146 -0.268340 -0.248475 -0.175750 -0.303594 0.003254 0.215333 -0.132720 0.256298 -0.095581 -0.044480 -0.152793 -0.104949 0.211500 -0.077383 -0.146513 -0.023097 0.027591 -0.135264 -0.345110 0.199328 -0.104755 -0.062893 -0.148347 0.205862 0.115400 0.115132 0.258337 0.364192 -0.070782 -0.222536 0.014416 0.052060 -0.282929 0.507242 0.035247 0.265258 -0.036806 -0.318569 -0.166440 -0.160039 0.198223 0.120390 0.011806 -0.156419 -0.431473 -0.140201 -0.138340 0.189035 0.068338 0.078389 -0.430939 -0.074762 0.106863 0.254839 -0.105861 -0.068116 -0.207977 0.069529 0.114429 -0.165405 0.146973 -0.041898 0.209034 0.528203
685 -0.097126 -0.403354 -0.139195 -0.466561 0.313207 -0.087673 -0.123545 -0.167858 -0.258106 0.142690 -0.219986 -0.250660 -0.228977 -0.121649 0.117299 0.313074 0.147056 0.047472 -0.096487 0.378718 0.198872 -0.097605 0.061504 0.119817 -0.151869 0.366296 0.059778 -0.079651 -0.351536 0.117440 -0.060267 -0.172753 0.041452 -0.401929 0.259448 -0.063328 -0.348795 0.292928 -0.056561 -0.214522 -0.270245 0.081453 0.089251 0.205251 0.393640 -0.174102 0.143727 -0.093203 0.148853 0.003039 0.008201 0.172823 0.007840 0.012324 0.332158 0.257139 -0.134370 0.034547 -0.091783 0.099609 -0.200617 0.003900 -0.006318 0.648081 -0.047119 0.092259 -0.423680 -0.526866 -0.298111 -0.036804 0.070496 0.206988 0.043857 0.149289 -0.366440 -0.087680 0.025847 0.071433 -0.401696 -0.162286 0.048284 0.023593 -0.091301 -0.134732 -0.068355 -0.266804 -0.149438 0.446579 0.585080 0.357845 0.175593 0.133444 0.125676 -0.111841 -0.227635 0.312189 0.135206 0.112652 0.007191 -0.098923 -0.194396 -0.025702 -0.322184 -0.009123 0.021482 -0.098547 0.014337 -0.080685 -0.182857 0.162364 -0.103150 -0.378399 -0.331091 0.245968 0.110551 0.029172 -0.186720 0.129913 -0.070694 -0.284033 0.227345 -0.143976 0.030101 -0.049002 -0.344530 -0.291340 -0.413363 -0.049308
416 -0.202991 -0.331318 -0.008582 0.147636 -0.277524 0.154171 0.037926 -0.024065 0.462949 -0.487839 0.054983 -0.130086 0.202386 -0.037343 -0.315559 -0.072513 0.100379 -0.031889 0.489014 -0.016826 -0.358651 -0.221657 -0.361356 0.129291 -0.296831 -0.128032 0.102683 -0.040149 -0.007082 0.202929 0.408444 0.229474 0.361015 -0.040196 0.345977 -0.099895 -0.030817 -0.153024 0.165670 0.160375 -0.236659 0.392406 -0.022001 0.197821 -0.078084 0.080143 -0.008460 0.670558 -0.331106 0.362416 -0.183188 -0.405262 0.174837 -0.117427 0.230717 0.449251 -0.000963 -0.159103 0.173479 -0.020157 0.406313 0.130522 -0.232708 0.570512 0.253886 -0.124338 -0.294792 -0.135743 -0.162853 0.086736 -0.102098 -0.199004 -0.216105 -0.121645 0.342047 -0.437542 -0.115850 -0.015628 -0.066201 0.025952 0.229880 0.030072 0.324016 0.017077 -0.671461 0.089882 -0.574319 -0.346374 -0.244840 -0.061500 0.341747 0.252943 0.422236 -0.296611 0.554309 0.438954 0.376441 0.667760 0.025921 0.166316 0.118248 -0.173646 -0.076254 0.075096 0.304223 -0.287032 0.042052 0.106267 -0.097554 -0.103731 0.133721 0.746878 -0.328546 -0.240358 0.286320 0.297464 -0.353021 0.225453 0.156370 -0.214387 0.081400 0.010657 0.048796 0.031073 -0.386220 0.044830 0.215563 -0.879033
495 0.384452 -0.141899 -0.076862 0.049171 0.098000 0.475579 0.691906 0.076557 0.127797 -0.309357 -0.125082 0.068914 -0.285843 -0.019911 0.001242 0.537838 0.181729 -0.011749 0.004898 0.142741 -0.582417 -0.198139 0.104555 -0.040957 0.049540 -0.063903 -0.295500 0.396076 -0.211892 0.345238 -0.014687 0.191028 -0.298779 0.445104 0.212459 -0.322745 -0.251414 -0.296240 0.040165 -0.260479 -0.328066 -0.108060 0.093188 0.130289 0.067625 -0.067262 -0.142646 0.157802 0.013366 -0.040607 -0.170601 0.096040 0.129662 0.191990 0.318733 0.116985 0.052683 -0.089274 0.054228 0.364118 -0.264858 0.604989 -0.281987 -0.015328 0.450589 -0.459250 -0.003988 -0.030558 0.003634 -0.388061 0.184161 -0.308280 -0.178827 -0.179592 -0.238550 -0.695148 0.383493 -0.321371 0.146526 -0.013719 0.079526 0.327787 0.559062 0.549612 -0.222570 -0.140430 -0.106204 0.188975 -0.094011 0.096947 0.259092 0.342097 0.422633 -0.038991 0.326316 0.369805 0.215403 0.179184 0.131650 0.178945 0.211640 0.168711 -0.165792 -0.243261 -0.019460 -0.172929 -0.234590 -0.062438 -0.053784 0.228817 0.577695 0.584221 -0.592343 -0.048786 -0.229217 0.172137 -0.142841 0.121708 0.166315 -0.119143 0.058840 -0.336181 0.014013 0.289719 0.534434 0.143304 0.287845 -0.228252
1004 0.015132 -0.410289 0.075927 0.174031 0.191554 -0.068118 0.047064 0.123086 -0.023282 -0.111586 -0.199774 -0.334073 -0.177575 -0.047398 0.080038 0.190954 -0.268144 0.089126 -0.179994 -0.034631 -0.270251 -0.342173 -0.593595 0.174868 -0.287798 -0.238009 0.477066 0.158551 -0.166180 -0.203063 -0.020596 -0.019054 -0.170030 -0.185134 -0.177143 -0.215082 -0.075253 0.154660 -0.035550 0.193488 0.057460 -0.094630 -0.064810 -0.178265 0.494115 -0.129407 -0.465203 -0.111973 0.198657 -0.198867 0.282884 0.164009 0.280620 -0.042436 0.180568 0.390401 0.244205 -0.015699 0.326371 -0.011492 0.000962 0.104905 0.230366 0.128605 -0.450290 -0.048294 -0.014617 -0.567092 0.003326 0.076592 0.015715 -0.047920 0.067599 -0.105949 0.085782 0.089613 0.329877 -0.223316 0.190025 -0.025077 0.260403 0.206581 -0.426844 0.211068 0.221793 -0.177625 -0.651371 0.403233 -0.181115 -0.064490 0.227091 0.075294 -0.028373 -0.093396 0.049046 0.228620 -0.151710 0.324645 0.158666 -0.125801 0.043789 -0.094493 0.256945 -0.029358 0.092872 0.163670 -0.390023 -0.041909 -0.349640 -0.288767 -0.287484 0.326015 0.262610 0.200622 0.376988 -0.207062 0.055169 0.242946 -0.072967 -0.014183 -0.178377 0.069774 -0.112682 0.071312 -0.126122 0.246229 0.304051 0.007322
748 -0.061215 -0.168178 -0.240078 0.001891 -0.016827 -0.208260 -0.102475 0.005175 -0.295638 -0.187470 -0.173478 -0.153825 0.016415 0.041110 0.028805 0.349011 -0.288768 -0.198301 -0.000042 -0.031084 -0.161044 -0.061957 0.066115 -0.343359 -0.361277 0.244541 -0.057522 -0.029355 0.006165 0.039936 -0.166113 0.005605 -0.326219 -0.014057 -0.217372 0.030712 -0.205236 0.049615 -0.030717 -0.142265 -0.014805 0.147677 0.320654 -0.270961 0.020184 -0.420026 -0.327761 0.143579 -0.257334 -0.175524 -0.037855 0.399942 0.154130 0.179882 0.460177 0.098668 -0.141612 -0.193161 -0.210078 -0.180520 0.295530 0.233048 0.224347 0.245136 -0.183152 0.288459 -0.087156 -0.411072 0.139045 0.520605 0.041001 0.120793 -0.100867 -0.027575 -0.268817 -0.059638 0.489174 0.258789 -0.149754 -0.238368 0.455472 -0.153936 -0.187463 0.102233 -0.305380 0.015275 -0.187598 -0.231588 0.091388 0.417314 0.104409 -0.182838 0.434285 0.209624 -0.187041 -0.083860 -0.226884 -0.000279 0.111402 0.075246 -0.041208 0.198118 0.411817 -0.217104 0.125475 -0.015353 -0.223349 0.040748 -0.314021 -0.155924 0.306102 0.171529 -0.032148 0.168532 0.055242 0.080183 0.193656 -0.319686 -0.495387 0.100718 0.053010 0.070203 -0.118759 0.002213 0.223350 -0.033095 -0.058145 -0.017107
916 0.083900 -0.309880 0.025445 -0.130693 -0.063271 0.112368 -0.368485 -0.224571 0.113959 -0.076968 0.528895 0.027151 0.364589 -0.125015 -0.159093 -0.146414 -0.192892 -0.276289 -0.168606 0.213363 0.146957 0.039965 0.247542 0.406336 0.284271 0.046910 0.673746 0.199480 -0.182332 0.374568 -0.137569 -0.211105 -0.036870 0.373849 0.319532 -0.161065 0.279603 -0.230933 0.264272 0.175857 -0.043348 -0.269681 0.143566 -0.255353 0.452891 0.545291 -0.122284 0.229846 -0.047595 -0.128538 -0.435359 0.190660 -0.299729 0.657254 0.099733 -0.044994 0.633899 -0.322784 -0.220520 0.266688 -0.181342 -0.146491 -0.435096 0.435857 -0.121356 -0.330851 -0.272716 0.094604 0.105383 0.252984 0.095730 -0.081418 -0.554406 -0.336269 -0.327487 0.285344 0.500068 -0.515336 -0.299953 0.057793 -0.038027 0.407464 0.066941 0.310977 -0.005423 -0.151922 -0.234114 -0.204112 -0.174993 -0.157432 0.073657 -0.115713 -0.307200 -0.099941 -0.380445 0.082809 0.055010 -0.444389 0.102115 0.215442 0.143205 -0.282605 0.225714 -0.205118 0.082104 -0.293496 -0.783673 -0.159102 -0.116495 0.233325 -0.016070 0.121313 -0.510862 -0.162548 -0.213693 -0.189053 -0.136823 0.243008 -0.444184 0.221538 0.107144 0.031785 -0.172212 -0.159306 0.076202 -0.134024 -0.074891 -0.635060
51 -0.225689 -0.355233 -0.085672 -0.232661 0.290695 -0.231770 -0.190950 -0.099354 -0.171700 0.016043 -0.407028 -0.038851 0.071341 -0.254892 0.180317 0.301010 -0.162666 -0.031717 0.013471 -0.241323 -0.364410 -0.247481 -0.150034 0.054155 -0.193352 -0.316241 0.173141 -0.057334 -0.159936 0.153906 0.103041 -0.089368 -0.194181 -0.086292 0.062046 -0.058063 -0.255797 0.389979 -0.164173 0.077101 0.202893 -0.008127 -0.042641 -0.029218 0.210683 -0.253500 -0.166264 -0.119214 -0.051226 -0.233586 0.042652 0.025319 0.322369 0.173413 0.436644 0.032048 0.188689 0.157474 0.143474 -0.071209 -0.267208 -0.058245 0.225876 0.028050 -0.090882 -0.236723 0.011170 0.009806 0.210490 -0.308940 0.000707 -0.056195 -0.083193 0.303881 -0.096184 -0.025523 0.254478 -0.100981 0.147330 0.013679 0.214161 0.128932 -0.267217 0.131048 -0.315676 -0.061860 -0.300963 0.135935 0.097105 -0.097890 0.073565 -0.050217 0.379914 -0.109604 -0.050829 0.107694 -0.212569 -0.059967 0.276706 -0.104005 0.072731 -0.194244 0.391390 -0.252484 0.436967 0.269573 -0.277398 -0.067407 -0.258708 -0.341459 -0.134578 0.249792 0.118274 0.055749 -0.005430 -0.131094 0.157003 0.199534 -0.328537 -0.327679 -0.058594 0.229934 -0.463073 -0.146608 0.029958 0.023704 0.219582 0.011895
876 -0.089352 -0.295691 -0.487488 -0.291229 0.606504 -0.305309 -0.492068 0.115988 -0.123275 -0.033460 -0.093827 -0.070972 -0.139006 -0.023724 -0.284742 -0.096537 -0.180797 0.530603 -0.068313 0.268769 0.040418 -0.333878 -0.588424 -0.138642 0.229186 -0.482106 0.037007 -0.063796 -0.513054 -0.246074 0.060676 0.200634 -0.594274 -0.044490 -0.404992 0.029481 -0.041682 -0.183311 0.322856 0.115077 0.118856 -0.302823 -0.368878 0.423091 0.216158 -0.072966 0.065128 0.612738 -0.650514 -0.371134 -0.017545 -0.151490 0.138686 0.506305 0.313800 0.736375 0.186457 -0.126230 0.115122 -0.064577 -0.004307 -0.154116 -0.498576 0.044457 0.395613 -0.072564 -0.059673 0.046199 -0.043161 -0.090710 0.360035 0.398324 -0.354464 -0.192797 0.268177 0.329970 0.138859 0.071017 0.304300 -0.269097 0.321353 -0.608359 0.208240 0.614695 0.228379 -0.021319 0.107098 0.339828 0.246690 0.209691 0.290370 0.260782 0.446077 0.060787 -0.339180 0.005130 0.176340 -0.633211 -0.123161 0.050791 -0.141369 0.097335 -0.326529 -0.206494 0.262269 -0.173665 -0.276498 -0.243045 -0.059111 0.157128 -0.069247 -0.047317 -0.139508 0.211918 -0.017333 -0.328991 -0.259592 -0.110339 0.289833 0.350937 0.255310 -0.316803 -0.223817 0.065381 -0.252114 -0.138951 -0.077010 -0.069938
848 0.322773 0.040402 -0.074010 0.116214 0.024265 -0.031966 -0.237759 0.223682 -0.109199 0.025320 0.110724 0.033908 0.124136 0.507009 -0.581005 -0.141728 0.191936 0.362792 -0.034825 0.204429 -0.081580 -0.136665 0.148081 0.545334 -0.009111 -0.282203 -0.198025 0.205635 -0.213041 0.087649 0.065916 -0.139650 -0.259085 0.225038 0.273936 0.222801 -0.353152 -0.524022 0.275601 -0.122283 0.376921 -0.319698 -0.031423 -0.237462 0.044208 0.181823 0.079355 -0.262642 -0.116822 0.003577 0.135418 0.433377 0.372074 0.218651 0.201639 0.187183 0.415162 -0.169981 -0.172710 0.370527 -0.031204 -0.050177 -0.249111 0.279302 -0.096329 0.177056 -0.127625 -0.253347 0.449821 -0.059385 -0.479901 -0.022738 0.160571 0.062081 -0.101051 -0.404339 -0.083453 0.032885 -0.324612 -0.013835 0.128986 0.181972 0.144808 0.464260 -0.180611 -0.534789 -0.132258 -0.000755 -0.718432 -0.113051 -0.147309 -0.004048 0.344636 -0.001272 -0.147240 0.575448 0.208476 -0.041963 -0.131967 -0.107039 -0.140820 -0.119268 0.067252 -0.324030 0.005686 -0.213683 0.013255 0.049694 -0.103039 -0.322958 0.028647 -0.087316 0.082722 -0.219517 -0.435312 -0.131237 -0.255831 0.285993 0.152694 -0.297696 -0.046840 -0.574929 0.215266 -0.157270 0.401296 -0.177200 -0.003329 -0.280527
441 0.022823 -0.071448 -0.101818 0.380301 -0.018793 -0.569421 0.336397 -0.319157 -0.126046 -0.247939 -0.168887 0.036765 0.064972 -0.491032 0.008877 0.074582 0.045275 -0.379057 -0.048866 0.141013 -0.178034 0.049673 -0.386371 0.314853 -0.135312 0.074785 0.254183 0.184291 -0.723844 -0.093800 -0.337753 0.007386 0.065817 -0.347927 -0.188962 -0.347457 -0.228255 -0.031974 0.134538 0.409632 0.319919 0.696210 0.062322 0.197067 0.194391 0.518015 -0.055738 -0.183521 -0.031575 0.552182 -0.118973 0.320017 -0.113186 0.140259 0.098249 0.002177 0.237975 -0.250929 0.371142 -0.173118 -0.333033 -0.159758 0.238766 -0.292612 0.200787 0.266730 -0.339649 0.081402 0.122649 -0.216282 -0.139441 0.143716 -0.475419 -0.211151 -0.082495 -0.246045 0.174137 -0.326939 0.222097 -0.653669 0.375092 0.097383 0.175778 -0.162860 -0.026260 -0.126902 -0.514509 0.218510 0.454923 0.084091 -0.391556 0.141531 0.018116 0.164702 -0.450513 0.100130 0.158505 0.133718 -0.208868 -0.048081 -0.406056 0.046557 -0.072907 0.150874 0.425018 0.040958 0.261963 0.439157 -0.078472 0.165623 0.160997 -0.046347 -0.109240 -0.239914 0.204260 -0.274543 0.211881 -0.092038 -0.040660 0.159053 0.099964 -0.632481 -0.038350 -0.256685 0.045433 0.041037 -0.215775 -0.356889
202 -0.122624 0.265278 0.140666 0.144513 0.073554 -0.114562 -0.414262 -0.194903 -0.035538 -0.613008 -0.428074 0.416164 0.306370 0.064730 0.040081 0.026550 0.447219 -0.096815 -0.084612 0.010421 -0.318155 -0.210987 0.055331 0.250970 0.266133 0.212924 -0.057833 -0.043730 -0.172752 -0.113609 -0.101483 0.564006 -0.206747 -0.057082 0.127618 -0.079220 -0.343021 -0.480955 0.106751 -0.088542 0.385710 -0.152869 -0.725858 -0.617314 0.266144 0.034002 0.208691 0.401759 -0.064605 0.377453 -0.437142 0.048529 0.028948 0.570257 -0.164378 0.211316 -0.059578 -0.089601 -0.444261 0.435533 0.291365 -0.115092 -0.150645 0.338369 0.240108 -0.216286 0.437880 -0.051357 0.423737 0.139504 -0.063643 0.017990 0.036886 -0.084705 -0.001703 -0.160289 0.222534 -0.369636 0.158134 -0.305695 0.297187 -0.078757 -0.002229 0.363967 -0.335269 -0.424948 -0.524050 -0.333663 0.025214 0.374810 -0.463400 -0.146037 0.106947 0.036177 -0.079477 0.069899 -0.039044 0.534353 -0.391063 0.153330 0.371711 -0.243446 0.219286 0.108317 0.032823 -0.307555 0.227719 -0.190952 0.089900 0.067159 0.242657 0.053004 0.466496 -0.150504 -0.375481 0.065011 -0.255410 0.763172 0.275659 -0.205377 0.166618 0.136337 -0.253227 -0.524298 -0.768058 -0.354494 -0.078307 -0.131397
1980 0.160005 0.307686 -0.059565 -0.449199 0.085027 -0.293111 0.137402 -0.116935 0.275885 0.174231 -0.154994 -0.325746 0.273707 -0.079453 0.075092 0.127432 0.003542 0.099565 0.102576 0.071946 -0.351985 0.184474 -0.572331 -0.212270 0.205507 -0.369633 -0.521302 0.458447 -0.101921 0.163994 -0.376565 0.169902 -0.170427 0.089837 0.523283 -0.228804 -0.057501 0.210999 -0.064527 -0.085270 -0.526230 0.374863 0.297980 -0.230887 0.173848 0.074280 -0.164300 0.431337 0.306500 -0.217826 -0.543263 -0.117321 -0.293715 -0.324653 -0.413323 0.270207 0.435598 0.244656 0.411632 0.213255 -0.253172 0.665935 -0.396815 0.158963 -0.436924 -0.224900 -0.141591 0.039356 0.462110 0.351783 0.129127 -0.055284 0.148370 0.414765 0.065927 0.306950 0.569296 0.037519 -0.146889 -0.482092 0.031899 -0.048283 -0.107297 0.380020 -0.755780 -0.037691 -0.072004 0.018217 -0.355970 0.041419 -0.556002 0.258560 -0.003191 -0.151705 -0.136719 -0.345537 0.063318 -0.345376 -0.152909 0.107178 0.222330 -0.345562 0.140063 0.211330 0.154662 -0.107818 0.168163 -0.193215 0.079260 0.035108 0.072910 -0.374580 -0.519375 -0.283093 0.140482 0.402463 -0.124433 -0.027021 0.074738 0.335543 0.028483 -0.245802 0.363186 -0.339802 -0.395066 -0.147455 0.208305 -0.154738
1747 -0.638162 -0.515730 -0.772074 0.215513 -0.325411 -0.226218 0.273287 -0.004175 -0.607379 0.163475 -0.011118 0.059671 -0.118956 -0.391703 -0.143503 -0.434837 0.068195 -0.038860 -0.148203 -0.279119 -0.303146 -0.536719 -0.272102 0.071516 0.079879 -0.563954 0.340387 0.478741 0.023468 0.287230 -0.467275 0.003926 -0.217701 0.557103 0.030943 -0.327224 0.430291 0.154676 -0.121609 0.400902 -0.318522 -0.291233 -0.495667 -0.032736 0.128198 0.280132 0.268118 0.060499 -0.129105 0.142990 -0.299720 -0.354542 0.055057 -0.684451 -0.069212 0.717457 -0.271282 -0.280597 -0.262992 -0.572991 0.146501 -0.093384 -0.376821 -0.069594 -0.330437 -0.285902 -0.451405 0.063738 0.198265 0.487287 -0.164573 -0.518471 -0.447492 0.019627 -0.931476 -0.574110 0.172811 0.369694 -0.478091 -0.292492 0.701545 0.038165 -0.104636 -0.254070 -0.214113 -0.303485 -0.019405 -0.159670 0.022197 0.464531 -0.115122 -0.606388 0.290890 0.112827 0.041132 0.026962 0.034911 -0.186522 0.243420 0.032261 0.521177 -0.050396 0.698619 0.235713 -0.031313 -0.245356 0.641981 0.183189 -0.139283 0.442625 -0.009370 -0.135468 -0.041447 -0.166533 -0.106615 -0.315040 -0.802215 -0.352185 0.470650 -0.056798 0.100386 0.349943 0.205512 0.037764 -0.241730 -0.200542 -0.032176 0.321611
2832 0.261211 -0.458711 0.258264 0.306521 -0.137649 0.313371 0.211677 0.046307 -1.055107 -0.393252 0.633035 0.067590 0.104659 -0.470825 -0.706369 -0.062059 0.137293 0.155722 -0.843108 -0.476185 -0.091926 0.189513 -0.130297 0.187141 -0.405394 -0.634716 0.106436 0.287370 -0.600194 0.139140 0.397940 -0.047001 -0.037402 -0.134599 0.253469 -0.746304 -0.043732 -0.157736 -0.403480 0.475196 -0.613828 0.311217 -0.046899 -0.096470 -0.375904 -0.037946 0.735935 0.390807 -0.210844 0.172516 -0.453761 -0.200990 -0.001025 -0.349132 0.101728 0.455200 0.449782 -0.521848 -0.385133 0.246268 0.033094 -0.348632 0.104718 0.754849 -0.285681 0.081823 0.014187 0.718144 -0.229488 -0.187830 0.918420 -0.225433 0.190941 -0.111020 -0.083473 -0.033138 -0.298354 -0.304539 -0.397142 -0.550478 0.601914 0.167456 -0.170237 -0.419040 0.388469 -0.057637 -0.247981 0.144548 -0.268091 0.794610 -0.017458 -0.180792 0.099516 -0.019352 0.098720 -0.158340 -0.175205 -0.670668 -0.034149 -0.258756 -0.215507 0.021478 0.176593 -0.028879 0.060194 -0.302399 0.681341 -0.006593 -0.381943 -0.152426 -0.176907 -0.240827 -0.343999 -0.143818 -0.390751 0.205662 -0.152027 -0.453325 -0.494481 0.487406 0.828461 0.572875 -0.241496 -0.385347 -0.147481 -0.613650 0.960678 -0.113636
389 0.627720 -0.139065 -0.174533 0.054762 0.062822 0.101662 0.077425 -0.404374 -0.094610 -0.290006 -0.237940 0.176705 0.650921 0.350769 -0.220531 -0.123546 0.087162 -0.064743 0.147528 0.067335 -0.023170 -0.539614 -0.079808 -0.073911 0.013751 -0.412111 -0.280794 0.048184 0.118315 0.131803 0.646936 0.134333 -0.406686 0.239415 -0.037751 -0.273474 0.023633 0.074981 -0.398426 0.503488 -0.056593 -0.229253 -0.560948 -0.686121 0.372259 0.109721 0.094885 -0.096244 0.265060 0.532979 -0.358075 -0.155533 0.019960 0.078296 -0.102157 -0.237842 0.029407 -0.456977 0.102615 0.623961 0.279428 -0.169285 -0.097502 0.654833 0.743783 0.447125 -0.206875 -0.589006 -0.142823 0.153121 0.317774 -0.277109 0.291632 -0.108665 -0.020831 -0.379150 0.391222 -0.537705 -0.165596 -0.401834 0.544724 0.068551 0.130021 0.068476 -0.574215 -0.360480 0.059330 -0.157534 0.045733 0.188839 -0.005516 -0.241882 0.296264 0.042732 -0.291781 0.153948 0.082637 0.063377 -0.453239 0.251536 -0.016309 -0.311397 -0.180099 0.036041 -0.063012 0.091628 0.134653 0.451138 0.527254 -0.417517 0.301626 0.518244 0.241223 0.182844 0.325070 0.076561 -0.558966 0.438196 0.001528 -0.476480 0.274823 0.147624 -0.175333 -0.022273 -0.276336 -0.350414 -0.465878 0.620012
1083 0.037593 -0.072772 -0.062752 0.377043 -0.261860 0.081545 0.511864 0.032771 0.404083 -0.489573 0.002173 0.324850 -0.458400 -0.234500 -0.458722 0.646196 -0.440406 -0.006266 -0.351295 0.181788 0.922687 -0.365265 -0.477199 -0.118811 -0.241166 0.226545 -0.373963 0.263497 0.037551 0.441133 -0.201001 -0.168738 -0.447727 0.449816 0.352306 -0.753605 0.324928 0.010046 -0.250083 0.046465 -0.206038 0.048602 -0.445937 -0.345087 0.168043 0.363093 0.075274 -0.271902 -0.244538 0.000225 0.180934 0.405224 -0.377951 0.539175 -0.008341 0.223219 0.607825 0.316625 0.823126 0.398138 -0.430772 -0.487767 0.322236 -0.015046 0.038687 0.332343 -0.058884 0.486848 -0.096444 0.101195 -0.487760 0.068860 0.048756 0.216254 0.076466 -0.192200 -0.090458 0.115805 -0.071569 -0.565018 0.204838 0.164014 0.222275 0.187981 -0.693785 -0.181379 -0.776624 -0.183308 0.398638 -0.056870 -0.460764 -0.208490 -0.142234 0.209269 -0.347903 -0.046617 0.209204 -0.382312 0.233048 0.002711 0.412460 0.146078 -0.337569 0.227748 0.825843 0.393645 0.402707 0.272806 -0.092648 -0.181789 0.122814 0.480576 0.393133 0.644746 -0.349384 -0.577032 -0.127883 0.365647 -0.012624 -0.461018 -0.308334 -0.564492 0.129300 -0.390804 0.208262 -0.023671 -0.079167 -0.200854
40 0.387566 -0.280621 -0.302560 0.344219 -0.135428 0.470658 -0.406493 -0.156056 0.285936 0.140096 0.086137 -0.076658 0.218873 0.230479 -0.060923 0.384240 -0.060032 -0.033725 0.169155 -0.436326 -0.295232 0.375732 0.156070 0.517639 0.029138 0.383120 -0.407204 0.254566 -0.051618 -0.065969 -0.209366 0.182439 0.022662 0.149535 -0.191151 0.037923 0.157450 -0.157243 0.641046 0.087653 -0.111035 0.055944 0.152363 -0.067847 0.496096 0.154329 0.210403 0.422639 0.546030 0.040113 0.041200 -0.207282 0.334262 0.311138 0.257624 0.622287 -0.169585 -0.264353 -0.225789 0.124188 -0.067350 0.227131 -0.303613 0.490744 0.374231 0.165732 -0.195739 0.699972 0.040707 -0.214724 0.058833 -0.318240 -0.079879 0.290187 0.273962 -0.281951 0.511354 -0.182413 -0.226229 -0.280810 0.128392 0.163686 0.643435 -0.327658 -0.762661 -0.231667 -0.310205 0.045319 -0.192525 -0.050990 0.284930 0.479245 0.257399 -0.066855 0.309952 -0.158392 0.384967 0.212391 0.446871 -0.036044 0.042709 -0.038139 0.123561 -0.176788 0.318502 -0.077749 0.184344 -0.148361 -0.327056 0.123428 0.140632 0.784297 0.233877 -0.217315 -0.057223 -0.209533 -0.452313 0.014211 0.013322 -0.151899 0.047344 0.277408 0.452231 0.059667 0.360574 -0.329199 -0.098394 -0.059869
862 0.351566 -0.602735 0.156869 -0.188828 -0.298942 -0.046236 -0.078151 0.488412 0.031377 -0.203275 -0.377405 -0.258163 0.258193 0.369418 0.049918 -0.085314 -0.490732 -0.070462 -0.074085 0.065783 0.366041 -0.122531 0.470808 0.110151 -0.092476 -0.097730 -0.020377 0.065249 -0.247188 -0.447490 -0.258700 0.479041 -0.157317 -0.228412 -0.219010 0.097965 0.105421 -0.573100 -0.217594 -0.102384 -0.056335 0.396984 -0.080615 -0.257901 0.469661 -0.169392 -0.072119 0.030901 -0.175024 -0.286396 -0.495225 -0.396336 -0.181913 0.058188 0.316721 0.572795 -0.143288 0.069546 0.168305 -0.316254 0.317229 -0.074911 -0.309962 0.226344 0.310614 0.062469 -0.300591 -0.176574 -0.519880 -0.165243 0.275520 -0.314137 -0.020652 -0.120672 0.134956 -0.424239 -0.256567 -0.085489 -0.066971 -0.190759 0.688995 -0.389622 0.206027 -0.166353 -0.167447 -0.132551 0.111965 0.655246 0.394214 0.416338 -0.021569 0.294466 0.091949 -0.340640 0.190391 0.277980 -0.025587 -0.191891 -0.323537 0.473998 -0.002151 -0.695976 0.409158 -0.035942 0.305794 -0.100461 -0.191593 -0.239597 -0.520598 0.150405 -0.207894 -0.190979 -0.085629 0.176312 -0.323968 -0.365513 -0.063293 0.640149 -0.378154 0.263984 0.186743 0.260891 0.256621 -0.198844 0.055081 -0.592427 -0.133338 0.200885
855 -0.503301 -0.530655 -0.714214 0.518477 0.063700 -0.048032 -0.116304 0.368705 -0.222844 0.009921 0.223914 -0.015332 0.226588 -0.191857 0.284713 -0.341112 -0.463369 -0.203359 -0.278987 0.373723 0.179007 -0.249043 0.013111 -0.108413 0.085231 -0.038577 -0.176138 -0.494186 -0.608585 0.066458 0.265786 -0.073145 -0.498727 0.092946 -0.033047 0.069661 -0.032973 -0.441946 -0.852104 -0.594650 -0.728197 0.418138 0.226101 -0.107327 -0.196084 -0.345544 0.126756 0.241407 0.014787 0.021769 -0.093272 -0.154769 0.475414 0.016623 -0.095209 0.271802 -0.179020 -0.544697 -0.049829 -0.263279 -0.010578 -0.538169 0.069147 0.410298 -0.491576 -0.249926 0.028269 -0.265844 0.521590 0.267705 0.403413 -0.440764 -0.146436 0.202263 -0.211207 -0.030704 -0.010654 -0.271430 0.306006 -0.578660 -0.489211 0.511487 -0.055078 0.347748 -0.110742 -0.378085 -0.257742 0.108374 0.174045 0.165427 -0.601427 0.197168 0.434160 0.377827 -0.329980 -0.587673 0.284044 0.204095 0.204389 0.155803 -0.067720 -0.183099 -0.233178 0.153117 0.168229 -0.035928 0.242027 -0.051002 0.213354 -0.340979 -0.132001 0.163492 0.105688 -0.166454 0.243045 -0.413844 -0.535323 0.454509 -0.000277 0.012941 -0.152162 -0.387789 0.338314 0.116004 0.220179 -0.194898 -0.704529 -0.067535
1150 -0.051511 -0.159498 -0.098438 0.203236 -0.356642 -0.347887 0.095460 0.206610 0.191360 -0.478079 0.196947 -0.209267 -0.211966 -0.229041 -0.390091 0.399730 0.049478 -0.309177 0.345017 0.556089 0.113996 -0.075883 -0.272864 -0.134438 -0.117727 0.368158 -0.255866 0.066219 -0.065736 -0.037428 -0.134507 -0.212788 -0.003454 -0.068543 0.417234 -0.101234 -0.263503 -0.166446 0.295541 0.245333 0.038282 0.209473 -0.404167 0.098414 -0.335924 0.546063 -0.124290 0.245913 0.039809 0.367774 0.343631 0.064756 0.118482 -0.065547 -0.175912 0.362251 0.543950 -0.073761 0.514548 -0.209146 -0.470412 -0.332524 0.155695 0.380223 -0.140047 0.258127 -0.198921 0.099433 -0.553929 0.224204 -0.039751 0.321155 -0.380417 0.213132 -0.102506 -0.046632 0.017816 0.189103 0.360220 -0.247425 0.057599 0.294228 0.736988 0.462587 -0.726613 -0.465155 0.013231 0.232744 0.051562 -0.298175 -0.299448 -0.075209 0.067877 0.518013 -0.673230 -0.193054 0.187385 -0.255225 0.150470 0.080090 0.005558 -0.158206 0.035390 0.322187 0.888768 0.432165 0.263066 0.183165 0.172682 0.002841 -0.309179 -0.121994 0.533993 0.252529 0.102700 -0.197408 0.226982 -0.025648 -0.158319 0.478784 0.317432 -0.522622 -0.057558 -0.499873 0.178887 -0.155282 0.215063 -0.521149
2996 -0.417878 -0.429829 0.120144 -0.109148 -0.582764 -0.138741 0.280588 0.201905 0.228391 -0.424003 0.082859 -0.030055 -0.482821 0.810915 -0.860435 1.028003 0.226281 0.402155 -0.175919 0.839919 -0.355756 -0.155858 -0.408425 -0.192881 0.532338 0.486153 -0.166004 -0.189624 -0.812005 0.155755 -0.168738 -0.306559 -0.367345 -0.030682 -0.199049 0.416863 0.057253 -0.269643 -0.551828 0.386505 0.514982 0.255756 -0.715396 -0.356300 -0.059950 0.400180 -0.285782 0.808353 0.027812 0.259601 0.628777 -0.012485 0.639564 -0.586869 0.236121 0.751251 -0.144403 -0.093324 -0.200619 -0.041397 -0.751989 0.087559 -0.495145 0.273174 0.650531 0.558587 -0.283574 -0.348328 -0.428757 -0.222462 0.168086 0.073068 0.130017 -0.106226 0.034385 0.742547 -0.333005 -0.096885 0.100623 0.013961 0.102276 0.041471 -0.075808 0.186056 -0.667619 -0.252684 0.097122 0.116145 -0.427715 0.357066 -0.341239 0.133006 0.175528 0.424315 0.031500 0.326245 -0.286057 -0.157582 -0.304002 -0.477821 -0.467919 -0.261367 0.460688 0.336791 -0.181350 -0.567498 -0.666325 -0.650992 -0.128945 0.143390 -0.074236 0.279370 0.048461 -0.147215 0.717452 -0.185664 0.524922 0.303180 -0.207955 -0.364259 0.080665 1.028636 0.629479 -0.688043 1.150722 0.368190 0.201337 -0.512529
422 0.226695 -0.278786 -0.466630 0.302520 -0.155609 -0.212236 -0.331240 0.008353 -0.173238 -0.080310 -0.235224 -0.220333 -0.325986 0.044550 0.085212 0.441771 -0.237637 -0.216850 0.141022 0.111338 -0.164282 0.133630 0.174360 -0.471730 -0.327995 0.394671 -0.103634 -0.128378 -0.147159 0.074480 -0.093098 0.302030 -0.344161 -0.221066 -0.323479 -0.003321 -0.062995 0.005632 0.090530 -0.179796 -0.216203 0.186094 0.311201 -0.426482 -0.053626 -0.383818 -0.204206 0.001246 -0.151829 0.071081 -0.156627 0.403519 0.115427 0.307714 0.303674 0.000320 -0.291792 -0.167071 -0.122123 0.049904 0.301825 0.102610 0.159862 0.207185 -0.168616 0.205502 -0.205132 -0.430315 0.241624 0.600157 0.077171 0.200124 -0.200172 -0.040345 -0.021524 -0.189663 0.451181 0.347435 -0.200168 -0.284873 0.510119 -0.141936 -0.279184 0.208491 -0.237818 -0.331034 -0.260827 -0.214000 0.027855 0.316070 0.028047 -0.256039 0.549832 0.215278 -0.159267 0.026485 -0.376549 -0.055321 0.107023 0.127838 -0.100840 0.061006 0.494048 -0.205437 -0.086812 0.186808 -0.116506 0.334782 -0.144805 -0.012243 0.143284 0.031027 -0.160266 0.159240 -0.072244 0.168312 0.011800 -0.157013 -0.257632 0.142305 0.069973 -0.049164 -0.177796 0.156780 0.221338 -0.151883 0.010358 0.128857
1634 0.116297 0.454515 -0.276289 0.005294 -0.159908 -1.025206 -0.298748 -0.069699 -0.515860 -0.339383 0.032810 0.011851 -0.346475 -0.096670 0.115286 0.066059 -0.250077 -0.375676 -0.004411 0.269390 0.222166 -0.049618 -0.579178 0.141872 -0.383816 0.362015 -0.540631 0.120607 -0.307654 0.456664 -0.523132 -0.208004 -0.013066 0.067972 -0.121893 -0.110022 0.347108 -0.106549 0.082718 0.196696 -0.071494 -0.193974 0.167526 0.497151 -0.209467 0.347091 0.330945 0.280588 -0.437110 0.369923 -0.417302 0.268341 0.055296 0.353163 0.143167 -0.327089 -0.346875 -0.069055 0.279939 0.255078 -0.135946 -0.103829 0.467876 0.223351 0.118505 0.013561 -0.142128 -0.491391 -0.225974 -0.126233 0.032382 0.259486 -0.591439 0.251869 -0.187611 -0.193347 -0.013745 -0.202373 -0.177221 -0.261725 0.376759 0.182647 -0.054047 -0.280087 -0.337540 0.009321 -0.333821 0.123193 0.208586 0.043304 -0.690635 0.542379 0.301470 0.321758 -0.298722 -0.430232 -0.262522 0.112911 -0.078482 -0.399917 -0.774333 0.043827 0.536338 -0.559027 0.084877 -0.271633 -0.180362 -0.275138 0.174811 0.192140 -0.275458 0.512755 -0.292753 0.395703 0.537096 0.374140 -0.036239 0.073131 0.118718 -0.197723 0.252596 -0.080768 0.011394 0.027823 -0.072567 -0.169611 -0.020869 -0.051388
1759 -0.273808 -0.367259 0.371909 0.015930 0.248804 -0.800617 -0.350581 0.210921 -0.409648 -0.112628 -0.093581 0.503851 -0.248545 -0.133759 0.448000 -0.058447 0.278158 -0.518777 0.433386 -0.925248 0.097844 0.084325 0.122769 -0.274501 -0.735375 0.132406 0.442322 -0.592166 0.095006 -0.333496 -0.329185 0.075198 -0.599140 0.480328 0.075286 -0.048498 -0.281785 0.198843 -0.252710 -0.517601 0.169624 -0.103642 0.110234 0.345098 0.470773 0.700051 0.377141 0.439130 -0.090775 -0.046614 -0.522750 0.344055 -0.382895 0.280634 0.280064 0.231757 -0.138881 -0.357636 -0.577589 0.713680 0.436448 1.024497 -0.849762 -0.087984 -0.238279 -0.070885 -0.344005 -0.238454 -0.196332 -0.149107 0.285838 0.361788 -0.011596 0.718572 -0.238197 0.286111 0.892804 0.225187 0.200223 0.884456 0.670845 -0.713559 -0.178541 0.424338 -0.427825 0.000613 -0.403965 -0.405652 -0.014151 0.584724 -0.284190 0.110088 -0.386643 0.845337 -0.144976 -0.350248 0.408219 0.039818 0.013949 0.215128 0.211021 -0.155361 -0.313856 0.130103 0.261760 0.920389 -0.094818 0.103575 -0.054664 0.237060 0.273726 0.164084 0.153684 0.421687 -0.173701 -0.495806 -0.491153 0.591115 -0.105840 -0.306980 -0.374985 0.157997 0.478040 -0.773922 0.340099 0.078522 0.455368 -0.771804
106 -0.076469 -0.199843 -0.374608 -0.016499 -0.045904 -0.083160 -0.201904 -0.053059 -0.240966 -0.179496 -0.141229 -0.115332 -0.159620 0.073922 0.019273 0.380661 -0.315242 -0.123875 0.238292 -0.124410 -0.187993 0.093176 0.116040 -0.292025 -0.205932 0.271225 -0.081643 -0.056784 -0.099694 0.103071 -0.145016 0.015461 -0.299424 0.016094 -0.133930 0.030854 -0.092038 0.151618 -0.112543 -0.138751 -0.038104 0.212868 0.328152 -0.281086 0.033854 -0.266269 -0.376611 0.046643 -0.194877 -0.044101 -0.079474 0.391149 0.193492 0.240823 0.354886 0.158960 -0.230906 -0.160542 -0.170064 -0.040780 0.252198 0.181653 0.285355 0.346736 -0.201838 0.346471 -0.054615 -0.310867 0.205216 0.416612 0.057783 0.034891 -0.110362 -0.097666 -0.091662 -0.038916 0.378439 0.318489 -0.153445 -0.101406 0.455385 -0.027496 -0.307228 0.315755 -0.408238 -0.171830 -0.254980 -0.196841 0.035324 0.390214 0.132296 -0.242650 0.429045 0.147303 -0.149940 0.027925 -0.208786 -0.006171 0.150139 0.092942 -0.066262 0.114528 0.342603 -0.192394 0.050012 0.193588 -0.159457 0.077125 -0.198677 -0.040208 0.224811 0.160654 -0.023887 0.154286 -0.011213 0.143823 0.092491 -0.317478 -0.396419 0.005449 -0.007539 -0.018921 -0.235693 0.080475 0.225510 -0.023304 0.048706 0.195394
295 0.237399 -0.052911 -0.248282 -0.083858 0.500425 -0.151959 -0.041177 0.422723 0.036935 -0.107608 -0.041810 -0.270061 -0.524596 0.055083 0.102283 0.225640 -0.016733 0.117284 -0.207833 0.210160 -0.156523 -0.599969 -0.001944 -0.052504 0.219847 0.166232 0.329552 -0.253869 -0.202038 0.640879 0.431617 -0.650514 -0.315784 -0.042196 -0.149490 0.409181 0.350923 0.011747 -0.070348 -0.003764 0.013703 0.702128 -0.087019 0.062966 0.369411 -0.007299 0.008784 -0.074032 -0.505672 0.047089 -0.380810 0.188785 -0.352853 -0.136720 0.108460 0.269857 0.065725 0.182428 -0.416385 -0.475398 0.374241 0.004230 -0.392985 -0.147153 -0.188486 -0.022005 -0.029458 0.363779 -0.476623 0.077836 -0.105940 0.503061 -0.390789 0.103895 -0.166800 -0.107699 0.451393 -0.236114 0.354737 -0.251848 -0.065289 -0.404496 0.411338 -0.144681 0.022946 -0.201417 -0.629234 0.339044 0.029211 0.552063 -0.221352 0.418684 0.160517 0.497712 0.315283 0.001681 0.038897 0.194756 -0.494738 0.187590 0.437273 -0.463355 -0.332068 0.016305 0.318572 -0.036226 -0.360938 -0.006899 -0.350190 0.070065 -0.171462 0.013782 -0.219406 0.131611 0.074067 0.009262 0.250835 0.240727 0.091055 -0.161254 0.249049 0.144591 0.720336 0.087293 -0.167343 -0.286626 0.443116 0.224719
429 -0.015653 0.195059 -0.569597 0.046349 0.409075 -0.707565 0.037517 0.544012 0.001828 -0.211851 -0.248982 -0.250694 0.134599 -0.174580 -0.003490 0.679566 -0.260711 0.246213 0.064422 -0.487417 0.295427 -0.319156 0.148210 -0.100399 -0.132319 0.250984 -0.000901 -0.028683 -0.193255 0.112466 0.174477 -0.295470 -0.008931 -0.321990 0.107154 -0.243625 0.542138 0.140174 0.074972 0.423816 -0.057381 0.333277 -0.165518 0.129175 0.332486 -0.006049 0.353590 -0.043803 -0.614269 -0.242229 -0.375141 -0.145455 0.249986 -0.159022 0.582480 0.261644 -0.215143 -0.079530 0.033939 -0.358267 0.170640 -0.083289 -0.620399 0.037880 0.136604 0.105687 0.125109 -0.309227 -0.592484 0.079557 0.010987 0.265578 -0.107082 0.263753 0.311849 0.346085 0.241035 0.203853 0.020741 -0.116109 0.021067 -0.238167 0.252443 0.392276 0.107014 -0.021965 -0.106773 -0.029285 -0.065647 0.173274 -0.195086 0.263695 -0.110023 0.244944 -0.136207 -0.293068 0.679834 -0.020050 -0.629105 0.028623 0.225184 -0.497830 -0.075335 -0.291068 0.144910 0.100987 -0.547843 -0.239668 -0.462456 0.288658 -0.269226 0.569883 -0.039369 -0.356543 -0.372036 -0.088019 0.086036 0.005558 -0.324687 0.338901 0.218827 0.144667 0.274213 -0.146633 -0.220669 -0.136219 -0.312004 -0.182578
1000 -0.005035 -0.169854 -0.235644 -0.070996 -0.050135 -0.262239 -0.029871 0.056779 -0.306365 -0.152612 -0.277778 -0.191464 -0.217542 -0.001178 0.086373 0.313445 -0.258714 -0.119656 0.058894 -0.022716 -0.216816 -0.137386 0.058487 -0.304692 -0.293837 0.212272 -0.067687 -0.087608 -0.034523 0.060141 -0.188497 0.031282 -0.221899 0.060205 -0.272251 0.009779 -0.172761 0.147039 -0.043060 -0.012940 0.098819 0.077012 0.382379 -0.261456 0.004064 -0.328824 -0.353968 0.079891 -0.261848 -0.085112 0.018098 0.456185 0.184254 0.227801 0.505285 0.071688 -0.186676 -0.202403 -0.247179 -0.023102 0.038256 0.119441 0.328763 0.307752 -0.217857 0.253281 -0.095627 -0.315736 0.232857 0.398351 -0.015221 0.021823 -0.056404 0.110824 -0.088880 -0.029107 0.450644 0.313387 -0.194843 -0.195936 0.512186 -0.177131 -0.308780 0.210643 -0.402784 -0.080570 -0.351196 -0.255195 0.079680 0.315203 0.201938 -0.235866 0.469515 0.306074 -0.215025 -0.080549 -0.151048 -0.004218 -0.044996 0.084926 -0.084435 0.242535 0.336533 -0.231840 0.144150 0.054433 -0.124874 -0.078192 -0.280735 -0.090295 0.237559 0.257806 -0.049156 0.128485 0.029368 0.090030 0.091873 -0.354965 -0.502341 0.068614 -0.033703 0.053418 -0.033603 0.042217 0.176827 0.071854 0.058635 0.049417
714 -0.085116 -0.155258 -0.247554 0.051612 -0.009883 -0.295645 -0.143252 0.086478 -0.281851 -0.179550 -0.201968 -0.035452 -0.161779 -0.032490 0.027546 0.396806 -0.288175 -0.153350 0.059400 0.029829 -0.140365 -0.102925 0.067767 -0.437667 -0.301955 0.244211 0.007822 -0.026194 -0.007984 0.009392 -0.159459 -0.045534 -0.219906 0.009458 -0.264594 0.075834 -0.181245 0.040685 0.012970 -0.092425 -0.088248 0.134998 0.344872 -0.288574 -0.041110 -0.390121 -0.411655 0.085350 -0.290499 -0.090901 -0.050148 0.439945 0.217576 0.245748 0.491544 0.050075 -0.145738 -0.195271 -0.186755 -0.108420 0.315554 0.118954 0.244954 0.207928 -0.171609 0.188423 -0.193376 -0.411605 0.155946 0.480224 0.047121 0.073867 -0.089100 -0.007988 -0.180848 -0.097540 0.483853 0.257319 -0.194541 -0.226861 0.520613 -0.196210 -0.222730 0.278383 -0.363246 -0.043009 -0.223071 -0.226441 0.044715 0.398704 0.086214 -0.215375 0.402066 0.269083 -0.206011 -0.042285 -0.283930 -0.138127 0.067844 0.111324 -0.051726 0.169004 0.386453 -0.264248 0.082181 0.017972 -0.166901 -0.014854 -0.219660 0.003601 0.257127 0.199200 -0.021061 0.133219 0.085839 0.134160 0.005011 -0.303605 -0.468842 0.077465 -0.005439 0.115604 -0.119976 0.124594 0.240776 0.064131 -0.047484 -0.023306
999 -0.103997 -0.182858 -0.232457 0.026611 -0.077941 -0.258765 -0.011919 0.064421 -0.312333 -0.112693 -0.215236 -0.134447 -0.188769 0.013372 0.079397 0.415136 -0.348757 -0.205955 0.026070 0.040152 -0.145300 -0.146453 0.086489 -0.374385 -0.378488 0.254311 -0.041492 -0.048761 0.028544 0.081836 -0.246894 0.006227 -0.316786 0.023200 -0.236976 -0.027262 -0.198868 0.135217 -0.073395 -0.130204 -0.034550 0.124335 0.434709 -0.251004 -0.072979 -0.361905 -0.367556 0.166645 -0.282149 -0.085101 -0.103707 0.451978 0.212352 0.226588 0.461516 0.036731 -0.122962 -0.233420 -0.295194 -0.143086 0.224146 0.182856 0.187558 0.263323 -0.259427 0.224721 -0.105846 -0.394980 0.133256 0.456337 0.016608 0.160104 -0.098248 -0.014610 -0.126237 -0.136261 0.520520 0.292896 -0.135678 -0.232847 0.505594 -0.163304 -0.230141 0.172749 -0.323080 -0.057084 -0.204387 -0.206187 0.067235 0.338303 0.191812 -0.296084 0.436954 0.292635 -0.264931 -0.137326 -0.241935 -0.045240 0.079947 0.111057 -0.067739 0.155489 0.420745 -0.312060 0.105949 0.028982 -0.177837 -0.034687 -0.216069 -0.054964 0.283280 0.285691 -0.014393 0.156220 0.032364 0.156084 0.051633 -0.414671 -0.514186 0.042289 0.010925 0.090527 -0.045529 -0.006126 0.222027 0.076501 -0.023018 -0.024979
769 0.008020 -0.079834 -0.074600 -0.342471 0.111869 0.026076 -0.284690 0.133728 -0.357855 -0.183841 -0.114395 -0.291641 -0.322099 -0.126842 0.429240 0.346981 0.292695 0.117541 0.081233 0.520172 0.289664 -0.187869 -0.151252 0.312899 -0.255276 0.335427 0.002469 -0.321241 -0.324628 0.051077 -0.159297 -0.290023 -0.119330 -0.346937 0.245724 0.036652 -0.123475 0.206869 -0.030298 -0.007599 0.122409 -0.233059 0.040387 -0.086798 0.611096 -0.213473 0.102160 0.073859 -0.223682 0.049729 -0.269293 0.040696 0.290158 -0.039620 0.194131 0.288162 -0.170930 0.287426 -0.129506 0.210337 -0.226792 0.309816 0.263299 0.554056 -0.165660 -0.094835 -0.088675 -0.523670 -0.188353 0.007752 0.066949 0.256621 -0.230786 0.081798 -0.357746 0.062181 -0.015798 -0.019552 -0.587473 -0.577393 0.172874 0.300632 -0.159648 0.051640 -0.086317 0.025220 -0.294946 0.281241 0.588094 0.011875 -0.002954 0.119675 0.114324 -0.348464 -0.262151 0.352062 0.142183 0.441606 0.108139 -0.070255 -0.412815 -0.343226 -0.258318 -0.046988 0.296944 -0.104083 0.278080 -0.303080 0.011387 0.174534 -0.039249 -0.252896 -0.259617 0.226581 0.001271 0.204728 -0.236864 -0.118319 -0.005457 -0.019133 -0.046138 0.138734 0.004812 -0.054982 -0.042187 -0.198625 -0.272379 0.008116
418 -0.323042 -0.303807 -0.213192 0.250989 -0.161647 0.168373 0.056600 -0.169286 0.063799 -0.086295 0.008950 -0.150865 0.013387 -0.032977 -0.164062 -0.098017 -0.204665 0.262418 0.288078 -0.412679 -0.123471 -0.099737 -0.035155 0.251238 -0.336724 -0.328289 0.049936 -0.107635 -0.025139 0.038655 0.262854 0.533917 0.483920 0.136497 0.024462 -0.120550 -0.291261 -0.089649 -0.155746 0.231909 -0.237594 0.271194 -0.332826 -0.280158 0.288502 0.168103 -0.113401 0.609280 -0.161842 0.415639 -0.373461 -0.175819 -0.013561 0.044476 0.233239 0.289382 -0.117869 -0.014946 0.016519 -0.036515 0.422627 0.153291 -0.261194 0.582869 0.437726 0.072754 -0.068661 0.107200 -0.176726 0.025332 0.124198 -0.174873 -0.131613 -0.156888 0.401044 -0.407323 0.075825 0.114149 -0.379585 -0.350613 0.212020 -0.082644 0.337859 -0.029329 -0.604021 0.246354 -0.581953 -0.409937 -0.428990 -0.061106 0.480470 0.324683 0.129227 0.155752 0.310356 0.349159 0.551815 0.765705 0.115355 0.103820 0.162427 -0.281307 -0.133751 0.298993 0.371958 -0.088343 0.219907 -0.077799 0.025695 0.022668 0.180207 0.785120 -0.229191 -0.055539 0.224507 0.170827 -0.312506 0.288344 -0.158385 -0.409833 -0.007525 0.042478 0.197705 -0.225809 -0.541432 0.022976 0.437530 -0.846565
2006 0.090423 -0.135607 0.104354 -0.328209 0.208545 -0.088730 0.438799 0.212044 0.217627 0.548922 0.209141 -0.340998 0.030178 0.345642 -0.114368 0.165148 0.105298 0.024049 -0.264858 -0.108655 -0.845749 0.346417 -0.183842 -0.373434 0.049431 -0.216354 -0.534306 0.444590 -0.044591 -0.141684 -0.242776 0.235067 -0.265548 0.056569 0.697611 0.082283 0.197117 0.273430 -0.051996 0.272194 -0.365747 0.250351 -0.126652 0.034635 0.153537 -0.090174 0.063611 -0.274615 -0.248258 -0.406889 -0.672014 -0.190433 0.166830 -0.289039 -0.231724 0.185971 0.136731 0.385911 0.257325 0.385772 -0.157892 0.449021 -0.753608 0.381968 -0.278006 -0.504116 -0.190541 -0.407092 0.834685 -0.038746 -0.326179 -0.081449 0.204833 0.171279 -0.106328 -0.042155 0.654786 -0.040010 0.100880 -0.394836 0.173482 -0.226393 -0.249310 0.201741 -0.609851 0.138757 -0.243157 -0.498882 0.061541 -0.011009 -0.435891 0.181896 -0.232680 0.282871 0.071711 -0.080315 0.084433 -0.423867 0.192339 0.032054 -0.083402 -0.501223 -0.029600 -0.042570 -0.068895 -0.157654 0.077140 -0.035005 0.225211 -0.111905 -0.143560 0.032779 -0.362445 0.002438 0.265553 0.260671 -0.122633 0.346829 -0.042317 0.359124 -0.217567 -0.365043 -0.443758 -0.340210 -0.347113 -0.191164 -0.070513 -0.658255
1168 -0.488188 -0.264134 -0.300293 0.016841 -0.509839 -0.200584 0.170091 -0.198961 -0.183901 -0.112052 0.241596 -0.431707 -0.226846 0.023813 0.108630 0.410139 -0.167004 0.878020 -0.317760 -0.103503 0.460176 0.300709 0.749184 -0.347367 -0.086712 0.126632 -0.216140 0.106079 0.432684 0.125604 -0.119739 0.482804 -0.068412 0.162019 0.080705 -0.134897 0.136115 -0.053904 -0.386937 0.200564 0.085711 -0.020471 -0.467902 0.242634 0.586075 0.121704 0.245647 0.304177 -0.142797 0.628614 0.018824 0.194469 0.194657 -0.313773 0.422964 0.196095 0.366601 -0.050943 0.560269 -0.507761 0.022228 -0.465562 -0.730355 0.165899 -0.182969 0.594875 0.401295 -0.022523 -0.044381 -0.329436 0.219302 0.277574 -0.155452 -0.144820 -0.250839 0.142783 0.321658 0.121791 -0.312433 -0.192744 -0.029451 0.108416 -0.368236 0.289571 -0.139433 -0.301526 -0.137920 -0.378816 0.006684 -0.558177 -0.160642 0.667200 0.117201 0.257119 -0.596320 0.117946 0.005081 0.507714 -0.707166 0.282999 -0.089411 -0.384413 0.006085 -0.277650 -0.079676 -0.112395 -0.271214 -0.051040 -0.551500 -0.249138 0.417086 -0.098242 0.146405 0.138616 0.232731 -0.107812 -0.092675 0.242642 -0.368686 -0.508410 0.231016 0.012250 0.053883 -0.030683 0.198398 -0.551052 -0.141576 -0.221541
57 0.003564 -0.536059 -0.215462 0.131384 -0.148317 -0.484118 -0.170199 0.578786 0.238201 0.236311 0.165881 0.167460 0.017301 -0.267715 0.024967 -0.084235 -0.103816 0.101937 -0.600294 -0.110293 0.085612 0.337288 -0.037655 -0.360319 0.144276 0.050934 0.075483 0.434345 0.593809 -0.035461 -0.218848 0.311010 -0.732566 0.270963 0.226819 -0.392061 0.044799 -0.398870 0.039863 0.659344 0.043081 -0.242890 -0.040977 -0.341509 0.503646 -0.055816 0.704895 0.305761 0.098085 0.151563 -0.206127 0.194285 0.640617 -0.011722 -0.316644 -0.484552 0.331675 -0.020669 -0.525845 -0.418000 -0.240279 -0.025844 -0.049443 0.303558 0.044431 -0.116422 -0.160216 -0.120792 -1.066060 -0.019087 0.198807 -0.197102 0.370275 0.016795 -0.154081 -0.138686 0.119021 0.210381 0.045177 -0.433154 -0.454849 0.154612 -0.401802 0.174745 -0.551384 0.295960 -0.452891 0.209723 -0.282811 0.511040 -0.249790 -0.000599 0.356263 0.016461 -0.023421 0.376515 0.384689 0.062752 0.474379 0.199496 -0.219374 -0.034002 0.441040 -0.101393 0.332496 0.506866 0.176286 -0.764387 0.064421 0.668158 -0.030157 0.075533 -0.262448 -0.300639 0.298054 0.198775 0.290037 0.447024 -0.047662 -0.129280 0.118612 -0.324890 -0.300641 -0.173284 -0.382702 0.062144 0.188213 -0.269491
828 0.082985 -0.266094 0.052371 0.013248 -0.249184 -0.067484 -0.180440 -0.132445 -0.536644 0.088650 0.182902 -0.181112 0.063889 -0.171697 0.083214 0.384375 0.088707 -0.197219 -0.184149 0.105814 0.147561 -0.173249 -0.389579 -0.181758 0.240667 -0.147299 0.401962 -0.128280 -0.390821 0.018624 0.410743 -0.248389 0.076929 0.218891 -0.175200 0.146423 -0.095195 -0.061788 0.067806 0.193783 0.418815 0.166042 0.232247 -0.144634 0.471384 -0.072232 -0.304985 -0.349741 -0.331298 -0.197407 -0.037917 0.052154 0.117487 0.184384 0.492958 -0.067339 -0.250947 0.011416 0.401003 -0.357739 0.245216 0.220520 -0.247910 0.052766 0.386613 -0.213787 -0.089212 0.131361 -0.163466 -0.050752 -0.089203 0.498504 0.133641 -0.072824 0.142169 0.263048 0.114086 -0.510117 0.099874 0.059166 0.063096 -0.361483 -0.295975 0.461883 -0.261384 0.132101 -0.477256 -0.072034 -0.083366 0.474845 0.279952 0.275692 0.168850 0.391000 0.033217 0.026724 -0.064454 -0.060346 0.123540 0.024561 0.262689 0.336440 0.427256 0.032471 0.169619 0.309111 0.297701 -0.374646 -0.127377 -0.145095 -0.121244 -0.191266 -0.072513 -0.295866 0.333477 0.120622 -0.305466 0.107115 0.105159 -0.246731 0.445989 -0.376841 -0.184213 -0.131100 0.291722 -0.724762 -0.136204 -0.193837
686 -0.019100 -0.414362 -0.077982 -0.421995 0.253508 -0.081148 -0.002396 0.148259 -0.444208 0.203771 -0.244289 -0.749658 -0.117769 -0.155328 0.360678 0.271277 -0.186391 -0.140289 -0.024254 0.252591 0.313412 -0.210395 0.285532 0.226623 -0.128164 0.323011 0.110750 0.167993 -0.315536 -0.284937 -0.023465 -0.454332 0.120996 -0.219856 0.382321 0.095095 -0.249774 0.042255 -0.170925 0.023249 -0.035035 0.038421 0.008122 -0.059868 0.422113 -0.320544 0.029339 0.099232 -0.163662 0.081481 -0.216853 -0.047718 0.000314 0.122504 0.168073 0.155594 -0.145922 0.170720 -0.099297 -0.023592 -0.241238 0.241975 -0.050326 0.564661 -0.131868 0.152188 -0.078763 -0.317441 -0.372028 0.213488 -0.131828 0.380769 -0.064073 0.373681 -0.415255 -0.033387 0.245517 0.152800 -0.464197 -0.256560 0.203040 0.116599 -0.221103 0.095214 -0.296767 -0.170355 0.030808 0.333682 0.493386 0.236496 0.011173 0.053868 0.075764 -0.148467 -0.179081 0.483684 0.149266 0.145579 0.178277 0.264268 -0.390898 -0.364738 -0.482266 0.223719 0.001098 -0.246412 0.001574 -0.423318 0.039007 0.220592 -0.016101 -0.226790 -0.247690 0.382008 -0.059444 -0.209924 -0.251288 0.013532 0.035790 -0.178101 0.097344 -0.008386 -0.078199 -0.201032 -0.369237 -0.189066 -0.342880 0.002063
179 0.017281 -0.138880 -0.328936 -0.107227 0.260417 -0.120159 0.065837 0.032415 -0.312441 0.349485 0.103414 -0.250543 0.043537 0.102750 -0.049448 -0.344912 0.042134 -0.235637 -0.310427 0.024093 -0.077539 -0.253085 -0.683147 0.102804 -0.235172 0.045072 0.157561 -0.157265 -0.354781 0.068840 -0.182260 0.169367 -0.090321 -0.330545 0.163012 0.004780 0.162337 0.027401 0.176095 0.068926 0.314609 -0.068770 -0.055894 -0.211584 0.057999 0.046301 -0.014217 -0.030530 0.094536 0.035992 -0.226028 0.097189 0.372231 -0.081094 0.207510 0.018788 -0.307389 0.036620 0.151443 -0.219578 -0.050605 -0.257247 -0.552803 0.212365 -0.265684 0.113376 -0.131145 0.217627 -0.061609 -0.007212 -0.089835 0.382815 -0.316932 0.083627 0.156345 0.184229 0.288035 0.075173 -0.077520 0.196439 0.050362 0.184654 0.047297 0.200696 -0.251447 0.229925 -0.309146 0.401334 0.265029 0.489201 0.068169 0.507475 0.300075 -0.034698 0.297442 0.173773 -0.383011 0.394385 -0.000073 0.470919 0.266363 0.147935 0.292214 0.029484 0.235128 0.378491 -0.128979 0.057920 -0.281990 0.103126 -0.018604 -0.127372 -0.243138 0.292156 -0.146491 -0.250667 -0.048363 0.021148 -0.206185 -0.112148 -0.032380 0.288612 -0.253223 0.097617 0.314831 -0.068580 -0.214296 -0.018734
28 -0.054009 -0.290184 -0.324403 -0.050757 -0.076506 -0.258342 -0.169692 0.008377 -0.241641 -0.088861 -0.133601 -0.150384 -0.105330 0.089461 -0.011224 0.358134 -0.321897 -0.229858 0.127652 -0.005371 -0.242755 0.043540 0.059552 -0.403022 -0.264809 0.268994 0.019199 -0.052014 -0.069814 0.026412 -0.204260 -0.026094 -0.306456 -0.003648 -0.260749 0.017974 -0.038683 0.049467 0.061301 -0.152639 -0.051849 0.149862 0.398410 -0.350978 -0.130209 -0.320203 -0.354043 0.066441 -0.290518 0.027530 -0.210649 0.355572 0.147812 0.301061 0.511577 0.134158 -0.146102 -0.217783 -0.208353 -0.093622 0.327671 0.263282 0.207162 0.237268 -0.248239 0.308768 -0.175908 -0.291932 0.300654 0.542820 0.003519 0.038648 -0.099743 -0.005069 -0.145056 -0.135604 0.410492 0.276751 -0.100009 -0.207356 0.490583 -0.107008 -0.148792 0.241053 -0.388349 -0.162301 -0.129283 -0.250012 0.099622 0.391758 0.174960 -0.207617 0.407491 0.264408 -0.202176 0.046608 -0.274563 -0.064733 0.198049 0.075837 -0.173722 0.083302 0.450419 -0.242441 0.029361 0.135414 -0.232765 0.151127 -0.218722 -0.097731 0.259826 0.108953 0.010983 0.127713 -0.041399 0.087346 0.128005 -0.212576 -0.472309 0.049988 0.072652 0.032384 -0.179831 0.104798 0.222020 0.001257 -0.018845 0.058207
1374 -0.343659 -0.367850 -0.565797 0.141286 -0.150565 0.120811 0.516967 -0.083684 -0.252393 0.234602 -0.358095 -0.272619 0.120514 0.017819 0.033528 -0.209011 0.763766 0.088738 -0.199826 -0.209548 0.008655 0.006972 -0.075568 0.008833 -0.357092 -0.028350 0.500083 0.012005 -0.025226 0.310570 -0.146944 -0.027671 -0.367833 0.334845 -0.253412 -0.086401 0.066458 -0.146524 0.635857 -0.098917 -0.130158 0.383930 0.037399 -0.401870 -0.100892 -0.082919 -0.204391 0.415773 -0.378506 0.030076 0.076691 0.117260 0.114274 0.451972 0.575852 0.267690 0.416858 0.113278 -0.031743 -0.319950 -0.177797 0.446761 -0.199056 0.204627 0.052266 0.294434 -0.143770 -0.285269 0.058019 -0.325511 -0.563713 0.124713 -0.053514 -0.722353 -0.456199 0.195823 0.140967 0.407321 0.217306 -0.144388 0.293619 0.275053 -0.257551 -0.168497 -0.760771 0.062995 -0.268107 -0.535879 0.364814 0.219216 0.157892 0.190806 0.397179 0.145664 -0.078893 -0.470202 -0.162668 0.227353 0.067943 0.740991 -0.216962 0.069830 -0.038464 0.083830 0.193173 0.152984 -0.806346 0.138695 -0.283433 -0.148446 0.034562 -0.338421 0.072822 0.050515 -0.336913 -0.034403 0.103859 -0.615691 -0.435416 0.388663 0.166640 -0.297205 0.062455 -0.113073 -0.273800 -0.146882 -0.124745 0.180608
