3313 128
390 -0.029000 -0.174541 0.073645 0.004215 0.340075 0.006579 -0.125294 -0.249406 -0.193440 0.164098 0.184347 0.005753 0.094305 -0.023861 0.191475 -0.068198 0.161315 0.019421 -0.010276 -0.023667 -0.213102 -0.244885 -0.353464 0.045479 0.213956 0.226123 0.048272 0.235687 -0.076585 -0.025758 -0.191243 0.152191 -0.175834 -0.061311 0.021254 -0.076161 0.286374 0.041360 -0.137725 0.135187 0.005178 -0.386392 -0.175012 -0.018599 -0.151040 -0.089066 -0.146886 -0.005901 0.185179 -0.056480 0.023274 -0.086094 0.098124 -0.013030 -0.187345 0.437071 0.035194 0.142700 0.137767 0.258490 0.046718 0.021721 -0.066007 0.041327 -0.293273 -0.080820 0.184200 0.031671 -0.225808 -0.075376 0.193636 -0.151493 0.177685 -0.220827 -0.012146 -0.105009 -0.091837 -0.100984 -0.347685 0.031142 0.231130 -0.323058 -0.104395 0.050715 -0.332772 -0.093686 -0.086533 -0.042233 0.068771 0.250342 0.280423 0.020406 0.020477 0.008221 -0.052510 0.024818 -0.345044 0.336922 -0.163359 0.165637 0.104555 -0.193199 0.142986 0.096201 0.025813 0.223730 -0.069650 0.105256 0.041619 -0.271097 0.230809 -0.123602 0.146585 -0.235132 0.076608 -0.385980 -0.001731 -0.221047 -0.059649 0.002927 -0.182948 -0.082696 -0.033905 0.163088 -0.196415 0.105824 0.076112 0.174121
847 0.019164 -0.107007 -0.149926 -0.034070 -0.024715 -0.133466 -0.147989 -0.110968 -0.001261 0.219930 0.264573 -0.253271 -0.269306 0.144012 0.033485 0.013830 0.085842 -0.056444 0.059867 0.009298 0.030608 0.235723 -0.033468 0.451419 0.259554 -0.059733 0.229270 0.192157 -0.106181 0.136564 -0.113404 -0.026803 0.082666 0.168104 0.144552 -0.143340 0.093476 -0.181446 -0.004071 -0.386637 -0.139764 -0.041022 0.345053 -0.261489 -0.146896 0.008041 0.036389 0.003957 -0.023735 -0.027035 0.291756 0.136455 0.058527 0.810448 0.066612 -0.125005 0.158349 -0.241600 -0.395253 -0.239883 0.089341 -0.473863 -0.094478 0.055722 -0.080692 0.099024 0.274775 -0.142963 -0.177600 -0.158057 -0.206907 0.009831 -0.184498 0.122842 0.110799 0.136266 0.264969 -0.063488 0.004774 -0.230800 -0.034210 -0.299372 0.225397 -0.212735 -0.107259 -0.331843 -0.348587 0.286977 -0.107868 0.007480 -0.262755 -0.000185 0.234590 0.372911 -0.206207 0.021739 -0.204842 -0.051017 0.165647 -0.100294 0.034749 -0.122308 0.439240 0.167029 0.303363 -0.442271 -0.043021 -0.002091 -0.259426 -0.067664 0.165917 -0.076388 0.024411 -0.112397 -0.387627 -0.412905 -0.422977 0.067977 0.559499 -0.152444 0.316096 -0.159617 0.063837 0.122954 -0.158321 -0.080537 -0.050339 -0.286593
439 -0.149397 -0.425245 0.169133 0.154042 0.168181 0.044876 -0.030855 -0.333579 -0.165812 0.441007 0.432675 -0.148756 -0.159753 -0.236627 0.185834 -0.036959 0.163916 0.155317 -0.010766 -0.336908 -0.326622 -0.436055 -0.213930 0.099122 0.265224 0.061127 -0.081721 0.149537 -0.114322 -0.061932 0.025152 -0.004473 -0.017807 -0.144471 0.072200 0.042580 0.102268 -0.050561 -0.288986 0.172462 -0.065697 -0.569014 -0.129344 -0.126050 -0.082975 -0.061711 -0.118121 -0.034748 0.331886 0.002049 -0.105772 -0.267508 -0.110484 -0.072582 -0.032616 0.381452 0.138952 0.251197 0.108792 0.349314 0.101952 0.271576 -0.309405 -0.139429 -0.002795 -0.161873 0.187426 0.013087 -0.049487 -0.204761 0.302692 -0.349214 -0.016747 0.065507 0.190519 -0.035270 0.097627 -0.283499 -0.054719 0.146529 0.238846 -0.245823 -0.136965 0.035539 -0.373952 0.201135 -0.168380 -0.048457 0.237247 0.149754 0.052540 0.207935 0.135219 0.131448 -0.150288 0.068969 -0.389371 0.294434 -0.152760 -0.028655 0.107101 -0.272901 0.027366 0.061054 0.125349 0.227629 -0.043160 -0.233524 0.158983 -0.123008 0.124893 -0.075366 -0.180206 -0.309202 -0.144124 -0.356884 -0.085280 0.065893 0.081207 0.013581 -0.334932 -0.012848 -0.251796 -0.030170 -0.084351 -0.002920 0.247583 0.066234
364 -0.059348 -0.350113 0.176154 0.089336 0.386417 0.015767 -0.112370 -0.051664 -0.084867 0.323401 0.363256 -0.110462 -0.023176 -0.064782 0.277741 -0.059853 0.225571 -0.117443 -0.051239 -0.066695 -0.455083 -0.231622 -0.211647 0.100522 0.265335 0.079496 0.125248 0.101464 -0.080171 -0.226794 -0.015463 0.092467 -0.184270 0.043325 0.123723 -0.006701 0.233225 -0.080412 -0.182380 0.186940 -0.063975 -0.531431 -0.169420 -0.051573 -0.142702 0.107354 -0.144945 -0.252454 0.204296 -0.124060 -0.244713 -0.085605 0.233342 -0.123904 0.059542 0.261398 0.126120 0.197516 0.268151 0.307908 0.195281 0.154726 -0.154599 -0.124444 -0.106660 -0.225170 0.239855 0.136518 -0.033256 -0.200569 0.214856 -0.356562 0.137377 -0.073308 0.134808 -0.010980 0.054060 -0.177712 0.026473 0.141442 0.255637 -0.238506 -0.170920 -0.036727 -0.186403 0.113349 -0.038098 -0.026829 0.298623 0.190262 0.101065 0.151327 0.151716 0.060735 -0.037126 -0.132294 -0.380772 0.269134 -0.222515 -0.127102 0.066070 -0.270021 0.020998 0.232923 0.156690 0.124182 0.147045 -0.179931 0.073374 -0.178126 0.326719 -0.092544 -0.126484 -0.332357 -0.080449 -0.420406 -0.061187 0.037203 -0.001190 0.277034 -0.191591 0.046391 -0.153014 -0.074670 -0.136748 0.184583 0.211183 0.034782
471 -0.303945 -0.242079 0.068493 -0.009921 0.247743 0.182573 -0.277674 0.103213 0.075068 0.298526 0.110668 -0.182101 -0.016542 0.179992 -0.186928 0.097168 0.355498 -0.147228 -0.101159 0.010502 -0.023918 0.071846 -0.057899 -0.010571 -0.165062 -0.243263 -0.110499 -0.166076 -0.307521 -0.411863 -0.106767 -0.008046 -0.186375 0.093927 -0.325710 0.299668 0.027554 0.573015 -0.132509 -0.097882 0.266346 -0.466444 -0.067012 0.218834 -0.174222 0.094981 -0.268397 -0.144523 -0.003796 0.021562 -0.048696 0.128737 -0.119235 -0.162208 0.027941 0.356053 0.487970 -0.013918 0.098343 -0.010640 0.319332 -0.084229 -0.069709 -0.165577 -0.236780 0.007359 -0.194574 -0.087535 0.161872 0.218163 -0.278469 -0.296568 0.108140 -0.220656 -0.254027 -0.224477 -0.319863 -0.008542 -0.056767 -0.127397 0.207957 -0.050067 -0.221185 0.072476 -0.096052 -0.005574 -0.241832 -0.081330 0.000186 0.355204 0.188936 0.067157 0.162938 0.079992 -0.207225 0.013860 0.236041 0.215276 0.077318 0.361541 0.277037 -0.186007 0.010207 -0.191584 0.513603 -0.081268 -0.213170 -0.063638 -0.072605 -0.031027 0.009323 0.227772 -0.080779 0.015765 0.090152 -0.013963 0.143061 0.256643 0.214130 0.082635 0.078661 -0.163965 -0.028340 0.265635 0.256268 0.236216 0.346112 0.000509
643 0.025917 -0.059410 -0.304446 -0.236143 -0.128043 -0.289016 -0.253575 -0.016990 0.241694 0.237311 0.071305 0.132960 0.025937 -0.082085 0.124097 -0.045713 -0.058934 -0.012220 0.196523 -0.081973 -0.156482 0.447280 -0.191499 0.139036 0.076756 -0.256904 -0.066839 0.345128 0.050714 0.088964 -0.155944 0.207313 -0.385574 0.497746 0.424431 -0.169683 -0.215743 -0.046300 0.173368 -0.392742 -0.376598 -0.410704 -0.034558 -0.187509 -0.094652 -0.312449 0.300058 0.272033 0.146905 0.045058 0.410299 -0.145566 0.018611 0.019102 -0.000813 -0.078150 0.599209 -0.231174 -0.086235 -0.369464 -0.149274 -0.257328 -0.301511 -0.056620 -0.215487 -0.340631 0.031229 -0.169275 -0.096018 -0.326558 -0.338327 0.249770 -0.124952 0.197307 0.609529 -0.319838 0.183286 -0.258135 0.170604 -0.529452 -0.008595 -0.026484 -0.127778 0.003973 -0.122303 -0.252307 -0.229744 -0.204798 -0.010917 -0.054477 0.126982 -0.165077 -0.057174 -0.011838 -0.294413 0.266052 -0.519506 0.090920 -0.237370 -0.002566 -0.347313 -0.183958 -0.084203 -0.108823 0.526443 -0.047631 -0.165535 -0.106389 0.081674 -0.213100 0.142719 0.144222 -0.215134 -0.039065 -0.288166 0.536774 -0.227725 0.359735 0.253035 0.005357 -0.043872 -0.093953 0.301971 0.415557 0.015029 0.304878 0.225950 0.133197
661 -0.000440 -0.558654 -0.185591 -0.129590 0.110431 -0.307006 -0.139174 -0.347402 0.584095 -0.066091 0.401949 0.112415 -0.143909 -0.257919 0.007148 0.260958 -0.301626 0.007882 0.415425 -0.339062 -0.095759 0.324830 0.225103 -0.109493 0.457851 -0.125217 -0.083682 -0.006234 -0.071059 -0.014078 -0.378638 -0.255000 -0.108175 0.301863 0.524525 -0.177481 0.195944 -0.339492 0.273280 -0.320767 0.067947 -0.354718 -0.339160 -0.367241 -0.097678 -0.183068 0.191248 -0.059895 0.030969 -0.445393 0.255703 0.137891 0.434535 0.427655 -0.223970 0.047460 0.163084 -0.352886 -0.283188 -0.195937 0.185947 -0.194806 0.323594 -0.274615 -0.113588 -0.561751 -0.234460 0.370996 0.175392 0.002712 -0.488462 0.035384 -0.001015 0.065712 0.003516 -0.364627 0.272207 -0.156979 0.179014 -0.293057 -0.084863 -0.060624 -0.004886 0.105588 -0.345293 -0.107561 -0.515921 -0.307484 -0.310296 0.025121 0.419998 0.011588 0.110825 0.029346 -0.637358 0.042616 -0.351771 0.043622 -0.322442 0.023032 -0.366258 0.079474 0.069408 0.524355 0.544429 -0.132473 -0.322724 -0.218778 0.254782 -0.045824 0.248314 0.407586 -0.402976 0.211514 -0.622606 0.154105 -0.076279 -0.186815 -0.205751 -0.014264 -0.027823 0.072916 0.302277 0.081845 -0.209171 0.262638 -0.000945 -0.188045
1918 -0.521154 0.353973 -0.254321 0.069960 -0.102534 0.222486 -0.237230 -0.070995 0.464771 -0.070351 -0.251722 -0.196811 -0.467239 0.216673 -0.143376 0.037125 0.571372 0.469018 0.310212 0.041857 0.215105 0.150180 0.153154 -0.398067 -0.126435 -0.148760 -0.376058 -0.009332 -0.609635 0.075728 0.307605 0.003378 -0.254156 0.227119 0.273102 -0.310792 0.188325 0.244694 0.054408 0.253689 0.020350 0.148071 -0.134531 -0.187673 0.295166 -0.101335 0.376549 0.279552 -0.172626 -0.507292 -0.097224 -0.553145 0.388513 -0.316141 -0.079169 -0.384274 0.128595 0.301282 0.188910 -0.272110 0.158652 -0.196570 -0.355828 -0.007256 0.009488 -0.459929 -0.202409 0.058747 -0.263362 0.425486 -0.006121 -0.308967 0.272048 -0.365147 -0.131397 -0.750981 -0.213268 -0.345033 0.006462 0.365884 0.099394 -0.340382 -0.250876 0.812916 -0.103962 -0.539114 0.283150 1.051898 0.051017 0.214098 -0.399616 0.207240 0.153360 0.253074 -0.012728 -0.147196 -0.058923 0.371880 -0.257119 0.054237 0.034439 0.146409 0.141375 0.261961 0.290323 -0.033723 0.226708 -0.254068 0.126711 -0.047914 0.218147 0.272902 -0.230796 -0.184035 -0.184919 -0.374688 -0.321551 -0.227956 -0.129138 -0.361998 0.465836 -0.390309 -0.025246 -0.334774 0.683740 -0.039189 0.156062 -0.024433
699 -0.038919 -0.235266 0.046498 -0.000477 0.448172 -0.137226 -0.080197 -0.097910 -0.306107 0.198245 0.183566 -0.124100 -0.151797 -0.054465 0.028370 -0.057558 0.179464 0.302444 -0.190529 -0.198881 -0.209410 0.171956 -0.369144 0.494737 0.212765 0.225508 -0.006678 0.154781 -0.141071 -0.074335 -0.028755 -0.006381 -0.071175 0.007922 0.062597 -0.086056 -0.066709 0.152318 -0.148040 0.105611 -0.169118 -0.411342 -0.136856 0.018027 -0.051722 -0.040482 -0.223280 -0.187796 0.121887 -0.172165 0.018121 -0.054281 0.095718 -0.187340 -0.232397 0.260833 -0.086484 0.202941 0.188380 0.164988 -0.188217 0.076019 -0.341680 -0.254883 -0.678027 -0.025095 -0.081080 0.150000 0.008816 -0.043220 0.300590 -0.266851 0.059097 -0.033289 -0.262118 -0.124361 -0.108314 0.008509 -0.276317 -0.057360 -0.047073 -0.412341 -0.161604 0.289236 -0.221902 0.104897 -0.140324 0.050022 -0.095101 0.238297 0.470588 0.040685 0.129428 -0.179056 -0.172459 0.002681 -0.502846 0.433856 0.131232 0.055423 0.066132 -0.510757 0.161252 -0.021597 -0.002547 0.192318 -0.130105 -0.215234 -0.079100 -0.047279 0.153444 0.066868 -0.231265 0.030432 0.242159 -0.157594 -0.001433 -0.210673 -0.107129 -0.141497 -0.250351 0.021477 -0.179179 -0.212587 -0.088652 0.011088 0.000984 0.095543
291 -0.007704 -0.057823 0.167191 -0.057835 0.416423 -0.063782 -0.479149 -0.030122 -0.046830 -0.071506 0.199488 -0.228817 0.240374 0.207358 0.477258 -0.075484 0.191414 0.022651 0.156724 -0.163237 -0.338263 0.031563 -0.342190 0.146845 0.114160 0.007252 -0.244338 0.115111 -0.271606 -0.372530 -0.307872 -0.097655 -0.127662 -0.132644 0.074750 0.085070 0.492128 0.042538 -0.133040 0.206860 -0.120460 -0.370917 -0.340380 -0.095367 -0.000991 0.112933 -0.201863 0.020503 0.337191 0.056261 0.194974 -0.032063 -0.227819 -0.234991 0.025430 0.307960 0.123656 -0.095637 0.216401 0.132391 0.193806 0.091489 -0.100872 0.127759 -0.115910 0.159562 0.080708 0.143366 -0.149697 -0.247696 0.102430 -0.354175 0.152807 -0.075018 -0.171658 0.116038 0.028045 -0.096881 0.127918 0.109884 0.230640 -0.095413 -0.056524 -0.126609 -0.283605 -0.029627 -0.031887 -0.063152 0.216576 0.281309 -0.079091 -0.291399 0.023720 -0.117822 0.288127 0.089635 -0.449034 0.175807 0.048891 0.095831 -0.012702 -0.211320 0.083377 0.284247 0.247239 0.161867 -0.030179 -0.408213 0.088604 -0.383955 -0.051663 -0.068809 -0.034697 -0.089773 -0.039389 -0.099227 -0.081709 -0.183055 -0.263927 -0.054368 -0.062687 -0.055994 -0.179124 -0.083376 -0.245416 -0.066054 0.303250 0.078746
697 -0.002095 -0.193101 0.444353 0.114938 0.530083 -0.165473 -0.023102 0.062775 -0.119845 0.270666 -0.044427 -0.198849 0.127866 -0.198433 0.179895 -0.029304 0.197449 0.011048 -0.170364 -0.186238 -0.197307 0.190605 -0.078924 0.270826 0.079797 0.132529 -0.109286 0.284802 -0.249018 -0.221387 -0.079367 0.031565 -0.240805 0.070600 -0.124283 -0.047380 -0.177383 -0.135313 -0.261678 -0.087235 0.068546 -0.514083 0.020693 -0.064921 -0.116822 0.129841 -0.236848 -0.064844 0.079944 -0.045205 -0.030792 -0.163154 -0.083534 -0.344999 -0.369482 0.417540 0.152946 0.081554 0.073623 0.181322 0.106856 0.079217 -0.287178 -0.135540 -0.285550 -0.107859 0.045178 -0.025556 0.056287 -0.183643 0.253853 -0.307789 0.166428 -0.160523 -0.374257 -0.028582 0.135059 -0.052823 -0.135423 -0.017600 0.089843 0.009604 -0.331040 0.145117 -0.192671 -0.063547 -0.039017 0.014888 -0.067514 0.405261 0.312094 0.188053 0.049798 -0.290739 -0.011484 0.226066 -0.152219 0.360891 0.079028 -0.004334 0.100618 -0.208540 0.073346 0.012004 0.230819 -0.043169 -0.085319 -0.094770 -0.181528 0.124292 0.403255 0.073517 -0.085306 0.031699 0.049583 -0.137461 0.004137 0.093591 0.023853 -0.060974 -0.139352 -0.097283 -0.146585 -0.102332 0.049370 0.152601 -0.071038 0.052224
488 0.202735 -0.353600 -0.141538 -0.120421 -0.109616 -0.075544 -0.027742 -0.027744 -0.169792 0.076503 -0.234530 0.024454 0.265570 0.262195 0.023479 -0.369922 -0.001078 -0.414279 -0.003613 -0.243504 -0.646511 0.376499 -0.686547 0.166594 -0.020386 -0.105608 0.041083 -0.019029 0.195940 0.332709 0.202739 -0.110861 0.140904 0.047076 0.188637 -0.380443 -0.550207 0.314684 -0.163208 -0.069389 -0.488239 0.267193 0.140058 -0.616990 -0.147049 -0.220791 0.383342 0.122292 0.105318 0.266536 0.163838 -0.358162 -0.300733 0.180262 -0.245911 -0.026027 0.527379 0.222512 0.406125 -0.925608 0.068165 0.398203 -0.140723 -0.515466 0.142281 0.069177 0.192250 -0.054036 0.688080 0.143132 -0.537536 0.020787 0.029578 0.006327 0.045504 0.098991 0.152131 -0.464930 -0.226873 -0.420142 -0.055499 -0.527112 0.114525 0.307253 -0.254265 -0.401578 -0.490107 0.153219 -0.460384 0.168281 0.141434 -0.024213 -0.341557 -0.108201 0.071780 -0.436715 -0.662076 0.150790 -0.089692 0.051111 -0.581974 -0.020150 -0.243460 0.135027 0.669169 -0.254474 -0.220554 -0.075021 -0.162768 -0.309076 0.199001 -0.085640 0.509671 -0.309761 -0.149143 -0.151415 -0.215957 0.501210 0.428224 0.039002 0.070489 -0.153881 -0.094208 0.416591 0.077471 0.223218 0.474001 -0.140483
2049 -0.062830 -0.073989 -0.072356 0.085076 0.210834 -0.480556 -0.068862 0.179993 -0.026166 0.209518 0.274172 0.051791 0.065035 0.312308 0.187895 0.099619 -0.372462 0.002430 -0.213517 0.196008 0.221463 0.297319 0.248728 -0.196804 -0.057486 -0.046744 -0.044192 -0.237820 -0.343961 0.040381 0.112486 -0.207846 -0.489622 0.169391 0.412023 -0.290607 0.094066 0.053602 -0.127925 0.223204 -0.055441 0.127606 0.204800 -0.014761 0.329980 -0.160185 0.253716 0.468749 0.231303 -0.532877 -0.328058 -0.008895 -0.027347 0.174542 0.302129 -0.810995 -0.091832 0.375076 0.357645 -0.219054 0.180304 -0.000994 -0.340192 -0.320494 0.224737 0.102899 -0.376376 -0.585436 -0.018697 0.573464 0.394574 -0.330689 0.730952 -0.343746 0.385776 -0.028284 -0.217083 -0.263242 -0.219792 0.126466 0.648715 -0.052654 -0.191955 0.195545 -0.082588 -0.448042 -0.053549 0.669002 -0.446376 -0.248402 -0.625570 -0.061783 -0.013069 -0.380463 0.090658 0.183934 0.190674 0.282696 -0.008767 0.047833 0.097955 -0.356017 0.345452 0.157370 0.713437 -0.125837 0.159020 0.169089 -0.380394 -0.217058 0.298880 0.198530 -0.004359 0.186766 -0.172159 -0.238311 -0.273532 -0.176127 -0.187993 0.027594 0.060728 -0.277932 0.167548 -0.421730 0.089614 0.041876 0.704252 0.110950
905 -0.472610 -0.050147 0.058258 0.288193 0.425873 0.189478 -0.185994 0.018567 0.048248 0.156004 -0.369036 -0.289747 0.332242 0.093936 0.235745 0.025050 0.288178 -0.398093 -0.225536 0.090972 -0.101641 -0.011374 -0.182374 0.170793 0.028491 -0.188444 -0.414404 0.372308 0.019779 -0.070534 -0.153081 -0.055494 -0.073102 -0.302396 0.104591 0.027962 0.121815 -0.162479 -0.320357 -0.111071 -0.061577 -0.304310 -0.048802 -0.171353 -0.173794 0.281227 -0.025179 0.018192 -0.186408 -0.176118 0.127853 0.125117 -0.037468 -0.156824 -0.109269 0.406349 0.045080 0.124913 -0.290740 -0.003647 0.442391 0.321793 -0.019967 0.021376 -0.242319 0.071931 -0.152590 -0.177784 0.238811 0.010018 -0.268457 -0.110001 0.022398 -0.095476 -0.325940 0.042948 -0.100220 -0.101569 -0.109689 -0.127817 0.176742 0.160785 -0.067794 0.261492 -0.373599 -0.020493 -0.210482 -0.176039 -0.298605 0.375885 -0.075361 0.089071 0.358057 0.054673 0.109948 0.378939 0.272891 0.041173 -0.054420 -0.178667 -0.017089 -0.268197 0.213052 0.215194 0.392793 0.000168 -0.027810 0.075144 0.014079 -0.062757 0.334288 0.152831 -0.023491 -0.000152 0.039941 0.456203 0.131784 0.388403 -0.228220 0.246778 0.246684 -0.234069 -0.107574 -0.275812 0.199598 -0.015787 -0.226850 0.261609
1406 0.019060 -0.195738 -0.183844 0.383466 0.289062 0.211390 0.089908 0.262058 0.308317 -0.062019 0.030916 0.075183 0.368803 -0.070352 0.051092 -0.276379 0.263694 -0.089062 -0.252020 0.285796 -0.436632 -0.333962 -0.239085 0.493733 0.143183 0.108125 -0.390127 0.271945 0.226191 -0.002783 -0.184984 -0.310649 -0.239521 0.176667 -0.281399 -0.432791 -0.094911 0.413234 0.219528 -0.705623 0.264360 0.254439 -0.343248 -0.284252 0.227100 -0.262298 -0.096641 0.075410 -0.508585 -0.329479 0.267255 0.049662 -0.060881 0.442666 0.038906 -0.366661 0.360222 -0.111543 0.594928 0.603092 0.299824 0.400070 0.246094 0.257139 -0.105903 0.282648 0.015658 0.250540 0.208729 -0.283975 0.148997 0.066284 -0.115132 -0.203741 0.307511 0.127069 -0.394916 -0.411890 0.190878 -0.157061 0.090239 0.082199 0.450431 0.075533 0.154980 -0.318863 -0.345937 0.364105 0.174643 0.109633 -0.066793 0.474115 -0.074478 0.299417 0.409536 0.463081 -0.393501 0.489027 -0.361922 -0.413961 0.144987 0.112522 0.709673 0.009103 -0.059815 -0.227519 -0.261640 -0.047818 0.039597 0.100518 -0.161568 1.045935 -0.267893 0.006411 -0.232565 -0.562003 -0.149999 0.321504 0.574466 0.311191 -0.250589 -0.108310 0.346102 -0.190787 -0.316274 -0.157311 0.114290 0.423716
986 0.137767 0.123571 -0.577839 -0.115984 -0.054981 -0.246040 0.072182 0.078141 -0.044933 0.003034 0.249352 -0.443802 -0.222169 -0.244525 0.110919 -0.153508 0.103722 -0.196538 -0.066724 -0.456586 -0.110072 0.099918 -0.584066 0.285988 0.102087 0.356934 0.326677 0.149023 0.027300 0.196690 -0.384277 0.030844 0.066821 0.262707 -0.052958 -0.425840 -0.199786 -0.450933 0.448792 0.009608 0.416380 -0.144342 -0.614772 -0.167993 -0.048896 -0.150135 -0.173154 -0.451107 -0.278601 -0.243289 0.112115 -0.652685 0.106270 -0.037037 0.399264 -0.067620 0.410361 0.159609 -0.405945 0.058004 0.025524 -0.063696 -0.078261 -0.029321 0.129091 -0.250924 0.148331 -0.117809 0.136747 0.088703 -0.181794 0.110689 0.198575 -0.059325 0.298650 0.425393 0.042215 -0.016759 -0.355448 -0.208571 0.057079 -0.012900 0.416701 0.333037 -0.136487 -0.463468 -0.045775 -0.381277 -0.127834 0.096413 -0.251445 -0.196956 -0.005499 0.196484 -0.157205 0.022675 0.360164 0.054996 0.140211 0.075115 -0.057155 0.218835 0.143053 0.119958 0.509451 -0.148863 -0.556505 0.027612 -0.785891 -0.423967 -0.117550 0.162104 -0.340543 -0.386537 -0.427448 -0.318434 -0.024777 0.200801 0.361072 -0.087840 0.221576 -0.210287 -0.072626 -0.117450 -0.108381 -0.082389 -0.019122 -0.370644
631 -0.188089 -0.042171 -0.395923 0.099096 0.098914 -0.450194 -0.033549 -0.150098 -0.061362 0.430913 0.150718 -0.254280 -0.252259 -0.125983 0.097220 0.295451 -0.395222 -0.261024 -0.174783 -0.174474 -0.078701 0.215015 -0.000107 0.581683 0.108733 0.120273 0.232874 0.150721 -0.013828 0.103572 -0.348580 -0.113805 0.220781 0.126950 0.053583 -0.369663 0.109133 -0.302969 0.541270 -0.026235 0.283672 0.078265 -0.427404 -0.215612 0.100243 0.000553 -0.169041 -0.132044 -0.272666 -0.197684 0.281300 -0.777576 0.087689 0.087373 0.375318 0.054047 0.220638 -0.030894 -0.551311 -0.216908 0.404877 -0.201874 -0.190024 -0.021238 -0.028123 -0.431647 0.168970 0.159884 0.237690 -0.022271 0.117922 -0.026571 0.197748 -0.070541 0.220432 0.356737 0.110839 0.356785 -0.081121 0.100231 0.103915 -0.186329 0.135504 0.075032 -0.092820 -0.580319 -0.058101 -0.260230 -0.123141 0.151006 -0.171159 0.094024 -0.040101 0.090427 0.225954 -0.120408 0.019654 0.235462 -0.222309 -0.245035 -0.062046 -0.163615 -0.003430 -0.191813 0.480007 -0.027295 -0.207637 -0.032417 -0.512784 -0.386431 -0.157253 0.078091 -0.077362 -0.266516 -0.343066 -0.360382 -0.124044 0.099302 0.492667 -0.369779 0.329474 -0.103624 0.218222 -0.009492 0.179580 -0.011995 0.083126 -0.373865
822 -0.322076 0.058047 0.000727 -0.346127 0.375294 -0.292948 0.175770 -0.200949 -0.242015 0.484134 0.427984 0.166228 -0.154754 0.602919 0.314840 0.015442 0.273363 -0.382315 0.238422 -0.397732 0.139084 -0.208994 -0.413208 0.470128 0.303158 -0.404019 -0.251116 0.257788 0.178412 0.306121 0.100629 -0.577718 -0.128579 0.163675 0.020681 -0.032313 -0.072079 -0.378998 0.037771 -0.436048 -0.071346 0.054734 0.027171 -0.176225 -0.121090 0.262231 -0.307440 -0.162497 -0.034689 0.079253 0.068899 -0.132127 0.234001 -0.054584 0.533788 -0.320128 0.552142 0.416526 -0.341611 -0.483531 0.478319 -0.031509 0.161045 0.180253 0.033364 -0.127020 0.184995 0.299325 -0.339889 -0.084029 0.359733 0.274781 -0.027097 -0.348267 -0.023063 -0.097930 -0.151156 0.425980 -0.214095 -0.302659 -0.088187 0.455015 -0.184920 0.174223 0.178312 0.294332 -0.388059 0.403698 -0.478168 -0.007322 -0.049858 0.174429 0.091338 0.222517 -0.025221 -0.061962 -0.126093 0.045584 0.243253 0.094508 0.146998 -0.120925 -0.060130 0.277402 0.285504 -0.621805 -0.139882 -0.365292 -0.212807 -0.259291 -0.207719 -0.148680 0.188345 0.064961 -0.246040 -0.358027 -0.157169 0.193271 0.245955 -0.678596 -0.012909 0.261933 0.270041 0.269673 -0.058904 -0.077310 -0.032865 -0.167161
659 -0.072960 0.051503 -0.340207 0.038530 0.322090 -0.279497 0.127637 -0.033706 0.035141 0.156490 0.388744 -0.229590 -0.267863 -0.178723 0.193654 0.056556 -0.378940 -0.059519 0.213288 -0.332394 0.090866 0.125023 -0.023774 0.468308 0.237402 0.321645 0.141392 0.163421 0.163362 -0.026132 -0.228646 -0.183575 0.086913 0.097504 0.158539 -0.337799 -0.081770 -0.251349 0.385553 0.118420 0.475573 -0.058068 -0.589943 -0.314546 0.139179 -0.108684 -0.140146 -0.209526 -0.222553 -0.363809 0.326422 -0.761605 0.098773 -0.116833 0.291605 -0.226768 -0.009004 0.128710 -0.710281 -0.130130 0.391668 -0.220913 -0.078097 -0.052108 0.116172 -0.172799 -0.022687 0.029267 0.104867 -0.050761 -0.101381 0.077800 0.103010 0.176482 0.366436 0.420303 -0.016251 0.153391 0.064487 -0.227281 0.234529 -0.281996 0.311257 0.205881 -0.107873 -0.296832 -0.264005 -0.240688 -0.030174 0.188249 -0.102449 0.204619 0.035164 0.224104 0.053322 0.025517 -0.233640 0.026877 0.192531 -0.028090 -0.170423 -0.117128 0.172135 -0.200469 0.597851 -0.318535 -0.359994 -0.151850 -0.631980 -0.129735 0.043768 0.176800 -0.145216 -0.037312 -0.439127 -0.361270 -0.145164 0.172163 0.309060 -0.373465 0.284633 -0.133423 0.143621 0.066988 -0.001267 0.053174 0.017809 -0.291025
732 -0.190250 -0.222610 -0.058779 -0.142137 0.393024 0.213270 -0.466444 0.041065 0.037645 -0.093247 -0.349546 -0.193340 -0.357612 -0.092036 -0.148711 -0.074793 0.108382 -0.375872 -0.047239 -0.095745 -0.062591 -0.146441 -0.453248 0.090773 -0.170874 -0.557213 -0.114159 0.074048 0.037483 -0.281840 -0.087604 0.017188 0.216956 -0.142852 -0.053178 0.238762 0.235826 0.074570 -0.061607 -0.349143 0.150807 -0.279121 0.160946 -0.001390 0.140975 0.202363 -0.038271 0.175601 0.064258 0.049540 0.338050 0.017538 0.105248 -0.132323 0.030388 0.183129 0.403049 0.148575 0.117373 0.103838 0.223057 0.202022 -0.013504 0.306076 -0.312496 0.027670 -0.338109 0.350415 0.603244 -0.026696 -0.109689 -0.103558 0.103526 0.156072 -0.286461 -0.071628 -0.168817 -0.122867 0.099465 0.140812 0.139364 0.136150 -0.011458 0.084830 -0.076710 -0.373046 -0.058686 -0.115393 -0.243050 0.009372 0.188132 0.299166 0.246720 0.074061 -0.186357 0.072079 0.146797 0.151763 0.147187 0.135523 0.220089 -0.152349 0.097241 0.152062 0.450014 -0.198538 0.155651 -0.028077 -0.286912 -0.184930 0.271298 0.591810 0.338394 -0.080335 0.143583 0.249661 0.214074 0.331984 0.014065 0.133359 0.319083 -0.254986 -0.011352 0.054360 0.320122 -0.160784 0.117848 0.537979
2955 0.319280 0.025333 0.032226 1.025250 0.611608 0.171685 0.138351 0.098281 -0.142903 -0.017927 0.000565 -0.125300 0.066078 0.035117 0.003131 0.067700 0.369547 0.146607 -0.142729 -0.254850 0.019927 -0.096870 -1.011382 0.235064 0.530898 -0.761262 0.024373 0.207538 -0.244588 -0.595158 -0.296479 -0.128676 -0.458418 -0.223227 0.421326 0.261667 -0.650601 -0.108000 0.160924 0.675309 -0.553247 -0.078528 0.072596 0.276649 0.180027 -0.188203 0.053646 0.008923 -0.290546 -0.042389 0.509824 -0.290481 0.281700 0.689817 -0.601555 0.255752 0.113844 0.436525 -0.393796 -0.375549 0.069264 -0.743491 0.140222 0.223437 0.565895 -0.330732 0.522946 0.832824 0.610233 0.161569 0.163474 -0.317972 0.536207 0.140910 -0.040749 -1.115337 -0.252604 -0.796569 -0.199225 0.384985 -0.043772 -0.457052 -0.201623 -0.350430 0.045621 0.041578 -0.161375 -0.183009 -0.058304 0.198690 -0.273967 0.441229 -0.520191 -0.278654 -0.410524 0.303094 -0.388714 -0.187781 0.296389 -0.578667 0.261545 0.494652 0.079274 -0.211692 0.023104 0.455590 -0.105265 0.619646 0.051813 -0.898740 -0.221343 0.147940 -0.333635 0.638027 -0.514205 -0.110683 -0.028339 0.127116 -0.086337 -0.298419 -0.080487 -0.492930 0.502054 0.055841 0.222606 -0.210696 0.062506 -0.244352
1236 0.262017 -0.195074 -0.322547 0.384189 0.366203 0.185336 -0.400050 -0.027780 0.206773 -0.536861 0.192158 0.057224 0.460962 0.570244 -0.528530 0.421195 0.101136 0.172280 -0.002988 -0.292051 -0.250620 0.305347 -0.120070 0.149748 0.104414 0.441545 0.155878 -0.092998 -0.264143 -0.282268 0.186952 -0.189105 0.094797 -0.189370 0.072916 -0.286643 -0.091229 -0.218300 -0.238648 -0.176418 -0.057644 0.295286 0.121809 0.158601 0.428015 -0.170969 -0.045897 0.484315 -0.088997 0.162170 0.027320 -0.126652 -0.197387 -0.188619 -0.241891 -0.391263 0.415225 0.098864 0.037387 0.016835 0.484609 -0.208035 0.196161 0.326126 0.117683 -0.487485 0.323994 -0.001313 -0.110127 -0.217211 0.008821 0.446407 -0.169580 -0.097157 0.077011 -0.096762 -0.021256 -0.356134 -0.370632 0.005586 0.373630 -0.037573 -0.128454 0.007265 0.211186 -0.229999 0.044877 -0.215043 -0.045877 0.976909 -0.146919 -0.269364 0.327067 0.159223 -0.254274 -0.079845 -0.223420 0.534015 -0.082820 -0.312341 0.156350 -0.260984 -0.028946 -0.005040 0.287205 -0.065879 -0.088117 0.519564 0.397056 -0.375207 0.134913 -0.092953 -0.296755 0.268944 0.264419 -0.064572 -0.128685 0.076763 -0.160787 -0.087467 0.197692 0.239208 0.283020 0.550471 0.177429 -0.317571 -0.237841 0.087170
814 0.062177 0.139234 -0.138494 -0.001233 0.100377 -0.368814 -0.273834 -0.041553 -0.092334 0.454099 0.314207 -0.038145 -0.224885 -0.200178 -0.032641 -0.025958 -0.050882 0.106239 0.262797 0.015387 -0.170310 0.334415 -0.201238 0.375302 0.222128 -0.087821 -0.067997 0.463359 -0.162246 0.040611 -0.067461 0.098871 -0.057723 0.751704 0.651198 0.132750 -0.498300 -0.209183 0.108146 -0.388497 -0.611637 -0.175837 0.037767 0.146348 -0.228964 -0.168880 0.147339 0.124630 0.198866 0.404145 0.559416 0.111786 -0.158859 0.153736 0.312187 -0.201565 0.440491 -0.357189 -0.095038 -0.218984 0.071862 -0.350123 -0.287112 -0.147431 -0.291765 -0.010643 0.092003 -0.202952 -0.148965 -0.239933 -0.424253 0.182942 -0.202295 0.110877 0.375384 -0.127766 0.212053 0.080101 -0.129851 -0.522926 -0.096036 0.050616 0.017289 -0.124472 0.129285 -0.239007 -0.211813 0.083981 0.095888 -0.031177 -0.169857 -0.079483 0.389302 0.236692 -0.272066 0.401091 -0.247252 0.027195 -0.308030 0.012893 -0.208338 -0.111043 0.124864 -0.059217 0.381673 -0.297503 -0.254347 -0.057803 0.020649 -0.201646 0.237248 0.015440 0.062586 -0.013183 -0.275861 0.003415 -0.375689 0.315516 0.428843 -0.069231 0.163387 -0.511232 0.117565 0.121224 -0.116749 -0.113139 0.191882 0.400034
1731 -0.121220 -0.271007 -0.359681 0.341869 0.266017 0.120743 -0.060198 0.379944 0.268084 -0.081828 0.130522 -0.018211 0.117952 0.167550 0.079919 -0.200248 0.328039 -0.138752 -0.186536 0.278517 -0.372819 -0.454997 -0.316741 0.507071 0.397006 0.455217 -0.390926 0.166972 0.145220 0.118761 -0.199545 -0.360640 -0.146813 0.222149 -0.406497 -0.344887 -0.108283 0.248906 0.209497 -0.812632 -0.149103 0.415752 -0.420500 -0.107958 -0.051573 -0.170197 -0.129003 0.152386 -0.793416 -0.238879 0.202104 -0.035761 -0.102740 0.598775 -0.080839 -0.437851 0.244418 -0.228427 0.669643 0.562906 0.404521 0.369143 0.227329 0.108126 -0.249312 0.371512 -0.151755 0.250788 0.383208 -0.386114 0.163307 -0.045683 -0.120731 0.034531 0.421241 0.086251 -0.292596 -0.382411 0.007016 -0.113003 0.017077 0.191286 0.181118 -0.035357 0.035980 -0.329056 -0.475301 0.118145 0.300157 0.145068 -0.275327 0.572395 -0.087207 0.247507 0.478902 0.430438 -0.549903 0.386928 -0.487380 -0.291771 0.147247 0.245833 0.710043 -0.075366 -0.222877 -0.209446 -0.138364 -0.188455 0.085427 0.199814 -0.074962 0.956637 -0.375471 0.181172 -0.507224 -0.483370 -0.331639 0.468112 0.407805 0.206251 -0.128583 -0.194840 0.192465 -0.143113 -0.415674 0.133649 0.213200 0.535313
616 -0.068130 0.060583 0.179548 0.148957 0.343845 -0.051037 0.035413 0.294584 -0.098814 -0.091941 0.095372 -0.191282 0.048772 -0.189480 0.067977 0.029561 0.066055 0.176000 -0.030862 -0.073815 -0.515818 0.228149 -0.346644 0.417941 0.368565 0.177150 0.040791 0.276570 0.116530 -0.190453 -0.457825 -0.224965 -0.158447 -0.047711 0.054446 -0.023536 -0.127145 0.118803 0.159798 0.111737 -0.181213 -0.039334 0.019546 -0.152895 0.045189 -0.099645 -0.126935 -0.029641 -0.072068 -0.138658 0.345665 0.025454 0.102442 -0.163225 -0.151349 0.307119 0.315655 0.021868 0.229854 0.340184 0.041157 0.130567 -0.337356 -0.085697 -0.630059 0.073472 0.342979 -0.173200 0.152948 -0.042488 0.568242 -0.580929 0.025562 -0.169842 -0.278697 -0.016892 0.121636 -0.086997 -0.007384 0.109896 -0.058087 -0.067781 -0.258964 0.136413 -0.208293 -0.149853 0.045937 -0.017275 0.073327 0.258215 0.223536 -0.173643 -0.032990 -0.174071 -0.262035 0.010831 -0.223362 0.457397 0.392251 -0.131290 0.202487 -0.378872 -0.161867 0.195255 0.283576 0.142544 -0.044488 -0.155810 0.131158 -0.052696 0.327766 -0.023869 0.034839 -0.203606 0.050144 -0.072356 -0.086236 -0.109970 -0.391056 -0.394210 -0.263034 0.047441 0.020064 -0.306150 0.142785 0.195001 -0.105327 0.067451
780 -0.524541 -0.312412 0.062167 -0.085250 0.188117 0.002631 -0.342345 -0.028268 0.144730 0.041802 -0.232226 -0.148414 -0.222753 0.123509 -0.365699 -0.029702 0.194904 -0.277306 -0.034890 -0.145654 -0.076886 0.013932 -0.174577 -0.027446 -0.133075 -0.269520 -0.123047 0.071790 -0.096864 -0.390811 -0.271550 -0.194811 -0.429575 0.032696 0.222374 -0.064705 0.194124 0.267372 -0.076978 -0.148137 0.482566 -0.229183 0.183088 0.102059 0.170877 0.108335 0.051357 -0.244183 -0.194082 0.039158 -0.133995 -0.102976 -0.113824 -0.221802 0.021849 -0.119787 0.037108 0.250600 0.078112 -0.046346 0.149108 0.130673 0.014325 -0.261071 -0.294700 0.196750 -0.365793 0.006271 0.132173 0.027414 -0.173664 -0.415563 0.222222 0.252784 -0.209397 0.086280 -0.195664 -0.010720 -0.272356 0.037489 -0.088654 -0.199785 -0.216622 0.085368 -0.284740 -0.166233 -0.234705 0.121201 0.368183 0.529052 0.004357 0.132448 -0.001397 0.192123 -0.212000 0.586549 0.108472 0.130516 0.014572 0.193875 0.469714 -0.066090 -0.196761 -0.152977 0.406970 -0.050799 0.141126 -0.217806 -0.127499 -0.172065 -0.007008 0.535950 0.331454 -0.017886 -0.259514 -0.053794 -0.030390 0.428392 -0.077240 0.000913 0.185522 0.016181 -0.072530 0.195791 0.620572 0.232234 0.089059 0.100383
1101 -0.251016 -0.463001 0.088044 -0.634647 0.052104 0.193400 -0.132264 0.069976 -0.375077 -0.189575 0.020361 -0.129291 -0.190287 0.455430 0.107305 0.548507 -0.291515 -0.598065 -0.622579 -0.689373 -0.311033 0.414211 -0.159447 0.361401 -0.012913 -0.368490 -0.139287 0.112069 -0.380749 0.042166 -0.059976 -0.633997 -0.203954 0.170796 0.399561 0.373465 0.311575 -0.575196 0.071090 0.218655 0.014632 0.319497 -0.158568 0.220083 0.247680 -0.515045 0.568840 0.300815 -0.328512 -0.170219 -0.626873 0.166723 -0.010290 -0.231217 -0.285846 -0.136946 0.505437 0.233344 0.444710 -0.016783 0.235860 0.083297 -0.294825 -0.434649 0.178727 0.079293 0.381327 0.094296 -0.184392 -0.405474 0.619403 -0.155301 0.124731 0.310620 0.389536 -0.244224 -1.088507 0.100529 0.126309 -0.142570 0.108045 -0.223820 -0.257883 -0.254853 -0.383104 0.171945 -0.416059 0.134359 -1.025574 -0.003784 0.515865 0.127971 0.192307 0.449202 -0.063971 0.487462 -0.123952 0.247646 0.224986 -0.465006 -0.214616 0.487419 0.574764 -0.002726 0.273965 -0.348210 -0.229497 0.052976 0.198834 -0.149625 -0.166037 -0.289279 -0.056484 -0.129618 0.213016 0.043095 0.638493 -0.449940 0.720451 0.130603 -0.123676 -0.831107 -0.169547 -0.278655 0.052616 -0.284886 -0.339979 0.540424
868 0.297074 -0.103614 -0.338264 -0.219485 0.141717 -0.414773 0.013348 -0.286813 -0.034572 -0.124166 0.011666 -0.119075 -0.262196 -0.140301 0.117655 -0.129404 0.485399 0.203922 -0.327956 -0.445145 -0.263533 -0.334162 -0.211993 0.653933 -0.139737 0.137139 -0.278117 -0.134381 -0.168260 0.453619 0.115957 -0.413397 -0.377031 0.985206 0.354121 -0.087257 -0.017925 -0.157500 -0.224190 -0.460350 0.606230 0.077057 0.110972 0.099581 -0.085769 -0.141518 0.400399 -0.220602 0.004958 0.081038 0.352893 0.273507 -0.183734 0.015578 0.128352 0.176341 -0.602214 0.052195 -0.093560 -0.211207 0.612893 -0.094333 0.260683 0.363493 0.306786 -0.001493 0.065859 -0.467546 0.309000 -0.137946 0.464258 -0.426879 -0.427777 0.070542 0.086684 0.003160 -0.450913 -0.114366 0.224929 0.604724 0.057451 -0.441792 0.349464 0.229359 0.294655 0.484623 0.240877 0.294166 -0.246772 0.112625 -0.097802 -0.086621 -0.155398 0.551798 0.059230 0.211080 0.204908 0.372597 0.408656 -0.295839 -0.178046 -0.385788 0.292715 0.272919 0.725461 0.284534 -0.340983 -0.180098 0.247247 -0.501056 0.398982 0.239623 -0.036871 -0.180591 0.347727 -0.065283 0.179135 -0.105047 -0.280331 0.549720 0.223726 -0.200441 0.470244 0.534624 0.177292 -0.086132 0.467398 0.361917
698 0.248078 -0.100328 0.373996 0.065396 0.444351 -0.122120 0.037657 0.012239 -0.035704 0.229017 0.133664 -0.179736 -0.007772 -0.144843 0.206432 0.011668 -0.017744 0.115880 -0.148259 -0.090225 -0.341282 0.184227 -0.284759 0.475362 0.361376 0.244312 0.171750 0.504833 -0.142842 -0.019467 -0.353000 0.091602 -0.238807 -0.012947 -0.140285 -0.259949 -0.203099 0.204485 -0.040909 0.025112 -0.088123 -0.299267 0.186767 -0.138638 -0.123417 0.124074 -0.207840 0.103783 0.073619 -0.125605 -0.034289 0.035341 0.116656 -0.294777 -0.353121 0.420220 0.051314 0.183048 0.147146 0.476146 0.072269 0.228661 -0.241222 -0.276849 -0.372881 -0.162245 0.213481 0.136957 0.084852 -0.034554 0.296492 -0.592275 0.024921 -0.025797 -0.044020 -0.146100 0.083532 0.183673 -0.334469 -0.012719 0.126941 -0.208822 -0.564348 0.054613 -0.376487 -0.064417 0.250270 0.053911 -0.034924 0.417608 0.209313 0.047263 0.147442 -0.151105 -0.105321 -0.011903 -0.266925 0.401396 0.152034 0.135860 0.217521 -0.279226 -0.026843 0.239507 0.080277 -0.107743 -0.121101 -0.110969 -0.014841 -0.219187 0.230574 0.070702 0.008354 -0.245629 -0.043970 -0.105219 -0.005932 -0.066428 -0.086927 -0.307310 -0.029152 0.073596 0.146259 -0.044518 0.074744 0.154475 -0.049521 0.254736
0 0.424449 -0.164702 0.044735 -0.235256 0.290523 -0.122999 0.180791 0.165957 0.076020 0.549972 -0.113908 -0.466260 -0.066657 0.435358 0.386394 -0.314746 0.379640 0.091970 0.232480 -0.724408 -0.113179 0.149706 -0.185685 0.328996 0.167588 0.320151 -0.252419 0.211324 -0.499285 -0.187175 0.031481 -0.382075 -0.348349 0.664024 0.047718 0.070587 0.017847 -0.122467 0.070630 -0.040540 0.122683 0.465704 0.327917 -0.349041 -0.434010 -0.070436 0.343767 0.179809 0.147914 0.020316 0.007926 0.030998 -0.328561 -0.230468 0.371522 0.562225 0.181732 -0.223203 0.022737 -0.652286 0.031887 -0.225853 0.165583 -0.095311 0.172284 -0.167403 -0.172383 0.097265 0.070674 -0.578502 0.256729 -0.358055 -0.132521 -0.383317 0.034899 0.285043 -0.344088 0.033019 -0.319833 0.003411 0.066100 -0.090427 0.456047 0.136777 -0.300455 -0.542736 -0.393894 0.069667 0.381544 -0.150828 -0.158845 -0.167450 0.136314 0.221445 -0.398347 -0.323491 0.271016 -0.173890 -0.056234 -0.335198 -0.188353 -0.213270 0.235104 0.112758 0.474155 0.018224 0.236416 0.098165 0.065518 -0.455569 0.071447 0.294367 0.392112 -0.139362 -0.309488 0.345689 -0.334104 -0.250212 0.262246 0.035467 -0.051124 0.090037 0.178623 0.227858 0.014782 -0.392617 0.116164 -0.222659
483 -0.248901 -0.273704 0.116929 -0.083279 0.428810 -0.036791 -0.175041 -0.130213 -0.133108 0.253390 0.251642 -0.312931 -0.055323 -0.131053 0.468561 -0.055579 0.258471 0.040088 0.067076 -0.285347 -0.391418 -0.322475 -0.236719 0.009737 0.142571 0.169991 0.085768 0.174937 -0.089712 -0.113542 0.018624 0.023935 -0.098910 -0.176088 0.093806 -0.208302 0.302024 0.036080 -0.263390 0.112098 -0.011527 -0.389053 -0.284320 -0.077403 -0.145216 -0.120405 -0.127153 -0.078148 0.208446 -0.054391 -0.093112 -0.107237 -0.061769 -0.052129 0.052821 0.545925 0.066547 0.358510 0.171892 0.425747 0.113352 0.108076 -0.113659 -0.049693 0.113546 -0.192700 0.307567 0.172859 -0.206963 -0.297252 0.061281 -0.326647 0.093634 -0.077079 0.255394 0.013387 0.041486 -0.355015 0.094964 0.146053 0.300680 -0.366836 -0.076636 -0.223939 -0.270578 0.064533 -0.006867 -0.011546 0.250926 0.178178 0.148860 0.020463 0.208452 0.116564 0.009390 0.087112 -0.486584 0.191004 -0.190588 0.224935 -0.055616 -0.219404 -0.147423 0.154097 -0.021877 0.167780 0.010449 -0.113908 0.092836 -0.076518 0.397837 -0.018767 -0.184722 -0.360608 -0.362790 -0.403766 -0.120390 0.040740 -0.046082 0.004671 -0.225909 0.051359 -0.183292 -0.132691 -0.132763 0.110301 0.150788 0.115041
31 -0.391619 -0.258345 -0.049356 -0.109994 0.056802 0.054550 -0.509986 -0.084177 -0.123577 -0.327181 0.260335 -0.281731 -0.049682 0.114688 0.061983 0.145443 0.378790 -0.372601 -0.374694 -0.273472 -0.021932 0.112042 -0.325104 0.026933 -0.232923 -0.150490 0.281398 0.044369 -0.007505 -0.507858 -0.089219 -0.067819 -0.168408 0.180314 -0.164585 0.215237 -0.087665 0.376738 -0.184976 -0.213686 0.185795 -0.073663 0.028948 -0.000193 0.045866 0.176496 -0.165646 -0.210070 -0.173742 -0.007624 -0.062463 0.061951 -0.005190 -0.215509 0.204645 0.038548 0.123965 0.163565 0.249779 0.205222 0.195132 0.220599 0.226210 0.198424 -0.369557 -0.030101 -0.253048 0.179254 0.289431 0.410560 -0.089602 -0.309366 0.020180 0.002854 -0.310307 -0.305427 -0.454233 -0.477660 0.030174 -0.251767 0.208071 0.237382 -0.252505 -0.091438 0.164227 -0.254980 -0.166292 -0.059124 0.024297 0.223379 0.152075 0.312062 0.148304 0.227549 -0.276330 0.150237 0.151478 -0.126694 -0.116877 0.301216 0.102896 -0.217422 -0.051817 0.084614 0.651628 0.023856 0.084909 -0.186844 0.217056 -0.087355 -0.164108 0.486521 -0.020685 -0.430022 0.135384 0.007516 0.079329 0.529467 0.130649 0.046793 0.247035 0.068231 -0.244025 0.221849 0.133090 0.112623 0.048491 0.009817
753 -0.442446 -0.084926 -0.367215 -0.061918 0.132034 -0.080895 0.193110 -0.310329 -0.432146 0.039263 0.042392 -0.030332 0.067820 -0.444311 0.060093 0.103364 0.168093 0.418232 -0.543120 -0.033171 -0.116970 0.064264 -0.167257 -0.130152 0.198616 0.169276 -0.288231 0.112925 -0.304437 0.211015 0.002113 -0.157908 -0.374321 0.219977 -0.097442 -0.246534 0.230156 0.436920 -0.055917 0.024438 -0.592801 -0.030032 0.196923 0.155148 0.585900 0.029989 0.283896 -0.160379 0.088427 -0.412168 -0.202326 -0.252827 0.138106 0.177611 0.046856 0.115757 -0.235290 -0.068124 0.288897 -0.465796 0.251134 -0.160193 -0.033687 0.116898 0.363984 0.024750 0.345599 -0.218878 0.024941 -0.091430 0.447412 -0.328598 0.344001 -0.533757 0.892171 0.409984 0.184223 -0.241535 -0.359001 -0.216525 0.071914 0.267158 -0.074824 -0.381758 -0.111926 -0.589767 -0.468692 0.055475 -0.412089 0.185093 -0.453022 0.047269 0.318266 0.028674 -0.140397 -0.143289 0.565903 0.060160 0.185470 -0.049172 -0.407761 -0.137694 -0.263457 -0.100560 0.872313 -0.498135 -0.143120 -0.256513 -0.730104 -0.156595 0.394129 0.055474 -0.120453 0.035849 -0.234393 0.068652 0.381107 -0.260685 -0.001660 -0.215126 0.077828 0.462676 -0.279349 -0.103156 -0.178848 0.277166 0.278483 0.036634
2050 -0.360159 -0.168321 -0.184655 -0.201738 0.516667 -0.105463 0.080400 0.077350 -0.033359 0.450909 0.214546 0.051903 0.310784 0.187319 0.010097 0.030094 -0.571441 0.121198 0.029500 -0.036969 0.010032 0.139064 0.042723 -0.126523 0.081096 -0.187140 -0.270144 -0.175754 -0.355005 0.163935 0.253192 -0.401093 -0.374543 -0.014438 0.251849 -0.466723 -0.115363 -0.064347 -0.091141 -0.044003 0.228798 0.295217 0.139409 0.149179 0.281421 0.300697 -0.098851 0.325718 0.106611 -0.503636 0.025219 -0.119536 -0.031521 0.166816 0.040499 -0.273433 -0.144487 0.381900 0.512228 -0.256834 -0.010577 -0.207056 0.088241 -0.029044 -0.164682 0.146362 0.074797 -0.761503 -0.086138 0.432479 0.171284 -0.312014 0.287076 -0.218973 0.381574 -0.111268 0.249704 -0.443836 -0.147245 0.015028 0.244604 -0.157036 -0.267081 -0.146417 0.048360 -0.166015 -0.318664 0.224768 -0.628564 -0.254931 -0.970841 -0.036184 -0.048565 -0.064795 0.215110 0.236941 0.227566 0.095525 -0.209543 0.160152 -0.096123 -0.089371 0.125164 0.378431 0.411930 0.046702 0.088584 0.038651 -0.418427 -0.359601 0.417679 0.354210 -0.300368 -0.142970 -0.206416 -0.182698 -0.105765 -0.130640 -0.038804 0.006762 -0.147765 0.199984 -0.226052 -0.154574 -0.419160 -0.202887 0.634830 0.125879
263 -0.379524 0.076846 0.034906 0.229824 0.270184 -0.244192 -0.058524 0.144691 0.152702 0.132555 -0.520941 -0.133494 0.057493 -0.080762 0.479842 0.007425 0.215882 -0.065456 -0.032815 0.250982 -0.127289 -0.107601 -0.039536 0.302001 0.077186 -0.095453 -0.321047 0.150139 0.131956 -0.403916 0.258617 -0.088859 -0.363364 -0.308304 -0.059189 -0.037891 0.106131 -0.160632 -0.346121 -0.383960 -0.345833 -0.047718 -0.506340 -0.113850 -0.036779 -0.089192 0.143654 0.215555 -0.178928 0.121574 0.217676 0.018001 0.123453 -0.223411 -0.061902 0.279239 0.173698 0.036406 -0.221876 0.217574 0.354602 0.136820 0.187894 0.107645 0.023282 -0.121829 -0.153464 -0.491696 -0.283735 -0.064059 -0.562671 -0.482530 -0.045241 -0.091087 0.128369 -0.362566 -0.639397 -0.197756 0.105588 -0.424332 0.085879 -0.261314 -0.092869 -0.015764 -0.354496 0.016482 -0.637217 -0.537323 -0.191554 0.111677 0.349703 -0.199015 0.226432 -0.199794 -0.222171 0.272910 0.104321 0.290824 0.464968 -0.089355 0.264430 -0.221254 -0.302940 -0.190108 0.249248 -0.118069 0.197940 0.061516 -0.347308 0.044926 0.064213 -0.060099 -0.419130 -0.257830 -0.114114 0.474657 0.249736 0.380359 -0.145739 -0.000054 -0.001174 -0.047214 0.339954 0.262349 0.063808 0.093334 0.237382 0.014433
516 -0.049002 -0.191622 0.019232 -0.128681 0.350449 0.125437 -0.167476 0.162378 -0.350294 0.609264 0.369675 -0.094843 -0.104673 -0.067897 0.219228 -0.144853 0.268688 0.261617 0.023627 -0.230771 -0.509649 -0.411589 -0.232651 0.205030 0.222693 0.059536 -0.101121 0.106605 -0.039366 -0.309683 0.087020 -0.160450 0.137865 -0.058547 0.144667 -0.000718 0.299363 -0.047857 -0.142637 0.117465 -0.148806 -0.465361 -0.197785 0.143256 -0.093720 -0.042317 -0.162200 -0.025941 0.072605 -0.171460 -0.214836 0.180337 0.014288 -0.206812 0.160487 0.289452 0.060988 0.115902 -0.063297 0.297166 0.174012 0.216851 0.013984 -0.352073 0.015836 -0.115830 0.015049 0.130917 -0.066733 -0.112754 0.194777 -0.372903 0.241148 -0.022859 -0.002874 -0.111438 0.235995 -0.238419 0.166614 0.142425 0.179003 -0.363686 -0.051683 0.067256 -0.139994 -0.023832 0.049687 -0.029233 0.109731 0.429311 0.051028 -0.166096 0.013908 0.052880 -0.241368 -0.116595 -0.594567 0.273817 -0.056453 0.095717 0.010846 -0.375053 0.138728 -0.013255 0.166105 0.043867 -0.033760 -0.266249 -0.077759 -0.173712 0.228767 0.068120 -0.029269 -0.145305 -0.165462 -0.032955 -0.021782 0.061611 0.016574 0.253139 -0.124143 0.207582 -0.272928 -0.000085 0.127509 0.208874 0.141289 0.125791
354 -0.295614 -0.750291 0.281954 0.108489 -0.112374 -0.615430 0.444883 0.475695 -0.594174 0.029566 -0.159451 -0.563713 0.002378 0.173487 0.324440 -0.552738 -0.294804 -0.449687 -0.053644 -0.553095 -0.016696 -0.441012 -0.370441 -0.036133 -0.186674 0.084927 0.314501 0.432810 -0.640906 0.173707 0.244565 -0.334572 -0.014426 0.063426 -0.301991 -0.064294 -0.282260 0.383905 0.096841 -0.223601 0.026942 0.274053 -0.399818 -0.033270 0.228870 -0.319338 0.171410 0.161170 0.106761 -0.509046 -0.562991 -0.035710 0.370498 0.141724 0.131726 -0.725404 0.126202 0.367659 0.323814 -0.248798 0.348022 -0.172387 -0.012048 0.308967 -0.240435 -0.383273 0.421978 0.278333 -0.521585 -0.105263 -0.758180 -0.408235 -0.264262 -0.339459 -0.305488 0.266871 0.344596 0.042060 -0.246065 0.241901 -0.070997 0.116749 0.191586 -0.139396 -0.131510 0.581411 -0.601105 0.065326 -0.352316 0.102353 -0.232476 0.045947 -0.043156 0.020377 -0.162333 -0.257723 -0.286234 0.586692 -0.092648 0.105641 0.014580 -0.791823 0.165449 0.050322 0.043062 0.026493 -0.301192 0.058996 -0.220235 -0.728430 -0.537379 0.060376 -0.034281 0.406057 -0.153210 0.178717 -0.516085 -0.137536 -0.288091 -0.058367 0.388939 -0.763957 0.293026 0.673627 0.168952 0.243569 -0.444680 -0.271730
979 -0.129602 0.103875 -0.245744 -0.055327 0.056883 -0.405896 0.122152 0.091473 -0.075558 0.491676 0.419677 -0.275601 -0.246081 -0.317755 0.103311 -0.119697 -0.257553 -0.274512 0.018618 -0.193076 -0.173736 0.110393 -0.150260 0.502283 0.275795 0.043806 0.058492 0.340141 -0.135665 0.276972 0.059948 -0.120694 0.078291 0.000046 -0.001482 -0.317923 -0.178617 -0.359472 0.400624 -0.018469 0.456626 -0.062216 -0.489941 -0.347567 -0.093113 0.013142 -0.216283 -0.379458 -0.117738 0.053632 0.388868 -0.620095 0.296349 0.008385 0.338759 -0.201482 0.299645 0.034549 -0.491871 -0.397032 0.191833 -0.010976 -0.047838 -0.197484 0.148732 -0.336539 0.217181 0.155647 0.143425 -0.157228 0.233045 -0.031993 0.070416 0.096922 0.143380 0.422829 0.138128 0.241596 0.009638 -0.064318 0.089058 -0.262446 0.263757 0.209271 0.108504 -0.333485 -0.045322 -0.214554 -0.338254 0.195907 -0.186688 -0.051079 0.197913 0.431942 -0.025046 -0.074147 0.129871 0.305826 -0.017332 -0.162026 -0.167882 -0.038621 0.074860 -0.048923 0.517522 -0.304507 -0.383945 0.065607 -0.453227 -0.433426 0.066409 -0.102158 -0.283217 -0.185362 -0.373963 -0.423858 -0.154776 0.475791 0.412852 -0.417246 0.252422 -0.098679 0.051479 -0.088465 0.060373 -0.201505 0.226973 -0.443838
522 -0.052276 -0.290378 -0.037015 0.082995 0.317436 -0.220883 -0.037858 0.317117 -0.193140 -0.218962 -0.136081 -0.078457 -0.260938 -0.248042 0.126113 -0.115522 0.258828 0.418590 -0.212447 -0.370997 -0.126528 0.400339 -0.211412 0.385079 0.028530 0.001910 0.059261 0.389349 -0.048790 -0.128452 -0.060380 -0.060699 -0.177571 0.189297 0.262921 -0.076973 -0.132577 0.144252 0.086287 0.009789 -0.058632 -0.430293 -0.054362 -0.086764 -0.089250 0.188479 -0.562589 0.191839 -0.179716 -0.045036 0.169644 -0.242375 0.004497 -0.099835 -0.011239 0.227697 -0.039711 -0.040944 0.301693 0.069903 0.073666 -0.030065 -0.183652 0.174907 -0.221054 0.215270 0.001904 -0.208380 0.014148 -0.027444 0.301737 -0.054763 0.178635 -0.200789 -0.436462 0.185258 0.005978 -0.224534 -0.189974 -0.112842 -0.394966 -0.237499 -0.291510 0.028450 -0.102019 -0.343878 -0.032775 0.064658 -0.223405 0.351908 0.484247 -0.081242 0.031648 -0.166719 0.073838 0.333974 -0.293611 0.430591 0.304087 -0.271215 0.127040 -0.625407 0.189326 0.058875 0.014302 0.316507 -0.182169 -0.184753 0.113731 -0.047687 0.151481 0.107196 -0.104942 0.039575 0.052751 -0.183496 -0.005234 -0.084871 -0.264444 -0.280328 -0.049669 -0.044908 -0.371290 -0.453314 0.233606 0.289846 -0.238857 0.234478
691 0.127921 -0.114305 0.111581 -0.182363 0.120728 -0.084956 -0.153852 0.154038 0.039780 0.186607 -0.082575 -0.597962 0.012641 0.333446 0.409663 -0.090654 0.310414 0.309297 0.576768 -0.406960 0.229063 -0.092911 -0.272041 0.341492 0.666438 0.358900 0.221358 0.229497 -0.297436 -0.089305 -0.329323 -0.240880 0.307624 0.666537 -0.011842 -0.191674 0.089348 -0.311108 0.581880 -0.304826 0.146742 0.240953 0.098405 -0.198116 -0.224150 -0.271663 0.241591 -0.337372 0.087390 -0.164255 0.023277 -0.160268 -0.169300 -0.325613 0.325022 0.304617 0.426114 -0.133381 -0.122699 -0.922806 -0.212810 -0.174440 -0.048526 0.112634 0.273764 -0.292646 -0.034096 -0.295124 -0.101277 0.075823 -0.036559 -0.265079 -0.216648 -0.021587 0.296990 0.425438 -0.200946 -0.094561 -0.185749 -0.519077 0.177839 0.230369 0.283352 -0.061223 -0.139422 -0.688170 -0.117712 -0.155506 0.020748 -0.147394 -0.162488 -0.280618 0.444976 0.270318 0.023240 0.054819 0.385624 0.136787 -0.265851 -0.444715 -0.197011 -0.161271 0.086150 -0.259018 0.208828 -0.191232 -0.127026 -0.081046 -0.571072 -0.404911 -0.038740 0.220292 0.106903 -0.162909 -0.385747 -0.027999 -0.357812 -0.041173 0.318637 -0.389291 0.118930 -0.036080 0.020423 0.038793 0.076360 -0.039710 0.120021 -0.072139
673 -0.241047 -0.163855 0.090789 0.298001 0.105408 0.090733 -0.146972 0.052823 -0.114043 0.498605 0.129854 -0.005230 0.204740 0.180790 0.082527 -0.394756 0.212544 -0.337701 0.051730 0.370072 -0.206614 -0.049342 -0.011215 0.106996 0.243992 -0.154900 -0.370711 0.454777 -0.123275 -0.503381 -0.311618 0.015378 -0.080670 -0.504089 0.389951 0.201721 0.313572 -0.254366 -0.083397 0.106455 -0.050460 -0.264699 -0.190351 -0.069383 -0.124068 0.224832 -0.066632 -0.113949 0.083824 -0.010318 -0.281179 -0.030171 0.044164 -0.012559 0.094998 0.250308 0.129754 0.086917 0.173611 0.010391 0.208967 0.431225 -0.108279 0.048243 -0.278740 -0.051909 0.198989 -0.279283 0.019322 -0.094142 0.145169 -0.346494 0.256198 -0.538106 -0.295060 0.316480 0.029806 -0.032377 0.011601 -0.092672 0.234332 -0.139735 -0.050872 0.436736 -0.485611 0.191647 0.042322 -0.292925 0.168657 0.364614 0.196954 0.000617 0.112240 0.204079 -0.013744 0.195667 0.131808 -0.143339 -0.084810 -0.033198 -0.015663 -0.127027 0.049824 0.190094 0.363109 0.129943 -0.119422 -0.122423 0.089858 -0.525289 0.362625 -0.065838 0.007534 -0.036042 -0.200962 -0.092166 0.032444 0.078649 -0.076207 0.435636 0.000683 0.120035 -0.112473 0.153547 0.199913 -0.022927 0.047359 0.211777
685 -0.549538 0.140270 0.453955 0.252305 0.462586 -0.254632 0.028221 -0.107248 -0.023276 -0.022850 -0.400519 -0.420437 0.271264 0.029004 0.275077 -0.041459 0.376978 -0.056518 -0.161807 0.010173 -0.374042 -0.039926 -0.000739 0.124536 -0.024535 0.135156 -0.373075 0.293208 -0.060341 -0.245576 -0.044399 -0.128897 -0.444181 -0.087989 -0.066102 -0.161603 0.037516 -0.125268 -0.477382 -0.201376 -0.081977 -0.126518 -0.158091 0.008526 0.084803 0.272879 -0.038892 0.172286 -0.045897 -0.105326 0.344411 0.135542 0.084898 -0.257553 -0.014426 0.244818 0.117218 0.249385 -0.172393 0.005096 0.480677 0.268821 -0.009858 0.135401 -0.268945 -0.111259 -0.226784 -0.070565 0.039499 -0.262110 -0.514225 -0.150578 -0.160722 0.103467 -0.304919 -0.361489 -0.146915 -0.134843 -0.061984 0.015714 0.142716 0.041427 0.072975 -0.007132 -0.422973 -0.090943 -0.284964 -0.296655 -0.310509 0.372090 0.044211 0.027971 0.111401 -0.373990 -0.121087 0.187463 0.260688 0.120352 -0.024977 -0.245000 0.087445 -0.127185 -0.076657 -0.002544 0.188296 0.068217 0.121417 0.127429 -0.329704 0.163130 0.517471 0.009246 -0.128334 -0.093549 0.137954 0.491131 0.244787 0.228231 0.128499 0.108312 0.009432 -0.315609 0.120610 -0.163545 -0.027510 0.096329 -0.157575 -0.069302
416 -0.285843 0.106034 0.246031 -0.378679 0.145376 -0.155931 0.306491 -0.234926 -0.111154 0.233845 0.412371 -0.122174 -0.123668 0.576600 0.273932 -0.221897 -0.051008 -0.213620 0.180104 -0.327356 0.236364 -0.221024 -0.426649 0.555150 0.054865 0.085491 0.219083 0.334853 0.241385 0.145605 -0.198218 -0.687662 0.286262 0.314837 -0.225579 -0.202821 0.066316 -0.242124 0.538683 -0.287715 0.099898 0.157419 0.001230 0.040022 -0.116724 -0.063855 -0.372584 0.101861 0.058530 -0.373238 -0.154361 -0.620854 0.266635 -0.243397 0.562405 -0.292039 0.437835 0.267726 -0.027867 -0.622401 0.591304 0.213215 0.305567 0.269863 -0.022195 -0.227373 0.053254 0.203285 -0.574964 0.061631 -0.029181 0.038894 -0.156862 -0.439308 0.165431 0.323931 -0.001604 0.180724 -0.129448 -0.469762 -0.025014 0.308503 -0.367196 -0.156768 0.020079 0.445198 -0.301422 -0.249806 -0.252264 -0.002649 -0.048243 0.139154 0.014947 -0.049549 -0.065222 0.026947 0.043089 0.319229 0.428352 -0.006821 0.124858 -0.413567 0.114153 0.133321 0.329673 -0.425512 -0.093307 -0.263780 -0.482261 -0.378143 -0.319905 -0.022738 0.155845 0.398842 -0.263671 -0.201385 -0.322236 0.090937 0.153158 -0.387971 0.355685 -0.340898 0.317522 0.144175 0.118828 0.128635 0.105801 -0.108879
495 0.120900 0.017882 -0.084794 -0.210628 0.300463 -0.571579 0.049770 0.138202 0.041139 0.244020 0.457111 -0.310886 -0.142018 -0.433617 0.113668 -0.048526 -0.250731 -0.181650 0.007585 -0.324504 -0.117344 0.151103 -0.082429 0.214193 0.263724 0.352027 -0.003997 0.229561 -0.075728 0.304482 -0.029669 -0.109768 0.162702 0.129215 0.039380 -0.541021 -0.193359 -0.314182 0.534836 0.053745 0.496770 -0.180679 -0.766765 -0.502727 -0.131660 -0.136529 -0.292560 -0.391599 -0.135815 -0.191088 0.232920 -0.800607 0.150379 -0.085437 0.264432 -0.270148 0.348981 0.125226 -0.382426 -0.187639 0.183923 -0.322225 -0.136517 -0.104907 0.092789 -0.138133 0.017132 0.244564 0.073882 0.029926 -0.159247 -0.008580 0.250207 0.200045 0.064250 0.321729 0.041092 0.076611 -0.041448 -0.050768 0.091284 -0.214189 0.319090 0.357272 -0.075812 -0.317883 0.023509 -0.298978 -0.420815 0.140197 -0.305162 0.028147 0.142688 0.202325 0.047053 -0.077100 0.229199 0.258357 0.171523 -0.231402 0.054622 0.133862 0.069822 -0.322009 0.543171 -0.009951 -0.454667 0.279064 -0.548744 -0.510236 0.042755 -0.061084 -0.278217 -0.088917 -0.278881 -0.521571 -0.058220 0.208163 0.494763 -0.286692 0.350552 -0.026130 0.022743 -0.263704 0.138665 -0.198983 0.182246 -0.495769
1004 0.113823 -0.242761 0.057793 0.201035 -0.096947 0.214961 -0.175882 0.116714 -0.139261 0.384479 0.358093 -0.402434 -0.287279 0.091729 0.509801 -0.130369 0.335122 -0.134101 0.061560 0.119119 -0.286111 -0.243392 -0.148781 0.360473 0.096951 0.311066 -0.114352 -0.002485 -0.026897 -0.407611 -0.026833 -0.300780 0.248512 -0.282507 0.205192 -0.030043 0.263478 0.200626 -0.180528 0.141486 0.064431 -0.236431 0.085523 0.103392 -0.094857 -0.197519 -0.046360 -0.047831 0.051285 -0.327964 0.176720 0.143467 0.062165 -0.237879 0.434253 0.312246 0.186022 0.025774 0.036013 0.370977 0.023545 0.179889 -0.107888 0.079243 -0.408866 0.149952 0.001248 0.174968 0.139090 0.319680 0.185054 -0.424561 0.217620 -0.162015 0.025898 0.055423 0.147769 -0.268860 0.104331 -0.073533 -0.016055 -0.236400 -0.248039 -0.038854 0.052598 0.102623 -0.192111 -0.016107 -0.402517 0.550143 0.174984 -0.127946 -0.029233 -0.114710 -0.256296 0.006428 -0.274691 0.422896 -0.015056 0.131311 -0.014190 -0.523939 -0.028766 -0.461769 -0.008260 -0.205880 -0.374787 0.004389 0.391576 -0.027127 0.158423 -0.055330 -0.323149 -0.309296 -0.371390 -0.009779 0.155747 0.351486 -0.168372 0.044142 -0.116795 0.193908 -0.013444 0.146336 0.074540 0.120258 0.365569 0.088585
748 -0.025387 -0.055416 0.004238 -0.047383 0.431622 -0.186036 -0.092875 0.118779 -0.171671 -0.083335 -0.070639 -0.121727 -0.086503 -0.190798 0.093932 -0.105747 0.215753 0.408860 -0.218916 -0.242675 -0.262843 0.370820 -0.401744 0.288634 0.027656 0.076850 -0.030808 0.235099 -0.032338 -0.267348 -0.119439 -0.031617 -0.104525 0.166593 0.182951 0.145121 -0.072213 0.059018 0.115241 -0.022662 -0.146637 -0.334404 -0.120451 -0.064769 0.109577 0.053262 -0.339933 -0.060267 -0.081715 -0.077492 0.197869 -0.065365 -0.000357 -0.159407 -0.083960 0.162641 0.076820 -0.062371 0.139746 0.033092 -0.043048 -0.087803 -0.343804 0.108670 -0.518973 0.165578 0.082273 -0.085787 0.032890 -0.059187 0.403920 -0.168048 0.058127 -0.188845 -0.511077 0.056336 0.047928 -0.184825 -0.308815 -0.025402 -0.198886 -0.266123 -0.065373 0.243261 -0.075554 -0.312899 -0.150971 0.146939 -0.200350 0.209786 0.419733 0.022912 -0.091170 -0.185931 0.076660 0.179579 -0.324585 0.575053 0.375783 -0.168365 0.184304 -0.524241 0.104084 0.077506 0.149597 0.492521 -0.002089 -0.357420 0.032506 -0.063072 0.155454 0.104621 -0.163339 0.173190 0.176361 -0.328889 -0.042174 -0.293271 -0.314008 -0.203677 -0.114035 -0.016647 -0.218224 -0.420784 -0.077287 0.247250 -0.193843 0.270964
916 -0.154682 -0.507042 -0.064160 0.054917 0.016661 -0.086779 -0.038816 -0.567307 0.658898 -0.064094 0.012215 0.327499 -0.010516 -0.050321 0.073130 0.556547 -0.403523 0.006136 0.246357 -0.315205 -0.216612 0.188782 0.090210 0.102990 0.378725 -0.254196 0.124135 -0.125564 -0.350284 -0.161178 -0.492048 -0.152957 0.061294 0.173565 0.582560 -0.473920 0.519309 -0.328099 0.510218 -0.599986 0.259083 -0.384326 -0.029036 -0.038370 -0.178360 -0.093613 0.273801 -0.134156 0.096743 -0.128485 0.207800 0.204070 0.252876 0.486028 0.083683 -0.219005 -0.036605 -0.504910 0.005876 -0.016343 0.235018 -0.101992 0.197062 -0.101540 -0.146362 -0.553246 -0.032670 0.239907 0.043593 0.107720 -0.313808 0.079543 -0.043169 0.084398 -0.209793 -0.091219 0.231364 -0.497431 -0.028528 -0.186051 -0.188479 -0.316902 0.119854 -0.031864 -0.370239 -0.010061 -0.354205 -0.195477 -0.504206 -0.026033 0.540127 -0.062329 0.038521 0.053432 -0.731835 0.003215 -0.289843 -0.191269 -0.439191 0.088675 -0.208455 0.045979 0.055446 0.468039 0.445232 -0.003751 -0.299177 0.087192 0.082870 -0.017634 0.022425 0.698651 -0.322022 -0.045115 -0.495266 -0.046367 -0.139941 -0.168457 -0.040684 -0.189635 0.159287 -0.109717 0.112541 -0.147075 -0.170708 0.219814 0.049442 -0.401612
51 -0.124367 -0.312660 0.130310 0.117019 0.216217 0.252880 -0.217513 0.014976 -0.144867 0.432599 0.385336 -0.109487 -0.079747 -0.242413 0.390789 0.076708 0.204263 0.032275 0.121117 -0.324519 -0.498912 -0.413181 -0.238673 -0.002451 0.283682 0.235815 -0.045959 0.194882 0.111352 -0.104856 -0.137758 -0.078977 0.070266 0.055399 0.019728 -0.081464 0.222182 0.062042 -0.301470 0.307160 -0.060155 -0.322516 -0.158610 -0.073802 -0.062259 -0.165827 -0.278628 -0.037445 0.269554 -0.108042 0.141666 -0.100928 -0.039663 -0.022650 -0.001203 0.319167 0.289620 0.194072 0.069149 0.428704 0.127936 0.132289 0.029259 -0.128764 -0.131828 -0.233399 0.247433 0.124794 0.008200 -0.109311 0.304240 -0.486104 -0.020520 -0.306997 -0.010012 -0.066512 0.125743 -0.123962 0.088427 0.095351 0.225461 -0.221528 -0.216185 -0.057667 -0.253109 -0.017556 0.007569 -0.041244 0.120308 0.266482 -0.119581 -0.078724 0.011070 0.094506 -0.323291 -0.162709 -0.533287 0.284606 -0.025569 -0.050576 -0.026669 -0.297252 -0.028413 0.006451 0.135469 0.157890 -0.059853 -0.228249 0.094838 -0.053938 0.322129 0.074167 0.061448 -0.357188 -0.169170 -0.231606 -0.076176 0.061680 -0.092758 0.022235 -0.236029 -0.027995 -0.211335 -0.156761 0.113151 0.226254 -0.025015 0.161321
876 -0.416185 -0.240899 -0.112836 0.031979 0.183087 0.368604 -0.285384 0.174186 0.072652 -0.103982 -0.245081 0.024746 -0.501686 -0.051792 -0.006449 0.008411 -0.126582 -0.200644 0.135005 -0.447249 0.066604 -0.422373 -0.663006 0.318457 0.013209 -0.158272 0.132949 0.213980 0.143184 -0.511804 0.045598 0.389219 -0.283555 -0.067439 -0.116116 0.030661 0.289388 0.145695 -0.086805 -0.383233 0.273350 -0.294379 0.371841 -0.023441 0.002079 0.128189 0.323099 0.562011 0.482817 0.178982 0.274784 -0.124245 0.204708 0.195565 0.182499 -0.075808 -0.089056 0.171798 0.202388 0.478378 0.375211 0.043679 -0.020004 0.636563 -0.403163 -0.042457 -0.578641 0.745229 0.388802 0.224979 0.136082 -0.231090 0.265467 0.522290 -0.278249 -0.160916 -0.011069 -0.202585 -0.176244 -0.017742 0.600492 0.165269 0.257322 0.395983 0.386100 -0.337806 0.108610 -0.318012 -0.246917 -0.523205 -0.125337 0.063888 0.485913 0.385226 0.035799 0.157410 -0.450054 -0.117279 0.055668 -0.194672 -0.110377 -0.299049 -0.122742 -0.306786 0.697728 -0.050350 -0.005812 0.365130 -0.136131 -0.456412 0.491900 0.090848 -0.101521 0.145835 0.258165 0.108594 -0.219236 0.282698 0.014136 -0.096743 0.283156 -0.369787 0.118220 -0.094193 0.178545 -0.191372 0.245595 0.032852
848 0.031281 0.001539 -0.338840 0.169981 0.015896 -0.069439 -0.075140 -0.081725 0.435255 0.386914 0.443314 -0.283167 -0.094554 -0.275031 -0.484354 0.212115 0.184266 -0.039821 0.207962 0.023619 -0.175954 0.298055 -0.375482 0.570126 -0.197066 0.104770 -0.056186 0.468229 -0.343046 0.099163 -0.117804 0.120522 -0.374377 0.217087 0.674251 0.194532 -0.148686 -0.114481 -0.210780 -0.184527 -0.473183 0.099819 0.006300 -0.116360 -0.528017 0.022290 0.052175 -0.212817 -0.099521 -0.286118 0.223109 -0.119969 -0.110788 0.256601 0.286053 -0.359355 -0.021088 -0.406442 -0.413864 -0.100262 0.088763 -0.284876 -0.082495 0.179696 -0.107133 -0.000472 0.294905 -0.026046 -0.216055 -0.298606 -0.278743 -0.062712 -0.066349 0.051146 0.213263 -0.178722 0.201503 0.173173 0.096179 0.078220 0.186905 -0.168641 -0.098409 -0.307536 0.137362 -0.455755 -0.270707 0.119930 -0.099997 0.029484 -0.069026 -0.003950 0.235291 0.258072 -0.255162 0.443820 -0.276218 -0.134811 -0.188432 0.042698 -0.508379 -0.081293 0.250516 0.010029 0.342872 0.038959 -0.096735 0.052126 -0.153269 -0.248711 0.016952 -0.152867 0.021276 0.085315 -0.303850 -0.380296 -0.065475 0.637211 0.425638 -0.176421 0.487725 -0.252649 0.284753 0.081833 -0.339005 0.063611 0.088163 -0.110546
441 0.171671 -0.116560 -0.133254 0.057198 0.170094 -0.070858 -0.261017 -0.355117 -0.353342 -0.489643 0.080259 0.155650 0.332152 0.192007 -0.323991 0.417508 0.323337 -0.114650 0.005936 -0.315547 -0.339150 0.222703 -0.143740 -0.302985 -0.125377 0.230604 0.172141 0.196854 -0.257475 -0.496766 0.172213 -0.197399 0.181237 0.106465 -0.222335 -0.159005 0.121788 -0.215771 -0.372458 0.033218 -0.144763 0.073969 -0.027872 -0.030488 0.006390 -0.345877 -0.219825 0.288678 -0.545464 0.230384 -0.339754 0.008519 0.197099 -0.068546 -0.005040 -0.193695 0.232581 -0.121007 0.290028 -0.116012 0.293474 0.163063 0.274722 0.239787 -0.139543 -0.257434 0.098930 -0.158272 -0.307744 0.080241 0.153909 0.035379 -0.026453 -0.181429 -0.106746 -0.323740 -0.324333 -0.564781 -0.407653 -0.067238 0.605829 -0.007513 -0.152487 -0.096680 0.363683 -0.167831 -0.042045 -0.527390 -0.269457 0.551835 0.301764 0.015876 0.261598 0.169298 -0.313993 -0.094268 -0.123470 0.283232 -0.129887 -0.835272 0.544957 -0.234767 0.151908 0.169700 -0.037622 -0.031843 -0.085390 0.615436 -0.092962 -0.023205 0.194091 -0.049969 -0.212428 -0.370638 0.109038 -0.281266 -0.256976 0.187682 0.153040 0.101105 0.078704 0.190610 0.220875 0.647797 0.116029 -0.200584 0.323111 -0.145062
202 -0.346298 -0.249937 -0.448669 -0.199151 0.108111 -0.473410 -0.093905 -0.102484 -0.237031 -0.197733 0.048341 -0.056142 -0.238008 0.317842 0.062869 -0.003243 0.500293 0.287250 0.377267 -0.034928 0.270341 0.358299 -0.159001 0.091943 0.219493 -0.336378 0.005013 0.008025 -0.246450 0.268618 -0.339458 0.045829 0.090993 -0.225846 0.344773 -0.008670 -0.304915 -0.013573 0.022840 0.024457 -0.106211 -0.180851 0.412627 0.005029 -0.171005 -0.072497 0.023013 -0.120039 -0.013954 -0.213766 0.115403 -0.174936 0.044899 0.754423 0.045191 -0.018431 -0.116159 -0.039514 -0.324906 -0.179467 0.722870 -0.323708 -0.029702 0.553904 0.175300 -0.119493 0.333940 -0.193676 -0.634031 0.058623 0.422437 -0.378638 0.181319 -0.338216 -0.350883 -0.239868 0.408644 -0.379753 0.108359 -0.081444 0.402988 -0.450885 0.348066 -0.034714 0.141709 0.102912 -0.527825 -0.277673 0.024760 0.128233 -0.225232 0.396600 0.016581 0.493219 -0.405468 0.101181 -0.206185 -0.086686 0.307036 -0.115006 -0.291678 -0.208072 -0.032703 0.181064 0.290849 -0.964318 0.022850 -0.256712 -0.405997 0.162226 -0.026357 -0.230660 0.220388 0.236227 -0.297720 0.269448 -0.694133 -0.093719 0.808011 0.178289 -0.120117 -0.005013 -0.106773 -0.122973 -0.170552 -0.240712 -0.005658 0.220495
1980 -0.375569 -0.308985 -0.282057 -0.037534 0.310743 -0.139041 -0.121723 0.100622 -0.099113 0.647745 0.131073 -0.008751 0.547153 0.168711 -0.088707 -0.263556 -0.560122 0.043721 0.161685 -0.030505 0.057977 0.173135 0.024211 -0.430268 0.045805 -0.342545 0.008310 -0.111259 -0.267511 0.285430 0.036914 -0.412494 -0.362400 -0.007721 0.256745 -0.488539 -0.178966 -0.134542 0.065237 -0.227371 0.286068 0.278878 0.036291 0.211586 0.251860 0.005755 -0.041999 0.410176 -0.012687 -0.395760 0.050522 0.073921 0.069715 0.060601 0.309237 -0.254884 -0.152167 0.431416 0.528381 -0.183165 0.020369 -0.141582 0.298965 -0.005709 -0.239589 0.000025 0.145765 -0.750048 -0.098909 0.289094 0.269826 -0.365429 0.248761 -0.036879 0.079630 0.033024 0.161372 -0.542076 -0.285815 0.015890 0.242362 -0.192871 -0.146144 0.072738 -0.072987 -0.296269 -0.227930 -0.058694 -0.626555 -0.601689 -1.013714 -0.086672 -0.143799 -0.122190 0.144921 0.153528 0.251608 0.333343 -0.039709 0.114417 0.057773 0.013997 0.078689 0.599232 0.416045 0.070366 -0.040583 -0.039413 -0.166966 -0.207094 0.465525 0.305087 -0.338680 -0.076371 -0.221609 -0.140139 -0.018619 0.023316 -0.204158 -0.133194 -0.247596 -0.077352 -0.329822 0.019879 -0.571872 -0.364321 0.634513 0.006782
1747 0.215971 -0.434191 -0.120163 -0.471056 0.113074 -0.148914 0.178914 -0.575694 -0.045894 0.137930 0.108512 -0.220703 -0.395863 -0.101053 -0.003982 -0.203268 0.595754 0.368456 -0.429398 -0.447081 0.011596 -0.211611 -0.281368 0.213451 0.230302 -0.187626 -0.116792 0.040961 0.161107 0.346582 -0.280926 -0.305426 -0.108766 0.937608 0.154587 -0.220954 0.421045 -0.089891 0.021856 -0.341927 0.273654 0.377957 0.278156 0.321315 -0.385119 0.107733 0.288964 0.067728 0.201856 0.189852 -0.103410 0.535957 0.132565 0.406659 0.073565 0.096689 -0.477068 0.292332 -0.028596 -0.537180 0.339200 -0.098634 -0.083151 0.558720 0.525308 0.211297 0.255165 -0.460526 0.434908 0.093986 0.064697 -0.479098 -0.656657 0.146951 -0.109790 0.081854 -0.362318 -0.149408 -0.012379 0.664024 -0.235527 -0.267856 0.171410 0.157643 0.204984 0.286751 -0.149379 -0.033569 -0.303262 0.311756 -0.209551 0.028088 -0.237262 0.468308 0.432812 0.222068 0.356463 0.366062 0.574111 -0.420005 0.073656 -0.110624 0.613616 0.375985 0.776621 0.236517 -0.454904 -0.580682 0.342749 -0.157790 0.579289 0.347232 0.008774 -0.305203 0.423360 -0.012676 0.296271 -0.606125 -0.229544 0.537290 0.169617 -0.154447 0.749236 0.567262 0.469100 0.018900 0.337268 0.192535
2832 -0.335073 -0.800261 0.329869 -0.269605 0.204125 -0.544115 -0.098428 -0.268709 -0.195235 0.414637 -0.190844 0.274092 -0.147228 -0.147693 -0.703788 -0.117803 0.330649 -0.404869 -0.198959 -0.288746 0.109758 0.747322 -0.802936 0.626999 0.405486 0.113273 -0.584164 -0.337514 0.197809 0.440144 -0.429989 -0.043238 0.459166 0.017235 0.224887 0.309223 0.776292 0.464961 0.016477 -0.418596 0.476439 0.618457 0.326540 0.233511 0.016411 -0.719342 0.290310 -0.039619 0.010547 -0.210607 0.078125 -0.139359 0.466766 -0.296311 0.616707 -0.119069 -0.109060 -0.089974 0.229691 0.446692 -0.242683 0.590791 -0.122544 0.250984 0.682237 -0.879999 0.048910 -0.412669 0.079291 -0.272479 0.515611 0.088026 -0.302086 0.481042 -0.548220 -0.871261 -0.562820 0.186506 -0.538248 0.236438 -0.122059 -0.040353 0.340444 -0.550546 -0.306878 0.226602 -0.066956 0.013933 -0.814025 -0.310318 -0.406834 -0.022169 0.577109 0.001786 -0.128402 -0.134518 -0.246809 -0.021997 -0.150809 0.101502 0.370334 -0.117008 0.300522 -0.029039 -0.453018 0.448224 -0.328891 -0.548442 -0.461288 0.059165 0.357323 0.349958 -0.209243 0.208749 -0.091203 0.036726 0.073200 -0.990231 0.114839 0.407411 0.497538 -0.118656 -0.047583 0.648315 0.078914 0.158335 0.162854 -0.035733
389 -0.336667 0.049610 -0.329435 0.179985 0.408078 -0.608552 0.077951 -0.173523 -0.183308 -0.347419 0.202334 0.060692 -0.015016 0.061537 -0.115307 0.051739 0.748178 -0.039624 -0.076871 0.007976 0.446313 -0.309390 -0.714121 -0.047050 0.118121 0.300859 -0.147375 -0.338633 -0.098594 0.218759 -0.304713 -0.085254 -0.377621 0.324077 -0.123554 -0.311403 0.126692 0.069684 0.167058 0.020655 -0.182351 -0.306504 -0.666256 -0.287293 -0.064225 0.140733 0.067650 0.284715 -0.008220 -0.468313 0.094915 0.276122 -0.273652 0.169491 0.327475 -0.223354 0.194434 -0.212082 -0.331545 -0.302930 0.324586 -0.106378 -0.086852 0.626779 0.613861 -0.156114 -0.079782 0.022320 -0.235631 0.057295 0.427351 -0.715378 -0.232172 -0.218922 0.009271 -0.406265 0.515984 0.066114 -0.019260 -0.257774 0.005303 0.263563 -0.223944 0.448631 0.107285 -0.336193 -0.580547 0.659126 -0.690075 0.177067 -0.125596 0.174293 0.084340 -0.050717 -0.729140 -0.006422 0.317360 -0.497181 0.345653 -0.012025 -0.075969 0.082307 0.254266 -0.219357 0.246586 -0.986502 -0.265086 -0.225795 -0.021021 0.072236 0.255207 -0.249275 0.245561 0.213165 0.008066 -0.192231 -0.153409 -0.263790 0.542601 0.027723 0.289568 0.352758 -0.313286 0.092032 -0.427234 0.318337 -0.251396 0.183964
1083 0.261213 -0.039696 -0.025388 0.384824 0.022839 -0.025500 -0.133234 0.148244 0.120644 -0.061513 0.438428 -0.221673 -0.402507 0.097238 -0.308510 0.164386 0.179664 -0.230824 -0.194462 0.150413 0.028068 0.247186 -0.865930 -0.351865 0.190493 0.202731 -0.032947 -0.565098 -0.386302 0.704138 -0.408383 -0.578379 -0.061162 -0.229876 0.618890 -0.489923 0.101252 0.057749 -0.694902 0.194514 0.126074 -0.145478 -0.227639 -0.048959 0.082841 -0.660513 0.026310 0.113918 0.092283 0.233533 -0.011228 0.054997 -0.403715 0.415377 -0.326886 -0.577148 -0.025459 0.192814 0.443054 -0.469750 0.978381 -0.316265 0.697550 0.369818 -0.343028 -0.676035 0.117031 -0.343839 -0.113224 -0.631208 0.024073 0.204263 -0.004378 -0.522194 0.234717 0.034795 0.472917 0.084797 -0.104043 0.167302 0.429817 0.507841 0.079606 0.448951 0.418883 -0.626481 -0.248727 -0.079270 0.436936 1.067083 0.057983 0.075667 0.291241 -0.112160 -0.104461 -0.169138 -0.143285 0.077353 -0.227649 -0.074146 0.076625 -0.316673 -0.233617 -0.019513 -0.086920 0.089166 -0.729037 0.608936 -0.014400 -0.039251 0.108871 0.244107 -0.547645 -0.148959 0.381108 -0.467535 0.255099 0.159675 -0.441651 -0.246314 0.172606 0.335930 0.061049 0.186790 0.320162 -0.459357 -0.211343 0.068208
40 -0.543426 0.105743 -0.272368 0.060872 -0.275101 -0.313282 -0.409936 -0.473581 -0.335954 0.589259 0.120178 -0.168852 -0.546417 0.257085 -0.187632 -0.058940 -0.006252 -0.114422 -0.242273 -0.285098 0.057760 0.459031 -0.285381 0.432394 -0.233966 0.199906 0.255562 -0.364280 -0.140039 0.332482 -0.157523 -0.316993 0.098355 0.375610 0.323212 -0.283997 0.109765 -0.489810 0.045783 0.035369 0.260107 0.278769 -0.325648 0.022188 0.180893 0.176250 -0.450528 0.140132 -0.130565 -0.360555 0.081858 -0.245492 0.310269 0.417814 0.349341 0.577648 0.573387 0.052947 -0.670636 0.181382 0.203608 -0.418798 -0.338867 -0.015881 0.038598 -0.422534 -0.117253 0.080762 -0.032730 -0.185879 -0.116532 0.196912 -0.226199 0.133540 0.430949 0.453096 0.172065 0.135238 -0.090229 -0.373393 0.072623 0.072431 0.061162 0.293417 -0.220177 -0.312216 -0.179771 -0.174022 -0.113061 -0.248765 0.096330 0.103723 0.012461 0.129006 0.163259 -0.184966 -0.010844 0.211817 0.081059 0.080391 0.729007 -0.089127 0.087588 0.705334 0.144526 -0.624349 0.042011 -0.173784 -0.193701 -0.459822 -0.236174 0.217774 0.029446 -0.150672 0.097958 -0.484857 -0.293179 0.228252 0.241275 -0.345967 0.101361 -0.198121 0.638072 -0.018500 0.045556 0.182087 -0.310357 -0.091267
862 -0.241562 -0.070512 -0.232272 -0.056412 0.563012 0.189070 -0.374590 0.051291 -0.194467 -0.104109 0.103624 -0.405271 -0.267425 0.070405 0.045005 -0.226191 0.009008 -0.495851 -0.016341 -0.045488 0.039749 0.172908 -0.467030 0.131534 -0.442567 -0.591595 -0.268846 -0.127626 -0.377677 -0.192372 -0.143186 0.392377 0.421811 -0.127336 -0.145325 0.269593 0.007860 -0.321819 -0.258191 -0.433995 -0.034727 -0.198330 0.281231 0.422233 -0.234324 -0.119372 0.164269 -0.348847 -0.051329 -0.521716 0.182453 0.013653 0.081977 -0.207140 0.036798 -0.157597 0.806742 0.360338 -0.143315 -0.125727 0.348777 0.176123 -0.326278 0.187665 0.297703 -0.175709 -0.223452 0.355283 0.321137 -0.027309 0.010751 -0.234626 0.306581 0.119273 -0.039961 0.323737 0.000409 -0.308484 0.126307 0.414480 0.254300 0.286257 0.101261 0.154648 -0.654340 -0.457755 -0.177319 -0.075803 -0.671556 -0.046123 0.287238 0.115914 0.388231 0.076106 -0.495716 0.362748 0.409023 0.103511 0.265439 -0.106926 0.320825 -0.097869 0.504904 0.325408 0.043429 -0.435638 0.169238 -0.083988 -0.066454 -0.172294 0.316677 0.630776 0.404745 0.106847 0.148575 0.360973 -0.074710 0.009744 -0.208640 0.223877 0.254694 0.041812 -0.044281 -0.207663 0.493704 -0.051768 -0.464548 0.584011
855 -0.160955 -0.032134 -0.414856 -0.112241 0.356940 -0.168284 -0.193371 -0.067535 -0.003618 -0.184622 0.172806 -0.104226 0.299393 0.682096 0.512126 0.009497 0.773247 -0.039995 -0.036572 -0.047337 -0.005718 0.078238 -0.517571 0.025126 -0.300922 -0.138806 -0.299917 0.620784 0.322336 0.035082 -0.206013 -0.398268 -0.268040 -0.137665 0.013262 -0.147970 0.100552 0.204226 -0.254640 -0.204463 -0.313704 0.065545 0.346822 0.000727 0.109871 -0.343497 -0.403172 0.327711 0.103678 0.322999 -0.053795 0.094146 0.025456 -0.083442 -0.521797 0.117979 0.092086 -0.535633 -0.225196 -0.226376 -0.159655 0.005819 0.115461 0.460237 -0.521862 -0.365006 -0.289911 -0.574998 0.114697 -0.167266 -0.381410 -0.558127 0.439894 0.676528 0.818497 -0.230509 0.387852 -0.313528 0.152663 0.266777 -1.038003 0.096676 -0.015346 0.287052 0.012291 -0.314927 -0.008199 0.145660 -0.257235 -0.021690 -0.107083 0.849049 0.401909 0.493512 -0.370567 -0.455308 -0.154029 0.447271 0.208770 0.106275 0.189972 0.394387 0.071760 0.114425 0.381253 0.050521 -0.142655 -0.160085 -0.056644 0.022300 0.384709 -0.153561 -0.560546 0.199121 -0.121917 -0.187766 -0.216210 -0.381427 -0.183636 0.222558 0.253023 -0.107277 0.385373 -0.081606 0.175391 -0.482773 -0.114335 -0.077927
1150 -0.144251 -0.303430 -0.783297 0.165914 0.113480 0.335232 -0.098412 0.256301 0.148458 -0.409149 0.084969 -0.003729 0.415441 0.535785 -0.153102 0.257279 -0.125628 0.167415 -0.162390 -0.353431 -0.239415 0.288773 -0.371522 0.257806 0.215734 0.453022 0.574116 -0.051706 -0.560762 -0.277119 0.367608 -0.309748 0.192072 -0.272060 0.223410 -0.359130 -0.081205 -0.046048 -0.514203 -0.510604 0.072625 0.222889 0.063838 0.170147 0.204897 -0.373229 0.220037 0.809974 -0.041439 0.087974 -0.232609 -0.046104 -0.237843 -0.214576 -0.092889 -0.258957 0.119480 0.216241 0.387169 -0.252920 0.631586 -0.195914 0.168671 0.189875 -0.040038 -0.803273 0.160742 -0.040156 -0.231059 -0.299524 -0.023144 0.269641 -0.111122 -0.174836 0.261523 -0.117631 0.244304 0.334176 -0.194642 -0.165912 0.099116 0.052384 -0.364437 0.111732 0.156963 -0.453668 -0.114569 -0.580010 0.105933 0.803514 -0.360314 -0.147217 0.169496 0.008237 -0.186978 0.280267 -0.221129 0.536598 -0.043317 0.043009 0.260084 0.040306 -0.304595 0.094656 0.171049 0.408342 -0.241729 0.654760 0.216450 -0.155057 -0.197212 0.004464 -0.080640 0.352784 0.271239 -0.256017 -0.023869 -0.008431 -0.221802 0.117997 0.289815 -0.113889 0.168303 0.401948 -0.208704 -0.299415 -0.184446 0.299158
2996 0.339047 -0.023680 -0.980931 -0.007769 0.591582 -0.489835 -0.111202 0.282943 0.088824 0.052892 0.475473 -0.465135 -0.155526 0.053688 -0.180455 -0.037423 -0.178056 0.334095 -0.084523 0.727585 0.108355 0.272140 -0.058362 1.026792 -0.023081 0.349747 -0.058515 -0.314217 -0.355003 0.156895 0.442568 0.018852 0.598376 0.465313 0.249178 -0.060836 -0.479115 -0.155527 -0.677548 -0.644232 -0.307416 -0.149414 -0.170609 0.690771 0.544025 -0.285516 0.773820 0.565976 -0.270672 0.084236 0.748144 -0.000489 0.343784 -0.852810 0.493678 -0.045967 0.064420 1.034640 -0.119068 -0.064476 -0.261755 0.101366 0.038012 0.735594 -0.138742 -0.016773 -0.631990 0.966357 -0.238022 0.604793 -0.310942 0.204649 -0.073200 -0.332082 0.099057 0.734232 0.297895 0.619491 -0.046209 -0.552616 0.127415 -0.173683 -0.658517 -0.256096 -0.672171 -0.283747 -0.093636 -0.584745 0.298816 0.418126 -0.176638 0.540815 0.040579 0.290581 -0.223616 0.035944 -1.067370 0.021185 -0.854906 -0.600198 0.052142 0.005234 0.085637 0.140698 0.623798 0.100255 0.571813 -0.592131 0.305944 0.151935 0.503238 -0.233131 -0.723114 0.426779 -0.098435 -0.175078 -0.036397 -0.291253 0.467855 -0.256764 0.424791 0.190777 -0.078315 -0.136566 0.608854 0.128881 0.228048 0.196557
422 0.091205 -0.299792 -0.078662 -0.249419 0.521518 -0.204932 -0.209222 -0.155861 -0.164668 -0.104002 -0.191261 -0.164809 -0.259073 -0.139496 0.241247 -0.227678 0.077533 0.450849 0.086579 -0.359795 -0.120711 0.343988 -0.343847 0.201304 -0.241474 0.104637 -0.261623 0.208207 -0.187106 -0.417635 0.010333 0.036330 -0.144451 0.143483 0.157041 0.060321 0.046084 0.059061 0.047360 0.119397 -0.132822 -0.308767 -0.299214 -0.063867 0.109163 0.274267 -0.362213 -0.055593 -0.171888 -0.160725 0.276047 -0.286179 -0.100144 0.167623 0.015010 0.175125 -0.031120 -0.167331 0.054339 0.037490 0.179527 -0.162445 -0.327531 0.254543 -0.410074 0.368309 -0.006149 -0.192171 -0.148670 -0.083658 0.346862 -0.229025 0.111242 0.040200 -0.424737 -0.087137 -0.006335 -0.092933 -0.172201 -0.025512 -0.309782 -0.210502 -0.115554 0.489296 0.019640 -0.421198 -0.481903 0.179873 -0.204650 0.226973 0.528655 0.059165 0.019438 -0.209527 0.080083 0.236388 -0.067723 0.681274 0.176097 -0.227791 0.287362 -0.355708 0.020980 0.106210 -0.075766 0.639744 -0.161595 -0.283759 -0.048702 -0.016685 0.072401 -0.133807 -0.104328 0.274960 0.199891 -0.269577 -0.060417 -0.197731 -0.118554 -0.023745 0.041254 0.067802 -0.087958 -0.317641 -0.169009 0.112919 -0.282442 0.448842
1634 0.039226 0.291221 -0.465306 -0.130931 0.369260 -0.148698 -0.167551 0.207247 -0.313750 -0.315618 -0.586127 -0.126672 0.104331 0.242554 0.270220 0.313704 -0.066076 -0.031739 0.351607 0.068571 -0.150475 0.263223 -0.180671 0.469956 -0.299476 0.009407 -0.055451 -0.081462 -0.112835 -0.396229 0.270331 -0.227307 -0.289186 -0.350378 0.368536 -0.012304 0.027789 -0.291139 -0.152191 -0.579396 -0.062442 -0.265356 -0.608346 -0.279850 0.206338 -0.631955 0.103659 0.238281 0.055669 0.833286 0.232125 -0.153784 -0.003554 0.243168 -0.218564 0.267570 0.292001 0.058955 0.120562 -0.079253 0.210654 0.519775 0.128182 0.044723 0.264484 -0.000273 -0.342615 -0.634984 -0.200071 -0.418922 0.185879 -0.723179 0.030907 -0.321739 -0.181181 -0.201946 -0.426248 0.102372 -0.421327 -0.048331 0.276189 -0.210518 -0.330925 0.131463 0.427906 0.129888 -0.565394 0.141819 0.223257 -0.032177 0.260807 -0.170985 -0.426569 0.260649 -0.268086 -0.385208 0.045159 0.082813 -0.116864 -0.795928 0.526655 -0.251401 -0.091187 -0.000360 0.294720 0.298112 0.195224 0.007041 -0.544720 -0.224562 0.258121 0.252645 -0.684842 0.166421 0.248760 -0.165107 -0.244021 0.062417 -0.104792 -0.115633 -0.197435 -0.087454 0.110337 0.493001 -0.080245 0.680985 -0.017430 -0.180691
1759 -0.655288 -0.059300 -0.103061 -0.210927 0.103193 0.421583 -0.340782 -0.423834 -0.571542 0.076462 -0.354421 -0.085544 -0.263201 0.225939 0.306888 0.391303 0.474731 0.398546 -0.399546 -0.676462 -0.059757 -0.097664 -0.376498 -0.665849 0.198611 -0.046397 -0.735266 -0.098465 -0.512792 0.150197 -0.115414 0.766972 -0.104342 -0.022953 0.567015 -0.272642 -0.511033 -0.044101 0.792444 -0.648642 -0.243546 0.320126 0.238923 -0.285101 -0.070633 0.243878 -0.256396 0.312220 0.661750 0.219282 0.872329 -0.068211 0.438416 0.487082 -0.369261 -0.127589 -0.041198 0.433722 0.472960 0.271620 0.144744 0.500721 -0.522239 -0.090328 -0.840423 -1.021766 0.316447 -0.305361 -0.374568 0.219427 -0.215807 0.491336 -0.497382 -0.357531 -0.534461 0.626596 0.111054 0.315166 0.075993 0.367980 0.624197 -0.273089 -0.558167 -0.049507 0.308054 -0.643056 -0.324511 -0.200085 0.511552 0.335875 0.374535 0.024396 -0.613679 0.574005 -0.503289 0.046646 0.201801 0.207040 0.930829 0.176133 0.118434 0.000307 0.362389 -0.016712 0.109753 -0.148601 -0.048039 -0.380493 -0.025207 -0.363329 0.115833 0.070544 -0.541502 0.471797 -0.563128 0.161097 0.034965 0.120456 0.148843 0.052146 -0.238665 0.789278 -0.102094 -1.132326 0.075182 -0.153357 0.862123 -0.073598
106 0.068659 -0.179999 0.019758 -0.035328 0.402685 -0.282820 -0.217416 -0.031588 -0.163384 -0.122235 0.036422 -0.133727 -0.083130 -0.084965 0.257944 -0.164608 0.173967 0.428251 -0.060787 -0.335141 -0.115375 0.241925 -0.462450 0.249222 -0.045446 0.178891 -0.172259 0.216344 -0.127123 -0.202130 -0.148331 -0.030696 -0.152554 0.100451 0.291458 0.059351 0.085898 0.026959 0.046274 0.076077 -0.191660 -0.342532 -0.202562 -0.033332 -0.034715 0.198208 -0.440201 -0.068772 -0.034590 -0.136621 0.247730 -0.164013 -0.048156 -0.094692 0.012864 0.256144 -0.006792 0.001489 0.175754 0.063595 -0.064753 -0.160518 -0.277147 0.178928 -0.303328 0.133599 -0.022110 -0.047945 -0.008980 -0.129443 0.300505 -0.160915 0.096277 -0.166004 -0.483202 0.023089 -0.038044 -0.134282 -0.269259 -0.039514 -0.265073 -0.218098 -0.113042 0.365390 -0.118405 -0.321341 -0.242185 0.091727 -0.024707 0.276794 0.266870 -0.002173 -0.066613 -0.140820 0.174507 0.176167 -0.263574 0.515498 0.232086 -0.045866 0.123375 -0.427963 0.058206 0.157444 0.046796 0.519320 0.058538 -0.224414 -0.007869 -0.067560 0.104905 -0.119986 -0.060225 0.129570 0.097149 -0.384725 -0.013237 -0.277230 -0.304390 -0.164541 -0.037585 0.062893 -0.161042 -0.458160 -0.122856 0.301697 -0.125985 0.261330
295 0.102182 0.063779 -0.492915 -0.060041 0.543352 -0.116771 -0.298838 -0.098490 0.434289 0.134808 -0.149847 -0.505881 -0.256520 -0.046374 -0.069458 0.157363 0.155778 -0.386190 -0.163693 0.119845 -0.444752 0.027434 -0.520082 -0.342523 0.339116 -0.392539 -0.028447 0.253639 0.082395 0.354372 0.044092 -0.102623 0.399150 0.039515 -0.196901 0.408303 0.084914 0.405018 0.579287 -0.348354 0.129132 0.139543 0.297027 -0.343784 0.596042 0.028923 -0.390084 0.075740 0.095074 0.006545 0.159971 0.102334 0.141787 -0.165118 -0.091178 0.293715 -0.316140 0.454847 0.197253 -0.003135 -0.176897 0.432510 -0.215057 0.376184 -0.216310 -0.087056 -0.552400 0.233218 0.142868 -0.196428 -0.093195 0.032800 -0.013633 -0.420870 -0.150801 -0.070200 -0.501899 -0.405417 0.944399 -0.170367 0.190135 -0.439943 -0.169755 0.205678 -0.120769 0.035084 -0.295748 -0.329178 -0.004530 0.205584 0.093287 0.296264 0.208547 -0.245470 -0.166557 0.148063 0.101647 0.240155 -0.166703 0.130060 0.405999 -0.179422 0.056657 -0.031594 0.536327 -0.137448 -0.013162 0.235511 -0.431717 -0.674412 0.000349 0.525747 -0.154720 0.155990 0.224685 0.259626 -0.151574 0.510582 0.254514 0.324871 0.142377 0.279470 -0.109243 0.106848 0.331318 -0.364960 -0.102112 0.240570
429 0.044708 0.055740 0.051480 -0.132932 -0.061867 -0.047792 -0.452499 0.313437 0.350273 0.222990 0.083580 -0.163857 -0.053521 0.142918 -0.115170 -0.084967 -0.051110 0.155986 0.017682 -0.240206 -0.045027 -0.528255 -0.779109 0.023425 0.152375 -0.289102 -0.060381 -0.053936 0.095458 -0.078372 0.157623 0.001998 0.214945 -0.345844 0.200544 -0.237505 -0.057732 0.474355 -0.013154 -0.299099 -0.118780 -0.056438 0.472518 -0.557495 0.562714 0.207035 0.340765 0.360527 -0.021316 0.409517 0.367899 -0.233838 0.191018 -0.241253 -0.144195 0.194393 0.517918 0.044434 0.477366 -0.072741 -0.049972 0.198957 -0.216050 0.195071 -0.383402 -0.060264 -0.228186 0.296349 0.415381 -0.070330 -0.270700 0.401141 -0.093805 -0.250481 -0.232940 -0.065198 -0.261479 0.062428 0.106139 -0.150903 0.292855 -0.154293 -0.235214 0.406364 0.089237 -0.124827 -0.258218 -0.104776 -0.470267 -0.063927 0.248270 0.250649 -0.403963 0.128644 -0.325232 -0.144001 0.180847 0.128438 -0.092606 -0.257847 0.210723 -0.462134 -0.065589 0.360626 0.332334 -0.457283 0.403094 -0.099708 -0.450961 -0.135879 0.144666 1.203997 0.344411 0.285914 0.076308 -0.294779 -0.067130 0.160427 -0.046855 0.495526 0.029855 -0.190563 0.122501 -0.095722 0.084500 -0.391943 -0.027860 0.555353
1000 0.028544 -0.112751 0.022246 -0.029068 0.347103 -0.310954 -0.218214 0.138799 -0.200555 -0.091862 -0.076630 -0.084109 -0.201340 -0.129724 0.126257 -0.107436 0.204483 0.365619 -0.115904 -0.313624 -0.361803 0.297305 -0.475917 0.310726 -0.007603 0.147133 -0.121620 0.350321 0.039503 -0.162297 -0.093577 -0.073304 -0.172403 0.180998 0.370316 0.089820 -0.018201 0.100174 0.060955 0.109554 -0.161202 -0.343316 -0.161775 -0.107219 -0.008421 0.076615 -0.166843 -0.034243 -0.039547 -0.099807 0.451472 -0.128935 0.010528 -0.207783 -0.068246 0.229669 0.006038 0.032212 0.185303 0.195554 -0.098938 -0.076029 -0.256283 0.138003 -0.446194 0.122813 0.110425 -0.183341 -0.090532 0.044955 0.457231 -0.188330 0.049620 -0.270562 -0.502864 0.109382 -0.048342 -0.124244 -0.254212 0.038673 -0.185019 -0.188799 -0.147663 0.304522 -0.033348 -0.217371 -0.007907 0.190635 -0.057145 0.340566 0.358109 -0.034167 -0.024994 -0.163179 0.027647 0.222115 -0.198616 0.590793 0.227808 -0.178473 0.138144 -0.490974 -0.010021 0.202597 0.095875 0.443359 0.039646 -0.253164 0.004177 -0.038385 0.206961 -0.018624 -0.124203 0.078151 0.195378 -0.406019 -0.107451 -0.161291 -0.348898 -0.315034 -0.092235 0.025377 -0.141738 -0.399836 -0.077836 0.245025 -0.072571 0.236345
714 0.016710 -0.037896 -0.045333 -0.136748 0.443206 -0.209983 -0.095119 0.079085 -0.176413 -0.133803 -0.035603 -0.058792 -0.148422 -0.123270 0.234230 -0.178484 0.105968 0.381655 -0.129585 -0.258888 -0.307042 0.371522 -0.439048 0.335369 -0.013104 0.148665 -0.023766 0.239317 -0.065515 -0.280310 -0.096963 0.039128 -0.135201 0.190983 0.203131 0.095922 -0.079757 0.191093 0.131791 0.024955 -0.175081 -0.387770 -0.182195 -0.143078 0.055686 0.119382 -0.263171 -0.112574 -0.020572 -0.047794 0.378147 -0.114839 0.013964 -0.103626 -0.047589 0.112138 -0.055957 -0.079862 0.209240 0.094564 0.065487 -0.119738 -0.228291 0.117028 -0.540780 0.154702 0.049232 -0.048603 0.023344 -0.001376 0.347968 -0.275584 0.069374 -0.191109 -0.478203 0.029329 -0.071842 -0.119610 -0.208427 0.056707 -0.258962 -0.235612 -0.144763 0.363210 -0.042610 -0.278686 -0.164722 0.193660 -0.155005 0.236673 0.412709 -0.087520 -0.104420 -0.138741 0.029192 0.197965 -0.288246 0.601794 0.318655 -0.233400 0.113946 -0.495843 0.083009 0.142435 0.110506 0.490677 0.076445 -0.296101 0.033655 -0.027322 0.182244 0.064475 -0.187576 0.190013 0.234760 -0.358933 -0.039452 -0.332043 -0.278875 -0.224250 -0.058855 0.072390 -0.054323 -0.410856 -0.055897 0.194009 -0.165174 0.260166
999 0.011850 -0.072584 -0.002492 -0.124722 0.426432 -0.182699 -0.019069 0.183341 -0.179955 -0.146772 -0.086169 -0.015198 -0.136128 -0.174599 0.164418 -0.116914 0.148119 0.456158 -0.191947 -0.268613 -0.306599 0.382089 -0.454815 0.283577 0.007892 0.153971 -0.070609 0.311881 -0.000211 -0.209467 -0.083771 -0.047550 -0.178655 0.190941 0.289470 0.059464 -0.125178 0.149220 0.135755 0.087758 -0.069487 -0.380210 -0.165984 -0.090615 0.064114 0.075702 -0.247440 -0.054806 -0.086968 -0.069660 0.395395 -0.080556 0.099711 -0.152926 -0.065273 0.227824 -0.019881 0.004700 0.232932 0.058173 -0.064239 -0.037914 -0.364365 0.095889 -0.446342 0.110603 0.156092 -0.095968 0.054786 -0.050168 0.397103 -0.221938 0.048635 -0.186754 -0.443117 0.005938 -0.068538 -0.121435 -0.251002 -0.004897 -0.241179 -0.195740 -0.127987 0.370680 -0.027180 -0.310329 -0.143955 0.176429 -0.140205 0.330062 0.460896 -0.100767 -0.136796 -0.149613 0.047877 0.194144 -0.252474 0.627868 0.290689 -0.229657 0.205051 -0.515359 0.049242 0.159226 0.143130 0.530696 -0.005899 -0.274003 0.008521 -0.034077 0.215764 0.075289 -0.237944 0.222172 0.118441 -0.395288 -0.119821 -0.301700 -0.347054 -0.228998 -0.065297 0.028802 -0.081717 -0.502531 -0.049727 0.210589 -0.198792 0.247915
769 -0.443400 0.022909 0.117913 0.448087 0.345499 -0.156516 0.043007 0.219014 0.065928 0.051087 -0.391103 -0.206582 0.090231 0.267593 0.172862 -0.198881 0.468538 -0.228519 -0.053074 -0.018981 -0.069994 0.010164 0.143014 0.412475 0.291426 0.106705 -0.684598 0.086228 0.166893 -0.277573 0.024597 -0.342614 -0.456525 -0.498030 0.141011 0.078115 0.125896 -0.202716 -0.225468 0.073052 0.102452 0.001760 -0.327482 -0.029270 -0.124512 0.047403 -0.015068 0.059772 -0.265118 0.045242 0.378875 0.107593 0.149616 -0.230084 -0.196357 0.351024 0.258227 -0.184012 -0.377325 0.024894 0.418728 0.177164 0.156209 -0.015151 -0.119329 -0.041236 -0.180590 -0.270178 -0.250591 -0.020283 -0.363774 -0.218400 -0.193318 -0.068799 -0.350818 -0.296654 -0.239906 -0.365020 0.132580 -0.217229 0.332986 -0.035830 -0.131664 0.328971 -0.549112 -0.009009 -0.287571 -0.428678 -0.103344 0.365900 -0.248164 -0.036227 0.132147 0.100128 -0.008581 0.301204 0.056305 0.166680 0.020411 -0.516124 -0.197310 -0.248652 -0.115760 0.201429 0.341672 0.193436 0.215416 0.043108 -0.330251 -0.082063 0.363520 0.035110 -0.249142 0.065951 0.029984 0.504851 0.050419 0.232022 -0.318898 -0.051009 -0.001383 -0.226839 0.071428 0.015215 0.001232 0.185019 -0.079022 0.341983
418 -0.418988 0.047477 0.318847 -0.485425 0.016609 -0.036662 0.353638 -0.238663 -0.189224 0.217306 0.263801 0.157070 -0.408050 0.681919 0.107936 -0.180586 0.202507 -0.100992 -0.200986 -0.227772 0.175535 -0.174894 -0.493974 0.484224 0.272161 -0.191825 -0.203110 0.186786 0.133348 0.522525 -0.269924 -0.415987 0.279007 0.212244 0.127396 -0.097035 -0.068036 -0.368144 0.202665 -0.192625 -0.077872 0.037286 0.109769 -0.083747 -0.089114 0.028197 -0.484832 0.159702 -0.092222 -0.149466 0.084130 -0.195484 0.301379 -0.292163 0.331483 -0.341718 0.590630 0.338909 -0.091262 -0.386642 0.659252 0.363412 0.198382 0.369133 0.157272 -0.295955 0.257376 0.312786 -0.463855 0.005726 0.174748 0.065813 -0.302099 -0.320896 -0.078094 0.179053 -0.246554 0.172357 -0.205164 -0.470259 0.103555 0.443138 -0.137371 0.210260 0.062012 0.633377 -0.345749 -0.129421 -0.473924 0.038461 -0.056578 0.338665 0.200029 0.020119 0.033630 -0.098755 -0.028403 0.404397 0.466827 0.290065 0.257507 -0.347275 -0.003349 0.422278 0.226937 -0.702240 -0.152729 -0.363312 -0.100953 -0.226709 -0.280563 0.018296 0.085108 0.284244 -0.200163 -0.357250 -0.267174 0.327832 0.242979 -0.585406 0.112460 0.187346 0.353737 -0.085809 -0.106219 0.002407 0.167874 -0.248109
2006 -0.494556 -0.085369 0.034872 -0.545764 0.694044 0.087162 0.229596 0.076653 -0.207122 0.380963 0.328964 -0.244545 0.227482 -0.032342 -0.108425 0.219741 -0.480995 -0.038972 0.212118 -0.187008 -0.134900 -0.060211 0.020102 0.002418 0.057100 -0.346675 -0.406988 -0.372301 -0.000501 0.141360 0.455995 -0.520570 -0.211325 0.183584 0.218600 -0.763622 -0.403500 0.060807 -0.003539 0.149877 0.264379 0.222858 -0.019434 0.241879 0.134001 0.340938 0.276995 0.315913 0.165990 -0.179742 -0.033931 -0.376726 -0.148147 0.244892 -0.350826 -0.194606 0.249577 0.142191 0.477056 -0.174275 0.205043 -0.317137 0.061763 0.198300 -0.459590 0.260807 0.332398 -0.296639 -0.349432 0.235195 -0.141532 -0.237011 0.214990 -0.031777 0.120926 -0.137953 0.406228 -0.507229 -0.099253 -0.003623 0.046663 -0.232015 -0.361936 -0.548865 0.011011 0.176375 -0.554608 0.102770 -0.667049 -0.322297 -0.666556 -0.000467 0.222637 0.392748 0.267627 0.219285 0.290708 -0.139625 -0.134893 0.272841 -0.040032 -0.040645 0.520731 0.003330 0.121579 0.228897 -0.025617 -0.132254 -0.349729 -0.604588 0.573943 0.529056 -0.236340 -0.445309 -0.272937 -0.280068 -0.140361 -0.040043 -0.040536 -0.087950 -0.075148 0.527063 -0.134513 -0.444471 -0.606673 -0.114203 0.473418 -0.045375
1168 0.298910 -0.580442 -0.555349 -0.377174 0.382143 0.349255 -0.218414 0.081689 -0.163263 -0.160145 0.253435 -0.593697 0.199255 -0.078225 -0.189613 0.603158 0.198614 0.233777 -0.545603 0.323011 0.126633 -0.470732 0.028590 0.059874 -0.234403 0.479357 -0.341970 0.268487 -0.139290 0.608431 -0.591108 0.266145 -0.307420 -0.333174 1.007130 -0.204614 0.213285 0.088671 0.051805 -0.058308 -0.606696 -0.463916 0.143683 0.161277 0.572888 0.047962 0.072054 0.811685 -0.295008 0.231771 0.219433 0.326806 0.395431 -0.397507 -0.116410 -0.085480 0.619945 0.123049 -0.118092 -0.263346 0.886546 0.168496 -0.272036 0.414792 -0.046149 -0.032629 0.004743 0.052130 0.112974 0.149310 -0.356977 0.155949 0.182278 0.008441 -0.003438 -0.282600 -0.308331 -0.010102 -0.152575 -0.253690 0.110863 0.138064 0.395899 -0.144852 -0.548590 0.373446 -0.317597 0.275265 -0.179000 0.068298 0.231708 0.438358 -0.197258 0.071293 0.136445 -0.234730 -0.005544 0.009536 -0.036300 -0.062731 -0.064099 -0.320614 -0.285399 -0.021211 -0.178894 0.003455 0.239345 -0.170741 0.194041 -0.165546 0.150354 0.670548 0.373513 0.196505 0.016081 -0.484449 -0.151303 0.265172 0.064251 -0.553239 0.333244 -0.048782 -0.246111 0.021477 0.231961 -0.127908 -0.050669 0.156908
57 -0.285134 -0.141567 -0.049778 -0.617376 -0.193742 0.518320 0.226469 0.389337 0.259492 -0.210604 -0.007909 -0.157684 -0.239426 0.541970 0.544911 -0.341628 -0.112836 0.016491 -0.829195 -0.466743 0.127783 0.222787 -0.208399 0.224753 0.152619 -0.286660 -0.029547 -0.009728 0.114393 0.623516 -0.461263 0.346557 -0.180005 0.744646 0.752104 -0.664941 0.174297 0.432760 -0.290603 -0.473728 -0.039672 0.107412 -0.272226 0.132417 0.397612 -0.083369 0.408404 -0.088224 -0.314879 -0.151897 0.083620 -0.066250 -0.457204 0.296708 0.204416 -0.106168 0.835788 -0.224184 -0.554948 -0.337461 -0.341345 0.143577 0.101108 -0.324885 0.035981 -0.416833 -0.168047 0.058553 -0.031870 -0.053513 0.360241 -0.367222 0.437507 -0.008132 -0.181064 0.004164 -0.202218 0.151246 -0.117365 -0.137048 -0.200089 -0.128713 -0.281585 -0.095957 -0.467375 0.132111 -0.581623 -0.443583 0.095967 0.259316 -0.266370 -0.250426 0.517300 0.332667 -0.096141 -0.343999 -0.034169 0.022441 0.207472 -0.314286 0.012281 -0.611108 0.117347 -0.061814 -0.042759 0.202700 -0.091845 0.196827 0.024090 0.108981 0.228100 0.490133 -0.314574 0.059996 0.134368 0.090785 -0.272119 0.284670 0.239275 0.639946 -0.736375 -0.092335 -0.044398 0.114650 -0.460740 -0.378205 0.391711 -0.004324
828 -0.185899 -0.384621 -0.209156 0.045330 0.012056 0.259146 -0.258466 -0.339084 -0.027107 -0.058209 0.462272 -0.196817 0.034922 0.321649 0.335764 0.523431 0.078101 -0.042616 -0.579360 -0.050250 0.410058 0.290211 -0.403145 0.557011 0.243512 0.315074 -0.147313 0.340213 0.187465 -0.472630 -0.247658 0.153669 -0.305817 0.477342 -0.335819 0.079825 -0.176073 0.187233 0.063427 0.259447 0.245125 -0.066099 0.038659 -0.132841 0.070367 0.132693 0.037509 -0.375474 0.304314 0.060779 0.344568 -0.306816 0.245726 -0.145012 -0.228380 -0.376395 0.034065 0.229181 0.493966 0.292230 0.229408 0.283273 0.024649 0.010990 -0.305783 -0.001427 -0.478523 0.155356 -0.186274 -0.222224 -0.003612 -0.199560 0.345584 -0.019948 -0.436926 -0.169601 0.129085 -0.252941 0.323385 -0.167524 0.329005 -0.006697 0.012993 0.056053 -0.152049 -0.173180 -0.014065 -0.199411 0.050096 -0.015289 0.343823 -0.029198 0.210492 -0.054934 -0.185706 0.091000 -0.172476 0.145722 -0.113352 -0.009362 0.178572 -0.189207 0.091504 0.229368 0.300817 -0.149644 0.262973 -0.498711 0.112034 -0.260661 -0.082777 0.087910 -0.043019 -0.302008 0.171392 -0.292579 0.267920 0.317839 0.153067 0.301218 -0.253321 0.197379 -0.293357 0.430225 -0.177587 -0.032863 0.020373 -0.239482
686 -0.569844 -0.026284 0.131331 0.359300 0.471797 -0.125999 0.164407 -0.049204 0.045443 0.005228 -0.306078 -0.197889 0.431111 0.200958 0.201722 -0.046486 0.488796 -0.227512 -0.403400 -0.134334 -0.417679 -0.073365 -0.067827 0.197132 -0.004903 -0.272962 -0.374103 0.050608 -0.035085 -0.095856 -0.138160 -0.070012 -0.048540 -0.123956 0.053613 -0.067776 0.034794 -0.088641 -0.336963 -0.041943 -0.040652 -0.197721 -0.148855 -0.279709 -0.031989 0.273287 0.122121 0.052846 -0.162354 -0.059062 0.329335 0.068416 0.024841 -0.215314 -0.374972 0.339617 0.070678 0.108059 -0.408960 0.050855 0.422828 0.263055 -0.073576 0.048005 -0.296000 -0.166791 -0.353195 -0.237498 0.065439 -0.074715 -0.576952 -0.023968 0.017080 -0.192110 -0.267923 -0.305586 -0.130509 -0.262309 -0.377778 0.032272 0.111490 0.255612 0.008709 0.224410 -0.409326 0.117472 -0.275884 -0.335386 -0.309682 0.411146 -0.311090 -0.075726 0.148839 0.001376 0.113015 0.681554 0.332505 0.251461 -0.177301 -0.215632 -0.105545 -0.339060 0.185079 0.203602 0.386032 -0.031541 0.096508 -0.076565 -0.045720 0.031593 0.562332 0.191404 -0.021845 0.121936 -0.019872 0.508894 0.019188 0.369159 -0.352573 0.255215 0.050456 -0.228200 -0.230380 -0.308758 -0.060438 0.155634 -0.285158 -0.016984
179 -0.625071 -0.474331 -0.049074 -0.047754 0.148896 0.152030 -0.312754 -0.135095 0.174932 0.171915 0.062230 -0.224276 0.000711 0.043889 -0.147159 0.069432 0.271508 -0.204483 0.072327 -0.076717 -0.077846 0.140427 -0.029818 -0.005702 -0.147431 -0.194669 0.081640 0.217324 -0.054748 -0.362415 -0.060215 -0.142152 -0.269529 0.256014 -0.146204 -0.019078 0.178856 0.389983 -0.104526 -0.193187 0.242198 -0.131679 0.168044 0.255250 0.056580 0.382896 -0.087082 -0.258803 -0.093031 0.119184 -0.111321 -0.109351 0.051730 -0.085055 0.002601 0.023016 0.298837 0.190272 0.013696 0.080293 0.093575 0.106106 -0.156285 -0.161661 -0.146981 0.210741 -0.063012 -0.022828 0.125880 0.340541 -0.136632 -0.407773 -0.027667 0.230416 -0.370567 0.098961 -0.235569 -0.270530 -0.219767 0.001482 0.289319 -0.053434 -0.398976 0.315598 -0.244570 -0.018252 -0.268816 -0.072599 0.681659 0.613955 0.102693 0.241204 0.123701 0.126441 -0.109492 -0.052536 -0.085091 0.138866 0.133451 0.283700 0.582047 -0.133505 -0.158924 -0.344611 0.598577 0.039309 -0.066449 -0.274899 -0.108027 -0.068078 -0.022345 0.380433 0.073106 -0.188271 -0.257684 -0.191880 0.166570 0.248889 -0.010586 0.087140 0.040023 0.038128 -0.004252 0.159477 0.436420 0.288388 -0.025629 0.003022
28 -0.054267 -0.129504 -0.105018 -0.100649 0.453383 -0.173587 -0.089783 -0.003866 -0.190986 0.008717 -0.082602 -0.115162 -0.087748 -0.139916 0.136222 -0.042166 0.083525 0.455302 -0.062988 -0.397523 -0.230125 0.358145 -0.480497 0.261159 -0.133765 0.122711 -0.044751 0.228903 -0.076581 -0.248672 -0.123650 0.050310 -0.117262 0.201229 0.161720 -0.038697 -0.001068 0.039810 0.083540 0.024300 -0.165860 -0.412870 -0.232796 -0.064290 -0.047774 0.185544 -0.429580 -0.123021 -0.081931 -0.012680 0.286391 -0.114705 0.007283 -0.031094 0.019114 0.186462 -0.106190 -0.044328 0.187633 0.039496 -0.012611 -0.086658 -0.262982 0.205591 -0.389754 0.229607 0.109067 -0.021447 0.024485 -0.021002 0.288264 -0.184756 0.118821 -0.169652 -0.503982 0.064083 0.017625 -0.175664 -0.328799 -0.047021 -0.311482 -0.303638 -0.203401 0.384485 -0.079242 -0.417944 -0.254510 0.145794 -0.088419 0.195852 0.501960 -0.017253 -0.108755 -0.104537 0.047271 0.265553 -0.303687 0.578924 0.278805 -0.092987 0.229004 -0.436733 0.271870 0.107714 -0.010658 0.564716 -0.029740 -0.262381 0.037148 -0.060089 0.163923 -0.027705 -0.110393 0.113111 0.141624 -0.271006 -0.129712 -0.285733 -0.317573 -0.155552 0.052383 0.062435 -0.082741 -0.428100 -0.133521 0.220807 -0.244262 0.325953
1374 -0.345798 -0.487656 -0.067296 0.237016 0.416087 -0.065111 -0.149590 0.381601 -0.129025 -0.487327 -0.040428 0.042738 -0.369222 -0.424302 -0.389356 -0.169444 0.293670 0.538427 -0.332283 -0.344542 0.191370 0.105123 0.213254 0.092948 0.593494 -0.172134 0.253914 0.296898 -0.072266 -0.176257 -0.204397 -0.236875 -0.351704 0.463219 0.279820 -0.167302 -0.033091 0.149704 -0.002772 -0.089877 0.083219 -0.354702 0.269152 -0.001408 -0.084420 0.210460 -0.511767 0.728096 -0.118352 0.225881 -0.355012 -0.414966 0.121737 0.081777 0.219259 -0.104273 0.041413 0.158662 0.453606 -0.100709 0.018312 0.220490 0.105327 0.282768 0.030668 0.192723 -0.189345 -0.415042 -0.057419 -0.016362 -0.185512 0.048334 0.153029 -0.167534 -0.370499 0.571472 -0.494454 -0.508637 -0.252902 0.065613 -0.649571 -0.438882 -0.481413 -0.285928 -0.234815 -0.484729 0.200929 -0.095301 -0.421166 0.240875 0.504587 -0.145456 0.201155 0.230924 0.107995 0.482232 -0.431143 0.067846 0.016805 -0.304101 0.313648 -0.709385 -0.054013 -0.061970 0.028914 -0.052886 -0.387054 -0.044642 0.129115 -0.292001 0.060935 0.308789 0.402547 -0.249674 -0.249739 -0.198292 0.109625 0.385023 -0.205850 -0.333717 -0.063531 -0.192043 -0.181790 -0.527004 0.531357 -0.051500 -0.367791 -0.281248
