3312 128
390-0 0.447399 -0.140839 0.015870 0.224772 0.234670 -0.397966 0.260875 -0.404971 0.071374 0.214563 -0.287783 0.390552 0.154385 0.801912 0.035320 0.251547 -0.286769 0.233688 -0.206375 0.182908 0.110298 0.236289 -0.335873 -0.264277 -0.377209 -0.322336 -0.262750 0.088380 -0.093348 0.244163 -0.225209 -0.122032 0.043973 -0.065194 -0.258653 -0.101662 0.339419 0.426930 -0.162374 0.084377 0.285203 0.119087 0.177604 0.410050 0.460330 -0.196665 -0.056939 -0.351169 -0.236175 0.328092 0.239446 0.068418 0.223076 -0.236929 0.230149 -0.117539 0.264246 0.014446 -0.408035 -0.071015 -0.016411 0.101536 0.185078 0.021486 0.070800 -0.120712 0.189438 0.338351 0.340977 0.221980 0.331446 0.025786 -0.297137 -0.582195 -0.154275 0.307247 0.431756 0.096530 -0.117876 -0.028988 0.051394 0.329403 -0.144814 0.360325 0.519104 0.084803 -0.205629 0.384160 -0.387136 0.061248 -0.293556 -0.030299 -0.249481 0.259625 -0.182303 0.111564 -0.138274 -0.241276 -0.060052 0.162657 -0.018012 0.316195 -0.226818 0.189599 -0.050365 -0.009909 0.254769 0.419901 -0.189113 -0.292680 -0.111073 0.036520 0.141647 0.303253 -0.005544 -0.089139 0.111303 0.551946 -0.043544 0.313141 0.220847 0.131576 -0.494807 0.345524 0.026735 -0.044559 -0.386336 -0.222779
847-0 0.409314 0.026923 -0.435399 0.156404 -0.403618 0.031351 0.085864 -0.033707 0.303980 -0.297350 -0.091407 -0.265868 0.597858 0.047296 -0.839351 0.199105 0.365099 0.572725 0.060806 -0.147903 0.821461 0.184686 -0.216709 -0.160893 -0.133117 -0.172998 -0.564397 0.288913 0.126581 0.057795 0.164906 0.320374 0.329530 -0.288919 -0.152854 -0.262264 -0.415570 0.064997 -0.234567 0.149752 -0.166558 0.403826 0.144231 0.288224 0.029218 -0.092609 -0.572546 0.110865 -0.021387 0.052475 0.066367 0.005333 -0.272707 0.325015 -0.072381 -0.348672 0.133126 -0.060862 -0.286248 0.294210 0.182112 -0.148430 0.696473 -0.293164 -0.348280 0.076221 -0.233309 0.353590 -0.148287 -0.081787 0.165115 -0.521567 0.205918 0.204838 -0.301526 -0.223078 -0.119583 -0.262418 -0.031674 -0.011670 0.023872 0.318964 0.118926 -0.244645 -0.209793 -0.288822 -0.697549 -0.105227 0.005450 0.691910 0.373285 0.137378 0.655659 0.203812 0.096565 -0.144769 -0.375176 0.166800 -0.286682 0.046111 -0.062665 0.318240 0.192858 -0.375987 -0.058291 -0.108386 0.028736 -0.412156 0.082605 -0.047642 -0.065288 -0.208912 0.399307 0.048159 0.542959 0.148171 0.020966 0.132706 0.513800 0.238079 -0.064835 -0.201741 -0.517008 0.203043 -0.058376 -0.416677 0.386102 -0.077708
661-0 0.310908 0.185852 -0.451742 0.201612 0.245308 0.360960 -0.485070 -0.458101 -0.077193 0.149180 0.068425 -0.034479 0.264901 0.139916 0.038081 0.503706 0.428985 0.969696 0.439457 0.252864 0.321026 -0.012054 -0.719762 -0.231738 0.225752 0.460239 -0.109459 0.052442 -0.144146 -0.284046 -0.124373 -0.032621 0.173770 0.228978 0.476132 -0.445113 0.474267 -0.278840 -0.062934 -0.123120 -0.117317 0.279792 -0.279000 -0.172908 -0.126701 0.155824 -0.736761 -0.712371 0.378589 -0.188797 0.462409 -0.343961 0.182461 -0.012937 0.044759 -0.529522 0.316746 -0.455926 0.123037 -0.380110 0.296069 -0.388983 0.339662 0.351657 -0.722064 0.373490 -0.575456 0.369880 -0.202346 0.005198 -0.228355 -0.441307 0.109941 0.007205 -0.201311 0.051824 -0.096747 -0.022422 -0.094422 0.278257 -0.149119 0.332310 -0.571879 0.048808 0.126129 -0.586277 0.058582 -0.445504 -0.548797 0.666716 0.258532 0.292866 0.282719 0.343115 -0.023963 -0.095185 -0.341236 0.268054 0.058077 0.632923 -0.234000 -0.203494 -0.495469 0.197023 0.031061 -0.067591 -0.149350 -0.321183 0.672169 0.416719 0.041486 -0.592820 0.098754 0.079243 0.198272 0.840907 0.008055 -0.194373 0.564893 -0.188600 0.122174 -0.207188 -0.473675 0.513444 0.356279 -0.703558 0.555164 -0.011898
643-0 0.282860 -0.180708 -0.492889 0.301239 0.373551 0.608525 -0.034691 -0.623407 -0.126794 0.214168 -0.060093 -0.032195 -0.119241 0.130554 -0.359907 0.660525 -0.206175 0.267516 0.086275 -0.100922 0.170324 0.083610 -0.447414 -0.327990 0.351859 0.318022 -0.245053 0.205006 0.095751 0.103866 0.125820 0.022504 0.096791 0.373792 0.157147 -0.345719 0.237195 -0.665972 -0.218584 -0.017066 -0.170982 0.246254 0.264614 -0.134743 -0.225486 -0.041576 -0.792638 -0.490902 0.715089 -0.069570 0.292762 -0.376936 -0.053353 0.045702 0.364469 -0.353415 0.075445 -0.040381 0.322009 0.237445 0.205903 0.125989 0.240982 0.060896 0.415328 0.129197 -0.217182 0.145945 -0.482481 -0.235605 0.325985 -0.263839 0.224841 0.252675 0.167945 0.005906 0.164352 -0.179487 -0.130359 0.521122 0.382308 0.361360 0.062651 0.091843 0.256506 -0.575842 -0.001174 -0.505371 -0.274125 0.066952 0.282417 0.634914 0.771039 0.417844 -0.044777 -0.289108 -0.475427 0.224672 -0.425713 0.369330 -0.313793 0.286273 -0.070761 -0.005062 0.079316 -0.493743 0.132952 0.321688 0.377638 0.115267 -0.180683 -0.253111 0.487316 -0.051975 0.221922 0.315332 -0.055995 -0.367638 0.651969 -0.256064 0.110678 -0.424247 -0.517600 0.331886 0.012760 -0.805891 0.074261 -0.556147
439-0 0.541949 0.074884 0.060024 -0.029507 0.143485 -0.207063 0.160395 -0.605560 0.100020 0.297039 -0.245667 0.207512 0.126819 0.487016 0.196586 0.333020 -0.225539 0.553876 -0.053424 -0.404223 0.254216 0.340724 -0.027311 -0.404118 -0.335629 -0.226048 -0.388040 0.119332 -0.183286 0.351643 -0.165369 0.073976 0.240558 -0.039855 -0.302947 0.178996 0.371989 0.449334 -0.358304 0.254962 0.516374 0.159821 0.059377 -0.035369 0.047668 -0.277773 0.087429 -0.318313 -0.313188 0.194910 -0.217443 -0.235834 0.037235 -0.047266 0.005895 -0.566385 0.168212 0.026502 -0.274392 -0.049822 -0.067050 0.193207 0.112522 0.118509 -0.319607 -0.045846 0.185876 0.064385 0.043556 0.250882 0.248262 0.105449 -0.236311 -0.587444 0.150260 0.004502 0.145015 0.037816 -0.142252 0.110949 0.286973 0.283321 0.353351 0.409979 0.329167 -0.020395 0.269271 0.248828 -0.265773 0.323494 -0.148494 0.089722 -0.421008 0.077342 -0.187230 -0.339356 -0.342140 0.004309 0.430291 0.167315 -0.118234 0.323569 -0.437653 0.281273 -0.004689 0.070801 0.023566 0.604820 -0.113869 -0.097830 0.067062 0.520513 0.346623 0.341500 0.006832 -0.300210 0.071789 0.624391 0.300557 0.237871 0.445639 -0.026792 -0.565954 0.356634 -0.201969 0.012519 -0.158018 -0.276496
471-0 0.220017 0.303574 0.173782 0.245563 0.136963 -0.126895 0.330612 -0.347559 0.119573 0.381471 -0.126420 -0.318156 -0.165939 0.393007 -0.144465 0.111200 -0.020500 0.043165 0.181457 0.043495 0.154072 -0.011283 -0.158303 -0.182354 -0.111604 0.105573 -0.318045 0.270898 0.407430 -0.164876 -0.342205 0.007194 -0.050661 0.162317 0.262492 -0.162773 0.023251 -0.724008 0.355128 -0.138573 0.036200 0.499119 -0.314593 0.569063 0.062560 -0.007567 -0.062548 0.390594 -0.157209 -0.261385 0.015468 0.463570 0.331840 0.140698 -0.271111 -0.183467 0.195070 0.052076 -0.649919 -0.231923 -0.077388 0.272103 -0.043974 -0.000655 -0.079011 0.013139 -0.024203 0.054163 0.079933 0.427019 -0.158627 0.222780 -0.349686 -0.432498 0.113889 0.134557 0.239062 -0.214640 -0.277783 -0.236808 0.725212 0.550458 0.285969 0.165735 0.197948 -0.054949 -0.013965 0.565152 -0.290103 -0.037973 -0.149148 0.098404 0.166885 0.113649 0.270194 0.094829 -0.537063 0.223746 0.340911 -0.108677 0.138164 -0.074444 -0.310607 0.614675 0.127978 -0.423659 0.086093 0.489132 -0.213795 -0.095602 0.235885 0.038872 0.299240 -0.028246 -0.209629 -0.170596 0.084712 0.177974 0.117984 0.438272 -0.022526 -0.013845 -0.688087 0.225015 -0.337024 -0.499767 0.309309 -0.016949
364-0 0.594757 0.048650 0.037643 0.064613 0.211412 -0.279170 0.335692 -0.186699 -0.012160 0.247412 -0.312644 0.193224 0.154114 0.354469 0.086768 0.262856 -0.078260 0.577354 -0.158243 -0.257553 0.188944 0.343211 -0.112067 -0.312463 -0.570150 -0.236499 -0.541660 0.155883 -0.038867 0.202493 0.174733 -0.000629 0.295196 -0.038274 -0.372529 -0.047438 -0.046668 0.238695 -0.284195 0.447398 0.426037 0.279546 0.083159 0.098791 0.309455 -0.149545 0.099700 -0.303351 -0.430092 0.261993 -0.184062 -0.511920 0.078032 -0.018599 -0.153144 -0.276501 0.115098 -0.193367 -0.180665 0.091761 -0.251022 0.355643 0.169568 0.309128 -0.347068 0.021496 0.149688 -0.002724 0.063487 0.197438 0.076530 0.222431 -0.141703 -0.610051 0.324517 0.084349 0.067065 0.033910 -0.278139 0.276865 0.017737 0.103665 0.248527 0.538652 0.424336 0.108965 0.286788 0.166728 -0.428915 -0.008831 -0.309966 0.325129 -0.487961 0.141221 -0.286502 -0.216813 -0.430981 -0.044219 0.139060 0.235693 -0.093295 0.212515 -0.079913 0.459248 0.097451 -0.000667 0.112202 0.457844 -0.260962 -0.115633 -0.088235 0.062320 0.259233 0.252702 -0.082754 -0.110278 0.443226 0.487185 0.452323 0.277641 0.210855 0.003359 -0.643034 0.369445 -0.044795 -0.096403 -0.000749 -0.242375
1918-0 -0.493184 0.701504 0.158388 0.611483 0.384406 0.221460 0.034006 -0.674354 0.415531 0.323000 -0.490611 -0.668674 0.348044 0.061699 0.500487 -0.119157 -0.283510 -0.051368 -0.144364 0.222170 0.100610 0.347767 -0.246321 -0.308764 -0.639709 -0.258557 0.142343 -0.302331 0.546628 0.057373 0.334130 0.207527 0.618316 0.569948 -0.124456 -0.342625 0.903843 0.242003 -0.142214 0.445747 0.139561 0.793735 0.071957 0.062658 -0.267416 -0.134415 -0.109705 0.442871 -0.011043 0.061516 -0.340389 0.317462 0.219867 -0.361562 -0.127292 0.193046 0.252169 -0.332941 0.630194 -0.173640 0.483321 0.025515 -0.019218 -0.279663 -0.527504 -0.032398 0.489829 0.107225 0.313052 0.493728 0.808350 -0.184234 -0.489494 -0.094550 0.122623 -0.385381 0.168997 -0.358815 -0.470632 -0.325726 0.084880 -0.143989 0.097477 -0.573017 -0.084933 -0.642125 -0.055156 -0.028804 -0.441207 0.454434 0.044037 0.867929 -0.084468 0.489629 1.105754 0.519303 -0.323930 -0.341106 -0.485541 0.256297 -0.267412 0.173661 0.329725 0.235074 -0.125830 0.196079 -0.530313 -0.023052 0.488659 -0.194193 -0.445365 -0.467164 -0.263899 -0.228505 -0.049087 -0.270421 0.310834 -0.129244 -0.225307 0.500400 -0.286696 0.631053 -0.660869 0.055675 0.457275 -0.397195 0.355804 -0.933163
291-0 0.662632 -0.238422 -0.042979 0.139307 0.219445 -0.113773 0.294986 -0.000919 -0.136257 0.439184 -0.153409 0.289129 0.119130 0.479929 0.225505 0.239163 -0.185290 0.593619 0.044935 0.198916 -0.116526 0.354559 -0.149459 -0.388187 -0.527775 -0.096721 -0.158798 0.289410 -0.013726 -0.052095 -0.145436 -0.077259 0.193557 -0.225420 -0.071113 -0.362449 0.508745 0.063625 -0.105210 -0.134226 0.124992 0.290395 0.324322 0.167578 0.183255 0.027437 -0.125434 -0.656224 -0.152756 0.159728 0.476925 -0.239362 -0.017663 0.174756 -0.055380 -0.496182 -0.303151 0.151415 -0.340873 0.080921 0.327878 0.494297 0.213454 0.063218 -0.553580 0.046390 0.364120 0.076069 0.134122 0.354285 -0.216061 0.017327 -0.162857 -0.608348 0.182494 0.562768 -0.015567 -0.377259 0.197807 0.174170 0.085478 0.415954 0.212585 0.108281 0.250985 0.325596 0.175639 0.580904 -0.274523 0.244615 -0.325411 0.422227 -0.350450 0.047970 0.125452 -0.268367 -0.517742 -0.013629 -0.165369 -0.126145 -0.129224 0.249861 -0.232333 0.428257 0.091221 -0.067325 0.363399 0.470650 0.039102 -0.236177 -0.224642 0.255094 0.104330 0.176715 0.152710 -0.010471 0.547957 0.077878 0.040066 0.257575 0.591862 0.451705 -0.408619 0.179250 -0.287696 0.197619 -0.169847 -0.220287
699-0 0.511182 -0.222888 0.149319 0.053013 0.405280 -0.295267 -0.002135 -0.582223 -0.184046 0.140762 0.183947 0.402276 0.129328 0.670135 0.232871 -0.000323 -0.031851 0.446362 -0.543919 0.227629 0.412384 0.433183 -0.201674 -0.293202 0.118164 -0.147925 -0.206419 -0.034527 0.350020 0.616719 -0.258513 0.455632 0.308499 -0.334951 -0.152080 -0.111395 0.368269 0.453398 0.201423 0.190379 -0.092113 -0.182730 -0.002597 0.062909 -0.095933 -0.189389 -0.016441 0.034941 0.116855 0.112092 0.239243 -0.008703 0.140180 0.049053 0.174148 -0.196817 -0.042541 0.108138 -0.287657 0.068282 0.049004 0.274281 0.149353 -0.141967 0.039428 -0.016430 0.038956 0.479495 0.210897 0.214754 0.170172 -0.021183 -0.373276 -0.296049 0.279080 0.258066 -0.005326 -0.240103 -0.151217 0.259892 0.494843 0.244901 -0.313963 0.340412 0.090972 0.000175 0.083985 0.437479 -0.518879 0.041673 -0.285962 0.356552 -0.199855 0.371892 -0.146147 -0.271283 -0.359350 -0.215494 0.473035 0.113314 -0.180588 0.377825 -0.422349 0.144869 0.117091 -0.407220 0.333819 0.117480 -0.077796 -0.075122 -0.318805 0.369338 0.022175 0.092466 0.009808 -0.291905 -0.065879 0.622328 -0.026446 0.216062 0.100795 -0.093088 -0.547383 0.136728 0.060655 -0.130527 -0.160201 -0.371860
697-0 0.557884 -0.183371 0.115462 0.258374 0.345748 -0.290017 -0.063821 -0.326730 0.087264 0.379500 -0.149456 0.099896 -0.182865 0.576514 0.196758 0.193655 -0.149039 0.566456 -0.243758 0.083219 0.509026 0.359653 0.094256 -0.134894 -0.319218 0.145895 -0.585298 -0.095652 0.318441 0.349192 -0.046714 0.294791 0.132003 -0.237675 -0.260238 -0.081036 0.200852 -0.010498 0.355883 0.411847 0.020656 0.072870 -0.034498 0.206122 -0.061440 0.194534 0.103127 0.009799 -0.607501 0.110771 0.104856 0.208120 0.160867 0.034192 -0.069326 -0.060858 0.018447 0.179466 0.018523 0.045422 -0.212492 0.172272 0.033653 -0.046669 -0.021813 0.120473 -0.052586 0.038645 0.305762 0.334926 0.103858 0.035767 -0.407043 -0.685532 0.153708 0.118969 0.111230 0.042411 0.010296 -0.152381 -0.009376 0.610225 -0.038884 0.144355 0.154147 -0.113303 0.079077 0.791197 -0.303237 -0.132167 -0.119731 0.206302 -0.090133 0.041783 -0.169221 0.226774 -0.387780 0.427525 0.244878 0.151613 -0.258339 0.262611 -0.142840 0.594446 0.140202 -0.268564 0.131941 0.258440 -0.180835 0.147251 -0.129397 0.375393 0.233383 0.247081 -0.291432 0.031939 -0.184256 0.474931 0.313080 0.395593 -0.032062 0.208445 -0.508706 0.266663 -0.133470 -0.197542 0.214222 0.002012
905-0 -0.065372 -0.423710 -0.316815 0.483730 0.266655 -0.297533 0.286034 -0.253346 0.233459 0.034545 0.190583 0.122665 0.110877 0.157440 0.122063 0.165536 0.196738 0.325436 -0.514353 0.234332 0.393577 0.383871 0.138255 -0.086113 -0.211817 -0.090352 -0.116623 0.050420 0.099110 0.198577 0.000300 0.151609 0.292200 0.050749 0.236513 -0.052150 0.515547 0.030618 0.228499 -0.084715 0.053776 0.381335 -0.325668 0.345102 -0.216005 -0.255771 0.076172 0.276920 -0.409534 0.055579 -0.152448 0.224376 0.200682 0.474466 -0.089774 -0.124237 -0.100792 0.054364 0.394458 0.021743 -0.546501 -0.035931 -0.088992 -0.034637 -0.013222 0.378978 -0.463371 -0.002484 0.268935 0.401546 0.181002 0.206704 -0.304960 -0.948982 0.190161 -0.085124 0.260418 -0.114229 -0.001227 -0.025147 -0.093801 0.502691 0.118014 0.296903 0.149033 0.081234 -0.453655 0.562421 -0.270966 -0.420920 -0.011756 0.134006 0.361717 -0.034700 -0.248944 0.274036 -0.630279 0.178236 -0.082613 0.347760 -0.001119 -0.033057 0.143223 0.799090 0.289432 -0.419876 0.297568 0.348598 0.510549 -0.515830 0.483124 -0.038933 0.894726 -0.316870 0.203670 0.204318 0.037984 -0.363490 0.177021 0.132768 -0.295014 0.185708 -0.672139 0.170304 -0.425560 -0.441403 0.007541 -0.121600
732-0 -0.178904 -0.095115 0.480341 0.450703 0.304682 0.457592 0.261781 -0.474578 0.122623 -0.198721 0.226622 -0.317152 0.224083 -0.058759 -0.020285 0.007212 0.126289 0.047988 -0.324489 -0.302865 -0.003266 0.315976 0.285329 0.050602 -0.475986 0.318385 -0.278456 -0.324691 0.098822 0.153922 0.234674 -0.079918 0.349742 -0.010359 0.236646 -0.001938 0.344480 -0.233523 0.045449 0.283789 -0.009929 0.512797 -0.269615 0.750632 -0.777556 -0.231712 -0.478537 -0.044543 0.038521 -0.264665 0.335542 -0.152525 0.025637 0.066333 -0.277697 0.088035 -0.115074 -0.239499 -0.233787 -0.080343 0.252210 -0.067555 0.463269 -0.231093 0.102496 0.125876 -0.153858 0.413135 0.620711 0.046740 0.167359 0.103220 -0.319867 -0.334071 -0.047581 0.119966 0.239227 -0.008377 -0.169788 0.209921 0.245351 0.053495 0.115406 0.204620 0.278603 0.434693 -0.174797 0.697617 0.098885 -0.594483 -0.189049 -0.348312 0.088824 -0.042219 0.375189 0.129368 -0.633364 0.043523 -0.110867 0.462333 -0.210821 -0.269193 0.101929 0.683172 0.197374 -0.218293 -0.058029 0.775334 -0.051499 -0.369045 0.024946 0.244183 0.564582 0.186056 0.113587 0.078707 0.382493 -0.336189 -0.277995 0.678740 -0.074765 0.013541 -0.486491 0.190944 -0.332666 -0.523106 0.165383 0.010665
2049-0 -0.464565 0.007199 0.185593 0.759110 0.440627 -0.066022 0.263315 -0.414758 -0.063937 0.269199 -0.127073 -0.622358 0.273498 -0.337185 0.818760 0.125277 -0.199671 -0.210357 -0.098623 0.261431 0.538321 -0.038901 -0.132520 -0.252169 -0.001412 -0.227036 -0.267066 0.283191 0.852312 -0.592411 0.002208 0.011499 -0.013425 -0.347780 -0.161243 -0.174054 0.216507 0.088464 -0.298915 0.838432 0.605436 0.381221 0.143911 0.111201 0.052581 -0.277962 -0.066080 -0.388745 0.350056 0.048774 -0.597342 0.754394 0.354602 -0.225299 -0.175658 -0.754954 0.100715 -0.468420 -0.284915 -0.046485 0.846288 0.200872 -0.493684 -0.203773 -0.610491 0.208916 0.308184 0.119588 0.365049 0.769645 0.008350 -0.070478 -0.361077 -0.422349 0.766469 -0.475588 -0.033213 -0.216202 0.145117 0.037427 -0.330289 -0.064524 0.182449 -0.612310 -0.074372 -0.174328 0.555455 0.390758 -0.026907 0.541441 0.025063 0.139580 -0.195832 0.378968 0.653425 -0.208670 0.145647 -0.489140 -0.186951 0.167219 -0.466089 0.007616 0.565175 -0.193334 -0.186452 0.134353 0.616301 -0.221216 0.327540 0.024568 -0.122309 -0.130545 0.254217 -0.447466 0.213676 0.020513 0.312912 -0.374115 0.289460 -0.177828 -0.154206 0.241992 -0.008808 0.938654 0.319763 -0.283819 -0.323994 -1.017111
986-0 0.191095 -0.162370 -0.121831 -0.206028 0.081332 0.002409 0.150303 -0.374032 1.100923 0.040239 -0.076767 0.636797 -0.015988 -0.606643 0.184659 0.128901 -0.357983 0.316103 -0.051496 -0.358903 0.643412 -0.765940 0.146226 -0.179152 -0.496355 -0.061065 0.493004 -0.184605 0.410327 -0.335009 0.147067 0.380429 0.107122 0.236310 -0.326829 0.057633 -0.164119 -0.241288 -0.686018 -0.397648 -0.358435 0.344416 0.436336 -0.061085 -0.043542 0.101511 0.042604 -0.306340 0.444271 0.004134 0.176278 0.281790 -0.542606 -0.106237 -0.333725 0.225238 0.272570 0.381174 -0.365099 -0.307982 -0.243376 0.051875 0.432736 -0.227517 -0.068652 0.183866 -0.232741 0.997721 0.178911 0.046390 0.275735 -0.491792 -0.069717 -0.130104 -0.113152 -0.165943 -0.351722 -0.272954 -0.033791 0.022079 -0.308524 0.584004 0.124312 0.051603 -0.517572 0.001475 -0.281775 0.124173 0.015887 0.189977 0.438541 0.142969 0.741826 0.656333 0.118307 -0.030557 0.031422 0.111238 -0.331069 0.295096 0.021521 -0.124713 -0.437257 0.119096 -0.344886 -0.023192 -0.007821 0.009445 -0.118275 0.047608 -0.291959 0.173782 0.239228 0.219892 1.103130 -0.087616 0.424933 -0.417507 0.302147 0.187801 0.268799 -0.095628 -0.780060 0.662491 -0.062951 0.010718 0.255608 -0.414579
488-0 -0.176895 0.135756 0.475436 0.728488 -0.271574 0.360034 -0.459611 -0.943512 0.617382 0.049265 0.574769 0.645898 -0.123588 -0.431833 0.148469 0.594313 0.380848 -0.195757 -0.072275 -0.254443 0.176535 0.300912 -0.495011 -0.712178 -0.468315 -0.249616 -0.214608 0.193719 -0.016554 0.479390 0.014106 0.346462 -0.034846 -0.008995 0.415892 -0.000472 -0.301216 -0.371525 -0.053210 0.154134 -0.106901 0.700762 0.416531 -0.086499 -0.644743 -0.521529 -0.399555 0.331198 -0.120451 -0.380138 0.580813 -0.349659 -0.162070 0.216551 -0.334338 -0.429459 0.418935 0.010090 -0.245337 0.316820 0.524031 -0.478229 0.135039 -0.275208 0.554519 -0.700823 -0.456772 -0.238037 0.012684 -0.535146 -0.227278 0.503056 0.501440 0.419319 0.600282 -0.086114 -0.146856 -0.209885 -0.401093 0.551242 -0.212588 0.923309 -0.238295 0.298736 0.080893 0.186342 -0.127667 -0.342984 0.180363 0.191611 0.214655 0.699764 0.373712 0.127478 0.298711 -0.108511 -0.541011 -0.392732 -1.065743 0.204874 -0.156638 1.046761 0.017175 0.048796 -0.000214 -0.404821 0.027622 0.184774 0.359098 0.072565 0.324719 -0.852005 -0.055279 0.111498 0.111261 0.340292 -0.084503 0.222421 0.196237 -0.047215 0.540769 -0.332474 -0.202269 1.167356 -0.265907 -0.685372 0.118360 -0.606324
1406-0 0.665785 0.482590 0.488748 0.704195 0.092662 0.241664 -0.223506 0.182125 0.078606 0.113349 0.711320 -0.112364 -0.124474 -0.053043 0.188523 -0.623153 -0.030931 0.056148 0.119551 -0.563169 0.502059 -0.274325 0.370582 -0.297634 -1.025801 -0.239513 0.201707 -0.590155 0.589319 0.034657 0.085559 -0.009246 -0.109840 0.232494 -0.071546 0.099001 0.743124 -0.239283 -0.062826 0.547880 0.618683 -0.795222 -0.078305 0.174901 0.755390 -0.862164 -0.461058 0.113071 -0.137624 0.218206 0.209647 0.102673 0.295670 -0.068558 0.549912 -0.232512 0.083683 -0.198614 -0.087907 -0.683291 0.020802 0.521427 0.301725 0.112259 0.178085 0.267095 -0.079889 0.487443 -0.112718 -0.210940 0.460148 -0.503303 0.325411 0.010828 0.435068 0.273849 0.349115 -0.225769 -0.074354 0.380671 -0.275382 0.723520 -0.733852 -0.266352 0.080926 -0.038932 -0.406571 0.576626 0.271472 -0.140079 -0.198161 0.472170 0.098650 0.005743 0.237449 0.063946 -0.634998 -0.587230 -0.401977 0.216968 -0.177414 -0.508964 0.064646 -0.546916 -0.014935 -0.347407 -0.151259 0.016246 0.984252 0.211812 0.382862 0.083962 0.394699 -0.028464 0.203107 -0.041234 0.564953 0.465956 0.237562 -0.212530 0.130934 -0.074921 -0.914619 0.430247 -0.029710 -0.514616 0.704607 0.024208
1236-0 -0.375770 -0.159841 0.103540 0.372240 0.354854 -0.097990 -0.343567 -0.889340 -0.221118 0.446117 0.351972 0.489570 -0.141072 -0.316110 -0.720529 0.251004 -0.596486 0.902721 -0.016596 0.157708 0.906433 -0.152768 -0.057911 -0.710363 0.408767 -0.134205 -0.022465 -0.166365 0.110490 -0.314821 0.257020 -0.212356 0.204798 0.194295 0.279806 -0.263021 0.362192 -0.241110 0.020603 -0.529329 0.238147 0.178288 0.508123 0.118628 0.887189 0.560596 -0.262501 0.193842 -0.296986 -0.100847 0.148691 -0.007531 -0.214136 0.292478 -0.552460 0.144168 -0.467072 -0.484716 -0.015244 -0.264582 -0.241305 -0.190483 -0.137074 -0.057563 0.148761 0.430221 -0.518760 0.360661 0.459626 -0.136117 -0.103094 -0.238609 0.120762 -0.116866 0.257305 0.150115 0.040627 0.681724 -0.241898 0.305879 -0.120271 -0.413631 -0.122821 0.197558 0.507575 -0.099662 0.148176 0.634853 0.688711 0.201928 0.330760 0.428195 0.306322 0.114813 0.203342 0.684927 -0.164028 -0.402839 0.151856 0.148950 -0.081335 -0.265978 -0.326276 0.464903 -0.141655 -0.053505 0.284647 0.053997 0.111294 -0.553388 0.127255 0.283209 -0.361890 -0.035919 -0.103130 -0.117928 0.484422 0.248959 -0.085252 -0.570300 -0.125577 -0.204809 -0.034805 0.399110 -0.173748 -0.618065 0.023149 -1.053837
631-0 0.146683 0.301830 -0.134716 0.005757 0.110216 -0.098696 0.312649 -0.148038 0.300515 -0.317816 -0.134123 0.353178 0.564717 -0.233562 0.029748 -0.013036 -0.007747 0.434478 -0.058626 -0.108811 0.698784 -0.906682 -0.527927 -0.222210 0.095210 -0.027423 -0.132335 -0.105425 0.379098 -0.187192 -0.045805 0.204965 0.206610 0.425384 0.174351 0.290932 -0.123913 -0.103447 -0.501985 -0.383818 -0.515295 0.462844 0.026308 0.244791 -0.016597 0.483225 -0.123491 -0.167313 0.182977 0.260009 -0.186583 -0.002513 -0.364554 -0.013375 -0.029488 -0.054436 0.053442 0.334138 0.065106 -0.237499 -0.268870 -0.198230 0.559922 -0.253377 0.103731 0.099751 -0.123878 0.648740 -0.097147 0.369368 -0.024763 -0.416781 -0.185175 -0.309916 0.209759 -0.280783 -0.139642 -0.521936 -0.503326 0.060589 -0.620356 0.569139 0.368002 -0.623912 -0.601637 0.160353 -0.425661 0.306796 -0.206662 -0.066097 0.299380 -0.187977 0.532837 0.540764 0.145164 -0.237668 0.117620 0.248710 -0.211657 0.372596 0.276342 -0.142321 0.054275 -0.020861 -0.349157 -0.091217 0.001929 0.100025 -0.260531 -0.288568 -0.619067 -0.158893 0.600180 0.183830 0.789569 0.330397 0.910253 -0.099203 0.321822 -0.063505 -0.033374 -0.041191 -0.789274 0.884783 0.058068 -0.128834 -0.091418 -0.032096
1731-0 0.720205 0.462626 0.516033 0.661197 0.400854 0.183947 -0.288252 0.491196 0.074801 0.070958 0.775497 -0.100794 -0.176890 0.150270 0.304720 -0.702026 0.196144 0.258814 0.019780 -0.410432 0.412649 -0.283240 0.519195 -0.349955 -0.943007 -0.412531 0.527562 -0.615573 0.437962 -0.145165 -0.028208 -0.021502 -0.337924 0.151907 -0.167872 0.071651 0.596946 -0.287615 -0.010656 0.678334 0.625906 -0.548117 -0.237912 0.168905 0.526728 -0.852950 -0.519258 -0.076404 -0.306549 -0.127731 0.096125 0.478155 0.329208 0.137533 0.529057 -0.561281 -0.196384 -0.184756 -0.013834 -0.548392 -0.033949 0.554541 0.361111 0.190587 -0.056187 -0.003236 -0.183141 0.612670 -0.248634 -0.367829 0.168218 -0.217575 0.198696 -0.235976 0.522174 0.316298 0.552762 0.043779 0.169937 0.555649 -0.170326 0.684202 -0.724113 -0.380636 -0.173138 -0.009124 -0.468089 0.713460 -0.109219 0.117783 0.210027 0.971268 0.129395 0.059806 0.360304 0.310243 -0.770097 -0.668629 -0.339446 0.388768 -0.178947 -0.525836 0.008097 -0.395056 -0.020233 -0.154361 -0.041120 0.177723 0.850072 0.124008 0.146738 0.184301 0.528952 -0.211915 0.021413 0.118812 0.642617 0.205307 0.225104 -0.394421 -0.026325 -0.132907 -0.392702 0.604133 0.385643 -0.425917 0.650501 -0.014983
753-0 -0.675051 -0.806145 0.446978 0.125102 0.351549 -0.298632 0.449039 0.525006 0.417230 -0.426714 -0.127737 0.018324 -0.037811 -0.061211 0.430843 0.201897 -0.702096 0.426074 0.029280 -0.223834 0.688183 0.079614 0.195375 -0.806642 -0.041787 0.166203 -0.087635 -0.090484 0.047875 0.023703 0.146280 0.109315 0.384327 0.161592 -0.360801 -0.510053 -0.530617 -0.045837 -0.006638 0.134878 -0.325240 0.659281 0.227049 -0.371211 0.079642 -0.611261 -0.223032 -0.576920 -0.375294 -0.340447 -0.315836 0.526075 0.434043 -0.038727 -0.337647 0.058680 0.342002 0.453685 -0.797476 -0.198498 0.827920 0.109171 0.396390 0.333016 -0.031732 0.124425 -0.535734 0.473872 0.194209 0.768460 -0.213355 -0.396025 -0.395904 0.025649 0.270551 -0.103596 -0.050553 -0.073589 -0.235653 -0.194550 0.141436 -0.202415 0.388892 -0.658408 -0.600253 0.424337 0.133429 0.313424 -0.001222 0.147951 0.032970 0.295764 0.557272 0.047699 0.409557 -0.184570 -0.366187 0.337520 -0.287704 0.042231 0.186270 -0.284916 0.472455 -0.245978 -0.405891 -0.308667 0.309221 -0.647637 0.343979 -0.556159 -0.386889 0.083324 0.394634 0.774526 0.335272 0.334063 0.278080 0.060823 -0.224608 -0.175539 0.222862 0.633086 0.179767 0.792510 0.847734 -0.100674 0.579067 -0.626070
2955-0 -0.196667 -0.039488 0.169149 0.744931 0.655959 -0.012634 1.103379 0.027367 0.673324 0.295565 -0.053565 0.611248 -0.393283 0.229465 0.513780 0.455440 -0.091624 0.611656 -0.271454 0.261143 1.213543 -0.902572 -0.924750 -0.310796 0.371757 0.173416 -0.092890 0.029776 0.020424 -0.058470 -0.720320 0.272910 0.249035 -0.181527 -0.466019 0.406807 0.325762 0.809886 -0.591837 0.409355 0.395663 0.319719 0.929432 0.365938 0.627904 -0.576584 -0.576362 -0.078449 0.000965 -0.208993 -0.015797 -0.095435 -0.281170 0.367592 -0.083703 -0.226626 -0.009534 -0.014542 -0.381111 -0.273584 0.116161 0.110495 -0.270760 -0.242410 0.214393 1.002549 -0.233635 0.045122 0.328391 -0.401599 -0.219206 -0.214760 -0.197971 -0.353242 0.424832 -0.052079 -0.906252 0.499237 -0.862318 -0.247857 1.492163 0.133115 -0.556198 -0.159459 -0.296585 -0.678064 0.376545 -0.223622 -0.175356 0.343188 0.103409 0.252868 0.201125 -0.762388 -0.301134 0.481248 -1.330302 0.434373 -0.179833 -0.219970 -0.337142 0.551195 -0.231843 -0.260817 0.073014 0.188498 -0.581553 0.017107 0.637664 0.225309 -0.030251 -0.104996 -0.303824 -0.348687 0.388508 1.263705 0.809092 -0.605787 -0.218825 -0.363226 -0.338149 0.397583 -0.044596 0.091072 0.252801 -0.210256 0.299592 0.365755
822-0 0.468870 0.260785 0.008028 -0.115010 -0.309416 -0.177013 -0.066508 0.096786 0.561463 -0.250648 -0.214927 -0.309918 0.090989 -0.245750 -0.251173 0.096218 0.406036 0.421023 -0.769315 -0.177607 0.669844 0.393547 0.169762 -0.007696 0.075099 0.233792 0.302206 -0.086034 -0.173567 0.061948 -0.060441 0.098511 -0.323856 -0.346974 0.261405 -0.006922 0.095592 0.124813 -0.291135 -0.166823 -0.254461 0.491455 0.441999 0.013051 0.494387 0.119475 -0.235736 0.168601 -0.195388 0.211306 -0.586911 0.556187 -0.472530 0.510787 0.183522 -0.070204 -0.127375 -0.698614 -0.507550 -0.370303 0.142887 0.100419 0.586288 -0.305570 -0.539923 0.115021 0.098741 0.342027 -0.355145 0.416229 0.427038 -0.306663 0.281513 -0.252286 0.086920 0.029219 -0.224946 -0.600624 -0.613740 0.333567 -0.121504 0.460662 -0.296409 -0.847869 -0.480629 -0.314159 -0.183089 0.301970 -0.045586 0.358319 0.147587 0.299884 0.457003 0.322887 -0.283117 -0.121949 -0.790035 0.011012 -0.640682 0.273338 -0.109962 0.256458 -0.364317 -0.271539 0.212814 -0.193754 -0.336378 -0.479534 -0.417538 -0.209663 -0.761807 -0.016827 0.382183 0.122545 0.141991 0.351537 0.124500 0.248467 0.166236 0.031047 0.079129 0.288323 -0.318064 0.460584 0.549699 -0.738260 -0.167846 -0.306400
659-0 0.474791 0.317784 -0.305405 -0.395544 0.042822 -0.081115 0.160936 -0.277520 0.510739 -0.310546 -0.453206 0.116445 0.335504 -0.279151 0.226784 0.523170 -0.044574 0.449680 0.031543 0.308467 0.895860 -0.453494 -0.147257 -0.175950 -0.396086 -0.082260 0.316762 -0.188146 0.488704 -0.527512 0.071122 0.172575 -0.027234 0.236324 -0.171358 0.334810 0.146480 -0.078374 -0.269930 -0.470053 -0.656166 0.567763 0.107011 0.202774 0.054858 0.523405 -0.573253 0.102225 0.293927 0.028668 0.157855 0.072283 -0.265028 0.016566 0.227950 0.073248 0.424705 0.422344 0.103734 -0.516902 -0.053746 -0.118221 0.642389 -0.123993 -0.095775 0.223456 -0.209730 0.700368 -0.177483 0.260063 -0.046027 -0.659258 0.017640 -0.388691 -0.252038 -0.236510 -0.311534 -0.491723 -0.349646 0.302890 -0.579239 0.549005 0.259749 -0.287336 -0.280406 0.337694 -0.504949 0.185345 0.123405 0.258743 0.644834 -0.083288 0.664170 0.477080 0.172416 -0.291290 -0.305069 0.104467 -0.000955 0.442545 0.365228 -0.106815 -0.323435 0.324100 -0.279942 -0.243528 0.009137 0.030168 -0.037034 0.309489 -0.332240 -0.249163 0.284222 0.385196 0.820662 0.299674 0.519802 -0.106839 0.192884 -0.289378 0.282464 0.007809 -0.328690 0.642940 0.287403 -0.173054 -0.102999 0.048705
0-0 0.453096 -0.067997 -0.079458 -0.130463 -0.699017 0.097686 0.606858 -0.558393 0.440533 0.590351 0.152159 0.036502 0.072355 -0.183421 -0.004295 0.718875 -0.463425 -0.016461 0.173858 0.312711 0.004393 -0.653930 -0.472131 -0.421458 -0.241629 0.121422 -0.252346 -0.063359 0.038693 0.488778 0.384648 0.132556 0.629661 -0.366960 0.485084 0.396733 -0.037558 -0.599689 -0.797703 0.116121 0.085160 0.013216 0.397018 0.002564 0.031362 0.203895 0.051239 0.071140 -0.549471 -0.482322 -0.012961 -0.069000 -0.236879 0.050721 -0.008371 -0.228349 0.256702 -0.570570 0.161465 0.072276 0.295909 0.001269 0.524274 -0.016015 0.126984 -0.413251 0.253136 -0.289810 0.163717 -0.653270 0.110705 -0.459494 -0.470738 -0.383359 0.480596 0.196736 0.147069 -0.593180 -0.133803 0.273513 0.147197 0.617010 0.253668 -0.262475 0.057975 -0.110588 -0.020974 -0.000394 -0.043974 0.027205 0.034952 0.064094 1.315572 0.343554 0.318935 -0.549796 0.076634 -0.092671 -0.381564 -0.272683 0.201787 0.326644 0.416421 0.284549 0.278149 -0.776190 0.025253 0.345943 -0.054957 0.290838 -0.449891 -0.502836 0.287345 0.205122 0.611352 0.278320 0.112980 0.465965 0.075373 -0.168110 0.089001 0.497097 0.115929 0.097357 0.151914 0.283439 0.438191 -0.466011
868-0 -0.041297 0.769379 0.061645 -0.438868 0.311260 0.736355 1.263489 0.080511 0.006694 0.363697 0.147903 0.245264 -0.137168 -0.159270 -0.007189 -0.393512 -0.466037 0.520266 0.121367 0.088721 0.357260 -0.663247 -0.786785 -0.835304 -0.128969 -0.067537 -0.101383 0.187297 -0.205528 0.382769 0.574535 -0.152118 0.546925 -0.188444 0.088321 0.287204 0.573926 -0.206802 0.575128 0.196324 0.092868 0.236995 0.700440 0.547216 0.128882 -0.180597 -0.215917 -0.029002 -0.528959 -0.311035 -0.295708 0.220820 -0.315297 -0.003760 -0.955353 0.224567 0.286565 -0.899318 0.267740 0.209327 -0.232896 -0.380802 0.725321 0.224081 -0.102319 -0.487932 -0.581474 -0.548874 0.145419 0.465972 -0.274757 0.719739 -0.055577 0.096721 -0.017320 -0.005163 0.201557 -0.569250 -0.796418 -0.056623 0.633926 0.642134 -0.257127 -0.173819 0.589716 0.065598 0.339347 0.094575 -0.203832 0.616718 0.778108 0.636750 0.863512 0.323078 0.128215 -0.088287 -0.288154 -0.693830 -0.096989 0.435410 -0.595803 0.615505 0.057584 -0.641810 0.671115 -0.290973 -0.566244 0.438641 0.202547 0.177766 -0.484567 0.355946 0.493769 0.161902 -0.029336 -0.203595 -0.027024 0.442254 -0.035476 0.094928 0.285552 0.252993 0.132715 0.201974 -0.067734 0.103095 0.413914 -0.421640
1101-0 -0.164438 0.896981 0.118016 0.968974 0.576847 0.087664 0.021518 0.609574 1.035321 0.565095 0.279274 -0.039074 1.146031 0.394621 0.221733 -0.215141 0.491094 -0.252056 0.196297 0.765330 0.371140 -0.326169 0.338726 -0.798572 0.346839 -0.263550 -0.021126 -0.271510 0.379982 -0.231272 1.203931 -0.604477 0.502635 0.264750 0.355010 0.692933 -0.156351 -0.259684 -0.989680 -0.055698 -0.062831 -0.287803 -0.136001 0.453506 -0.115176 -0.193255 -0.182099 0.196969 -0.120912 -0.196922 0.136050 0.230331 0.063940 -0.522940 -0.366459 0.151393 -0.044231 0.280386 -0.173363 -0.309617 0.929078 -0.500623 0.652798 0.153641 0.709762 0.679537 -0.308536 0.544985 0.042464 0.766779 0.817185 -0.139336 -0.794175 -0.337234 0.354160 0.024283 0.659809 -0.246487 0.030323 -0.510308 -0.183324 0.599482 -0.381700 0.224960 0.540097 -0.514993 0.132803 -0.433099 -0.233075 0.865759 -0.873880 0.756456 0.328732 -0.376821 0.099572 -0.556116 0.000097 -0.606030 -0.095471 0.133361 -0.912709 0.239092 -0.237693 0.008365 -0.105233 -0.063860 0.236575 0.249665 -0.222677 0.494795 -0.160613 0.253618 0.186013 -0.095607 -0.506138 -0.755085 0.052459 0.093639 -0.488350 0.884655 0.185036 -0.102854 -0.233155 0.067365 -0.026678 -0.361995 0.118830 -0.320664
616-0 0.656941 -0.258955 -0.104860 0.023407 0.320818 -0.271160 -0.291178 -0.492321 -0.268692 0.439128 -0.226153 0.394382 0.422712 0.337759 0.395214 0.562636 -0.266856 0.324436 -0.408214 -0.057277 0.202617 0.223240 -0.368895 -0.044579 0.076629 0.080380 -0.052159 0.057980 0.340126 0.287814 -0.002867 0.245487 0.251988 -0.093589 -0.500750 -0.028416 0.124704 0.347809 0.197962 0.114340 0.208815 -0.300025 0.279246 0.059585 -0.289899 -0.088829 -0.199659 0.110244 -0.309281 -0.257514 0.105070 0.316472 -0.109865 -0.329165 -0.234941 -0.377422 -0.416936 0.099424 0.107174 -0.055940 -0.485780 0.349778 0.419568 -0.125886 -0.003940 0.045228 0.228439 0.063206 0.166499 0.333053 0.153781 -0.110740 -0.126321 -0.472392 0.563526 0.186909 0.181315 -0.019569 -0.046873 -0.303302 0.154201 0.389466 -0.014488 0.477603 -0.140317 -0.106604 0.135559 0.506953 0.332601 -0.120377 -0.463239 0.206594 -0.142585 0.366358 -0.030867 -0.115003 -0.483849 -0.368085 0.024343 0.216650 -0.326271 0.442361 -0.270389 0.228366 0.108038 0.033598 0.130668 0.074398 0.395073 -0.097210 -0.556618 0.564018 0.147538 -0.219564 -0.436448 0.513949 0.285236 0.496056 0.154137 0.467705 0.507667 0.106987 -0.088629 0.276912 0.515753 -0.315394 -0.138978 0.082267
814-0 0.264741 -0.068546 -0.657243 0.256117 0.099132 -0.078336 -0.054300 -0.279271 0.391871 0.181363 -0.098951 -0.024943 0.160913 -0.037902 -0.432642 0.368782 0.213163 0.523842 0.649798 -0.088556 0.376809 0.116648 -0.487826 -0.380034 0.241560 0.111616 -0.667020 -0.089117 0.018314 0.454135 0.183357 0.176860 0.288771 0.115953 -0.021797 -0.208883 -0.279451 -0.273016 -0.634249 0.290919 0.024929 0.320571 0.502215 0.467876 -0.244441 0.074187 -0.951349 -0.068301 0.269372 -0.054295 0.134611 -0.171679 -0.307012 0.264637 0.512410 -0.483775 -0.398816 -0.049147 0.068466 0.150726 0.251921 0.391083 0.471060 -0.029198 0.305232 0.023943 0.073710 0.453519 -0.542163 0.237007 0.245988 -0.173631 0.420061 -0.090678 -0.218443 0.006594 0.271773 -0.451298 -0.375891 0.555072 0.289445 0.382896 0.119064 0.035018 -0.010106 -0.729939 -0.084909 -0.482341 -0.506456 -0.074273 0.389036 0.348126 0.897815 0.473209 0.427910 -0.009589 -0.318919 0.118378 -0.485389 -0.258432 -0.428116 0.586139 0.415555 0.217826 0.020636 -0.384958 -0.079938 0.240101 0.040482 0.108575 0.018461 -0.028787 0.523294 -0.120141 0.364444 0.163917 -0.133999 -0.482823 0.809396 -0.088244 -0.511855 -0.344266 -0.413933 0.186617 0.328758 -0.459926 0.302173 -0.484005
354-0 -0.669458 -0.618867 0.803261 -0.343766 0.385448 0.166896 -0.418678 0.045946 0.570089 -0.507028 -0.279505 -0.272744 0.385700 0.035963 -0.352139 0.450041 -0.058985 -0.030880 0.106083 0.023097 0.858929 0.168460 0.036539 -0.441106 -0.296891 0.485769 0.117340 0.084423 0.494493 -0.430220 0.123018 0.221292 0.086585 0.384092 0.658981 -0.036785 0.200500 0.916738 -0.281837 -0.395717 0.537564 0.139974 0.206124 0.139941 0.900683 -0.206885 -0.622865 -0.244667 0.110050 -0.662322 -0.257892 0.470402 -0.009232 0.080736 0.130830 -0.096309 -0.325453 -0.176376 -0.095410 -0.486271 0.377997 0.740582 0.781601 -0.093440 0.239222 0.368458 0.118475 0.226504 -0.474672 -0.803527 0.051280 -0.403642 -0.563989 -0.534136 0.371341 0.065118 -0.626082 -0.770913 -0.062625 0.300807 -0.180236 0.406606 -0.498377 -0.154986 0.097340 0.459815 0.000458 -0.393630 0.190571 -0.285271 -0.497865 -0.106301 0.233783 -0.066755 -0.022099 0.462393 -0.251584 -0.437563 -0.897447 0.033843 -0.258533 0.289651 -0.201151 -0.607843 0.182976 -0.455737 -0.098594 0.502363 -0.388731 0.210567 0.475885 0.203230 0.254213 -0.148503 -0.565715 0.133936 0.186854 0.601856 0.784491 -0.102487 0.868607 0.207513 -0.160517 0.907382 -0.028824 -0.469619 0.642099 -0.642157
263-0 -0.158301 -0.469164 -0.130964 0.629714 0.638881 -0.296845 0.845600 -0.553017 -0.359312 0.558670 0.014139 -0.039031 0.178646 0.292615 -0.083879 0.340883 0.080743 0.372041 -0.682359 0.597020 0.154997 0.058143 0.025648 0.196120 -0.098450 0.294984 -0.151853 0.211651 0.155525 0.128257 0.382791 -0.133378 -0.015294 0.606500 -0.814528 -0.270561 0.332172 -0.820454 0.289718 -0.374003 0.460012 0.981919 0.133820 0.290670 -0.112639 0.320422 0.188243 0.226016 -0.667691 -0.303280 -0.053363 0.216937 0.085349 0.112802 -0.143994 -0.418987 -0.007573 -0.038119 -0.057699 -0.343950 -0.766237 -0.210854 0.074712 0.236210 -0.100015 -0.196880 -0.620415 -0.111431 -0.299075 -0.081608 0.653470 -0.157874 -0.232890 -0.235869 0.042996 -0.244766 -0.199497 -0.585009 0.096086 -0.123897 -0.098367 0.257338 0.029092 0.110114 0.184045 0.121935 -0.121998 -0.062184 -0.248200 -0.470830 -0.182249 0.456911 0.522706 -0.216945 -0.264277 -0.162048 -0.537926 -0.162986 -0.047674 -0.050040 0.113942 -0.102210 -0.329309 0.264765 -0.163906 -0.657653 0.030082 0.337830 0.379553 0.262576 -0.038960 -0.368924 0.755863 -0.334400 0.170480 -0.004283 -0.073993 -0.350933 0.486440 -0.135771 0.142609 -0.228085 -0.858541 0.520869 -0.273873 -0.313527 -0.084870 0.033937
483-0 0.661585 -0.083080 0.186284 0.075146 0.193991 -0.210210 0.304766 -0.391968 0.050131 0.348765 -0.266589 -0.011844 0.065280 0.345985 0.281022 0.431613 -0.213789 0.653582 -0.008416 -0.078338 0.318987 0.224804 -0.229567 -0.253370 -0.324764 -0.162324 -0.301260 0.251988 -0.304403 0.172033 -0.106012 0.179831 0.514558 0.162711 -0.599457 0.117384 0.258536 -0.140277 -0.248212 0.312509 0.447080 0.225760 0.425333 0.295954 0.286973 -0.369342 -0.012551 -0.443518 -0.474749 0.117645 0.083474 -0.354077 -0.064561 -0.048564 -0.088958 -0.604212 0.135718 -0.150094 -0.267683 -0.197886 -0.318512 0.427490 0.130890 0.268499 -0.264915 -0.382049 0.135378 0.097652 -0.026519 0.369695 0.133936 0.022487 -0.142387 -0.582116 0.031878 0.154220 0.142878 0.020472 -0.274574 0.133709 -0.192396 -0.043134 0.123821 0.543736 0.341942 0.048827 0.079783 0.245900 -0.283871 0.168146 -0.481832 0.194889 -0.625635 0.324659 -0.182666 -0.137795 -0.156771 -0.058026 -0.164339 0.073788 -0.273092 0.216075 -0.404325 0.304748 -0.303945 -0.201117 0.045062 0.425184 -0.282235 -0.133375 -0.055004 0.239253 0.252893 0.303918 -0.044138 -0.145030 0.177997 0.551197 0.408388 0.338044 0.440204 0.040831 -0.562496 0.300941 0.009795 0.087730 -0.132872 -0.126065
31-0 -0.048112 0.125055 0.281326 0.492570 0.303695 -0.113463 0.254657 -0.347159 0.039582 -0.008436 -0.111145 -0.582409 0.054510 0.213449 -0.198550 -0.171584 -0.007420 0.145793 0.235832 -0.047146 -0.081456 0.029386 -0.184582 0.376338 -0.159015 0.232401 -0.369263 -0.158505 0.413740 0.021941 -0.163617 -0.002255 0.340624 -0.034933 0.346953 0.042817 -0.469854 -0.625854 0.343162 -0.142920 0.124381 0.685572 -0.392224 0.523159 -0.177528 0.021347 -0.590194 0.208289 -0.031251 -0.055531 0.383559 -0.022328 0.685744 0.102250 -0.401028 -0.019787 -0.046125 -0.180843 -0.860703 -0.564990 0.004986 0.373833 0.222994 -0.156545 -0.007008 0.034953 -0.185879 0.237289 0.411904 0.034858 0.548829 0.050189 -0.278296 -0.085067 -0.006062 0.070146 -0.151010 -0.331495 -0.466846 -0.178154 0.723317 0.393074 0.393844 0.258971 0.256472 0.358254 -0.004924 0.599619 -0.025756 -0.431486 -0.306450 0.077220 0.286349 -0.413502 -0.023103 -0.018451 -0.346531 -0.152989 0.379258 -0.044049 -0.060097 0.012732 -0.193025 0.359281 0.283087 -0.024307 0.167742 0.361739 0.004515 -0.084919 -0.058633 -0.134398 0.275178 0.129561 -0.264752 -0.341200 0.256751 0.026144 -0.423332 0.561171 -0.131706 -0.027618 -0.656314 0.371268 -0.383782 -0.420747 0.231016 -0.405468
698-0 0.448924 -0.235318 -0.133658 0.138959 0.392644 -0.395154 0.090077 -0.435675 -0.065959 0.332093 -0.319731 0.109170 -0.082947 0.513092 0.280565 0.404067 -0.167925 0.311438 -0.230847 -0.058379 0.570195 0.430071 -0.209147 -0.191216 -0.182337 0.068413 -0.259172 -0.094402 0.324685 0.568425 -0.044533 0.213778 0.106567 -0.421055 -0.432288 -0.109080 0.060016 0.173470 0.232984 0.403038 0.116789 -0.105190 0.201218 0.086162 0.089036 -0.243426 0.017228 -0.216011 -0.326514 0.126883 0.216572 0.049113 -0.205637 -0.306480 0.250148 -0.191739 0.005980 -0.172884 0.011789 -0.087307 -0.247298 0.185637 0.111741 -0.112443 -0.078547 0.345666 0.005265 0.257240 0.227519 0.065446 0.310259 0.051925 -0.196581 -0.663793 0.286255 0.042234 0.418177 -0.118729 -0.102725 -0.259245 0.157725 0.114543 -0.289836 0.511958 0.149776 -0.186241 0.386967 0.313438 -0.120237 0.053693 -0.452886 0.287650 -0.028755 0.269338 -0.314574 0.168497 -0.207996 0.062864 0.213508 0.236791 -0.281642 0.471338 -0.295322 0.241937 0.230626 -0.332043 0.263920 0.228169 0.068822 0.315391 -0.245458 0.479526 0.030605 0.082385 -0.290206 -0.067384 0.044764 0.559582 0.083022 0.735990 0.430180 0.259792 -0.504718 0.338730 0.261193 0.126368 0.024745 -0.211583
691-0 0.146965 -0.153685 -0.116723 0.175811 -0.082530 -0.042439 0.257025 -0.424932 1.154293 0.490964 -0.268266 -0.006367 0.019118 -0.257441 -0.083725 0.578781 -0.057387 0.044217 -0.180880 0.028574 0.219796 -1.030566 0.049075 -0.408334 -0.091785 0.132946 -0.039875 -0.108250 -0.200466 0.222113 -0.008609 0.149843 0.268989 -0.018552 0.187316 0.044856 -0.622687 -0.220217 -0.327090 0.125993 0.250438 -0.085253 0.771708 -0.192046 -0.081094 0.003139 -0.189929 0.286308 -0.639611 0.175916 0.244045 -0.049570 -0.477047 0.028446 -0.111529 -0.526367 0.393496 -0.162426 -0.131318 -0.532583 0.064419 0.572297 0.217107 -0.233406 -0.003611 -0.482514 -0.025533 0.416136 0.036628 -0.165591 0.241402 -0.733710 -0.035716 -0.039302 -0.190451 0.252186 -0.282859 -0.716226 -0.245366 0.297531 -0.180607 0.648064 0.276589 -0.586973 -0.327031 0.059036 0.047174 0.016768 -0.354888 0.192622 0.088624 -0.147453 1.161952 0.808331 0.440597 -0.811867 -0.060952 0.144514 -0.242852 0.127866 -0.010507 0.223089 0.189376 0.361840 0.187994 -0.381779 -0.032513 0.157793 -0.085294 0.226799 -0.196631 0.104391 0.251546 -0.084713 0.556782 0.240841 0.067699 -0.038050 0.081200 -0.565294 -0.164415 -0.041983 -0.632253 0.471198 0.114244 0.313284 0.195579 -0.236162
522-0 0.613635 -0.363253 -0.063672 0.251559 0.705679 -0.258420 0.019278 -0.497916 0.001834 0.386133 0.200136 0.295525 0.188177 -0.005728 0.185309 0.262560 0.098795 0.589953 -0.820743 0.513977 0.160074 0.227893 -0.194425 -0.149783 -0.266146 0.123388 -0.054979 -0.073024 0.424017 0.287655 -0.021368 0.351747 0.415215 -0.450204 -0.266531 -0.286822 0.350085 0.283810 0.315740 0.281931 -0.106854 0.030025 0.162605 -0.327200 -0.202665 -0.095922 -0.125240 0.380663 -0.607119 -0.268116 0.162733 0.135342 0.155320 0.011225 0.209695 -0.118037 0.150717 0.227797 -0.152547 -0.377581 -0.132760 0.178224 0.146647 -0.141592 0.136288 0.249722 0.466684 0.330933 0.259717 0.319946 0.360484 -0.056995 -0.292404 -0.474511 0.286449 0.465113 -0.151635 0.035474 0.036025 -0.139749 -0.061100 0.564716 -0.014994 0.429306 0.090372 -0.095547 0.065131 0.782006 -0.017545 -0.257442 0.121406 0.196993 -0.235015 0.334883 0.284534 -0.207113 -0.611472 -0.240804 0.186525 0.308436 -0.289236 0.483370 -0.126521 -0.066276 0.189536 -0.657552 0.072441 -0.180965 -0.307806 -0.206070 -0.180565 0.400387 -0.062732 0.219815 0.038150 -0.098115 -0.023164 0.541312 0.033818 0.336719 0.305311 0.058859 -0.288768 -0.087454 0.365713 -0.458763 -0.177805 0.009145
876-0 0.128767 0.368448 0.053356 0.450766 0.218201 0.136282 0.341293 0.249878 0.231015 0.139598 -0.043663 0.332826 0.544272 0.012335 -0.629462 0.557462 -0.239662 0.519950 -0.423643 -0.407057 0.206332 -0.168660 0.323083 -0.538601 0.022229 -0.115902 -0.356683 -0.173891 0.102369 0.653512 0.098889 -0.170019 0.193043 0.882816 0.591492 0.005376 -0.116744 -0.161279 0.090812 0.496672 0.380522 0.639193 -0.036375 0.440949 -0.486161 -0.106332 -0.280889 -0.240581 0.689026 -0.117993 -0.178608 -0.265264 0.845927 0.324704 -0.313203 0.268826 -0.088144 -0.220114 -0.569675 -0.422157 0.272760 -0.360703 0.558652 -0.503456 -0.171525 0.438121 -0.554362 0.199976 0.533207 0.238055 -0.014090 0.183450 -0.589027 -0.767720 0.112961 0.198449 0.111594 -0.257953 -0.294846 0.061118 0.255344 -0.337064 -0.103739 0.370979 -0.155784 0.041759 -0.024003 0.521190 -0.190468 -0.502333 -0.172618 -0.283293 0.094190 -0.006280 0.465599 -0.144774 -0.275182 0.157039 -0.181378 0.210034 0.011991 -0.224347 0.380826 0.376273 0.670356 -0.400831 0.232193 0.815576 0.618732 -0.010074 0.148695 0.386999 0.105108 0.355755 0.082911 -0.047988 -0.244681 -0.320014 0.033885 0.770430 -0.034031 0.146773 -0.594835 -0.059708 -0.305478 -0.370996 0.160617 -0.231282
1083-0 -0.044478 -0.266227 -0.313525 -0.166232 0.382437 0.244108 -0.539829 -1.258917 -0.128146 -0.228638 -0.034373 -0.188552 -0.362909 -0.076334 -1.094347 0.064436 -0.545183 0.725273 -0.259070 0.045625 0.641638 -0.445074 -0.160806 -1.149976 0.207956 -0.343478 -0.161077 0.445709 -0.224515 -0.650752 0.405322 -0.068340 0.860123 -0.268782 -0.104679 0.004551 0.385412 -0.238330 0.305501 -0.188846 0.512415 0.518663 0.284113 0.079737 1.263802 -0.457054 0.118668 0.233987 -0.227151 -0.738480 -0.163374 0.287955 -0.122790 0.777431 -0.061930 0.099897 -0.416963 -0.040423 -0.097178 -0.251931 -0.382118 -0.581342 -0.030868 0.190555 -0.134613 0.357009 -0.258749 0.677832 0.699425 -0.718595 -0.371400 -0.002740 0.185756 -0.089343 -0.422880 0.250344 -0.065609 0.640351 0.138756 0.036650 -0.441730 0.177092 -0.293556 -0.021489 -0.307404 -0.662034 -0.173869 0.288521 0.304019 0.479653 0.140222 -0.033529 0.342605 0.474611 0.419483 0.338301 -0.320421 -0.817848 -0.065086 -0.579462 -0.199993 0.296512 -0.342393 0.696926 0.562346 -0.090711 0.125826 0.583621 -0.004441 -0.160565 -0.029946 -0.020120 -0.107865 0.050233 -0.421757 0.119543 0.958360 -0.171504 0.133048 0.221855 -0.040129 0.062888 0.037216 1.222781 0.497029 -0.430879 0.070774 -0.084779
389-0 -0.154811 0.727911 0.234185 -0.095742 -0.216365 0.080862 0.289780 0.146626 -0.208828 -0.000818 -0.194863 0.051236 -0.653308 -0.638124 -0.170244 0.534442 -0.079179 -0.131746 -0.459062 -0.029968 0.796447 0.359682 -0.220764 -0.612177 0.651285 -0.309170 0.156289 -0.400230 0.263067 -0.160174 -0.038382 -0.181042 0.011313 -0.619735 -0.167362 -0.172163 0.046524 -0.105126 -0.327256 0.133028 -0.124643 0.568791 0.237772 -0.371631 0.183228 0.504795 0.242348 -0.289577 0.178880 -0.387313 0.008553 0.128587 -0.076137 0.280546 0.106728 -0.092124 0.143799 -0.603344 -0.177376 -0.434193 0.180494 0.385690 1.066583 -0.184518 0.073981 0.323465 -0.367269 0.908896 0.008781 0.521390 -0.361929 -0.705798 -0.369036 0.143077 0.167479 0.421394 -0.285138 -0.227489 -0.295234 -0.484766 -0.439676 -0.237593 -0.132917 -1.075392 -0.420847 0.552279 0.342206 0.645046 0.027250 0.212564 -0.257957 0.272018 0.323834 0.265085 0.319599 -0.173752 -1.534408 -0.162617 -0.410439 0.067361 0.261107 -0.318980 -0.049351 -0.369404 0.335377 -0.010253 -0.108049 -0.700069 0.615781 -0.738098 -0.361750 -0.275069 -0.078212 0.420716 0.393059 0.055237 -0.189837 0.663081 0.231356 0.010114 -0.106175 0.103207 -0.346633 0.461272 0.952213 -0.606520 0.412133 -0.031841
1150-0 -0.417286 -0.172580 0.250277 -0.331278 0.213752 0.042345 -0.472077 -1.486734 -0.142992 0.257372 0.068439 0.813146 0.161249 -0.061963 -0.332508 0.443930 -0.205298 1.113628 0.041234 -0.432068 0.719609 -0.186580 0.038153 -0.663534 0.290932 0.047615 0.433519 -0.062742 0.045958 -0.459495 0.289775 -0.152760 0.761254 0.515716 -0.004413 -0.261338 0.012450 -0.072973 -0.160723 -0.080280 0.290943 0.395686 0.345592 -0.064515 1.058432 0.423654 -0.398600 0.096837 -0.472653 -0.579393 0.136185 0.299851 -0.700912 0.177136 -0.259058 -0.138691 -0.844072 -0.637268 -0.067209 -0.072495 0.199780 -0.134413 0.029151 0.284829 0.125806 0.991160 0.292178 0.631987 0.249265 -0.221419 0.123448 -0.327616 -0.063393 -0.075110 0.548051 0.466683 -0.107504 0.462967 0.036768 0.156438 -0.238081 -0.279111 -0.822550 0.541583 0.481909 0.223906 -0.315357 0.553925 0.459269 0.336795 0.058022 0.726344 0.844578 0.002786 0.012571 0.479560 0.137391 -0.459317 -0.264382 -0.105339 0.275033 -0.572912 -0.059918 0.193469 0.375386 -0.061111 -0.319415 -0.065881 0.120498 -0.118869 0.696193 0.215340 -0.447259 0.424393 0.314909 -0.457527 0.605818 -0.223266 0.322851 -0.555018 0.079426 -0.249463 0.001862 0.415575 -0.033643 -0.413896 -0.126064 -0.534770
780-0 -0.493070 0.442696 0.220397 0.205571 0.345110 -0.460352 0.518412 -0.379065 0.169643 0.009528 -0.261867 -0.205015 0.398558 0.219252 0.106911 -0.103721 0.450312 -0.036562 0.024448 -0.412137 0.161599 0.064137 -0.141925 -0.364765 -0.359259 0.238560 -0.034845 0.015466 0.142052 0.047782 -0.079750 0.030472 0.185739 -0.053683 0.286896 -0.076252 0.234808 -0.627785 0.415684 0.042377 0.334159 1.006703 -0.565128 0.264912 -0.182304 0.162302 -0.425989 0.421225 0.087026 -0.380182 -0.234349 -0.093635 -0.080016 -0.131245 0.026472 -0.399770 0.092060 -0.315456 -0.215163 -0.078828 -0.110546 0.108274 0.149072 0.036678 -0.130378 0.422081 0.153048 0.462543 0.425000 -0.041251 0.142350 0.383637 -0.097575 -0.578270 0.312112 0.205886 0.579331 -0.187564 -0.065307 -0.259787 0.427357 0.332038 0.240425 0.063880 -0.142892 0.111653 -0.052579 0.592876 -0.029776 -0.054811 -0.239232 -0.226523 0.289280 0.148122 0.542705 -0.142552 -0.072406 0.249883 0.400506 0.156112 -0.251533 0.031207 -0.342605 0.595917 0.371153 -0.289496 -0.078416 0.579246 -0.165447 -0.257094 -0.177229 -0.040698 0.416710 0.029367 0.059941 -0.449630 0.301644 0.075937 0.256933 0.474914 0.081683 0.058045 -0.143947 0.055837 0.287541 -0.356126 -0.071079 -0.199169
685-0 -0.053207 -0.466094 -0.049117 0.378021 0.341383 -0.287384 0.117844 -0.477128 0.042457 0.114881 0.187659 0.266706 0.078669 0.424583 -0.147144 0.235249 0.209274 0.261085 -0.096705 0.334848 0.452783 0.099742 0.336152 0.362433 -0.065850 -0.176249 0.066584 -0.160558 0.273094 0.024323 0.290414 -0.086004 0.312826 -0.023831 -0.300819 -0.136712 0.482485 -0.431452 0.276761 -0.085105 0.353098 0.380281 0.268258 0.117433 -0.334719 -0.005344 0.123557 0.375780 -0.399009 -0.251624 -0.037300 0.162835 0.369819 0.325007 -0.143802 -0.127076 -0.232886 0.132151 0.029028 -0.100495 -0.361756 -0.102096 -0.136866 0.190794 -0.347805 0.098129 -0.529737 -0.206005 0.119288 0.225767 0.511524 0.084778 -0.320905 -0.836295 0.282919 -0.584318 0.079451 -0.167258 -0.470693 -0.316359 0.019578 0.284278 -0.092324 -0.030856 0.287542 0.178630 -0.595206 0.393003 -0.273233 -0.308383 -0.780657 0.327528 0.572319 0.026047 -0.285539 0.155228 -0.505274 0.009054 0.176899 0.094144 0.036727 0.050334 0.000139 0.523430 0.028275 -0.600399 0.352477 0.113958 0.610327 -0.153634 0.015420 0.116594 0.842418 0.065928 0.063274 0.279338 -0.239740 -0.018230 0.581365 0.074103 -0.300829 0.193904 -0.589387 0.205474 -0.377884 -0.075966 0.095970 -0.078012
916-0 0.118715 0.113341 -0.776830 0.519160 -0.049064 0.486220 -0.540318 -0.134528 0.136619 0.164480 0.273962 -0.043576 0.539173 0.155718 -0.306914 0.033028 0.588623 1.240176 0.410693 0.266028 0.527902 -0.437600 -0.783198 0.021021 0.051774 -0.043078 -0.282104 0.237828 -0.412439 -0.321690 -0.020315 -0.060849 0.431503 0.033308 0.403066 -0.102882 0.429600 0.324089 0.284729 -0.187054 -0.159113 0.098292 -0.215901 -0.379343 -0.040175 0.078050 -0.570083 -0.447319 0.313233 -0.245546 0.566487 -0.323852 0.079917 -0.061072 0.136609 -0.087125 0.332950 -0.392058 -0.161871 -0.447253 0.365789 -0.009574 0.461890 0.376976 -0.804649 0.339862 -0.407349 0.198451 -0.049219 0.127096 -0.278665 -0.491998 0.064393 0.165870 0.047860 -0.060967 0.185720 -0.148589 -0.033476 -0.115802 -0.402943 0.597238 -0.379870 -0.090576 0.043905 -0.526073 0.283729 -0.404668 -0.434126 0.441478 0.042577 0.025161 0.379006 0.436239 0.054385 -0.217818 -0.291956 0.071217 -0.299682 0.314902 -0.154111 0.240062 -0.602412 -0.314749 0.042323 0.200113 -0.100505 -0.164153 0.899860 0.061023 -0.289756 -0.390471 0.406783 0.068112 0.278522 0.779928 0.124500 -0.091613 0.554840 -0.233088 -0.083876 -0.268811 -0.273911 0.595762 0.140541 -0.906805 0.363992 0.038279
855-0 -0.353765 0.029476 -0.131492 0.279193 0.842947 0.541096 0.160339 0.218230 -0.256837 0.271098 -0.814532 -0.008657 -0.133146 0.284274 -0.231030 -0.482348 -0.258714 0.484898 -0.302525 -0.489325 0.460165 0.041118 0.175643 -0.217823 -0.420891 -0.210647 -0.464335 0.342543 0.506249 -0.352777 -0.371277 -0.165732 0.687357 -0.274323 0.060822 0.743781 0.514521 0.131712 0.368554 0.158857 -0.094728 -0.058695 0.584839 -0.473504 -0.063559 0.425404 -0.768092 0.602723 0.171082 -0.457015 -0.380887 -0.174866 0.451557 0.617369 0.251686 0.173048 0.414078 -0.308860 -0.361703 -0.360295 0.131844 -0.118910 0.108660 -0.900390 -0.313637 -0.388139 -0.301747 0.373683 -0.136198 -0.220427 -0.068476 -0.156695 -0.418944 -0.093484 -0.744205 0.183232 0.109594 0.053870 -0.034359 0.274266 0.067505 -0.198509 0.584062 0.589943 0.101874 -0.803584 -0.566532 -0.110342 -0.259949 -0.084002 0.206273 0.517442 0.570641 -0.012287 0.154643 -0.572860 0.026412 0.026532 -0.817161 0.617531 -0.093662 0.095013 -0.141483 0.108403 0.096870 0.253995 0.324382 -0.098668 0.246514 0.222364 -0.252989 -0.591306 0.325105 -0.082622 -0.263742 0.280331 0.495441 -0.336543 0.465917 0.116437 0.712244 -0.139940 -0.042006 0.087020 0.187494 -0.871778 0.457761 -0.992706
848-0 0.399597 0.078919 -0.393638 -0.399046 -0.040836 -0.039275 -0.016261 -0.035516 0.465131 -0.069122 0.038215 0.479161 0.095949 -0.186590 -0.477351 0.355678 -0.077896 0.092729 0.478921 -0.115093 0.879654 -0.055401 -0.453382 -0.513855 -0.355557 0.285310 0.020314 0.503828 0.040444 0.216927 -0.008937 0.229693 0.631157 0.192357 -0.054409 -0.187396 -0.518368 -0.262059 -0.464278 0.263737 0.160946 0.167166 0.507479 0.262955 0.034768 0.510946 -0.485353 -0.160024 0.259698 0.138903 0.088495 -0.155705 0.099362 0.381861 0.237384 -0.596620 -0.261916 0.100591 0.093659 0.054117 0.133781 -0.025821 0.319980 0.111957 0.074391 0.382150 -0.125919 0.554657 -0.111562 0.380026 0.323747 -0.088320 -0.153554 0.437133 -0.110150 -0.120046 0.368551 -0.166084 0.226001 0.173132 -0.023743 -0.009757 0.148362 0.019897 0.114112 -0.196490 -0.515626 -0.308482 -0.062236 0.067466 0.506632 0.537324 0.790333 0.227123 -0.099633 -0.238999 -0.783547 -0.019376 0.286081 -0.092437 -0.285934 0.186381 0.202811 0.059980 -0.270234 -0.293122 -0.177615 -0.294100 0.363506 0.236657 -0.002164 0.173533 0.304156 -0.417131 0.509245 0.016279 -0.162551 0.066383 0.825761 -0.128074 0.020854 -0.183925 -0.591815 0.184375 0.711330 -0.460061 -0.210254 -0.453060
516-0 0.537987 -0.057279 0.245886 -0.162761 0.218352 -0.367445 0.075008 -0.385830 -0.134939 0.525147 -0.266141 0.197709 0.169350 0.125693 0.381583 0.419972 0.070383 0.451068 0.088653 -0.045655 0.362708 0.377167 0.020153 -0.469875 -0.152543 -0.244655 -0.795467 0.295909 0.227923 0.153143 -0.048301 -0.108222 0.278375 -0.109375 -0.138233 0.111184 0.283316 -0.258916 -0.107418 0.403534 0.232769 0.009384 0.110648 0.118881 0.163325 -0.247984 0.063496 -0.259326 -0.285326 -0.160738 -0.028723 0.109213 0.075898 -0.066226 -0.430809 -0.394255 -0.028434 -0.157722 -0.382289 -0.205024 0.138850 0.391655 0.105868 0.150170 -0.197119 -0.390345 0.198986 0.094136 -0.024637 0.434295 0.311321 0.195787 -0.284907 -0.626654 -0.093589 0.017673 0.156979 0.042149 -0.272737 0.301255 0.582794 0.224005 0.178681 0.181994 0.361613 0.068605 0.168168 0.096702 -0.549140 0.237174 0.078304 -0.054982 -0.471577 0.116346 0.062235 0.075719 -0.406075 0.216148 0.122686 0.156820 0.150774 0.113571 -0.382792 0.359208 -0.084464 -0.116153 -0.007964 0.349255 -0.339222 -0.712561 -0.082203 0.396940 0.260564 0.138461 0.013171 0.070330 0.238382 0.708447 0.188560 0.482004 -0.013567 -0.136827 -0.578089 0.328212 -0.035004 -0.094805 0.072599 -0.146973
2050-0 -0.792343 -0.065293 0.294216 0.606200 0.527948 -0.539685 0.229916 -0.078724 0.189367 -0.050559 0.182554 -0.471216 -0.002301 -0.410578 0.556936 0.217397 -0.248519 0.384272 0.136087 -0.170803 0.349328 0.061625 -0.037458 -0.987950 0.156997 -0.041788 -0.248413 0.076618 0.728961 -0.602770 0.531375 0.212507 0.029933 -0.431010 0.085485 0.295065 -0.131498 -0.501503 0.028271 0.544268 0.319409 0.675047 -0.084246 0.082930 -0.154570 -0.338638 -0.345368 -0.337970 -0.344050 0.087512 -0.293509 0.636364 0.289779 -0.079122 0.277669 -0.591689 0.201247 0.094308 -0.745723 -0.054414 0.904685 0.121601 -0.168712 -0.302027 -0.517581 0.577056 0.301107 0.278821 0.528632 0.300920 0.254264 -0.232077 -0.631014 0.066296 0.469524 -0.732903 0.176491 0.032475 0.220857 0.308343 -0.367640 -0.181099 -0.021193 -0.017216 0.160285 0.067029 0.234022 -0.035259 0.081705 0.438314 0.045009 0.080380 -0.303052 0.717673 0.429564 -0.123641 -0.083259 -0.407206 -0.192821 -0.045422 -0.181295 -0.401453 0.510354 0.125869 -0.143274 0.141045 0.499225 -0.306701 0.274385 -0.086090 -0.075205 0.319347 0.327541 0.022108 0.206046 0.287733 -0.040887 -0.306847 0.505762 -0.512533 -0.064699 0.227228 -0.180509 0.909501 0.448615 -0.060524 -0.247482 -0.449902
495-0 0.460151 0.234030 -0.344886 -0.089248 0.127730 0.445938 0.162896 -0.630753 0.954339 0.056789 -0.224043 0.158716 0.633788 -0.426553 0.343810 0.655160 -0.346192 0.311325 0.012545 0.027198 0.745530 -0.525372 -0.287995 -0.091298 -0.161603 -0.146514 0.585399 -0.568772 0.318569 -0.532634 0.269307 0.091617 0.306350 0.366742 0.074004 -0.023643 -0.278581 -0.250312 -0.311633 -0.277422 -0.667419 0.318021 0.450200 -0.014880 0.417723 0.581479 -0.287537 -0.545316 -0.048804 0.074638 0.062698 0.262849 -0.433416 0.271284 -0.034885 0.273186 0.148507 0.215539 -0.108756 -0.520502 -0.319745 -0.130879 0.419855 -0.398255 -0.231658 0.493152 -0.146796 0.417393 -0.049006 0.419249 0.223806 -0.550829 0.229403 -0.689862 0.029721 -0.142936 -0.349210 0.043261 -0.154393 0.387448 -0.463187 0.666456 0.237437 -0.180106 -0.700576 0.333742 -0.333124 0.073322 -0.034821 0.174856 0.532808 -0.170080 0.479530 0.386727 -0.107754 -0.341253 -0.260035 -0.103863 -0.024806 0.418574 0.366287 -0.154532 -0.147679 0.071694 -0.326643 -0.055079 -0.350028 0.439461 0.020507 0.062077 -0.297547 -0.138071 0.590843 0.276809 1.166905 0.220825 0.274264 -0.093286 0.211913 -0.136382 0.341115 0.086645 -0.528069 0.637998 0.040324 0.234090 -0.423598 -0.153788
769-0 -0.056126 -0.728020 -0.304637 0.545994 -0.204728 -0.615234 0.264678 -0.486134 -0.251062 0.179755 0.119117 0.188977 0.082985 0.172060 0.133896 0.218235 -0.117036 0.478998 -0.696991 0.737308 0.176928 -0.000074 -0.143542 -0.078686 -0.229128 -0.141690 0.035301 -0.042136 0.239219 0.043965 0.369299 -0.028203 0.269585 0.119850 -0.585597 0.165665 0.525985 -0.098580 0.040161 -0.312000 0.311866 0.709468 0.030565 0.243452 -0.432284 0.187004 -0.064345 0.192621 -0.730100 0.029740 -0.153622 0.320636 0.341238 0.233274 -0.019684 -0.396887 -0.342369 -0.083328 0.274268 -0.004538 -0.537252 0.176093 -0.265194 0.332139 -0.140534 0.333260 -0.753831 0.030310 0.022752 0.300740 0.315031 -0.064599 -0.450294 -0.516731 0.265988 -0.193118 -0.103782 -0.240549 0.155104 0.053981 0.213200 0.177599 0.259461 0.192793 0.073459 0.210363 -0.229698 0.404973 -0.301884 -0.011140 -0.187593 0.422655 0.403709 -0.340300 0.072937 0.131286 -0.449291 0.003440 0.075619 0.066370 0.230146 -0.190679 -0.051761 0.699170 0.169105 -0.748980 0.154276 0.236508 0.412351 -0.408936 0.085386 0.099552 0.823142 0.026089 -0.036146 0.413465 0.227502 -0.315282 0.362405 -0.047329 -0.164044 0.224273 -0.223156 0.237919 -0.503822 -0.261580 -0.204271 -0.218633
441-0 0.082713 -0.282738 0.517309 0.490764 0.308495 -0.190332 0.012813 -0.741151 -0.081275 0.375550 -0.062240 0.357978 -0.442525 -0.284217 -0.677449 0.073470 -0.844419 0.569956 0.179977 0.345422 0.111944 -0.180087 0.287521 -0.227907 0.094351 -0.371721 -0.210614 0.001853 -0.296953 0.059582 0.011312 0.157216 0.254435 -0.133963 0.172746 0.016992 0.291972 0.103724 0.177300 -0.562451 0.238903 0.446242 -0.234466 0.481121 0.583843 0.671434 -0.905800 -0.085578 -0.120418 -0.504136 0.218052 -0.498233 -0.036589 0.541972 -0.308773 -0.306591 -0.318036 0.090097 -0.685455 -0.312929 -0.578453 -0.214960 0.068009 -0.756797 -0.133208 -0.005562 -0.670145 0.244298 -0.106298 0.266987 -0.012528 -0.089511 -0.156645 -0.367597 -0.068063 -0.365030 -0.100296 0.188706 -0.690552 0.086379 -0.316013 -0.404144 -0.258266 -0.238021 0.567209 -0.508362 0.203820 0.518065 0.200243 -0.097030 0.474548 0.174765 0.065420 0.105658 0.298193 0.301368 -0.274710 -0.753323 0.398604 0.143911 -0.038583 0.038653 -0.392389 0.058930 -0.137017 -0.283690 0.661195 0.024565 -0.158969 -0.220965 -0.001604 -0.238700 0.257419 -0.152932 -0.078970 -0.291461 0.581805 0.235541 -0.238248 -0.215197 -0.174213 -0.089070 -0.268296 0.068331 -0.145145 -0.590269 -0.300712 -0.290762
979-0 0.749945 0.067587 -0.340520 0.091149 -0.051766 0.306734 0.250471 -0.331756 0.886808 -0.239474 -0.198669 0.150621 0.717451 -0.372983 0.252955 0.349553 -0.309175 0.438808 -0.029910 -0.151154 0.906908 -0.335861 -0.148238 0.083097 -0.289666 -0.328954 0.171493 -0.436007 0.118776 -0.369487 -0.137679 0.165113 0.128558 0.096829 0.181831 0.066333 -0.577107 -0.290087 -0.146944 -0.206503 -0.574444 0.323759 0.159486 0.021147 0.267399 0.473162 -0.217170 -0.297662 -0.142266 0.039330 -0.162903 0.204848 -0.490834 -0.007585 0.118426 0.160985 0.030228 0.052384 -0.024143 -0.337972 -0.102922 0.037980 0.564231 -0.534673 -0.370513 0.198725 -0.315829 0.600353 0.087586 0.063030 0.261470 -0.378981 0.321695 -0.758578 -0.067295 -0.161098 -0.219671 -0.218939 -0.227689 0.117538 -0.463374 0.492823 0.155629 -0.325213 -0.491138 0.143816 -0.489594 -0.017972 -0.283168 0.478083 0.296785 -0.185793 0.273647 0.474628 0.022917 -0.538716 -0.360817 0.335218 -0.188104 0.293480 0.502142 -0.055177 0.042906 -0.104145 -0.264410 -0.308880 -0.271808 0.101847 -0.020247 -0.151349 -0.358387 -0.340934 0.359535 0.473212 0.773436 0.111907 0.747483 -0.164882 0.430701 0.004804 0.000116 -0.136220 -0.748903 0.491858 0.293533 -0.207092 -0.149578 0.005517
673-0 0.386734 -0.154088 0.208407 0.539640 -0.015733 -0.057139 0.643701 -0.555725 0.183903 0.386624 -0.085493 0.178487 0.298801 0.756980 -0.001680 0.131402 0.397788 -0.116089 -0.281882 0.247169 0.433401 0.378008 -0.253478 -0.523898 -0.584493 -0.252464 -0.199844 0.138886 0.070644 0.286132 0.233130 0.014403 -0.035635 -0.032965 -0.204408 -0.271755 0.214263 0.218183 0.216559 -0.266312 0.294011 -0.239487 0.067176 0.701385 0.205800 0.081401 0.221650 -0.011006 -0.448293 0.015036 -0.030786 -0.075303 0.241262 0.299029 -0.408423 -0.397271 0.128726 -0.071707 -0.136285 0.042758 -0.237819 0.433674 0.236301 0.121544 -0.508505 0.075213 -0.284461 0.041693 -0.084804 0.437833 0.115197 0.453634 0.004496 -0.485269 -0.005531 0.518919 0.397566 -0.140814 -0.140112 0.167520 0.144387 0.227250 0.217331 0.701985 -0.210775 0.065800 -0.142124 0.071477 -0.392030 0.117793 -0.170156 0.076567 -0.031097 0.127957 0.054020 0.165640 -0.165856 -0.033297 0.138178 -0.067412 0.244905 0.028265 0.350262 0.969096 0.247541 -0.072333 0.074860 0.476933 0.137624 -0.690768 0.008648 0.173129 0.575540 0.085909 0.046008 0.202607 0.406293 -0.143288 0.391869 0.150590 0.514860 0.131330 -0.128102 0.337673 -0.093384 -0.471816 -0.329033 -0.217131
51-0 0.422885 0.198010 0.156925 -0.104781 0.362910 -0.066167 0.174994 -0.526676 -0.024960 0.569764 -0.611314 0.311188 0.011905 0.161857 0.370593 0.355758 -0.169065 0.544565 0.220583 -0.126616 0.161112 0.290910 -0.148372 -0.420576 -0.179146 -0.306246 -0.625726 0.487599 -0.106437 0.363589 -0.033033 -0.054112 0.383838 -0.032664 -0.248746 0.233783 0.155715 0.066941 0.015179 0.200970 0.301442 -0.007761 0.086292 0.048251 0.215682 -0.206081 0.135607 -0.332520 -0.325231 0.104789 0.229780 -0.266441 0.090536 -0.139135 -0.247689 -0.459554 -0.107204 -0.129159 -0.305636 -0.210470 -0.090387 0.393144 0.349780 0.076240 -0.229262 -0.262399 0.205744 0.090310 0.032120 0.394235 0.351981 -0.028427 -0.267141 -0.548057 0.038112 -0.021978 0.191888 -0.026207 -0.159242 0.178046 0.218332 0.113141 0.247572 0.525260 0.382349 0.205022 -0.015277 0.108279 -0.251725 -0.030522 -0.028150 0.066360 -0.459166 0.140530 -0.213954 -0.188980 -0.262757 -0.161011 0.007401 -0.020112 -0.225313 0.102125 -0.319196 0.180544 -0.244247 -0.027752 0.101726 0.317962 0.018971 -0.355114 -0.219118 0.528098 0.143963 0.158378 -0.071143 0.021106 0.360720 0.732798 0.141413 0.431540 0.339118 0.026444 -0.471370 0.498898 -0.167805 -0.208734 -0.176133 0.058523
416-0 -0.069954 0.170994 0.300796 -0.541121 -0.125335 -0.250674 0.055590 -0.194163 0.664043 -0.352562 -0.179268 -0.324650 0.486546 0.091772 0.267342 0.282410 -0.185123 0.016015 -0.595496 -0.004545 0.966728 -0.085816 0.097423 -0.203013 -0.137124 0.667108 0.366004 0.104939 0.091988 -0.347083 -0.054223 0.182978 -0.168225 -0.085119 0.603344 0.309261 -0.434377 0.297212 -0.193388 -0.310377 0.047752 0.331345 0.387778 0.054901 0.422509 0.205005 -0.704879 0.093257 -0.590460 -0.106411 -0.456493 0.340915 -0.398315 0.095215 0.104183 -0.184617 -0.259776 -0.552832 -0.283224 -0.811686 -0.010306 0.417164 0.524587 -0.274825 -0.163990 -0.493195 0.016664 0.296919 -0.558548 0.273366 0.722948 -0.411046 -0.175119 -0.056763 -0.156340 -0.063755 -0.361358 -0.651453 -0.671410 0.288541 -0.179230 0.625260 -0.195792 -0.533031 -0.356894 0.188980 -0.077772 0.389593 -0.107197 0.040008 0.241469 -0.300429 0.653223 0.450635 -0.471785 -0.288082 -0.224187 0.256432 -0.608467 0.228771 0.145766 0.153697 -0.398534 0.057961 0.575323 -0.425960 -0.782727 -0.243508 -0.429318 -0.131497 -0.282413 0.001020 -0.020551 -0.211787 0.006305 0.216548 0.362237 0.157338 0.312085 -0.499038 0.301905 0.049877 -0.423195 0.676411 0.457489 -0.196851 0.062570 -0.711031
295-0 -0.296255 -0.654978 0.269192 0.683882 0.228013 0.213822 0.378309 -0.367375 0.290005 0.076022 -0.133028 0.024598 0.276918 0.136936 -0.034298 -0.431939 0.020994 0.338431 -0.184661 -0.261449 -0.091696 -0.663731 0.300268 -0.025612 -0.261182 0.529315 -0.343578 -0.027317 -0.104225 0.500292 0.403678 -0.030399 -0.216602 0.064589 0.437635 -0.014189 0.061286 -0.230863 0.247362 0.378396 -0.087229 0.479966 -0.383435 0.790542 -0.325180 -0.598478 -1.047656 0.234879 -0.021782 0.481270 0.209528 -0.103253 0.108964 -0.276984 -0.007262 -0.491588 -0.328845 -0.748732 -0.440543 -0.413240 -0.018181 0.555848 0.585837 -0.176787 -0.050095 0.511996 0.029447 0.226569 0.329937 -0.034173 0.479489 -0.031114 -0.616321 -0.555022 -0.204218 -0.048283 0.191060 0.038497 0.301973 0.090019 -0.190107 -0.065744 0.138784 0.035633 -0.005598 0.470266 0.080089 0.414304 0.128071 -0.361842 0.653260 -0.354430 0.417613 -0.131086 0.095925 -0.191496 -0.433842 -0.582275 0.165181 0.432656 -0.200606 -0.730494 -0.045440 0.366987 -0.249037 0.229176 0.251413 0.481688 0.018494 -0.084905 0.112653 -0.439040 0.330067 0.659366 -0.117421 0.012061 0.465963 -0.706835 -0.319207 0.861031 0.159259 -0.160819 -1.027778 0.255217 -0.223419 -0.365372 0.594092 -0.187351
748-0 0.869050 -0.345029 -0.037005 0.180726 0.607657 -0.230280 -0.128295 -0.456512 -0.301463 0.328537 0.372419 0.509158 0.381252 0.313848 0.276608 0.147057 -0.229548 0.550095 -0.843462 0.329995 0.145766 0.018333 -0.291480 -0.124140 0.142264 0.115330 -0.010322 -0.026760 0.287245 0.441768 -0.342654 0.533823 0.557181 -0.308091 -0.329729 -0.276939 0.491319 0.224936 0.227804 0.407271 -0.156758 0.034587 0.048913 -0.022275 -0.215607 -0.099729 -0.278405 0.214281 -0.629278 -0.304902 0.226445 0.175147 0.166462 -0.047121 0.055425 -0.362000 -0.070275 0.205281 -0.304133 0.043859 0.047894 0.208123 0.141625 -0.186257 -0.028854 0.035163 0.374757 0.409549 0.179303 0.300728 0.354428 -0.161745 -0.399492 -0.375249 0.319785 0.463071 -0.144990 -0.320204 0.182545 -0.209864 0.008672 0.391285 -0.188009 0.452594 -0.128506 -0.139944 0.021001 0.588425 -0.068619 -0.002659 -0.028789 0.115531 -0.026263 0.224251 0.254335 -0.297792 -0.365763 -0.117738 0.227002 0.192260 -0.567995 0.469828 -0.349146 -0.148552 0.134941 -0.632276 0.066766 -0.122520 -0.051235 -0.113816 -0.383179 0.243923 -0.286504 0.147920 0.026183 0.171798 -0.022872 0.583892 0.270020 0.274612 0.339825 -0.039823 -0.435511 -0.136459 0.279283 -0.221602 0.035484 -0.124120
686-0 0.058679 -0.221112 -0.115065 0.333315 0.191002 -0.438099 0.154418 -0.554304 0.215837 0.001958 0.460371 0.042451 0.060255 0.283692 0.176764 0.235272 0.227590 0.027417 -0.270165 0.459310 0.649810 -0.043319 0.273862 -0.114880 0.248852 -0.106747 -0.043926 0.299160 0.167200 0.086819 0.100053 0.118069 0.334352 0.023378 0.027421 0.034528 0.669736 -0.179174 0.131191 -0.204455 0.304777 0.445099 -0.018795 0.251873 -0.137680 -0.239259 0.123523 0.351328 -0.530036 -0.187093 0.220366 0.197745 0.436048 0.644945 0.148164 -0.285691 -0.140639 0.500446 0.345291 -0.188248 -0.512684 0.115396 -0.313783 -0.127129 0.006965 0.079651 -0.598063 -0.343042 0.428891 0.464454 0.366674 0.334116 -0.475635 -0.979204 0.220267 -0.234516 -0.145595 -0.053299 -0.241302 -0.049246 -0.044716 0.515709 0.198085 0.271840 0.026456 -0.001614 -0.728561 0.593049 -0.303416 -0.328259 -0.369101 0.096319 0.442997 -0.157103 -0.092289 -0.036550 -0.438503 0.211873 0.197107 0.360975 0.004768 0.120895 -0.107886 0.750438 0.295781 -0.343562 0.053858 0.185892 0.611942 -0.678831 0.269770 -0.058206 0.754573 0.004992 -0.135679 0.369466 0.036458 -0.160486 0.349511 -0.011643 -0.417645 0.335177 -0.383505 0.429856 -0.356876 -0.448254 0.097421 -0.023580
1004-0 0.551496 0.240550 -0.144073 -0.354223 0.289197 0.017483 0.503003 -0.099755 -0.206311 0.634108 -0.561055 -0.225893 -0.172988 0.198929 -0.188970 0.614711 -0.127233 0.469623 -0.173326 -0.000016 0.077862 0.679462 -0.065108 -0.551815 -0.565975 0.084837 -0.572345 0.229630 0.151821 -0.076647 -0.016031 -0.136941 0.239457 0.247980 -0.390324 -0.032754 0.046819 0.003144 0.004365 -0.108678 -0.146722 -0.313746 0.231893 0.063664 -0.115093 -0.440882 -0.267220 0.303382 -0.267953 0.294449 0.244168 0.348451 0.263251 -0.467385 -0.119326 -0.498073 -0.020807 -0.051314 -0.538368 -0.619982 -0.516828 0.244183 0.231729 -0.348253 -0.220956 -0.227782 0.270765 -0.523829 0.148512 0.634314 0.231065 -0.096479 0.230120 -0.526285 0.596832 -0.265142 0.073679 -0.066321 0.072138 0.414752 0.188140 0.225580 0.129895 0.388042 0.226900 0.139129 0.235214 -0.149125 -0.241938 0.105041 0.112462 -0.095355 -0.050678 -0.044600 -0.189661 0.329591 -0.950654 0.344723 -0.048729 0.021283 -0.147250 0.146760 -0.292105 0.317842 0.254571 -0.145932 0.054751 0.252543 0.219212 -0.475685 0.243989 0.090439 0.531746 -0.085422 -0.047792 -0.014996 0.263053 0.233339 0.201719 0.171369 0.438622 0.016774 -0.696849 0.298059 -0.207982 -0.080194 0.290551 -0.212333
1599-0 -0.751340 -0.475082 -0.097232 0.963124 0.526769 0.289274 -0.556890 -0.213986 -0.140879 0.305691 -0.620278 -0.343429 0.109564 -0.195514 0.508802 0.667749 0.828440 0.706814 -0.671506 0.685805 0.375058 -0.195219 0.040353 -1.251920 0.227477 -0.392231 0.023920 -0.916522 -0.035487 0.170148 -0.449657 0.158199 0.180762 0.081148 0.025433 0.543361 -0.015923 -0.466592 -0.176237 0.738748 -0.507448 0.748397 0.969282 0.218124 -0.435728 0.327328 -0.171890 0.329798 -0.161964 -0.535859 0.606202 0.161686 0.496818 -0.681651 0.318450 -0.558944 0.273657 -0.132598 -0.384640 -0.060790 -0.019660 0.290339 1.107530 -0.355972 -0.644416 0.548993 0.106059 -0.202868 -0.278932 0.346756 -0.348030 0.392255 -0.277762 0.090707 0.297056 0.625370 0.039210 -0.040580 0.271595 0.018102 0.084341 0.320454 -0.580160 0.156137 0.852701 1.248651 -0.337151 -0.436263 -0.153910 -0.092445 0.780304 0.248893 0.241196 0.489417 -0.103972 -0.314119 -0.324751 -0.237016 0.112764 -0.421040 0.514942 -0.343400 -0.335595 -0.274387 0.236120 0.194569 0.528509 1.005438 -0.253902 -0.242508 0.219030 -0.228930 0.380243 -0.271797 -0.180026 -0.322187 -0.067536 0.436874 -0.201357 0.115505 0.668154 -0.177760 0.294972 0.710194 0.652606 -0.012170 0.987332 -0.212169
57-0 -0.111806 0.379877 0.735535 0.904620 -0.115653 -0.173968 -0.469844 -0.375721 -0.172522 0.421753 -0.514792 -0.765903 0.254740 0.810655 0.404907 0.301004 0.055731 -0.036370 -0.742041 0.571306 -0.061738 -0.092889 -0.438499 -0.848094 0.636372 0.116774 -0.178117 0.118506 -0.062669 0.078072 0.567981 0.077034 0.927036 -0.539952 -0.004987 0.174518 0.236456 -0.086484 0.015209 0.407846 -0.821147 -0.086524 0.324879 0.278432 -0.045698 0.283942 -0.032081 -0.071524 0.692101 -0.438354 0.009800 -0.572381 0.477173 -0.585985 0.256693 -0.208168 -0.481017 -0.188108 -0.245089 0.166214 0.022097 0.111794 0.884895 -0.322776 -0.342280 0.250823 -0.397237 0.570881 0.080763 -0.173808 -0.607366 0.387543 -0.027998 -0.362890 0.196766 -0.088448 -0.352688 0.004423 -0.011633 0.002801 0.167053 0.637509 -0.023659 -0.072938 0.499320 0.214750 -0.571075 0.291202 0.261872 0.105692 0.670225 0.813291 0.764596 0.131706 -0.116017 -0.418571 0.319442 0.408845 -0.676327 0.339298 0.425927 0.082367 0.310175 -0.122295 0.424468 0.395890 -0.176992 0.570108 -0.179950 0.111145 0.414553 -0.005734 0.270430 0.574304 0.715864 -0.334714 1.045296 0.296333 0.116242 0.064704 0.164772 0.045977 0.299906 0.351485 0.293791 -0.207227 -0.070712 -0.557535
2996-0 0.001547 -0.437073 1.001108 0.012531 -0.178966 0.897508 0.319550 0.612455 0.326139 1.003937 0.733989 0.490240 0.234563 0.199133 -1.121681 0.823741 -0.400407 1.084775 -0.896547 0.444121 0.343181 -0.065152 0.434783 -0.189060 0.237291 -0.078182 0.100304 0.050485 0.572174 -0.268877 0.175890 0.157029 -0.291007 0.046129 -0.821465 0.506163 -0.316872 0.257800 -0.418713 -0.565900 -0.288683 0.018474 -0.092823 0.289607 -0.433500 -0.610186 -0.493181 0.239058 -0.640628 -0.020909 0.100628 0.023205 0.959081 -0.215473 -0.041483 -0.289110 0.345834 -0.170298 -1.510361 -0.825873 -0.460264 0.536195 0.744160 0.216363 -0.086306 0.245459 -1.058609 0.330802 0.670082 -0.451873 0.665396 0.985200 -1.068252 -0.519250 1.057721 0.798738 -0.250600 0.090501 0.292496 0.538879 -0.100715 1.078430 0.528226 0.593111 -0.363425 0.577554 -0.117152 0.015568 0.381368 0.970994 -0.038559 0.470148 -0.010778 -0.415745 -0.208434 0.378290 0.134766 0.384809 -0.427268 0.668850 -0.413668 0.768617 -0.524467 -0.787217 -0.012148 -0.247810 -0.571943 0.222506 1.122548 0.311854 -0.334718 -0.078760 -0.028221 -0.276363 0.293189 -0.913604 -0.022068 -0.782759 -0.048664 0.248065 -0.796249 0.401273 0.190980 0.058773 0.141739 -0.134298 -0.185941 -0.387578
40-0 0.034121 -0.142546 0.281453 -0.293004 -0.481944 0.034968 0.587886 0.086495 0.271107 -0.059884 -0.312569 0.618508 -0.300770 0.363111 -0.299472 0.425641 0.563479 0.626281 -0.160655 0.049640 0.678062 -0.156316 -0.625800 -0.525087 -0.026595 -0.182711 -0.125540 0.457564 0.844218 0.363568 -0.215962 0.242938 0.215567 0.343809 -0.441279 -0.023016 0.114324 -0.212269 -0.198001 -0.403864 -0.543355 0.334767 0.349623 0.232645 0.251111 0.372044 -0.174700 0.117424 -0.107630 0.203041 0.093830 0.301405 -0.415446 0.751508 0.123837 -0.386548 0.446907 -0.154392 -0.073017 -0.149063 -0.029102 -0.362559 0.325118 -0.736813 -0.708301 -0.182328 -0.173989 0.579751 0.133415 0.328158 0.765538 -0.730087 0.238069 -0.121334 -0.256844 -0.010384 -0.220254 -0.305827 -0.554397 0.100693 -0.444528 0.505188 -0.404994 -0.591547 -0.434763 -0.109160 -0.779191 -0.192973 0.257727 0.066219 0.161824 0.425346 0.660961 0.139147 -0.447475 -0.746593 -0.086343 0.353322 -0.318556 0.922986 0.157553 -0.358033 0.359012 -0.131119 0.352318 -0.047845 -0.058975 -0.185689 -0.278827 0.017939 -0.591958 0.131860 -0.109807 0.159751 0.142417 0.341289 0.192786 0.079400 0.486769 -0.268116 -0.014380 -0.440007 -0.547557 0.780371 -0.207700 -0.179297 -0.053883 -0.264745
1707-0 -0.611190 0.460588 -0.174045 0.599931 -0.118802 0.663242 0.809126 0.111581 -0.130927 0.577248 0.135689 0.376640 -0.584415 -0.628581 0.038236 -0.057700 -0.113064 0.324080 -0.350775 0.468955 0.273033 -0.691736 -0.196167 -0.033478 -1.220191 0.165039 -0.364858 0.603305 -0.505272 0.505073 0.446774 -0.328671 1.063256 -0.429421 0.528891 0.338631 0.105891 0.372955 -0.116054 0.060009 -0.313864 0.528189 0.466758 0.755951 -0.096817 0.544115 0.178912 -0.149044 -0.986194 0.171985 -0.296930 -0.125165 -0.256053 -0.258971 0.419335 0.399214 -0.149730 0.022952 0.058257 -0.130795 -0.082888 0.626400 0.102730 -0.632228 -0.047232 -0.744590 0.489037 -0.096914 0.113073 -0.335689 -0.119293 -0.359050 -1.005223 0.277487 0.767383 -0.034127 -0.006774 0.056312 -0.323594 -0.257433 0.060145 0.285059 -0.275005 0.090654 -0.252133 -0.295259 -0.685411 0.670570 -0.177967 0.357600 -0.374956 0.633193 0.196062 -0.333406 0.074882 -0.416979 0.362445 0.045159 -0.229099 0.302289 -0.333922 -0.114521 -0.633602 -0.085221 0.702651 -0.546840 0.414665 -0.422529 0.340452 -0.200966 0.194997 0.314731 0.786697 0.563449 0.290857 0.359608 0.346380 0.314139 -0.284237 -0.091011 -0.189640 -0.139533 -0.383992 1.167506 0.025901 -0.455369 -0.161231 -0.180667
1747-0 0.374769 0.876397 0.242695 -0.167875 0.744495 0.931280 0.719978 0.243097 -0.046063 -0.208727 0.387861 0.062543 0.229088 -0.038177 0.245394 -0.298230 -0.659530 0.607458 0.077611 -0.061548 0.538382 -0.582208 -0.513246 -0.471624 0.074776 0.125602 0.119173 0.029012 0.337265 0.302373 0.480992 -0.255098 0.948974 0.141088 0.350436 0.170990 0.597966 0.252185 0.440700 0.177080 0.528427 0.140636 0.455364 0.809551 0.422716 -0.625998 -0.775392 -0.059618 -0.574858 0.038379 0.205037 0.612596 0.090645 0.036289 -0.486823 -0.053745 0.516849 -0.948094 0.426857 -0.272490 -0.596674 -0.410354 0.452215 -0.435547 0.069692 -0.594698 -0.652059 -0.728832 -0.063119 0.472580 -0.725472 0.749310 -0.437893 -0.039236 -0.132501 0.553412 0.206563 -0.973791 -0.810570 -0.477625 0.304638 0.542265 -0.550436 0.053970 0.292880 0.133507 0.062332 0.713742 -0.262178 0.999153 0.704474 0.821215 0.592392 0.189108 0.053264 -0.031630 -0.414494 -0.548894 -0.404003 0.256327 -0.356631 0.676731 0.188447 -0.362891 -0.129324 -0.317398 -0.548190 -0.061697 0.040068 0.024840 -0.255204 0.661550 -0.002736 -0.152515 -0.023038 -0.351206 -0.212876 0.292533 -0.125775 -0.161623 0.125171 0.037440 -0.335019 -0.337697 0.508332 0.018011 0.643821 -0.475978
2832-0 -0.502135 -0.640545 -1.184977 -0.069684 0.038868 0.939875 -0.048204 1.137861 0.088710 1.010427 0.016129 -0.279745 0.289613 0.706434 -0.124172 1.052227 -0.129371 0.092913 0.060273 0.545076 0.447515 -0.555106 -1.189458 -0.965435 0.095681 0.423974 -0.196628 -0.407244 0.107566 0.111410 0.668495 -0.093049 0.682198 0.032713 -0.109446 -0.075269 0.550466 0.175957 0.821370 0.496940 1.167890 1.082731 0.701901 0.570834 0.123042 0.292171 -0.601671 0.482164 -0.346620 0.025571 -1.227206 -0.789276 0.430005 0.108567 0.274797 0.444857 0.029396 -0.273240 -1.392225 0.311248 -0.161846 -0.933673 0.522193 -0.595625 -0.204347 0.250366 -0.369471 -0.077642 0.096675 -0.423229 -0.192821 -0.031506 -0.157687 0.040157 0.512214 -0.032311 0.349348 0.179218 0.164926 -0.048494 0.935466 0.027116 -0.096976 0.343341 -0.562721 -0.164270 -0.287903 0.464059 -0.107428 -0.312506 0.258731 0.328432 -0.306675 -0.178217 0.165840 -0.970504 -0.702453 0.682363 -0.562967 0.198103 -0.850277 -1.113236 -0.583620 -0.417404 -0.137269 -0.146765 0.437480 -0.089871 -0.667382 -0.305576 -0.896650 -0.285542 0.258756 0.596236 0.452923 -0.079585 -0.643613 -0.091511 0.381589 -0.390633 0.519269 0.134733 -0.377344 0.421250 -0.310929 -0.018132 0.195761 -0.197321
338-0 0.761910 -0.143126 0.102224 0.121186 0.345545 -0.560162 0.468529 -0.392651 -0.044867 0.804427 -0.455343 -0.157308 0.104478 0.181586 -0.073172 -0.302361 -0.028184 0.453580 0.302217 0.063333 0.095401 0.039374 0.203583 -0.973924 -0.443049 0.063529 -0.038733 0.763236 0.343972 -0.246003 -0.295664 -0.561275 0.240251 0.104276 0.057556 0.532332 0.183740 -0.378434 -0.089657 -0.244604 -0.066142 0.494367 0.603181 0.648711 -0.154585 -0.233057 -0.093456 0.141031 0.128617 -0.234759 0.310355 0.680188 0.294118 -0.268317 -0.126285 -0.293966 0.043645 -0.468736 -0.921832 -0.337954 -0.177121 0.180403 0.327001 -0.345310 -0.187678 -0.235735 0.293695 -0.135148 0.114921 -0.050634 -0.103431 0.168462 -0.178389 -0.413629 0.591700 -0.059927 0.254638 0.364170 -0.051382 -0.133121 0.620843 -0.007605 0.001523 0.112933 0.030811 0.257335 0.315950 0.395234 -0.361973 0.458337 -0.237345 0.011073 0.036925 0.104444 0.470944 -0.179645 -0.215388 0.469888 0.127945 -0.286861 0.199818 0.035940 -0.528538 0.665428 -0.183662 0.023360 -0.615382 0.066858 -0.035653 -0.435267 0.162839 0.089612 0.240831 -0.055319 0.071155 0.309232 0.098335 0.297857 0.143024 -0.092988 0.204185 0.070321 -0.549849 -0.390021 -0.124234 -0.708563 -0.046495 -0.488646
1000-0 0.692852 -0.372090 -0.000866 0.183951 0.333582 -0.214757 -0.292215 -0.585532 -0.089641 0.480234 0.200890 0.593049 0.405441 0.487943 0.364249 0.077958 -0.123359 0.470775 -0.614112 0.442691 0.086276 0.162719 -0.498010 -0.256264 0.065467 -0.026776 -0.186388 -0.195338 0.179194 0.350785 -0.264784 0.427152 0.498326 -0.139564 -0.399274 0.055458 0.287184 0.368101 0.336493 0.118252 0.032443 -0.057301 0.069630 -0.240211 -0.264684 -0.085441 -0.254140 0.229324 -0.363405 -0.315822 -0.009599 0.160195 -0.021520 -0.274017 0.058858 -0.142271 -0.282453 0.234989 -0.276891 -0.116304 -0.293816 0.286992 0.204248 -0.235542 -0.027233 0.099970 0.264797 0.519108 0.459248 0.291642 0.344634 -0.083630 -0.350859 -0.316693 0.598530 0.203123 -0.040043 -0.177898 0.252502 -0.219740 0.233221 0.448486 -0.222841 0.257990 -0.107984 -0.125819 -0.074589 0.871701 -0.129214 -0.245987 0.018058 0.029461 -0.301271 0.248297 -0.023428 -0.251966 -0.346314 -0.155016 0.076920 0.093446 -0.656388 0.349149 -0.416440 -0.174444 0.319588 -0.214406 0.185705 -0.241289 -0.024086 -0.290917 -0.387473 0.427148 -0.060273 -0.006548 -0.232678 0.153738 0.029531 0.747117 0.055956 0.253023 0.388064 -0.057338 -0.336968 -0.003019 0.332476 -0.469516 -0.194403 -0.101060
2137-0 0.293723 0.324019 -0.641089 -0.158545 0.319401 1.039978 -0.971607 0.127350 0.854323 0.397279 0.604806 1.394749 -0.843300 -0.227262 0.742358 0.396094 -0.097472 0.461446 -0.428663 -0.628497 0.599491 -0.905090 0.285921 -0.971583 0.339192 -0.247006 0.138470 0.733228 0.436894 -0.375419 0.169804 0.036951 0.636354 -0.522458 -0.276070 -0.214864 0.334740 0.539561 0.086385 -0.395851 0.781106 0.244634 0.188133 0.039012 -0.093375 -0.227105 -0.506103 0.652219 -0.935864 -0.529172 -0.382177 -0.279832 0.492315 -0.008508 0.498436 -0.263570 0.557623 0.178090 -0.695441 0.479128 -0.160634 1.113277 0.396721 -0.575617 0.206608 0.030784 -1.231137 1.234267 -0.343355 -1.086893 0.084665 0.400694 -0.095093 -0.134645 0.641995 0.645211 -0.106261 0.388345 0.538715 -0.149884 0.523492 -0.306714 -0.719896 -0.730249 -0.277789 0.352768 0.381775 0.620204 -0.128026 -0.319408 0.014883 0.123045 0.356924 0.148185 0.232805 -0.853900 -0.717044 0.927889 -0.853675 -0.376193 -0.498823 -0.030636 -0.222248 -1.069128 -0.122473 0.404866 0.332840 0.323891 0.469936 -0.848936 -0.271028 -0.386479 0.249029 0.771542 -0.399789 -0.863697 -0.335142 0.380658 0.648533 -0.022389 0.141714 1.095758 0.381535 0.277816 0.845581 -0.500793 0.142226 -0.197772
999-0 0.615886 -0.352898 0.048724 0.164050 0.550985 -0.232920 -0.059496 -0.646107 -0.274666 0.583602 0.339750 0.536443 0.307114 0.295260 0.358925 0.048454 -0.130688 0.570069 -0.622702 0.376157 0.149168 0.131110 -0.318279 -0.146075 0.098637 -0.027029 0.133435 0.107431 0.349223 0.254446 -0.414970 0.354963 0.710915 -0.383134 -0.202191 -0.227504 0.623985 0.240350 0.336847 0.222526 -0.142535 -0.135128 0.171763 -0.034246 -0.008686 -0.020873 0.025891 0.178094 -0.295296 -0.191979 0.121688 0.054835 0.108847 0.009045 -0.117953 0.028460 -0.186019 0.327311 -0.310999 0.028071 -0.121227 0.284630 0.175925 -0.045056 -0.119862 0.107417 0.414536 0.348612 0.367229 0.376998 0.426199 -0.155001 -0.370258 -0.525999 0.411509 0.448976 -0.176783 -0.015428 -0.005531 -0.110607 0.046706 0.448290 -0.280609 0.254699 -0.142466 -0.200793 -0.261022 0.470543 -0.022903 -0.124682 -0.167555 0.158998 -0.035013 0.406182 0.327706 -0.302816 -0.192492 -0.241999 0.155653 0.194425 -0.397615 0.378908 -0.272972 -0.088845 0.105581 -0.491848 0.152848 -0.163676 -0.142039 -0.289367 -0.519846 0.275901 -0.136766 0.086388 -0.042800 0.085711 0.059373 0.763169 0.086089 0.372769 0.248224 -0.185081 -0.309720 -0.210765 0.426057 -0.361373 -0.064912 -0.028378
2024-0 -0.266245 0.045710 0.009492 0.637662 0.078210 -0.323952 -0.086917 -0.905242 -0.396513 0.812669 0.440439 0.018541 -0.295669 -0.147685 -0.683770 -0.177042 -0.703978 0.665927 0.111906 0.027296 1.066564 -0.215652 0.227708 -0.671434 0.488183 -0.407365 -0.081922 -0.017705 -0.115326 -0.094759 0.321305 0.090616 0.039316 0.201921 0.372890 -0.210768 0.372229 -0.168632 -0.143524 -0.624654 -0.063826 0.244664 0.582492 -0.100509 0.919164 0.692316 -0.493070 0.334515 0.147205 -0.330392 0.298635 -0.367685 0.043328 0.324178 -0.299280 -0.259411 -0.168152 0.294097 -0.228820 -0.583062 0.272979 -0.298274 0.158567 -0.210904 -0.235360 0.082482 -0.551751 0.486330 0.555691 -0.164070 0.011365 -0.049136 0.484695 -0.169144 0.153836 0.431519 0.083911 0.916486 -0.534072 0.409100 0.180590 -0.124473 0.097050 -0.094089 0.430982 0.133865 0.063353 0.749828 0.131034 -0.013638 0.371203 0.136328 0.148066 0.083727 0.387515 0.396635 0.050493 -0.639610 0.375809 0.349540 -0.244050 -0.221605 -0.442176 0.081801 -0.293137 -0.275697 0.316367 -0.022984 -0.097520 -0.053320 -0.073366 0.679063 0.104514 -0.110059 -0.106623 -0.149465 0.270369 0.174607 0.016964 -0.440417 -0.093606 0.052873 0.076132 0.197455 -0.283709 -0.585728 0.096724 -0.999973
422-0 0.673511 -0.451443 0.198090 0.112393 0.797819 -0.182543 -0.257515 -0.436135 -0.258624 0.610062 0.279973 0.566510 0.728748 0.440420 0.103546 -0.038093 -0.435426 0.607906 -0.823064 0.231706 0.370350 0.216677 -0.209839 -0.204815 -0.174336 0.108966 -0.055681 -0.056837 0.266402 0.174112 -0.715048 0.226968 0.353335 -0.377249 -0.373969 -0.244138 0.390978 0.410252 0.107578 0.312476 -0.081237 0.100574 -0.065716 -0.182035 -0.428683 -0.091851 -0.028215 0.212520 -0.561956 -0.379559 0.235584 0.151782 0.052868 -0.219400 0.489731 -0.582853 -0.324779 0.073742 -0.366783 0.020335 0.060843 0.205287 0.207002 -0.136266 -0.278482 0.038177 0.296416 0.387290 0.222341 0.012319 0.207661 -0.166826 -0.319229 -0.301804 0.913652 0.441847 -0.273373 -0.295689 0.434666 -0.072975 -0.103354 0.235086 -0.124241 0.234743 0.094191 0.147812 -0.040770 0.750567 -0.496222 0.183497 0.144858 0.176375 0.025992 0.001811 0.176388 -0.211316 -0.385451 0.091309 0.005909 -0.091593 -0.406886 0.294193 -0.140811 0.020721 0.210138 -0.289365 0.226465 -0.097414 -0.370321 -0.371486 -0.419783 0.397677 -0.196506 0.365901 0.071013 0.191957 -0.023445 0.466533 0.060786 0.080390 0.406521 -0.185804 -0.624120 -0.018973 -0.125684 -0.347530 0.007386 -0.158088
1980-0 -0.787655 -0.140965 -0.023334 0.360654 0.118930 -0.495528 0.243831 -0.114170 0.107854 -0.043218 0.576728 -0.426587 -0.040891 -0.344877 0.839318 0.341071 0.048789 0.450293 0.128047 -0.108000 0.370980 0.255652 0.025151 -1.155008 0.067961 0.098917 0.039280 0.230801 0.729709 -0.519921 0.467882 0.033205 0.029397 -0.606394 0.080474 0.487027 -0.168874 -0.531520 -0.237852 0.613040 0.175897 0.458003 -0.133342 0.031815 -0.176042 -0.382070 -0.532147 -0.192399 -0.269017 -0.139539 0.000605 0.815061 0.123441 0.129668 0.264885 -0.448491 0.269955 0.104540 -0.767129 -0.325159 0.762072 -0.125684 0.013580 -0.702665 -0.323699 0.361134 0.477355 0.048872 0.188701 0.226068 0.221263 -0.538437 -0.603380 0.130078 0.727211 -0.635521 -0.036902 -0.089008 0.527991 0.428521 -0.441526 -0.197569 -0.150186 0.060337 0.142652 -0.013416 0.141778 -0.288690 -0.364553 0.404590 -0.021780 0.029658 -0.240367 0.531682 0.313531 0.130669 -0.262056 -0.284792 -0.236098 0.008746 -0.279976 -0.505910 0.423408 0.261764 -0.103572 0.156966 0.308858 -0.072580 0.308310 0.086763 -0.110953 0.187976 0.585184 -0.033042 0.111362 0.283387 0.012115 -0.559609 0.574398 -0.327819 -0.132230 0.306283 -0.519174 1.225123 0.208491 -0.129452 -0.441922 -0.543176
862-0 -0.044089 -0.032932 1.187999 0.225618 0.511532 0.314319 0.586927 -0.437225 0.208720 0.417511 0.209077 -0.136000 0.269806 0.231506 0.299854 -0.497759 0.331280 0.239217 -0.502284 -0.239356 0.754128 -0.060339 -0.261143 -0.329913 -0.149275 0.066239 0.181419 -0.062511 0.499813 0.097815 0.580200 -0.282977 0.958242 -0.210521 0.626628 0.129866 0.494388 -0.220401 -0.455104 0.038533 -0.042216 0.588122 -0.457345 1.221624 -0.373719 -0.484645 -0.491850 0.317672 -0.052372 0.141413 0.357813 -0.277233 0.238821 0.130838 -0.113634 0.018169 -0.291444 -0.527799 0.256450 0.102333 0.225359 0.259151 0.129126 -0.403590 0.070112 0.231784 -0.431078 0.179931 0.501374 0.034028 0.446958 -0.347085 0.037144 -0.868320 -0.036989 -0.002804 0.189691 -0.501719 0.338351 -0.057906 -0.246535 0.297385 -0.117633 0.155230 0.326138 0.443393 -0.025290 0.691298 0.279937 0.042815 -0.379432 -0.452133 0.149058 0.080073 -0.130679 -0.255508 -0.667629 0.419367 0.310431 0.263641 -0.635009 -0.171572 -0.030116 0.301853 0.380882 0.059151 0.054801 0.110290 -0.003168 -0.201050 0.678990 0.398339 0.820242 -0.068022 0.595202 0.367177 0.428322 -0.223995 -0.221525 0.861663 -0.155021 0.227229 -0.020542 -0.281458 -0.032842 -0.246764 0.256316 0.043392
1500-0 -0.483352 -0.075920 0.078502 0.440556 0.120392 -0.323489 -0.182081 -0.911725 -0.233034 0.726365 0.770194 0.332356 -0.248389 -0.607184 -0.273007 0.138136 -0.384720 1.230316 0.149870 0.245541 1.371657 -0.422731 -0.030711 -0.879603 0.386840 -0.349898 -0.152102 0.113733 0.253394 -0.287229 0.274319 0.048471 -0.215816 0.237735 0.644775 -0.357078 0.158581 -0.089565 -0.127758 -0.743696 -0.082261 -0.094612 0.588063 -0.163078 0.932123 0.396638 -0.233439 0.065542 -0.383723 0.091225 0.628721 -0.117464 0.086339 0.354910 -0.232142 0.025654 0.176265 -0.198725 -0.236076 -0.346805 0.093439 0.001469 0.297500 -0.023890 -0.343784 -0.136129 -0.439625 0.329930 0.730507 -0.416797 -0.012086 0.224714 0.404280 -0.223141 0.392485 0.205307 0.346487 1.254680 -0.497316 0.545439 0.060702 0.171986 -0.078839 0.134924 0.020075 0.143608 -0.420259 0.650314 0.282335 0.233398 0.186936 0.361646 0.047375 0.192989 0.097059 0.122126 -0.367575 -0.386150 0.138476 0.576384 -0.088786 -0.341216 -0.301685 0.306369 -0.324886 0.260986 0.369526 0.355592 -0.170963 -0.011073 0.322080 0.501320 -0.274783 0.013653 -0.143075 0.178969 0.076767 -0.138221 0.172962 -0.768069 0.047344 -0.185614 0.376403 -0.251175 -0.335535 -0.887549 0.049785 -1.074311
1661-0 0.308103 0.243501 0.006842 -0.156879 0.327972 0.393319 0.231466 -0.275751 0.263722 0.346385 -0.301234 0.676193 -0.302580 -0.363502 -0.292269 -0.332776 -1.045136 0.477637 0.662246 -0.070748 2.102102 0.206012 -0.143303 -0.070448 0.010086 0.245174 -0.436540 -0.305881 1.135848 -0.173544 0.593816 0.280052 0.118254 0.204209 0.643168 0.050494 -0.282819 -0.026627 -0.682308 0.585404 -0.000009 0.553115 0.531250 0.433574 0.389097 0.139535 -0.540303 0.153723 -0.500496 -0.162310 -0.419752 -0.315799 0.838554 0.201855 0.361143 0.250399 0.425980 0.260806 -0.628045 -0.066544 0.967367 -0.969977 0.657088 0.247209 -0.486375 -0.305964 -0.820553 0.217199 0.345671 -0.415268 0.379421 -0.185736 0.645269 -0.477617 0.315832 0.784885 0.366488 -0.531459 0.722152 -0.160543 0.430322 0.126388 0.142113 0.110688 0.754366 0.544939 0.226772 -0.083784 0.199106 0.067146 0.297308 0.010545 0.595343 -0.103126 0.411750 0.052345 -0.275731 0.219989 0.577209 -0.252769 -0.096395 -0.223792 -0.958247 0.577068 0.191902 0.823949 -0.884472 -0.132012 0.176268 0.313796 -0.169424 0.191976 0.535102 0.304423 0.298546 -0.143220 0.463554 0.416576 -0.145392 0.065393 -0.095536 -0.713589 -0.303642 -0.425404 0.461851 -0.881454 -0.453942 -0.016312
69-0 0.391652 -0.160101 0.016345 0.039802 0.132788 -0.357836 0.617948 -0.302771 -0.254198 0.695490 -0.463485 -0.116017 0.149868 0.162451 0.168625 -0.202743 0.203048 0.507623 0.130548 -0.218790 0.240626 0.342962 0.239629 -0.774206 -0.323630 0.139182 0.016510 0.616433 0.406948 0.215304 -0.269948 -0.624828 0.140794 -0.048110 0.095958 0.493631 0.735653 -0.495373 0.009747 -0.095482 0.089440 0.317984 0.554588 0.239834 -0.507838 -0.250488 -0.442760 -0.254487 -0.050894 -0.227011 0.276030 -0.034580 0.022605 -0.533850 -0.286469 -0.513669 -0.030776 -0.337930 -0.446118 -0.372888 0.124391 0.347275 0.501009 -0.000729 -0.191939 -0.172467 0.273884 -0.040014 0.146633 -0.085532 -0.102374 0.218317 -0.041277 -0.550908 0.651929 0.021683 0.380965 0.193485 -0.177288 0.266181 0.310351 -0.181802 0.084923 -0.032702 0.117593 0.551277 0.059868 0.353710 -0.277020 0.315534 -0.030860 -0.069056 -0.359578 0.023445 0.354308 -0.179275 -0.610760 0.542508 -0.000234 0.221405 -0.046580 -0.156769 -0.265674 0.553533 0.004180 -0.008936 -0.398059 0.214941 -0.278960 -0.501668 0.139671 0.021262 0.239011 -0.149489 0.088785 0.327856 0.247466 0.205443 0.104736 0.234505 0.400615 -0.026731 -0.607429 -0.428016 -0.394099 -0.289013 -0.129300 -0.192863
935-0 0.288681 -0.094846 -0.236562 0.120057 0.325703 0.425825 0.302502 -0.539276 0.821736 0.045892 -0.228807 0.279892 0.189876 -0.585057 0.225478 0.136535 -0.071697 0.259346 -0.058285 -0.193269 0.521189 -0.398167 -0.145753 0.099683 -0.156996 -0.065828 0.150205 -0.113888 0.319751 -0.396323 0.080579 0.157024 0.231617 0.202056 -0.095986 -0.123087 -0.524784 0.041977 -0.519195 -0.236265 -0.278437 0.335514 0.486630 -0.337076 0.080670 0.258135 -0.193530 -0.277992 0.136970 -0.168514 -0.068931 -0.223836 -0.569878 0.172085 0.074146 0.319805 0.350067 -0.088032 -0.266589 -0.425910 -0.211545 0.224125 0.481280 -0.370286 -0.150502 0.031994 -0.243126 0.800526 -0.163322 -0.002972 0.174630 -0.495358 0.078284 -0.007330 0.132834 -0.102788 -0.684784 -0.354102 -0.151560 0.178061 -0.371252 0.556964 0.189673 -0.215290 -0.558121 0.282602 -0.250452 -0.158532 -0.140939 0.680642 0.067671 0.260317 0.731821 0.616944 0.302508 -0.346106 -0.403328 0.147012 -0.025716 0.401937 0.149598 0.016535 0.161699 -0.175865 -0.369782 -0.083208 -0.148526 0.162694 -0.254998 -0.107949 -0.236214 -0.248851 0.288635 0.136698 1.165506 -0.128511 0.091546 -0.208197 0.396747 -0.142297 0.027505 -0.007515 -0.700228 0.684572 0.085401 0.252914 0.092694 -0.187605
2006-0 -0.864177 0.118674 0.709728 1.042606 0.525217 -0.300723 0.227273 -0.161113 0.426099 -0.411192 0.145279 0.051228 0.015849 -0.850743 0.419551 0.077888 -0.222447 0.513609 0.579063 -0.083440 0.191365 0.139144 -0.052001 -0.905515 0.119321 0.184633 -0.338717 -0.024990 0.693499 -0.557786 0.786767 0.242908 -0.029786 -0.696566 0.225971 -0.004582 -0.154415 -0.504923 0.284680 -0.047854 0.609564 0.401750 -0.053810 0.356590 -0.344889 -0.311569 -0.236007 -0.040884 -0.646810 0.189171 -0.689353 0.266652 0.567318 0.194077 0.232864 -0.336780 0.160201 0.122636 -0.624516 -0.110852 0.236192 -0.007180 0.204670 -0.174343 -0.393192 0.147704 0.023186 0.367064 0.681982 0.220108 -0.030121 -0.147337 -0.448924 0.394062 0.565299 -0.706596 0.380935 0.333811 0.302797 0.096004 -0.059148 -0.134710 -0.434076 0.005172 0.252785 0.157975 -0.014012 -0.247317 -0.065354 0.808042 0.155762 0.367844 -0.416810 0.839118 -0.029156 -0.207930 0.042656 -0.376720 -0.636729 -0.313228 0.161221 -0.366158 0.486923 0.345147 -0.310343 0.335426 0.288254 -0.288364 -0.082734 -0.095265 -0.185293 0.150739 0.239825 0.276779 0.334582 0.287101 -0.084291 -0.030902 0.633056 -0.470874 0.129335 0.217694 -0.551274 0.707069 0.418350 0.042962 -0.178504 -0.121028
1634-0 0.436667 -0.727863 -0.077741 1.064061 -0.007684 0.039221 0.748454 -0.676530 0.078905 0.224580 0.776400 -0.340415 -0.017308 -0.221764 -0.440034 0.329887 -0.489543 0.763074 0.095993 0.606106 0.340934 0.009536 -0.382884 -0.487526 0.293104 0.393360 0.513813 -0.298618 -0.230707 -0.243878 -0.191338 0.137293 0.286569 -0.255911 -0.655864 0.169290 0.429311 0.215455 -0.013623 -0.418046 0.063098 1.170688 0.125065 0.073800 0.076622 0.659696 0.205216 -0.068432 0.149013 -0.250759 -0.492899 -0.394476 -0.496580 0.336092 0.035836 -0.424980 0.097978 0.159664 -0.897610 -0.393842 -0.929122 -0.253215 0.584237 0.210985 -0.493280 -0.399296 -0.048542 -0.172506 0.297344 -0.037418 0.360940 0.050645 -0.761025 -0.461531 -0.159402 0.262168 0.033144 0.452478 -0.021433 -0.202873 -0.447712 0.283833 0.009402 -0.727011 0.071964 0.163845 0.338642 -0.065977 -0.144181 -0.112606 0.008717 0.532232 1.017324 0.010212 0.520268 -0.103896 -0.073816 -0.169845 0.247604 0.321985 -0.646116 -0.200916 -0.559919 -0.705780 0.340270 -0.151579 0.143700 0.498469 -0.513808 -0.502143 0.010650 -0.018190 0.206118 -0.582649 -0.241324 0.038412 0.425805 0.034964 -0.363110 0.158995 -0.659801 -0.418703 -0.090877 -0.215392 -0.064168 -0.182150 -0.283289 -0.228885
218-0 0.048648 0.195414 0.145226 0.461279 0.407669 -0.095816 0.352427 0.130083 0.106241 0.121928 -0.109386 0.277445 0.395874 0.025921 -0.634440 0.472422 -0.292783 0.488325 -0.551886 -0.378446 0.301303 -0.038823 0.275081 -0.352284 -0.136596 0.009222 -0.504768 -0.352737 -0.044453 0.493866 0.025507 -0.048159 0.180919 0.732372 0.371234 0.042340 0.080640 -0.283565 0.206482 0.511208 0.312788 0.728739 -0.053568 0.233388 -0.509517 0.058002 -0.444720 -0.036684 0.456256 -0.134173 -0.086773 -0.325321 0.741242 0.108259 -0.275882 0.357604 0.136088 -0.076822 -0.564191 -0.651719 0.272097 -0.276299 0.878770 -0.516751 -0.045305 0.451307 -0.554062 0.073004 0.621081 0.131035 0.006260 0.256415 -0.364636 -0.706136 -0.048734 0.061540 0.202537 -0.052441 -0.299427 0.277385 0.314309 -0.376509 -0.113680 0.489059 0.073553 0.352822 -0.034620 0.402581 -0.092944 -0.466063 -0.259081 -0.243924 0.138556 0.144430 0.511062 0.160991 -0.116486 0.157027 -0.184712 0.076602 -0.148816 -0.309990 0.371487 0.474943 0.586193 -0.437467 0.099056 0.714319 0.572341 0.068162 0.157462 0.368414 0.134205 0.307953 0.257918 0.150261 -0.194327 -0.338743 0.154271 0.817106 0.047511 0.231604 -0.500215 0.009562 -0.282779 -0.348256 0.282496 -0.181772
326-0 -0.216838 0.128293 -0.037156 -0.777632 0.619263 0.401643 -0.324595 -0.016571 0.016075 0.334621 0.027924 0.213943 0.227838 0.113015 -0.377087 -0.025608 -0.121651 0.337768 0.029842 0.166897 1.059676 -0.196846 0.403484 -0.502337 -0.697350 0.164763 -0.031142 -0.526475 0.320103 0.084238 0.298443 0.172390 0.593474 0.084436 -0.146336 -0.086275 -0.402772 0.058461 -0.731756 -0.037345 0.187090 0.570965 -0.390158 -0.331396 -0.157284 0.333671 -0.298342 -0.122312 -0.046854 0.015311 0.010301 -0.275545 -0.188861 -0.015945 -0.190751 -0.728245 -0.225184 0.081274 -0.195503 -0.236928 0.229758 0.060674 -0.335637 0.438911 0.314190 0.495893 -0.345446 -0.300770 1.345123 0.060267 0.766917 0.340047 -0.800893 0.074573 0.338427 -0.094104 0.045451 -0.008502 0.023794 0.236797 0.133843 0.394077 -0.193978 -0.671533 -0.084165 0.139289 -0.680180 -0.171418 0.119540 0.293756 0.399434 0.293265 0.866533 -0.441184 -0.095803 0.064352 -0.762007 -0.917142 -0.500847 -0.146374 -0.090484 0.238903 -0.163182 0.210781 -0.083251 -0.180642 0.161095 0.356856 -0.217207 0.464058 -0.090564 -0.212012 0.047448 -0.388699 -0.374553 -0.214764 0.534392 -0.019570 0.793486 -0.453662 0.408260 0.211746 -0.218491 0.090422 1.048506 -0.222993 -0.520810 0.225580
28-0 0.669056 -0.337531 0.167846 0.186714 0.615298 -0.134384 -0.136320 -0.494233 -0.190423 0.607686 0.134521 0.822741 0.454319 0.260238 0.294969 -0.077012 -0.248321 0.459153 -0.819738 0.390556 0.406993 0.182561 -0.264094 0.034218 -0.009379 0.007369 0.153298 -0.101838 0.278431 0.249366 -0.365539 0.359765 0.480692 -0.497253 -0.242888 -0.220748 0.427244 0.237049 0.226135 0.305310 -0.050653 0.134168 0.110339 -0.067003 -0.305602 0.035822 -0.035693 0.023156 -0.537739 -0.335108 0.078478 0.021679 0.241312 0.009646 0.189970 -0.183071 -0.179518 0.302715 -0.386203 -0.129148 0.074659 0.060217 0.231377 -0.102939 -0.001098 0.127678 0.439097 0.114097 0.267709 0.355967 0.206473 -0.132131 -0.355823 -0.623352 0.350224 0.529331 -0.191381 -0.264989 0.227463 -0.156038 -0.236882 0.355409 0.027115 0.258152 0.053101 -0.065247 -0.211498 0.814114 -0.150251 -0.097347 -0.109638 0.096484 0.023668 0.421291 0.232543 -0.125685 -0.402988 -0.086182 0.209061 0.072287 -0.468108 0.231865 -0.249141 -0.052030 0.032393 -0.310151 -0.087521 -0.115624 -0.163644 -0.312895 -0.285024 0.224904 -0.019519 0.294215 0.050545 0.249520 0.021011 0.654810 0.219735 0.348000 0.548987 -0.037026 -0.434436 -0.078863 0.126823 -0.082591 -0.092861 -0.117953
