6 128
0-0 0.001167 0.000049 0.003121 0.005339 -0.007209 0.002004 0.003460 -0.001774 0.004796 0.001619 -0.000311 -0.000359 -0.000031 0.002575 0.001937 0.003969 -0.000565 0.005716 0.000372 0.005193 -0.005013 0.000685 0.001858 -0.000711 -0.007228 0.000617 0.003096 0.006841 0.000357 -0.003009 -0.000382 0.001719 0.000110 0.001191 0.004155 0.000024 -0.004693 -0.003902 0.002094 0.002593 0.004534 -0.003709 0.001214 -0.008467 0.003747 0.002383 0.004875 0.002142 0.000531 0.000066 -0.005449 -0.003310 -0.003955 -0.006189 -0.001533 -0.004441 0.006216 -0.009294 0.004668 0.004456 -0.005288 -0.002535 -0.000823 0.003351 0.002070 0.001997 -0.002257 0.000584 -0.001780 -0.000204 -0.000233 0.004736 0.004285 0.003237 -0.000274 0.000960 0.006026 -0.000905 -0.004029 0.005938 -0.006371 0.002352 -0.002775 0.005461 0.005562 -0.004090 -0.001976 -0.000786 -0.005738 -0.002084 -0.003847 -0.004153 -0.001552 -0.004888 0.000250 0.004253 -0.002131 -0.007720 0.005027 0.001254 0.003695 -0.000847 -0.003465 0.000536 -0.000611 -0.000836 0.000222 0.003907 -0.005088 -0.001393 -0.001429 -0.003264 -0.001754 0.006099 -0.002653 -0.000940 -0.003089 -0.001817 0.007136 -0.001956 0.000741 0.001516 0.003173 0.005047 -0.000569 -0.000649 -0.006179 -0.000658
2-0 0.002113 -0.001550 0.001143 0.000758 -0.003966 0.002763 0.002461 -0.002563 0.003384 -0.003834 0.002446 0.004539 0.005694 -0.002548 -0.002872 0.005713 -0.003296 0.003827 0.006386 0.007731 -0.003775 0.001309 0.001047 0.004629 -0.006436 -0.003761 0.002898 0.006260 0.002101 -0.005253 -0.001754 0.004492 0.001412 0.002088 0.001203 0.003422 -0.005820 -0.001645 0.000317 0.000506 0.005025 -0.002213 -0.005318 -0.009853 0.003759 0.005343 0.004045 -0.003079 -0.004723 0.003972 -0.005855 -0.003879 -0.002359 -0.004179 0.000416 -0.002499 0.006143 -0.011336 0.008557 0.004871 -0.007675 0.003894 0.001271 0.003447 -0.000056 -0.002746 -0.005650 -0.000754 0.005948 0.005094 0.000747 0.004985 -0.002210 0.000006 -0.000401 0.003496 0.006649 -0.004377 -0.001463 0.004002 -0.005540 0.005205 0.004212 0.001933 0.004872 -0.006425 -0.001371 0.003012 -0.001427 -0.000948 -0.001841 -0.002378 -0.002624 -0.007754 -0.007763 0.003398 0.003224 -0.009237 0.004375 0.000537 0.004988 0.000307 -0.003218 0.002541 -0.000035 0.001540 -0.003141 0.004397 -0.002059 0.004934 0.004326 -0.006873 0.000018 0.005254 -0.000136 0.000247 -0.002441 -0.001791 0.005959 -0.005887 -0.003642 -0.004397 0.004262 0.005717 -0.005152 0.002533 -0.005840 0.001062
1-0 -0.003543 -0.000350 0.000710 0.004957 -0.006695 -0.001028 -0.001263 -0.003238 -0.000212 -0.001405 0.004449 0.002913 -0.000695 0.002960 -0.002065 0.002471 0.002835 0.005176 0.003051 0.004409 -0.005893 -0.001577 0.003989 0.002646 -0.005076 -0.002934 0.002232 0.004999 -0.002330 -0.000605 0.002940 -0.000490 0.003102 -0.001663 -0.001130 0.005124 -0.001121 -0.000141 -0.002300 0.000406 0.002917 -0.004446 -0.004873 -0.005647 0.004176 0.000060 0.002729 -0.003060 -0.004431 -0.001797 -0.002219 -0.003596 0.000172 -0.003943 0.002254 -0.002130 0.004626 -0.006657 0.004244 0.002017 -0.004128 -0.001023 -0.002787 0.003110 0.002869 -0.003205 -0.001619 0.001755 0.002935 0.004578 0.002227 0.001037 0.003195 0.003147 -0.000072 0.000412 0.002996 -0.002005 -0.003774 0.002734 -0.006199 0.004333 0.001389 -0.001942 0.002285 -0.001259 -0.003770 -0.001407 -0.004167 -0.001546 -0.000135 0.000197 -0.002526 -0.004468 -0.003977 0.003712 0.002814 -0.005208 -0.002132 -0.002283 -0.000699 0.000729 -0.000339 0.003438 0.001817 0.004382 -0.000307 0.004581 -0.003513 -0.002055 0.003380 0.000801 -0.004460 0.006172 -0.004615 0.003012 0.002698 -0.002953 -0.001274 -0.002946 -0.001615 0.001595 0.000247 0.000298 -0.003703 -0.000918 -0.005559 -0.001276
3-0 -0.000118 0.001258 0.004246 0.000505 -0.008838 -0.000091 -0.000118 -0.003107 -0.000848 -0.001636 0.005203 0.006297 0.000434 0.002062 -0.003781 0.007000 0.000591 0.007386 0.006095 0.007530 -0.002497 -0.004826 0.005235 0.000823 -0.008727 -0.001928 0.000394 0.009368 0.004807 -0.001002 -0.003171 0.006530 0.004301 -0.000133 0.003354 0.000461 0.000383 -0.004051 0.002011 -0.003305 0.001452 -0.004616 -0.003468 -0.005011 0.002411 -0.000271 -0.001231 -0.002795 -0.000302 0.001903 -0.005088 -0.003465 -0.003050 -0.001127 0.002214 -0.001576 0.006770 -0.010857 0.004940 0.002793 -0.002358 -0.000693 0.003685 0.004334 -0.000721 0.001550 -0.005873 -0.000110 0.003580 0.007570 -0.001127 -0.001310 0.001648 0.003968 0.004361 0.001019 0.006948 -0.005387 0.001408 0.004641 -0.007434 0.000259 0.004635 0.001664 0.006605 -0.004567 0.002503 -0.002688 -0.004581 -0.005902 0.000772 -0.003539 -0.000249 -0.007656 -0.008135 0.003752 -0.003107 -0.008157 0.004079 0.000495 0.000414 0.001142 0.002094 0.005995 -0.000181 0.003672 -0.001877 -0.001506 0.000566 0.000187 0.005986 -0.005931 -0.001975 0.006549 -0.003020 0.000402 0.002511 0.001053 0.008090 0.001423 -0.001532 -0.001997 -0.000687 -0.000726 -0.001916 0.003960 -0.007282 -0.001190
4-0 0.003236 -0.002319 0.000476 0.000575 -0.008137 -0.000787 0.002095 -0.006624 0.006814 -0.000567 0.003589 0.005069 0.004905 0.004944 -0.001814 0.006527 -0.002597 0.007364 0.002539 0.006928 -0.007219 -0.004611 0.002224 0.004925 -0.006476 0.001878 0.005229 0.009041 -0.000264 -0.004567 0.000226 0.006920 0.004664 -0.001897 -0.002784 0.003869 -0.006788 0.000901 0.003144 -0.003435 -0.000413 -0.003612 -0.003186 -0.009977 0.005002 0.006210 0.004276 0.001759 -0.001851 0.004201 -0.003962 -0.003862 0.000970 -0.006624 -0.002610 -0.000106 0.001617 -0.013171 0.009742 0.005153 -0.007695 0.004215 0.000412 0.001371 0.003770 0.000170 -0.007181 -0.001395 0.002571 0.008486 0.003977 0.002242 0.003457 0.004682 0.001933 0.005843 0.003201 0.001457 0.002112 0.005847 -0.006555 0.001008 -0.001140 0.003803 0.001891 -0.004708 0.000752 0.001681 -0.001489 -0.005865 -0.003187 -0.001514 -0.002467 -0.004387 -0.006611 -0.000972 -0.001711 -0.006767 -0.001259 0.003198 -0.000852 0.002176 0.003749 0.004225 0.000841 0.000660 0.001379 -0.000690 -0.006479 0.003448 0.004804 -0.005654 -0.004904 0.005977 -0.002064 -0.001973 0.000906 -0.002687 0.007100 -0.001388 -0.004418 -0.001755 -0.001563 0.004344 0.001238 0.003577 -0.001218 -0.001233
5-0 -0.001584 -0.001544 0.003716 0.005516 -0.008218 -0.001696 0.002686 -0.000204 0.006092 -0.002895 -0.001580 0.005562 0.003637 0.000316 -0.000128 0.006415 -0.002954 0.000770 0.007047 0.005734 -0.002480 -0.001373 0.006396 0.000022 -0.007466 0.000228 0.005532 0.010020 0.003928 0.001634 -0.000269 0.007144 0.000358 0.001700 0.001572 0.002730 -0.004683 0.001705 -0.000898 0.002663 0.001983 -0.002914 -0.002987 -0.010954 0.006065 -0.001556 0.001746 -0.002131 -0.001011 0.002112 -0.003430 0.001178 -0.002811 -0.006640 0.002989 -0.004962 0.001438 -0.012483 0.007959 0.000249 -0.007307 -0.001749 0.002073 0.001389 0.002094 -0.000987 -0.004360 0.000230 0.006515 0.006784 -0.003300 0.005173 0.003317 -0.001775 0.001400 0.000143 0.006514 -0.003288 0.001847 0.001620 -0.002519 0.002743 0.001664 0.005663 0.003063 -0.004754 0.000885 0.004503 -0.004824 -0.002076 -0.004310 -0.002608 -0.005714 -0.008874 -0.005877 -0.001962 -0.001093 -0.009475 0.004871 0.000294 0.003245 -0.000207 0.001484 -0.000959 0.001473 0.003880 -0.000736 0.005798 -0.004832 0.001653 0.004968 -0.003048 0.001698 0.003518 -0.000348 0.000908 -0.001354 -0.001282 0.006835 -0.004247 -0.004427 -0.004341 0.004319 -0.000838 -0.002538 -0.000099 -0.005677 0.003784
