6 128
0 -0.013100 -0.005106 0.014255 -0.016431 0.006049 -0.014968 -0.010796 0.024851 -0.007211 -0.015623 0.023288 0.004758 0.016180 -0.023922 -0.001912 -0.034334 0.020866 -0.020306 0.003704 -0.003052 -0.000089 -0.004629 -0.006762 0.012295 -0.001389 -0.003409 -0.005846 0.013482 0.022084 -0.014838 -0.010095 -0.005495 -0.020451 0.012355 -0.010168 -0.022561 0.015525 0.008437 0.032454 -0.010857 -0.004190 -0.032324 0.019058 0.034801 -0.010717 -0.013839 -0.013445 -0.030676 -0.016184 0.001907 0.004573 -0.017177 -0.008985 0.014483 -0.037676 -0.001823 0.000857 0.037161 -0.023370 0.019398 0.007931 -0.024028 -0.002574 0.012344 -0.002092 0.012976 -0.007506 -0.001047 -0.025138 -0.014723 -0.007718 0.004129 0.035566 -0.006775 0.008018 -0.017743 0.033808 -0.008780 0.004306 -0.006918 0.000102 -0.032751 -0.003140 0.005774 0.001467 0.002627 0.011195 -0.012278 0.032271 0.000141 -0.009123 0.022938 -0.012721 -0.023222 -0.031905 0.018787 -0.038006 -0.013007 0.026115 0.009438 -0.018213 0.000691 0.033228 0.004962 -0.009108 0.023377 0.022651 0.036348 -0.002434 0.004869 -0.006180 -0.001109 0.012149 -0.000960 -0.025812 -0.000422 0.015423 0.013435 -0.016223 -0.004101 -0.014755 0.000979 -0.034084 -0.036411 -0.035291 0.017142 0.025126 0.028537
2 -0.012440 -0.003704 0.016891 -0.016685 0.010978 -0.022009 -0.010519 0.035697 -0.011431 -0.020899 0.024929 0.008194 0.021937 -0.032909 -0.007428 -0.044607 0.020887 -0.023390 0.006846 -0.002365 0.003489 -0.001932 -0.005655 0.013766 0.000132 -0.004390 -0.011117 0.021401 0.035224 -0.013053 -0.012849 -0.012547 -0.029964 0.021306 -0.020584 -0.024205 0.017018 0.006363 0.039664 -0.011043 0.000955 -0.035849 0.029259 0.041172 -0.015438 -0.022911 -0.018266 -0.037946 -0.015896 -0.002037 0.009907 -0.024446 -0.006499 0.026682 -0.050370 -0.001234 0.007763 0.045871 -0.026418 0.025667 0.007603 -0.024557 -0.003816 0.009752 -0.003496 0.023762 -0.010690 0.002290 -0.032455 -0.022149 -0.007063 0.001904 0.044799 -0.012636 0.006919 -0.017432 0.044923 -0.012040 0.006809 -0.008797 -0.004373 -0.042043 -0.012282 0.003942 0.008880 0.004529 0.014390 -0.014314 0.042590 -0.002690 -0.009203 0.027422 -0.017604 -0.030862 -0.043452 0.023386 -0.047773 -0.020103 0.026465 0.017099 -0.022162 0.001328 0.039657 -0.000692 -0.012335 0.024128 0.027528 0.044978 -0.011020 0.002877 -0.006131 -0.001548 0.017070 0.000855 -0.031383 0.003230 0.019674 0.021650 -0.021119 -0.007669 -0.014791 -0.001105 -0.038903 -0.048624 -0.039839 0.021088 0.036090 0.034401
1 -0.013536 -0.005836 0.014678 -0.012501 0.009132 -0.017610 -0.008276 0.023571 -0.001834 -0.012473 0.013958 0.003082 0.014652 -0.020533 -0.006135 -0.028308 0.016529 -0.017526 0.008313 -0.003308 0.003184 -0.002190 -0.004537 0.010173 0.002641 -0.001167 -0.003390 0.016611 0.021805 -0.011192 -0.013457 -0.004491 -0.016887 0.012041 -0.012462 -0.019535 0.006473 0.004000 0.027318 -0.010186 -0.003257 -0.026870 0.019623 0.028323 -0.009384 -0.016405 -0.012482 -0.022525 -0.007339 0.003090 0.002336 -0.009844 -0.006532 0.018056 -0.032365 0.000151 0.002930 0.030099 -0.017824 0.015539 0.008080 -0.020414 -0.004888 0.007824 -0.004315 0.013833 -0.005300 0.004184 -0.021605 -0.012661 -0.003861 -0.001864 0.029579 -0.007624 0.002610 -0.014744 0.030012 -0.008869 0.005794 -0.008408 -0.002882 -0.028282 -0.005289 -0.000769 0.002218 -0.002248 0.008047 -0.009292 0.027303 0.000719 -0.006335 0.015735 -0.010461 -0.017153 -0.025389 0.013066 -0.029219 -0.014010 0.021111 0.010259 -0.017881 0.004857 0.025981 0.001002 -0.005192 0.020603 0.017583 0.027992 -0.006721 0.002400 -0.003645 -0.003994 0.010593 0.004906 -0.019612 0.000484 0.014506 0.014301 -0.014505 -0.005937 -0.008972 0.002824 -0.028308 -0.027657 -0.027057 0.011129 0.019035 0.022099
3 -0.012616 -0.001679 0.013922 -0.008830 0.007776 -0.012966 -0.004712 0.018987 -0.008161 -0.012956 0.016419 0.000507 0.007611 -0.021271 -0.005496 -0.026808 0.017030 -0.017381 0.003662 -0.003729 -0.001717 -0.000241 -0.005542 0.012062 0.005186 -0.003716 -0.005030 0.014672 0.022375 -0.004979 -0.010988 -0.008172 -0.018717 0.013905 -0.010795 -0.018419 0.010308 0.007448 0.023374 -0.004153 -0.000178 -0.025932 0.016558 0.027277 -0.009542 -0.013191 -0.006791 -0.023577 -0.013582 0.003158 0.008076 -0.013208 -0.008694 0.014167 -0.029293 -0.003107 0.000863 0.025874 -0.016198 0.016666 0.001961 -0.013718 -0.003222 0.010907 -0.001551 0.008926 -0.001791 0.004545 -0.015953 -0.014564 -0.001161 0.002105 0.021760 -0.003991 0.006168 -0.013217 0.028461 -0.007276 0.007206 -0.005776 -0.001792 -0.020299 -0.006173 -0.000160 0.004680 0.002352 0.007998 -0.006771 0.020193 -0.001075 -0.007772 0.016258 -0.010917 -0.014931 -0.026100 0.015379 -0.029868 -0.007286 0.020297 0.008488 -0.017577 0.002993 0.018449 0.000503 -0.004715 0.019791 0.013686 0.023564 -0.001634 -0.000428 0.000058 -0.001812 0.009665 0.002056 -0.015853 0.003666 0.010020 0.013587 -0.007584 -0.003401 -0.010061 -0.002842 -0.024543 -0.026421 -0.026356 0.011794 0.019403 0.021184
5 -0.004254 -0.004515 0.001569 -0.005089 0.006371 -0.007841 -0.000385 0.006732 0.001204 -0.008781 0.011021 0.004689 0.003280 -0.008295 0.000201 -0.016064 0.005212 -0.010844 0.000998 0.001208 0.002799 0.002110 -0.006096 0.008230 0.002116 -0.003855 -0.003309 0.003003 0.008583 -0.005465 -0.006845 -0.004377 -0.010222 0.006857 -0.002760 -0.011075 0.005966 0.004431 0.010802 -0.003024 0.002882 -0.012463 0.006139 0.012515 -0.006414 -0.006163 -0.004439 -0.012088 -0.005483 -0.001673 0.001800 -0.003251 0.000505 0.003273 -0.011904 -0.002634 0.003610 0.011905 -0.005007 0.003171 0.001563 -0.010744 0.001317 0.006725 -0.003639 0.006474 0.000145 0.000158 -0.007446 -0.008925 -0.003793 0.001419 0.010285 -0.006637 0.003512 -0.009127 0.010951 -0.006315 -0.001359 -0.005796 -0.003237 -0.011823 -0.003941 0.001159 -0.000547 -0.003275 0.006793 -0.000798 0.013841 0.000018 -0.000525 0.006289 -0.003730 -0.007097 -0.014780 0.007886 -0.017260 -0.007921 0.012439 0.007807 -0.011311 0.001122 0.009841 -0.002592 -0.007133 0.007276 0.008712 0.012689 -0.005318 -0.000304 -0.003595 -0.000696 0.005876 -0.002088 -0.011149 0.004306 0.009162 0.006517 -0.002384 -0.000478 -0.004725 0.001899 -0.011528 -0.017372 -0.015942 0.007917 0.008044 0.014177
4 -0.006100 0.002915 0.006801 -0.003984 0.007049 -0.011018 -0.008256 0.016510 -0.002385 -0.009917 0.013461 0.003065 0.010115 -0.012421 -0.003668 -0.016333 0.009595 -0.012147 0.004004 0.001658 0.002307 -0.001952 -0.005780 0.003737 0.003353 -0.000378 -0.006108 0.010074 0.015685 -0.007030 -0.008027 -0.006851 -0.010410 0.006177 -0.008154 -0.011160 0.008740 0.006022 0.015652 -0.001533 0.000936 -0.017924 0.013680 0.019323 -0.002988 -0.011628 -0.006850 -0.017047 -0.009398 -0.002466 0.006529 -0.011121 -0.002379 0.009973 -0.019367 0.001090 0.003856 0.016272 -0.007206 0.006512 0.007722 -0.012075 0.000360 0.005223 0.001953 0.011295 -0.007647 0.003451 -0.010749 -0.009139 -0.001540 0.002391 0.018166 -0.008122 0.005417 -0.008749 0.020049 -0.001454 0.000520 0.000546 0.000617 -0.018833 -0.004048 0.002389 0.004627 -0.000262 0.009693 -0.007468 0.017332 0.001381 -0.007343 0.008231 -0.010429 -0.011370 -0.015934 0.009902 -0.020616 -0.008657 0.011250 0.004821 -0.012117 0.002535 0.018105 0.004847 -0.007695 0.012487 0.005992 0.016810 -0.004477 -0.000424 0.002408 -0.002470 0.005991 0.002234 -0.010462 0.004369 0.006595 0.008889 -0.007269 -0.002507 -0.002933 0.001276 -0.018908 -0.020771 -0.019309 0.008165 0.015634 0.015197
