11 128
2-0 0.009287 -0.027789 -0.011354 -0.014109 -0.046781 0.008860 -0.025067 0.014395 0.009629 -0.019300 0.029194 0.021528 0.019350 -0.023689 -0.040049 0.044243 0.007080 0.020761 0.055201 0.063580 -0.016537 0.002802 -0.005731 0.019556 -0.033339 -0.042835 -0.004996 0.088187 0.014844 -0.016763 -0.002765 0.018146 -0.006177 -0.000221 0.024073 0.041210 -0.031405 -0.032936 -0.005317 -0.000486 0.063619 -0.021518 -0.048933 -0.000169 0.030332 0.003557 -0.034029 -0.016293 -0.044605 0.006067 -0.002995 -0.047001 0.034772 -0.021589 0.031914 -0.001637 0.044879 -0.068873 -0.006165 0.010234 -0.023042 0.013728 0.008756 0.040931 0.007443 -0.033158 -0.029796 -0.029587 0.046291 0.057605 -0.008031 0.014731 -0.026538 0.000008 -0.010278 0.001442 0.028789 -0.030583 -0.028144 0.029720 -0.061015 0.014654 0.039098 -0.006805 0.029340 -0.045614 -0.005965 -0.010323 0.000902 -0.017294 0.023800 0.012239 0.006996 -0.086087 -0.070689 0.015899 0.028427 -0.056501 0.026305 -0.030544 0.025865 0.020855 0.012545 0.043872 -0.040625 0.060219 -0.033189 -0.013312 0.007379 0.027346 0.008978 0.028183 -0.008701 0.034660 -0.006466 -0.005833 0.024048 -0.009073 0.003164 -0.052424 -0.017254 -0.030330 -0.004419 -0.011564 -0.044099 -0.012458 -0.026989 -0.012457
1-0 -0.000436 -0.011786 -0.005249 -0.001959 -0.025208 0.001333 -0.013636 0.004968 0.002161 -0.007845 0.015746 0.009765 0.004616 -0.006835 -0.018230 0.018974 0.007585 0.011761 0.024428 0.028108 -0.010934 -0.000823 0.000837 0.008780 -0.016177 -0.020086 -0.001485 0.040878 0.003015 -0.005081 0.002617 0.005159 -0.000636 -0.002674 0.008789 0.021562 -0.012254 -0.013884 -0.005061 -0.000058 0.029059 -0.012890 -0.023842 -0.000244 0.015835 -0.001560 -0.014769 -0.008707 -0.022290 -0.001407 0.000148 -0.021995 0.017049 -0.011511 0.016350 -0.001408 0.021011 -0.030918 -0.003247 0.003807 -0.010386 0.003053 0.000186 0.019635 0.005922 -0.016840 -0.011754 -0.010990 0.020760 0.027298 -0.002064 0.005026 -0.007857 0.002669 -0.004849 -0.000691 0.011881 -0.013229 -0.015461 0.013730 -0.029753 0.008164 0.016363 -0.006259 0.012209 -0.018052 -0.005888 -0.007506 -0.002929 -0.008543 0.011467 0.007514 0.001569 -0.038644 -0.031240 0.009014 0.014233 -0.025085 0.006964 -0.016726 0.008362 0.009687 0.007109 0.021258 -0.016483 0.030652 -0.013263 -0.003464 0.000851 0.007503 0.004592 0.017716 -0.007895 0.018689 -0.006848 0.000451 0.014942 -0.006140 -0.003749 -0.023201 -0.007451 -0.009803 -0.003958 -0.008087 -0.020378 -0.008015 -0.014315 -0.007173
0-1 0.005747 -0.015923 -0.006154 -0.008188 -0.025286 0.002610 -0.012968 0.007191 0.007801 -0.008142 0.015382 0.007434 0.010850 -0.005890 -0.020309 0.021081 0.004170 0.009764 0.026735 0.032608 -0.004482 0.000256 -0.003787 0.011534 -0.015664 -0.016672 -0.001972 0.045073 0.004697 -0.007231 -0.003576 0.005980 -0.001059 -0.004450 0.013322 0.022421 -0.014296 -0.017525 -0.000950 -0.001480 0.031325 -0.012116 -0.025986 0.005123 0.013834 0.003340 -0.020539 -0.005378 -0.018895 0.002290 0.001817 -0.023902 0.021211 -0.013196 0.013574 0.002932 0.021039 -0.032519 -0.005051 0.002757 -0.006038 0.007096 0.003359 0.016760 0.005805 -0.017537 -0.014978 -0.017532 0.021072 0.028325 -0.005618 0.008642 -0.012246 -0.002421 -0.007857 0.000651 0.014442 -0.014390 -0.014549 0.013047 -0.030583 0.002998 0.015093 -0.001825 0.011801 -0.019120 -0.000129 -0.007638 0.002156 -0.012356 0.012832 0.003968 0.005253 -0.043120 -0.033256 0.004298 0.011004 -0.022570 0.011877 -0.016655 0.011963 0.008772 0.009787 0.024032 -0.022715 0.029693 -0.014218 -0.008409 0.004185 0.013544 0.000129 0.016905 -0.001432 0.014041 -0.001008 -0.001316 0.013691 -0.003997 0.002217 -0.025506 -0.005578 -0.014609 -0.003163 -0.004640 -0.020152 -0.009221 -0.009315 -0.007779
3-0 0.004310 -0.015010 -0.004321 -0.009733 -0.033907 0.003634 -0.017947 0.008507 0.002168 -0.010847 0.021401 0.015700 0.008146 -0.011737 -0.026825 0.029698 0.007535 0.016520 0.035621 0.041016 -0.009281 -0.003339 -0.000004 0.009655 -0.023761 -0.026375 -0.005568 0.058922 0.012354 -0.007532 -0.003576 0.013679 -0.001138 -0.001651 0.017512 0.023645 -0.014674 -0.023649 -0.001901 -0.003880 0.037913 -0.015854 -0.030140 0.003629 0.018025 -0.002206 -0.026155 -0.010788 -0.025086 0.002532 -0.001789 -0.029955 0.021012 -0.010935 0.021942 -0.000266 0.030047 -0.044109 -0.006415 0.005201 -0.010420 0.005272 0.007987 0.027247 0.003528 -0.017648 -0.019788 -0.018308 0.028071 0.039104 -0.006865 0.004058 -0.014309 0.003229 -0.002345 -0.000938 0.019296 -0.021254 -0.015377 0.019723 -0.040861 0.005507 0.026187 -0.004804 0.020842 -0.027974 -0.000407 -0.011466 -0.002208 -0.015296 0.017594 0.006479 0.006495 -0.055340 -0.046295 0.011238 0.013008 -0.035663 0.017055 -0.019535 0.013117 0.013848 0.012072 0.031309 -0.026070 0.040236 -0.020547 -0.013391 0.007582 0.013805 0.007537 0.017716 -0.006863 0.023525 -0.006424 -0.003407 0.019466 -0.003250 0.004415 -0.027227 -0.009236 -0.017762 -0.006660 -0.012386 -0.025862 -0.006024 -0.019162 -0.009855
5-1 0.007938 -0.011462 -0.006405 -0.008127 -0.025407 0.004685 -0.013630 0.005847 0.008550 -0.010360 0.011329 0.010253 0.011442 -0.012135 -0.023065 0.022245 0.007944 0.007070 0.024664 0.033474 -0.009844 0.001339 -0.005851 0.011784 -0.018130 -0.024361 -0.005878 0.043768 0.010403 -0.007313 0.002814 0.011145 -0.003692 -0.001428 0.009392 0.020778 -0.011404 -0.019559 -0.006133 -0.001573 0.030828 -0.008248 -0.021730 0.005013 0.015895 0.000447 -0.021799 -0.009765 -0.022926 -0.000239 0.002685 -0.027978 0.021424 -0.008778 0.016737 -0.002290 0.021227 -0.035911 -0.007972 0.003873 -0.013516 0.005872 0.000811 0.017565 0.007436 -0.019135 -0.015923 -0.014190 0.020034 0.031085 -0.001725 0.005830 -0.011739 -0.001284 -0.001363 -0.003524 0.016475 -0.014473 -0.011011 0.013802 -0.033342 0.005771 0.023037 -0.000831 0.017931 -0.024750 -0.005242 -0.009466 -0.002489 -0.006815 0.011187 0.010271 0.006357 -0.042364 -0.039296 0.004960 0.016592 -0.028594 0.011495 -0.014769 0.013731 0.013612 0.006878 0.019308 -0.022638 0.032797 -0.017870 -0.011524 0.004080 0.011794 0.000339 0.020514 -0.002646 0.016694 -0.007713 -0.005539 0.012798 -0.007752 -0.001012 -0.022858 -0.006264 -0.011149 -0.006660 -0.010771 -0.023733 -0.006852 -0.013524 -0.009521
4-1 -0.000024 -0.008547 -0.003789 -0.006246 -0.013065 -0.000379 -0.006833 0.005411 0.004740 -0.001311 0.008311 0.003407 0.000867 -0.007631 -0.005553 0.010772 -0.000644 0.004638 0.011010 0.017717 -0.004689 -0.001931 0.000485 0.002727 -0.004279 -0.009578 -0.002452 0.024800 0.005430 -0.000399 0.001958 0.001525 -0.003913 0.002663 0.004908 0.013287 -0.010045 -0.011241 -0.000372 0.000461 0.015907 -0.002719 -0.008196 0.001289 0.010221 -0.003143 -0.012300 -0.001319 -0.011418 -0.000018 0.003638 -0.014655 0.012635 -0.008020 0.008475 0.002502 0.013696 -0.019356 -0.004446 0.000975 -0.005001 -0.001186 0.004012 0.012651 -0.000199 -0.006834 -0.004001 -0.008704 0.010657 0.014272 -0.004526 0.002231 -0.005303 0.002832 -0.002831 -0.002621 0.002695 -0.005883 -0.009228 0.010341 -0.017045 0.005110 0.007725 -0.004934 0.006256 -0.008158 -0.004435 -0.001186 0.003590 -0.001416 0.005431 0.003990 0.004597 -0.019852 -0.019091 0.006295 0.005688 -0.013297 0.006503 -0.006884 0.005599 0.004526 0.005470 0.013880 -0.013981 0.013992 -0.005332 -0.007820 0.005072 0.004583 -0.002310 0.011550 -0.004810 0.008439 -0.002775 -0.003812 0.010162 -0.003714 -0.001328 -0.013992 -0.004229 -0.007802 -0.002273 -0.007213 -0.006451 -0.000914 -0.004296 -0.005924
4-2 0.004121 -0.010433 -0.006277 -0.003063 -0.016332 0.003763 -0.010713 0.006497 -0.001149 -0.005748 0.008924 0.005263 0.005707 -0.009239 -0.012121 0.015484 0.004979 0.009629 0.018927 0.015329 -0.005015 0.000041 -0.004465 0.002958 -0.008684 -0.012662 -0.001500 0.030134 0.001738 -0.006826 -0.002566 0.007716 -0.004830 -0.002606 0.008138 0.010668 -0.010037 -0.008755 0.001378 -0.000669 0.022060 -0.008907 -0.013780 0.004377 0.010739 0.003070 -0.012538 -0.003118 -0.012946 0.000034 -0.001859 -0.012758 0.012899 -0.003272 0.011036 -0.000023 0.011029 -0.017971 -0.006621 0.002945 -0.003929 0.004745 0.004207 0.014695 0.003786 -0.008220 -0.007231 -0.009750 0.013302 0.017795 -0.001211 0.002806 -0.009792 0.004011 -0.003759 0.002026 0.008176 -0.006578 -0.010356 0.010751 -0.017668 0.001334 0.009542 0.000091 0.007591 -0.015939 -0.001335 -0.006357 0.002255 -0.008445 0.009436 0.007502 0.003399 -0.026852 -0.019349 0.002440 0.008960 -0.017183 0.008594 -0.010788 0.006812 0.010302 0.005375 0.014862 -0.014963 0.020605 -0.010865 -0.008187 -0.000809 0.009224 0.003830 0.013172 -0.006016 0.013774 -0.001069 -0.003987 0.007637 0.000474 0.000006 -0.015627 -0.008071 -0.010119 -0.005356 -0.005143 -0.013008 -0.007921 -0.007005 -0.003550
0-2 0.001945 -0.015445 -0.004113 -0.005274 -0.017713 0.003896 -0.014480 0.008071 0.005906 -0.007499 0.012998 0.011213 0.007908 -0.005916 -0.018391 0.017983 0.004690 0.009420 0.019754 0.030061 -0.009702 0.002409 -0.004529 0.005335 -0.014108 -0.018423 -0.003762 0.040015 0.007864 -0.006097 0.002633 0.006230 -0.004882 -0.000304 0.013649 0.018233 -0.014003 -0.012219 -0.002615 0.002875 0.023541 -0.006440 -0.020509 0.001421 0.009859 -0.001281 -0.014745 -0.003644 -0.015078 0.004993 -0.002920 -0.022396 0.016560 -0.008213 0.015016 -0.002862 0.018060 -0.029381 -0.006810 0.003252 -0.009224 0.004775 0.005463 0.016667 0.006528 -0.011209 -0.012316 -0.015712 0.016427 0.026298 -0.002066 0.005286 -0.007832 0.001095 -0.002267 -0.002537 0.009746 -0.011055 -0.012959 0.011746 -0.030593 0.003901 0.018476 -0.002707 0.015032 -0.021131 0.001067 -0.002639 0.000565 -0.006902 0.011976 0.002160 0.006619 -0.039168 -0.027891 0.003737 0.007619 -0.026965 0.013432 -0.009958 0.008251 0.011064 0.006811 0.018844 -0.016133 0.026574 -0.016957 -0.008580 0.003992 0.011865 0.006842 0.011863 -0.008431 0.011404 -0.007095 -0.006347 0.008868 -0.003382 0.002921 -0.025708 -0.005799 -0.010733 -0.002760 -0.007714 -0.020890 -0.007133 -0.008887 -0.005985
5-0 0.001754 -0.014024 -0.003407 -0.003211 -0.026545 0.000976 -0.011777 0.009824 0.007754 -0.009583 0.010494 0.011998 0.008792 -0.010852 -0.017922 0.023041 0.002872 0.006639 0.029267 0.030652 -0.006759 0.000064 0.001703 0.006249 -0.017838 -0.018758 0.000030 0.047574 0.009724 -0.002707 -0.000390 0.011846 -0.004453 0.000497 0.012612 0.020274 -0.015605 -0.013610 -0.004276 0.002200 0.030164 -0.011058 -0.023146 -0.002112 0.017456 -0.004101 -0.018757 -0.008051 -0.020058 0.002060 0.000451 -0.018919 0.016602 -0.013413 0.018559 -0.003406 0.018689 -0.036269 -0.002755 0.001243 -0.012336 0.002542 0.005228 0.018901 0.005050 -0.015936 -0.014293 -0.014128 0.025064 0.030424 -0.008168 0.008602 -0.009581 -0.002940 -0.004049 -0.002044 0.014905 -0.015254 -0.011118 0.012570 -0.027506 0.006119 0.018304 -0.000069 0.013320 -0.022155 -0.001193 -0.002723 -0.002398 -0.008857 0.009450 0.005899 0.000078 -0.045122 -0.034688 0.003469 0.011506 -0.029357 0.014481 -0.015810 0.012740 0.009637 0.009624 0.018273 -0.019159 0.032429 -0.015201 -0.004252 0.001536 0.011849 0.005136 0.016860 -0.001594 0.015566 -0.002557 -0.002117 0.012288 -0.004361 0.002544 -0.026049 -0.009737 -0.016306 -0.000880 -0.010975 -0.020718 -0.008333 -0.013921 -0.003092
5-2 0.004432 -0.008182 -0.005931 -0.005842 -0.011968 0.004250 -0.004687 0.003449 -0.000058 -0.005572 0.007514 0.007677 0.001717 -0.005629 -0.011140 0.014664 0.001520 0.005426 0.015730 0.016238 -0.004536 0.002755 -0.004043 0.001784 -0.011795 -0.012376 -0.001355 0.024880 0.001491 -0.000472 -0.000571 0.003531 -0.003810 0.001186 0.008829 0.009226 -0.009671 -0.008085 -0.000660 0.001859 0.018516 -0.004609 -0.015710 0.004598 0.004765 -0.003327 -0.011540 -0.004495 -0.013772 0.000808 0.000059 -0.012512 0.006261 -0.007238 0.005684 -0.001733 0.011694 -0.019749 -0.003102 0.002193 -0.006040 0.004516 0.001791 0.009095 -0.000159 -0.007281 -0.010934 -0.007168 0.008597 0.018801 -0.002018 0.005518 -0.004819 -0.002925 -0.005644 0.001167 0.003624 -0.005526 -0.004172 0.008261 -0.017339 0.001115 0.007297 -0.005014 0.008761 -0.014823 -0.000599 -0.003516 -0.003770 -0.005734 0.007631 0.006357 0.000637 -0.025338 -0.016604 0.006817 0.006078 -0.014533 0.004679 -0.010172 0.008975 0.002942 0.006773 0.009951 -0.007709 0.019981 -0.006155 -0.005960 0.003342 0.004334 0.001706 0.012423 -0.006268 0.009640 -0.002837 -0.005107 0.009173 -0.002926 -0.003394 -0.012550 -0.006112 -0.003970 -0.003539 -0.003693 -0.011341 -0.007267 -0.002867 -0.002816
3-1 0.004985 -0.003791 -0.002261 -0.006909 -0.008692 0.000820 -0.007687 0.006396 0.002717 -0.000123 0.004968 0.003603 0.000596 -0.004177 -0.013134 0.007326 0.003159 0.002304 0.010710 0.013546 -0.005050 0.001639 -0.002611 0.004598 -0.008929 -0.010802 -0.002141 0.023139 0.003811 -0.007032 0.000182 0.006400 0.001199 -0.000347 0.006986 0.006296 -0.010430 -0.008638 -0.003542 -0.003685 0.017455 -0.008455 -0.012596 -0.000116 0.005168 -0.002415 -0.005937 -0.000028 -0.013462 0.003978 0.002315 -0.008220 0.009538 -0.006974 0.008396 -0.000391 0.007300 -0.013258 -0.002977 0.004518 -0.008379 0.006193 -0.002127 0.012978 0.002082 -0.009082 -0.010439 -0.009721 0.013396 0.012330 -0.001994 0.000690 -0.008317 -0.002117 -0.002505 0.003704 0.003070 -0.006803 -0.005269 0.007581 -0.012607 0.001136 0.010222 -0.003074 0.003862 -0.012549 0.002636 -0.003708 -0.002322 -0.006963 0.008224 0.004586 -0.001607 -0.022470 -0.015317 0.003657 0.007148 -0.012406 0.002764 -0.011139 0.003304 0.005670 0.006312 0.008065 -0.011249 0.017274 -0.009827 -0.001924 -0.000065 0.007754 0.000213 0.007634 0.000699 0.006320 0.002042 -0.000011 0.007493 -0.003476 -0.001319 -0.011376 0.000072 -0.007448 -0.002840 -0.002830 -0.008151 -0.002011 -0.007034 -0.003018
