6 128
0 0.003605 -0.002927 0.007786 0.01555 -0.037557 0.001459 0.006804 -0.021166 0.017114 0.001474 0.015357 0.012036 0.005232 0.019452 -0.003857 0.022145 0.00064 0.034518 0.007837 0.028348 -0.030573 -0.01114 0.012222 0.011075 -0.032245 -7.7e-05 0.015413 0.03499 -0.003246 -0.015626 0.002723 0.013826 0.014848 -0.004845 0.001958 0.012614 -0.019412 -0.008807 0.007946 -0.003833 0.011054 -0.020439 -0.009664 -0.037573 0.019603 0.015949 0.018957 0.003257 -0.007547 0.00439 -0.020669 -0.020361 -0.005237 -0.025946 -0.005142 -0.009488 0.023203 -0.048242 0.029597 0.021411 -0.026125 0.001355 -0.004353 0.014276 0.013475 0.001327 -0.019399 0.001027 0.002683 0.020809 0.01114 0.010485 0.018473 0.022235 0.004321 0.012995 0.020595 -0.002126 -0.009456 0.026851 -0.034572 0.010405 -0.00475 0.012134 0.018305 -0.01695 -0.006893 -0.004736 -0.019147 -0.018547 -0.010413 -0.010464 -0.007673 -0.021529 -0.016822 0.014187 -0.004637 -0.032104 0.003051 0.005 0.002265 0.003995 0.000329 0.016745 0.002043 0.005263 0.002464 0.008238 -0.023422 -0.000913 0.010354 -0.015682 -0.020621 0.032006 -0.016765 -0.001462 0.001868 -0.011137 0.024247 -0.006589 -0.006677 0.004101 0.00028 0.01737 -0.002892 0.005572 -0.021684 -0.008187
2 0.005933 -0.005862 0.007591 0.014158 -0.045954 0.001629 0.007174 -0.029533 0.020893 -0.004188 0.023988 0.022307 0.013593 0.020888 -0.011061 0.031277 -0.002214 0.043405 0.017 0.03977 -0.038775 -0.015717 0.01551 0.021052 -0.040921 -0.004156 0.020152 0.045581 -0.002328 -0.02253 0.002192 0.022353 0.022024 -0.006358 -0.002234 0.020688 -0.026334 -0.0079 0.008797 -0.009016 0.013186 -0.025094 -0.020352 -0.050119 0.025664 0.024187 0.02306 -0.001329 -0.015514 0.010641 -0.02668 -0.027004 -0.003852 -0.031402 -0.0047 -0.009069 0.028732 -0.065593 0.043427 0.028095 -0.036525 0.009799 -0.00294 0.018105 0.015669 -0.003382 -0.029955 -0.000511 0.012537 0.035025 0.01637 0.012658 0.017315 0.026097 0.006451 0.020512 0.026579 -0.005825 -0.007674 0.032725 -0.044063 0.015685 0.001592 0.011577 0.022107 -0.024357 -0.007253 -0.001958 -0.019474 -0.024239 -0.011023 -0.011069 -0.011163 -0.030748 -0.031985 0.016052 -0.00084 -0.042811 0.001545 0.006207 0.002661 0.007245 0.003099 0.024995 0.003659 0.009933 0.000122 0.009529 -0.027365 0.00626 0.021233 -0.024541 -0.025845 0.04062 -0.019181 -0.000875 0.004602 -0.014402 0.030286 -0.011887 -0.01444 -0.001524 -0.000164 0.022366 -0.007777 0.01172 -0.026533 -0.009104
1 -0.001298 -0.002925 0.004406 0.012958 -0.03145 -0.00171 0.001508 -0.019235 0.010182 -0.001485 0.017161 0.013221 0.00388 0.016951 -0.006797 0.017416 0.00356 0.028592 0.00907 0.02321 -0.026711 -0.011592 0.012426 0.012372 -0.025322 -0.00309 0.012458 0.028079 -0.005206 -0.010858 0.005439 0.009835 0.01527 -0.006744 -0.003286 0.015381 -0.01329 -0.003782 0.002696 -0.005178 0.007722 -0.017964 -0.013668 -0.029387 0.017123 0.011272 0.014102 -0.001882 -0.010823 0.002029 -0.014438 -0.017307 -0.000599 -0.020107 -0.000892 -0.005974 0.017897 -0.038543 0.024769 0.015773 -0.021166 0.002455 -0.005483 0.01172 0.01229 -0.003599 -0.015847 0.001933 0.006622 0.022097 0.011621 0.005583 0.014848 0.01866 0.003868 0.010491 0.014595 -0.002642 -0.007596 0.019729 -0.028961 0.010541 -0.000396 0.0037 0.012337 -0.011726 -0.0074 -0.004398 -0.01481 -0.015252 -0.005597 -0.004854 -0.007552 -0.017836 -0.018045 0.011196 0.000465 -0.024876 -0.004028 0.00106 -0.002171 0.004828 0.003354 0.016661 0.004021 0.009249 0.001742 0.007648 -0.018618 -0.001384 0.013189 -0.009452 -0.019897 0.027068 -0.015942 0.00234 0.006866 -0.010511 0.012883 -0.006491 -0.00792 0.003502 -0.002441 0.01023 -0.00516 0.004392 -0.01765 -0.007374
3 0.001289 -0.000563 0.00706 0.007339 -0.028875 -0.000799 0.001731 -0.016171 0.006997 -0.001033 0.015728 0.013881 0.003092 0.014134 -0.007307 0.018382 0.002057 0.026704 0.009938 0.022134 -0.019649 -0.013051 0.011929 0.008365 -0.024718 -0.001874 0.008332 0.027425 0.001654 -0.009077 -0.00061 0.013794 0.014248 -0.004718 0.001486 0.008672 -0.008853 -0.007195 0.005978 -0.007844 0.005201 -0.015748 -0.010111 -0.023323 0.012637 0.008472 0.007996 -0.001452 -0.00526 0.00416 -0.014582 -0.014777 -0.003403 -0.01402 -0.000512 -0.004515 0.017532 -0.035577 0.020631 0.013831 -0.015437 0.001521 0.000804 0.011307 0.007195 0.001427 -0.016646 0.000331 0.005487 0.021 0.006879 0.001818 0.011696 0.017189 0.007419 0.008854 0.015704 -0.005348 -0.002352 0.018457 -0.026032 0.005064 0.002468 0.005713 0.014493 -0.012277 -0.0009 -0.006006 -0.013439 -0.016973 -0.003376 -0.007377 -0.003919 -0.017592 -0.018458 0.010221 -0.005129 -0.02324 0.001732 0.002959 -0.001444 0.004447 0.005046 0.016818 0.001637 0.007485 0.000211 0.000758 -0.011758 -0.000302 0.013214 -0.013266 -0.01518 0.023576 -0.012787 2e-06 0.006325 -0.005196 0.018593 -0.000868 -0.005952 0.000707 -0.003458 0.007096 -0.002693 0.00779 -0.016876 -0.006725
4 0.004372 -0.003381 0.001496 0.003899 -0.019354 -0.001624 0.002799 -0.014765 0.011278 0.000601 0.009945 0.008882 0.005959 0.013052 -0.003629 0.012433 -0.001343 0.01885 0.003324 0.014492 -0.017388 -0.010104 0.005532 0.009359 -0.014753 0.002815 0.009626 0.018697 -0.002987 -0.009256 0.002144 0.01065 0.01084 -0.005385 -0.004804 0.008449 -0.011802 -0.00054 0.005912 -0.006927 0.000614 -0.009873 -0.006365 -0.019348 0.010451 0.011568 0.009477 0.003551 -0.00419 0.005296 -0.008655 -0.01044 0.001702 -0.013756 -0.005001 -0.000849 0.006778 -0.026245 0.018105 0.011474 -0.014468 0.005782 -0.001687 0.004818 0.008774 0.000588 -0.013099 -0.001266 0.002447 0.016008 0.009514 0.003081 0.009785 0.013164 0.003847 0.010729 0.006861 0.00287 0.000328 0.013835 -0.01704 0.002835 -0.003484 0.005778 0.005474 -0.00829 -0.001016 -0.000834 -0.005995 -0.012721 -0.005354 -0.003209 -0.003991 -0.008516 -0.011678 0.002148 -0.003455 -0.013926 -0.004176 0.004993 -0.003248 0.004405 0.006429 0.010747 0.00191 0.002289 0.003428 -0.000766 -0.013827 0.002778 0.008484 -0.009243 -0.01348 0.015426 -0.007922 -0.002641 0.003782 -0.006345 0.012426 -0.001598 -0.006656 0.000695 -0.004559 0.008709 0.0021 0.005898 -0.005254 -0.005159
5 -0.00088 -0.00217 0.004364 0.008074 -0.016102 -0.002159 0.003101 -0.006004 0.009016 -0.001772 0.003015 0.007807 0.00395 0.006259 -0.001251 0.010274 -0.001707 0.009136 0.00713 0.010915 -0.009877 -0.005097 0.008548 0.003055 -0.013223 0.000843 0.008472 0.016534 0.0016 -0.001791 0.001286 0.009177 0.004694 -0.000873 0.000232 0.005919 -0.008079 0.00042 0.001043 0.000309 0.002897 -0.007442 -0.005022 -0.017314 0.009809 0.002261 0.00561 -0.000694 -0.002657 0.002519 -0.006741 -0.003718 -0.002297 -0.011658 0.001151 -0.005503 0.005361 -0.021315 0.013513 0.004848 -0.011889 -0.000877 0.000217 0.003948 0.005717 -0.000637 -0.008207 0.000463 0.005892 0.011586 0.000821 0.005693 0.007971 0.004529 0.002574 0.003488 0.008966 -0.002123 4.2e-05 0.007423 -0.010146 0.004104 -0.000308 0.006857 0.005653 -0.007064 -0.000726 0.002311 -0.008163 -0.00681 -0.005759 -0.003783 -0.006587 -0.011476 -0.008937 0.000682 -0.002255 -0.014314 0.002623 0.001446 0.001472 0.001306 0.003045 0.0037 0.002183 0.00488 0.000812 0.005813 -0.010083 0.000755 0.007123 -0.005271 -0.004663 0.010366 -0.004764 0.000492 0.000694 -0.003977 0.010249 -0.004295 -0.00563 -0.002064 0.002115 0.002439 -0.001891 0.001308 -0.008614 0.000715
