11 128
2-0 0.005288 -0.005344 -0.001991 -0.005513 -0.009832 0.003746 -0.004175 0.002484 0.002347 -0.005900 0.006968 0.004672 0.008110 -0.007490 -0.010845 0.010800 -0.000075 0.004777 0.015032 0.015471 -0.001326 0.001273 -0.002381 0.007725 -0.008313 -0.010149 -0.001243 0.018926 0.004608 -0.007652 -0.004766 0.006266 0.000310 -0.000080 0.005916 0.008456 -0.007099 -0.009342 -0.000024 -0.002389 0.016034 -0.005725 -0.012507 -0.001161 0.006517 0.005504 -0.007127 -0.005059 -0.010637 0.003454 -0.002291 -0.010671 0.006911 -0.003898 0.006234 0.000947 0.011576 -0.016078 0.001285 0.004133 -0.005268 0.006526 0.002889 0.009431 0.000092 -0.008868 -0.008895 -0.007439 0.012926 0.012287 -0.002277 0.004391 -0.010296 -0.001481 -0.002641 0.002810 0.010210 -0.009784 -0.005765 0.006827 -0.012791 0.003693 0.010786 0.000154 0.007235 -0.011490 -0.000296 -0.002601 0.001800 -0.005033 0.005426 0.001310 0.001525 -0.020190 -0.018567 0.004005 0.007922 -0.012769 0.008075 -0.006865 0.008217 0.004409 0.000697 0.010863 -0.010782 0.011927 -0.009127 -0.002275 0.002662 0.009825 0.002072 0.001653 0.002346 0.008014 0.001861 0.000056 0.003450 -0.001013 0.004227 -0.011717 -0.003738 -0.010180 0.000762 0.001447 -0.011103 -0.000510 -0.007784 -0.002350
1-0 0.000435 -0.005139 -0.002264 -0.001479 -0.015884 0.000305 -0.008257 0.001368 0.000316 -0.004295 0.010516 0.004499 0.003184 -0.002232 -0.011841 0.010248 0.005963 0.008025 0.014309 0.016014 -0.005065 -0.002052 0.001007 0.007341 -0.009696 -0.010861 -0.001384 0.022426 0.001116 -0.004455 -0.000359 0.003041 0.002639 -0.003907 0.004470 0.012202 -0.004411 -0.009587 -0.002534 -0.002928 0.016649 -0.009538 -0.014318 0.001054 0.008973 0.001271 -0.008933 -0.005674 -0.012296 -0.001555 0.000381 -0.012933 0.010454 -0.005649 0.009012 0.000930 0.012706 -0.016383 -0.001525 0.002616 -0.003951 0.002415 -0.000873 0.011075 0.003733 -0.010685 -0.007145 -0.006095 0.012186 0.014908 -0.000856 0.001578 -0.005390 0.002213 -0.002309 0.000424 0.008942 -0.009003 -0.009097 0.007689 -0.016994 0.003872 0.009584 -0.003110 0.006582 -0.008834 -0.002990 -0.007352 -0.001618 -0.007063 0.007348 0.003650 0.001438 -0.021126 -0.018679 0.005282 0.008399 -0.012303 0.002951 -0.010436 0.003836 0.005701 0.004020 0.014005 -0.010497 0.017032 -0.007551 -0.002136 0.000633 0.004237 0.001904 0.009105 -0.002581 0.011355 -0.003214 0.002669 0.009358 -0.003014 -0.001295 -0.010947 -0.002615 -0.005629 -0.003122 -0.003500 -0.011418 -0.003693 -0.009599 -0.005374
0-1 0.006235 -0.008132 -0.002774 -0.007126 -0.013696 0.001091 -0.006144 0.003257 0.005697 -0.003588 0.008477 0.001015 0.008462 -0.000617 -0.011687 0.010356 0.001711 0.004731 0.014278 0.017326 0.002349 -0.000968 -0.003254 0.009004 -0.007423 -0.005264 -0.001329 0.022716 0.002050 -0.005726 -0.006571 0.003101 0.002227 -0.005365 0.007879 0.011126 -0.005582 -0.011530 0.001909 -0.004137 0.016283 -0.007762 -0.014135 0.006118 0.005800 0.005893 -0.013027 -0.001408 -0.007044 0.001969 0.002367 -0.012220 0.012940 -0.006741 0.004713 0.005397 0.010450 -0.014848 -0.002824 0.001045 0.001262 0.005843 0.001986 0.006440 0.003004 -0.009866 -0.008925 -0.011333 0.010696 0.013113 -0.004395 0.004833 -0.008763 -0.003162 -0.005223 0.001927 0.009904 -0.008634 -0.006864 0.005696 -0.014493 -0.001839 0.006134 0.001659 0.004402 -0.007776 0.003004 -0.006540 0.003616 -0.009957 0.007407 -0.000310 0.004392 -0.021689 -0.017282 -0.000193 0.003950 -0.007119 0.006722 -0.009124 0.006486 0.003592 0.006206 0.014504 -0.014961 0.013238 -0.006756 -0.006169 0.003469 0.009193 -0.003190 0.007123 0.004541 0.005030 0.003485 0.001176 0.006958 -0.000456 0.004436 -0.011095 -0.000213 -0.009442 -0.001828 0.000589 -0.008843 -0.004383 -0.003173 -0.005075
3-0 0.002691 -0.001949 0.001260 -0.005418 -0.013085 0.000679 -0.006099 0.001915 -0.002074 -0.003039 0.008727 0.005760 0.002094 -0.002587 -0.010472 0.010740 0.003419 0.007498 0.013115 0.013450 0.000238 -0.004625 0.001849 0.003141 -0.009462 -0.007305 -0.003581 0.019708 0.006880 -0.002901 -0.005819 0.007628 0.002988 -0.001949 0.007464 0.004421 -0.000533 -0.010718 0.001664 -0.005847 0.010966 -0.007361 -0.009252 0.003509 0.004390 -0.000504 -0.011294 -0.004146 -0.005277 0.001306 -0.001335 -0.008881 0.005320 -0.000462 0.007276 0.001781 0.010910 -0.013660 -0.002293 0.001791 0.000376 0.001525 0.005018 0.009445 -0.000875 -0.003689 -0.008143 -0.006087 0.009414 0.013040 -0.004006 -0.002175 -0.005812 0.002371 0.002175 0.000274 0.009283 -0.009796 -0.002344 0.006726 -0.012917 -0.001416 0.010105 -0.000180 0.008020 -0.008493 0.003589 -0.007620 -0.001277 -0.009150 0.007380 -0.000009 0.003565 -0.017846 -0.016828 0.004054 0.001004 -0.010305 0.007087 -0.006172 0.003025 0.004640 0.005590 0.012887 -0.009850 0.012493 -0.007022 -0.007620 0.005049 0.004393 0.003379 0.002076 0.000447 0.008253 -0.000754 0.000213 0.007695 0.001943 0.005926 -0.003427 -0.001240 -0.007031 -0.003890 -0.004747 -0.006656 0.001152 -0.008370 -0.004126
5-1 0.006706 -0.000733 -0.001949 -0.004887 -0.008158 0.002385 -0.004007 0.000291 0.005013 -0.003850 0.001161 0.001894 0.006507 -0.004824 -0.009544 0.006567 0.004574 -0.000125 0.005860 0.010941 -0.002124 0.000188 -0.004562 0.006602 -0.006045 -0.008810 -0.004539 0.011296 0.005965 -0.003763 0.001034 0.005964 -0.000346 -0.001631 0.000950 0.005091 0.000310 -0.009276 -0.003045 -0.003364 0.008631 -0.001038 -0.004263 0.005136 0.004709 0.002185 -0.009684 -0.004241 -0.006645 -0.001300 0.003078 -0.011136 0.008805 0.000104 0.004585 -0.000325 0.005815 -0.010800 -0.004811 0.001223 -0.004504 0.002807 -0.001535 0.003075 0.003723 -0.007597 -0.006129 -0.004198 0.004465 0.009484 0.000845 0.000474 -0.004948 -0.001552 0.002466 -0.002602 0.008181 -0.004996 -0.000563 0.003353 -0.010633 0.000219 0.009931 0.002799 0.007527 -0.008617 -0.002256 -0.006461 -0.001306 -0.001543 0.002862 0.004972 0.004453 -0.011171 -0.015246 -0.000696 0.006848 -0.007661 0.003323 -0.003546 0.005389 0.006208 0.001309 0.004517 -0.009611 0.009656 -0.006790 -0.007260 0.002284 0.004105 -0.003297 0.007594 0.003127 0.004241 -0.003240 -0.002764 0.003155 -0.003507 0.000213 -0.003242 0.000393 -0.002277 -0.004561 -0.004425 -0.007866 -0.000632 -0.004586 -0.005182
4-1 -0.000477 -0.004170 -0.001735 -0.004952 -0.006016 -0.001341 -0.002728 0.003031 0.003590 0.001191 0.004156 0.000126 -0.000856 -0.004293 -0.000214 0.004389 -0.002149 0.001530 0.003441 0.008834 -0.001277 -0.002338 0.001105 0.000839 0.000395 -0.003089 -0.001837 0.011494 0.003770 0.001129 0.001033 -0.000593 -0.002298 0.002508 0.001653 0.006946 -0.005117 -0.007067 0.000839 -0.000258 0.006670 0.000244 -0.001350 0.001245 0.005437 -0.002380 -0.007376 0.000820 -0.004553 -0.000246 0.003738 -0.007779 0.007321 -0.004555 0.003394 0.003287 0.007456 -0.009290 -0.002864 -0.000194 -0.001260 -0.002337 0.003079 0.006383 -0.001686 -0.002231 -0.000283 -0.004712 0.004359 0.005562 -0.003650 0.000286 -0.002454 0.002271 -0.001277 -0.002288 -0.000381 -0.002280 -0.004740 0.005810 -0.007820 0.002736 0.002481 -0.003282 0.002124 -0.001527 -0.002898 0.000141 0.003938 0.000613 0.001969 0.001395 0.003768 -0.007329 -0.009374 0.003822 0.001484 -0.004706 0.003324 -0.002237 0.002328 0.001254 0.003219 0.007794 -0.008516 0.004483 -0.000837 -0.005853 0.004500 0.001547 -0.003749 0.005885 -0.002024 0.003042 -0.000854 -0.002491 0.006089 -0.001983 -0.000459 -0.006004 -0.001321 -0.004238 -0.001139 -0.004412 -0.000138 0.001661 -0.000651 -0.004064
4-2 0.003443 -0.004763 -0.003826 -0.001285 -0.007407 0.002431 -0.005524 0.003495 -0.003004 -0.002335 0.003637 0.000771 0.003187 -0.005113 -0.004972 0.007219 0.003149 0.005855 0.009196 0.003410 -0.000638 -0.000684 -0.003599 0.000347 -0.002371 -0.004172 -0.000636 0.012987 -0.000744 -0.004886 -0.003818 0.004928 -0.002823 -0.002917 0.003746 0.002426 -0.003724 -0.003317 0.003113 -0.001718 0.010337 -0.005322 -0.004750 0.004465 0.004818 0.004111 -0.006198 -0.000238 -0.004200 -0.000548 -0.001623 -0.003687 0.006179 0.001277 0.004519 0.001178 0.002877 -0.004662 -0.004752 0.001448 0.001102 0.003141 0.002975 0.006882 0.001806 -0.002198 -0.002115 -0.004478 0.005177 0.006356 -0.000041 0.000097 -0.006198 0.003700 -0.001890 0.002616 0.003986 -0.001710 -0.004805 0.005109 -0.005521 -0.001725 0.002405 0.002114 0.001927 -0.007191 0.000406 -0.004855 0.002881 -0.005932 0.005026 0.004500 0.002276 -0.010409 -0.006587 -0.000641 0.003671 -0.005866 0.004261 -0.004987 0.002413 0.006190 0.002543 0.007162 -0.008073 0.008334 -0.004854 -0.005752 -0.001773 0.005162 0.001860 0.006234 -0.002670 0.007139 0.001539 -0.002220 0.002599 0.002823 0.000819 -0.005166 -0.004495 -0.005542 -0.004130 -0.001615 -0.004552 -0.004710 -0.002282 -0.001190
0-2 -0.000418 -0.004634 0.000442 -0.000690 0.001046 0.001433 -0.004107 0.002195 0.002426 -0.000908 0.001883 0.003032 0.002239 0.002210 -0.003630 0.001242 0.001009 0.001396 -0.000541 0.006213 -0.002554 0.001983 -0.002959 -0.000824 -0.001538 -0.002283 -0.001798 0.005421 0.002647 -0.001324 0.002206 -0.000074 -0.002058 0.000038 0.004623 0.002175 -0.002221 -0.000044 -0.000155 0.002567 -0.000375 0.001848 -0.002371 0.000633 -0.002094 -0.000570 -0.001009 0.002026 0.001830 0.003783 -0.002765 -0.004446 0.002583 0.000445 0.002243 -0.001924 0.001454 -0.003214 -0.003100 0.000161 -0.000677 0.001048 0.002562 0.000873 0.003018 0.001015 -0.001709 -0.004646 -0.000433 0.003792 0.001002 0.000379 0.000642 0.000362 0.001451 -0.002098 0.000095 -0.000402 -0.002013 0.000274 -0.006816 -0.001276 0.004349 0.000520 0.004156 -0.004229 0.003697 0.001754 0.000990 -0.000303 0.002704 -0.003356 0.003910 -0.006376 -0.001633 -0.002157 -0.002628 -0.005514 0.004381 0.002104 -0.000545 0.002835 0.000734 0.002167 -0.000836 0.002498 -0.004997 -0.002863 0.001579 0.003029 0.003675 -0.001290 -0.003546 -0.002022 -0.003391 -0.003731 -0.001603 0.000446 0.003200 -0.005988 0.000749 -0.000421 0.000036 -0.001290 -0.004702 -0.001408 0.000927 -0.000831
5-0 -0.001044 -0.002077 0.001488 0.002300 -0.005379 -0.001645 -0.000106 0.003191 0.003697 -0.002369 -0.001968 0.002769 0.002589 -0.002000 -0.001174 0.004234 -0.001306 -0.002234 0.006621 0.003654 0.001051 -0.000195 0.003383 -0.000607 -0.003559 -0.000750 0.002471 0.008547 0.003471 0.002441 -0.000768 0.004610 -0.001485 0.000903 0.002272 0.002433 -0.002635 0.000393 -0.001537 0.002130 0.003517 -0.001784 -0.002879 -0.003336 0.004262 -0.002947 -0.002921 -0.001799 -0.001326 0.000624 0.000378 0.001312 0.000858 -0.003713 0.004233 -0.002462 0.000024 -0.006801 0.001621 -0.002110 -0.002921 -0.001523 0.001893 0.001262 0.001193 -0.002349 -0.002149 -0.001539 0.006254 0.005012 -0.004494 0.003342 -0.000178 -0.003616 -0.000136 -0.001385 0.004054 -0.003169 0.000808 -0.000269 -0.000689 0.000677 0.002301 0.003504 0.000976 -0.003220 0.001366 0.002435 -0.001753 -0.001226 -0.001075 -0.000126 -0.003142 -0.008204 -0.005038 -0.003075 0.000409 -0.005392 0.004264 -0.002297 0.002972 0.000458 0.002434 -0.000515 -0.001823 0.005323 -0.001787 0.002582 -0.001520 0.002038 0.001773 0.002107 0.003627 0.000740 0.001609 0.000884 0.000299 -0.000097 0.002620 -0.004298 -0.002734 -0.004796 0.002458 -0.003466 -0.002762 -0.002125 -0.002957 0.002865
5-2 0.003213 -0.001959 -0.003419 -0.003365 -0.001230 0.002934 0.001199 -0.000022 -0.002099 -0.001802 0.001243 0.002902 -0.001465 -0.001061 -0.002727 0.005083 -0.000497 0.000936 0.004010 0.002623 -0.000467 0.002468 -0.003316 -0.001627 -0.004509 -0.003218 -0.000390 0.004963 -0.001494 0.002138 -0.000816 -0.000126 -0.002199 0.001328 0.003567 0.000053 -0.002797 -0.001305 0.000816 0.001557 0.004832 0.000213 -0.005215 0.004375 -0.002079 -0.002726 -0.003806 -0.001271 -0.004105 0.000028 0.000182 -0.002481 -0.001595 -0.002106 -0.001694 -0.001072 0.002306 -0.004725 -0.001135 0.000483 -0.001053 0.002426 0.000123 0.000058 -0.002171 -0.000294 -0.004811 -0.000832 -0.001210 0.005884 -0.000122 0.002600 -0.000062 -0.003178 -0.003455 0.001386 -0.001862 0.000603 0.002034 0.001780 -0.003858 -0.001858 -0.000736 -0.003190 0.002630 -0.005138 0.000768 -0.001196 -0.003397 -0.001915 0.002374 0.003291 -0.000668 -0.006407 -0.001680 0.003516 0.000304 -0.002179 -0.000531 -0.003198 0.003952 -0.001662 0.003207 0.000547 0.000892 0.006112 0.000674 -0.002972 0.002074 -0.000724 -0.000244 0.004960 -0.003546 0.002033 -0.000822 -0.003713 0.003211 -0.000745 -0.003275 -0.001147 -0.002320 0.002013 -0.002104 0.000001 -0.002074 -0.003910 0.002788 -0.000061
3-1 0.003909 0.001336 -0.000090 -0.004929 0.000337 -0.000398 -0.002644 0.003788 0.001096 0.003162 -0.000420 -0.000443 -0.002136 -0.000662 -0.005803 -0.000647 0.001075 -0.001590 0.001061 0.002052 -0.001448 0.001340 -0.001793 0.001533 -0.002644 -0.002943 -0.001183 0.006687 0.001492 -0.004794 -0.000228 0.003511 0.002395 0.000029 0.002671 -0.001465 -0.005022 -0.002920 -0.002148 -0.003892 0.006104 -0.004424 -0.003653 -0.000588 -0.000395 -0.002028 0.000558 0.002849 -0.005338 0.003504 0.002446 0.000502 0.002898 -0.002844 0.002298 0.000244 -0.000623 -0.000740 -0.001193 0.003050 -0.004243 0.004358 -0.003232 0.005637 0.000137 -0.003086 -0.005225 -0.004532 0.005498 0.001397 -0.000766 -0.001687 -0.004517 -0.002364 -0.000759 0.003993 -0.001637 -0.001708 -0.000069 0.002254 -0.000999 -0.001291 0.003373 -0.001481 -0.001491 -0.004399 0.003895 -0.001419 -0.001771 -0.003739 0.003723 0.001939 -0.002867 -0.006686 -0.002809 0.000874 0.002197 -0.002116 -0.001341 -0.005300 -0.000831 0.001717 0.003409 0.000174 -0.004213 0.005534 -0.004047 0.000661 -0.001116 0.003703 -0.001434 0.001227 0.003174 -0.000108 0.004129 0.001157 0.002469 -0.001513 -0.001005 -0.001975 0.003091 -0.002880 -0.001414 0.000238 -0.000112 0.000961 -0.002290 -0.000497
