34 256
24 0.02923819 0.01924642 -0.0036873866 0.05279611 0.033420086 0.018497506 -0.06580865 0.011309372 -0.028554128 -0.017594155 0.022921465 -0.019146672 -0.0018999295 0.016907921 0.007573524 -0.017883977 -0.04871097 -0.046985134 -0.006632581 -0.042895544 -0.03610478 -0.007722079 -0.045023337 0.028249446 0.0028306465 0.031678855 0.010863682 0.0971345 -0.058191773 0.0064718593 0.03166249 0.031567834 -0.011105998 0.01269554 -0.0016884755 0.038375575 -0.011393226 0.028148767 -0.022898775 0.0015277097 -0.0060106707 0.035791334 0.0010679469 -0.01673465 -0.015806636 -0.027769452 0.004556286 0.007354001 0.008058456 0.009408841 -0.0024659936 0.012395893 -0.011697673 -0.0135822315 0.015367128 -0.026439192 -0.015922986 -0.056668628 0.052970394 0.046603136 -0.0070248395 -0.03286813 0.015216266 -0.03162236 0.056816854 0.0019824437 0.03107907 0.037404794 0.03177298 -0.03644501 0.025868604 0.02151613 0.010413745 -0.043804586 -0.03324386 -0.0155166825 0.01965146 0.004091625 0.008582267 0.009096801 0.03995047 -0.012019175 0.050618436 0.018990386 0.020621419 0.05963653 -0.01211 -0.0034155578 -0.0062029297 0.04129886 -0.00033034323 -0.0034567774 -0.023824519 -0.049075298 -0.0580971 -0.017573947 0.020722909 0.07713224 -0.041886736 0.030415623 -0.032302212 -0.017794285 -0.03092014 0.03813471 -0.020712944 -0.07265707 0.041556276 0.0020810517 -0.03418182 -0.008015611 0.0023616957 0.027912268 0.005479325 -0.0123215895 -0.040565662 -0.010029695 -0.015957335 0.02522653 -0.019095972 -0.03040251 0.024358585 -0.013473624 -0.04194721 0.027826473 0.013781435 0.00017062895 0.034816444 0.04054386 0.097620666 0.07096027 -0.026804777 0.23006564 0.1295845 0.04491448 -0.25266314 0.024364341 -0.10705091 -0.083204396 0.10635976 -0.06081622 -0.0060707196 0.059628613 0.0073187463 -0.08266781 -0.20987362 -0.19996934 -0.04955989 -0.16444057 -0.13182741 -0.049565513 -0.19230606 0.12611248 0.019063847 0.11176483 0.030284796 0.38494775 -0.23712038 0.030972905 0.13945773 0.13331686 -0.047440015 0.048837427 0.0010268121 0.15503222 -0.051918466 0.08179939 -0.11294517 0.0068636807 -0.016810808 0.14459859 -0.011192968 -0.04011834 -0.064178914 -0.11272038 0.021126786 0.03531961 0.041091062 0.026387462 -0.027295519 0.04840594 -0.043187477 -0.06445028 0.06029495 -0.12925705 -0.07090612 -0.21117257 0.19913477 0.18719155 -0.025270125 -0.11095577 0.05182508 -0.1481486 0.23238006 0.019862236 0.13565877 0.15530393 0.11539552 -0.14778745 0.109202005 0.09961438 0.05353127 -0.1600578 -0.110160895 -0.067767404 0.08166733 0.014500734 0.031951085 0.031013435 0.18253405 -0.023593972 0.18923242 0.093207434 0.0700653 0.23393959 -0.07319218 -0.009647987 -0.045803897 0.17365073 0.004114334 -0.03484857 -0.10750881 -0.19533025 -0.24258383 -0.057622638 0.080469035 0.3250655 -0.17148858 0.13719259 -0.112682626 -0.05949515 -0.11748955 0.14519815 -0.0618835 -0.2930654 0.15301585 0.012138057 -0.1374707 -0.020979907 -0.012151172 0.11961852 0.023284847 -0.033538412 -0.1651381 -0.05152869 -0.04584286 0.10959599 -0.079972595 -0.12442166 0.098404996 -0.043650232 -0.18123502 0.12299658 0.059936542 0.02082907 0.13720074 0.18223035
25 0.013320608 0.006986918 0.00096268044 0.03149837 0.018641237 0.0071259714 -0.029906254 0.0046635265 -0.011835461 -0.009977498 0.015006576 -0.008741703 0.00095930777 0.00504307 0.0023342264 -0.012397306 -0.027854895 -0.027529294 -0.0037642594 -0.018973716 -0.019525908 -0.009474384 -0.025630368 0.017229667 0.00020912322 0.012049925 0.0053431555 0.053198706 -0.031138789 0.002270328 0.021275202 0.01945579 -0.0092337625 0.006236683 -0.0006004323 0.02268559 -0.009087708 0.009567599 -0.012880397 -0.00016407519 -0.0037856456 0.0174706 0.0003219079 -0.005912259 -0.0065127234 -0.01502387 0.00063001574 0.0067704027 0.0064536757 0.004467543 -0.0027619966 0.004271953 -0.0041240663 -0.008319109 0.009782858 -0.014911913 -0.0097567905 -0.024965221 0.024447104 0.02396253 -0.0017505102 -0.013107658 0.004936825 -0.018874828 0.032539617 0.0028416715 0.018151926 0.022526333 0.010607708 -0.021383261 0.012297044 0.015517169 0.010697652 -0.023081267 -0.013946444 -0.0059522428 0.007865276 0.0029426794 0.004152852 0.0041411864 0.022078734 -0.003264828 0.02359625 0.014168132 0.008713327 0.02590944 -0.008810361 -0.003684714 -0.007718671 0.024019608 0.0035780882 -0.007471401 -0.0145214265 -0.02694459 -0.032729257 -0.005124567 0.007835786 0.042651985 -0.018914519 0.018175213 -0.013074921 -0.0060285777 -0.017707292 0.02023986 -0.010102725 -0.039271213 0.023489041 0.00036813683 -0.021885818 -0.0055928715 0.0020073755 0.018066296 -0.00031586702 -0.0042897346 -0.018440107 -0.008727245 -0.006744368 0.012033213 -0.013882866 -0.014713939 0.016005907 -0.0017463601 -0.023469387 0.0188186 0.00485998 0.003219068 0.018562237 0.021787027 0.097620666 0.07096027 -0.026804777 0.23006564 0.1295845 0.04491448 -0.25266314 0.024364341 -0.10705091 -0.083204396 0.10635976 -0.06081622 -0.0060707196 0.059628613 0.0073187463 -0.08266781 -0.20987362 -0.19996934 -0.04955989 -0.16444057 -0.13182741 -0.049565513 -0.19230606 0.12611248 0.019063847 0.11176483 0.030284796 0.38494775 -0.23712038 0.030972905 0.13945773 0.13331686 -0.047440015 0.048837427 0.0010268121 0.15503222 -0.051918466 0.08179939 -0.11294517 0.0068636807 -0.016810808 0.14459859 -0.011192968 -0.04011834 -0.064178914 -0.11272038 0.021126786 0.03531961 0.041091062 0.026387462 -0.027295519 0.04840594 -0.043187477 -0.06445028 0.06029495 -0.12925705 -0.07090612 -0.21117257 0.19913477 0.18719155 -0.025270125 -0.11095577 0.05182508 -0.1481486 0.23238006 0.019862236 0.13565877 0.15530393 0.11539552 -0.14778745 0.109202005 0.09961438 0.05353127 -0.1600578 -0.110160895 -0.067767404 0.08166733 0.014500734 0.031951085 0.031013435 0.18253405 -0.023593972 0.18923242 0.093207434 0.0700653 0.23393959 -0.07319218 -0.009647987 -0.045803897 0.17365073 0.004114334 -0.03484857 -0.10750881 -0.19533025 -0.24258383 -0.057622638 0.080469035 0.3250655 -0.17148858 0.13719259 -0.112682626 -0.05949515 -0.11748955 0.14519815 -0.0618835 -0.2930654 0.15301585 0.012138057 -0.1374707 -0.020979907 -0.012151172 0.11961852 0.023284847 -0.033538412 -0.1651381 -0.05152869 -0.04584286 0.10959599 -0.079972595 -0.12442166 0.098404996 -0.043650232 -0.18123502 0.12299658 0.059936542 0.02082907 0.13720074 0.18223035
6 0.04275589 0.026445674 -0.0012633506 0.08344178 0.05398827 0.03476467 -0.09683011 0.023123575 -0.041460156 -0.02754066 0.038217448 -0.030208359 -0.00011272362 0.022851655 0.013670994 -0.029643465 -0.075173184 -0.07207149 -0.0072521116 -0.05969273 -0.06266471 -0.016439142 -0.06802644 0.041310366 0.0012504688 0.042582665 0.022515232 0.14984936 -0.08074303 0.0035060623 0.056481637 0.046579733 -0.021682335 0.020779839 -0.0024823975 0.06191317 -0.019886956 0.040968537 -0.02614002 -0.0024509903 -0.013220262 0.046666667 0.0038240845 -0.029897917 -0.017810166 -0.044577274 0.0035780333 0.014611244 0.015636986 0.014969877 -0.00081387704 0.014234996 -0.018073745 -0.017343294 0.026060915 -0.035135373 -0.024459803 -0.08071944 0.07800161 0.06583835 -0.004936889 -0.045789234 0.018293135 -0.046339788 0.09218642 0.00044981358 0.040966313 0.05352023 0.040786356 -0.056084335 0.034955617 0.04061304 0.024580514 -0.07162146 -0.048189458 -0.02311371 0.024060002 0.006538015 0.00914304 0.00823728 0.054646447 -0.022029808 0.0772083 0.030319065 0.03738542 0.08741991 -0.0168894 -0.008063206 -0.010026869 0.059562005 0.0051824567 -0.009839473 -0.0371184 -0.07932684 -0.090960495 -0.020490788 0.030632908 0.11723096 -0.060039878 0.04633301 -0.04695238 -0.02481049 -0.048586663 0.06354989 -0.034727167 -0.10932894 0.07101879 0.0011966315 -0.05066133 -0.014821572 0.010922075 0.046412863 -0.00023130991 -0.018372111 -0.056571867 -0.019058954 -0.02556403 0.028159708 -0.028866637 -0.046194684 0.04488759 -0.014673625 -0.056191746 0.0432383 0.015239284 -0.0015547982 0.055334404 0.057976753 0.108273774 0.08653651 -0.04071613 0.31190506 0.16402687 0.03346356 -0.3184516 0.018693974 -0.12985468 -0.11375975 0.14808944 -0.06606169 -0.007850681 0.065461054 -0.009642033 -0.1177443 -0.2890788 -0.27262294 -0.083607905 -0.20979646 -0.16152902 -0.077754684 -0.26386726 0.17746595 0.033871986 0.13536236 0.027054718 0.49937642 -0.31635153 0.046111144 0.19120777 0.17955169 -0.06379052 0.061855152 0.0078219 0.20791231 -0.07590485 0.08769415 -0.16394645 0.012285738 -0.017616253 0.19226184 -0.027574245 -0.029466784 -0.083583616 -0.15076299 0.030970583 0.049723137 0.058867123 0.023703387 -0.055000383 0.062411923 -0.053783923 -0.09343408 0.082594834 -0.18648154 -0.09601013 -0.2629707 0.24566181 0.24847801 -0.035557717 -0.12884197 0.057646304 -0.21272495 0.30577818 0.036852762 0.19023624 0.21256845 0.13875675 -0.19553721 0.14954573 0.14016815 0.08125228 -0.19879669 -0.12364092 -0.0870718 0.108595885 0.014522279 0.046529863 0.04263614 0.2540462 -0.014708969 0.24105433 0.1378176 0.07757625 0.2967075 -0.11192408 -0.006786286 -0.07691126 0.2370624 0.008876762 -0.056560658 -0.15244173 -0.2546279 -0.32406405 -0.06660841 0.10229739 0.43304843 -0.22716643 0.1943944 -0.13279645 -0.06629896 -0.14796829 0.18349925 -0.064748704 -0.38024563 0.18877572 0.021292351 -0.18846305 -0.01807076 -0.02589864 0.15968335 0.031050675 -0.028790258 -0.21446162 -0.07195462 -0.043711953 0.15173614 -0.11218777 -0.16320206 0.12687479 -0.043754723 -0.25238883 0.17297792 0.07960019 0.049465414 0.17874995 0.2527422
22 0.0029304768 0.00042743268 0.0023019095 0.002376967 0.0029005466 -0.00041137528 0.00011895789 -0.002243084 -0.0018488416 -0.002800876 -0.00028558503 -0.002256861 -0.0007243265 0.0039407187 -0.0010465056 0.00353595 4.1979976e-05 -0.0017939287 0.0027446388 2.9169078e-05 -0.002564555 0.002249224 -0.0013199402 -0.00084437337 -0.0013353948 0.002005722 -0.001478419 0.003958002 -0.0026158541 0.00028149047 0.00025074894 0.0031959314 0.0030107163 -0.0021541181 0.00060334505 0.003791351 -0.0006301924 0.0037899949 -0.0018426976 0.0011989037 0.0011201479 -0.0015900461 -0.0038243462 -0.0009855384 0.0031064355 -0.0016705443 0.0021856676 -0.0025331303 -0.0009261119 -0.0025619052 0.0015308724 0.0016679494 0.0011699139 -0.0019363629 0.0018262266 -0.002455615 -0.00064789644 -0.0018438853 -0.00023146204 -0.0027959577 0.0009430302 0.001037802 0.0011499405 0.0004592373 -0.0015833509 -0.0027581542 0.00051207945 0.0035462137 -0.0019693936 -0.00086508255 -0.0003675019 0.00024106432 -0.0023645237 -0.0019534503 -0.0024212338 0.0024314846 0.0029094268 -0.000555429 0.0009871018 -0.0024545197 0.0005857303 -0.0017701578 0.0034782311 0.0017486425 0.0014088464 -0.002090941 -0.00051336 0.003664919 0.0034406597 0.001645914 -0.0027950387 0.0010588957 -5.1228373e-05 -0.0012289739 -0.0015016653 0.00057455665 0.002995648 0.0032538583 -2.0859421e-05 0.003792834 -0.0039046246 0.003245809 -0.004208723 -0.0018822104 -0.0010739135 -0.004120675 0.0018273878 -0.0037587115 -0.0021905315 -0.0037812828 0.0018285499 0.0018107618 -0.00084468833 -0.0027378728 0.0014557102 -0.0012764964 0.0022926028 0.00021298691 -1.42775125e-05 -0.0041230284 0.0017043209 -0.0012406436 -0.0025396445 -1.51435015e-05 -0.00070518535 -0.00012515686 0.0043019378 -0.00054372504 0.097620666 0.07096027 -0.026804777 0.23006564 0.1295845 0.04491448 -0.25266314 0.024364341 -0.10705091 -0.083204396 0.10635976 -0.06081622 -0.0060707196 0.059628613 0.0073187463 -0.08266781 -0.20987362 -0.19996934 -0.04955989 -0.16444057 -0.13182741 -0.049565513 -0.19230606 0.12611248 0.019063847 0.11176483 0.030284796 0.38494775 -0.23712038 0.030972905 0.13945773 0.13331686 -0.047440015 0.048837427 0.0010268121 0.15503222 -0.051918466 0.08179939 -0.11294517 0.0068636807 -0.016810808 0.14459859 -0.011192968 -0.04011834 -0.064178914 -0.11272038 0.021126786 0.03531961 0.041091062 0.026387462 -0.027295519 0.04840594 -0.043187477 -0.06445028 0.06029495 -0.12925705 -0.07090612 -0.21117257 0.19913477 0.18719155 -0.025270125 -0.11095577 0.05182508 -0.1481486 0.23238006 0.019862236 0.13565877 0.15530393 0.11539552 -0.14778745 0.109202005 0.09961438 0.05353127 -0.1600578 -0.110160895 -0.067767404 0.08166733 0.014500734 0.031951085 0.031013435 0.18253405 -0.023593972 0.18923242 0.093207434 0.0700653 0.23393959 -0.07319218 -0.009647987 -0.045803897 0.17365073 0.004114334 -0.03484857 -0.10750881 -0.19533025 -0.24258383 -0.057622638 0.080469035 0.3250655 -0.17148858 0.13719259 -0.112682626 -0.05949515 -0.11748955 0.14519815 -0.0618835 -0.2930654 0.15301585 0.012138057 -0.1374707 -0.020979907 -0.012151172 0.11961852 0.023284847 -0.033538412 -0.1651381 -0.05152869 -0.04584286 0.10959599 -0.079972595 -0.12442166 0.098404996 -0.043650232 -0.18123502 0.12299658 0.059936542 0.02082907 0.13720074 0.18223035
26 0.05880211 0.034115884 -0.00060862233 0.10446566 0.06943806 0.043812037 -0.11885363 0.02566154 -0.049068328 -0.036061965 0.04693399 -0.04008629 0.0006995872 0.027718361 0.019316358 -0.037843548 -0.08874427 -0.089647435 -0.0029121551 -0.0737642 -0.076413594 -0.021779377 -0.084592305 0.05383192 0.001256889 0.056677885 0.02731558 0.18912955 -0.107745 0.009267953 0.06725321 0.064144515 -0.026959382 0.024823328 -0.0049860775 0.07692038 -0.024194425 0.047858372 -0.03852216 -0.0058313403 -0.01770762 0.059127327 0.009190791 -0.038837682 -0.023752365 -0.0493493 0.0034562082 0.019005165 0.016202658 0.022994319 0.0019669435 0.017874813 -0.01723803 -0.024683883 0.03251607 -0.041578323 -0.03373757 -0.10534002 0.09692101 0.08343679 -0.0045724935 -0.06277955 0.023805233 -0.053560153 0.11295527 0.0031091543 0.053734377 0.06739732 0.053352598 -0.07103071 0.040089287 0.047804866 0.026771493 -0.08666322 -0.065237895 -0.02415073 0.029195298 0.011272822 0.014302573 0.008950829 0.06909 -0.02105883 0.09451599 0.03825252 0.044874743 0.110075735 -0.018265476 -0.010632288 -0.017525235 0.07757692 0.0077866134 -0.014187171 -0.041574255 -0.09741769 -0.10843105 -0.02653101 0.032286678 0.14419952 -0.071070634 0.05476912 -0.05688318 -0.03391808 -0.06262228 0.078499444 -0.046410043 -0.14348774 0.09018563 -0.00040811 -0.06321878 -0.022189798 0.012465422 0.05942679 0.0031675382 -0.02901425 -0.07203823 -0.028230242 -0.037978757 0.042354632 -0.043869395 -0.055042714 0.056704458 -0.018501472 -0.071211606 0.053322718 0.020763675 -0.0018035454 0.068890855 0.07002269 0.097620666 0.07096027 -0.026804777 0.23006564 0.1295845 0.04491448 -0.25266314 0.024364341 -0.10705091 -0.083204396 0.10635976 -0.06081622 -0.0060707196 0.059628613 0.0073187463 -0.08266781 -0.20987362 -0.19996934 -0.04955989 -0.16444057 -0.13182741 -0.049565513 -0.19230606 0.12611248 0.019063847 0.11176483 0.030284796 0.38494775 -0.23712038 0.030972905 0.13945773 0.13331686 -0.047440015 0.048837427 0.0010268121 0.15503222 -0.051918466 0.08179939 -0.11294517 0.0068636807 -0.016810808 0.14459859 -0.011192968 -0.04011834 -0.064178914 -0.11272038 0.021126786 0.03531961 0.041091062 0.026387462 -0.027295519 0.04840594 -0.043187477 -0.06445028 0.06029495 -0.12925705 -0.07090612 -0.21117257 0.19913477 0.18719155 -0.025270125 -0.11095577 0.05182508 -0.1481486 0.23238006 0.019862236 0.13565877 0.15530393 0.11539552 -0.14778745 0.109202005 0.09961438 0.05353127 -0.1600578 -0.110160895 -0.067767404 0.08166733 0.014500734 0.031951085 0.031013435 0.18253405 -0.023593972 0.18923242 0.093207434 0.0700653 0.23393959 -0.07319218 -0.009647987 -0.045803897 0.17365073 0.004114334 -0.03484857 -0.10750881 -0.19533025 -0.24258383 -0.057622638 0.080469035 0.3250655 -0.17148858 0.13719259 -0.112682626 -0.05949515 -0.11748955 0.14519815 -0.0618835 -0.2930654 0.15301585 0.012138057 -0.1374707 -0.020979907 -0.012151172 0.11961852 0.023284847 -0.033538412 -0.1651381 -0.05152869 -0.04584286 0.10959599 -0.079972595 -0.12442166 0.098404996 -0.043650232 -0.18123502 0.12299658 0.059936542 0.02082907 0.13720074 0.18223035
2 0.102894 0.057818327 -0.0011288443 0.17997372 0.11854638 0.07149333 -0.20979364 0.042840075 -0.09194271 -0.058484394 0.078600384 -0.06503068 0.00031984187 0.05159927 0.037740324 -0.06052186 -0.15753587 -0.15643564 -0.015337435 -0.13315986 -0.12841396 -0.03472509 -0.14554563 0.08490202 0.0017680937 0.096664295 0.047697816 0.32975283 -0.1851177 0.013635646 0.11156595 0.1065193 -0.044150565 0.042211868 -0.008491797 0.13239622 -0.043154716 0.08634858 -0.06161467 -0.00024809432 -0.033508096 0.109379016 0.009418267 -0.064649425 -0.04665776 -0.09076819 0.002688257 0.027980654 0.03483005 0.03977283 0.0017071158 0.03641507 -0.03065508 -0.037200585 0.049303144 -0.07730544 -0.05056723 -0.17892432 0.17414819 0.14605881 -0.012604605 -0.106489554 0.045945127 -0.10047749 0.19675145 0.0021191183 0.09467929 0.12294032 0.09608757 -0.11981069 0.074649066 0.07933691 0.04743648 -0.15123597 -0.10821889 -0.048405882 0.059402823 0.016130965 0.022444887 0.02393842 0.12209197 -0.04339557 0.15956853 0.06755037 0.074808404 0.18810336 -0.038463444 -0.021369344 -0.024239121 0.13086978 0.0082671745 -0.02172942 -0.080373324 -0.16464655 -0.19360653 -0.05110022 0.057080757 0.25352377 -0.1261806 0.09698479 -0.10225052 -0.060536608 -0.113036476 0.12686765 -0.079672985 -0.24047287 0.15004443 -0.004529846 -0.11252838 -0.041941307 0.018848183 0.1037906 0.008042016 -0.046300784 -0.12317437 -0.041205447 -0.056143 0.07204651 -0.06682419 -0.09181675 0.095277734 -0.031541415 -0.12136868 0.09666225 0.036523487 0.00051182695 0.113927424 0.1247198 0.097620666 0.07096027 -0.026804777 0.23006564 0.1295845 0.04491448 -0.25266314 0.024364341 -0.10705091 -0.083204396 0.10635976 -0.06081622 -0.0060707196 0.059628613 0.0073187463 -0.08266781 -0.20987362 -0.19996934 -0.04955989 -0.16444057 -0.13182741 -0.049565513 -0.19230606 0.12611248 0.019063847 0.11176483 0.030284796 0.38494775 -0.23712038 0.030972905 0.13945773 0.13331686 -0.047440015 0.048837427 0.0010268121 0.15503222 -0.051918466 0.08179939 -0.11294517 0.0068636807 -0.016810808 0.14459859 -0.011192968 -0.04011834 -0.064178914 -0.11272038 0.021126786 0.03531961 0.041091062 0.026387462 -0.027295519 0.04840594 -0.043187477 -0.06445028 0.06029495 -0.12925705 -0.07090612 -0.21117257 0.19913477 0.18719155 -0.025270125 -0.11095577 0.05182508 -0.1481486 0.23238006 0.019862236 0.13565877 0.15530393 0.11539552 -0.14778745 0.109202005 0.09961438 0.05353127 -0.1600578 -0.110160895 -0.067767404 0.08166733 0.014500734 0.031951085 0.031013435 0.18253405 -0.023593972 0.18923242 0.093207434 0.0700653 0.23393959 -0.07319218 -0.009647987 -0.045803897 0.17365073 0.004114334 -0.03484857 -0.10750881 -0.19533025 -0.24258383 -0.057622638 0.080469035 0.3250655 -0.17148858 0.13719259 -0.112682626 -0.05949515 -0.11748955 0.14519815 -0.0618835 -0.2930654 0.15301585 0.012138057 -0.1374707 -0.020979907 -0.012151172 0.11961852 0.023284847 -0.033538412 -0.1651381 -0.05152869 -0.04584286 0.10959599 -0.079972595 -0.12442166 0.098404996 -0.043650232 -0.18123502 0.12299658 0.059936542 0.02082907 0.13720074 0.18223035
27 0.11630834 0.06598974 0.0036800967 0.21004741 0.13420224 0.08344395 -0.24864538 0.051108498 -0.108028434 -0.07402133 0.09282439 -0.07686711 0.0016121193 0.061078694 0.04084535 -0.07305183 -0.1794198 -0.18006217 -0.01815371 -0.15161729 -0.1511107 -0.039562665 -0.17144236 0.10271495 -0.0054358467 0.10998225 0.05126035 0.38945526 -0.21348657 0.015372361 0.13795458 0.12298072 -0.053110898 0.045836225 -0.0076960055 0.15357874 -0.052021492 0.09609706 -0.07939651 -0.009167344 -0.03495025 0.124835804 0.0075638727 -0.07403547 -0.05344622 -0.10428305 0.004595719 0.03603523 0.03792365 0.047085237 0.008684417 0.04070433 -0.03293728 -0.050881505 0.060840085 -0.09354382 -0.063392095 -0.21278033 0.20380972 0.16708907 -0.010302045 -0.12005253 0.05571613 -0.11157232 0.2282833 0.0018629868 0.1112626 0.14415078 0.11333136 -0.13922285 0.088822775 0.09818009 0.05632188 -0.18031465 -0.13013108 -0.056476668 0.06112706 0.023421265 0.02187901 0.02446561 0.14611256 -0.050672717 0.19210124 0.07416647 0.08746101 0.21753275 -0.03958933 -0.026828945 -0.028857997 0.15514661 0.016268589 -0.03261078 -0.08832367 -0.18821454 -0.23001894 -0.05819717 0.06867761 0.2996415 -0.14603086 0.11432506 -0.12147849 -0.067349516 -0.13274592 0.14898115 -0.09037784 -0.28815442 0.1764097 0.0016344103 -0.13593794 -0.0476603 0.018031651 0.12350986 0.010257708 -0.05104338 -0.14256509 -0.051523313 -0.07561822 0.07967135 -0.082095526 -0.11188298 0.11100647 -0.041250497 -0.14456996 0.110723615 0.045300387 -0.006747604 0.13326815 0.14647232 0.097620666 0.07096027 -0.026804777 0.23006564 0.1295845 0.04491448 -0.25266314 0.024364341 -0.10705091 -0.083204396 0.10635976 -0.06081622 -0.0060707196 0.059628613 0.0073187463 -0.08266781 -0.20987362 -0.19996934 -0.04955989 -0.16444057 -0.13182741 -0.049565513 -0.19230606 0.12611248 0.019063847 0.11176483 0.030284796 0.38494775 -0.23712038 0.030972905 0.13945773 0.13331686 -0.047440015 0.048837427 0.0010268121 0.15503222 -0.051918466 0.08179939 -0.11294517 0.0068636807 -0.016810808 0.14459859 -0.011192968 -0.04011834 -0.064178914 -0.11272038 0.021126786 0.03531961 0.041091062 0.026387462 -0.027295519 0.04840594 -0.043187477 -0.06445028 0.06029495 -0.12925705 -0.07090612 -0.21117257 0.19913477 0.18719155 -0.025270125 -0.11095577 0.05182508 -0.1481486 0.23238006 0.019862236 0.13565877 0.15530393 0.11539552 -0.14778745 0.109202005 0.09961438 0.05353127 -0.1600578 -0.110160895 -0.067767404 0.08166733 0.014500734 0.031951085 0.031013435 0.18253405 -0.023593972 0.18923242 0.093207434 0.0700653 0.23393959 -0.07319218 -0.009647987 -0.045803897 0.17365073 0.004114334 -0.03484857 -0.10750881 -0.19533025 -0.24258383 -0.057622638 0.080469035 0.3250655 -0.17148858 0.13719259 -0.112682626 -0.05949515 -0.11748955 0.14519815 -0.0618835 -0.2930654 0.15301585 0.012138057 -0.1374707 -0.020979907 -0.012151172 0.11961852 0.023284847 -0.033538412 -0.1651381 -0.05152869 -0.04584286 0.10959599 -0.079972595 -0.12442166 0.098404996 -0.043650232 -0.18123502 0.12299658 0.059936542 0.02082907 0.13720074 0.18223035
20 0.033692118 0.01898212 0.0017516016 0.06606423 0.043348 0.023818616 -0.0770111 0.01922759 -0.03115137 -0.021530714 0.032623313 -0.02164138 0.0012024674 0.015096706 0.009733836 -0.026189497 -0.057935655 -0.05833793 -0.0010419531 -0.05103269 -0.043518763 -0.011483611 -0.05063094 0.033775277 0.00069967523 0.034760606 0.013496763 0.12103991 -0.06793 0.0057797437 0.042308263 0.038574032 -0.020167135 0.010762341 -0.00083787635 0.046738178 -0.011853642 0.029020304 -0.024982575 -0.0016439722 -0.009067409 0.039795674 0.00036338685 -0.025492053 -0.016664539 -0.03217203 0.0037579576 0.008489394 0.008418995 0.015003561 0.004663446 0.009193166 -0.009979802 -0.013428703 0.018145712 -0.025231024 -0.019086637 -0.06940838 0.0637722 0.056181666 -0.0016514945 -0.037625883 0.018004684 -0.035575002 0.07073523 0.0020293687 0.03729181 0.043878455 0.03756385 -0.04705971 0.028962793 0.028790986 0.018835284 -0.057082817 -0.03793321 -0.018014302 0.018027253 0.008429983 0.0061550015 0.010213825 0.046863932 -0.017452998 0.056796912 0.0215157 0.025182469 0.06800361 -0.017236624 -0.011192594 -0.0074852486 0.051025968 0.000575673 -0.011032924 -0.030771708 -0.057054367 -0.06968822 -0.017832648 0.020232879 0.09605745 -0.04640107 0.03919833 -0.036732767 -0.021871323 -0.044370692 0.05180895 -0.031176995 -0.09281054 0.054946214 -0.0014804723 -0.04544803 -0.012624875 0.0037018878 0.039089546 0.004462047 -0.019007653 -0.044880506 -0.0136525305 -0.02162369 0.026593875 -0.026708772 -0.032706417 0.038148418 -0.013348378 -0.043722928 0.031983048 0.016581003 -0.00363524 0.04074877 0.04489694 0.108273774 0.08653651 -0.04071613 0.31190506 0.16402687 0.03346356 -0.3184516 0.018693974 -0.12985468 -0.11375975 0.14808944 -0.06606169 -0.007850681 0.065461054 -0.009642033 -0.1177443 -0.2890788 -0.27262294 -0.083607905 -0.20979646 -0.16152902 -0.077754684 -0.26386726 0.17746595 0.033871986 0.13536236 0.027054718 0.49937642 -0.31635153 0.046111144 0.19120777 0.17955169 -0.06379052 0.061855152 0.0078219 0.20791231 -0.07590485 0.08769415 -0.16394645 0.012285738 -0.017616253 0.19226184 -0.027574245 -0.029466784 -0.083583616 -0.15076299 0.030970583 0.049723137 0.058867123 0.023703387 -0.055000383 0.062411923 -0.053783923 -0.09343408 0.082594834 -0.18648154 -0.09601013 -0.2629707 0.24566181 0.24847801 -0.035557717 -0.12884197 0.057646304 -0.21272495 0.30577818 0.036852762 0.19023624 0.21256845 0.13875675 -0.19553721 0.14954573 0.14016815 0.08125228 -0.19879669 -0.12364092 -0.0870718 0.108595885 0.014522279 0.046529863 0.04263614 0.2540462 -0.014708969 0.24105433 0.1378176 0.07757625 0.2967075 -0.11192408 -0.006786286 -0.07691126 0.2370624 0.008876762 -0.056560658 -0.15244173 -0.2546279 -0.32406405 -0.06660841 0.10229739 0.43304843 -0.22716643 0.1943944 -0.13279645 -0.06629896 -0.14796829 0.18349925 -0.064748704 -0.38024563 0.18877572 0.021292351 -0.18846305 -0.01807076 -0.02589864 0.15968335 0.031050675 -0.028790258 -0.21446162 -0.07195462 -0.043711953 0.15173614 -0.11218777 -0.16320206 0.12687479 -0.043754723 -0.25238883 0.17297792 0.07960019 0.049465414 0.17874995 0.2527422
21 0.040227022 0.027999628 -0.00015754717 0.07788262 0.050927788 0.028211506 -0.09288281 0.014797296 -0.038685113 -0.027793724 0.032851767 -0.032889865 0.0034394523 0.01819035 0.018798055 -0.029928561 -0.067017004 -0.07068618 -0.0024019212 -0.05888495 -0.05575477 -0.014053663 -0.06512822 0.039510585 -0.0030503755 0.04245501 0.0218535 0.14079903 -0.07680732 0.0012408998 0.053408086 0.04672099 -0.021533683 0.01892227 -0.0021916442 0.060386147 -0.020447005 0.03263644 -0.024268879 0.0005875649 -0.011169641 0.047172107 0.0058756457 -0.025667062 -0.020092724 -0.037441906 0.003601702 0.014520236 0.013212573 0.019019444 -0.001271586 0.017155271 -0.010455635 -0.019592244 0.019188836 -0.035213143 -0.025315648 -0.07400188 0.07455284 0.06128119 -0.007997844 -0.04753299 0.020036329 -0.043646265 0.085163206 0.0017386184 0.044638593 0.052543003 0.038898747 -0.05155842 0.029653464 0.035423275 0.018079396 -0.06534404 -0.04398617 -0.019435553 0.025610814 0.007762557 0.010439302 0.006304144 0.052102435 -0.014713645 0.07009959 0.030012656 0.031943537 0.08054402 -0.012894142 -0.0130834235 -0.010157358 0.060839802 0.0047085043 -0.013082995 -0.030055828 -0.072496615 -0.081028946 -0.020970128 0.029251575 0.10996801 -0.051438887 0.038092244 -0.040614452 -0.028320886 -0.05015613 0.059967514 -0.037439577 -0.10321771 0.06807772 -0.0011835193 -0.052238807 -0.01464045 0.006928983 0.041169014 0.0055925413 -0.016707396 -0.05316182 -0.015360536 -0.027434267 0.031912606 -0.030976227 -0.040362407 0.03837866 -0.01114054 -0.0559314 0.03889673 0.013025718 -0.0051407292 0.0505753 0.05458814 0.108273774 0.08653651 -0.04071613 0.31190506 0.16402687 0.03346356 -0.3184516 0.018693974 -0.12985468 -0.11375975 0.14808944 -0.06606169 -0.007850681 0.065461054 -0.009642033 -0.1177443 -0.2890788 -0.27262294 -0.083607905 -0.20979646 -0.16152902 -0.077754684 -0.26386726 0.17746595 0.033871986 0.13536236 0.027054718 0.49937642 -0.31635153 0.046111144 0.19120777 0.17955169 -0.06379052 0.061855152 0.0078219 0.20791231 -0.07590485 0.08769415 -0.16394645 0.012285738 -0.017616253 0.19226184 -0.027574245 -0.029466784 -0.083583616 -0.15076299 0.030970583 0.049723137 0.058867123 0.023703387 -0.055000383 0.062411923 -0.053783923 -0.09343408 0.082594834 -0.18648154 -0.09601013 -0.2629707 0.24566181 0.24847801 -0.035557717 -0.12884197 0.057646304 -0.21272495 0.30577818 0.036852762 0.19023624 0.21256845 0.13875675 -0.19553721 0.14954573 0.14016815 0.08125228 -0.19879669 -0.12364092 -0.0870718 0.108595885 0.014522279 0.046529863 0.04263614 0.2540462 -0.014708969 0.24105433 0.1378176 0.07757625 0.2967075 -0.11192408 -0.006786286 -0.07691126 0.2370624 0.008876762 -0.056560658 -0.15244173 -0.2546279 -0.32406405 -0.06660841 0.10229739 0.43304843 -0.22716643 0.1943944 -0.13279645 -0.06629896 -0.14796829 0.18349925 -0.064748704 -0.38024563 0.18877572 0.021292351 -0.18846305 -0.01807076 -0.02589864 0.15968335 0.031050675 -0.028790258 -0.21446162 -0.07195462 -0.043711953 0.15173614 -0.11218777 -0.16320206 0.12687479 -0.043754723 -0.25238883 0.17297792 0.07960019 0.049465414 0.17874995 0.2527422
11 0.042376656 0.019944256 0.0011751666 0.06807878 0.049446043 0.024260817 -0.08553302 0.016227841 -0.036595196 -0.02572959 0.027720055 -0.029449414 -0.0005187951 0.022612238 0.011736734 -0.023138966 -0.0636459 -0.06490414 -0.008615426 -0.054942235 -0.05043141 -0.011986987 -0.05535937 0.033504087 -0.0006529353 0.03949541 0.020959504 0.12863877 -0.076194726 0.001022487 0.047309358 0.039926384 -0.018596882 0.013525993 -0.001235406 0.051521443 -0.01647695 0.03155744 -0.024963975 -0.0048512984 -0.014206674 0.042003762 0.0019899665 -0.027789958 -0.017204676 -0.03328378 0.005423422 0.0120166205 0.012804506 0.014429687 -0.0012618109 0.0104246335 -0.010942972 -0.014189546 0.017812597 -0.03098502 -0.020778544 -0.07355569 0.07006021 0.058547936 -0.0040361546 -0.040016364 0.021659205 -0.03910169 0.081071585 0.0010893897 0.039453648 0.051493056 0.038507473 -0.050011408 0.030092992 0.030102642 0.01669549 -0.05876748 -0.04570987 -0.017796414 0.02508951 0.0065041576 0.005675873 0.008796601 0.050730906 -0.0138787795 0.06579971 0.021969488 0.02727516 0.07716461 -0.017416785 -0.00915624 -0.0074401204 0.04905421 0.005073881 -0.009623893 -0.032153297 -0.061566286 -0.07786023 -0.01862427 0.025123995 0.10016986 -0.048293196 0.035560545 -0.041743483 -0.022755157 -0.04471129 0.05217369 -0.028383914 -0.09786951 0.062673725 -0.0018033718 -0.042259626 -0.015025744 0.008395618 0.04029194 0.0031691 -0.018964078 -0.051128473 -0.017171118 -0.025371982 0.024404548 -0.028872779 -0.03941747 0.039486818 -0.01649675 -0.05214504 0.03964856 0.018068664 -0.0026005292 0.041573692 0.052961048 0.097620666 0.07096027 -0.026804777 0.23006564 0.1295845 0.04491448 -0.25266314 0.024364341 -0.10705091 -0.083204396 0.10635976 -0.06081622 -0.0060707196 0.059628613 0.0073187463 -0.08266781 -0.20987362 -0.19996934 -0.04955989 -0.16444057 -0.13182741 -0.049565513 -0.19230606 0.12611248 0.019063847 0.11176483 0.030284796 0.38494775 -0.23712038 0.030972905 0.13945773 0.13331686 -0.047440015 0.048837427 0.0010268121 0.15503222 -0.051918466 0.08179939 -0.11294517 0.0068636807 -0.016810808 0.14459859 -0.011192968 -0.04011834 -0.064178914 -0.11272038 0.021126786 0.03531961 0.041091062 0.026387462 -0.027295519 0.04840594 -0.043187477 -0.06445028 0.06029495 -0.12925705 -0.07090612 -0.21117257 0.19913477 0.18719155 -0.025270125 -0.11095577 0.05182508 -0.1481486 0.23238006 0.019862236 0.13565877 0.15530393 0.11539552 -0.14778745 0.109202005 0.09961438 0.05353127 -0.1600578 -0.110160895 -0.067767404 0.08166733 0.014500734 0.031951085 0.031013435 0.18253405 -0.023593972 0.18923242 0.093207434 0.0700653 0.23393959 -0.07319218 -0.009647987 -0.045803897 0.17365073 0.004114334 -0.03484857 -0.10750881 -0.19533025 -0.24258383 -0.057622638 0.080469035 0.3250655 -0.17148858 0.13719259 -0.112682626 -0.05949515 -0.11748955 0.14519815 -0.0618835 -0.2930654 0.15301585 0.012138057 -0.1374707 -0.020979907 -0.012151172 0.11961852 0.023284847 -0.033538412 -0.1651381 -0.05152869 -0.04584286 0.10959599 -0.079972595 -0.12442166 0.098404996 -0.043650232 -0.18123502 0.12299658 0.059936542 0.02082907 0.13720074 0.18223035
10 0.009965202 0.003059804 0.00017638208 0.015376498 0.008366993 0.008334212 -0.014399642 0.0069526224 -0.0082575325 -0.0013734248 0.006019808 -0.0043980246 0.002234754 0.0062131686 0.0024574935 -0.0051527354 -0.010155617 -0.010902583 0.0026857886 -0.0067334105 -0.012806294 -0.004814423 -0.009752173 0.008616317 0.00037735287 0.010149056 0.0015853111 0.024968605 -0.015022456 -0.0008793456 0.009361416 0.009988764 -0.0056772637 0.003195229 0.0030334305 0.008769447 -0.006865799 0.009416085 -0.0049930015 -0.0030741154 0.0007788912 0.007816853 0.0039354796 -0.0055314284 -0.0068069757 -0.008930344 -0.0012164079 0.0044595078 0.00014334005 0.0028145502 0.003000982 0.0029708543 -0.0056398064 -0.0066043036 0.0058064642 -0.0022160122 -0.0018964282 -0.011572972 0.015411903 0.013776689 -0.004491971 -0.010241244 0.005080457 -0.005022681 0.016932242 -0.0023998085 0.010957959 0.012989451 0.0038961694 -0.012526648 0.003999386 0.007878843 0.0066044712 -0.011187811 -0.011183507 -0.004247663 0.0016186704 0.004900704 0.0037461892 0.001984956 0.0090366695 -0.006487224 0.011290416 0.0027858315 0.0077131996 0.01468163 -0.005276947 -0.004114543 -0.003974166 0.008823782 -0.0004435241 -0.0034461892 -0.0047771907 -0.016995795 -0.01651376 -0.002064089 0.008409045 0.022419922 -0.011904274 0.0054083555 -0.010518923 -0.0017345137 -0.011052156 0.011961525 -0.008444372 -0.022780431 0.014034301 0.0014944044 -0.012251936 -0.0049403463 0.0049615987 0.0055411006 -0.002923193 -0.0031432605 -0.0063770176 -0.0061838366 -0.0046767327 0.0067383917 -0.008077631 -0.011223118 0.010801034 -0.006011386 -0.012145519 0.0090179425 0.001140433 -0.00440923 0.009588888 0.00840612 0.097620666 0.07096027 -0.026804777 0.23006564 0.1295845 0.04491448 -0.25266314 0.024364341 -0.10705091 -0.083204396 0.10635976 -0.06081622 -0.0060707196 0.059628613 0.0073187463 -0.08266781 -0.20987362 -0.19996934 -0.04955989 -0.16444057 -0.13182741 -0.049565513 -0.19230606 0.12611248 0.019063847 0.11176483 0.030284796 0.38494775 -0.23712038 0.030972905 0.13945773 0.13331686 -0.047440015 0.048837427 0.0010268121 0.15503222 -0.051918466 0.08179939 -0.11294517 0.0068636807 -0.016810808 0.14459859 -0.011192968 -0.04011834 -0.064178914 -0.11272038 0.021126786 0.03531961 0.041091062 0.026387462 -0.027295519 0.04840594 -0.043187477 -0.06445028 0.06029495 -0.12925705 -0.07090612 -0.21117257 0.19913477 0.18719155 -0.025270125 -0.11095577 0.05182508 -0.1481486 0.23238006 0.019862236 0.13565877 0.15530393 0.11539552 -0.14778745 0.109202005 0.09961438 0.05353127 -0.1600578 -0.110160895 -0.067767404 0.08166733 0.014500734 0.031951085 0.031013435 0.18253405 -0.023593972 0.18923242 0.093207434 0.0700653 0.23393959 -0.07319218 -0.009647987 -0.045803897 0.17365073 0.004114334 -0.03484857 -0.10750881 -0.19533025 -0.24258383 -0.057622638 0.080469035 0.3250655 -0.17148858 0.13719259 -0.112682626 -0.05949515 -0.11748955 0.14519815 -0.0618835 -0.2930654 0.15301585 0.012138057 -0.1374707 -0.020979907 -0.012151172 0.11961852 0.023284847 -0.033538412 -0.1651381 -0.05152869 -0.04584286 0.10959599 -0.079972595 -0.12442166 0.098404996 -0.043650232 -0.18123502 0.12299658 0.059936542 0.02082907 0.13720074 0.18223035
13 0.027631711 0.021043856 -0.001987502 0.05568134 0.03824825 0.024137016 -0.06527122 0.010327467 -0.03113127 -0.014222808 0.026755236 -0.019797366 -0.002467224 0.012269797 0.010958245 -0.020939974 -0.04813939 -0.049391486 -0.0060058394 -0.039447546 -0.038484782 -0.011338673 -0.039205704 0.023949536 0.0016752003 0.030429179 0.014333933 0.09934378 -0.052132953 0.006164877 0.031563815 0.035382144 -0.018630259 0.012293678 -0.0024203286 0.041689783 -0.0136082275 0.02222454 -0.018789506 -0.005325861 -0.010011935 0.036731225 0.0059418604 -0.022123128 -0.011115969 -0.024846341 0.004678701 0.007172227 0.0096122185 0.0144238295 0.002596023 0.011352015 -0.00808447 -0.014028881 0.011174163 -0.021379258 -0.017774059 -0.054469462 0.052960023 0.04562309 -0.005618285 -0.028876105 0.012700799 -0.028457344 0.063426375 0.0015555251 0.028265456 0.038012624 0.02789726 -0.037405085 0.024316758 0.027962344 0.01384369 -0.049108326 -0.032059733 -0.0157574 0.012678458 0.0074480516 0.0047403644 0.008800423 0.036804013 -0.014245425 0.04692348 0.016328655 0.022420725 0.058804154 -0.014275673 -0.009339586 -0.0069555105 0.04125766 0.0049542272 -0.009323793 -0.026810737 -0.049834874 -0.060189065 -0.01879174 0.019425172 0.079745434 -0.03850231 0.027231973 -0.030589772 -0.014358741 -0.031218344 0.041015636 -0.023943571 -0.07195723 0.042977616 -0.0019749026 -0.032751847 -0.00843803 0.0024536713 0.029215116 -0.0024281938 -0.014532155 -0.039817326 -0.011711697 -0.01667144 0.017841732 -0.02412391 -0.024554856 0.027511377 -0.010253254 -0.034417007 0.03126031 0.009736513 -0.004174668 0.03434504 0.03659136 0.097620666 0.07096027 -0.026804777 0.23006564 0.1295845 0.04491448 -0.25266314 0.024364341 -0.10705091 -0.083204396 0.10635976 -0.06081622 -0.0060707196 0.059628613 0.0073187463 -0.08266781 -0.20987362 -0.19996934 -0.04955989 -0.16444057 -0.13182741 -0.049565513 -0.19230606 0.12611248 0.019063847 0.11176483 0.030284796 0.38494775 -0.23712038 0.030972905 0.13945773 0.13331686 -0.047440015 0.048837427 0.0010268121 0.15503222 -0.051918466 0.08179939 -0.11294517 0.0068636807 -0.016810808 0.14459859 -0.011192968 -0.04011834 -0.064178914 -0.11272038 0.021126786 0.03531961 0.041091062 0.026387462 -0.027295519 0.04840594 -0.043187477 -0.06445028 0.06029495 -0.12925705 -0.07090612 -0.21117257 0.19913477 0.18719155 -0.025270125 -0.11095577 0.05182508 -0.1481486 0.23238006 0.019862236 0.13565877 0.15530393 0.11539552 -0.14778745 0.109202005 0.09961438 0.05353127 -0.1600578 -0.110160895 -0.067767404 0.08166733 0.014500734 0.031951085 0.031013435 0.18253405 -0.023593972 0.18923242 0.093207434 0.0700653 0.23393959 -0.07319218 -0.009647987 -0.045803897 0.17365073 0.004114334 -0.03484857 -0.10750881 -0.19533025 -0.24258383 -0.057622638 0.080469035 0.3250655 -0.17148858 0.13719259 -0.112682626 -0.05949515 -0.11748955 0.14519815 -0.0618835 -0.2930654 0.15301585 0.012138057 -0.1374707 -0.020979907 -0.012151172 0.11961852 0.023284847 -0.033538412 -0.1651381 -0.05152869 -0.04584286 0.10959599 -0.079972595 -0.12442166 0.098404996 -0.043650232 -0.18123502 0.12299658 0.059936542 0.02082907 0.13720074 0.18223035
12 0.034437418 0.02425052 -0.0007160381 0.06953154 0.04747178 0.030621251 -0.08028372 0.014546096 -0.038407575 -0.026403992 0.028937124 -0.024830263 0.00166629 0.016250558 0.0104042925 -0.025732446 -0.06026168 -0.0582822 -0.0049095703 -0.05299209 -0.04768658 -0.016315559 -0.054227673 0.03650787 0.001178341 0.03713397 0.016695766 0.13053532 -0.067148745 0.006240447 0.044953912 0.037740987 -0.020009235 0.014259598 -0.0050557493 0.0500081 -0.01547399 0.03010318 -0.026458245 -0.004053159 -0.014154574 0.042806376 0.0031229812 -0.021033002 -0.01327465 -0.035653338 0.005635976 0.009299608 0.012445571 0.015133269 0.0051356833 0.016253036 -0.014268281 -0.01574434 0.016607545 -0.029337998 -0.019124646 -0.07216401 0.0640059 0.060079463 -0.0011458733 -0.040472407 0.018357504 -0.040727794 0.08028443 0.003533178 0.039351586 0.04364043 0.038891766 -0.044875763 0.029830549 0.033233903 0.014758853 -0.057065785 -0.044516914 -0.015306733 0.017654043 0.008066754 0.008045803 0.0065896744 0.04868889 -0.017541995 0.06450737 0.023068147 0.032609046 0.07608521 -0.016317148 -0.005571014 -0.0067676213 0.050526123 0.0025522816 -0.010893811 -0.026280642 -0.06490713 -0.07066297 -0.020101875 0.02595827 0.100141734 -0.05087795 0.038424674 -0.038598042 -0.023527429 -0.046702765 0.04932861 -0.02727476 -0.09759211 0.054815028 1.4300698e-05 -0.04453911 -0.014932652 0.0050117285 0.04001333 0.005314675 -0.019292522 -0.045273963 -0.016571907 -0.022649862 0.029344786 -0.027850963 -0.03249801 0.037494987 -0.012358769 -0.05006126 0.039074257 0.012957444 0.0023199387 0.039896846 0.046458308 0.108273774 0.08653651 -0.04071613 0.31190506 0.16402687 0.03346356 -0.3184516 0.018693974 -0.12985468 -0.11375975 0.14808944 -0.06606169 -0.007850681 0.065461054 -0.009642033 -0.1177443 -0.2890788 -0.27262294 -0.083607905 -0.20979646 -0.16152902 -0.077754684 -0.26386726 0.17746595 0.033871986 0.13536236 0.027054718 0.49937642 -0.31635153 0.046111144 0.19120777 0.17955169 -0.06379052 0.061855152 0.0078219 0.20791231 -0.07590485 0.08769415 -0.16394645 0.012285738 -0.017616253 0.19226184 -0.027574245 -0.029466784 -0.083583616 -0.15076299 0.030970583 0.049723137 0.058867123 0.023703387 -0.055000383 0.062411923 -0.053783923 -0.09343408 0.082594834 -0.18648154 -0.09601013 -0.2629707 0.24566181 0.24847801 -0.035557717 -0.12884197 0.057646304 -0.21272495 0.30577818 0.036852762 0.19023624 0.21256845 0.13875675 -0.19553721 0.14954573 0.14016815 0.08125228 -0.19879669 -0.12364092 -0.0870718 0.108595885 0.014522279 0.046529863 0.04263614 0.2540462 -0.014708969 0.24105433 0.1378176 0.07757625 0.2967075 -0.11192408 -0.006786286 -0.07691126 0.2370624 0.008876762 -0.056560658 -0.15244173 -0.2546279 -0.32406405 -0.06660841 0.10229739 0.43304843 -0.22716643 0.1943944 -0.13279645 -0.06629896 -0.14796829 0.18349925 -0.064748704 -0.38024563 0.18877572 0.021292351 -0.18846305 -0.01807076 -0.02589864 0.15968335 0.031050675 -0.028790258 -0.21446162 -0.07195462 -0.043711953 0.15173614 -0.11218777 -0.16320206 0.12687479 -0.043754723 -0.25238883 0.17297792 0.07960019 0.049465414 0.17874995 0.2527422
15 0.042661924 0.026001705 0.0001974511 0.07922239 0.05353525 0.029895013 -0.08726728 0.017340668 -0.037578955 -0.027166832 0.030417155 -0.024887903 0.0025756797 0.019353623 0.0154608935 -0.027308716 -0.06914897 -0.06678209 -0.006783547 -0.060017537 -0.054895338 -0.0127585875 -0.058642715 0.038449798 -0.0015727825 0.03827428 0.023508105 0.14114909 -0.08052689 0.0026327928 0.05230407 0.04300268 -0.023559416 0.014697235 -0.0013918458 0.05721709 -0.01827902 0.038392723 -0.02716012 -0.0021522644 -0.015783932 0.049709592 0.0021305964 -0.02690126 -0.015270122 -0.041142114 0.005613169 0.014021649 0.01101458 0.01885912 0.005542818 0.015618593 -0.011729465 -0.020639244 0.025213221 -0.034160774 -0.02714294 -0.072949655 0.07704987 0.06384571 -0.008845579 -0.048276223 0.019717513 -0.04352914 0.08662288 0.0049631805 0.045463547 0.053634636 0.042743362 -0.0530847 0.02817835 0.03780275 0.017380645 -0.06589796 -0.04477473 -0.01823038 0.022869807 0.0057845134 0.0064621735 0.01026036 0.04967356 -0.015738789 0.0690905 0.024721814 0.03604323 0.08174016 -0.018030463 -0.012711561 -0.010441205 0.0555509 0.0044690724 -0.008941194 -0.031053301 -0.07355202 -0.08027052 -0.022713171 0.028586669 0.1104538 -0.05264963 0.04225049 -0.046550695 -0.027075322 -0.049987342 0.054929033 -0.035665575 -0.1043476 0.06473455 -0.004217129 -0.050712146 -0.019446172 0.007135482 0.04460869 0.003663894 -0.016991802 -0.055079058 -0.016697064 -0.027032048 0.02699827 -0.030096853 -0.042852845 0.043308243 -0.013029909 -0.056245543 0.043162193 0.014943432 0.0022950328 0.048153847 0.056493506 0.097620666 0.07096027 -0.026804777 0.23006564 0.1295845 0.04491448 -0.25266314 0.024364341 -0.10705091 -0.083204396 0.10635976 -0.06081622 -0.0060707196 0.059628613 0.0073187463 -0.08266781 -0.20987362 -0.19996934 -0.04955989 -0.16444057 -0.13182741 -0.049565513 -0.19230606 0.12611248 0.019063847 0.11176483 0.030284796 0.38494775 -0.23712038 0.030972905 0.13945773 0.13331686 -0.047440015 0.048837427 0.0010268121 0.15503222 -0.051918466 0.08179939 -0.11294517 0.0068636807 -0.016810808 0.14459859 -0.011192968 -0.04011834 -0.064178914 -0.11272038 0.021126786 0.03531961 0.041091062 0.026387462 -0.027295519 0.04840594 -0.043187477 -0.06445028 0.06029495 -0.12925705 -0.07090612 -0.21117257 0.19913477 0.18719155 -0.025270125 -0.11095577 0.05182508 -0.1481486 0.23238006 0.019862236 0.13565877 0.15530393 0.11539552 -0.14778745 0.109202005 0.09961438 0.05353127 -0.1600578 -0.110160895 -0.067767404 0.08166733 0.014500734 0.031951085 0.031013435 0.18253405 -0.023593972 0.18923242 0.093207434 0.0700653 0.23393959 -0.07319218 -0.009647987 -0.045803897 0.17365073 0.004114334 -0.03484857 -0.10750881 -0.19533025 -0.24258383 -0.057622638 0.080469035 0.3250655 -0.17148858 0.13719259 -0.112682626 -0.05949515 -0.11748955 0.14519815 -0.0618835 -0.2930654 0.15301585 0.012138057 -0.1374707 -0.020979907 -0.012151172 0.11961852 0.023284847 -0.033538412 -0.1651381 -0.05152869 -0.04584286 0.10959599 -0.079972595 -0.12442166 0.098404996 -0.043650232 -0.18123502 0.12299658 0.059936542 0.02082907 0.13720074 0.18223035
14 0.016791271 0.009613551 -0.00034288652 0.029876886 0.020319462 0.014031632 -0.037711345 0.010728894 -0.018574988 -0.011589902 0.012956685 -0.011516499 -0.0018068748 0.0063837375 0.010313691 -0.012256438 -0.028157927 -0.032441963 -0.0049915565 -0.027024318 -0.021090155 -0.009737069 -0.026162669 0.012687407 -0.0015440921 0.019708002 0.009535965 0.06366869 -0.033072606 -0.0014020756 0.019878961 0.015884968 -0.009922929 0.0075985254 -0.0016343655 0.022205526 -0.006943572 0.015087557 -0.01113888 -0.0019938853 -0.008341792 0.022053244 0.0008573579 -0.010556082 -0.0075685745 -0.013258597 0.0030456523 0.0050923023 0.0035882175 0.008594897 0.0011748008 0.007874034 -0.002553096 -0.0050016213 0.010327643 -0.012942705 -0.01135907 -0.03074799 0.034361865 0.030286947 0.00048186813 -0.018699244 0.0063077365 -0.019889742 0.039785076 0.0006491194 0.019743301 0.023177387 0.017195746 -0.023717334 0.0137228975 0.010628052 0.011655467 -0.027005602 -0.023454621 -0.0063637085 0.007460882 -0.0004916672 0.0038657286 0.008164715 0.019056732 -0.011230847 0.031875465 0.015459044 0.015762888 0.033404775 -0.0076640327 -0.004843494 -0.00392287 0.025913741 0.0037125668 -0.0032371187 -0.0141306855 -0.03126233 -0.036858406 -0.010858287 0.009166745 0.04750641 -0.02083923 0.018210726 -0.02062033 -0.013188989 -0.018095562 0.026881298 -0.018624969 -0.045580562 0.029696546 0.00076640263 -0.023238081 -0.007264008 0.0040873913 0.020382246 0.00096146774 -0.009353398 -0.024056181 -0.00937492 -0.013469665 0.013572821 -0.011031393 -0.0149034625 0.013712735 -0.005819392 -0.025469702 0.018007122 0.010186897 -0.00027838166 0.020550827 0.024891498 0.097620666 0.07096027 -0.026804777 0.23006564 0.1295845 0.04491448 -0.25266314 0.024364341 -0.10705091 -0.083204396 0.10635976 -0.06081622 -0.0060707196 0.059628613 0.0073187463 -0.08266781 -0.20987362 -0.19996934 -0.04955989 -0.16444057 -0.13182741 -0.049565513 -0.19230606 0.12611248 0.019063847 0.11176483 0.030284796 0.38494775 -0.23712038 0.030972905 0.13945773 0.13331686 -0.047440015 0.048837427 0.0010268121 0.15503222 -0.051918466 0.08179939 -0.11294517 0.0068636807 -0.016810808 0.14459859 -0.011192968 -0.04011834 -0.064178914 -0.11272038 0.021126786 0.03531961 0.041091062 0.026387462 -0.027295519 0.04840594 -0.043187477 -0.06445028 0.06029495 -0.12925705 -0.07090612 -0.21117257 0.19913477 0.18719155 -0.025270125 -0.11095577 0.05182508 -0.1481486 0.23238006 0.019862236 0.13565877 0.15530393 0.11539552 -0.14778745 0.109202005 0.09961438 0.05353127 -0.1600578 -0.110160895 -0.067767404 0.08166733 0.014500734 0.031951085 0.031013435 0.18253405 -0.023593972 0.18923242 0.093207434 0.0700653 0.23393959 -0.07319218 -0.009647987 -0.045803897 0.17365073 0.004114334 -0.03484857 -0.10750881 -0.19533025 -0.24258383 -0.057622638 0.080469035 0.3250655 -0.17148858 0.13719259 -0.112682626 -0.05949515 -0.11748955 0.14519815 -0.0618835 -0.2930654 0.15301585 0.012138057 -0.1374707 -0.020979907 -0.012151172 0.11961852 0.023284847 -0.033538412 -0.1651381 -0.05152869 -0.04584286 0.10959599 -0.079972595 -0.12442166 0.098404996 -0.043650232 -0.18123502 0.12299658 0.059936542 0.02082907 0.13720074 0.18223035
17 0.01476013 0.004640485 0.0026342745 0.023365987 0.009752746 0.007309456 -0.020156981 0.0038620662 -0.010430868 -0.0048241694 0.00532841 -0.008536638 0.0008903848 0.0031601998 0.0066211354 -0.0049495446 -0.013518795 -0.017354028 -0.0045695533 -0.010990443 -0.0111504635 -0.0034030136 -0.01338987 0.012227552 0.0021319801 0.010910929 0.0056853825 0.03843421 -0.019469477 -0.0008132195 0.013978389 0.011956748 -0.0067875152 0.00057616545 -0.0033501727 0.015422337 -0.0015116154 0.011620984 -0.010250841 -0.0032081143 -0.0015682655 0.010441859 -0.000744464 -0.010327262 -0.007831269 -0.012071821 -0.002295013 0.0028832636 0.00538555 0.0070185214 0.0028842564 0.0031290138 -0.0017607883 -0.0047137374 0.0019404985 -0.011510176 -0.0076878774 -0.016013676 0.020487227 0.014546763 -2.2317241e-05 -0.010125819 0.0016486215 -0.012301227 0.023929372 -0.0029059206 0.013610113 0.016931515 0.013111312 -0.016786229 0.008911438 0.009772446 0.008204707 -0.019155247 -0.009789369 -0.00668193 0.0067462097 0.0039847093 0.004463696 0.000943957 0.014458945 -0.0062409337 0.021730738 0.010002032 0.006770867 0.023200823 -0.0024504454 0.0008658477 -0.005704203 0.01277946 -0.0022852093 -0.0040974757 -0.009050656 -0.016714955 -0.021216083 -0.003952502 0.004802166 0.024918891 -0.014626989 0.009873482 -0.011328773 -0.0031016637 -0.013462715 0.012622878 -0.011034819 -0.027073417 0.01567079 0.00048930885 -0.014171501 -0.006263917 0.0033021944 0.014131078 -0.0019394013 -0.007495672 -0.016401742 -0.0031277286 -0.008469272 0.008698569 -0.0100856535 -0.0076201316 0.008717199 -0.0020691413 -0.016982017 0.00921014 0.002717614 0.000712316 0.014297111 0.016514279 0.108273774 0.08653651 -0.04071613 0.31190506 0.16402687 0.03346356 -0.3184516 0.018693974 -0.12985468 -0.11375975 0.14808944 -0.06606169 -0.007850681 0.065461054 -0.009642033 -0.1177443 -0.2890788 -0.27262294 -0.083607905 -0.20979646 -0.16152902 -0.077754684 -0.26386726 0.17746595 0.033871986 0.13536236 0.027054718 0.49937642 -0.31635153 0.046111144 0.19120777 0.17955169 -0.06379052 0.061855152 0.0078219 0.20791231 -0.07590485 0.08769415 -0.16394645 0.012285738 -0.017616253 0.19226184 -0.027574245 -0.029466784 -0.083583616 -0.15076299 0.030970583 0.049723137 0.058867123 0.023703387 -0.055000383 0.062411923 -0.053783923 -0.09343408 0.082594834 -0.18648154 -0.09601013 -0.2629707 0.24566181 0.24847801 -0.035557717 -0.12884197 0.057646304 -0.21272495 0.30577818 0.036852762 0.19023624 0.21256845 0.13875675 -0.19553721 0.14954573 0.14016815 0.08125228 -0.19879669 -0.12364092 -0.0870718 0.108595885 0.014522279 0.046529863 0.04263614 0.2540462 -0.014708969 0.24105433 0.1378176 0.07757625 0.2967075 -0.11192408 -0.006786286 -0.07691126 0.2370624 0.008876762 -0.056560658 -0.15244173 -0.2546279 -0.32406405 -0.06660841 0.10229739 0.43304843 -0.22716643 0.1943944 -0.13279645 -0.06629896 -0.14796829 0.18349925 -0.064748704 -0.38024563 0.18877572 0.021292351 -0.18846305 -0.01807076 -0.02589864 0.15968335 0.031050675 -0.028790258 -0.21446162 -0.07195462 -0.043711953 0.15173614 -0.11218777 -0.16320206 0.12687479 -0.043754723 -0.25238883 0.17297792 0.07960019 0.049465414 0.17874995 0.2527422
23 0.069240846 0.038620386 0.003824525 0.11811118 0.07641303 0.051164627 -0.14271675 0.031400308 -0.059567533 -0.04074284 0.055795595 -0.04838954 0.0014456732 0.029497677 0.023913983 -0.044044532 -0.10282156 -0.099322036 -0.0052946866 -0.08765276 -0.08379837 -0.022321653 -0.095769696 0.05897679 -0.00398168 0.06130427 0.027947033 0.22198482 -0.12219254 0.007067275 0.07982214 0.070842355 -0.032217342 0.02498377 -0.008935325 0.086158566 -0.032050427 0.054601144 -0.04239254 0.00037561456 -0.022653379 0.07323467 0.00617651 -0.040532693 -0.032504946 -0.063439846 0.0020220743 0.023026964 0.019578222 0.028650565 0.0022820262 0.021320378 -0.024030328 -0.026825188 0.033160537 -0.050216105 -0.039564606 -0.1208202 0.11128697 0.09386356 -0.00621217 -0.07058864 0.02856475 -0.06470269 0.13451426 0.004637219 0.06570499 0.084124096 0.058449287 -0.084414706 0.049030688 0.05276554 0.033399414 -0.101461016 -0.071620025 -0.02736744 0.035907708 0.014872997 0.012286425 0.01344633 0.079572074 -0.027683763 0.104035385 0.044929113 0.04656261 0.12031134 -0.021314476 -0.017257662 -0.0165817 0.088394985 0.007257598 -0.019539727 -0.04850733 -0.10507628 -0.12516835 -0.03448979 0.039363667 0.16721931 -0.082681514 0.06833607 -0.070358194 -0.037981942 -0.07624607 0.088429675 -0.053465977 -0.15916726 0.10219429 0.00068201293 -0.07735518 -0.0291313 0.007340781 0.06709284 0.00023756232 -0.028934726 -0.08057492 -0.028636985 -0.038843185 0.04663185 -0.049413253 -0.065034874 0.05991602 -0.0241899 -0.08658027 0.064717285 0.024623862 -0.0013296347 0.07445699 0.08595168 0.097620666 0.07096027 -0.026804777 0.23006564 0.1295845 0.04491448 -0.25266314 0.024364341 -0.10705091 -0.083204396 0.10635976 -0.06081622 -0.0060707196 0.059628613 0.0073187463 -0.08266781 -0.20987362 -0.19996934 -0.04955989 -0.16444057 -0.13182741 -0.049565513 -0.19230606 0.12611248 0.019063847 0.11176483 0.030284796 0.38494775 -0.23712038 0.030972905 0.13945773 0.13331686 -0.047440015 0.048837427 0.0010268121 0.15503222 -0.051918466 0.08179939 -0.11294517 0.0068636807 -0.016810808 0.14459859 -0.011192968 -0.04011834 -0.064178914 -0.11272038 0.021126786 0.03531961 0.041091062 0.026387462 -0.027295519 0.04840594 -0.043187477 -0.06445028 0.06029495 -0.12925705 -0.07090612 -0.21117257 0.19913477 0.18719155 -0.025270125 -0.11095577 0.05182508 -0.1481486 0.23238006 0.019862236 0.13565877 0.15530393 0.11539552 -0.14778745 0.109202005 0.09961438 0.05353127 -0.1600578 -0.110160895 -0.067767404 0.08166733 0.014500734 0.031951085 0.031013435 0.18253405 -0.023593972 0.18923242 0.093207434 0.0700653 0.23393959 -0.07319218 -0.009647987 -0.045803897 0.17365073 0.004114334 -0.03484857 -0.10750881 -0.19533025 -0.24258383 -0.057622638 0.080469035 0.3250655 -0.17148858 0.13719259 -0.112682626 -0.05949515 -0.11748955 0.14519815 -0.0618835 -0.2930654 0.15301585 0.012138057 -0.1374707 -0.020979907 -0.012151172 0.11961852 0.023284847 -0.033538412 -0.1651381 -0.05152869 -0.04584286 0.10959599 -0.079972595 -0.12442166 0.098404996 -0.043650232 -0.18123502 0.12299658 0.059936542 0.02082907 0.13720074 0.18223035
19 0.053039007 0.033700395 -0.0025713271 0.09554612 0.064692125 0.04183983 -0.110851385 0.019107265 -0.046649598 -0.035246894 0.044040803 -0.033503525 0.0010869869 0.026634779 0.021371068 -0.037228853 -0.086678945 -0.08431608 -0.006635137 -0.06968389 -0.06881386 -0.021516223 -0.07863051 0.049749065 -0.002072966 0.050269425 0.027032655 0.17717513 -0.09827936 0.0034737058 0.061031036 0.056009095 -0.022076014 0.019305453 -0.006988043 0.06699188 -0.024700565 0.041238815 -0.035573024 -0.0045879 -0.012896046 0.060255997 0.0017503216 -0.031908784 -0.026877014 -0.04667272 0.003400832 0.013133262 0.020530226 0.02395928 0.0057639563 0.018032175 -0.018421266 -0.017363325 0.028639887 -0.04496512 -0.03051692 -0.092601575 0.092271455 0.07568945 -0.0033380936 -0.057620503 0.020474983 -0.054314233 0.10896454 0.003321853 0.049780075 0.06621621 0.051384646 -0.063594475 0.036109727 0.041980922 0.026606597 -0.07955518 -0.06017178 -0.02604561 0.029671181 0.0115277385 0.008803536 0.008566996 0.06436289 -0.018993076 0.08321842 0.031494774 0.036710393 0.098769784 -0.02335845 -0.010826102 -0.011030352 0.070267215 0.0076183304 -0.013549057 -0.0396212 -0.08880394 -0.10063193 -0.02648691 0.0333475 0.13490143 -0.06649264 0.0480947 -0.055487704 -0.033800393 -0.062440302 0.06942697 -0.040243063 -0.13188373 0.07707221 0.0009305082 -0.057630565 -0.018736554 0.0047493326 0.057334397 -0.00017079205 -0.024892591 -0.06317178 -0.024513707 -0.03540245 0.039207265 -0.033056397 -0.051201914 0.047893237 -0.021490471 -0.06310055 0.05176336 0.022914095 -0.003233269 0.056271818 0.067072675 0.108273774 0.08653651 -0.04071613 0.31190506 0.16402687 0.03346356 -0.3184516 0.018693974 -0.12985468 -0.11375975 0.14808944 -0.06606169 -0.007850681 0.065461054 -0.009642033 -0.1177443 -0.2890788 -0.27262294 -0.083607905 -0.20979646 -0.16152902 -0.077754684 -0.26386726 0.17746595 0.033871986 0.13536236 0.027054718 0.49937642 -0.31635153 0.046111144 0.19120777 0.17955169 -0.06379052 0.061855152 0.0078219 0.20791231 -0.07590485 0.08769415 -0.16394645 0.012285738 -0.017616253 0.19226184 -0.027574245 -0.029466784 -0.083583616 -0.15076299 0.030970583 0.049723137 0.058867123 0.023703387 -0.055000383 0.062411923 -0.053783923 -0.09343408 0.082594834 -0.18648154 -0.09601013 -0.2629707 0.24566181 0.24847801 -0.035557717 -0.12884197 0.057646304 -0.21272495 0.30577818 0.036852762 0.19023624 0.21256845 0.13875675 -0.19553721 0.14954573 0.14016815 0.08125228 -0.19879669 -0.12364092 -0.0870718 0.108595885 0.014522279 0.046529863 0.04263614 0.2540462 -0.014708969 0.24105433 0.1378176 0.07757625 0.2967075 -0.11192408 -0.006786286 -0.07691126 0.2370624 0.008876762 -0.056560658 -0.15244173 -0.2546279 -0.32406405 -0.06660841 0.10229739 0.43304843 -0.22716643 0.1943944 -0.13279645 -0.06629896 -0.14796829 0.18349925 -0.064748704 -0.38024563 0.18877572 0.021292351 -0.18846305 -0.01807076 -0.02589864 0.15968335 0.031050675 -0.028790258 -0.21446162 -0.07195462 -0.043711953 0.15173614 -0.11218777 -0.16320206 0.12687479 -0.043754723 -0.25238883 0.17297792 0.07960019 0.049465414 0.17874995 0.2527422
32 0.046943404 0.027309371 0.001050115 0.08414844 0.055282276 0.030735206 -0.10027997 0.018794406 -0.04206361 -0.025370752 0.037140798 -0.036214158 0.0044335234 0.026190663 0.015938062 -0.031020315 -0.07142683 -0.07534057 -0.0041413866 -0.05917817 -0.065342866 -0.0192538 -0.07062637 0.046235148 -0.00050373824 0.04150943 0.024429977 0.15983099 -0.08704337 0.008731537 0.058041494 0.05326837 -0.025012732 0.016126217 -0.006446316 0.06030817 -0.020078992 0.04209278 -0.029747285 -0.0055266614 -0.015314961 0.055526182 0.006674124 -0.031716373 -0.020144952 -0.04559944 -0.001288725 0.015257928 0.014345383 0.018936576 0.0056352224 0.017597185 -0.0136905955 -0.02177216 0.024070015 -0.03703919 -0.024798157 -0.086361356 0.08142402 0.07364619 -0.00870931 -0.05296657 0.01931897 -0.045445118 0.09644352 0.0043242984 0.04583994 0.061651383 0.04551891 -0.057486687 0.037585873 0.03966715 0.021023037 -0.076689914 -0.05135474 -0.020454546 0.027065597 0.0077485875 0.010736097 0.008444613 0.05914547 -0.02299777 0.07880922 0.028846858 0.033577792 0.09192181 -0.014736453 -0.00850919 -0.013105127 0.06609605 0.006693237 -0.010294311 -0.033606112 -0.07612275 -0.09194028 -0.024487482 0.027211813 0.11741965 -0.060864218 0.04521423 -0.046360884 -0.024822418 -0.050721128 0.060961585 -0.036007874 -0.11573231 0.070587106 0.0014640739 -0.057952818 -0.017485382 0.0056361984 0.04583756 0.0039410386 -0.021975301 -0.05911493 -0.017885916 -0.02992472 0.036633313 -0.029827544 -0.040645014 0.043407243 -0.016940115 -0.05866451 0.049735848 0.018731544 0.0007161622 0.056676332 0.05854268 0.108273774 0.08653651 -0.04071613 0.31190506 0.16402687 0.03346356 -0.3184516 0.018693974 -0.12985468 -0.11375975 0.14808944 -0.06606169 -0.007850681 0.065461054 -0.009642033 -0.1177443 -0.2890788 -0.27262294 -0.083607905 -0.20979646 -0.16152902 -0.077754684 -0.26386726 0.17746595 0.033871986 0.13536236 0.027054718 0.49937642 -0.31635153 0.046111144 0.19120777 0.17955169 -0.06379052 0.061855152 0.0078219 0.20791231 -0.07590485 0.08769415 -0.16394645 0.012285738 -0.017616253 0.19226184 -0.027574245 -0.029466784 -0.083583616 -0.15076299 0.030970583 0.049723137 0.058867123 0.023703387 -0.055000383 0.062411923 -0.053783923 -0.09343408 0.082594834 -0.18648154 -0.09601013 -0.2629707 0.24566181 0.24847801 -0.035557717 -0.12884197 0.057646304 -0.21272495 0.30577818 0.036852762 0.19023624 0.21256845 0.13875675 -0.19553721 0.14954573 0.14016815 0.08125228 -0.19879669 -0.12364092 -0.0870718 0.108595885 0.014522279 0.046529863 0.04263614 0.2540462 -0.014708969 0.24105433 0.1378176 0.07757625 0.2967075 -0.11192408 -0.006786286 -0.07691126 0.2370624 0.008876762 -0.056560658 -0.15244173 -0.2546279 -0.32406405 -0.06660841 0.10229739 0.43304843 -0.22716643 0.1943944 -0.13279645 -0.06629896 -0.14796829 0.18349925 -0.064748704 -0.38024563 0.18877572 0.021292351 -0.18846305 -0.01807076 -0.02589864 0.15968335 0.031050675 -0.028790258 -0.21446162 -0.07195462 -0.043711953 0.15173614 -0.11218777 -0.16320206 0.12687479 -0.043754723 -0.25238883 0.17297792 0.07960019 0.049465414 0.17874995 0.2527422
31 0.060859554 0.03464169 0.0021497838 0.10926316 0.07060082 0.044959553 -0.12183694 0.023938956 -0.05309986 -0.032154236 0.047126353 -0.038355812 0.002355279 0.028295282 0.019042993 -0.037278254 -0.09539454 -0.09008474 -0.005925488 -0.078901134 -0.07805437 -0.018260496 -0.084191956 0.05537492 -0.0037010447 0.05367566 0.02454612 0.19705328 -0.11180677 0.0094388295 0.067541376 0.06276484 -0.030889375 0.024607027 -0.0074500917 0.074968055 -0.021591472 0.05315366 -0.041287545 0.0010668335 -0.015200326 0.064338535 0.0066274996 -0.036205918 -0.0252464 -0.053405892 0.002857248 0.018471079 0.022139529 0.022148715 0.004124732 0.022713745 -0.016184287 -0.020915812 0.031843122 -0.04606473 -0.030776883 -0.10332449 0.10486941 0.08951999 -0.0035288886 -0.061686724 0.026830522 -0.056248173 0.11451049 0.003940257 0.054899596 0.07278654 0.056723338 -0.0729043 0.046209175 0.048061013 0.026903963 -0.09052012 -0.06772802 -0.028508412 0.030311182 0.011058209 0.013539458 0.015865225 0.073155165 -0.026782317 0.09653219 0.039520677 0.040716168 0.106834315 -0.023540253 -0.011704672 -0.011161186 0.08099912 0.007439391 -0.015831472 -0.045090605 -0.09904981 -0.11211103 -0.031880025 0.036978558 0.15244295 -0.07369437 0.053688303 -0.06100667 -0.03274935 -0.06879529 0.0727257 -0.04472452 -0.14310837 0.08588969 0.0018473889 -0.06724928 -0.023333795 0.012109726 0.06383489 0.0007295379 -0.028629556 -0.07565499 -0.024662394 -0.038294334 0.037745755 -0.04212794 -0.05170203 0.059673652 -0.017670877 -0.07745825 0.05884775 0.0184368 -0.0042566787 0.063370995 0.07151526 0.097620666 0.07096027 -0.026804777 0.23006564 0.1295845 0.04491448 -0.25266314 0.024364341 -0.10705091 -0.083204396 0.10635976 -0.06081622 -0.0060707196 0.059628613 0.0073187463 -0.08266781 -0.20987362 -0.19996934 -0.04955989 -0.16444057 -0.13182741 -0.049565513 -0.19230606 0.12611248 0.019063847 0.11176483 0.030284796 0.38494775 -0.23712038 0.030972905 0.13945773 0.13331686 -0.047440015 0.048837427 0.0010268121 0.15503222 -0.051918466 0.08179939 -0.11294517 0.0068636807 -0.016810808 0.14459859 -0.011192968 -0.04011834 -0.064178914 -0.11272038 0.021126786 0.03531961 0.041091062 0.026387462 -0.027295519 0.04840594 -0.043187477 -0.06445028 0.06029495 -0.12925705 -0.07090612 -0.21117257 0.19913477 0.18719155 -0.025270125 -0.11095577 0.05182508 -0.1481486 0.23238006 0.019862236 0.13565877 0.15530393 0.11539552 -0.14778745 0.109202005 0.09961438 0.05353127 -0.1600578 -0.110160895 -0.067767404 0.08166733 0.014500734 0.031951085 0.031013435 0.18253405 -0.023593972 0.18923242 0.093207434 0.0700653 0.23393959 -0.07319218 -0.009647987 -0.045803897 0.17365073 0.004114334 -0.03484857 -0.10750881 -0.19533025 -0.24258383 -0.057622638 0.080469035 0.3250655 -0.17148858 0.13719259 -0.112682626 -0.05949515 -0.11748955 0.14519815 -0.0618835 -0.2930654 0.15301585 0.012138057 -0.1374707 -0.020979907 -0.012151172 0.11961852 0.023284847 -0.033538412 -0.1651381 -0.05152869 -0.04584286 0.10959599 -0.079972595 -0.12442166 0.098404996 -0.043650232 -0.18123502 0.12299658 0.059936542 0.02082907 0.13720074 0.18223035
30 0.08313891 0.048825987 -0.00035857767 0.14757934 0.09814813 0.05476278 -0.17395118 0.031859204 -0.07523786 -0.050291665 0.06595505 -0.0560264 0.0035535386 0.04399026 0.028516212 -0.05083693 -0.12983632 -0.12812757 -0.007072582 -0.10888532 -0.10261954 -0.030523682 -0.1196496 0.074752234 -0.00410181 0.078090765 0.041465737 0.2705015 -0.15064692 0.0059902095 0.0941218 0.0873914 -0.039932813 0.03346043 -0.006534381 0.102309085 -0.03049758 0.067688316 -0.052935958 -0.0007053315 -0.02429431 0.08875893 0.008643727 -0.05521239 -0.03630826 -0.07246817 0.004038341 0.026233677 0.027156685 0.035070896 0.006934188 0.026375247 -0.026889775 -0.035679724 0.037883252 -0.061207008 -0.047749672 -0.14684892 0.14309794 0.11817869 -0.0109397285 -0.08433391 0.04006199 -0.08378963 0.16153881 0.004428481 0.08189213 0.09655773 0.07780423 -0.101727895 0.056411777 0.06804344 0.032567035 -0.12754391 -0.09153687 -0.037784643 0.047102906 0.017077578 0.015253807 0.020547114 0.10154134 -0.030982442 0.12797645 0.050683778 0.063680835 0.15288556 -0.031068852 -0.02084669 -0.022899266 0.10620649 0.006541653 -0.02038435 -0.060196754 -0.13364895 -0.15839261 -0.03779928 0.046913147 0.20928492 -0.09881782 0.07959557 -0.08253926 -0.05061371 -0.09001766 0.10516059 -0.063121796 -0.20119317 0.12474483 -0.002941177 -0.093809694 -0.029806718 0.009809202 0.083006 0.0076524196 -0.036421966 -0.103017956 -0.032360815 -0.045827415 0.059939858 -0.052971706 -0.077235565 0.07526428 -0.027958414 -0.10232688 0.07770904 0.03293011 -0.0055302544 0.095530614 0.104290135 0.108273774 0.08653651 -0.04071613 0.31190506 0.16402687 0.03346356 -0.3184516 0.018693974 -0.12985468 -0.11375975 0.14808944 -0.06606169 -0.007850681 0.065461054 -0.009642033 -0.1177443 -0.2890788 -0.27262294 -0.083607905 -0.20979646 -0.16152902 -0.077754684 -0.26386726 0.17746595 0.033871986 0.13536236 0.027054718 0.49937642 -0.31635153 0.046111144 0.19120777 0.17955169 -0.06379052 0.061855152 0.0078219 0.20791231 -0.07590485 0.08769415 -0.16394645 0.012285738 -0.017616253 0.19226184 -0.027574245 -0.029466784 -0.083583616 -0.15076299 0.030970583 0.049723137 0.058867123 0.023703387 -0.055000383 0.062411923 -0.053783923 -0.09343408 0.082594834 -0.18648154 -0.09601013 -0.2629707 0.24566181 0.24847801 -0.035557717 -0.12884197 0.057646304 -0.21272495 0.30577818 0.036852762 0.19023624 0.21256845 0.13875675 -0.19553721 0.14954573 0.14016815 0.08125228 -0.19879669 -0.12364092 -0.0870718 0.108595885 0.014522279 0.046529863 0.04263614 0.2540462 -0.014708969 0.24105433 0.1378176 0.07757625 0.2967075 -0.11192408 -0.006786286 -0.07691126 0.2370624 0.008876762 -0.056560658 -0.15244173 -0.2546279 -0.32406405 -0.06660841 0.10229739 0.43304843 -0.22716643 0.1943944 -0.13279645 -0.06629896 -0.14796829 0.18349925 -0.064748704 -0.38024563 0.18877572 0.021292351 -0.18846305 -0.01807076 -0.02589864 0.15968335 0.031050675 -0.028790258 -0.21446162 -0.07195462 -0.043711953 0.15173614 -0.11218777 -0.16320206 0.12687479 -0.043754723 -0.25238883 0.17297792 0.07960019 0.049465414 0.17874995 0.2527422
28 0.043091543 0.02105173 0.0032451856 0.078220084 0.053202074 0.034103937 -0.09389391 0.015268533 -0.042368874 -0.026140923 0.03654169 -0.03272676 0.00032777194 0.019013667 0.016752321 -0.024070002 -0.070468895 -0.06686157 -0.007247371 -0.052946683 -0.051787727 -0.015750207 -0.058113478 0.037042283 0.0026076687 0.03983608 0.018098757 0.14595903 -0.07751499 0.0014467229 0.052400403 0.04714915 -0.019722687 0.018729586 -0.005418305 0.05697494 -0.015932417 0.03282235 -0.030048113 0.00018093096 -0.011821487 0.04696703 0.002163383 -0.029855376 -0.016790599 -0.040053926 -0.0014782473 0.01636905 0.012323766 0.019429168 0.0054207104 0.015227171 -0.012634134 -0.016516661 0.022190152 -0.030693937 -0.025179787 -0.07340715 0.0747422 0.05950286 -0.006925896 -0.044614185 0.017351285 -0.044988003 0.08220172 0.0042693997 0.04269048 0.055827986 0.038791176 -0.051484957 0.032424707 0.03637304 0.015760472 -0.06397953 -0.042694867 -0.019326862 0.021802004 0.008961943 0.0054447926 0.008360924 0.05573004 -0.017019322 0.07079631 0.02888262 0.03482201 0.08344856 -0.01725161 -0.01221275 -0.008244366 0.056338623 0.0017031364 -0.010012205 -0.037321646 -0.07234106 -0.08073575 -0.024715666 0.023805285 0.105336286 -0.05013522 0.042521022 -0.046397205 -0.022105806 -0.048461027 0.056204144 -0.032282483 -0.107467175 0.06327246 -0.0024233535 -0.0518503 -0.016349552 0.008292733 0.040846813 0.0059953667 -0.018049197 -0.051033463 -0.016299002 -0.029392483 0.029965091 -0.029609565 -0.03865684 0.040006045 -0.013949856 -0.05189701 0.04305343 0.017034288 -0.0038160698 0.0500743 0.056252573 0.108273774 0.08653651 -0.04071613 0.31190506 0.16402687 0.03346356 -0.3184516 0.018693974 -0.12985468 -0.11375975 0.14808944 -0.06606169 -0.007850681 0.065461054 -0.009642033 -0.1177443 -0.2890788 -0.27262294 -0.083607905 -0.20979646 -0.16152902 -0.077754684 -0.26386726 0.17746595 0.033871986 0.13536236 0.027054718 0.49937642 -0.31635153 0.046111144 0.19120777 0.17955169 -0.06379052 0.061855152 0.0078219 0.20791231 -0.07590485 0.08769415 -0.16394645 0.012285738 -0.017616253 0.19226184 -0.027574245 -0.029466784 -0.083583616 -0.15076299 0.030970583 0.049723137 0.058867123 0.023703387 -0.055000383 0.062411923 -0.053783923 -0.09343408 0.082594834 -0.18648154 -0.09601013 -0.2629707 0.24566181 0.24847801 -0.035557717 -0.12884197 0.057646304 -0.21272495 0.30577818 0.036852762 0.19023624 0.21256845 0.13875675 -0.19553721 0.14954573 0.14016815 0.08125228 -0.19879669 -0.12364092 -0.0870718 0.108595885 0.014522279 0.046529863 0.04263614 0.2540462 -0.014708969 0.24105433 0.1378176 0.07757625 0.2967075 -0.11192408 -0.006786286 -0.07691126 0.2370624 0.008876762 -0.056560658 -0.15244173 -0.2546279 -0.32406405 -0.06660841 0.10229739 0.43304843 -0.22716643 0.1943944 -0.13279645 -0.06629896 -0.14796829 0.18349925 -0.064748704 -0.38024563 0.18877572 0.021292351 -0.18846305 -0.01807076 -0.02589864 0.15968335 0.031050675 -0.028790258 -0.21446162 -0.07195462 -0.043711953 0.15173614 -0.11218777 -0.16320206 0.12687479 -0.043754723 -0.25238883 0.17297792 0.07960019 0.049465414 0.17874995 0.2527422
29 0.055248097 0.028024485 -0.002295345 0.092500746 0.05976216 0.039860826 -0.10828234 0.022835407 -0.04757614 -0.033996694 0.037936036 -0.036399107 -0.0018019994 0.02870542 0.018533459 -0.031055277 -0.080866784 -0.08365526 -0.008015483 -0.06848038 -0.068981364 -0.0235104 -0.072694 0.04841257 -0.002193605 0.051828273 0.023711832 0.17499268 -0.09418888 0.0060041705 0.05805054 0.055311486 -0.022219444 0.018918568 -0.0010671936 0.07066518 -0.02373531 0.04506502 -0.03038296 -0.006671005 -0.012068609 0.05409457 0.007523884 -0.03270432 -0.024680326 -0.04994042 0.0038291744 0.018701566 0.019843735 0.021410294 0.0068324893 0.019249283 -0.018308885 -0.02101543 0.02459364 -0.036589734 -0.02984177 -0.08853835 0.089953005 0.07316233 -0.008626174 -0.055669244 0.020642448 -0.049430583 0.101936646 0.0056359847 0.05416136 0.060617857 0.047317572 -0.06357871 0.038485575 0.04525724 0.02304861 -0.08028519 -0.058048926 -0.020446632 0.024736175 0.011321808 0.008750268 0.01274202 0.062093135 -0.017762981 0.07986703 0.03112305 0.042184334 0.098012425 -0.02060654 -0.0151322 -0.014184222 0.066205084 0.0034512435 -0.01002145 -0.037387557 -0.08347152 -0.10024643 -0.022891635 0.031011263 0.13105318 -0.066610344 0.053478777 -0.05512173 -0.030367488 -0.060520653 0.07171581 -0.040851597 -0.12961082 0.07984482 -0.0032580837 -0.06290299 -0.017533977 0.010051244 0.05415947 0.000570554 -0.02304172 -0.06360915 -0.023735702 -0.03550005 0.03920774 -0.035982404 -0.04690283 0.04702133 -0.018155575 -0.065598264 0.049076755 0.016539937 -0.003987229 0.054657504 0.064055935 0.097620666 0.07096027 -0.026804777 0.23006564 0.1295845 0.04491448 -0.25266314 0.024364341 -0.10705091 -0.083204396 0.10635976 -0.06081622 -0.0060707196 0.059628613 0.0073187463 -0.08266781 -0.20987362 -0.19996934 -0.04955989 -0.16444057 -0.13182741 -0.049565513 -0.19230606 0.12611248 0.019063847 0.11176483 0.030284796 0.38494775 -0.23712038 0.030972905 0.13945773 0.13331686 -0.047440015 0.048837427 0.0010268121 0.15503222 -0.051918466 0.08179939 -0.11294517 0.0068636807 -0.016810808 0.14459859 -0.011192968 -0.04011834 -0.064178914 -0.11272038 0.021126786 0.03531961 0.041091062 0.026387462 -0.027295519 0.04840594 -0.043187477 -0.06445028 0.06029495 -0.12925705 -0.07090612 -0.21117257 0.19913477 0.18719155 -0.025270125 -0.11095577 0.05182508 -0.1481486 0.23238006 0.019862236 0.13565877 0.15530393 0.11539552 -0.14778745 0.109202005 0.09961438 0.05353127 -0.1600578 -0.110160895 -0.067767404 0.08166733 0.014500734 0.031951085 0.031013435 0.18253405 -0.023593972 0.18923242 0.093207434 0.0700653 0.23393959 -0.07319218 -0.009647987 -0.045803897 0.17365073 0.004114334 -0.03484857 -0.10750881 -0.19533025 -0.24258383 -0.057622638 0.080469035 0.3250655 -0.17148858 0.13719259 -0.112682626 -0.05949515 -0.11748955 0.14519815 -0.0618835 -0.2930654 0.15301585 0.012138057 -0.1374707 -0.020979907 -0.012151172 0.11961852 0.023284847 -0.033538412 -0.1651381 -0.05152869 -0.04584286 0.10959599 -0.079972595 -0.12442166 0.098404996 -0.043650232 -0.18123502 0.12299658 0.059936542 0.02082907 0.13720074 0.18223035
1 0.0662013 0.038252722 0.0022456334 0.11044272 0.076360315 0.04544774 -0.13607195 0.02343232 -0.06054886 -0.03528359 0.053902533 -0.040245254 -0.00012553573 0.033920996 0.022520024 -0.037701633 -0.09931537 -0.09872521 -0.0055582933 -0.086582266 -0.0816452 -0.02457806 -0.090774894 0.060960423 -0.0017861929 0.05967629 0.03160947 0.21246389 -0.118119724 0.009091077 0.07337629 0.06464826 -0.031094894 0.023311367 -0.007917972 0.086702816 -0.025806218 0.05462961 -0.03941731 -0.0035759143 -0.017061079 0.073479615 0.009108428 -0.043855425 -0.030524533 -0.06122042 0.0073472513 0.017404735 0.021718362 0.02237764 0.0008804385 0.022663452 -0.022994213 -0.026910353 0.03178483 -0.050796628 -0.03484776 -0.11354631 0.109680094 0.09498466 -0.0061767665 -0.0655455 0.029533261 -0.063418224 0.12749286 0.006000487 0.06334983 0.08246869 0.059195448 -0.07624641 0.043833207 0.05480835 0.029191658 -0.10160464 -0.07144011 -0.028742839 0.036686935 0.008052548 0.013905939 0.016328013 0.079392195 -0.023126882 0.099516705 0.03914547 0.050565254 0.1218943 -0.022506936 -0.011038373 -0.012086646 0.088350706 0.01110431 -0.018966056 -0.052217416 -0.10760834 -0.12684348 -0.028100666 0.035548475 0.16438822 -0.078456976 0.06085346 -0.06716311 -0.037773985 -0.07353508 0.087134436 -0.047704928 -0.15995945 0.095483094 -0.0023544515 -0.07752691 -0.021505702 0.012430243 0.06372509 0.0056086355 -0.03077003 -0.08102877 -0.023508728 -0.035629988 0.044686683 -0.041063774 -0.056350373 0.059975695 -0.023488121 -0.07896081 0.06150468 0.02436432 0.0013540378 0.07406352 0.079141214 0.108273774 0.08653651 -0.04071613 0.31190506 0.16402687 0.03346356 -0.3184516 0.018693974 -0.12985468 -0.11375975 0.14808944 -0.06606169 -0.007850681 0.065461054 -0.009642033 -0.1177443 -0.2890788 -0.27262294 -0.083607905 -0.20979646 -0.16152902 -0.077754684 -0.26386726 0.17746595 0.033871986 0.13536236 0.027054718 0.49937642 -0.31635153 0.046111144 0.19120777 0.17955169 -0.06379052 0.061855152 0.0078219 0.20791231 -0.07590485 0.08769415 -0.16394645 0.012285738 -0.017616253 0.19226184 -0.027574245 -0.029466784 -0.083583616 -0.15076299 0.030970583 0.049723137 0.058867123 0.023703387 -0.055000383 0.062411923 -0.053783923 -0.09343408 0.082594834 -0.18648154 -0.09601013 -0.2629707 0.24566181 0.24847801 -0.035557717 -0.12884197 0.057646304 -0.21272495 0.30577818 0.036852762 0.19023624 0.21256845 0.13875675 -0.19553721 0.14954573 0.14016815 0.08125228 -0.19879669 -0.12364092 -0.0870718 0.108595885 0.014522279 0.046529863 0.04263614 0.2540462 -0.014708969 0.24105433 0.1378176 0.07757625 0.2967075 -0.11192408 -0.006786286 -0.07691126 0.2370624 0.008876762 -0.056560658 -0.15244173 -0.2546279 -0.32406405 -0.06660841 0.10229739 0.43304843 -0.22716643 0.1943944 -0.13279645 -0.06629896 -0.14796829 0.18349925 -0.064748704 -0.38024563 0.18877572 0.021292351 -0.18846305 -0.01807076 -0.02589864 0.15968335 0.031050675 -0.028790258 -0.21446162 -0.07195462 -0.043711953 0.15173614 -0.11218777 -0.16320206 0.12687479 -0.043754723 -0.25238883 0.17297792 0.07960019 0.049465414 0.17874995 0.2527422
0 0.09320168 0.053865474 0.0020852222 0.17133875 0.11456295 0.07185458 -0.20508389 0.04151806 -0.084328614 -0.053416457 0.07255101 -0.06874628 -0.0023457687 0.04696473 0.029212095 -0.06169128 -0.15038759 -0.14626779 -0.0109595675 -0.12796785 -0.12299289 -0.035107076 -0.14079212 0.08781206 0.0012763354 0.093432344 0.0480187 0.31758207 -0.17713334 0.0071156477 0.109781675 0.104414135 -0.048644412 0.04020847 -0.0050015845 0.12849824 -0.04338637 0.08426014 -0.06051848 -0.0077013904 -0.029419487 0.102799475 0.008850242 -0.06688416 -0.04625793 -0.09010002 0.006588263 0.029953508 0.034081984 0.036357164 0.006080795 0.030945387 -0.02959287 -0.03599476 0.05042852 -0.07806774 -0.054621264 -0.17330484 0.16286996 0.13673075 -0.010540087 -0.10427617 0.04191676 -0.0926005 0.18850228 0.0019931172 0.09506924 0.11661925 0.09118109 -0.11693146 0.071288034 0.07908564 0.041819144 -0.15081443 -0.101437606 -0.04197993 0.056340817 0.01297972 0.024156515 0.024606341 0.11518447 -0.041927993 0.15415819 0.060261976 0.07241226 0.17803769 -0.031484183 -0.019929837 -0.018068075 0.12933077 0.0105388295 -0.020981688 -0.07759704 -0.15662262 -0.18537341 -0.04823048 0.055140376 0.24401346 -0.12005305 0.09518739 -0.1023162 -0.05688419 -0.10984796 0.12935798 -0.07033007 -0.23877917 0.14680378 -0.0030020317 -0.11481317 -0.03924646 0.018713262 0.10103169 0.003843611 -0.041248143 -0.117877774 -0.040995594 -0.059332557 0.06703221 -0.06835399 -0.09344327 0.0888613 -0.03788384 -0.11912952 0.09281895 0.035127576 -0.0015412609 0.10525524 0.11982218 0.108273774 0.08653651 -0.04071613 0.31190506 0.16402687 0.03346356 -0.3184516 0.018693974 -0.12985468 -0.11375975 0.14808944 -0.06606169 -0.007850681 0.065461054 -0.009642033 -0.1177443 -0.2890788 -0.27262294 -0.083607905 -0.20979646 -0.16152902 -0.077754684 -0.26386726 0.17746595 0.033871986 0.13536236 0.027054718 0.49937642 -0.31635153 0.046111144 0.19120777 0.17955169 -0.06379052 0.061855152 0.0078219 0.20791231 -0.07590485 0.08769415 -0.16394645 0.012285738 -0.017616253 0.19226184 -0.027574245 -0.029466784 -0.083583616 -0.15076299 0.030970583 0.049723137 0.058867123 0.023703387 -0.055000383 0.062411923 -0.053783923 -0.09343408 0.082594834 -0.18648154 -0.09601013 -0.2629707 0.24566181 0.24847801 -0.035557717 -0.12884197 0.057646304 -0.21272495 0.30577818 0.036852762 0.19023624 0.21256845 0.13875675 -0.19553721 0.14954573 0.14016815 0.08125228 -0.19879669 -0.12364092 -0.0870718 0.108595885 0.014522279 0.046529863 0.04263614 0.2540462 -0.014708969 0.24105433 0.1378176 0.07757625 0.2967075 -0.11192408 -0.006786286 -0.07691126 0.2370624 0.008876762 -0.056560658 -0.15244173 -0.2546279 -0.32406405 -0.06660841 0.10229739 0.43304843 -0.22716643 0.1943944 -0.13279645 -0.06629896 -0.14796829 0.18349925 -0.064748704 -0.38024563 0.18877572 0.021292351 -0.18846305 -0.01807076 -0.02589864 0.15968335 0.031050675 -0.028790258 -0.21446162 -0.07195462 -0.043711953 0.15173614 -0.11218777 -0.16320206 0.12687479 -0.043754723 -0.25238883 0.17297792 0.07960019 0.049465414 0.17874995 0.2527422
3 0.039185163 0.021701789 -0.0025538974 0.07614661 0.04509471 0.030772727 -0.08949326 0.012956867 -0.037354395 -0.020795418 0.035176847 -0.029356835 -0.0033850677 0.022062197 0.016542047 -0.023144117 -0.06267906 -0.061517313 -0.0016386125 -0.054794796 -0.05177546 -0.015062039 -0.057359837 0.038298085 -6.373912e-05 0.041922875 0.019037964 0.1384777 -0.07735045 0.0022378254 0.051332384 0.045078974 -0.022297464 0.01658956 -0.0004196274 0.0505414 -0.020868247 0.035693068 -0.028641658 0.00027173408 -0.012284495 0.04710319 0.0010656026 -0.029844213 -0.017252684 -0.038121253 -0.00045671713 0.011180765 0.014078202 0.013753556 0.0043981266 0.018243127 -0.009316364 -0.014918698 0.019354843 -0.029763196 -0.024399 -0.074997604 0.071521014 0.061469883 -0.001807641 -0.04522278 0.020834493 -0.037193377 0.07821065 0.0018958114 0.041963045 0.05384825 0.035736278 -0.04762002 0.029446628 0.03677546 0.014954951 -0.06619887 -0.04111825 -0.017183403 0.021792699 0.00409561 0.010339486 0.00561874 0.0486717 -0.01882338 0.067132704 0.027929673 0.033335447 0.08055045 -0.01387927 -0.007710769 -0.01026119 0.058744542 0.0018149907 -0.007359293 -0.0331064 -0.06693676 -0.07753502 -0.022927623 0.022316286 0.104251884 -0.0490679 0.040865123 -0.045570504 -0.020343605 -0.04605498 0.057994798 -0.031313963 -0.10377233 0.05922691 0.0022065458 -0.046143454 -0.012435151 0.0054632225 0.04172219 0.003326 -0.018232241 -0.053515874 -0.017582478 -0.026492104 0.031594716 -0.024859782 -0.041453637 0.04006331 -0.015761612 -0.051484767 0.038205255 0.016417552 -0.0018343721 0.044807047 0.055195328 0.108273774 0.08653651 -0.04071613 0.31190506 0.16402687 0.03346356 -0.3184516 0.018693974 -0.12985468 -0.11375975 0.14808944 -0.06606169 -0.007850681 0.065461054 -0.009642033 -0.1177443 -0.2890788 -0.27262294 -0.083607905 -0.20979646 -0.16152902 -0.077754684 -0.26386726 0.17746595 0.033871986 0.13536236 0.027054718 0.49937642 -0.31635153 0.046111144 0.19120777 0.17955169 -0.06379052 0.061855152 0.0078219 0.20791231 -0.07590485 0.08769415 -0.16394645 0.012285738 -0.017616253 0.19226184 -0.027574245 -0.029466784 -0.083583616 -0.15076299 0.030970583 0.049723137 0.058867123 0.023703387 -0.055000383 0.062411923 -0.053783923 -0.09343408 0.082594834 -0.18648154 -0.09601013 -0.2629707 0.24566181 0.24847801 -0.035557717 -0.12884197 0.057646304 -0.21272495 0.30577818 0.036852762 0.19023624 0.21256845 0.13875675 -0.19553721 0.14954573 0.14016815 0.08125228 -0.19879669 -0.12364092 -0.0870718 0.108595885 0.014522279 0.046529863 0.04263614 0.2540462 -0.014708969 0.24105433 0.1378176 0.07757625 0.2967075 -0.11192408 -0.006786286 -0.07691126 0.2370624 0.008876762 -0.056560658 -0.15244173 -0.2546279 -0.32406405 -0.06660841 0.10229739 0.43304843 -0.22716643 0.1943944 -0.13279645 -0.06629896 -0.14796829 0.18349925 -0.064748704 -0.38024563 0.18877572 0.021292351 -0.18846305 -0.01807076 -0.02589864 0.15968335 0.031050675 -0.028790258 -0.21446162 -0.07195462 -0.043711953 0.15173614 -0.11218777 -0.16320206 0.12687479 -0.043754723 -0.25238883 0.17297792 0.07960019 0.049465414 0.17874995 0.2527422
16 0.044897813 0.029035479 0.002071644 0.08498638 0.056277033 0.030521674 -0.101494655 0.018776024 -0.04070491 -0.030719431 0.03639234 -0.03217462 0.0043364963 0.020316077 0.01860399 -0.025952239 -0.07497207 -0.070277974 -0.0072532543 -0.058905978 -0.061165936 -0.017384447 -0.06968526 0.04371624 -0.0037367565 0.04454908 0.021641452 0.15883031 -0.086464055 0.0075094076 0.054234814 0.04843745 -0.020589888 0.017641509 -0.003615243 0.061841153 -0.017751867 0.040108364 -0.030886147 -0.005889698 -0.012038707 0.05384913 0.0015292455 -0.031004062 -0.01795375 -0.042503256 0.0023558708 0.011664246 0.01585361 0.019928569 0.00045476112 0.020305224 -0.016537039 -0.017454615 0.021909406 -0.0392585 -0.027944364 -0.08457641 0.08114593 0.06647608 -0.0034040345 -0.047027055 0.023084637 -0.043936487 0.0911115 -0.0003287426 0.042856213 0.056572214 0.040260132 -0.05621973 0.038202308 0.04120766 0.018701557 -0.075968444 -0.052082147 -0.017669994 0.02404502 0.009979906 0.011579126 0.010814034 0.05635536 -0.021832189 0.078704685 0.02731155 0.033240493 0.086413346 -0.01408752 -0.00889788 -0.013272431 0.059813604 0.008439677 -0.00978273 -0.039856497 -0.073712885 -0.09014594 -0.023192616 0.029339379 0.115795575 -0.06016685 0.042545266 -0.047453444 -0.028122751 -0.05307754 0.060537584 -0.034389064 -0.119025886 0.069411546 8.287207e-06 -0.052388646 -0.017492665 0.009294752 0.044680778 0.00018132178 -0.02524286 -0.058507126 -0.016567336 -0.033257987 0.032292444 -0.03624769 -0.043078147 0.04193063 -0.014995735 -0.061384473 0.047879275 0.015298137 -0.0030879835 0.050753698 0.061735895 0.108273774 0.08653651 -0.04071613 0.31190506 0.16402687 0.03346356 -0.3184516 0.018693974 -0.12985468 -0.11375975 0.14808944 -0.06606169 -0.007850681 0.065461054 -0.009642033 -0.1177443 -0.2890788 -0.27262294 -0.083607905 -0.20979646 -0.16152902 -0.077754684 -0.26386726 0.17746595 0.033871986 0.13536236 0.027054718 0.49937642 -0.31635153 0.046111144 0.19120777 0.17955169 -0.06379052 0.061855152 0.0078219 0.20791231 -0.07590485 0.08769415 -0.16394645 0.012285738 -0.017616253 0.19226184 -0.027574245 -0.029466784 -0.083583616 -0.15076299 0.030970583 0.049723137 0.058867123 0.023703387 -0.055000383 0.062411923 -0.053783923 -0.09343408 0.082594834 -0.18648154 -0.09601013 -0.2629707 0.24566181 0.24847801 -0.035557717 -0.12884197 0.057646304 -0.21272495 0.30577818 0.036852762 0.19023624 0.21256845 0.13875675 -0.19553721 0.14954573 0.14016815 0.08125228 -0.19879669 -0.12364092 -0.0870718 0.108595885 0.014522279 0.046529863 0.04263614 0.2540462 -0.014708969 0.24105433 0.1378176 0.07757625 0.2967075 -0.11192408 -0.006786286 -0.07691126 0.2370624 0.008876762 -0.056560658 -0.15244173 -0.2546279 -0.32406405 -0.06660841 0.10229739 0.43304843 -0.22716643 0.1943944 -0.13279645 -0.06629896 -0.14796829 0.18349925 -0.064748704 -0.38024563 0.18877572 0.021292351 -0.18846305 -0.01807076 -0.02589864 0.15968335 0.031050675 -0.028790258 -0.21446162 -0.07195462 -0.043711953 0.15173614 -0.11218777 -0.16320206 0.12687479 -0.043754723 -0.25238883 0.17297792 0.07960019 0.049465414 0.17874995 0.2527422
5 0.048228163 0.028574836 0.003711998 0.07751141 0.05228033 0.03463425 -0.09144582 0.01804269 -0.036604073 -0.028528247 0.034247097 -0.027024386 0.003786621 0.025672952 0.011640712 -0.029152803 -0.07108788 -0.071580626 -0.0033266223 -0.055673636 -0.05852114 -0.01766052 -0.06407145 0.04047792 -0.0004556395 0.042645935 0.019613624 0.15024526 -0.08425288 0.0069869133 0.056142405 0.043903816 -0.019753762 0.014250604 -0.0037654964 0.059623335 -0.021119375 0.04100909 -0.02798758 -0.005119629 -0.010594618 0.045546554 0.005237463 -0.03217692 -0.01959758 -0.04239846 0.0027228866 0.015802952 0.014472804 0.019166457 0.004332465 0.018055001 -0.0126139065 -0.01893986 0.021628054 -0.03178954 -0.022680331 -0.082075424 0.07793069 0.06856505 -0.007824741 -0.043952588 0.022482637 -0.043013085 0.08472783 -0.0013193428 0.046383273 0.05171576 0.04048711 -0.053851675 0.031090418 0.04092707 0.018657017 -0.06832626 -0.048088834 -0.02298576 0.023784535 0.008180836 0.011733104 0.010319112 0.054619096 -0.017548127 0.07197995 0.029561434 0.033957887 0.08109008 -0.013497689 -0.008586159 -0.007370247 0.057589155 0.0053447424 -0.008746873 -0.03354227 -0.07144193 -0.087756716 -0.020506514 0.03047411 0.11075114 -0.053483583 0.046241224 -0.04945923 -0.02737859 -0.052804988 0.060909025 -0.03821079 -0.105468 0.066612735 0.0033772634 -0.054256763 -0.017795969 0.010270901 0.04647319 0.0019157002 -0.020633506 -0.05513867 -0.019689726 -0.030445253 0.027724111 -0.034193225 -0.044940762 0.042917553 -0.0124367755 -0.057328366 0.03995834 0.015790654 -0.00133684 0.050577052 0.058554377 0.108273774 0.08653651 -0.04071613 0.31190506 0.16402687 0.03346356 -0.3184516 0.018693974 -0.12985468 -0.11375975 0.14808944 -0.06606169 -0.007850681 0.065461054 -0.009642033 -0.1177443 -0.2890788 -0.27262294 -0.083607905 -0.20979646 -0.16152902 -0.077754684 -0.26386726 0.17746595 0.033871986 0.13536236 0.027054718 0.49937642 -0.31635153 0.046111144 0.19120777 0.17955169 -0.06379052 0.061855152 0.0078219 0.20791231 -0.07590485 0.08769415 -0.16394645 0.012285738 -0.017616253 0.19226184 -0.027574245 -0.029466784 -0.083583616 -0.15076299 0.030970583 0.049723137 0.058867123 0.023703387 -0.055000383 0.062411923 -0.053783923 -0.09343408 0.082594834 -0.18648154 -0.09601013 -0.2629707 0.24566181 0.24847801 -0.035557717 -0.12884197 0.057646304 -0.21272495 0.30577818 0.036852762 0.19023624 0.21256845 0.13875675 -0.19553721 0.14954573 0.14016815 0.08125228 -0.19879669 -0.12364092 -0.0870718 0.108595885 0.014522279 0.046529863 0.04263614 0.2540462 -0.014708969 0.24105433 0.1378176 0.07757625 0.2967075 -0.11192408 -0.006786286 -0.07691126 0.2370624 0.008876762 -0.056560658 -0.15244173 -0.2546279 -0.32406405 -0.06660841 0.10229739 0.43304843 -0.22716643 0.1943944 -0.13279645 -0.06629896 -0.14796829 0.18349925 -0.064748704 -0.38024563 0.18877572 0.021292351 -0.18846305 -0.01807076 -0.02589864 0.15968335 0.031050675 -0.028790258 -0.21446162 -0.07195462 -0.043711953 0.15173614 -0.11218777 -0.16320206 0.12687479 -0.043754723 -0.25238883 0.17297792 0.07960019 0.049465414 0.17874995 0.2527422
4 0.028862117 0.01776907 0.0020105815 0.04528952 0.03155675 0.014559705 -0.050107293 0.007756381 -0.020031875 -0.012717114 0.022477334 -0.019252127 -0.0019215377 0.0119694 0.011630683 -0.016434053 -0.036349844 -0.0404549 -0.0020257563 -0.02996822 -0.03143302 -0.012876099 -0.036917984 0.021282662 -0.00018377881 0.022337431 0.008868935 0.08577327 -0.04534865 0.0055714487 0.026687333 0.02919829 -0.009715309 0.01114795 -0.004498605 0.03150075 -0.011836486 0.021677133 -0.016430737 -0.0014095989 -0.0051930775 0.030915417 0.0046165367 -0.013633699 -0.011005459 -0.01969218 0.0021994724 0.008457294 0.006921313 0.011511772 -0.00215306 0.006259366 -0.010780702 -0.008811087 0.01024813 -0.021172464 -0.017611627 -0.047621485 0.04752498 0.037068263 -0.0055058766 -0.026819328 0.015129713 -0.022160752 0.04961639 -0.0007023403 0.026943633 0.029412026 0.021787716 -0.034123227 0.021542558 0.020527098 0.011882128 -0.03723619 -0.025045455 -0.011839815 0.011791522 0.006742616 0.0017799335 0.009129215 0.031632036 -0.0077720108 0.041493367 0.014555764 0.01743836 0.04781158 -0.0056497045 -0.008037914 -0.0055499547 0.03267639 0.0049557723 -0.0041370066 -0.020452294 -0.043844596 -0.052265983 -0.015156919 0.013455693 0.06549017 -0.028930694 0.021785825 -0.023123851 -0.013630406 -0.02709654 0.037250664 -0.020303749 -0.062231302 0.039735746 -0.00061663176 -0.03118665 -0.013268817 0.002289056 0.02812549 0.002539956 -0.009316648 -0.03127236 -0.012717939 -0.0144468555 0.01618969 -0.021180982 -0.020832147 0.023289567 -0.009852975 -0.029855352 0.028177127 0.0062423516 -0.0032035238 0.027096786 0.030130934 0.108273774 0.08653651 -0.04071613 0.31190506 0.16402687 0.03346356 -0.3184516 0.018693974 -0.12985468 -0.11375975 0.14808944 -0.06606169 -0.007850681 0.065461054 -0.009642033 -0.1177443 -0.2890788 -0.27262294 -0.083607905 -0.20979646 -0.16152902 -0.077754684 -0.26386726 0.17746595 0.033871986 0.13536236 0.027054718 0.49937642 -0.31635153 0.046111144 0.19120777 0.17955169 -0.06379052 0.061855152 0.0078219 0.20791231 -0.07590485 0.08769415 -0.16394645 0.012285738 -0.017616253 0.19226184 -0.027574245 -0.029466784 -0.083583616 -0.15076299 0.030970583 0.049723137 0.058867123 0.023703387 -0.055000383 0.062411923 -0.053783923 -0.09343408 0.082594834 -0.18648154 -0.09601013 -0.2629707 0.24566181 0.24847801 -0.035557717 -0.12884197 0.057646304 -0.21272495 0.30577818 0.036852762 0.19023624 0.21256845 0.13875675 -0.19553721 0.14954573 0.14016815 0.08125228 -0.19879669 -0.12364092 -0.0870718 0.108595885 0.014522279 0.046529863 0.04263614 0.2540462 -0.014708969 0.24105433 0.1378176 0.07757625 0.2967075 -0.11192408 -0.006786286 -0.07691126 0.2370624 0.008876762 -0.056560658 -0.15244173 -0.2546279 -0.32406405 -0.06660841 0.10229739 0.43304843 -0.22716643 0.1943944 -0.13279645 -0.06629896 -0.14796829 0.18349925 -0.064748704 -0.38024563 0.18877572 0.021292351 -0.18846305 -0.01807076 -0.02589864 0.15968335 0.031050675 -0.028790258 -0.21446162 -0.07195462 -0.043711953 0.15173614 -0.11218777 -0.16320206 0.12687479 -0.043754723 -0.25238883 0.17297792 0.07960019 0.049465414 0.17874995 0.2527422
7 0.024715463 0.016671088 0.003215917 0.04490658 0.027382296 0.015057843 -0.049739424 0.008391037 -0.021829622 -0.013031413 0.017010652 -0.019342253 -0.0028682523 0.009324796 0.011286868 -0.018518882 -0.041147366 -0.042209767 -0.0015434464 -0.0348577 -0.032374617 -0.011899212 -0.036737286 0.021200784 -0.00050785043 0.02234911 0.008933963 0.0835978 -0.048268743 0.0018544073 0.026637508 0.02467638 -0.010301421 0.010130478 -0.0045011383 0.032305412 -0.011680572 0.02240989 -0.01731244 0.0018558477 -0.0075607114 0.026723983 0.00042726757 -0.018308327 -0.01112658 -0.018785777 -0.0018120247 0.0059707356 0.010573234 0.011260251 -0.0006291095 0.0070021823 -0.008440893 -0.008830548 0.014336467 -0.01620164 -0.011801574 -0.04572847 0.04551882 0.03794133 -0.004456228 -0.027653601 0.013738984 -0.027579233 0.04976186 -0.00056100055 0.026373306 0.028795723 0.024841938 -0.032447398 0.017754717 0.02229438 0.010227055 -0.040262733 -0.025538743 -0.008976677 0.012276155 0.003793199 0.00846425 0.008602974 0.031327922 -0.0093970485 0.041579388 0.019458983 0.014561484 0.044974864 -0.0086437715 -0.0038036043 -0.009052945 0.0317691 0.0006422581 -0.0064086164 -0.01925902 -0.03931245 -0.047302328 -0.011077693 0.015179508 0.06168746 -0.034642946 0.021877514 -0.026627196 -0.01774625 -0.027072731 0.032878105 -0.01915795 -0.061502587 0.038628146 -0.0033607585 -0.03250372 -0.008151875 0.0037957714 0.026709007 -0.0007309898 -0.014703732 -0.031123318 -0.008584385 -0.017823437 0.014922023 -0.017239159 -0.0219864 0.025171643 -0.011084347 -0.029735442 0.023083117 0.010482978 -0.0025841529 0.028065864 0.028280588 0.108273774 0.08653651 -0.04071613 0.31190506 0.16402687 0.03346356 -0.3184516 0.018693974 -0.12985468 -0.11375975 0.14808944 -0.06606169 -0.007850681 0.065461054 -0.009642033 -0.1177443 -0.2890788 -0.27262294 -0.083607905 -0.20979646 -0.16152902 -0.077754684 -0.26386726 0.17746595 0.033871986 0.13536236 0.027054718 0.49937642 -0.31635153 0.046111144 0.19120777 0.17955169 -0.06379052 0.061855152 0.0078219 0.20791231 -0.07590485 0.08769415 -0.16394645 0.012285738 -0.017616253 0.19226184 -0.027574245 -0.029466784 -0.083583616 -0.15076299 0.030970583 0.049723137 0.058867123 0.023703387 -0.055000383 0.062411923 -0.053783923 -0.09343408 0.082594834 -0.18648154 -0.09601013 -0.2629707 0.24566181 0.24847801 -0.035557717 -0.12884197 0.057646304 -0.21272495 0.30577818 0.036852762 0.19023624 0.21256845 0.13875675 -0.19553721 0.14954573 0.14016815 0.08125228 -0.19879669 -0.12364092 -0.0870718 0.108595885 0.014522279 0.046529863 0.04263614 0.2540462 -0.014708969 0.24105433 0.1378176 0.07757625 0.2967075 -0.11192408 -0.006786286 -0.07691126 0.2370624 0.008876762 -0.056560658 -0.15244173 -0.2546279 -0.32406405 -0.06660841 0.10229739 0.43304843 -0.22716643 0.1943944 -0.13279645 -0.06629896 -0.14796829 0.18349925 -0.064748704 -0.38024563 0.18877572 0.021292351 -0.18846305 -0.01807076 -0.02589864 0.15968335 0.031050675 -0.028790258 -0.21446162 -0.07195462 -0.043711953 0.15173614 -0.11218777 -0.16320206 0.12687479 -0.043754723 -0.25238883 0.17297792 0.07960019 0.049465414 0.17874995 0.2527422
18 0.072271205 0.04169645 -0.0029337 0.1301648 0.08654246 0.05523234 -0.15129545 0.028070379 -0.06558071 -0.044490635 0.0546803 -0.048931856 0.0023378145 0.03730174 0.026014768 -0.047111392 -0.10976304 -0.10859482 -0.0081513785 -0.094352394 -0.094429165 -0.0300882 -0.10317251 0.06491771 -0.0032634926 0.06661296 0.032957837 0.24084717 -0.12878543 0.010674129 0.08720763 0.0779299 -0.037343003 0.030920101 -0.0078491485 0.09612721 -0.031867355 0.058876995 -0.045466956 -0.0073266835 -0.017950393 0.07669792 0.008573911 -0.04533223 -0.031014236 -0.065176055 0.00316097 0.023392271 0.025273085 0.026082167 0.006233079 0.028850166 -0.019138284 -0.026473599 0.03817116 -0.059583 -0.0418764 -0.12887733 0.12584555 0.10808085 -0.005438616 -0.0752205 0.035757743 -0.070484325 0.14208208 -0.001589609 0.06725736 0.08561418 0.06599577 -0.08755773 0.05532483 0.057713754 0.029451745 -0.10974109 -0.07350228 -0.034227386 0.037598792 0.013981729 0.016272595 0.012224958 0.09109034 -0.030468477 0.11286079 0.048268598 0.052213147 0.13356014 -0.02517494 -0.018475188 -0.016644886 0.097122625 0.011305579 -0.02195426 -0.053551495 -0.11368479 -0.1348669 -0.03219431 0.040014736 0.18554232 -0.09226655 0.06886729 -0.07593417 -0.04338342 -0.08188347 0.09473182 -0.058521252 -0.17679772 0.108376704 -0.003689875 -0.084681824 -0.029677333 0.008025044 0.07650049 0.00197856 -0.033517104 -0.09019742 -0.032321155 -0.04682071 0.05228081 -0.04792527 -0.069310814 0.06488419 -0.0283796 -0.09128131 0.065306045 0.024152922 -0.0028392237 0.083467275 0.0901275 0.108273774 0.08653651 -0.04071613 0.31190506 0.16402687 0.03346356 -0.3184516 0.018693974 -0.12985468 -0.11375975 0.14808944 -0.06606169 -0.007850681 0.065461054 -0.009642033 -0.1177443 -0.2890788 -0.27262294 -0.083607905 -0.20979646 -0.16152902 -0.077754684 -0.26386726 0.17746595 0.033871986 0.13536236 0.027054718 0.49937642 -0.31635153 0.046111144 0.19120777 0.17955169 -0.06379052 0.061855152 0.0078219 0.20791231 -0.07590485 0.08769415 -0.16394645 0.012285738 -0.017616253 0.19226184 -0.027574245 -0.029466784 -0.083583616 -0.15076299 0.030970583 0.049723137 0.058867123 0.023703387 -0.055000383 0.062411923 -0.053783923 -0.09343408 0.082594834 -0.18648154 -0.09601013 -0.2629707 0.24566181 0.24847801 -0.035557717 -0.12884197 0.057646304 -0.21272495 0.30577818 0.036852762 0.19023624 0.21256845 0.13875675 -0.19553721 0.14954573 0.14016815 0.08125228 -0.19879669 -0.12364092 -0.0870718 0.108595885 0.014522279 0.046529863 0.04263614 0.2540462 -0.014708969 0.24105433 0.1378176 0.07757625 0.2967075 -0.11192408 -0.006786286 -0.07691126 0.2370624 0.008876762 -0.056560658 -0.15244173 -0.2546279 -0.32406405 -0.06660841 0.10229739 0.43304843 -0.22716643 0.1943944 -0.13279645 -0.06629896 -0.14796829 0.18349925 -0.064748704 -0.38024563 0.18877572 0.021292351 -0.18846305 -0.01807076 -0.02589864 0.15968335 0.031050675 -0.028790258 -0.21446162 -0.07195462 -0.043711953 0.15173614 -0.11218777 -0.16320206 0.12687479 -0.043754723 -0.25238883 0.17297792 0.07960019 0.049465414 0.17874995 0.2527422
9 0.052595068 0.029415049 0.0045904806 0.09324657 0.05883379 0.037647173 -0.10705697 0.023786347 -0.048246626 -0.033876777 0.038066342 -0.035358563 0.0036482043 0.023934435 0.018777423 -0.030914275 -0.07994495 -0.082529485 -0.0041987635 -0.068201326 -0.06619401 -0.01979327 -0.07234881 0.042017497 -0.000598446 0.044307373 0.027301453 0.1697847 -0.09439359 0.0032726743 0.060588766 0.056882955 -0.025454002 0.02211856 -0.0062015583 0.070156835 -0.020114494 0.043816574 -0.029471429 -0.0043447795 -0.011874508 0.0570524 0.006815697 -0.03254114 -0.020456811 -0.04473521 -0.00028798654 0.016391333 0.014889108 0.023754992 0.00031873063 0.016491441 -0.019341493 -0.020898227 0.025645778 -0.03920867 -0.02494524 -0.09223372 0.0878956 0.076518014 -0.00498299 -0.052329086 0.021671051 -0.049891897 0.10144778 -0.0010009821 0.0457763 0.05918205 0.04763 -0.06543657 0.038554065 0.03908448 0.02128273 -0.07861414 -0.058595102 -0.02532287 0.024350194 0.012606682 0.011385782 0.010131018 0.0587244 -0.02204123 0.08133463 0.036361743 0.03665419 0.0961688 -0.017115297 -0.013366914 -0.011712797 0.06972859 0.0027581288 -0.012204135 -0.04298711 -0.087175995 -0.102064826 -0.025554499 0.033861216 0.12865873 -0.06677712 0.051876634 -0.052700687 -0.031307984 -0.05388215 0.07022522 -0.04127659 -0.12734835 0.07731067 0.0017173658 -0.06003212 -0.019424008 0.0054956498 0.050053798 0.0051691975 -0.02613095 -0.064999044 -0.02021125 -0.035005756 0.031717088 -0.036633693 -0.04886818 0.04695076 -0.015518187 -0.06696101 0.047994647 0.020075563 -0.0047024046 0.060295817 0.06524814 0.097620666 0.07096027 -0.026804777 0.23006564 0.1295845 0.04491448 -0.25266314 0.024364341 -0.10705091 -0.083204396 0.10635976 -0.06081622 -0.0060707196 0.059628613 0.0073187463 -0.08266781 -0.20987362 -0.19996934 -0.04955989 -0.16444057 -0.13182741 -0.049565513 -0.19230606 0.12611248 0.019063847 0.11176483 0.030284796 0.38494775 -0.23712038 0.030972905 0.13945773 0.13331686 -0.047440015 0.048837427 0.0010268121 0.15503222 -0.051918466 0.08179939 -0.11294517 0.0068636807 -0.016810808 0.14459859 -0.011192968 -0.04011834 -0.064178914 -0.11272038 0.021126786 0.03531961 0.041091062 0.026387462 -0.027295519 0.04840594 -0.043187477 -0.06445028 0.06029495 -0.12925705 -0.07090612 -0.21117257 0.19913477 0.18719155 -0.025270125 -0.11095577 0.05182508 -0.1481486 0.23238006 0.019862236 0.13565877 0.15530393 0.11539552 -0.14778745 0.109202005 0.09961438 0.05353127 -0.1600578 -0.110160895 -0.067767404 0.08166733 0.014500734 0.031951085 0.031013435 0.18253405 -0.023593972 0.18923242 0.093207434 0.0700653 0.23393959 -0.07319218 -0.009647987 -0.045803897 0.17365073 0.004114334 -0.03484857 -0.10750881 -0.19533025 -0.24258383 -0.057622638 0.080469035 0.3250655 -0.17148858 0.13719259 -0.112682626 -0.05949515 -0.11748955 0.14519815 -0.0618835 -0.2930654 0.15301585 0.012138057 -0.1374707 -0.020979907 -0.012151172 0.11961852 0.023284847 -0.033538412 -0.1651381 -0.05152869 -0.04584286 0.10959599 -0.079972595 -0.12442166 0.098404996 -0.043650232 -0.18123502 0.12299658 0.059936542 0.02082907 0.13720074 0.18223035
