3312 128
390 0.129588 -0.114865 -0.237209 -0.046855 -0.011284 -0.168886 0.269259 0.354446 0.268558 0.515861 0.040857 0.128976 -0.037604 -0.024792 0.190018 -0.054802 0.064553 0.136850 -0.096194 0.225962 0.013086 0.291930 0.271677 -0.043081 0.155930 -0.432398 0.023277 0.413166 -0.005662 0.141254 -0.226447 -0.086099 -0.049325 0.052070 -0.067203 0.254228 0.224041 0.212915 0.500274 -0.153992 0.035952 0.090147 0.171366 -0.521157 -0.138683 0.426030 -0.119045 0.022602 -0.225424 0.198559 0.078560 0.044977 0.260104 -0.329886 -0.535637 0.114599 -0.001222 0.156279 -0.252221 0.095051 -0.266530 0.125819 0.152862 0.026899 0.096017 0.054255 0.156186 0.008602 -0.316621 0.239089 0.249292 0.069737 -0.024156 0.064761 -0.249554 0.320684 -0.371182 0.120994 -0.373329 -0.093836 0.040346 0.249292 -0.243636 -0.010514 0.434115 -0.062179 0.153014 -0.085104 0.297100 0.101043 0.101991 -0.415283 -0.135793 0.040461 0.141803 -0.050294 0.056019 0.066194 -0.251304 -0.320395 0.126277 0.246117 -0.418500 0.452267 -0.014883 0.367394 0.008164 -0.303701 -0.110575 0.279083 0.000944 -0.522746 -0.125936 0.080693 0.338852 0.108027 0.177784 0.286934 0.259043 -0.177066 0.089908 -0.094794 0.017883 -0.108176 0.123931 0.124513 0.643707 0.300019
847 0.249424 -0.117192 0.564802 -0.277671 0.011219 -0.695214 -0.029484 0.558639 0.284328 -0.405210 0.306990 -0.151297 0.142785 -0.010385 0.188134 0.083988 -0.030191 -0.054190 -0.664805 -0.061556 -0.037439 0.087037 -0.249132 0.012626 -0.549467 -0.354934 -0.009550 -0.271060 -0.146523 -0.393081 -0.116574 0.054098 0.061189 -0.337206 0.008565 -0.028332 0.135225 -0.119077 -0.148181 0.100842 0.217425 -0.258218 -0.111859 -0.268125 0.172915 0.096960 0.089956 0.206562 0.062375 0.374649 0.208386 -0.455991 -0.051981 0.227471 -0.361577 -0.100275 -0.397989 -0.109851 0.210766 0.017653 0.683392 0.277280 0.497782 -0.473608 -0.039905 -0.028245 0.304266 -0.414704 -0.358359 0.154173 0.051349 0.022901 -0.139369 -0.040877 -0.000207 0.508832 -0.180087 -0.251481 -0.396860 -0.244598 0.433090 0.484597 0.349198 -0.137654 0.237502 -0.397219 -0.188810 0.331802 -0.395575 0.016179 -0.334213 0.105402 -0.146624 -0.071870 0.242685 0.310408 0.337142 -0.177999 -0.254735 -0.398771 -0.079881 -0.120068 0.067396 0.403045 -0.301957 -0.078205 -0.137390 -0.327396 0.277163 0.099717 -0.546041 0.084891 0.435771 0.426210 0.170124 0.064998 -0.110321 0.032849 0.332233 0.065820 -0.279710 0.250013 0.309339 0.180130 0.097849 0.023677 -0.136701 0.222945
1918 0.342725 0.019060 0.652651 -0.183495 0.291156 0.015562 -0.270600 0.865022 0.257392 0.265073 0.348925 0.083560 -0.565823 0.437808 0.566856 0.255368 -0.013870 -0.812618 -0.313608 -0.443091 -0.282265 0.584186 -0.049006 -0.022555 0.527730 0.191371 0.033684 -0.103905 0.001900 -0.790083 -0.451886 -0.591296 0.191992 -0.117336 -0.249253 -0.417993 0.051807 -0.377807 0.005534 -0.007612 -0.050590 0.060556 0.221802 -0.076653 -0.284203 -0.005181 0.421004 -0.565369 -0.803833 0.053169 -0.281812 -0.536149 0.206563 0.191210 -0.532880 -0.334431 0.301038 -0.118126 -0.002024 -0.092956 -0.364095 0.154508 0.452902 -0.052131 -0.422288 -0.256577 -0.819133 -0.130749 0.107796 0.606719 -0.433938 0.354285 -0.051426 -0.065748 -0.044408 0.239951 -0.069036 -0.472770 -0.348191 0.134363 0.155450 0.125237 -0.208121 0.349793 0.020326 -0.021513 -0.107036 -0.019717 0.151136 0.126627 -0.010484 -0.428043 0.146415 -0.021589 -0.039132 0.221429 -0.001171 0.154150 -0.578900 -0.261204 -0.121730 -0.241575 -0.012152 0.762386 0.207668 -0.543433 -0.197311 -0.035698 0.011506 0.128753 0.001191 0.121758 0.025694 0.464995 -0.461933 -0.328903 -0.124794 -0.053024 -0.429802 -0.134733 0.279207 -0.088723 0.333206 0.136037 -0.354275 -0.370308 0.276108 -0.168856
643 0.530969 -0.588108 0.608833 -0.073335 -0.258380 -0.349432 0.094864 0.382608 0.413965 -0.388086 0.408052 -0.204587 0.722975 -0.202999 -0.040653 -0.468537 0.005970 -0.136137 -0.523604 -0.094997 0.456234 0.201457 -0.340208 -0.188774 -0.104685 -0.502991 -0.300950 -0.873215 -0.365346 -0.334635 -0.318609 0.219045 0.162439 -0.379711 -0.170481 0.002141 -0.199395 -0.255366 -0.144148 0.359365 0.301317 0.015412 -0.408684 -0.116824 -0.213772 0.295680 -0.146775 -0.043946 0.295144 0.607052 0.290207 -0.383881 -0.019317 -0.149242 -0.286763 0.145533 -0.072625 0.008310 0.179927 0.196448 0.075960 -0.043668 0.249287 -0.303072 -0.054059 0.093106 0.324499 -0.195811 -0.105003 -0.169180 0.681752 -0.177123 -0.513305 -0.063133 0.101079 -0.381667 -0.036022 0.026030 0.233589 0.037784 0.107065 0.546945 0.509369 -0.075890 0.158734 -0.416245 -0.237682 0.252474 -0.552428 0.153341 0.223601 -0.289996 -0.038649 -0.318595 -0.009867 0.323823 -0.187625 0.516803 -0.436992 -0.382684 0.091250 -0.209086 -0.179151 0.232873 0.031538 0.009707 -0.102465 -0.490992 -0.061693 -0.000353 -0.539725 0.082659 0.206813 0.290917 0.058775 0.183170 -0.326235 -0.011366 0.558324 -0.309278 -0.276505 0.066654 -0.178690 -0.005942 0.134541 0.528573 0.090461 0.120228
488 0.099751 -0.524338 0.055413 0.235580 -0.220552 -0.034506 -0.111244 0.187074 -0.243025 -0.280364 0.053637 0.211935 0.245104 0.275960 0.150898 -0.239849 -0.148833 -0.422487 -0.076213 0.378701 -0.858159 0.653050 -0.311813 -0.088678 0.553120 0.151084 -0.254216 0.072194 0.045634 -0.366962 -0.006654 -0.447378 0.174782 -0.574238 -0.649137 -0.561387 -0.159247 -0.301463 -0.287003 -0.242731 0.567372 -0.209410 0.213251 -0.196215 -0.032987 0.129975 -0.149375 0.106918 0.078639 0.450088 0.094127 0.118700 -0.155171 0.012601 0.157599 0.285549 0.026734 0.082682 -0.123064 0.140651 0.132508 -0.031907 0.148581 -0.071587 0.112762 -0.111737 0.070675 0.185636 0.322728 0.206473 0.186592 0.353371 0.379541 -0.176991 -0.084483 -0.201869 0.343238 0.220589 0.019817 0.747784 0.147054 0.333143 0.639412 0.703960 0.162795 -0.262903 -0.112484 0.754309 -0.264373 0.229981 -0.049354 -0.177892 -0.120333 -0.425094 -0.471592 0.080514 0.234199 0.433114 -0.089240 -0.075040 -0.095694 -0.101536 -0.613029 0.723028 0.202460 -0.178425 0.081670 0.023804 0.118058 0.567031 -0.584597 0.010321 0.376753 0.124180 0.368627 0.472080 0.178272 -0.120778 -0.143794 -0.445963 0.501599 0.718402 0.082747 0.020122 -0.189431 0.545180 0.609070 0.596636
471 0.101399 0.351930 0.430986 0.159302 -0.066897 -0.128449 -0.114923 0.125779 0.078721 0.093933 0.209490 0.537071 -0.014026 -0.103148 0.432711 -0.191668 -0.102362 -0.392929 0.158650 0.642685 0.384912 -0.116687 -0.616321 0.592431 0.098993 0.168829 0.203819 0.664368 -0.604439 0.193142 0.165049 -0.042923 0.023593 -0.669997 0.359498 -0.233626 -0.060115 0.186195 0.441254 -0.427211 0.301139 -0.146719 0.244525 -0.122357 0.085012 -0.638271 -0.140786 -0.253197 -0.166608 -0.133499 -0.181294 -0.555648 0.032824 -0.538644 0.016933 -0.060429 0.193634 0.323958 0.137873 -0.153255 0.196929 0.070823 0.022546 -0.315335 -0.437324 -0.590597 0.169319 -0.157538 -0.150667 -0.060154 -0.284678 0.309826 -0.276243 -0.159277 -0.197956 -0.210423 0.494581 0.488173 -0.469093 0.082971 0.250410 -0.068195 0.038277 0.018401 0.216060 0.335029 0.199863 0.000452 -0.138970 0.093512 0.273704 -0.240066 -0.313634 -0.564801 0.241928 -0.463695 0.009553 -0.635496 0.308526 -0.432613 0.405230 -0.328533 -0.585264 0.111660 0.451413 -0.113045 0.263137 0.543918 0.443540 0.266508 0.219531 -0.254497 -0.314142 -0.242583 0.523020 -0.361853 0.457139 -0.033301 0.013846 -0.259569 -0.082951 -0.037306 -0.057902 0.485610 -0.362345 0.292715 -0.085512 0.655201
291 0.416528 -0.318350 -0.391540 -0.344108 -0.093095 -0.304957 0.386145 0.094035 0.145293 0.386308 0.067562 -0.015978 -0.206814 0.169850 0.090781 -0.065938 0.290788 0.268270 0.077520 -0.059072 -0.037708 0.313168 0.150239 -0.064369 0.315422 -0.322933 0.307707 0.111044 -0.089295 -0.052278 -0.607169 0.031575 -0.172549 -0.008869 0.079208 0.233895 0.180569 0.234392 0.803372 -0.353753 -0.176241 0.184446 0.023985 -0.402363 -0.309167 0.403682 0.050190 0.204273 0.045635 0.163211 0.234696 0.035162 0.377319 -0.363019 -0.465687 0.146277 0.344533 -0.115827 -0.203150 0.234558 0.037337 0.025175 0.603013 0.019526 -0.114910 0.014749 0.175259 0.217093 -0.217301 0.152179 0.200737 -0.105797 -0.092321 0.111419 -0.276636 0.527637 -0.663495 0.112402 -0.538705 -0.114828 -0.053348 0.029643 0.165241 0.261897 0.725562 -0.321892 0.159679 0.067015 0.226008 0.429555 0.044405 -0.407585 -0.078282 -0.003689 0.189138 -0.235460 0.110228 0.166273 -0.029896 -0.282353 0.046596 -0.005345 -0.458297 0.593228 0.058249 0.240530 0.141714 -0.140196 -0.026450 0.278819 0.179181 -0.375946 -0.099681 -0.157962 0.307634 -0.020081 0.125834 0.149933 0.496364 -0.099081 0.191964 0.324796 0.305730 -0.153519 -0.043151 -0.008749 0.499657 0.210521
814 0.210271 -0.284961 0.644647 -0.072721 0.080285 -0.650104 0.076736 0.752705 0.396438 -0.468407 0.398179 -0.041723 0.513744 0.089999 0.014786 -0.226538 -0.003905 -0.061465 -0.368005 -0.152968 0.358976 0.069248 -0.322208 0.127606 -0.463194 -0.485706 -0.490394 -0.695175 -0.275204 -0.509919 -0.164509 0.295181 0.020174 -0.347900 0.021424 0.240053 -0.203395 -0.132939 -0.095520 0.134290 0.296149 -0.023851 -0.161955 -0.148271 -0.317733 0.101330 0.050791 -0.100387 0.137537 0.749688 0.503210 -0.246878 0.227127 0.171556 -0.253561 -0.078117 -0.354780 -0.048765 0.333430 0.146569 0.115490 0.040047 0.494795 -0.237981 -0.058205 0.017052 0.454753 -0.375717 -0.001092 0.051251 0.531356 -0.120987 -0.331963 -0.266853 0.089074 0.088520 -0.174667 -0.174438 -0.052622 -0.078082 0.354732 0.609833 0.408006 -0.093095 0.180114 -0.405787 0.061009 0.188550 -0.393152 0.331894 -0.034294 -0.226753 0.148759 -0.069518 0.098986 0.429541 0.027755 0.115117 -0.335389 -0.174076 -0.037492 -0.343929 -0.061842 0.062149 0.076631 0.237632 -0.092358 -0.265329 0.088752 0.170838 -0.614604 -0.087392 0.427659 0.495168 0.321698 0.182518 -0.170726 -0.113980 0.376960 0.107836 -0.386442 -0.084518 0.125174 0.298385 0.006600 0.474869 0.044974 0.159075
2049 -0.389271 -0.081143 0.280174 -0.426160 0.149297 -0.622179 -0.583063 -0.362610 0.169805 0.226570 0.692903 0.029715 0.398003 0.125748 -0.391782 -0.752812 0.079544 -0.347174 -0.408369 0.352568 0.354262 0.450245 -0.131621 -0.049428 -0.118856 0.023854 -0.299594 0.623947 0.483870 -0.159589 0.078002 -0.169083 -0.252739 0.186618 0.062779 0.203199 0.490759 -0.224663 0.258817 -0.185661 0.105930 -0.380857 -0.213976 -0.235586 -0.639501 -0.010528 0.001572 -0.257138 -0.503634 0.025331 -0.284732 -0.303052 0.291390 -0.322214 -0.657400 -0.190414 0.182260 0.123549 0.031846 0.146033 -0.108307 0.273062 -0.185742 -0.101833 -0.223455 -0.442372 0.210310 -0.385615 0.924969 0.145124 0.140788 0.195468 -0.568391 -0.342932 -0.188497 -0.424064 0.070045 0.308805 -0.382031 0.033278 0.225863 0.698817 -0.316927 0.383903 0.151357 0.290642 -0.173478 0.488480 -0.127799 -0.080328 -0.291989 -0.199688 -0.309235 0.550917 -0.095573 -0.234683 -0.335209 -0.216246 -0.433106 0.128281 -0.328560 -0.418342 0.059024 -0.308321 -0.136680 -0.167998 0.431561 -0.021158 -0.039796 0.254241 -0.853399 -0.594144 0.141814 0.728972 1.253716 -0.091443 0.670314 -0.162699 0.515516 0.074590 -0.382352 -0.242769 -0.247759 0.190207 0.574846 -0.093367 -0.462797 -0.071150
822 0.281479 0.462067 -0.257946 0.444420 0.160097 0.163999 0.127333 -0.293396 0.670858 -0.175392 -0.032553 0.256140 0.163513 -0.058979 -0.397982 0.246153 -0.221059 -0.485368 -0.103212 0.000189 -0.590640 -0.558576 0.081339 0.791127 -0.677997 -0.482293 -0.128573 -0.117067 0.258285 -0.464619 0.026592 -0.603227 0.208903 -0.306288 -0.097153 0.057664 -0.399271 -0.109542 -0.277398 0.194666 -0.372881 -0.055037 -0.123028 0.099640 -0.384429 -0.534922 -0.289065 0.141772 0.046426 0.027961 -0.429843 -0.037748 0.117153 0.008047 -0.714233 0.180195 -0.354290 -0.200652 0.022863 -0.005569 0.447771 -0.302286 -0.084607 -0.178475 -1.086713 -0.274738 0.163395 -0.078381 -0.097452 -0.188542 0.153937 0.320359 -0.292115 0.107860 0.139895 -0.045116 -0.102728 0.407614 -0.337628 0.151490 0.145559 0.379162 0.233909 0.240065 -0.018815 -0.435973 -0.023814 -0.058823 -0.251628 -0.166777 0.284620 -0.604277 -0.419612 0.101065 -0.365873 -0.122827 0.356567 -0.574286 -0.112476 -0.626833 0.057219 -0.127974 -0.446152 0.088536 0.301859 -0.149581 -0.837592 -0.041278 0.466758 0.172453 -0.450288 -0.347260 0.256210 0.166503 0.255456 0.714694 -0.249274 -0.004160 0.390451 0.040803 0.142296 0.161715 -0.111459 0.133534 0.448601 -0.148994 0.432648 0.428955
661 0.514633 -0.185951 -0.243110 -0.010470 0.105578 -0.999584 0.089891 -0.265898 0.488450 -0.182784 0.406163 0.485976 0.206429 -0.077471 -0.152268 0.527524 -0.126830 -0.547565 -0.338824 0.563882 -0.057771 0.025428 -0.387417 -0.134847 -0.358371 -0.361080 -0.032486 0.115972 -0.160417 -0.716075 -0.168123 0.287800 -0.002719 -0.269276 0.062228 -0.434161 -0.390155 0.096802 -0.160138 -0.323980 0.133180 0.284158 0.458100 -0.041861 -0.514576 -0.351073 0.412005 0.141000 -0.461363 -0.921810 -0.044851 -0.162101 0.466279 -0.219450 0.022652 0.817366 0.244031 0.058816 0.908756 -0.441998 0.398151 -0.055169 -0.299100 0.475488 -0.229487 0.356879 -0.153198 -0.229170 0.112607 0.414994 0.494249 0.047193 0.158260 0.072961 0.139729 -0.210542 0.591315 -0.126771 0.182941 -0.031101 -0.043021 0.421490 -0.026481 0.487413 0.330527 -0.388823 0.246985 -0.131663 -0.354689 -0.161942 -0.339526 0.045195 -0.281598 0.483646 0.313804 0.193038 -0.145869 -0.033171 -0.332528 -0.222477 0.347510 -0.444782 0.079408 0.743905 -0.056970 -0.224115 0.016545 0.236927 -0.298240 0.482566 0.264000 -0.501838 -0.033954 -0.013014 -0.143008 0.401669 -0.845499 0.258740 -0.420993 0.303853 -0.434008 -0.144076 -0.024259 -0.178950 0.158620 0.499220 0.285118 0.110981
1236 -0.143092 -0.629920 0.317348 -0.428274 -0.496108 -0.696341 0.609118 0.283704 0.245087 -0.406119 0.984790 0.130930 0.054290 0.838661 0.249780 -0.689332 0.013100 -0.332261 -0.136786 -0.344188 -0.451831 0.457524 -0.155359 -0.002204 0.049419 -0.340643 0.094640 -0.330868 0.130874 0.537431 0.294117 -0.486698 0.116123 -0.213323 0.545166 -0.537558 -0.245478 -0.724036 -0.160834 -0.060107 0.394861 0.469042 0.460210 -0.107948 -0.683686 0.316230 0.163890 0.178882 -0.382535 -0.148699 0.205609 0.010095 0.409734 0.169781 -0.320196 0.436617 -0.424295 0.486416 -0.413240 -0.637161 0.088861 0.128709 -0.146703 -0.258487 -0.452937 -0.217767 0.199011 -0.575921 -0.348703 -0.320848 -0.263572 -0.072508 -0.244631 -0.088050 0.430587 -0.850451 -0.430454 -0.335288 -0.291268 0.040651 -0.110587 0.138989 -0.186854 0.424452 0.260489 -0.139679 -0.244979 -0.139364 -0.219184 0.285635 -0.155366 0.045431 -0.396963 -0.443990 0.181008 -0.232892 0.228694 0.000513 0.484855 -0.622283 -0.267960 -0.058863 0.136908 -0.267524 0.363131 -0.192359 0.054347 0.007760 -0.158711 -0.458828 0.275003 -0.133565 -0.546189 -0.253324 0.014364 0.242200 0.048566 0.095456 -0.725250 -0.246335 0.301843 -0.069538 -0.407331 0.580682 -0.096762 -0.009834 -0.421343 -0.369707
905 -0.612321 -0.650062 0.602032 0.119872 -0.175596 -0.405155 0.469592 0.167542 0.038314 -0.225387 -0.060069 -0.345891 -0.050861 0.382560 0.115042 0.279764 -0.075782 -0.247962 -0.150440 -0.101353 -0.255765 -0.020511 0.237483 0.135773 -0.356027 0.500420 -0.214877 -0.034530 0.067878 0.195005 -0.316652 -0.547533 -0.181777 0.189941 0.199652 -0.131236 -0.252454 -0.227169 -0.147812 -0.000611 0.143325 -0.363900 0.124428 0.536291 -0.182735 0.092726 -0.380819 0.401085 -0.508749 0.438014 -0.373250 -0.072654 0.313355 -0.100173 -0.273824 -0.049222 0.202454 0.428535 0.310149 -0.187364 0.497602 0.065108 0.779985 -0.594577 -0.231979 -0.318840 -0.696130 0.238957 -0.447250 0.032143 0.352992 0.083941 -0.918037 -0.109011 0.148790 0.138656 0.257173 0.262075 -0.229875 0.318033 0.007510 0.298328 0.298936 -0.292871 0.739636 0.480312 0.066040 0.113749 0.100332 0.146930 0.031513 0.191982 -0.183945 -0.294844 0.148174 -0.030726 -0.450802 -0.304697 0.199412 -0.126416 -0.061962 0.123457 -0.375884 0.563445 0.284477 -0.143754 0.607739 -0.057911 -0.112983 0.023754 0.288109 -0.371252 -0.378828 -0.078174 -0.564873 0.129978 0.180431 0.112899 0.189363 0.278598 0.615940 0.250807 -0.180163 0.747559 -0.615558 -0.395223 0.361379 0.184482
986 0.207321 -0.890613 0.017771 0.315250 -0.410452 -0.756849 -0.070467 0.519577 -0.130610 -0.196856 0.617756 -0.422234 -0.626434 0.115249 -0.465948 0.138129 -0.578655 -0.225450 0.247673 -0.006928 -0.327054 -0.563192 -0.660751 -0.636412 -0.098397 -0.383861 -0.007843 -0.600324 -0.361966 0.037202 -0.101906 -0.116167 0.151965 -0.366277 0.337991 -0.019246 -0.249910 0.177940 0.126453 -0.132525 0.162147 0.348812 0.156234 0.486866 -0.503317 0.122525 0.130805 -0.297422 -0.492169 0.021406 -0.250255 0.200951 0.563851 -0.068267 -0.795724 0.032036 -0.183684 0.092693 0.195748 0.185605 0.032470 0.737947 0.665336 -0.438632 0.312921 0.330048 -0.071697 -0.182440 0.025398 0.405463 -0.584562 0.400375 0.138651 0.208598 -0.188378 0.473171 0.605040 0.415130 0.145891 0.076521 0.364133 0.112851 0.259142 -0.152859 0.359083 0.118151 0.101363 -0.585220 0.201388 0.145641 0.571849 0.079884 -0.419948 -0.687336 -0.246607 -0.178308 0.067393 0.110564 -0.541009 0.086132 0.069843 -0.297231 -0.424444 0.132631 -0.511805 0.201317 0.583100 -0.220810 0.152884 -0.295469 -0.222796 -0.752233 -0.598829 0.000439 -0.116587 -0.131618 -0.083232 0.081035 0.375659 -0.620373 0.149833 -0.083520 0.484877 0.096816 -0.005979 0.070726 0.072756 -0.148587
0 -0.083131 -0.412764 0.083249 0.168781 -0.621713 -1.050936 0.394004 0.229265 -0.416204 0.219844 0.037681 -0.187022 0.245667 -0.223247 0.224645 0.270415 -0.192925 -0.080878 -0.836053 0.213294 -0.541743 0.141570 -0.166598 -0.299018 -0.429079 -0.931106 0.370544 -0.380938 0.418465 -0.699872 -0.297934 -0.543279 0.345474 -0.595635 0.125851 -0.514599 -0.088536 0.443557 0.317118 -0.284541 -0.157944 0.126518 0.161997 0.078308 -0.336830 -0.009836 0.315283 0.035914 -0.384499 0.282271 -0.009990 -0.253911 0.539431 0.136819 -0.470132 0.159011 0.539362 0.039132 0.110099 -0.127748 0.067997 0.109789 0.154982 -0.434667 -0.339489 -0.647688 0.127410 -0.536622 -0.595902 0.439984 0.228986 0.008048 -0.107631 -0.252915 0.363844 -0.298881 0.108082 0.271057 -0.596846 -0.091664 0.436113 -0.304422 0.029030 -0.368475 0.088393 0.309161 -0.196833 -0.780109 -0.393856 0.153447 0.132973 -0.123769 -0.560040 0.244887 -0.010757 -0.751832 0.311203 -0.525093 -0.265700 -0.290618 -0.276283 0.098640 -0.205337 -0.228586 0.234540 0.570848 -0.204038 -0.031384 -0.117829 0.348686 -0.107191 -0.021230 0.280286 -0.276470 -0.289697 -0.524196 0.333537 -0.170459 0.104191 -0.355382 -0.132617 0.469071 0.609027 -0.336930 0.640741 -0.027828 -0.152710 0.139361
1101 0.220047 -0.339277 -0.132921 -0.461944 -0.596112 0.164929 -0.077713 -0.044824 -0.099862 0.254349 -0.044042 0.036965 0.156805 -0.303679 -0.320101 0.028484 -0.114715 0.237291 -0.045704 -0.105248 -0.522199 -0.288161 -0.184338 0.083804 -0.252639 -0.997322 0.427605 0.200182 -0.322691 -0.005895 -0.364760 -0.126061 -0.277541 -0.896788 0.263743 -0.202705 -0.336582 0.487083 0.179246 -0.402654 -0.640008 0.585803 0.299617 -0.414183 0.119741 -0.106251 0.103419 0.414915 0.244614 0.404378 -0.035274 -0.297320 -0.174156 -0.080073 -0.214344 -0.126163 0.341856 -0.289687 -0.172339 0.416742 0.384153 0.571977 0.607259 -0.554440 -0.589931 -0.292679 -0.082485 0.002601 -0.474334 0.220316 0.552875 0.258172 -0.072670 -0.301330 0.415540 -0.083307 0.393938 0.361694 0.495964 0.363705 0.453382 -0.355780 0.045965 -0.329000 -0.285510 -0.431433 -0.428109 -0.033526 -0.160567 0.259189 0.266320 -0.216271 0.054551 0.123766 -0.381426 -0.115365 0.019498 0.079371 -0.945422 -0.165969 -0.111828 0.045665 -0.221061 0.404311 -0.385941 -0.197395 0.556835 -0.338976 0.217001 -0.036593 -0.620950 -0.149826 0.200162 0.413052 0.125289 0.243205 0.263033 -0.085986 0.654585 -0.093753 0.085755 0.351883 -0.787162 0.155293 0.490752 0.611263 0.713487 -0.284616
698 0.343957 0.035911 0.027311 -0.084351 0.249311 -0.043866 0.151292 0.058629 -0.008638 0.735651 0.212984 -0.030266 -0.274481 -0.044061 0.041257 -0.253976 0.040046 -0.267621 -0.216352 -0.129437 -0.149788 -0.095310 0.205160 0.001135 0.172325 -0.518262 0.095074 0.324877 0.029647 -0.107060 0.012716 -0.004469 -0.335897 -0.136670 -0.243602 0.079450 0.325868 0.150349 0.757582 -0.157925 0.270718 0.094173 -0.050024 -0.669685 0.156962 0.331890 -0.044239 -0.112444 0.027482 -0.095537 -0.221545 0.001998 0.409915 -0.255223 -0.619800 0.270632 0.241274 -0.031253 -0.140313 -0.219745 -0.262631 0.266406 0.293943 -0.162594 0.366688 -0.107035 0.010053 0.219885 -0.532535 0.158850 -0.050750 0.001093 -0.244831 0.152443 -0.058475 0.319905 -0.538540 0.443046 -0.683839 0.018723 0.359363 0.295877 -0.124415 0.014217 0.112156 -0.095455 0.119783 -0.185425 0.291044 -0.055413 0.007153 -0.416517 -0.147492 0.111592 -0.129185 -0.011753 -0.131834 0.061488 -0.219855 -0.119651 0.271717 0.009528 -0.290659 0.758374 -0.195010 0.265960 0.003852 -0.181567 -0.165550 -0.140178 -0.143996 -0.331692 -0.195988 0.001825 0.368735 0.375000 0.099187 0.049861 -0.046209 -0.512040 -0.181687 0.175204 0.156021 -0.000936 0.078205 -0.024185 0.827243 0.241188
631 -0.139066 -0.053130 -0.208689 -0.023904 -0.565590 -0.411134 0.678396 0.181736 0.231841 0.219587 1.183678 0.237981 0.056086 -0.150635 -0.261972 0.152621 0.651280 0.165131 0.125573 -0.272139 0.203787 0.015346 -0.346646 -0.517527 -0.055966 -0.725003 -0.041207 0.311707 0.344324 -0.326111 -0.110923 -0.955413 0.083507 0.155730 -0.177833 0.167122 -0.323899 -0.644232 0.182973 -0.174794 -0.008218 -0.145647 -0.333414 -0.349640 -0.275976 -0.099722 0.469918 -0.654852 0.166589 -0.190938 -0.081064 -0.133307 -0.162226 -0.048807 -0.201783 0.080914 0.313206 0.391281 0.662029 0.150025 0.603462 -0.206426 -0.059646 -0.449266 -0.584443 -0.305683 0.162414 0.007083 -0.217533 -0.527176 -0.337060 0.358385 -0.604823 -0.224302 0.229324 0.208811 0.306659 -0.804667 0.234102 -0.318465 -0.117584 0.066743 0.196683 -0.012665 0.353147 -0.431975 0.018613 -0.265492 0.153641 0.233450 0.205121 -0.375916 -1.236027 -0.666646 0.459705 -0.302434 0.427822 -0.484650 -0.236798 0.335444 0.454128 0.310771 0.033679 -0.125830 0.410810 -0.052105 -0.137772 -0.100979 -0.323397 -0.001398 -0.613180 -0.160979 -0.351177 -0.163865 0.771156 -0.225509 -0.189499 -0.384722 0.325051 -0.098787 0.168916 -0.068391 0.197895 -0.512606 0.365930 0.205010 0.167318 0.208638
2955 -0.145147 -0.726656 -0.025219 0.050518 -0.055537 -0.118514 0.629869 -0.161962 0.168434 -0.244426 0.142266 0.064737 -0.671823 0.679863 0.375663 -0.017576 0.199961 -0.216029 0.252499 -0.018473 -0.224198 0.188115 0.018095 0.184352 0.020445 0.271633 0.582655 0.401734 -0.690284 -0.023174 -0.132099 0.237581 0.158577 0.014232 0.506353 -0.320990 -0.118134 0.155954 0.688308 0.086567 0.059823 0.138040 0.015099 -0.269306 -0.851538 0.495239 0.288706 0.258749 -0.153825 0.408980 -0.191569 -0.557907 0.497799 -0.723604 -0.801797 0.083404 -0.485203 -0.145300 -0.239008 0.133331 0.769020 0.170477 0.288062 -1.117861 -1.029209 0.075656 -0.089059 -0.454979 -0.406699 0.516349 0.195096 0.064906 0.022229 -0.269864 0.145868 -0.109488 0.118214 0.396462 -0.011968 0.419675 -0.228100 -0.471871 0.545231 -0.237237 -0.059599 -0.226308 -0.062609 -0.261849 0.199102 0.041960 -0.033440 0.125329 -0.572186 -0.175670 0.061262 0.270138 0.066344 -0.173093 0.341323 -0.628117 0.019783 -0.025860 0.515171 0.299716 -0.276162 -0.253222 -0.179058 -0.009217 0.384258 0.013815 0.006072 0.007847 -0.178191 0.421884 0.167725 0.442076 -0.385366 0.470520 0.034142 -0.182163 -0.222756 -0.312060 0.450285 0.218546 -0.092126 0.408464 0.255138 -0.639000
483 0.253002 -0.023809 -0.089723 -0.233614 -0.024520 -0.312458 0.116499 0.318306 -0.065068 0.457692 0.032317 0.228657 -0.212209 0.138714 0.065979 -0.194892 0.027577 0.296321 0.273140 0.060385 -0.132286 0.177848 0.161548 0.021906 0.241620 -0.578401 -0.073649 0.215177 0.003106 -0.013464 -0.335572 -0.150074 -0.261123 0.156364 -0.417137 0.132571 0.165046 0.050969 0.430703 -0.285644 0.008829 0.045976 -0.400978 -0.333927 -0.149293 0.465334 -0.200635 0.053258 -0.376630 0.409209 0.013275 -0.080002 0.423284 -0.352775 -0.554507 0.131868 -0.107805 -0.221577 -0.208857 0.033051 -0.025488 0.304692 0.259431 -0.028327 -0.097471 -0.157481 -0.024926 -0.032913 -0.328954 0.469686 0.384861 -0.086910 -0.195793 -0.046837 -0.416687 0.117860 -0.496274 0.093263 -0.399089 -0.255961 -0.232487 0.427362 -0.354530 0.014179 0.408915 -0.072145 0.216049 0.034864 0.091040 0.162866 0.199917 -0.320534 0.076320 0.007445 -0.116892 -0.286204 0.078897 0.194715 -0.249454 -0.584843 0.398539 -0.147287 -0.583543 0.249449 0.419490 0.165836 0.033884 -0.576470 -0.237461 0.248366 -0.033252 -0.311036 0.088036 -0.103625 0.313072 -0.059375 0.129850 0.368424 0.306510 -0.042866 0.186890 -0.070257 -0.102190 -0.288665 0.184606 0.086557 0.948037 0.118884
868 0.128323 -0.605331 0.423502 0.414587 0.188834 0.104724 -0.313706 0.093693 -0.746829 0.337836 0.355463 0.186405 0.472726 0.455658 0.471455 0.098059 -0.113555 -0.698482 -0.018359 0.238163 -0.182994 0.147203 -0.697012 0.095897 -0.356368 -0.007804 0.135786 -0.375761 0.181508 0.388178 -0.193481 0.101060 0.107460 -0.471683 -0.081143 -0.296838 -0.397339 0.216944 0.027478 -0.360840 0.244015 -0.341768 0.137421 0.120892 -0.292852 -0.331880 -0.654952 -0.354295 -0.149500 0.378529 0.257432 -0.413171 -0.658331 -0.621041 -0.563635 -0.114145 -0.061166 0.372742 -0.067242 -0.122035 0.734006 0.840913 1.248252 -0.342127 -0.172183 -0.320178 -0.390854 0.108003 0.614242 0.319625 0.306202 0.204987 -0.022885 0.362103 0.032204 -0.153066 -0.006149 0.094846 0.481262 0.560343 -0.237114 0.098357 0.149658 0.407945 0.396987 -0.138707 -0.371340 0.169890 0.015257 0.070817 0.518776 -0.657131 -0.243649 0.118480 -0.345044 -0.136865 -0.172396 0.460271 -0.460786 -0.344378 0.052608 -0.298649 -0.319536 -0.131164 -0.624690 0.445286 0.035630 -0.396682 -0.045971 0.433872 -0.023757 -0.249059 0.575940 -0.219202 0.022038 0.013573 -0.042216 0.171697 0.089073 0.134636 0.002798 0.514052 -0.051438 0.330901 -0.001057 0.374488 0.321412 0.372741
659 -0.078247 -0.713561 0.358825 0.364311 -0.470667 -0.966037 0.063670 0.536299 -0.148831 -0.363704 0.730574 -0.033294 -0.344861 -0.070158 -0.410444 0.314703 -0.877564 -0.283276 -0.058407 -0.116820 -0.354911 -0.654122 -0.772375 -0.310006 -0.238696 -0.683546 0.124952 -0.223022 -0.356946 0.071284 -0.135876 -0.061388 0.055838 -0.352654 0.396712 -0.107632 -0.610288 0.028011 -0.023644 -0.190588 0.117873 0.251372 0.085952 0.472078 -0.294709 0.104296 -0.024413 -0.387223 -0.215358 0.237613 -0.236897 0.195847 0.464206 -0.377286 -0.662384 0.166595 -0.179060 -0.281889 0.389903 0.089202 0.169386 0.762811 0.464648 -0.572171 0.332448 0.232195 -0.128052 -0.226164 0.021294 0.183729 -0.620760 0.760232 0.127512 0.158703 -0.227419 0.558403 0.530343 0.303876 -0.019429 0.030766 0.492943 0.063321 0.142159 -0.215038 0.351191 0.171040 0.195738 -0.728676 0.588981 0.134152 0.550641 -0.005212 -0.171888 -0.705043 -0.420910 -0.538064 0.039507 0.357508 -0.555474 0.158247 0.039718 -0.515072 -0.439234 0.227319 -0.290744 0.295386 0.461254 -0.226950 -0.191950 -0.218177 -0.029807 -0.550555 -0.610857 -0.033129 -0.091500 -0.175450 0.041997 0.006595 0.382705 -0.615287 0.361249 0.034830 0.565103 0.217897 -0.106676 0.146660 -0.206621 -0.388708
1406 -0.507716 0.072842 0.215729 -0.336047 -0.831074 -0.525350 -0.152803 0.383383 -0.291215 0.125880 0.819568 -0.286264 -0.004113 -0.399143 0.328572 0.064674 -0.635805 -0.286361 0.071939 -0.287123 0.462150 -0.340235 -0.330539 -0.017126 0.257904 0.129043 -0.495765 0.072353 0.125954 -0.002565 -0.064179 -0.464683 -0.476665 -0.270231 -0.133572 -0.690714 -0.581181 -0.048500 0.504764 -0.757034 0.228290 0.028295 -0.088624 -0.307654 -0.128806 0.254623 0.299971 0.031708 -0.589216 0.106596 -0.066178 -0.513296 -0.234608 -0.023907 0.103687 -0.122219 0.061673 0.225648 0.375556 -0.367398 0.179156 -0.133714 -0.106198 -0.159669 0.014852 0.013970 -0.298047 0.063017 0.481970 -0.278779 0.172208 0.769969 0.109592 -0.149515 0.253754 -0.347548 -0.095867 0.196843 -0.306288 0.168815 -0.465619 0.061015 -0.017422 -0.003221 -0.114328 -0.085836 0.152090 -0.581646 0.271240 0.412418 0.325143 -0.902566 -0.404796 -0.189271 -0.293070 -0.614673 0.093877 -0.090737 -0.079024 -0.116231 0.005376 0.289725 0.525631 0.692640 0.054973 0.549497 0.620559 -0.335772 0.356262 0.242223 -0.713726 -0.555111 0.114331 -0.367344 -0.030991 -0.352719 -0.045042 0.256544 0.702966 -0.348499 0.272660 0.018709 -0.217641 -0.524633 0.280672 0.291386 0.317893 0.285602
1460 0.397763 -0.262900 0.474436 -0.258544 -0.253390 -0.224570 -0.114754 0.854068 0.144512 0.013650 0.602659 0.574976 0.440897 -0.218383 -0.373795 -0.407679 0.591935 -0.144624 -0.285047 0.346288 0.303855 0.305129 -0.011840 0.301842 1.018371 0.150943 0.064979 0.007987 -0.019784 0.063944 -0.656628 -0.240885 0.095385 -0.140663 -0.268716 -0.360306 0.582066 -0.414768 -0.085645 -0.406513 0.198861 -0.168620 0.097373 -0.032499 0.035410 -0.311067 -0.508288 -0.439415 -0.083488 -0.075200 0.307027 -0.008216 -0.285376 0.022629 0.051379 0.671593 0.385838 -0.244700 0.484302 -0.256511 0.774045 0.687192 -0.023565 -0.287505 -0.599328 -0.690138 0.235837 -0.158335 0.224343 0.289365 0.418698 0.644205 0.458839 -0.013196 0.135892 -0.023937 0.201419 0.002421 0.029433 0.109195 -0.624011 0.216353 -0.368991 0.203951 0.067079 -0.018758 0.308099 0.278272 0.486630 -0.034075 -0.350226 -0.127250 -0.238362 0.102684 0.344337 -0.048619 -0.120789 0.109434 -0.673733 -0.059051 -0.319298 -0.146881 -0.113093 0.338338 0.358177 -0.073024 -0.542888 0.525745 -0.319564 -0.223469 0.197912 -0.790654 -0.211319 -0.151020 0.593114 0.137485 -0.162389 0.364051 0.046943 -0.361337 0.522364 -0.367760 0.291992 0.021804 0.500051 -0.387633 1.053839 -0.040004
1731 -0.414175 0.115163 0.105363 -0.170761 -0.806750 -0.440567 -0.289645 0.192301 -0.278401 0.180108 0.961625 -0.063264 0.125046 -0.353261 0.309462 0.039790 -0.811207 -0.422360 0.066760 -0.366158 0.579109 -0.462020 -0.340094 -0.205781 0.322446 -0.001208 -0.284674 -0.000250 0.148104 0.064022 -0.021321 -0.490850 -0.491183 -0.305236 -0.111318 -0.679410 -0.387174 0.153026 0.289550 -0.684155 0.158121 0.252321 0.054877 -0.345705 -0.142762 0.266950 0.326225 0.148041 -0.641438 -0.042668 0.075130 -0.521154 -0.410338 -0.194224 0.214022 -0.108140 -0.018909 0.366349 0.467726 -0.426029 0.333905 -0.051671 -0.124167 -0.117006 0.006162 -0.002965 -0.258567 0.026289 0.289727 -0.274893 0.087418 0.883680 -0.072607 -0.210049 0.259852 -0.287274 -0.031977 0.260367 -0.144064 0.212052 -0.547748 0.083477 -0.159604 0.010711 -0.026750 -0.323935 -0.161244 -0.440516 0.283739 0.446640 0.204073 -0.955858 -0.501805 -0.089371 -0.278543 -0.697559 0.040320 -0.173862 -0.073213 0.054032 0.039376 0.286762 0.383076 0.576295 -0.091305 0.338943 0.619489 -0.426832 0.229728 0.234897 -0.531856 -0.784643 0.148776 -0.432900 -0.046764 -0.307938 -0.252454 0.158761 0.631106 -0.277546 0.189073 0.013905 -0.103506 -0.463055 -0.155041 0.063319 0.203911 0.233957
753 0.499894 0.250203 0.334514 0.194585 0.333766 -0.151361 0.225164 -0.114829 0.760143 0.278305 0.170899 0.122075 0.245633 0.109369 -0.610048 -0.552043 0.469068 0.251773 0.144459 -0.397558 0.148119 0.126436 0.395276 0.296209 -0.002425 0.100257 -0.077823 -0.203859 -0.439197 0.143059 0.223484 0.422353 0.743634 -0.167122 -0.457248 -0.180148 -0.547820 -0.167207 0.198365 0.191282 -0.069375 -0.190216 0.601808 -0.441230 -0.438035 0.355875 0.927680 -0.002018 0.453493 0.381814 -0.151894 -0.380046 0.288013 0.236369 0.278564 -0.166810 0.297214 0.186376 0.330439 -0.572647 0.574076 0.526034 -0.045831 -0.276339 -0.671850 -0.008174 0.052592 -0.392004 0.213167 -0.270660 -0.215117 0.506231 -0.765445 -0.217752 0.557495 0.557874 0.360985 -0.254707 -0.234347 0.183421 0.464337 0.711784 -0.549271 0.795783 -0.048498 -0.015398 0.171562 -0.202971 -0.279606 -0.217449 -0.486964 -0.167893 -0.683349 -0.800268 -0.010485 0.348029 0.207061 -0.141244 -0.392317 -0.394879 -0.061248 -0.484550 -0.347151 0.331222 0.799100 0.309875 0.205201 -0.450473 0.165679 -0.487214 0.048633 -0.334540 -0.130714 0.217044 0.013459 -0.072400 0.453985 0.328134 0.058621 0.429590 -0.049786 0.177509 -0.590503 0.177135 0.014224 0.559677 0.178452 0.096431
732 0.085465 -0.399770 0.024810 0.041702 0.196159 -0.169203 -0.014923 -0.299930 0.717666 0.260640 0.852547 0.262091 -0.189034 0.017430 -0.184865 -0.352600 0.174891 -0.768200 -0.159916 0.588460 0.141894 0.208213 0.240936 0.004038 0.407935 -0.680391 -0.181562 -0.144533 -0.326181 -0.089598 0.178893 0.155119 0.506632 -0.809819 0.267606 -0.004429 -0.304516 -0.449427 0.037054 0.515168 0.234146 -0.538744 -0.283641 -0.563798 -1.053546 0.940216 0.388041 0.287404 -0.490524 0.364875 0.112756 -0.057597 0.443270 0.052232 -0.459763 0.297804 -0.033316 0.042068 0.046478 0.091550 0.012377 -0.024710 0.464502 -0.362440 -0.473059 -0.494231 0.373024 -0.604383 0.070565 0.459110 0.009554 0.624871 -0.373939 -0.359072 -0.311800 -0.099212 0.066479 0.145738 -0.238282 0.007731 -0.275102 0.071426 0.233780 -0.001699 -0.344277 0.197534 0.304377 0.142252 0.312637 0.117310 -0.508817 -0.099101 -0.272016 0.005629 -0.292005 -0.436379 -0.236664 -0.099082 -0.224898 0.004768 0.207202 -0.518314 0.085972 -0.377268 0.430922 -0.067395 0.031622 0.048332 0.326209 -0.160282 0.746715 -0.671683 -0.069642 -0.342951 0.098121 -0.587160 -0.280544 0.307371 0.027751 0.447682 -0.035557 -0.894814 0.059330 0.183299 -0.026046 -0.090528 -0.465917 -0.250913
1374 0.169585 -0.156902 0.505637 -0.271475 -0.177327 -0.300726 -0.045983 0.708354 0.269017 -0.195523 0.891236 0.828799 0.384290 -0.143335 -0.357082 -0.294939 0.560638 -0.220813 -0.345621 0.280526 0.248295 0.302027 -0.019073 0.555257 0.838841 0.282747 0.131206 -0.028759 -0.101692 0.193602 -0.591648 -0.189702 0.198410 0.088148 -0.019173 -0.420863 0.397371 -0.410138 0.033040 -0.257734 0.227463 -0.196306 0.149276 -0.229730 -0.071735 -0.269066 -0.522388 -0.518119 0.158634 0.015557 0.205095 -0.265295 -0.506176 0.094739 0.259941 0.458768 0.342178 -0.249651 0.640850 -0.241871 0.678220 0.689855 -0.049442 -0.437653 -0.533134 -0.468636 0.237999 -0.244799 0.013723 0.335098 0.228592 0.687645 0.519044 0.102010 -0.038115 0.095758 -0.047954 -0.102437 0.183764 -0.089664 -0.530877 -0.033934 -0.498238 0.050524 0.093757 -0.121134 0.277449 0.198488 0.318696 -0.136185 -0.433381 -0.330777 -0.223771 -0.019742 0.383411 0.060907 -0.035069 0.167708 -0.538913 -0.096656 -0.336852 -0.261776 -0.108870 0.576719 0.474383 0.102653 -0.523358 0.598494 -0.395694 -0.231476 0.213994 -0.645936 -0.257789 0.093448 0.479812 0.071841 -0.068684 0.827956 0.191866 -0.262448 0.694268 -0.435946 0.602867 -0.149067 0.458104 -0.113203 1.041148 0.030339
1500 -0.087641 -0.537042 0.302506 -0.451849 -0.431100 -0.736040 0.795614 0.330026 0.307014 -0.360020 0.978799 0.378327 0.216503 0.944595 0.447892 -0.552858 0.104002 -0.600887 -0.378885 -0.207933 -0.211969 0.418089 0.212808 -0.036130 0.293767 -0.270847 0.188273 -0.523955 0.168499 0.433125 0.205309 -0.893686 0.147484 -0.106202 0.317114 -0.679893 -0.273044 -0.870698 -0.129342 -0.101715 0.510834 0.453677 0.371650 -0.142452 -0.482984 0.271156 0.187469 0.416909 -0.426042 -0.155176 0.352517 0.235330 0.395796 0.321167 -0.232806 0.458367 -0.334753 0.260540 -0.283651 -0.364546 0.394754 0.012108 -0.093132 -0.258054 -0.321455 -0.190474 0.193778 -0.389587 -0.353013 -0.402465 -0.299905 0.205494 -0.305310 -0.323612 0.262326 -0.598474 -0.302183 -0.256018 -0.316803 0.029154 -0.151667 0.114538 -0.278600 0.266297 0.370485 -0.103734 -0.257192 -0.485630 -0.574853 0.339270 0.061456 -0.136482 -0.361321 -0.280573 0.131045 0.173672 0.338532 -0.050729 0.735588 -0.881330 -0.145431 0.119835 0.236096 -0.207704 0.458755 -0.338530 -0.076366 -0.117336 -0.037659 -0.161830 0.250909 0.071654 -0.956822 -0.283033 0.069361 0.162114 -0.034081 0.102626 -0.896591 -0.254010 0.296068 0.062428 -0.337372 0.709458 -0.295060 -0.280011 -0.573640 -0.455038
1168 0.192815 -0.061298 -0.047384 -0.429293 -0.134736 0.146049 -0.435933 0.092699 -0.153835 -0.005899 0.268793 0.193664 0.230331 -0.278030 0.313032 -0.419014 -0.123943 -0.041527 0.180197 -0.081125 0.570465 0.307808 -0.349483 -0.063378 0.732770 -0.207768 -0.036647 -0.323162 -0.729044 0.171337 0.310694 0.122585 0.559427 -0.041868 -0.892168 -0.006254 0.400311 -0.262657 0.250327 -0.080164 -0.263825 -0.114313 0.252800 -0.631690 -0.203379 -0.567967 0.101609 -0.162899 -0.299620 0.453594 -0.284793 -0.575146 0.076169 0.175407 -0.222645 0.368875 0.406598 -0.211957 0.696399 -1.150378 0.997467 -0.265889 0.297393 -0.156939 -0.538973 -0.882856 0.222806 -0.357980 0.764509 0.043359 0.062798 0.432103 -0.401792 0.397809 0.722011 -0.342674 -0.092228 -0.198234 0.188832 -0.065417 -0.122431 -0.100599 -0.251670 0.617967 -0.528152 -0.302244 0.311893 -0.303624 -0.283634 0.107332 -0.249589 0.306793 -0.458227 -0.413999 -0.172281 0.309251 0.117416 0.120233 -0.172030 0.135499 -0.171787 0.238233 -0.562849 0.479133 0.320537 0.491855 0.017801 0.140857 0.034844 -0.044329 -1.182866 0.204230 -0.138281 -0.007865 -0.191641 0.093724 0.096045 -0.079482 0.342948 -1.046254 -0.456815 -0.110029 0.242971 -0.433750 0.112686 0.103975 0.073662 0.352735
439 0.083460 -0.234162 0.531033 0.186806 -0.529746 -1.181738 -0.058881 -0.098982 0.392016 0.042884 0.361042 -0.579118 0.257273 0.020678 0.263636 -0.195824 0.044772 -0.818144 0.047300 0.230345 0.264209 -0.236200 -0.875508 -0.233290 -0.104382 0.498406 0.030624 -0.236548 -0.989194 -0.266110 -0.366123 -0.470107 -0.399882 -0.142196 -0.100814 0.189743 -0.471390 -0.042698 0.187933 -0.186776 -0.083480 -0.001976 -0.080701 -0.854521 -0.186761 -0.275369 0.234291 0.227110 -0.452528 -0.429527 0.062983 -0.213769 0.477838 -0.250126 -1.075363 0.437336 -0.204762 0.043952 0.677182 -0.469237 0.059554 -0.101944 0.446738 0.023801 -0.163131 0.839770 -0.205900 0.034452 0.310503 -0.484329 0.217489 -0.001084 -0.093603 -0.148862 -0.789492 0.099774 -0.213653 -0.029186 -0.673921 0.016971 -0.124589 0.647840 0.071435 0.541875 0.243307 -0.144743 -0.022343 -0.514023 -0.265136 -0.418204 0.346964 -0.275650 0.054546 -0.079877 0.201156 0.514999 -0.192884 0.073923 0.515010 0.326509 0.221437 -0.089881 -0.303878 -0.627956 -0.198138 0.064841 -0.002693 -0.139655 -0.298151 0.320751 0.282665 -0.204239 0.110497 0.048257 0.129086 -0.006984 -0.342577 0.353682 0.369480 -0.113311 0.416615 0.428338 0.160209 0.223401 0.020662 0.082477 -0.124586 0.570803
1811 0.142844 0.174416 0.791168 -0.398167 0.183302 -0.026309 -0.113351 0.675247 0.007189 -0.053709 0.547054 0.341278 -0.156062 0.655080 0.500342 0.017518 0.332291 -0.871213 -0.480364 -0.222408 0.078709 0.467166 -0.210147 0.205216 0.734642 0.174200 0.067283 -0.115373 0.110000 -0.524196 -0.098934 -0.235014 0.539547 -0.621162 -0.733502 -0.148670 0.015492 -0.665106 0.206600 -0.144751 -0.423244 -0.185607 -0.176454 -0.310282 -0.281156 -0.346439 0.456464 -0.249542 -0.539402 0.336310 -0.060080 -0.889598 0.111303 0.342324 -0.694542 -0.356531 -0.127103 0.054383 -0.195986 0.180268 -0.647042 -0.053177 0.508946 0.578364 -0.687930 -0.311255 -0.556583 -0.327369 0.034720 0.507081 -0.112088 0.105425 0.111448 -0.080268 -0.230518 -0.024335 -0.049648 -0.590951 -0.176669 0.255815 0.187327 -0.045075 -0.162500 0.205200 -0.055089 -0.208021 -0.248573 0.220533 -0.329957 0.435063 0.042836 -0.475683 0.183784 0.417822 0.031110 -0.038516 -0.321379 0.643535 -0.335232 -0.111754 0.024360 0.026799 -0.018421 0.594540 0.196943 -0.528670 0.120845 -0.055925 0.061778 0.122258 0.057059 -0.183572 0.163340 0.398954 -0.383342 0.046697 -0.561091 -0.015984 -0.441078 0.036327 0.476335 -0.004826 0.119214 0.292078 -0.644964 -0.466325 0.445585 -0.015694
416 0.296830 0.300691 -0.098920 0.473783 -0.025262 0.203407 0.135184 -0.060357 0.629065 -0.349124 -0.078298 0.170305 -0.054491 0.124391 -0.515385 -0.006292 -0.141034 -0.560037 -0.346711 0.025896 -0.619116 -0.250266 -0.142061 0.789308 -0.375520 -0.797307 -0.266115 0.060282 -0.081237 -0.177392 0.080290 -0.271254 0.322268 -0.319703 0.198914 0.175179 -0.514647 0.044015 -0.112648 0.168622 -0.333101 -0.111020 -0.095482 -0.088694 -0.376990 -0.339355 -0.116779 0.034250 0.306958 -0.278681 -0.192204 -0.048071 0.066054 0.172168 -1.028221 0.041248 -0.147883 -0.166241 -0.131662 0.105753 0.733321 0.072346 0.046095 -0.140669 -0.836006 -0.176924 0.028520 0.059455 -0.181587 -0.470885 0.139574 0.436747 -0.457179 0.544231 0.096719 0.016397 -0.284916 0.471984 -0.739945 0.378110 0.205047 0.457010 0.105815 0.415832 -0.207685 -0.564373 0.004591 0.181225 -0.171830 0.009604 0.071015 -0.474198 -0.400747 0.138902 -0.274989 -0.284608 0.422575 -0.435526 -0.277223 -0.525862 -0.102169 0.083741 -0.526861 0.215373 0.205360 -0.426903 -0.841988 -0.100549 0.388996 0.185775 -0.291909 -0.405351 0.453043 0.159905 0.222346 0.862972 -0.277136 -0.058193 0.140420 0.089828 -0.076801 0.337993 -0.251032 0.097431 0.501411 -0.105434 0.560693 0.655353
697 0.142386 -0.107588 -0.130676 -0.114497 0.268471 -0.072585 0.147623 0.303170 0.132689 0.458021 0.127200 -0.217959 -0.241723 -0.036613 0.036648 -0.084728 0.067518 0.003181 -0.309455 0.093938 -0.562690 -0.113052 0.287058 0.139767 0.226033 -0.310134 0.173473 0.389814 0.020004 -0.052090 -0.000794 0.013790 -0.206505 -0.250631 -0.254517 0.125590 0.031230 -0.006680 0.623085 -0.183463 0.296196 0.095359 -0.107246 -0.793674 0.074943 0.507278 0.192171 -0.179714 -0.414095 0.095455 -0.205357 -0.231991 0.441846 -0.616173 -0.691275 -0.000637 0.226043 -0.440735 0.077556 -0.362678 -0.383857 0.294728 0.348792 -0.076305 0.232534 -0.014966 0.262946 0.343927 -0.704426 -0.101992 0.336739 -0.035298 -0.294427 0.200253 -0.393363 0.173268 -0.276488 0.597146 -0.479405 -0.154790 0.228433 0.490281 -0.314031 0.029520 0.066478 -0.154624 -0.028949 -0.108099 0.190163 -0.175620 0.078199 -0.371757 -0.075303 -0.007152 0.252198 -0.062922 0.162820 0.118113 -0.272486 -0.109138 0.163714 -0.142924 -0.281733 0.615426 -0.371145 0.222275 -0.140810 -0.264799 0.043175 0.002837 -0.077058 -0.586413 -0.363311 -0.097366 0.262440 0.232771 0.315177 0.050015 0.037453 -0.169479 0.071135 0.280770 0.061606 -0.249421 -0.175678 -0.021255 0.703980 0.178449
634 -0.337754 -0.504293 -0.108115 0.118246 -0.104389 -0.054364 0.631326 0.016934 -0.073892 0.135687 0.470395 -0.611762 -0.336906 0.157074 0.059486 -0.534676 -0.184397 -0.487851 -0.281280 -0.764237 -0.423417 -0.519037 -0.028687 0.007786 -0.292844 -0.533685 -0.213047 0.557862 -0.313881 -0.511915 -0.025746 0.021268 -0.545364 -0.587336 -0.079066 -0.705736 -0.529744 0.166030 1.219864 -0.593829 0.203149 0.173136 0.072479 -0.234168 -0.162245 0.523131 0.510385 0.580310 -0.390124 0.646627 0.347122 -0.237380 0.319754 -0.561160 -0.637516 0.265688 -1.004942 -0.116090 -0.507363 -0.706906 0.007736 0.487389 0.121093 -0.165426 -0.552414 -0.219083 -0.533194 -0.037863 -0.370904 -0.522355 0.356759 0.295544 -0.257414 -0.408830 -0.067250 0.499642 0.515854 0.016488 -0.010602 0.377588 0.058573 0.587410 0.372043 0.120024 -0.308603 0.352328 0.051296 0.632942 0.185407 -0.490826 0.850280 -0.612178 -0.832785 -0.415763 -0.340771 -0.279687 0.089120 0.498282 -1.158565 -0.255340 0.001433 0.366748 0.688739 0.133666 -1.047312 -0.376786 -0.179738 -0.533226 -0.174935 -0.277200 -0.333007 0.094784 -0.051010 0.503555 0.560904 0.976393 -0.516411 0.058404 0.196391 -0.151158 0.257282 0.015687 -0.390410 0.010946 -0.782415 0.080937 0.205496 0.159182
876 -0.328642 -0.855995 0.003810 -0.194154 0.391632 -0.544974 -0.163803 0.523488 -0.199891 0.427654 0.374372 -0.429951 0.216790 -0.100710 -0.310354 -0.197773 0.720605 -0.363036 -0.114150 0.415548 0.223381 -0.678618 -0.257896 -0.443527 -0.056657 -0.443817 0.431682 -0.357436 -0.016943 -0.295342 -0.432077 0.084632 -0.176832 -0.108967 -0.013103 -0.441049 0.639412 -0.837744 0.279003 0.190631 0.121875 0.065810 0.070459 -0.533986 0.034729 -0.305514 -0.272157 0.216888 -0.305550 0.002872 -0.089042 -0.364299 0.392911 -0.274991 -0.614922 0.356033 -0.019672 -0.340167 0.361230 0.481569 0.195043 -0.090066 0.124571 -0.152424 -0.432874 -0.098184 -0.045037 -0.120538 -0.050024 0.604103 -0.158084 0.539431 0.536579 -0.275792 0.444896 -0.701041 0.092406 0.725474 0.197037 -0.274947 -0.114770 -1.011833 -0.082481 -0.160035 0.071629 -0.006168 -0.197108 -0.183087 -0.047434 -0.207038 0.398700 -0.302699 -0.209106 -0.176250 0.441796 -0.447390 -0.494167 -0.415807 -0.610047 -0.492682 0.347940 -0.051011 -0.257909 -0.000898 -0.646331 -0.729850 0.292661 0.247736 -0.546121 0.705909 0.314533 -0.659180 0.279927 -0.053651 0.321195 0.368628 0.691171 -0.140272 0.241359 -0.800461 0.617415 -0.169841 0.710649 0.358170 -0.256768 -0.350903 0.276131 0.217574
685 -0.566712 -0.982153 0.334499 -0.272513 0.018248 -0.193436 -0.085558 0.082986 0.202876 -0.135892 -0.103740 -0.322859 0.075283 0.173919 0.298014 -0.009467 0.226427 -0.403877 -0.160098 -0.301045 0.093266 0.099373 0.049006 0.031334 -0.033316 0.296784 -0.252078 -0.236949 0.085510 -0.169284 -0.089704 -0.480986 -0.126142 -0.073193 0.115751 -0.023502 -0.111375 -0.575276 0.113011 -0.385225 0.147676 -0.319353 0.278779 0.243753 -0.140075 0.148767 -0.213359 0.387502 -0.246591 0.232061 -0.369321 0.018526 0.346225 0.116745 -0.276533 -0.048084 0.139378 0.452581 0.259236 -0.138591 0.260713 -0.012742 0.635004 -0.620834 -0.346917 -0.277860 -0.104881 0.230158 -0.421260 0.017321 -0.128600 -0.024926 -0.752311 0.077890 0.174965 -0.052133 -0.008405 0.396162 -0.329012 0.269185 0.354628 0.221758 0.343371 0.254170 0.942534 0.445870 -0.077191 -0.333560 0.251874 -0.189825 0.099087 0.162924 -0.372947 -0.276406 0.236158 -0.035489 -0.380206 -0.304850 0.033619 0.084294 0.006887 0.097156 -0.354335 0.543069 0.115790 -0.477609 0.361643 0.153382 -0.090577 0.010941 0.369827 -0.532491 -0.270544 -0.240680 -0.319740 0.139592 -0.284837 0.354156 0.166152 0.350502 0.673218 -0.091305 -0.320075 0.629300 -0.632399 -0.845186 0.297349 0.290054
31 0.180732 0.043350 -0.155173 0.022938 -0.061381 -0.131779 -0.379529 0.323609 -0.163664 0.032612 0.391562 0.507098 0.102439 0.128010 0.238280 -0.142488 -0.113302 -0.320540 0.245823 0.527107 0.198587 -0.168567 -0.548705 0.502192 0.248080 -0.080719 0.138759 0.380116 -0.529409 0.275348 0.172148 -0.147486 -0.403942 -0.750681 0.564038 -0.010622 -0.252520 0.072302 0.279667 -0.341885 0.270098 0.098233 0.394348 -0.136536 -0.018696 -0.422089 -0.232894 0.038051 0.207703 0.089745 -0.476692 -0.889031 -0.061718 -0.502286 -0.044960 -0.157567 -0.187496 0.309367 0.143447 -0.267155 0.480476 0.304950 -0.004228 -0.320609 -0.403187 -0.430022 0.293385 -0.078188 -0.269759 0.162647 -0.563842 0.683179 -0.037924 0.112245 -0.193930 -0.178571 0.383482 0.581207 -0.600806 -0.290324 0.447520 0.011171 0.252960 0.150047 0.475311 0.365581 0.373520 0.075171 -0.026645 0.189422 0.206316 -0.292629 -0.183201 -0.513543 -0.011664 -0.266322 0.000819 -0.247136 0.428286 -0.253590 0.400145 -0.528230 -0.679086 -0.240195 0.315634 -0.187627 0.070810 0.676972 0.569990 0.443818 0.332796 -0.122534 -0.184158 -0.083690 0.576833 -0.315341 0.336643 0.243917 0.270471 -0.033008 0.079403 0.149487 -0.045155 0.533810 -0.497669 0.360086 -0.198302 0.452391
1878 0.338108 -0.234292 -0.099898 -0.450296 -0.105570 0.212504 0.192893 -0.218801 -0.746038 -0.128373 0.851038 -0.483086 0.105842 0.721846 -0.051439 -0.380408 -0.016917 -0.286913 -0.117535 -0.080835 -0.578611 0.346120 -0.320821 -0.381891 -0.329478 -0.410671 0.413473 0.084688 0.394614 -0.525282 -0.279510 -0.277050 -0.357567 -0.491565 0.296005 -0.582872 0.012539 0.530280 0.439354 0.009674 0.078517 0.592568 0.234672 0.327335 -0.233214 -0.261327 0.070176 -0.288539 -0.179763 0.123639 -0.060189 -0.121037 0.470274 -0.329129 -0.736784 -0.596415 -0.287087 -0.020973 -0.863588 0.166769 -0.001376 0.300929 0.284968 -0.465321 -0.651875 -0.554076 -0.060648 -0.232043 -0.441860 0.349870 -0.352208 0.273659 -0.181783 -0.382022 0.715669 -0.518000 0.294049 0.495204 0.097730 0.636887 0.372765 -0.108670 0.096389 -0.222907 0.451863 0.295782 -0.566555 0.109161 0.283056 0.041531 -0.162087 0.085013 -0.437443 -0.119169 0.130462 -0.398520 0.529703 -0.073509 -0.853792 -0.276274 0.668537 -0.171508 0.642643 0.254466 0.613971 0.700181 0.102389 -0.730158 0.348642 0.129130 -0.208662 -0.270933 0.140315 -0.088881 0.040580 0.855765 -0.480537 -0.552799 -0.151784 -0.048424 0.338696 0.343112 0.186214 0.201759 0.262236 0.939855 0.261704 -0.303221
1747 0.601859 -0.939245 0.086524 0.253191 0.474006 0.159494 -0.325096 0.214620 -0.821953 0.264816 0.261372 0.017059 0.395413 0.497644 0.227952 -0.193562 0.066724 -0.729483 0.112633 0.137680 -0.046449 0.194132 -0.529900 0.087972 0.229293 0.173278 0.177571 -0.365790 -0.072410 0.236371 -0.341049 0.037502 0.167258 -0.731247 -0.247881 -0.069595 -0.153605 0.077347 0.071318 0.046368 0.257394 -0.217335 0.147134 -0.036386 -0.328125 -0.421407 -0.792535 0.058069 -0.089134 0.657242 0.231868 -0.325290 -0.786666 -0.367747 -0.563843 -0.047617 -0.265492 0.360545 -0.041766 -0.105322 0.936863 0.499543 1.316537 -0.400237 -0.233102 -0.660763 -0.155148 -0.010997 0.517825 0.483296 0.248160 0.167332 -0.063377 0.488443 -0.045054 -0.028053 -0.047777 0.657248 0.307376 0.570037 -0.089176 0.058954 0.205457 0.278407 0.180957 -0.089614 -0.133789 0.270536 0.123511 0.003883 0.088139 -0.514164 0.084422 -0.169630 -0.254657 0.020149 -0.012374 0.571578 -0.519741 -0.199161 0.451860 -0.238256 -0.052621 -0.020961 -0.389378 0.686131 0.040791 -0.295417 0.050552 0.077885 0.032340 0.073499 0.350494 -0.167425 -0.168020 0.382765 -0.372925 0.034530 0.332457 0.133817 -0.136760 0.775509 0.229743 0.195896 0.123661 0.011587 0.112443 0.148701
1083 -0.099201 -0.261136 0.809575 -0.241412 -0.154876 0.036802 -0.118201 -0.024486 -0.248337 -0.072011 0.490114 -0.373064 0.334553 0.375295 0.244425 0.001725 -0.037675 -0.524793 0.128474 -0.005796 -0.766328 0.527441 -0.228592 0.751976 0.326780 -0.203080 0.095127 0.301637 -0.369822 -0.117164 -0.547512 -0.646485 0.235758 -1.002628 -0.182781 -0.490123 0.360887 -0.061884 0.199799 -0.077644 0.433496 0.063104 -0.504337 -0.372927 -0.387196 -0.310290 -0.326141 -0.127320 -0.118548 0.586090 -0.127414 -0.247503 0.230079 0.299922 -0.431347 -0.323776 -0.385068 0.056590 0.106118 -0.007023 0.543715 -0.268005 0.866772 -0.398068 -0.675956 -0.531283 0.310264 0.246112 0.048907 0.611466 -0.161316 0.104098 0.308028 -0.226814 0.385111 -0.019356 0.296792 0.169056 0.347582 -0.024224 -0.078865 -0.607263 0.899754 -0.274750 0.433182 0.158707 -0.120930 -0.020981 0.128536 0.119791 0.216837 0.198704 -0.320974 -0.375720 -0.055377 -0.276269 0.336731 -0.101232 -0.665899 -0.767601 0.166737 -0.198147 -0.343346 0.531802 0.051177 0.178327 0.400822 -0.766160 0.410650 -0.163073 0.120924 0.571300 0.175260 0.293339 -0.198696 0.537155 0.650481 -0.128945 0.498875 0.411355 -0.488775 0.013027 -0.400315 -0.017030 -0.415111 0.473344 0.296789 0.351077
1150 -0.327611 -0.121198 0.479642 0.402975 -0.075172 -0.319772 0.218306 -0.196424 0.365695 0.181276 0.497821 0.059107 0.133450 -0.158655 -0.448029 -0.150472 0.547525 -0.390248 0.413813 -0.144291 -0.655413 0.746213 0.160167 -0.090293 -0.291800 -0.053437 0.197010 0.490442 -0.795866 -0.370240 -0.361245 -0.578824 0.174524 -0.271091 -0.386566 -0.217562 0.063642 0.046776 0.165994 0.320748 0.248662 -1.110046 -0.382467 -0.684965 -0.518647 -0.360949 0.175907 -0.079842 0.119292 0.183472 0.024116 -0.536585 -0.097769 -0.170893 -0.325597 -0.131496 0.454407 0.269291 0.171847 0.344729 0.554018 -0.197696 0.480385 -0.275892 -0.721436 -0.596546 0.035162 0.075119 0.377083 0.179638 0.227885 0.389658 -0.275395 -0.026673 0.141325 -0.139085 0.259385 -0.520172 0.368936 0.205066 -0.238649 -0.269714 0.016754 0.327634 0.408581 -0.110415 0.239861 -0.380754 0.981933 -0.179205 -0.233548 -0.279566 -1.218686 -0.672055 -0.055194 -0.240873 0.651918 -0.420177 -0.913496 -0.484087 0.034794 -0.240567 -0.171759 0.926621 0.698836 -0.675959 0.604297 -0.390559 -0.487317 -0.102152 -0.080548 0.078848 0.565163 -0.238316 -0.105099 -0.113808 0.168743 0.415448 0.369367 0.360008 0.147256 -0.265627 0.068209 -0.453050 0.350609 0.233368 -0.002842 -0.049199
2006 0.616451 -0.134712 0.094506 0.081018 0.381000 -0.349206 0.424881 0.090611 0.651291 0.229324 0.496363 0.030059 0.650363 -0.343858 0.391913 0.062006 0.228786 -0.707346 -0.287015 -0.156443 0.327888 0.161627 -0.352802 0.493933 0.810441 -0.355926 -0.025603 -0.234008 0.552695 0.024626 -0.408120 -1.006818 0.672767 0.050136 -0.581052 0.225540 -0.228355 -0.890444 -0.032747 -0.604355 -0.016483 -0.030633 -0.056652 -0.156655 0.020176 -0.146431 -0.207352 0.383822 -0.822315 0.413027 -0.286481 -0.034538 0.132804 1.002618 -0.082405 0.419052 0.437603 0.270647 0.638096 -0.255590 0.276866 -0.393105 -0.074120 -0.007303 -0.438538 0.328798 0.453047 0.303579 0.067416 0.433254 0.327292 1.323342 -0.612499 -0.202698 -0.124530 0.724209 0.004226 0.463443 -0.241641 0.363258 -0.604329 0.116887 -0.374198 0.619136 0.656573 0.625932 0.114848 0.047594 0.410016 -0.322198 -0.233552 0.392407 -0.118640 -0.371723 0.036230 -0.196917 0.240367 -0.142365 -0.122577 -0.680721 0.163193 0.395651 -0.035618 0.006810 0.728753 -0.187970 -0.206425 -0.116608 0.535759 0.425320 0.213438 -0.245573 0.099427 -0.662538 0.248532 0.125436 -0.130446 0.067889 0.255509 -0.092662 0.372956 0.485217 0.351409 -0.263424 0.214667 -0.577108 -0.172363 -0.249813
389 -0.558903 -0.143144 -0.177016 0.420560 -0.099491 -0.894216 0.930966 0.259782 0.264533 -0.213125 1.322251 0.498645 0.461860 -0.333891 0.392242 0.356270 -0.134719 -0.732216 -0.303025 -0.003956 0.201986 0.428228 -0.046073 -0.155955 0.356854 0.217091 0.252473 -0.439250 0.043769 0.033471 0.115127 -0.418974 0.165615 0.283779 -0.403696 -0.450470 -0.833219 -0.115666 -0.065253 0.128338 0.263452 -0.622933 0.206431 -0.486591 -0.183377 -0.451556 0.010500 0.400791 -0.039842 0.206146 0.031850 -0.923423 -0.499635 0.506632 -0.231722 -0.093521 0.160489 0.285024 0.802828 0.708340 0.725320 -0.628315 -0.665521 -0.076002 0.024810 -0.102679 0.356141 -0.183245 0.479965 -0.679196 0.290404 0.531799 -0.478704 -0.278124 0.022508 0.049463 0.216506 -0.414335 -0.218908 0.092934 -0.164299 -0.115727 -0.196308 -0.019197 -0.222409 -0.229586 -0.280520 -0.203372 -0.331483 0.037951 0.169510 -0.739111 -1.053306 -0.726399 -0.047436 -0.016009 0.354964 -0.612251 0.016641 -0.567878 0.040106 -0.069611 -0.585720 0.587122 0.506715 0.121293 -0.109703 -0.267267 0.283507 0.571124 -0.275662 0.099688 0.180440 0.687388 -0.483848 0.227616 -0.057578 0.479491 0.205011 -0.062025 0.319391 0.189033 0.413127 -0.380198 -0.068754 -0.272325 -0.344565 0.137763
673 0.533142 -0.468051 -0.234346 -0.621640 -0.410806 -0.418721 0.184133 0.321645 -0.034493 0.241127 0.144068 0.170259 -0.128098 0.076433 0.299597 -0.036000 0.374860 -0.081800 0.115284 -0.076955 0.124182 0.180311 0.359215 0.066617 0.404303 -0.178812 0.376811 0.375073 0.004486 0.382324 -0.206862 -0.182554 -0.016977 0.041000 -0.075347 0.119250 -0.059467 0.532014 0.327518 0.259209 0.272698 -0.135072 0.545841 -0.343522 -0.070349 0.353341 0.088004 0.205850 -0.095172 -0.104199 -0.223118 0.148158 0.309240 -0.519675 -0.187182 0.379161 0.389573 0.245256 -0.107544 0.152516 -0.102577 -0.073335 0.249564 0.102552 0.090427 -0.258785 -0.240067 0.009427 -0.017125 -0.037368 0.222673 -0.322712 -0.036442 0.047217 -0.108870 0.103306 -0.468034 -0.205809 -0.509669 -0.300940 0.172471 0.464182 0.607101 0.185471 0.488665 -0.410491 0.099801 -0.083490 0.331903 0.012754 -0.100032 -0.578251 0.079257 0.371338 -0.220500 0.188988 0.011773 0.004463 -0.091311 -0.535350 0.160937 -0.040014 -0.378581 0.415692 0.061759 0.489221 -0.155767 -0.155334 0.183371 0.815528 -0.224883 -0.701230 -0.552347 -0.081758 0.258204 0.018474 0.426636 0.096328 0.420736 0.193155 0.341241 -0.022051 0.404573 0.129951 -0.217947 0.216615 0.813806 0.197037
495 0.109755 -0.361803 -0.614697 -0.068140 -0.499514 -0.287693 0.695993 -0.055743 0.284963 0.108132 1.036734 0.481836 0.163460 -0.058074 -0.057045 0.083710 0.520956 -0.002200 -0.002741 -0.165270 0.210856 0.057612 -0.355389 -0.579761 0.213093 -0.626332 0.043814 0.469359 0.208513 -0.215374 -0.138984 -0.888026 0.239300 0.130450 -0.209514 0.066448 -0.391978 -0.571285 0.247272 -0.148965 0.193151 -0.032308 -0.312483 -0.259107 -0.277847 -0.292492 0.446736 -0.605168 0.065725 -0.385984 0.049550 -0.431774 -0.190818 -0.105723 -0.026012 0.085209 0.297397 0.408988 0.548318 -0.000102 0.806352 -0.220688 0.076114 -0.401986 -0.638304 -0.160267 0.399931 -0.033053 -0.048188 -0.553894 -0.103149 0.408314 -0.457939 -0.197948 0.467365 -0.071681 0.375466 -0.765785 0.236219 -0.108700 -0.060335 0.064927 0.278340 -0.218660 0.679960 -0.178713 0.067653 -0.289238 0.198415 0.226470 0.151857 -0.323525 -1.279337 -0.532846 0.623158 -0.227907 0.472008 -0.303978 -0.160432 0.449424 0.492426 0.217952 0.073276 -0.125956 0.684171 -0.038259 -0.318850 -0.207047 -0.068136 -0.157212 -0.761325 0.048473 -0.533972 -0.291234 0.653973 -0.165983 -0.059703 -0.087980 0.118681 -0.265914 0.202373 0.040103 0.471370 -0.261109 0.578281 0.322560 -0.099069 0.183919
979 0.159791 -0.330898 -0.526549 0.083979 -0.457159 -0.383198 0.487493 0.098176 0.312113 0.037115 1.008286 0.352159 0.209195 0.034198 -0.049288 0.130638 0.676094 0.079651 0.070406 -0.158206 0.312641 0.106352 -0.342652 -0.629863 -0.054289 -0.741189 -0.024972 0.358276 0.268451 -0.140749 -0.207601 -0.974484 0.144456 0.062843 -0.167853 0.158121 -0.392759 -0.570198 0.190351 -0.280187 0.104131 -0.105262 -0.119609 -0.328645 -0.375969 -0.219197 0.493796 -0.574556 0.042794 -0.249154 0.010702 -0.419548 0.045214 -0.043825 -0.235819 0.155820 0.266345 0.436786 0.512193 0.030428 0.906227 -0.219542 -0.113857 -0.385799 -0.642615 -0.374293 0.441263 -0.132349 -0.074580 -0.594951 -0.226082 0.404853 -0.429927 -0.168686 0.398513 -0.072662 0.254467 -0.892964 0.251550 -0.074449 -0.207402 0.131403 0.405701 -0.131904 0.558374 -0.131011 -0.065739 -0.237101 0.291103 0.140946 0.181469 -0.094654 -1.146050 -0.569238 0.572885 -0.223621 0.492854 -0.400993 -0.112061 0.217061 0.488239 0.294963 0.075496 -0.254394 0.702333 0.005363 -0.446907 -0.155327 -0.130768 -0.247565 -0.658873 -0.034929 -0.342961 -0.332222 0.825317 -0.042559 -0.146704 -0.252204 0.331937 -0.157910 0.194387 -0.144728 0.343614 -0.231005 0.727874 0.335919 -0.031215 0.274116
364 0.157694 -0.173382 0.509582 0.301979 -0.477849 -1.318707 -0.226120 -0.099800 0.421165 0.013236 0.445841 -0.467430 0.234196 0.166319 0.266559 -0.075987 0.171532 -0.982884 0.091081 0.262478 0.384463 -0.271272 -0.686210 -0.180034 -0.096441 0.523421 0.080790 -0.202723 -1.009527 -0.270735 -0.380381 -0.622006 -0.323486 -0.159010 -0.178771 0.272069 -0.493506 0.059443 0.154393 -0.168792 0.019066 -0.138533 -0.035464 -1.001937 -0.268441 -0.274732 0.236876 0.290406 -0.469197 -0.349096 0.039220 -0.154062 0.473117 -0.208236 -0.877490 0.446007 -0.199985 0.250040 0.639188 -0.300094 0.116843 -0.132575 0.408778 -0.088272 -0.065572 0.828670 -0.383360 0.078747 0.230060 -0.611767 0.184393 -0.058505 -0.151690 0.020361 -0.741322 0.282683 -0.094217 -0.187001 -0.573831 0.120160 -0.199150 0.701407 0.055250 0.501105 0.020139 -0.249520 -0.044453 -0.404504 -0.124741 -0.300084 0.289078 -0.102013 -0.066314 -0.029974 0.296559 0.722584 -0.276185 0.170029 0.717114 0.290418 0.353605 0.037309 -0.119673 -0.420226 -0.225225 -0.093805 0.068541 -0.038894 -0.432645 0.354786 0.427849 -0.226314 0.095285 -0.015543 0.228965 0.002443 -0.104445 0.327943 0.434847 -0.188534 0.302197 0.469450 0.343661 0.194177 0.046762 0.192651 0.121369 0.471863
3043 -0.445225 -0.507353 0.463731 -0.245081 -0.625800 -0.575239 0.398841 0.040181 0.589223 -0.233823 0.991193 0.470398 -0.476223 -0.439523 0.228071 -0.528215 0.032602 -0.372109 -0.662385 -0.093122 0.227481 0.552509 -0.102369 0.136755 0.389710 -0.097015 0.777100 -0.911766 -0.222715 0.316075 -0.102609 -0.477570 -0.057207 0.164598 0.705581 0.092615 -0.672465 0.248723 0.039286 0.032914 -0.054594 0.241379 0.044246 -0.266233 -0.686466 -0.137886 0.020600 -0.420531 -0.709466 -0.267807 -0.107083 -0.191623 0.307071 0.053825 0.349527 0.153188 -0.267591 0.417194 0.184281 -0.057708 0.103760 -0.008304 0.119010 -0.965802 0.219574 -0.144786 0.383505 -0.578330 0.131318 -0.061673 -0.096076 0.289083 -0.152819 0.462760 -0.151893 0.025195 0.041423 -0.281519 0.379410 -0.073779 0.091636 -0.033738 -0.251253 -0.331760 0.995673 0.231059 -0.432859 -0.177480 -0.047500 0.247126 0.008004 0.231182 -1.247272 -0.067142 -0.038751 0.604656 -0.031184 -0.094906 -0.000971 0.097844 -0.058609 -0.070611 0.455145 0.003248 0.801560 0.056894 0.431892 -0.162560 0.200769 -0.041170 -0.145952 -0.308639 -0.368437 0.183996 -0.333333 -0.500912 0.061937 1.066373 0.504761 0.049808 0.286050 0.273265 0.538654 -0.156720 0.140294 0.021423 -0.350785 -0.243980
1634 0.091229 -0.971503 -0.081423 0.402632 0.108377 -0.455812 0.315871 -0.590188 0.407179 0.694790 0.567251 -0.231101 -0.087434 -0.369912 0.496506 0.054487 0.190006 -0.649651 -0.204563 0.124175 -0.048909 0.294181 -0.359668 0.101581 0.671742 -0.708210 0.537789 -0.553192 -0.235316 -0.206480 -0.258305 -1.002499 -0.502749 -0.341594 0.002325 -0.397862 -0.389927 0.021394 -0.043666 0.398065 -0.253274 -0.016176 -0.273145 -0.508662 0.242329 -0.089647 0.085941 0.563822 -0.146865 -0.076132 0.026334 -0.145960 -0.086308 0.370905 0.028466 0.139008 -0.719155 0.232661 -0.003140 -0.641931 -0.070311 -0.516643 0.056021 -0.819563 -0.431944 -0.373740 0.209713 0.196163 -0.359379 -0.036221 0.447643 -0.716571 0.041257 -0.245043 0.333863 0.083107 0.161976 0.060038 -0.125398 0.361670 -0.334569 0.217844 0.906020 -0.472153 -0.232459 -0.363131 0.036430 -0.403989 0.279519 0.157953 0.088083 -0.183057 -0.814848 -0.713165 0.628907 0.209907 0.317764 0.058427 -0.297359 0.138118 0.103464 -0.463896 0.414586 -0.355234 0.056485 0.084591 -0.153887 -0.928012 0.097285 0.431072 0.190975 -0.399850 -0.011629 0.057874 -0.095994 0.538599 0.028260 0.080995 0.639327 -0.515492 0.089571 0.940259 -0.328588 0.066553 -0.197886 -0.337264 0.001888 -0.050866
354 -0.226796 -0.872416 -0.032842 -0.304264 0.199086 -0.224666 -0.149798 -0.554093 -0.020418 -0.203031 0.063709 -0.049903 -0.226400 0.186546 -0.159035 -0.202610 -0.344477 0.058625 0.597542 0.253135 -0.116480 -0.329170 0.239352 -0.308917 0.972391 -0.327827 0.302065 0.463303 0.241661 -0.156560 0.323356 -0.004271 -0.376629 -0.456530 -0.564934 -0.044391 -0.832732 -0.519069 0.321475 -0.392907 -0.392276 0.007864 -0.110487 -0.081674 -0.432365 -0.206312 -0.047095 0.354648 -0.209844 -0.107727 -0.287129 0.060325 0.064173 -0.058590 -0.775787 0.549586 0.022058 -0.101580 -0.051330 -0.325800 0.437746 0.094718 -0.684525 -0.131756 0.092652 -0.519010 -0.243027 -0.226609 -0.430653 -0.217194 0.435404 0.013702 -0.350278 0.283494 -0.139736 0.156077 0.220236 -0.358101 -0.492115 -0.044504 0.159637 0.596490 0.329293 0.797454 -0.501338 -0.753866 0.673719 0.294407 -0.617661 0.180595 -0.498958 -0.515196 -1.195421 -0.452292 -0.148174 -0.122212 -0.244044 0.328448 0.043730 0.158688 0.561306 -0.484817 0.040276 -0.559940 0.128688 -0.008105 -0.113202 -0.347904 0.042031 -0.498738 -0.215194 -0.376738 -0.546294 0.836676 0.406754 0.542620 -0.532556 -0.425607 0.088521 -0.617688 0.151886 0.419280 -0.125952 0.271572 -0.020115 0.092652 -0.006153 0.450586
506 0.066816 0.055019 0.807923 -0.116827 0.087977 -0.459255 0.247647 0.415647 0.378198 -0.162481 0.523452 0.009608 0.439890 -0.295447 0.557124 -0.195194 -0.288032 -0.003024 -0.850212 0.101305 -0.152168 0.369060 -0.005867 -0.249840 -0.559678 -0.241391 0.230359 -0.340917 -0.180062 -0.526651 0.078484 0.030934 0.127354 -0.356686 -0.564953 -0.131955 0.345362 -0.283143 -0.240059 -0.013413 0.174561 -0.429528 -0.194315 -0.172359 0.081226 0.010211 -0.061454 -0.128651 0.459682 0.027033 -0.195750 -0.537290 -0.063402 -0.294470 -0.524065 -0.377733 -0.203834 0.183158 0.600434 -0.057348 0.663185 0.121959 0.403403 0.134370 0.058145 -0.412063 0.311069 -0.315204 -0.076309 -0.011406 -0.182550 -0.244327 -0.348667 0.037642 -0.050334 0.500401 -0.268640 -0.149727 -0.449014 -0.188275 0.131004 0.513471 0.435387 -0.080066 -0.060551 -0.610204 -0.243457 0.470249 -0.347822 -0.202539 -0.482696 -0.024178 -0.301097 -0.046192 0.451367 0.378133 0.236934 -0.276099 -0.257002 -0.459828 -0.108321 -0.530887 -0.144150 0.532974 -0.520054 0.164861 -0.053462 -0.267208 0.035452 0.029006 -0.467533 0.023764 0.176676 0.282932 0.167318 -0.005681 -0.154369 -0.292847 0.565355 -0.338522 0.300348 0.206294 0.236957 0.415546 -0.041651 -0.119794 -0.205682 0.204173
57 0.727332 -0.386146 -0.247136 0.064274 0.313676 0.394869 -0.953938 -0.278118 0.138277 0.732835 -0.080962 -0.188275 0.119893 -0.035017 0.389907 0.163786 0.092427 0.132640 -0.456781 0.086393 -0.308249 0.340197 -0.301614 -0.520531 0.138790 -0.399720 -0.148959 -0.575836 0.272160 -0.610742 -0.233804 -0.448454 0.253610 0.136130 -0.106336 -0.546821 0.263568 -0.734776 -0.267875 0.135917 -0.114811 0.087814 0.174405 0.096115 -0.387930 0.411070 0.154344 -0.326552 -0.046704 0.851901 0.363458 0.129002 0.137282 -0.186417 -0.510815 0.450837 0.407680 0.133664 0.022874 -0.209025 -0.162292 0.056877 -0.090305 -0.653072 -0.311292 -0.406938 -0.520925 0.239338 0.265836 0.505354 -0.527463 0.252453 0.252635 -0.746522 0.531011 0.141830 0.405224 0.321914 -0.339595 0.003123 -0.326602 0.515406 0.445934 0.717282 -0.320292 -0.355110 0.237440 0.270912 0.044379 0.261444 -0.224319 -0.081934 -0.719290 -0.571069 0.304149 0.655384 -0.096697 0.149193 -1.305859 -0.506447 0.198233 -0.847071 -0.506916 0.158013 0.228515 -0.476503 -0.214391 0.352432 -0.085011 0.644734 0.363853 -0.373601 0.185255 -0.096120 0.767562 -0.540979 0.068535 -0.386370 0.019667 0.232334 -0.031267 0.007285 -0.863391 0.286280 -0.330668 1.034901 0.504986 0.561461
2832 0.268659 -0.332342 -0.419385 -0.114687 0.230083 -0.486653 0.055476 0.155180 0.003086 0.529048 0.229604 0.139568 -0.201291 0.060666 -0.367227 -0.251388 -0.032314 -0.130870 -0.171195 0.498738 0.458084 0.366538 -0.596445 0.419747 0.756645 -0.007965 0.165974 0.217407 -0.112210 0.013650 0.008186 -0.190386 0.382802 0.014988 -1.348022 -0.052126 0.135138 -0.512018 0.224526 0.454611 -0.096436 0.181378 0.327513 -0.696599 -0.337014 0.371190 -0.245670 -0.399035 -0.426151 -0.417983 -0.723857 -0.048215 -0.238206 0.120746 -0.070940 -0.291418 0.853320 -0.195703 0.605227 0.248307 0.405743 0.364358 0.634484 0.139725 -0.053872 -0.322282 -0.614951 -0.394085 0.972416 0.602526 -0.143865 0.076539 -0.327443 0.286396 0.401327 -0.356650 -0.323447 0.206686 -0.401486 0.180037 -0.164397 0.379274 -0.456598 1.156983 -0.672635 -0.385421 0.017406 0.495882 0.079618 0.331072 -1.071018 0.435450 -0.181075 -0.157080 -0.297945 0.306549 -0.431929 -0.125415 0.268366 -0.097060 -0.023999 0.273828 -0.425486 -0.160821 0.244555 -0.132131 0.361531 0.023802 0.255744 0.336242 -0.715269 -0.554720 0.469246 0.263392 0.340793 0.134662 0.546556 -0.245609 0.132442 -0.598780 -0.264268 0.300411 -0.413276 -0.094981 0.145362 -0.059627 0.242267 -0.029590
855 -0.280269 0.032404 0.145746 0.112074 0.154937 -0.680819 0.575951 -0.118179 0.181048 0.118198 0.908000 0.038773 0.248919 0.135640 -0.663280 -0.792664 -0.130836 -0.487931 -0.089465 0.356922 0.279890 0.515208 -0.175578 -0.042422 0.109421 -0.167765 0.126560 0.041648 -0.199351 -0.271056 -0.048580 0.010963 0.913171 -0.284124 -0.226959 -0.146621 0.167432 -0.313550 0.030365 0.469516 0.012997 -0.173095 0.313923 0.285217 -0.212068 0.005865 0.967976 -0.330430 -0.271127 -0.343672 -0.600587 0.287907 0.376588 0.066567 -0.496015 -0.227031 -0.072247 0.503437 -0.231637 -0.287456 0.564205 -0.133324 0.392461 -0.241669 -0.900088 0.086484 0.225841 -0.760504 0.595033 -0.111909 -0.003698 -0.445115 -0.975668 -0.061267 0.306830 0.089581 -0.589558 0.273212 -0.450608 0.681543 0.079475 -0.216944 -0.579068 0.732808 0.205297 -0.056766 -0.043390 0.345244 -0.247349 -0.020660 -0.035282 0.092915 -0.392323 -0.322416 0.337867 -0.034756 0.024904 -0.438209 0.055523 -0.148825 -0.052615 0.276872 -0.107707 0.007034 0.262364 0.536552 0.225054 0.287882 0.273489 -0.274587 -0.088318 -0.685089 -0.277809 -0.178693 -0.440211 0.211541 0.006409 0.148456 0.465919 -0.304728 -0.336935 0.420004 0.351645 -0.537412 0.298686 0.199945 0.488765 -0.062391
1524 0.207967 0.062797 -0.102352 -0.355452 -0.003169 -0.062855 -0.462921 -0.126401 -0.211208 0.024056 0.328586 -0.131083 0.287163 -0.022379 0.172233 -0.488066 -0.196153 -0.165432 -0.025984 -0.294166 0.706607 0.387801 -0.341980 0.002766 0.872985 0.040753 -0.105679 -0.059678 -0.632879 0.343497 0.085718 -0.026133 0.633489 -0.131691 -0.906108 0.019403 0.478031 -0.221381 0.010721 0.165380 -0.134511 -0.113949 0.180874 -0.533268 -0.321106 -0.398334 0.202816 -0.228241 -0.531006 0.531050 -0.303704 -0.518064 0.203159 0.056510 -0.199048 0.210971 0.489116 -0.259557 0.832851 -0.997358 0.730173 -0.273598 0.126208 -0.104227 -0.404180 -0.909787 0.098569 -0.502093 0.756608 0.064713 -0.032773 0.430289 -0.476596 0.189973 0.536317 -0.194113 -0.125283 -0.462894 -0.030208 -0.256602 -0.393728 0.056664 -0.127296 0.754084 -0.386337 -0.363114 0.107426 -0.201653 -0.241517 0.050548 -0.153270 0.314116 -0.499536 -0.240860 -0.076592 0.028773 0.069142 0.124588 0.041890 0.103767 -0.161764 0.357255 -0.569098 0.519248 0.270369 0.463573 -0.122354 0.177625 0.017469 -0.101720 -1.299875 -0.002130 -0.461053 0.026689 -0.081318 0.164862 0.222613 -0.041578 0.442471 -0.988916 -0.276339 0.029218 0.082242 -0.408728 -0.095645 0.389167 -0.078402 0.370685
2996 -0.118746 -0.564384 0.000477 -0.066601 -0.476314 -0.505254 0.268662 0.324313 -0.040542 -0.169679 -0.182248 0.112093 0.285586 -0.029358 -0.657098 0.170592 -0.526906 0.425877 -0.195251 -0.154168 0.104258 0.255641 -0.721394 0.368719 -0.025354 -0.742547 0.350710 0.117743 0.420485 0.076548 -0.030191 -0.015178 1.270682 -0.690867 0.252078 -0.296824 0.402714 -0.309257 -0.489004 0.204327 0.285790 -0.367308 0.416661 -0.082412 -0.559671 -0.593031 0.198912 0.489509 -0.089777 -0.052036 -0.131502 -0.217829 -0.215949 -0.276232 -0.290500 0.652142 0.017722 -0.067730 0.439822 -0.512024 0.078327 0.228667 0.300221 0.134468 -0.465541 -0.039085 -0.897896 -0.223258 -0.150700 0.037521 -0.047787 -0.297067 -0.251060 0.043484 0.222430 0.375672 0.305018 0.383405 -0.287921 -0.001483 -0.160518 -0.229009 -0.673695 0.026200 0.122259 -0.231856 -0.046180 -0.151702 -0.446039 0.150810 0.284031 -0.060429 -0.191282 -0.326271 0.463512 -0.728421 -0.096311 -0.076272 -0.146826 0.166337 0.688374 -0.317062 -0.063356 0.348479 -0.481312 -0.331438 0.158326 0.193813 -0.172394 -0.172040 -0.400982 -1.153333 -0.204364 0.375061 -0.000397 0.986120 0.040737 -0.558899 -0.065200 -0.323829 0.211856 0.513972 -0.796794 0.545000 0.091262 0.041987 0.142806 0.102699
1921 0.124702 0.085991 0.581524 -0.136429 -0.226360 -0.107733 -0.674928 -0.651209 -0.472894 0.987931 -0.083003 -0.116432 0.316349 0.331222 0.164500 0.605438 -0.126018 -0.536692 -0.002557 0.301534 -0.014462 0.436990 -0.694885 -0.150260 0.251780 -0.214052 -0.175646 0.538075 -0.320550 0.010023 0.062986 -0.129891 0.355722 -0.667753 0.200974 -0.588065 0.420649 -0.352904 -0.340070 0.085816 0.804965 -0.127692 0.000480 -0.315264 -0.226369 -0.592836 0.009809 0.657152 -0.506744 0.003541 -0.243107 -0.900183 0.074253 0.096768 -0.224947 0.941203 -0.418864 0.166849 0.399106 -0.757716 -0.059908 0.358808 0.701574 -0.207214 -0.520508 -0.218696 -0.265276 -0.226536 -0.154389 0.186902 0.708569 -0.011194 0.517383 -0.051533 0.303762 0.303643 -0.157003 -0.036481 0.277128 -0.290415 -0.324515 0.479394 -0.026967 0.175824 0.107862 -0.322629 0.219408 0.149501 0.536532 -0.193922 -0.089711 0.238565 -0.156038 -0.786066 0.820545 -0.245526 0.593636 0.458614 -0.112017 -0.213982 0.131091 0.191202 -0.037437 0.745540 0.341722 0.063065 0.319495 -0.142433 0.135182 -0.037967 -0.158083 0.273423 0.406793 -0.373865 0.198876 0.121862 0.183814 -0.042875 0.491703 -0.182321 0.739194 0.338460 -0.252202 0.652647 -0.300047 0.030830 0.257655 0.640670
686 -0.550168 -0.722034 0.302584 -0.107567 -0.068086 -0.321414 0.191624 0.148089 0.159951 -0.250740 -0.057488 -0.228894 -0.028024 0.361171 -0.050119 0.126763 0.082577 -0.460232 -0.160494 -0.217059 -0.030198 -0.079688 0.072221 -0.032632 -0.239861 0.234071 -0.243226 -0.224563 -0.034373 -0.141583 -0.073641 -0.463776 -0.128866 0.132921 -0.133240 0.011458 -0.134892 -0.458430 -0.108495 0.303262 -0.159743 -0.162824 0.298658 0.419174 -0.251002 0.126717 -0.150496 0.425080 -0.447671 0.289866 -0.150286 -0.124480 0.258319 0.003586 -0.436233 -0.075909 0.282837 0.346177 0.241652 -0.154644 0.361348 0.176046 0.668144 -0.511561 -0.272618 -0.354799 -0.578336 0.267503 -0.596669 -0.010908 -0.020923 0.292224 -0.711661 0.130915 0.069831 -0.029252 0.237360 0.285803 -0.471898 0.214453 0.230671 0.230353 0.191143 -0.128536 0.782461 0.438854 0.345632 -0.149655 -0.018443 -0.179198 0.011433 0.272513 -0.348740 -0.500794 0.374087 -0.046104 -0.440720 -0.363720 0.105881 -0.115353 -0.110758 0.091794 -0.222036 0.623178 0.334613 -0.169250 0.743475 0.259063 -0.212647 0.099487 0.233312 -0.392714 -0.245394 0.143343 -0.574564 -0.043857 0.027928 0.167998 0.401545 0.387151 0.811797 0.209073 -0.492081 0.682818 -0.612115 -0.673943 0.136735 0.219072
429 0.377147 -0.801247 -0.358258 0.121073 0.403700 -0.307757 0.364086 0.298986 -0.121490 0.274073 0.245521 0.321161 0.026756 0.042570 -0.136804 0.788871 -0.410670 -0.293028 -0.096267 0.256106 -0.015657 -0.105494 -0.494780 0.389570 -0.105059 -0.167911 -0.208530 0.188224 0.565129 -0.476122 0.140882 -0.609357 0.475890 0.321698 -0.090986 -0.422394 -0.199745 -0.385960 -0.083821 -0.010681 -0.223173 0.434963 -0.006047 0.469051 -0.371852 0.597172 -0.596080 -0.117621 0.026016 0.381025 -0.398201 -0.625579 -0.288945 0.236494 -0.166602 0.427518 -0.361863 -0.419782 0.057557 -0.056375 0.812170 0.046975 0.146353 -0.443326 0.321662 -0.230741 -0.231452 -0.169110 -0.766991 -0.374376 -0.171701 -0.534132 -0.822950 0.244571 0.248591 -0.378630 -0.107063 -0.141605 -0.456550 -0.202280 -0.028558 0.517136 0.574100 -0.450920 0.075314 0.326695 0.084319 0.968199 -0.326191 0.635446 -0.350355 -0.529391 -1.312770 -0.266515 0.854565 -0.045038 -0.234383 -0.166489 -0.418428 -0.352807 0.496177 -0.139356 -0.594963 0.323573 -0.621151 0.149967 -0.032156 -0.265688 0.488695 -0.276336 0.152854 -0.297173 0.303702 -0.064593 -0.248160 0.653775 -0.441773 -0.098713 0.020260 -0.210624 -0.244426 0.148438 -0.828552 0.284926 -0.046153 0.048637 0.832596 0.774708
828 0.136143 -0.294347 -0.019974 -0.279659 0.182206 -0.287413 0.056379 -0.344763 -0.273673 0.293865 0.964589 -0.254746 -0.110801 0.074109 0.045461 0.519695 -0.269247 0.130153 0.099912 0.558205 -0.030959 0.052472 -0.133760 -0.470360 -0.814617 0.258375 0.244918 -0.266490 0.400803 -0.585919 -0.323942 0.081672 0.442506 -0.439757 0.214877 0.523840 -0.065781 -0.188887 0.297340 -0.490651 0.194143 -0.079620 0.114567 -0.247576 -0.064197 -0.161250 0.289082 -0.101327 -0.020214 -0.083663 -0.604964 0.048138 -0.129192 0.188209 -0.132102 0.362870 -0.035018 0.369356 -0.058010 0.322992 0.937436 -0.020141 0.515022 -0.389982 -0.438362 -0.580299 -0.142853 -0.522973 -0.373410 -0.222751 0.089026 0.157216 -0.444981 0.295186 -0.083996 -0.159541 -0.274963 0.077249 -0.180383 0.121164 -0.253653 -0.175464 0.419262 0.248216 -0.281131 0.377095 -0.115309 0.340840 -0.434671 0.376909 -0.149834 0.007077 -0.431256 -0.277133 0.330959 0.342014 -0.478785 -0.214525 0.038713 0.437031 0.359336 -0.816794 0.034164 0.578917 0.055620 0.647803 0.197068 -0.076618 0.135648 0.193883 -0.073977 -0.558701 0.038846 0.356800 -0.277953 0.474995 0.005720 -0.519965 0.694566 -0.275847 0.660190 -0.516968 -0.540784 0.295516 0.603225 0.091704 -0.107134 0.394704
263 -0.448232 -0.811246 0.602547 -0.192569 -0.269783 -0.033140 -0.210203 -0.390152 0.108596 -0.278957 -0.131127 -0.111813 0.150216 -0.007458 0.142853 -0.119026 -0.090289 -0.537604 0.211977 -0.286374 0.114295 0.312963 -0.124525 0.077932 -0.342243 0.134222 0.156958 -0.335976 0.114942 -0.387722 0.065526 -0.404081 0.287881 0.074271 -0.126738 0.125883 0.164027 -0.316091 -0.064247 -0.275545 -0.237843 -0.202355 -0.215765 0.153973 -0.236606 0.048897 -0.056798 0.197824 -0.203380 -0.009154 -0.564544 -0.103980 0.242233 0.010919 -0.663254 0.152131 0.064070 0.504990 -0.211550 -0.206349 -0.073860 0.235094 0.658906 -0.178561 -0.479665 -0.410522 0.109616 0.273457 -0.365272 0.286887 -0.486536 -0.002227 -0.653029 -0.009298 -0.079441 -0.462662 0.083262 0.397184 -0.387561 0.120628 0.328331 0.202058 0.280423 0.447830 0.694962 0.262885 -0.275025 -0.178524 0.102943 -0.581281 -0.067599 0.096524 -0.620480 -0.000869 -0.198254 0.461135 -0.190684 -0.304170 -0.422944 -0.011752 -0.078323 -0.264278 -0.269524 0.879260 0.350981 -0.513005 0.515434 0.143754 0.072652 0.167399 0.170697 -0.769787 0.059799 -0.204348 -0.255937 0.020208 -0.043186 0.349784 0.517962 0.489546 0.985072 -0.549118 -0.182971 0.576925 -0.475129 -1.006387 0.104007 0.365065
295 -0.097537 -0.397731 -0.038395 -0.131552 0.227479 -0.095010 -0.150134 -0.337983 0.803820 0.325423 0.860978 0.123193 -0.210844 0.211249 -0.366735 -0.571890 0.254541 -0.643219 -0.273646 0.398058 -0.045269 0.572225 0.381963 0.010933 0.211413 -0.334969 -0.369444 -0.086326 -0.458653 -0.096610 0.419270 0.169246 0.618698 -0.934123 0.322837 -0.189536 0.006643 -0.688169 0.241844 0.380817 0.265312 -0.543483 -0.218443 -0.835326 -1.127357 0.779793 0.081387 0.271446 -0.488490 0.351818 0.264196 -0.111533 0.348959 -0.058318 -0.684954 -0.007382 0.135693 0.229279 0.132347 0.145823 -0.228469 0.128546 0.382458 -0.423882 -0.149521 -0.310495 0.073529 -0.396206 0.077801 0.276986 -0.317567 0.701592 -0.696000 -0.598059 -0.267014 -0.215529 -0.089239 -0.015930 -0.350775 -0.032005 -0.231342 0.006040 0.008376 0.268395 -0.208096 0.103179 0.018209 0.470852 0.223552 0.093642 -0.577157 -0.155569 -0.277476 -0.014252 -0.226210 -0.196449 -0.106712 -0.188125 -0.359522 0.002373 0.245015 -0.651305 -0.224049 -0.149590 0.180384 -0.221067 -0.038759 0.329680 0.310318 -0.018073 0.906113 -0.532424 0.046842 -0.624970 -0.210497 -0.321223 -0.671992 0.292839 -0.147718 0.313168 -0.221560 -0.591176 -0.072651 -0.084729 -0.182302 -0.253146 -0.270341 0.100597
422 -0.317831 0.092782 0.245510 -0.531523 -0.530356 0.039403 -0.420202 0.349905 0.375919 -0.109766 0.651965 0.143760 -0.301220 0.068941 0.313516 0.219671 -0.198965 -0.285697 -0.614072 0.122189 -0.045749 -0.010511 -0.145804 -0.028289 0.231342 -0.070338 0.513134 -0.234665 0.706083 -0.213594 0.022595 -0.121384 -0.027078 -0.053560 0.140619 0.064553 -0.140267 -0.269927 0.053984 0.541041 -0.424495 0.125035 0.006177 -0.428172 -0.521310 -0.248668 0.001478 0.242203 -0.105179 -0.100340 -0.155494 -0.154408 0.159293 0.010356 -0.013053 0.049652 -0.789365 0.114967 -0.078676 0.081341 -0.239823 0.000658 0.130788 -0.696418 -0.006330 0.349145 -0.000580 -0.262757 -0.072949 0.712139 0.502029 -0.305560 -0.802896 -0.623199 0.139667 0.622227 0.296350 0.372165 -0.488471 0.160147 0.044379 0.156467 0.266396 -0.271179 -0.412898 -0.273990 -0.332906 0.658350 -0.299034 0.717674 0.148915 -0.083576 -0.680837 -0.362396 0.162426 -0.184339 -0.675361 -0.155879 0.265015 -0.496759 -0.079591 -0.133206 0.089138 0.519048 0.154517 -0.057879 0.059226 0.470941 0.026837 0.675013 -0.043475 -0.664198 -0.305464 0.488703 0.337094 0.399480 0.454287 -0.043039 0.309703 0.387685 -0.235889 -0.115314 -0.352553 0.389070 -0.004748 0.164921 0.428301 0.303126
1759 0.398592 -0.703611 -0.616366 0.253571 0.289476 0.342157 -0.173107 -0.593734 0.085976 0.287616 1.290439 1.092122 -0.153746 0.524362 -0.122222 -0.196211 0.234848 -0.710585 -0.790440 1.042826 0.029280 0.177895 -0.290264 0.515816 0.322514 0.154472 0.093802 -0.397286 -0.079247 0.372251 -0.307250 -0.420468 0.710392 -0.158485 0.142567 0.061416 0.197243 -0.175910 0.415178 0.658882 0.435136 -0.054309 -0.241350 0.024935 -0.656694 0.651022 -0.175561 -0.035380 -0.371322 0.264163 0.405121 0.261559 -0.348978 0.080881 -0.598351 0.222671 -0.274928 0.304063 -0.124048 0.215338 0.539202 0.423796 0.722755 -0.315981 -0.506833 -0.052841 0.064965 0.055087 -0.022466 0.607374 -0.043795 -0.548604 -0.091939 -0.662126 0.363043 -0.499013 0.339138 0.278212 0.271413 0.415074 -0.059349 -0.226582 0.051644 0.282093 -0.062780 -0.108063 -0.024375 -0.415176 -0.371030 0.174050 0.258114 0.130241 0.096772 -0.152406 0.359065 0.802188 -0.530710 0.354680 -0.309577 -0.302617 0.328378 -0.467151 0.271145 0.298141 0.246035 -0.273189 0.490644 -0.037598 0.206771 0.007715 0.478028 -0.547184 -0.764551 0.433164 0.893647 0.315191 0.084503 0.695431 0.456114 0.054204 -0.255092 -0.055230 -0.704109 1.063938 0.029370 0.545368 -0.369706 0.052012
862 0.176048 0.338037 0.345427 0.342389 -0.225439 0.232102 -0.296787 0.067115 0.742028 0.180572 1.180666 0.165195 0.034094 -0.095510 -0.212101 -0.006643 0.582368 0.075191 -0.247221 -0.105880 -0.073255 -0.087062 -0.600439 -0.045927 -0.252486 0.097430 0.312109 0.276788 -0.328005 0.268590 -0.196640 0.035590 -0.016896 -0.658409 -0.085103 -0.022801 0.240820 -0.019148 -0.432158 0.181881 -0.041011 -0.177076 -0.146066 0.370244 -0.600234 -0.501985 0.367452 -0.207277 -0.556725 0.466093 0.323786 -0.211392 0.215481 -0.498631 -1.078417 0.220683 -0.328440 0.126749 0.662732 -0.098165 -0.165432 0.093281 0.103400 0.184855 0.009606 0.149237 -0.327040 0.030360 0.315985 -0.106663 -0.690782 -0.094113 -0.562240 -0.002273 0.201688 0.026457 -0.097873 0.455374 -0.392435 -0.189422 0.003214 0.222345 -0.573091 0.637097 1.076811 0.420104 -0.100311 -0.279702 0.497065 0.078479 -0.795378 -0.197732 -0.358432 -0.000611 0.208581 -0.221417 -0.138629 -0.371219 -0.167907 0.390799 0.925673 -0.010953 0.216823 0.049295 0.695947 -0.244130 0.490910 -0.337175 0.171596 0.226044 0.189964 -0.883987 0.424128 0.124867 0.457039 -0.263598 -0.336649 0.079308 0.535579 0.333234 0.178478 0.458324 -0.134825 0.365129 -0.286245 -0.351176 0.110851 -0.429854
616 0.216922 0.278613 0.505856 -0.351975 -0.322079 -0.225930 -0.245987 0.312966 0.020528 0.057321 0.416091 0.094305 0.304588 -0.244431 0.489320 -0.652189 0.128618 0.054142 -0.352946 0.094251 0.724147 0.585339 -0.391276 0.616123 0.188653 0.151733 0.151309 -0.046863 0.853232 -0.060924 -0.184628 -0.115511 0.303343 0.054627 -0.559437 -0.232150 0.712222 -0.169877 -0.110518 -0.531717 0.248679 -0.244763 0.521761 -1.049225 -0.364574 -0.002157 0.258358 -0.356730 -0.025437 -0.186926 -0.493182 -0.344412 -0.462364 0.217297 -0.880158 0.528381 0.019020 0.156020 0.450937 -0.487220 -0.018414 0.790094 0.315247 0.231487 -1.150823 -0.186345 -0.322664 -0.396900 -0.023186 0.326184 0.119428 0.360989 -0.349986 0.494149 -0.535595 0.359915 -0.709653 0.018902 -0.422875 -0.326075 -0.713700 0.308262 -0.875829 0.786496 -0.430227 -0.423860 -0.348840 0.069758 0.363268 0.181559 -0.554629 -0.054169 -0.303610 -0.010019 0.286991 0.250382 -0.025933 0.145751 0.448844 -0.223728 0.441739 -0.014720 -0.195781 0.411843 0.528813 -0.011966 0.277614 0.531835 0.019068 0.641734 0.231759 -0.650391 0.461615 -0.254526 0.555084 -0.241901 0.078921 0.065365 0.012147 0.057786 0.266287 -0.016567 -0.351654 -0.185111 0.351328 -0.549765 -0.240542 0.347373
810 0.026492 0.368488 -0.608361 0.144211 0.318864 0.328805 0.090222 -0.171343 0.778406 -0.239812 0.336469 0.029770 0.226213 -0.071186 -0.326009 0.145984 -0.109225 -0.847449 -0.322455 0.289341 -0.066864 -0.655134 -0.156810 0.722694 -0.570404 -0.429528 -0.191644 -0.096484 -0.181173 -0.550992 0.141615 -0.711732 0.237237 -0.326127 -0.304791 -0.050809 -0.006582 -0.143699 0.170501 0.311528 -0.219290 -0.191425 -0.412965 0.048116 -0.154122 -0.572151 -0.120660 0.089950 -0.220721 -0.328755 -0.579672 0.299357 -0.203359 0.141380 -0.601444 0.130965 -0.546574 -0.301211 -0.033499 0.002549 0.682625 -0.039723 0.047061 -0.075740 -1.280957 -0.161907 0.191815 -0.227174 0.043925 -0.267739 0.146682 0.546892 -0.460753 -0.179364 0.230552 -0.233358 -0.168571 0.186073 -0.259094 0.444948 -0.074020 0.093125 0.313829 0.305211 -0.417074 -0.116581 -0.034289 -0.055306 -0.265285 -0.124423 0.659108 -1.023052 -0.445646 0.278072 -0.143438 -0.173576 -0.012786 -0.188623 -0.422140 -0.712445 0.178149 -0.035476 -0.338541 0.049655 0.025723 -0.239687 -0.616757 0.142878 0.218007 0.430290 -0.350516 -0.334365 -0.216500 0.105197 0.485439 0.952184 -0.376812 0.216116 0.617533 -0.381096 0.033356 0.261827 -0.201459 0.013784 0.147443 -0.292276 0.375391 0.256883
1599 0.209379 -0.709462 -0.226347 0.436720 -0.570169 0.056767 -0.197881 -0.355532 0.020219 -0.044631 0.568090 0.216402 -0.233211 0.641404 -0.331844 -0.753561 0.416535 -0.421205 -0.043495 0.825125 0.077080 0.025505 -0.518808 0.445843 -0.244542 0.049300 0.116741 -0.066160 -0.315926 0.288648 0.196153 -0.242344 0.456762 -0.745215 0.326940 -0.296338 -0.141133 -0.469622 0.148654 -0.197833 1.140281 -0.222212 0.236008 0.245154 -0.503988 -0.259609 -0.739866 -0.036239 -0.353657 -0.123958 0.593840 -0.339334 0.188336 -0.344770 -0.039730 0.332749 -0.788047 -0.054296 -0.460305 0.150930 0.191923 -0.021641 0.399145 -0.224074 -0.940023 -0.182419 -0.561703 -0.651085 0.216126 0.390802 -0.490656 0.506626 -0.307843 -0.455647 -0.216310 0.452545 -0.231085 0.026830 -0.805048 0.124228 -0.039220 -0.079922 -0.478103 0.031738 0.407200 0.155449 0.053037 0.371237 -0.459129 0.182575 -0.346761 0.347211 -0.450417 -0.138280 0.461962 0.291514 -0.181545 0.074669 -0.660391 -0.907685 0.435273 0.229850 -0.061950 0.283931 -0.360915 -0.449042 0.427919 0.251036 0.235361 -0.032663 0.498544 -0.591703 -0.378823 0.112723 -0.089014 -0.053950 -0.994707 0.409644 -0.314550 -0.131748 0.090298 0.278865 0.071425 0.491629 -0.742440 -0.342142 0.202641 -0.201753
1727 0.103788 0.346275 0.738851 -0.236577 0.471735 -0.119740 -0.136736 0.706072 0.108752 -0.104184 1.066504 0.263902 0.022403 0.435769 0.378453 0.165801 0.490933 -0.868380 -0.493173 -0.132151 -0.047657 0.149613 -0.091842 0.317894 0.557069 0.235274 0.144384 0.005972 0.195264 -0.601252 -0.232628 -0.201841 0.348752 -0.617250 -0.506537 -0.216838 -0.023381 -0.687891 0.096916 -0.021879 -0.405030 -0.340348 0.051344 -0.474546 -0.285135 -0.541140 0.175715 -0.116000 -0.570956 0.178549 -0.077395 -1.042359 -0.044849 0.381146 -0.845429 -0.605413 -0.143206 0.132526 0.079235 0.180610 -0.618243 -0.316036 0.453388 0.543344 -0.592303 -0.121343 -0.502996 -0.483381 -0.188423 0.490631 -0.116348 0.254623 0.087658 0.103412 -0.414608 0.006096 -0.161476 -0.490248 -0.351469 0.227229 -0.052384 -0.100773 -0.270532 0.193391 -0.036385 -0.108803 -0.370854 0.387320 -0.330174 0.217939 -0.018210 -0.485434 0.285957 0.457149 -0.030791 -0.003417 -0.052366 0.579506 -0.109275 -0.015912 0.093401 0.047288 -0.324519 0.496582 0.049040 -0.460843 0.330054 0.315341 -0.223129 0.161104 -0.019523 -0.150514 0.161721 0.540229 -0.354933 0.147623 -0.729191 0.016226 -0.502453 -0.024702 0.528312 0.139020 0.346692 0.214687 -0.607825 -0.099279 0.320819 0.142435
1079 0.014309 -0.533270 0.348363 -0.429800 -0.089778 -0.736162 -0.114902 0.122033 -0.020852 0.205622 1.035270 0.426802 0.548427 -0.096269 -0.069097 -0.083757 -0.144803 -0.220134 -0.251186 -0.012010 0.489963 -0.336897 0.653809 0.201135 0.282599 0.674187 0.034938 -0.144944 0.317115 -0.210362 -0.409842 -0.377615 0.351736 -0.242011 -0.298082 -0.513870 -0.022369 -0.615887 0.553497 -0.270724 -0.300128 -0.543975 0.125378 -0.277199 0.205396 0.116798 0.714594 0.077136 -0.128367 0.763970 -0.225618 -0.394896 0.403451 0.249051 0.121833 0.157459 0.357226 0.760097 1.206968 -0.357638 -0.117831 0.357056 0.013865 -0.157203 -0.149877 -0.155796 -0.403347 -0.032383 -0.017299 0.365102 -0.122265 0.290905 0.028827 -0.461365 0.074539 -0.119879 -0.131067 0.334338 -0.633947 0.357959 -0.498728 0.031499 -0.238321 0.734310 -0.394781 -0.179601 -0.051188 0.517558 0.216542 0.037233 -0.192805 -0.165103 0.375091 0.426184 0.069112 0.279949 -0.312113 0.269134 -0.021098 0.213298 0.137391 -0.217134 -0.058691 0.471045 0.390488 0.367451 0.537197 0.823254 -1.017443 0.308214 0.552961 -0.512421 -0.349209 -0.595876 -0.044806 -0.252266 0.333564 0.132120 0.016868 -0.185746 0.257686 0.490842 0.564848 -0.161298 0.057673 0.378849 0.492023 0.428692
952 -0.290067 -0.850275 0.679846 -0.199992 0.349093 -0.335207 -0.106361 0.678380 0.560431 -0.085568 0.125963 -0.384565 0.107514 -0.067048 0.301453 0.156930 0.253288 -0.676300 0.175022 -0.665437 0.071207 0.511172 0.128811 -0.343772 -0.009689 0.071437 -0.217404 -0.529541 -0.028714 -0.202696 -0.204504 -0.343573 0.204329 0.213689 -0.370607 -0.396866 0.060555 -0.898027 0.243929 -0.560325 -0.125581 -0.437219 0.533400 0.097074 0.005978 0.213551 0.193332 0.198152 -0.087090 -0.014079 -0.168046 0.427209 0.181148 0.527035 -0.410630 0.095603 0.731331 0.478717 0.609510 -0.263353 -0.224649 0.042376 0.599498 -0.719840 -0.486682 -0.138086 -0.153195 0.149426 -0.454995 0.107792 0.374772 -0.298028 -0.171904 0.229472 0.171765 0.232202 0.053260 0.740536 -0.307876 0.573578 0.372342 0.256317 0.138635 0.941947 0.516635 0.332356 -0.194777 -0.086213 0.267871 -0.431522 -0.258412 -0.092524 -0.472290 -0.166176 -0.002695 0.311486 -0.102784 -0.317831 -0.458013 0.042331 -0.145013 0.207282 -0.803795 0.258991 0.042737 -0.488583 0.166865 0.098724 0.293885 -0.375456 0.986090 -0.061180 0.341458 -0.512253 0.026636 -0.099500 -0.771156 0.196653 -0.362117 0.120934 0.573772 -0.672795 -0.039700 0.459095 -0.744406 -0.261705 0.399582 1.049695
51 0.488090 -0.318549 -0.066615 -0.434902 -0.124235 -0.098596 0.186473 0.155286 0.117951 0.545727 -0.031946 0.128250 -0.472944 0.066122 0.314741 -0.289991 0.231426 0.192287 0.026000 0.196295 0.294058 0.158929 0.057874 0.159316 -0.014331 -0.430939 0.110238 0.227482 -0.075636 -0.091809 -0.091744 -0.334417 -0.189972 -0.043670 -0.227942 -0.111298 0.520865 0.287067 0.451066 -0.034648 -0.263944 0.262783 -0.443084 -0.220747 -0.084374 0.350969 -0.280018 -0.160374 -0.226891 0.388876 0.206387 -0.107985 0.305262 -0.421357 -0.283133 0.094235 -0.123339 0.055730 -0.117404 0.165583 0.273641 0.200448 0.211140 0.087460 0.065290 0.176946 -0.143828 0.061641 -0.170086 0.463700 0.438195 0.127570 -0.577271 -0.022078 -0.395703 0.194196 -0.449841 0.452521 -0.257543 0.017184 0.040852 0.277121 -0.303903 0.291956 0.444791 -0.279966 0.198486 0.012540 0.321156 0.199331 0.290821 -0.468536 0.197761 -0.098520 0.242292 -0.188734 -0.192667 0.016432 -0.213316 -0.412107 0.220833 0.034448 -0.762461 0.510722 0.190461 0.238513 -0.123495 -0.175698 -0.031618 0.336023 -0.446405 -0.469881 -0.188319 -0.088616 0.317498 0.046372 0.026626 0.317523 -0.007756 -0.523299 0.023982 -0.025564 -0.117540 -0.177756 0.179510 -0.082835 0.890938 0.147730
516 0.454678 -0.317230 0.002678 -0.364795 -0.154802 -0.240200 0.184162 0.130990 -0.036540 0.256839 0.094067 0.284806 -0.275286 0.021301 0.235687 -0.350584 0.032765 0.446182 -0.003309 0.223784 0.155996 -0.038187 0.069950 -0.018856 0.491829 -0.507754 0.024756 0.412817 0.193527 0.044103 -0.179184 -0.297255 -0.205075 0.153511 -0.064827 0.014845 0.328881 0.127463 0.565014 -0.114403 -0.118531 0.250236 -0.272217 -0.122548 0.173918 0.535214 -0.062992 -0.045260 -0.271750 0.066025 0.073158 -0.046173 0.217379 -0.346731 -0.344132 0.273514 0.162061 -0.056147 -0.230005 0.194367 0.202667 0.185578 0.409007 -0.012527 0.039900 0.068863 -0.210056 0.109034 -0.315873 0.336797 0.427512 -0.154428 -0.402525 -0.097881 -0.040346 0.218727 -0.475522 0.239883 -0.255078 0.192598 0.126281 0.321393 -0.244378 0.157629 0.673340 -0.076217 -0.041874 0.162572 0.282946 0.127702 -0.078716 -0.747448 -0.083114 0.189461 0.059360 -0.255765 0.239442 0.134682 -0.087955 -0.442342 0.362409 -0.061655 -0.646295 0.343798 -0.027250 0.531683 0.036430 0.028498 0.027910 0.482017 -0.400560 -0.410082 0.123034 0.110356 0.331627 0.036822 -0.092412 0.482045 0.109729 -0.055480 0.250135 -0.079450 0.168815 0.050498 -0.125116 0.212068 0.800833 0.208562
3125 0.723592 -0.030654 -0.124103 -0.711332 -0.204960 0.067487 0.217731 0.582694 0.457120 -0.403285 0.033012 0.320027 0.517990 0.091267 0.015628 -0.220273 -0.336420 0.354807 -0.286155 0.001765 -0.576930 -0.037778 0.385365 0.521229 0.101047 0.066582 -0.056563 0.170146 0.366487 -0.230432 0.102110 0.453274 0.107465 -0.739612 0.167354 0.276400 -0.010639 -0.272082 0.825433 -0.508548 0.086535 0.215814 0.039847 -0.317195 -0.113602 -0.297086 -0.372538 0.495346 0.518747 1.062047 -0.349308 -0.154880 0.114539 0.036971 0.622536 0.346212 0.059710 -0.201853 0.479660 -0.118777 0.632732 0.446726 0.149505 -0.647542 -0.026406 -0.034107 -0.257151 -0.247632 -0.514150 1.088542 0.717576 0.731452 -0.383592 -0.469967 -0.181446 0.223688 -0.666586 0.922255 -0.408426 0.497387 0.322450 -0.929719 0.176875 -0.050763 0.149707 0.078647 0.147963 -0.034155 -0.674015 0.258038 0.030886 -0.023137 0.181213 -0.247018 -0.391930 0.071403 -0.413764 0.205575 -0.024026 -0.898617 0.062319 0.158999 0.414089 0.488498 0.390564 0.424106 0.340135 0.052697 0.425081 -0.210517 0.091156 0.093425 0.137008 0.338867 0.343826 0.907607 -0.207431 -0.361688 0.240594 -0.136131 0.678394 0.869193 -0.278497 0.289818 -0.424543 0.475977 1.010633 -0.048018
202 0.207461 -0.365010 -0.287547 -0.430834 -0.058968 -0.794288 0.028858 0.213447 -0.128941 0.297220 0.155553 0.047217 0.808031 0.363950 0.146900 -0.192441 0.008108 -1.099046 -0.724388 0.242642 1.005150 0.183356 -0.212613 0.241072 0.109101 -0.010811 0.153225 0.016741 0.080565 -0.218852 -0.572914 -0.470084 -0.120524 0.141134 0.405293 -0.215826 0.304405 0.003428 0.179231 0.016743 -0.304322 -0.189789 0.441134 0.073794 0.302024 0.278899 0.217078 0.694998 -0.228184 0.152230 -0.056626 -0.399036 0.447543 -0.083678 -0.401850 -0.526761 0.424204 0.134657 -0.322859 -0.010872 1.086043 0.313955 -0.108548 -0.595294 -0.088045 0.215626 0.449687 -0.415655 -0.148616 0.414593 0.785612 0.157355 0.164730 -0.281975 0.474294 -0.252750 -0.398574 0.494480 0.291927 0.841491 0.211129 0.325077 0.240945 -0.126539 -0.202081 0.101880 -0.266862 0.247734 0.254294 0.229441 0.072719 -0.421945 -0.740881 -0.099332 -0.116707 0.817122 0.352104 -0.093171 0.325393 0.299232 -0.139096 -0.047942 -0.389722 -0.143002 0.613658 -0.227677 -0.593656 0.517987 0.176720 -0.002118 -0.303078 -0.452540 0.079142 -0.791949 0.290758 0.604445 -0.022485 0.932833 0.083381 -0.107230 0.348975 0.343634 0.461486 0.328967 0.517435 0.250768 0.235802 0.065297
1216 0.130072 -0.173192 0.112865 -0.139127 0.650835 -0.398410 0.263173 0.147258 -0.339545 0.107447 0.258962 -0.038030 0.522187 -0.220959 -0.440524 0.028013 -0.364078 0.461619 0.185126 -0.216837 -0.307659 -0.459565 -0.127563 0.392427 -0.049239 -0.205041 0.379730 0.114502 -0.200573 0.212281 -0.524206 0.037079 -0.568228 -0.525720 -0.163847 -0.250528 0.001230 0.027532 0.440772 -0.658505 -0.646152 0.486463 0.360088 -0.581651 0.695481 0.008273 -0.276288 0.325474 0.497270 0.723082 -0.270793 -0.035559 -0.513937 0.061270 0.285220 -0.193509 0.044602 -0.701886 0.078216 -0.326000 0.670674 -0.124704 -0.166619 -0.432405 -0.350819 -0.385640 -0.653344 0.131382 -0.028141 0.429429 0.930473 0.384892 -0.363612 0.643604 0.524435 0.311114 0.410291 0.600821 -0.184479 0.035208 0.255912 -0.031237 -0.494134 0.271936 -0.270286 0.023398 -0.172397 0.463712 0.113780 0.567211 -0.023621 -0.241515 -0.120502 -0.146626 -0.259164 -0.682677 -0.540463 0.038613 -0.749750 0.030329 0.824468 0.236955 -0.432228 0.362267 -0.056865 0.263680 0.121489 -0.457682 -0.008879 -0.207125 0.067061 -0.947682 0.064617 0.190303 0.173609 0.918267 0.405230 -0.169167 0.321079 -0.520425 0.173017 0.178682 -0.247336 0.174372 0.035501 0.902644 0.617399 0.387198
279 0.087254 -0.488321 -0.229422 -0.122035 0.880136 -0.168755 -0.021680 0.459831 0.659627 0.353717 0.966031 0.924346 0.559548 -0.188575 0.506514 -0.722655 0.211239 -0.646544 -0.392498 0.456505 0.330575 -0.003882 -0.094983 0.424982 0.188163 0.169225 0.514226 -0.134027 -0.631786 0.104277 -0.154108 -0.457309 0.364772 -0.625443 -0.312738 0.482319 -0.236271 0.170645 0.582955 -0.361871 0.600416 -0.142596 0.303424 -0.251319 -0.124273 -0.136480 0.292143 -0.490596 -0.432482 0.311522 -0.284624 -0.169240 0.219799 -0.035264 0.035886 0.328657 0.810182 0.201240 1.069551 -0.125662 0.364258 -0.059135 0.068271 -0.080118 0.417520 -0.278811 -0.127175 -0.573143 0.740447 0.353059 0.032301 0.630443 -0.234897 0.164312 -0.278376 0.214578 -0.559497 -0.267523 -0.371699 -0.110481 0.312390 -0.236475 -0.450698 0.234603 0.461193 -0.188389 -0.062756 -0.072709 0.069076 0.119503 -0.153979 -0.004034 0.014899 0.065806 0.186957 -0.355992 0.604332 0.024138 -0.135964 0.197527 0.548237 0.341304 0.401181 -0.020078 0.136337 0.306977 0.290484 -0.529708 -0.043780 -0.974527 0.508396 -0.338140 -0.260334 0.271484 -0.397104 0.032290 0.143046 0.710131 0.075556 -0.210193 0.546964 0.588379 0.354214 0.009359 -0.160484 -0.252482 -0.323699 0.428969
592 -0.321647 0.150117 -0.207671 0.337237 0.358204 -0.436377 -0.308121 -0.530395 0.073337 -0.324465 -0.184012 0.068619 -0.180612 -0.070242 -0.132866 -0.361721 -0.175419 0.106025 0.416187 -0.664842 0.001779 -0.093425 0.178292 0.411397 -0.849062 0.203331 -0.031847 -0.397924 -0.435066 0.112923 0.184168 -0.505557 -0.331493 0.243712 0.449181 -0.415516 -0.393166 -0.388529 0.355203 -0.766003 -0.123650 0.391246 0.199084 -0.127812 -0.777897 -0.319801 -0.205458 -0.173380 0.266404 0.275870 -0.629064 -0.118769 0.283096 -0.464328 -0.763630 0.152660 -0.198979 -0.116157 0.544074 0.119648 0.812481 -0.099976 -0.600748 -0.665243 -0.162007 -0.079684 -0.226528 -0.051852 -0.340929 -0.147727 0.036474 0.594003 -0.128502 -0.048254 0.424913 -0.054021 -0.201480 -0.427490 0.458037 -0.493242 0.051272 0.055785 0.039602 0.261254 0.735021 -0.007665 -0.197545 -0.035680 0.023915 0.577128 -0.417009 -0.816601 -1.128423 -0.152032 0.238230 0.684654 1.188775 -0.609866 0.123508 -0.412433 0.077019 -0.251014 -0.347831 0.679778 0.537075 0.039418 0.365595 -0.495654 0.196610 0.012952 -0.266193 -0.125685 0.285095 -0.342243 0.010030 -0.117094 -0.200985 0.190802 0.873103 -0.382428 0.823455 0.666233 0.357690 0.528250 0.101647 0.266889 0.186746 -0.125047
2072 0.031652 -0.158633 -0.190222 -0.328779 0.155281 0.232125 0.332121 -0.223864 -0.831513 -0.211596 0.866048 -0.411615 0.059675 0.606864 0.054352 -0.268859 -0.019406 -0.348359 -0.063127 -0.091446 -0.472236 0.175940 -0.478661 -0.349198 -0.226663 -0.345863 0.334789 0.097566 0.441839 -0.597144 -0.115657 -0.115014 -0.164022 -0.395220 0.112292 -0.653971 -0.187674 0.416453 0.590353 0.007356 0.096121 0.587193 0.202236 0.337807 -0.512407 -0.126774 0.223070 -0.137205 -0.149253 0.167999 -0.006706 -0.123809 0.481710 -0.379494 -0.853630 -0.381483 -0.333519 0.013244 -0.899050 0.035820 -0.372173 0.355599 0.381228 -0.463207 -0.791824 -0.527763 -0.091115 -0.343865 -0.516797 0.428957 -0.277548 0.156063 -0.128213 -0.280586 0.700865 -0.475658 0.401967 0.143421 0.157634 0.540210 0.209150 -0.002493 0.091840 -0.400135 0.195422 0.233068 -0.476133 0.092096 0.264299 -0.062556 -0.012261 -0.135096 -0.604576 -0.125200 0.109055 -0.546054 0.743369 0.099620 -0.531581 -0.327483 0.452192 0.112793 0.842484 0.046591 0.493927 0.578614 -0.034800 -0.815778 0.379290 0.233192 -0.527674 -0.373720 0.226796 -0.191644 0.255394 0.867890 -0.422709 -0.487839 -0.277668 -0.211425 0.171626 0.506573 -0.061141 -0.033591 0.180173 1.074996 0.443881 -0.274793
1004 0.737314 -0.141486 -0.059406 -0.312773 -0.137497 -0.309283 0.124949 -0.012563 -0.175215 0.232289 0.422446 0.332490 -0.448260 0.456691 0.536562 -0.024786 0.154628 0.125407 0.216984 -0.007233 0.306412 -0.260408 0.121357 0.353760 0.128242 -0.607329 0.258478 0.168017 0.532297 0.281107 -0.631489 -0.287145 -0.457781 0.066895 -0.150938 -0.297530 0.295689 0.198650 0.193764 0.266702 0.086035 -0.149509 -0.173491 -0.335689 0.140250 0.401378 0.123124 -0.350274 -0.320536 -0.031806 -0.126709 -0.353340 0.702932 -0.493913 -0.101827 0.285708 0.148838 0.246521 -0.441981 -0.061052 0.139512 0.046446 0.262832 0.099714 0.126504 0.121943 -0.198961 0.214225 -0.401968 0.328994 -0.206605 -0.221591 -0.116591 0.170919 -0.138155 0.105175 -0.378743 0.583385 -0.357760 0.131266 0.106725 0.385561 -0.304268 0.372187 0.579684 -0.391587 0.422419 -0.056822 0.172834 -0.066721 -0.299262 -0.478440 0.063654 -0.105740 0.016584 0.001911 0.112069 0.152485 0.061339 -0.604468 -0.019144 0.103179 -0.398755 0.448405 -0.115628 0.133567 0.021773 0.076857 0.163936 0.244527 -0.728548 -0.522475 -0.170062 0.274877 0.106467 0.213053 0.401727 0.474807 -0.302333 -0.115209 0.003438 0.016005 -0.145818 0.341224 0.032887 0.362311 0.700163 0.512186
